genes,PCA_0,PCA_1,PCA_2,PCA_3,PCA_4,PCA_5,PCA_6,PCA_7,PCA_8,PCA_9,PCA_10,PCA_11,PCA_12,PCA_13,PCA_14,PCA_15,PCA_16,PCA_17,PCA_18,PCA_19,PCA_20,PCA_21,PCA_22,PCA_23,PCA_24,PCA_25,PCA_26,PCA_27,PCA_28,PCA_29,PCA_30,PCA_31,PCA_32,PCA_33,PCA_34,PCA_35,PCA_36,PCA_37,PCA_38,PCA_39,PCA_40,PCA_41,PCA_42,PCA_43,PCA_44,PCA_45,PCA_46,PCA_47,PCA_48,PCA_49
TIGD3,0.01071420892459912,0.001401927526967329,0.002633124137155183,-0.004014535498156455,0.00968140379616626,-0.0031242980571867065,-0.0017923673393326776,0.008347122656579145,-0.009286435109605182,-0.013522535616842786,0.005734793900963349,0.005161898983460653,0.009264442431999444,-0.0021393855645511235,-0.005773938671040114,-0.009430873664477268,0.010363923520051502,0.013510886240206755,0.0018674646776426257,-0.003493304100523797,-0.014100422641353708,0.019675694154817815,-0.003751444511097817,-0.00031712977941948314,0.0008197435014417827,0.004515239727791289,0.0034001022973890616,0.008036604629355747,-0.019743035030291036,0.008559139406176407,-0.011569418942549812,-0.0009101231846530572,-0.00975922737759804,0.007326910757442793,-0.0011904833503193566,-0.005785723116730788,0.0030511019714374635,0.003926130768336418,-0.010875568386340599,0.0030648643903841907,-0.004950087623781294,0.006507305590515367,-0.007248955469994504,0.0026025715471823564,0.0007957791551012201,0.0024299181308941567,-0.009665145697440185,0.004098746795924599,0.00876018953549836,0.0036897308541044586
EXOSC5,0.022203288059873105,0.02666318538049286,0.0019506241027254915,-0.0010860677166478403,-0.0034328731661111282,0.021469987172174403,-0.013723676753987047,-0.010993547333941247,0.004328694007258659,0.029014821606440647,0.010587607131092986,0.01796503802014329,0.002450041503231979,0.018208244599754814,0.009425755470240741,0.001599164717789,-0.016655903743898314,0.0044065701844420305,0.017544794045573058,-0.0052862221672047415,-0.01141070758305104,-0.018542384261107714,-0.012337514037674571,-0.011569746948048213,0.0014894698764890356,0.0007895167959122635,0.0020289360901794362,0.010778022376098612,0.011321586668020746,0.0078058473317398295,-0.020899775025607522,0.004141878736770848,-0.006685408938737536,-0.008540216557447076,0.020583295570402494,-0.012791959537450433,-0.00784031787087227,0.012457296452283887,-0.009081935821869162,-0.003825662936377143,0.0008895252035817525,-0.00032347395981417043,0.00839457084861414,0.004356519353645602,0.008281850539676628,-0.0020097393354938276,0.005371384694300087,-0.002131649992716511,-0.0002597746636805805,-0.02192658702295572
XPOT,-0.004561824651216631,0.0009378095469228288,0.013139522439248482,0.0008323690912215705,0.0069343904158609354,-0.00912530504474083,-0.010527963233870414,-0.007315569924450845,0.004086420851713488,-0.018356573069903424,0.020920559433777245,-0.006465543688364628,0.01331119332310671,0.010145850032874238,-0.0009237122015440123,-0.001197594122811048,-0.026172245019207955,-0.007806150092547663,-0.002581427663206453,-0.0020216629742574803,-0.008494249461674323,0.013004391761227765,-0.02090083066080272,-0.012401092011858851,-0.00016701757498290435,-0.004974500894397161,-0.014155342042982905,0.011633623736798547,0.008468241576993087,0.0009081873106162384,0.02988038101594611,0.009753867023875502,0.005272366221970159,-0.023194448169990164,0.0055019857071110685,-0.004265852902417684,0.017300583940755027,-0.007218462319273468,-0.0009317932898138086,0.015133233705229773,-0.01342432185135874,0.020678079482059644,-0.011322249478837561,-0.005140920897036407,0.0036964951145636903,0.002042350992155452,0.019124776239843818,0.03607236545610214,0.017552282731478526,0.019537165224338966
SF3B4,-0.015989131132031695,-0.017296797247560166,-0.014752351326720764,-0.005243636599809168,0.0020089995884324794,0.03517193531416424,0.01537767646997549,0.012877884777093264,-0.011805845463637929,0.014055193269672733,0.021141846532893433,0.026160781992083427,-0.0402630766739275,0.02806958623248045,-0.0048675721112964995,0.003815819129663393,-0.001940631199133854,0.044325530938613786,-0.017941197224867846,0.018234727880417405,0.011784778458721133,0.011316216593171382,-0.020077163893517408,-0.024378848151495353,0.011021297550423522,0.0026928984607519683,-0.01585819607765959,-0.010651244395924152,0.0005890910721520889,-0.030784414168356897,-0.045512203654006926,-0.02812800224493762,0.004172543180755963,0.00017006055326471045,-0.008772628948147182,0.008382690693875186,0.0020846721117938724,-0.035142750895841,0.019130983051341748,0.0017903148749185617,0.07641224802306508,-0.012469480046124226,0.009612933485218814,0.0853477151893648,0.011326281767909492,-0.020162303216450857,0.0026011600546131924,-0.0029244817987854567,0.027655678438122836,-0.0037432896733175956
CCT4,-0.01126113557512934,-0.008416347629894277,0.030421522811280292,0.0006330074971393744,0.011940697059165246,0.013726635685139202,0.037270921422808,0.010433329884789316,-0.015794287919664293,-0.022428885178395683,-0.011236052321696662,-0.0030691303367120235,-0.054644703147103756,-0.015543776650895218,-0.002873143041590032,-0.04794590627032817,0.02026472876671899,-0.029341093827285378,0.010814565416680083,-0.010149449346040293,0.0071291300223024255,-0.014744765573347019,-0.0617954389040365,-0.005963944660312253,-0.016760563934650793,-0.005467214429698858,-0.0019335529922733382,0.0054463589544411,-0.014223693224098872,-0.003459619615201235,-0.01579364737432244,0.007729440462907489,0.0022481991334370763,0.02784177790810514,0.014378363620119948,-0.009152687142007737,-0.019006158837945205,-0.024108938695465106,0.048050241104291944,0.033786917821084415,0.034183164550074384,0.04873527099145122,0.005744160204308119,-0.02299067224532668,-0.013328980405194535,0.0007224312949653866,-0.029964848864478515,-0.008735282100066875,0.0339826717075393,-0.017319973152407422
KARS1,0.02638976460337857,0.002653202150999604,-0.007971443830824236,-0.00690368592249525,0.005306546146661874,-0.006808820605084744,0.007998586709490722,-0.0007400223145400226,-0.01640524458772541,0.016989759076254406,-0.014648503300986075,0.023580088260548932,-0.018654468905472812,-0.006529925724948977,0.006127646491840469,-0.03096301567957793,-0.021359288162357912,-0.005585788002433341,-0.03966768866372953,0.008023429919352345,0.035748509047730706,-0.016332742676320042,-0.01998614424490159,0.010003132477974954,0.004751717181344115,-0.008405844657275228,0.00699075621942686,-0.0010975586782329416,-0.001544659140614594,-0.011099085310292578,0.01396958137436437,-0.00585851195851996,0.00029547791879623516,-0.018419217868144603,-0.010953511765400551,-0.04111810354483864,0.021838198995806322,-0.000558770287036522,-0.00866422455926686,-0.03153126847953648,-0.017135042759900257,0.012896143587491433,0.014540414915013221,0.031411182160943255,-0.003821305678538156,-0.005037899723542585,-0.0020287929322114727,-0.0011693083401990146,-0.0011314584442911435,-0.0019710147672336634
BUD23,0.030975351971144458,0.01471770995767375,0.0024728117233739997,-0.01467011873443271,-0.012538182936838362,0.019554566687905305,-0.011028776315805774,-0.042588435607458515,0.004997421437694667,0.02767448167703108,0.031587810095636534,0.006101122447991374,-0.004252363917244156,0.02601175029847942,-0.004751478650611827,0.004081377434182211,0.009399303179255594,-0.0031191112608598276,-0.008604891902213911,-0.022518323851235356,0.02125812146918979,-0.01835472996554722,-0.022570088949219795,0.000627363738901283,-0.01917226889977739,0.018276641743868036,0.0068272799561126364,0.001052146048785485,-0.012203423348781096,0.004319707841110676,0.006148498814148208,-0.005342557435623083,0.0012219615892586353,0.014537109004857881,0.010444596261414914,-0.008059879411442164,0.007710822961596208,0.017996184101905673,0.006468059899255999,-0.001987075954288913,-0.03461645104445877,0.003541930589567462,-0.007752530209854018,-0.009806097259232151,0.02448389900656809,-0.005926605648676172,0.01615879798929663,0.009382889827919063,0.014972290273987894,-0.019708445844833476
RBM18,0.015496038295798613,0.017769981466555767,-0.004980456791352726,0.016701501205596395,0.03473508654356502,-0.0013539720782276563,-0.005103931098283248,-0.008869579822645385,-0.040604391351112726,-0.012195496831443135,0.015495482324903526,0.006407185239117478,0.02129294507290089,0.021759164196765178,0.0022768244775738596,-0.009865636478152036,-0.015601222788848266,-0.0064617987603652225,-0.01804404035969594,-0.008779700659994272,0.04016547248555468,0.013212748055990941,-0.011233292812217853,-0.00871675807701001,-0.010176172776460437,-0.022629936028074296,0.02999805637525678,0.003663952386931313,-0.012886621006589364,0.015293490410118214,-0.01385612338620333,-0.01302022447090745,-0.008511126776523228,0.0007594450770857813,-0.001420935350073869,0.005684795613014591,-0.007491967434971579,-0.006693632824487384,0.013924384504934289,0.009166620912272638,0.008787168666720456,0.00874806595277532,0.022279133241579673,-0.009200274275070853,-0.007250451585606234,-0.015802525174672257,-0.018043048701715608,0.009456906235867322,0.008475430576221049,0.012465589448730498
GALE,-0.007981761433014047,0.006559195050139694,-0.005549881781421936,0.0139002274805459,-0.0010207186202307772,0.005283063722738959,0.02480256579630409,-0.006031588074424657,-0.005649098901123373,-0.003999138944450326,0.009292672284487146,0.0034381528280863095,-0.007503763590655673,-0.004106164163627873,-0.017196441816886416,-0.010530412638924057,-0.010348435456965111,-0.003056875462191178,0.003938576922543226,0.005289410004014195,-0.002408968298485443,-0.00886428216155356,-0.007857398618519291,0.005004406526249104,0.0037161787651668952,0.0007536559983500195,0.003969416984330812,0.013003536516316479,-0.0007092923284993222,0.0038061351952322947,0.00419734690904717,0.0031871597678363134,-0.005980272167442769,-0.005444710509867486,-0.002781814506269094,0.006888438903707714,0.011284689414235105,0.002358214767145195,-0.007866769547852348,0.012155977383317834,0.0016746749311911879,0.02016411729470542,0.0013998113132847557,-0.00013088145048966828,-0.0015903360870798881,0.008902673051224734,-0.01307447745530841,0.0050590405554452106,-0.0004043923544359268,0.006341871656408296
KBTBD2,-0.007954783680812465,-0.010348403287205843,-0.004216439844912624,-0.009413191855251276,-0.018760465913435793,0.009535965757565927,-0.013478743482662104,-0.013187430395742076,0.01780762984425693,0.01931648431660481,-0.033034352848584865,-0.028289940379718846,-0.01604231885429559,-0.004557212998168258,0.0071427472355259525,0.00040028810710259627,-0.003000468016453799,-0.015236633500104324,-0.010768578613898565,0.00019632176745762033,0.020422092094882417,-0.0013820382629006905,0.0007743503220154362,-0.021889212804230326,0.0034915374854587464,0.00013133381620529676,0.0013920050540394144,-0.009761025237681598,0.017776710220424735,-0.026692105687478915,-0.0027713633196686065,-0.005098746594589688,0.007241484320982641,-0.004894771878989915,0.001743996246087998,-0.0045792131608576765,-0.007421439369919788,0.0031461721993799917,-0.010267751770765254,-0.01656663852983316,-0.009298635546837823,0.007467818442428149,-0.008018782420158252,0.0022406932118124406,-0.010944462130864106,-0.026664491636958564,0.0035610663121019527,-0.012217665416060269,-0.011010659254843189,0.0010675246087890075
NAMPT,-0.02140521743520262,0.02244646826801375,-0.08394965959506258,0.049347190483874835,-0.030891724237336427,0.011162864732276453,0.01926321369754303,0.00756306320076192,-0.020725881446280923,0.015097210819437164,0.00913608677038267,0.007725585885147415,0.02963342006488746,0.02234966605954869,-0.020050002682479723,-0.0345683720116242,0.04264307774974638,-0.03587440564731387,0.010384694389540662,-0.01077256004543092,0.030369272095368723,-0.021888700593327367,-0.01573130694149912,0.00555268162151379,0.006570680954209728,0.0032825248656916744,-0.009468977642778223,-0.006356536583297685,-0.041536848417672856,-0.01932517387345271,0.004031970085903035,0.020190739728053318,-0.02928616585560015,0.006225338368586085,-0.027918244270688477,0.014064810757557097,-0.021852321092181173,0.011100646677965776,-0.03757237849981397,-0.0008463936286282935,-0.009248942326442291,0.06123775480145244,0.05325273983673646,-0.02443307395342935,0.014954818700655305,-0.01794180653292554,0.035645354103566784,0.020040609329334477,-0.009052784055035974,-0.0019672920796505026
PEX2,-0.0026827536692170576,0.0015618295466976728,-0.003696794134771079,0.005998876132270306,0.005266812476050324,0.013699408369673578,0.0024299690313219504,-0.01740292505144223,-0.01539695879319647,0.006821219039983804,0.009168610173823259,-0.010266261931102865,-0.010860520151276632,0.016042463187407322,-0.0018318227884914203,0.0028461715316530746,-0.01920922743172046,-0.0009255539081849377,0.022189364811996706,-0.006796080999049559,0.0038128691959715025,-0.017788924530738298,0.0026011805906416235,0.0017740639691035513,-0.004838271702209172,-0.008138997067118878,0.006247708210493718,-0.0017576254474442898,-0.011293685538631025,0.026445243940014095,-0.00121995882025243,0.015189416279333191,0.015404633955334975,-0.014222873932705271,0.0012187254899989244,0.0037880224085478334,0.007941419192509017,-0.006562954934054424,-0.0038835167446622317,-0.017788191134963507,0.01706173139859715,0.007963951035952484,0.01455792833286627,0.005755044161907227,-0.0030214201480849557,0.014390659020371553,0.010300207271120429,-0.0006931581743547247,-0.01162801938493955,0.0011418602040060768
E2F8,0.0033289962045320995,-0.0005167482938718578,-0.006161224408937884,4.287506295447627e-05,0.002217399427461775,-0.001554957348654762,-0.005525110296730314,0.0030253261557830493,-0.0020361552273978753,-0.006592606992727741,0.007812693998067189,0.009161764749464802,-0.004926432385895068,0.00630751775517743,0.00013558001685872988,0.0019571380846341107,0.0017882765034631385,-0.012844586591558583,8.266743080549969e-05,-0.007997649811109637,0.0033785035282340122,0.021162737264162994,-0.004278291704926384,-0.004822265399688768,-0.004831510473293061,-0.004786374822403238,-0.000922623432890695,-0.016726282585763454,-0.02594702428217282,-0.005757452293922068,-0.002196092689901071,-0.005839462850709898,0.003626860418067965,-0.0157717475047128,0.004124188073202819,-0.01130578584924614,-0.013177058207305201,-0.002629017666116153,0.014303858996824088,0.005119963200768608,-0.020254663557393637,-0.0063764157214721475,-0.007187238486860218,-0.0048211212155329355,0.001961701924551316,-0.008347159745398697,0.005019986327341892,0.005776372877497924,0.006393598449849911,-0.0041935477921682274
DPH1,0.006784999751555347,0.031017909665703617,0.005978703676180576,0.004256311034384395,-0.010873366927647917,-0.002526459347808671,-0.0025965862928728676,0.004172918349510821,0.0007297165959346216,-0.005920172654784959,-0.007838816943039456,-0.004132906946292905,-0.010591248886203396,0.02468034742532081,0.00406832734675573,0.026396517813070813,-0.01891780046470306,0.02933781195104085,-0.010318669070322594,-0.0052646127657054445,0.0028223039446904218,-0.015399105221714456,0.011667498482939076,0.003324412577626202,-0.011602861515203603,-0.02267185350048372,0.0026799249213701774,0.01813687902552493,0.027806415894798552,-0.017178819500030182,-0.0027507148411190295,-0.0018334028473672782,-0.003457314113114325,-0.00618545166303755,-0.0181144202557341,0.01964071877507049,0.006500984432942639,-0.011613423669786415,-0.002820020809766658,0.026177816049792517,0.007643600377323349,-0.013101838496078695,0.002830334075707822,0.0053037920541503135,0.026209468171129707,0.004829844676332076,0.021883972774785494,-0.0157523244003488,0.014803655753753689,0.008824787134935421
FANCA,-0.007621945055163563,0.016402450744191346,0.008648785655199335,0.007537964115570875,-0.025578934702334386,-0.01803426519433175,0.001404846766842928,0.00632333083080346,-0.037229740091180887,-0.03557647036977294,-0.0038482377990945197,-0.0008330629068975234,0.016442590758910997,-0.010672748218149598,-0.0033180118448160136,0.010397642233765363,-0.007455267297270296,-0.012460127183365087,0.02730017262875731,0.012446579025572052,0.009240991098543212,-0.013861563159604644,0.0027732959096714587,0.023005697292262997,0.021684269081290813,-0.007244840325225656,-0.01717467800753476,-0.015538964027231407,-0.02825554654553067,0.0061995305525295126,-0.0063529409702498185,-0.002926870263516992,-0.010604149353014944,0.011742612889616389,-0.006726106835191923,0.01047199472406695,0.027969435490634898,-0.0153737604916711,0.004722570703189643,-0.0025592694692863826,0.034807521105317374,-0.02298752962951938,-0.0147897516990893,-0.009497194417507205,0.006497595980216421,-0.014111681412606747,-0.0008354804854563749,-0.03318543704975888,0.012841350117517917,0.020540846293610814
COA5,-0.01888716847615167,0.019695381885146836,-0.029249009830931698,-0.0337953557396923,0.00044986209571267036,0.019301981780443782,0.01932866175551967,-0.03162138997769575,0.005557584999529922,0.0021021986870859,0.0011296747410415387,-0.005136259738498791,0.009479258550330055,-0.011802696778621188,-0.006065384154910422,0.011163997260552424,0.006897104650635355,-0.00891578437316014,0.016776689234028225,-0.009183783727436353,-0.005380657263801089,-0.015290870397516679,-0.014033879044063056,-0.004593731503617048,-0.006054717831231572,0.002836604945776957,-0.012891993677831509,0.00022077617461297545,0.005909649365672549,0.009241985013120462,0.008765308296887922,-0.011088611904478915,-0.005488300741570183,0.0100536759425043,0.016262855902923975,0.006186874880482208,-0.014402768816711852,-0.00053218104770646,-0.00015575800690878735,-0.0190767873401602,0.008594799901046776,-0.006541147166383358,0.00030817993306189116,-0.0037799023620493644,-0.006914560234112047,-0.012207747399549556,-0.00681943372556368,-0.004556465087247404,-0.003915227238140433,0.005763976285564604
SCAP,-0.05005967021498547,0.04117150888455848,-0.012872072310894897,0.09250271956620136,0.10052260274763423,0.012093801938632567,0.02678718840060036,-0.008397493050063968,0.025842157527505044,0.023087396967865093,-0.013215368681938407,-0.010947548981771625,-0.10377298537488393,0.1305898634428565,0.19387366260393907,-0.037434700221978104,0.012691366359074868,0.06905211047313296,0.09510206787873958,0.059961397736744436,-0.05200368772179136,0.020806479008598742,0.13278714107144982,-0.04052933317954533,-0.07590099935150131,0.07311278192374324,0.06789042929820568,-0.10781471560209228,-0.08542318260150676,0.21028919780733255,0.10075968400016404,-0.012627944831567393,0.0688640440242321,-0.018400810413909258,-0.11859924823954429,0.03800595629013641,0.03644484945349745,-0.05477817613692416,0.031305387884942484,-0.028862021962944795,0.043034807361807155,0.021406367119602986,-0.011801469665442247,-0.06617570883669831,-0.01562064932021793,-0.013651063486625288,-0.006351844924119374,-0.039579249317045075,0.025822961535661194,0.01275854358145983
NIPBL,-0.017019010582245003,0.003396161282694902,-0.009010663848926534,0.0008006392354439772,-0.016342522787091886,0.01417009404960002,-0.0098638510394988,0.0019424924862935387,-0.03763556808860518,0.011538747036171783,-0.041421611354637365,0.011713084990890948,-0.03718736515679471,-0.008895812162657548,0.026985673062108702,0.04085330522121927,-0.024376619301391407,0.024226121709711262,0.012853662649175819,-0.022130129267591676,0.01825536349013198,0.02071800484889457,-0.02030935105253996,-0.0004188078881922479,0.014456397183552764,-0.021752686100477907,0.002307641259089862,0.018440486624395278,0.0014974155551610102,0.010765905835044866,-0.006007345325317088,0.01747742856193097,-0.006326554459269278,-0.023888777512245517,0.008908335326600481,0.001668559720244914,0.0022825512967993584,0.021956730534809732,-0.03045460536527812,0.020208230205557443,-0.014063172955656431,-0.0003786567922277193,0.0012564687045252116,-0.017801116205739903,0.007823455644942117,0.014198503421476374,0.007414416787835189,0.02500622190488116,0.04515082517974495,0.026064796147937375
ZSWIM6,-0.006221805188451481,0.0002561586097283177,-0.0045734573060400106,-0.007445094793258567,-0.0063393340936000585,0.016395261472811215,0.0008513383913550369,0.0026659404168418053,-0.00043049247082449065,0.006057779622155251,0.0014557980891584633,-0.0033494665191384503,-0.0001764133498413827,0.0003814706703140877,0.00022355820143658722,-0.003530495116030932,-0.0061780040620471755,0.0029699540215646007,0.007724969820703726,0.0009123257937779831,0.005348066553388957,-0.0008506405785542211,0.0021466966555558167,-0.004311536109499965,0.0008955954490473136,0.005110514193013239,0.006085963777219727,0.013024766722816323,0.006732003019446205,-0.004935866908803226,-0.00435734659357184,0.009389428093519265,0.010107662425997034,0.0007082803244367408,0.0024978615706856616,0.003946959502213372,-0.009698311818848731,0.01477903196534099,0.0010464616885673226,-0.0058181229417617894,0.008044952352462487,-0.0056166414639307865,-0.00902206328718397,0.010142254689506407,-0.001987143989174815,3.459933714528431e-05,0.0023174639907866884,0.005281057907714129,-0.003661222817730967,-0.0065914105649459535
FITM2,0.0023107757058059624,0.004006750532358233,0.004655021666271521,0.008765735207773382,0.014328346261254904,-0.0035499864366312288,0.00861078243142778,0.0034233428793533794,-0.019550936336778835,-0.0008817735511334506,0.011327129585494472,0.010943753747795524,-0.009186862331990541,0.01590087668543897,0.01098774623499353,-0.00041450560716839994,-0.0071583641185046535,-0.00040455385068472675,-0.012467417557635226,-0.012874163414706827,-0.005905562882900599,0.003954766457992089,0.008809457296562111,-0.028642722164027593,-0.0011066975794412114,-0.012780685371822234,0.013969777982876675,-0.012597426923580218,-0.011535445628701473,8.325046515645368e-05,0.00907327706232545,-0.004753857912634088,0.004249669053105871,0.007571072499805743,0.0041885271946602584,0.008075901255502517,-0.016688025307540155,-0.0038915865799341387,0.005997222260672243,-0.002144004593151436,0.012565739175991544,0.007092258097418167,0.010207669539300803,0.004167533340591852,-0.008580029814314882,0.008442721960335254,0.013970893542990944,-0.006750037925044976,-0.001475445504799297,-0.0009594919305794206
INCENP,0.02742256101619319,0.00296855246173044,-0.012029941111191303,-0.011807364689188514,0.0021499374994164624,-0.03091749184228451,-0.026244725227621574,0.02749977739968333,0.008043956635748304,-0.012258961558587071,-0.0037726855105568325,0.021455564872032516,0.013032773576642833,0.005535042555752571,-0.00042534525866633443,-0.018953114473508684,0.01991351656315605,0.013408999929991628,0.017074972393235327,0.008526301483880378,-0.030029359487606058,-0.016821398054569774,0.0054203254001602055,-0.01074700740508209,-0.0042338227418589275,-0.02092755090173957,0.006769145344372562,0.0031541540715012764,0.031297029265208526,0.004733940588083627,-0.009640901194424227,0.037928223489675776,-0.0502161986262578,-0.01317049990884181,0.05806714461414519,0.026829214754972564,0.00281931083208264,0.014644732929611047,0.0026637659065845824,0.027398246668638472,-0.020124011045360858,0.005919227348214892,0.03897119688352571,-0.05202489075298822,-0.001054713239243524,0.035472576713223604,0.047351854566058026,0.001296205988938641,0.005341813328639605,0.01917054591905791
HNRNPK,0.048727417921959386,-0.022393921026263634,-0.02541910197893242,-0.00461397699308607,0.015046272395179111,-0.013841618131104613,0.010836734258627667,-0.0019349796843222888,-0.016111912049782785,-0.014972654945277723,-0.007661801635704262,-0.04429607046281597,0.018782220630393646,-0.013729431858235183,-0.0025721269379746724,0.016079693072429724,0.05567473646510557,-0.00949100812557722,0.020927032348713296,-0.008033793373672387,0.033968756552286726,0.036974094748403644,0.023950022400594267,0.04785555178889543,-0.009016745132667916,-0.06920894333463125,0.018400158678355597,-0.019669426670582003,-0.002052900841183165,0.018138437815238093,-0.0019499931695266628,0.007916392199903872,0.0460895024484706,0.007104294754109306,-0.011481055420311677,0.056745452745445984,-0.009538798226888927,0.014397587873908624,-0.0024653841581754386,-0.038118746868896,-0.004388057503746647,0.03549510797147465,-0.028599115958379974,0.0028253383985710964,0.028540393004394714,-0.004331018876853364,0.012398449267294347,-0.06635321455881192,0.015735374723647354,0.02337476954371579
VPS72,0.014322398814377532,0.013322347958110919,-0.0017918963623043901,-0.0035398899230008863,-0.00869418539034775,0.001142273489975469,-0.008094946760729084,0.003776657355907288,-0.02589319159255629,-0.011735950830489787,-0.0005241312423219565,0.0055139958018419095,0.027078693116388282,0.006732934535600452,0.014916373250815088,-0.004366298577661805,-0.002294966250250204,-0.017019044913929412,0.008690630135674716,0.0013711280365250951,-0.023204748818653344,0.011766048281565892,-0.009093075119243071,0.015397098436783588,0.016508732850173683,-0.005720524334976066,0.010483691171102538,0.0017097435086624966,-0.014822614215644358,0.023261500274572192,0.003106364560943063,-0.00896079062461447,-0.022794128568754127,0.012202347860481955,-0.011808470161794406,-0.007059451449786865,-0.023383696587776743,0.006416698686632586,-0.003731668412361042,0.007049715835747193,-0.003251902349494976,0.007418924717458717,-0.0038827315948422618,0.004823760817533514,-0.00961208655215307,0.009440226967586108,-0.0161934579473051,0.012167084233834483,-0.00736057626658559,-0.001748469150429673
TRIM8,-0.005680445239857493,0.003767014185584758,0.004406519764752398,-0.0037063127300420756,-0.011580545685374068,0.007029899290432902,8.667822733787273e-05,0.020764684703225775,0.0018300516443320028,0.0002889027496530057,-0.007675666490381555,-0.006347802434298399,3.73690818192569e-05,-0.008296459672590122,-0.001832423819262326,0.005795634364016168,-0.001987611314578273,0.014104281951319934,-0.0015805198091671487,-0.007008968156079222,0.00839971370260597,0.006525358400253638,0.007035820924728124,0.0030939853331362352,0.011050441675718179,-0.031434703570389994,0.006840819777224844,-0.02155360051373105,-0.001676173556031225,0.00011396925457513083,0.0068051272869765235,-0.009585931600335738,-0.00912252896157555,0.008582397166893206,-0.009420870736489112,0.008899854831445864,-0.0013935910118460222,-0.02336608861750061,-0.024066834818602847,-0.024221138964730375,0.005983808780765392,0.03172170320050277,0.005184592997386162,0.0017888451083084241,-0.010742280344000798,-0.03194857436141174,-0.01807258418493857,0.0017695828289092908,0.0049736017474133745,-0.002446633677578945
MMACHC,0.002524789934523374,0.003521511403921451,-0.008112512689394362,0.01147807439893264,0.010404409078452128,-0.007653398943402796,-0.0017203135945512238,-0.0028980109223576698,-0.01447306079532027,0.006463928869266726,0.001286522490326472,0.004280030430979747,0.00452060210371144,0.004014329807650591,-0.010373238064412248,-0.016001202401544106,0.01688885057144934,-9.38255529112515e-05,0.0010893816434473375,-0.0025464300686140816,0.008671561974676991,0.010394207284313596,0.012142400885811276,0.004910682790375151,0.0028189036848385927,-0.0013402383196866748,0.004381155254738345,0.0031526739191555507,-0.002163646754020572,-0.010584040320032078,0.003448675079720732,0.000684203584437789,-0.013498735808113492,0.013124399229164804,-0.020240106286487237,-0.004087646835375269,0.012418671480654897,0.009164950849369625,0.0028593541329979375,-0.003652051591046034,-0.0032432484544171556,0.001291626570089887,0.005892166023995825,-0.011821550553986477,0.005702579486438785,0.006851861013454176,0.00035418396454439275,-0.000847463343672298,-0.004167456195200586,0.0016295730216004808
POLR3F,0.053678467752379395,0.00279230066781538,-0.019926788193270067,-0.015534016256579495,0.02283219426369198,0.020690897054785332,0.009517130451756712,-0.028285373681641048,-0.012294845647367386,0.0012442918467865704,0.0047821128468890604,-0.00697179714702026,-0.003146164914916798,0.007470858975917737,-0.009605405597928012,-0.00882641380222874,-0.013142076440258225,0.0025075261601852955,-0.03022839948232027,-0.012143729064687248,0.009594658304660551,-0.012896424290919042,0.0037986476977861275,0.00867052335380131,0.004086667804979814,-0.006628688635255077,-0.005895013371887119,0.016454476309203183,-0.009659626019071065,0.013842917939040111,0.03254885893998369,0.00028652423420702424,0.0008248967804549124,0.0100939415307329,0.016613598789670284,-0.007914198858551543,0.029968083032900324,-0.005359103198742708,0.01153024685262406,0.025176085952146227,-0.017935301623727057,-0.002769341967997703,0.0040611027705153456,0.005278018002460804,0.016735566702376616,-0.02870635415451383,0.013126502028434678,0.007507550107663314,-0.01327115841308592,0.016735111057580514
KIF18A,0.03855108595623487,-0.0037590323936746435,0.05477297820844955,0.04299019880467063,0.08710834963599144,-0.02111202567556415,0.05261308243972963,0.03969572674556047,0.019593058415199725,-0.029555195793906554,0.012010872781012176,-0.06971062086942037,-0.06091123740321217,0.03386729439046701,-0.013885143011865953,-0.006218977640880748,0.02101475092707229,-0.015779602659670856,0.16833191570195982,0.12774801062938515,0.004084510837332485,-0.05722720957550134,-0.012185134535303975,0.017564013750112916,-0.15285915745668843,0.02833504306189298,0.07567634301164736,0.007115489968267568,0.042738768478305454,-0.08787368363024906,0.0867784469859117,-0.0036592524845215153,0.03140058261466837,0.07346638625282557,-0.025615500180479003,-0.11986785687879459,-0.019551666262060785,0.040043558016000964,-0.09198054865504426,0.030865400527160736,0.019425411720640443,0.005564920959521581,-0.010447835054616944,0.05453057553491397,0.10925274744423921,0.05385570736496564,-0.16466176340720667,0.07001997779371773,-0.052925925370987954,-0.013104562050275664
HLA-C,0.00017855534985660896,0.006800919042360431,-0.0022209434634779704,0.006058469790060231,-0.010909951393585547,-0.005944583627412548,-0.006445630763254167,-0.009684545321149212,0.011015431711497414,-0.013134105328348744,-0.00103120737831246,0.004240736275995794,-0.005943733096002184,0.018333856734372492,-0.006112173776412289,0.017556724999246594,0.0034124367992993832,0.004158977426285702,-0.006960785637108941,0.008355679268189253,0.007866185467105945,0.009811458702642436,0.0067966704743121715,-0.00023600635624133884,-0.007969503102520425,0.011713057517726016,-0.006136454918157383,-0.01166753325887005,0.0001506325764559352,-0.015250627361120329,0.0005160572807880808,0.002970332562703986,0.009539002403992426,0.0026938408169942404,0.02289181944254448,-0.019576375034269344,0.007380803202702271,-0.010841373425495439,-0.0039756331472014395,-0.0012624414841202582,-0.008554164422547713,0.004584093076640928,0.014759572879867455,0.014123329733679097,0.013400347435773428,-0.0034883832551561153,0.019063200702797885,-0.013523241901862678,0.010354403328669026,-0.028244486341317484
AMBRA1,0.007563040786984526,0.0038925981514357695,-0.0169728808005367,0.011154329089879393,0.02189392810264522,0.03547715689630454,-0.005016010440569247,0.041401551352161066,0.0003422946035164264,-0.046794420077584296,0.033096312773394254,-0.026499547405538653,0.06643221938809238,-0.000283793254347867,-0.019481904873838503,0.004603469757471757,0.0005067631368759455,-0.012406082845600868,0.01411360210223551,-0.005518844499393498,-0.037548797106362435,-0.01958260808759757,-0.04720328853663264,-0.022459587528461174,-0.06054615250835423,0.019138325694865375,-0.008949413325549339,0.007762858106195239,-0.025971026746524135,0.033668994205541265,0.012249287059158311,-0.015420130910866922,-4.52384891679193e-06,-0.07981271391929745,-0.03539849666866577,0.018270398973805817,-0.008106218501315491,0.0330010965397977,0.05454773082312492,0.007723426770637638,0.005439243863429027,-0.04945556665271818,-0.029580868732865306,-0.015012049597824787,-0.04375407795651772,-0.04327615777447846,0.04115552145491355,0.02688411253140001,0.016287150949913624,-0.010562198719685644
RABGGTB,0.04588276059627526,0.027567166787815244,0.01578356473521251,0.00811418616677713,-0.018278463352514058,0.0026859887931345292,0.009551130371251325,-0.027042558408474932,0.012273466471214616,0.04856267670861902,-0.02165459192640363,-0.0217236437918366,-0.001426335446660065,-0.06290854791515849,0.01034353942767304,-0.00945297104112315,0.013349498509254185,-0.032841512206392774,0.048099025826633966,-0.010329438678063692,0.031880783276714134,0.00640444212356267,0.00030759291885600797,-0.043797173084700734,-0.005102572282221075,-0.030575958361353645,-0.02538766719230768,0.0021666704920665926,-0.021576372753172392,-0.01163601311674379,0.01441503032510579,0.03210397549991869,-0.006303104130412005,0.019337716902528054,-0.006722051200035618,-0.02317572151390414,0.01060787366825614,0.004453754491906928,0.03456426852124119,0.007115320457785988,0.04551594493341889,0.047038929053725524,-0.030881113300151617,-0.022509376497909364,0.016313228170991508,0.010946903040790712,-0.009707173952226776,0.010342080855074248,-0.002248773959291005,0.03403584390551354
UBA2,0.012180835992492402,0.01653891115661414,-0.0010544636804825974,-0.007447065755611294,-0.024350478246842205,0.012808238413144752,-0.017659221321622065,-0.03280075479886047,-0.0014325291370226383,0.012957021367710214,-0.013232611216403546,-0.018369412303311055,0.008053140336631858,0.0014081881079328663,-0.008782883751623033,-0.015642901666516853,-0.009289876009990221,-0.019510438617407384,0.0058997442065682375,0.0002069231236781955,-0.0009177812451433024,0.0021269058744122146,-0.014795995644045186,0.005255877692487369,-0.01226660533930645,0.00447543298216568,0.010097094240773893,-0.00527724027793781,0.0011946423393946765,0.022166478609899634,0.00809634686448382,0.006392730869221006,-0.00533639960899039,-0.0021384399693259106,-0.006691993108312644,0.028678422861399405,-0.0005371216575563091,-0.013083807645297022,-0.005438340117867405,0.009440433094022664,-0.015501315368816531,-0.0020446864082429438,-0.013719520313325474,0.003379799128653146,-0.007335045602897602,-0.004345901677372166,0.006509784824690586,0.005398135484077583,0.0069223108828055996,0.009803021582448786
LIFR,-0.0003118562352472221,-0.0004101618042633884,0.0013140789320654296,-0.004961044713442303,0.002731035729112562,0.006128849838692541,-0.0023070549779689014,-0.004705497095021358,0.005051559423043515,-0.000579194170133928,-0.005752435962845634,-0.0019151963062911878,-0.002642366304488866,0.005948178480564761,-0.002020503636681931,-0.0037534395837334005,-0.009343998104844159,-0.014439710897799881,0.00029630793856539516,-0.010894707582746256,-0.0033807728713855776,0.00231386191991725,2.640698090788835e-05,7.378519942093418e-05,-0.000805800062694933,-0.0037262324184753766,-0.012309390885175655,0.012129220537776214,-0.008000141716574094,-0.0017281212046097972,-0.007435284772601139,-0.0058290563719229,-0.0004163104130939345,0.014247547762325563,-0.011776877810784568,0.005986760905024343,0.0014185973912814232,0.017380787196721304,-0.004967460065267674,-0.012576633097869085,-0.0014256417494192405,0.0024536201555176713,0.0025550696441917534,-0.005642843819808929,-0.0018492713340147243,-0.0213472013058896,0.0024153201133771513,-0.01449840117557528,0.0035946073852440676,-0.005092664846806465
TXNL4B,0.022345994886946646,0.03752649445318999,-0.012936020348953192,-0.006616029477797928,0.00278452494741875,0.033508955506023154,-0.006933395883955199,0.002268614201999262,-0.029192125514961437,-0.008605310358166928,-0.030863461278787103,-0.0043077584027480815,0.004700947411381794,-0.006320954977416109,0.010831179558146416,-0.010445371744392813,0.02627777570711085,-0.021586481926203036,0.014720135031418903,-0.017965026561556213,0.011449908025884985,0.011566392739306864,0.009558129623365353,0.01508417964450611,-0.010245008897899125,0.012554155439212593,-0.019077887358587012,0.004506550732082577,-0.007720045866505279,0.00844798993730071,-0.0011121572678257576,-0.025671535255877443,0.0012654191958479065,-0.0018575542234590713,-0.00834157698883405,0.011207984264911514,-0.009839139028354621,-0.02269748141132834,0.002223869512300764,-0.03371119282208585,-0.033081648214457374,-0.01820135935967407,-0.018340245393680094,-0.005016081267944579,0.024812183002580493,-0.010776790964636872,-0.013228021455445061,-0.01714673254399902,-0.009514953492006685,-0.016194040991006277
CPSF6,0.006438610946653754,-0.026176070997735917,-0.003100953644568254,0.006241164173896181,0.010823286566740255,-0.004856203178410054,0.012345471941584323,-0.0010339290217040687,-0.021458960060342206,-0.014380052243309006,-0.01364101408873651,0.00035579225493071565,0.011212478146379034,0.003019989026417257,0.005197406416468908,-0.010972184427852982,0.007734589357639722,0.0059709145587973555,-0.0008405819637419706,0.006275811265735413,0.026431677980468186,-0.009807525881223605,-0.007964296608855887,0.026072252405159348,-0.003040779117799469,0.01099510146984506,0.002608082143182913,-0.016960734803309535,-0.008926195158668458,-0.017242066352410143,0.013348994927092708,0.008263250171607572,-0.005070607254847543,0.014043585633844662,-0.005552968015400425,0.0030854720123187026,0.01429563123568778,-0.012472968214881978,0.015432251763687307,0.017036908204820355,-0.015934139116489523,-0.00809059407611375,0.00161565958620845,-0.008764858488948804,-0.016525740626774765,-0.0008227782234526846,0.013383776010376023,-0.0010445205304669403,0.0002654811152500016,-0.016508348189284663
PTPN12,-0.004400315555165122,0.0010207858565559186,-0.004003516841477656,-0.010635891242896338,-0.0024713263785808427,0.0358579764195943,0.0016218454996667067,0.004833098964353336,-0.019620769363379333,-0.004258424782200354,0.018682683477634146,-0.013039553168572231,-0.005228544980177001,-0.00581482566614598,0.004005068613075558,-0.0022796641155644506,-0.005349650247565774,0.02486911727248555,0.015803780290750247,-0.023162322477103852,0.0012769604430882802,-0.022988788217611612,-0.00037466630679160325,-0.0023493614849860803,0.012731269044948207,-0.016321212627515246,0.006181401813654485,0.003217297951328296,-0.006059683244280487,-0.00814479279472093,0.002402273354767615,0.019108718083966938,0.021702769911380617,-0.002060419885517702,-0.0032257432094965443,0.014750928210346561,0.0036871582470548556,0.0109132371869386,0.01614316923036109,-0.0063083200148534,-0.00787705478857753,-0.012228111157816694,-0.0122851498390061,-0.013955539617766965,0.009499443635476867,-0.002487490664802922,-0.011394196844844967,-0.013408033816307185,-0.005279886975422549,0.007741090995967321
PGP,-0.0046351718050223365,0.00810618474210311,-0.008196048193662228,0.006671426282442694,-0.0018359768241594284,0.010173219191509543,0.02066762178608177,0.010258225011277666,0.010156429661098275,0.03910631352314642,0.00023860086488802987,-0.029172888512323438,0.004534974158737369,0.016826948437241803,-0.024752513048683637,0.00974896118434825,-0.0013423969635733256,0.005247199217769879,-0.013591281336761966,-0.031888139853132866,-0.023726152440113533,-0.026597102262749764,-0.005918151488271928,0.00632237751654114,0.014757064735669134,-0.0005458199647632333,0.0029422481627739703,0.01140792523641665,-0.0011578660482139307,-0.033060319603922375,-0.010169641534470418,0.007326926553672297,-0.022801217568864454,-0.018620044805493716,0.038246141554881714,0.013745227907658367,0.015546287124610465,0.011500460999235209,0.003269594289070314,0.005409723947286666,0.019858027338452364,-0.009207713983238655,-0.015615771967586978,-0.00937259008715216,0.01329477592180923,0.029756170356588174,-0.028893269808928704,0.013565708676989032,-0.019095667901790105,-0.017980581970536726
POM121C,0.005288378948577143,-0.000776876893374647,-0.016585593873917608,0.0048639230562236,-0.0002561847827776576,-0.025600393570915793,-0.019778699367703483,0.008111935290238077,0.0005598213866925663,-0.01839573629643795,0.01576343919593905,-6.21899745048757e-05,0.0012982560565005772,-0.010415088214437046,0.0036602625115300237,0.009958147983954235,0.018317330516055965,-0.009597313511671592,0.021889801473478288,-0.011981399168524021,-0.009542687888132,0.004682114530649211,0.009169314417185116,-0.007365165408839163,0.004965869654167326,-0.009459639099137258,-0.009620613752562254,0.008383439871280464,-0.015072138685726459,-0.005728306471113222,-0.01403042012255964,-0.008758812260839645,-0.0024001951829402735,-0.006064917875921148,-0.002837058969187942,-0.0047500072870948745,0.017012852519442193,0.0026816666202648023,0.0028511839435864388,-0.005229250718968376,-0.008230558000687015,-0.02859725352570842,-0.004334807335374325,-0.009115100947562876,-0.006459587138396221,0.012259143468022982,0.009143910227017592,0.015269918444891955,0.007408238778143452,0.035717525099983764
COX5B,-0.028626087512380462,0.022543465514518052,-0.03277086785929547,-0.0455168038989851,0.006321133921005873,-0.0034994485932331432,0.015329668163909993,-0.024322718096687238,0.013412213505528955,0.003299828147166363,0.0012614351494088076,0.0045776276214301425,0.008019261864033716,0.0010340168094844567,-0.007447890187347599,0.01473103657111786,0.017959608689479507,0.005693339918926738,0.011641623143631834,0.0020583032495716754,-0.001834703902452908,0.002453502130512424,-0.015445349507322225,-0.010759989868479116,-0.007134219357732407,0.007319516504091226,-0.0002271211494995413,0.0021168663769881276,-0.0027842901005141942,-0.0030042895135068714,0.018177883874923095,0.006131858775205281,0.0010743412001686268,0.0016782049515592515,0.003356588629153397,0.009611548287897932,-0.006575935088161919,-0.009444781530793325,-0.004623977051865969,-0.019862078927061464,0.020391490675772547,-0.0020023859740334574,0.0008906411537713646,-7.242264936092731e-05,0.0008878875465605398,-0.007404238571402448,-0.004983428544307585,0.01066391877871684,-0.0021291187114244677,-0.011787488952703668
BAMBI,-0.0007159358636300418,-0.002508627142948775,-0.0010113182913405775,0.0008603265844214213,0.010370658937479604,-0.01124838831702671,-0.00711368039208786,0.016877798821090185,-0.005023064276875019,-0.006218661370964818,-0.01344241456716581,0.001780624815773017,0.0038091834424541864,0.001872300185288699,-0.0007185977317743817,-0.007728636575813271,0.0026035858240022807,-0.0023795522390053195,-0.0037218522603582175,-0.02136749101915677,0.005440616263383408,-0.007952263731868877,0.0012924152321066257,-0.002071240117210317,-0.0018577726561308312,0.008472004903406874,-0.030725494590760235,0.011347158239658975,0.011318528436215945,-0.00687385144833628,0.008433688156696581,-0.0035818785078114506,-0.00012091468709493176,-0.00257997592355755,0.007390521224358964,0.0024626014528878535,0.0010300850792041702,-0.008074783285692243,0.0018161700656784113,-0.004317678612544972,-0.010932596536273558,0.004357867298895065,0.024981957534433236,0.0005095942468240375,-3.90009240524806e-05,-0.006040086547882063,0.017361735547898136,-0.0059696547263865946,0.0041707500093026715,-0.018059457739998223
GARS1,-0.014977634152634126,0.01342845025948249,0.00398073958984729,-0.02133687992496791,0.032731849798686,-0.01272556563336404,0.02694488600582429,0.02155525519950176,-0.014053860625500212,0.005550107648706358,-0.01658447251316724,0.01653228099218775,-0.03490183102242078,-0.021238370173603537,-0.021953769475400644,-0.009894661819268272,-0.009233155860772647,-0.012232418751088507,-0.004175649407196387,0.016809158459388514,-0.0075419577355926104,0.003278961155850437,-0.016878260570974933,0.006807159444631941,0.043741585523104434,-0.019208808853847553,0.019552009576879515,-0.004350651209275472,-0.02569461059253053,0.004407711205725203,-0.0011481670958871488,-0.011670649471575565,0.0065916747968599,0.020350432333172866,-0.024815231051578738,-0.014603016579940164,0.030618176633477535,-0.013201852497976672,0.0013836852570142358,0.0025619866697787277,0.009493598968173145,0.011136764334828995,-0.0009951488638448049,0.007797953800317464,0.006848659159619741,0.02154308472406144,-0.01512764381392881,0.009985347971615429,-0.007230607029173708,0.022934756468846056
LARS2,-0.01372345902179124,0.07674868089240645,-0.019488850844194577,-0.05281725342124869,0.04815591241314427,-0.01759436247169336,0.03741192460267601,-0.006236963617874921,0.013489695678052301,-0.018980836807073152,-0.006408024699162972,-0.008536913722409617,-0.002905973403395386,0.000612738666241173,-0.007297470907700437,0.009208680154665557,-0.011400532196017572,-0.002656773546954992,-0.010238429653939521,0.0029346432842938495,-0.004015183846739105,-0.01394899311570846,-0.017105753879273343,-0.008963560763444097,0.015525662123027355,0.022475506887740446,0.009874553781823754,0.00038682648321503835,0.006748290080051208,0.013316499406580974,0.005337189538121072,-0.011118301345098041,0.011679493752839065,-0.009797007552516805,-0.019240148008006136,-0.007407632621334095,-0.015259723756245114,-0.024656437483626704,-0.02459625583787604,0.016525311801627206,-0.0074805994309226015,-0.008832704754163277,0.0035482804790493323,0.03843989804180821,-0.002434254945116341,0.033936321801787406,0.004083867782045922,0.00766391218043583,-0.025147643175178088,0.019986027895659893
MTRFR,-0.017519571827192826,0.010054039664801675,-0.0010218667648297381,-0.02233828633111189,0.010894827997493396,-0.01464690999708046,0.0016272552075769517,0.012412960229877297,0.00950413647542287,0.0001902440394024986,0.008057619404751281,0.010389847425204298,0.013329306215106968,0.004202227777075932,-7.325368032643672e-05,0.008208836400009857,-0.005943242831192301,-0.002242043039112796,-0.005302198822131188,0.003637538471006315,-0.00043409861460191494,-0.0064473423109442035,-0.0029210875655245466,-0.004158555727856482,0.003976268848675026,0.01996113641914907,0.005842460705093105,-0.006830627182737179,0.00761917240788965,-0.008061988609685697,-0.009682293190678048,0.0074944365092277435,0.003842957730901561,-0.009202323066399499,0.010944210556384512,0.008109188327252624,0.001994159956294589,0.010322398790528757,-0.003140206999078889,-0.00460681166183226,-0.0027377729521685587,0.008415210106374384,-0.013408396605981972,0.006670720213317649,-0.012890690362474455,0.01717599007302961,-0.006512685115739815,-0.0029427149291790457,0.002784294314205379,0.005306614842629071
STAT3,0.005742325891350397,0.00551591164172277,-0.00954504475653901,-4.6636142757785396e-05,0.0008845938504188965,0.015183949458629421,0.008863300909272153,-0.015654426254261878,-0.009951616144397097,-0.003988177546229679,0.001253620092038742,0.0050636182238537174,0.0011405793449912487,-0.00325946612247897,-0.005547198180697743,0.0017414914771480745,-0.006754790942055047,-0.0072539375991813645,0.02934195397593128,-0.014409017203468112,-0.014787538913645462,-0.005313721285927255,0.009778631241821873,-0.0016867883152999108,-0.0036272921464970092,-0.014316530191080016,-0.009960505934811927,-0.008716744597894606,0.004211281289463751,-0.009021547549547124,-0.016845057155160156,0.00018351480029534358,-0.0024969188541634968,0.011974709823025002,-0.015602333475139875,-0.009869889183483903,0.015394468480452873,0.01106579278057873,-0.0008283869786864957,-0.01184387520758634,0.0017438451987770195,0.012589957519851279,0.024511299331400282,0.009028719353197552,0.011614673167464772,-0.016977803395677348,0.01574683052882364,0.004963995713419807,-0.008467412114329748,-0.01859887480712557
CLTC,-0.0025309625797510426,-0.0012375730812054198,-0.037164961881534765,0.05295958927626638,0.04520499585648945,0.025515207844866217,0.012553780106999287,0.00818518818760073,-0.014323333089806196,-0.052181653099804194,-0.0042516541561181545,-0.04045378774282536,0.016051926742476533,-0.0806540678698209,0.04339931887530197,-0.04220090058660034,-0.01200510178430858,0.06826040480859763,-0.0018674979090768558,0.013596506679755697,0.049972846223727704,-0.058156665349235775,-0.020820748350682382,0.03800216621209156,-0.010829917228843536,0.03985024154275531,0.015563873002242427,-0.03413448817495241,0.023688403429307194,0.010669641763622301,0.014835539027457033,0.025882353232294753,-0.023662586709096378,0.046634731746579186,0.0027923035895713088,0.010697059779468662,-0.009297130886796416,0.016556320403055984,0.057201733795163905,-0.00036351174819877985,-0.032660028437237164,-0.0015209521374474533,0.06707380847592541,0.013777430435375207,0.047360359414920915,0.04204330716472483,0.03741256345781879,0.018472705278262815,-0.023165263620785647,0.002311658150854403
BOD1L1,-0.0019756641169189075,0.0032152144693170966,-0.0008722526602394699,0.000641478260173051,0.004157421615451861,-0.02079673121967292,-0.0031869425208374074,0.010141560638836412,-0.02088702148989808,-0.011451759405336,-0.009531167611717592,-0.004175398860014185,0.010865152196395013,0.002073088544306326,0.018667236091078135,-0.005637267028081446,0.015233709888303106,-0.009875429077528444,-0.01336638667080445,0.008487000701830628,0.014838914069400064,-0.002420826209676084,-0.013438313977892972,-0.009649805511198954,-0.009650033528316254,0.0035709714063438744,0.0038747382827952,0.007826657151522387,0.009065748783901905,-0.015143140336128203,0.00902127312389816,0.001619161369685134,-0.0030644785239878057,0.005416175270227667,0.006879286772463052,-0.0016746992502755732,-0.003877873695689246,0.0018759516958863232,-0.013331007945405584,-0.013154637986736785,-0.00636810276140989,0.008625337867151533,0.0036323703892467496,-0.0073732219852298,-0.001048697982517257,0.008315003025149207,-0.019437038026482154,-0.005150247858750983,-0.003159232661099041,0.004269646095977767
SF3B1,-0.0005148239046725368,-0.031965900440487194,-0.01212321866097547,-0.0012243032651280594,5.418895172007421e-06,-0.02221489440767493,0.03406071438310079,0.023854161882400842,-0.021199684451812126,-0.04075119448477078,-0.013880356125730716,-0.013004297550460295,-0.008039055207281357,-0.010987264028731954,-0.022625437044434295,-0.00882958115569719,0.016789510678206665,0.04194755680734657,-0.009123397951880491,-0.028462343892028587,-0.02073531183173114,0.004223607411014709,-0.018905834231652274,0.02748479575995217,-0.0197104228414115,-0.022686155706718763,0.0037322298494341074,-0.06038572884278568,0.00943127365050924,-0.009282276178409985,0.015355175483832018,0.05397881211051412,0.008147685078598473,0.014795122255288283,-0.023345658557934,0.00949744915301142,0.0006830265073420197,-0.00629367025609352,-0.01803539030242847,-0.03803750694900833,-0.0041449241478482375,-0.008533330256534107,-0.01686277985447827,0.03504845496618725,0.0033270139902351298,-0.0415372296437003,-0.008633259612680213,-0.001457735194396884,0.01243449911692554,-0.002516206806439132
UQCRQ,-0.019027583171400513,0.004999963811215895,-0.012917618935491924,-0.03001054776832715,0.015718121843297538,-0.0009170844388868418,0.011102355160727374,-0.03146809850410225,-0.0017491577528296206,0.007216235884172056,0.004046737969348703,-0.013488856425365575,-0.00340716627830787,-0.014789779118320892,-0.010429757418614977,-0.011362085934770855,0.00039893774657238413,-0.007813789495679959,0.01131227452183101,0.0015178462409499737,0.010858097650752744,-0.013203781693821548,-0.011472776621266665,-0.011728161161226753,-0.004121329915222623,-0.002764556675557053,0.012063996931860568,-0.004929252439828591,-0.01830835327230087,-0.0028239391845364444,-0.002931024337521119,0.0053544588697380996,-0.011446306744256616,0.0076275704323141,0.011880581955901139,-0.002730834276574007,0.0035252303797753954,-0.004117255728751986,0.005730201712248553,-0.0023450556155687986,0.013061046439791783,0.01553059736516505,0.006307044030209705,-0.014260776128977066,0.0002963096208658245,-0.018282574139019975,-0.003313475763257799,-0.015433582646743941,0.010353370364084773,0.010401846718831266
SS18,-0.0035223895066067057,0.002808836328210682,-0.0012410809762798103,0.002323630303220645,-0.012892329057962677,0.006786412847819524,0.012375023351617423,0.004957105301437889,-0.00828486560012969,-0.017485241890821943,-0.0070162243840206535,-0.001747110185360873,0.014908395321162355,-0.004023351310196982,0.016070008963339592,0.0053226495731492724,0.01122450873388494,-0.02397417802461639,0.01828788567621999,0.0020439203626391638,0.0025696053560810683,-0.013513809608828956,-0.008064361737098413,0.005468796842134103,0.011107106152542349,-0.0038027260479571758,-0.018534574007650392,-0.000703424118464546,-0.015042896695207869,0.006716986692921801,-0.018480750307892306,-0.0005614238271964616,-0.00010440499716520442,-0.021535844827868172,0.011074055220415152,-0.005028183632532248,0.005651261001665813,0.006304865200033323,0.009470775017045253,-0.0017238098379561044,-0.003976936181198196,-0.010765698363227336,0.0022889738707394746,0.0023161093363359402,0.007339815856282678,0.003854359130194314,0.008583955670508462,-0.004536632463835299,0.024216393991920455,0.00029340403993660636
DCPS,-0.0011993123088781953,0.059700380332450675,0.00022250899742355852,0.019034801077574815,-0.001070188167527914,-0.0061084714817155415,0.0215690594236552,-0.0007328884347815345,-0.021129970682370873,-0.04213145047331611,-0.014340207526300771,-0.027719612209562126,-0.010274300538361843,0.04077420021992035,-0.051290056479074995,-0.000307493248957482,-0.029915467590805492,0.017433056962679067,-0.0013438235732259917,0.02406189678784907,-0.014951181679696272,0.009926595155443856,-0.019064918452678707,0.019558471522547877,0.005828018808684711,0.010632544463370131,-0.00645751966809576,0.010791559043234394,-0.0010363646152910778,-0.00852487522138876,-0.01537288290012513,0.014845769734033776,0.0022361042139592544,0.001749421469375019,-0.02571494553120858,0.003637585167851715,0.0026624315504093147,-0.02190599998831548,-0.002573043695117444,0.01167212684986758,0.013750292615019553,0.009429791589680091,-0.0028348004640681413,0.0026017534515500127,-0.0046015300675808024,-0.004976519011646841,0.020143913618673695,-0.010960182869555801,-0.00031876171688250744,0.01852515895706708
POP5,-0.0726718895856608,0.025639975511215857,0.06127518685799705,0.01912870744017698,-0.005330041945824841,0.03435322818010212,-0.05293539917139072,0.008435490580226732,-0.007333326206419182,0.03216748786910914,-0.01897873290986507,0.0216547304349483,0.019813235436836125,0.01595881588606706,-0.041694177108422784,0.0020845851325102366,0.013647342338191246,0.04791448067452217,0.011831935979180329,-0.006375774226765427,0.002632915771493269,-0.012637661175023301,-0.033031723648140464,0.007389998167221771,-0.030449872492533447,-0.014841619011839766,0.030193304613628343,-0.026326923748261285,0.020137262218637608,0.023445204921348942,-0.015935983023105907,0.028220116969290807,-0.00921556881866123,0.011162028919377648,-0.014310250404247472,0.039027295862318644,-0.010994629577101974,0.01829630132402697,0.03788089386534977,-0.00710534212123159,-0.010728741707412656,-0.004524166924487636,0.025168513644134125,-0.023047966634455495,-0.0410620619457123,-0.03649536903829609,0.00760338118074369,0.03134553970244211,-0.031851669677073646,-0.015709257523837877
ESPN,0.0004668768828296876,0.006200934539085123,0.004262164868563079,8.434236614946493e-05,-0.009118971304016189,-0.015289520664460895,0.001308292685432701,0.015193258618242786,0.006381523222897528,0.0006753003401770435,-0.0016077266653962009,0.010679470043738707,0.00985102696472768,-0.007493106305739516,-0.012094458823272227,0.014117741441021701,-0.0032794221309825687,0.006872753002979154,0.024855545387093676,0.0008264599386586621,-0.023299797675917323,0.004114403712809776,0.012360618177194362,0.00952088286524374,0.014562582048767314,-0.003986544326612273,0.007034966519029887,-0.014723501093489699,-0.014371114064941092,-0.014133650544410048,-0.012801018070260529,-0.013774244783929863,-0.019605999130846177,0.015249079923877485,0.005462770665509393,-0.00586747313466448,0.006995694184712976,-0.009800811025099205,0.003974915792443229,0.013549911135678825,0.00011647070293018787,0.006877371935816614,0.02326990372346838,-0.0016523186013504602,0.0018635817278133593,0.008239858717380059,0.0031160057187664416,-0.013530167710355586,0.01569939651374938,0.008674274104544704
ALDOA,0.04404846222276429,0.027939888443616504,0.039519046646516544,0.004409896049101845,-0.012187102207585994,0.011360475808519881,-0.0015365737679834347,0.04558973357793508,-0.007033234418346039,0.002497591594057057,0.03896958056195934,-0.006310786650941092,-0.006958241448685881,0.03171687194925213,-1.7059902951885003e-06,0.0247716960644896,0.02422037446217716,-0.021440913128036646,-0.05691404497970311,0.0013606571939953837,0.006710931807880221,0.005924910646782997,-0.024788797457901565,-0.03220050613271281,0.04099798276304677,-0.03412791027398256,0.004009074662128498,0.043128930891136244,-0.001705551126342044,-0.07232991495396628,-0.0034581565463820112,0.023358966283480498,-0.004886250885641691,-0.05420183135822956,0.06734242408664262,0.07092530373155312,0.029949415882015232,-0.017872173810689392,-0.04490889453956836,0.020437634911931412,0.041792856769966934,0.015499298580785277,-0.05150796427056979,-0.023928934358280377,-0.047770365340715756,-0.004273789631848358,-0.04066660753043696,0.0013499830551099773,0.07603380928046363,-0.024833550134228877
ARL8B,-0.0008417821261793337,0.005652174913573852,-0.005242086482895356,0.0062892448749931685,-0.015149442739339566,-3.514906225639133e-05,0.012010093869313121,-0.0184523140354641,0.004208872578735072,-0.007056007983520114,-0.0008395070926409999,-0.008276910056978757,-0.0112842358911006,-0.00633763883288116,-0.0006122285474613048,-0.006441540766372897,-0.0066210068119141405,-0.007598266790308674,0.006062808699243362,0.01576389453779533,0.008221735594575213,-0.004132897010070931,0.001008216806805853,-0.00882821405404781,0.009852562962320137,-0.011445795972452419,-0.006840295661482377,-0.020373755502491,0.003032391758327203,-0.009202232002508939,0.00372038147847104,-0.018203711439394935,0.007571109231056283,0.0026453225776276526,-0.0035279052635737063,0.005736288428261307,0.01593910814478884,-0.012900431091189716,0.01536456246981798,0.02152176835022566,-0.0003214948043802716,-0.006485568232045883,-0.0036829909401932667,-0.004501521239604142,0.023525205303042872,0.0011472627651811873,0.014789804352388027,0.0024160927077847023,0.0041036104781614294,0.00019255121930329927
COQ2,-0.04023361733399241,0.010957493180200338,-0.013495061774344078,-0.030776648061111456,0.01190214325967684,-0.003865633156823905,0.019329719550775677,-0.011498929857445852,0.0011635630238256884,0.007475074080865374,0.005811732165067791,0.004554075397071546,0.00970045174905071,-0.015165356415372987,-0.021683219956641114,0.009511980256073948,0.012539747215153184,0.010458029692392196,0.012704003967605213,0.0025153280970797824,-0.002000064442197621,0.0003824494032633558,0.004538692212772548,-0.004106206583972834,-0.01885979753503704,-0.0073101198788506705,0.0044581636184931476,-0.007996138772987204,-0.020483580984555525,0.014698549581856074,0.016574785758813486,0.007180454345280662,-0.0035071570219790816,0.01366424705483312,-0.005060320905997713,9.727310119722111e-05,0.0016168957814832001,0.006804852211805999,-0.002225850136067667,-0.007984120758392516,0.014318276927265708,-0.0015291772532868364,-0.00370701458251183,-0.025048877534832314,-0.007682219935935777,-0.007744429418521536,-0.0034117611261164243,-0.008448996758532293,0.005199572752071414,-0.0004625597882139545
ILF2,-0.005259399818387831,0.01983442038898255,0.021057167174560302,0.011669046801205755,-0.002994621608814353,-0.0037013610764089593,-0.0024202410900508826,-0.00987245883477926,-0.026900729467787314,-0.002114231961122452,0.01226936369780972,0.004650385798960968,-0.011649568420344095,-0.007151236061834758,0.004926450127668519,-0.006687116657330765,-0.0060022414140357,-0.002749096597376526,0.00944956055218037,0.011334073553182177,0.009825814060223557,0.028482728468712363,0.014296243952768276,-0.006177664481433571,-0.015771521193399994,-0.004075526951032632,0.0002818799964695434,0.011826570224964666,-0.01097235034061655,-0.013112609931312974,0.038769322613413384,-0.03538604937361076,-0.015077772379582018,-0.014874813992802627,0.012023934384060143,0.0299366961450958,0.014950593510024444,0.014980493326029326,-0.01395480912470394,-0.02456903112903834,-0.009862753145978701,-0.009523756339730191,0.006108421713511877,0.00930371301893646,-0.013509272956804628,0.027542321202879735,-0.01817492190698598,-0.013165171776686958,0.008584980451605823,-0.0013221250968440976
NCSTN,0.009225462919054966,0.009163944715134193,-0.0032390292176041283,0.0046875606261572765,0.0004276324527619178,-0.011066349730378169,-0.008714656565352889,-0.005070003783533557,-0.002602776007960965,-0.0016671308370728908,-0.00828201320710561,0.004225052995601811,0.0034543535028081196,-0.011553310810134313,-0.003184486173177021,0.00524777590859196,-0.007260852644367626,-0.0006879317476208071,-0.0008722698120094702,0.016207493144092294,-0.003960860733956981,0.015852427691118002,-0.014259625801080965,0.005131713684060271,0.00915813649139093,-0.018543687360770746,-0.009942676751744683,-0.010848961865191034,-0.0070127891773977685,0.004032335660345373,-0.012611491419755157,-0.012628547225867539,-0.018962629629390992,-0.0021911394880620894,-0.01834665292112407,0.003250009137905623,0.010246167227839172,-0.0005346771348356796,-0.017338715665700617,-0.008304596727565955,-0.00810336262847189,-0.003184800206173815,-0.004903194523306561,0.009571520995509536,0.0033455617136612754,0.014175413771238923,-0.0013313988800795701,0.017075443300392422,-0.008547543456750593,-0.0010424088427522919
SNRNP48,0.022047209772072612,0.0024903156018829652,-0.005898769237301924,-0.007344514840175207,0.006390779855873605,0.012947841803088625,-0.01951383248019288,-0.012453830701449432,-0.0352963222671241,0.0131709762724784,-0.03819899368352538,0.013064167687062356,0.00922458595294198,0.011975174411449378,-0.006426741421487908,0.008528508486574488,0.017310313528650072,0.01876016776381709,-0.0038620554272859797,0.010784641685433857,0.0018523626569847454,0.006496171170916044,-0.01377036032766297,-0.0038503389387335493,-0.01559355370090527,0.006779521728549654,-0.02252779488625626,-0.0042906896764080766,-0.009099893179971098,-0.016084563653435833,-0.006373546876773966,0.0008467106572740347,-0.00018911007838748114,-0.002331189028130727,0.00824494646274467,-0.03656328737720865,-0.005746624555587295,0.0023305407692268193,0.0011069142157117138,0.002711172232526391,0.00646295598097144,0.011463335535025179,-0.02272815509322039,-0.009814881927244428,-0.0036725859776373117,0.023894653541790878,-0.0041906556403157325,-0.015888844608665943,-0.0008054717464491781,-0.013770032334375239
FBXL18,-0.001183956936194866,0.0024262134817516993,0.009219398973968257,0.00631526802709982,0.008738375156385968,-0.004523800926808655,-0.00166201780179296,0.014235313366539189,0.0075478491981030545,-0.007480736570378312,8.111299308611548e-05,0.005477360883914995,0.004837905673268254,0.004789000449406382,-0.006609393435124021,0.012954066841295611,-0.015077030982929606,-0.0015010135787555485,0.013650946284008536,-0.003075556459033388,-0.015594722071831376,-0.013156596664411158,0.00021508663295265854,0.011657559276685362,-0.0038452955868018336,0.003794638624806715,-0.008098811292112143,-0.005712755452594046,-0.006896850884394747,-0.019251487636349016,-0.0010677198369127006,-0.01139527927575818,-0.01751701223125472,-0.0011291933263107082,0.0026999565497955024,0.00016718112138529577,-0.006765718981706861,-0.008088214104022398,0.014454264499335644,0.0008634781573924485,-0.01846071295339245,0.00035743818800594964,0.002883383681104541,-0.0033260950529245352,0.0092430483119394,0.001733296265255869,0.004273321182296162,-0.008314344100243044,-0.0041564539356908625,-0.000829659997055024
NUFIP2,-0.006384535273587916,-0.00018714582061374324,-0.00505709389311976,0.0008825973493423281,-0.0008477501977077186,0.01392551346723927,0.010935448526940304,-0.008474178857421962,-0.011716146450766714,0.004081987748116735,-0.015727737896742464,-0.010560128306294459,0.005181470886837911,0.017894934732951416,0.01730442269258467,-0.010479045102986766,0.02337686862133222,-0.0015644224850127238,0.014320268021757485,-0.00010074560869873691,-0.0010444206108621444,-0.007078238811116326,-0.016723431937683792,0.006758720844261684,0.005072369200718381,0.005913800657252064,-0.015162953919371466,0.012419067444002604,-0.0017805655009207255,0.010090886478705312,-0.007562824780537128,-0.008873012291102317,0.011306561417198368,-0.017609956817323538,0.011561982665869708,-0.00023242107573602188,-0.026704886798341203,0.018685130195529646,-0.011452485179097506,-0.0010493409911890383,0.0020621854816727913,0.00034679782613691076,-0.004187224747973096,-0.003222078849330571,-0.018554781243332024,-0.019625046471593157,0.004632520500319116,-0.01897759576533334,-0.007365205091008724,0.017268210655213473
YY1,-0.01004129085625161,-0.011856034168286072,-0.007354841799087079,-0.0032339383870392847,-0.02069163091099508,-0.010597395689367137,-0.012297456379638883,0.017013724211492224,-0.002684670484516964,-0.012606739278111028,-0.04523738554032816,-0.0041327931013862736,0.029623149966076658,0.0023850571222443972,-0.005562679525588114,-0.0023139603127200568,-0.004993467944106268,0.021686280118241707,0.005129670072823563,0.007393769398114199,-0.019795888746907072,-0.012953005143437476,-0.008652243421425516,-0.012619532339135766,-0.025789818698322076,-0.002852466781198209,0.002065169810844999,-0.006416468375170716,0.0032533263013249944,0.006797231477467934,0.003185282089900132,-0.011863165266340786,-0.0056011173047293035,-0.01497253144463592,-0.013394892519483217,-0.02195156252387804,-0.01709830942267956,0.023285554451436596,-0.011050050684476889,-0.008262372951847676,0.018514698339016616,-0.01974071478527038,0.0017119805548613195,0.004885741369581404,-0.011374285539362282,0.0004058462840066901,0.02543446138396456,-0.011875211458647802,0.045199332726917285,0.00686801610271049
BCAS2,-0.0012322222876013718,-0.006598345813713902,-0.014581694070113371,-0.0012731341621439992,0.025180338419660074,0.028300925191335397,-0.005529459009138737,0.005069109285448469,-0.03410910158710167,-0.0033610278759805923,-0.018828331946787596,-0.0009143213152784327,0.011645415510234656,0.028840769645043098,-0.0024548190316410028,-0.004898999710741771,-0.009258584699071655,-0.018743392233733426,0.01199294673451161,0.0017712686226824354,0.004524174693663795,-0.008190265703320175,-0.022783831794280656,-0.009255558924309777,-0.023867686009931884,-0.0015815226602385584,-0.045930970693385004,0.01184563155316434,0.005703068871430128,-0.002861772155489403,-0.0002902067838794907,-0.020582657808030064,0.006843445330597867,-0.010354014885619569,0.01798812056016227,-0.0036325957330855213,0.002261957407769373,-0.020242834799434315,-0.021414094876570606,-0.005903237553145702,-0.0051443537102103185,0.0009966375476629216,0.03539489980115895,0.0014569122276941594,-0.012741812437286282,-0.0022637248243580956,-0.010922704619809827,-6.771425722001223e-05,-0.0019353462412661057,0.018582518548361394
NOP2,0.02235589980822278,0.02692216245417913,0.01904793218804784,-0.011174099384387771,-0.007815916061501595,-0.01499513862503901,-0.029038508532665333,-0.03217749984451191,0.014348942860039992,0.01753591056467424,0.02283781850580295,0.001818161478828205,-0.012813450452777146,0.02183563013641713,-0.0043381328425980015,-0.0037588354018775103,-0.004494070556895615,0.02740716646856798,0.0011373884617478084,-0.018004536045666493,-0.02403177740461746,-0.027669667322816754,-0.006683057274851918,0.009351510323013467,-0.0014531224176222981,0.018861129217630973,0.03977944305783609,-0.01042603332245428,0.007438383730175145,-0.016345954636910135,-0.008410182790746902,0.00634383607621018,0.00148114617605076,0.03732622624552985,0.0072343678128063875,0.020024434193170116,-0.0024719395145243366,0.010890369436491916,0.012226643299488867,0.027861191405090923,-0.02879528926690516,-0.0032809058227482933,-0.0024099199164323267,0.018248009561397178,-0.012010027377788345,-0.0006371805563075503,-0.007114045374940241,-0.0018727480519095732,0.011775837247427687,-0.0010081275850849225
RINT1,-0.008744100663405547,-0.007061183667130731,0.012943132541777553,0.0029103081588904697,-0.003736354228975658,0.019590134126627353,0.008740411653567386,-0.01788099300312952,-0.0016513608242602973,0.012479508881606363,-0.025048302033561922,0.0018731970249890163,0.02995554649842254,-0.009242239906174711,0.007173027234847528,0.0028947346633577866,-0.0166724708568254,-0.005648108658262677,0.010072577263362534,-0.02414143659118823,0.0063284368346879566,-0.03209484795579225,-0.0047664922747407005,-0.05221066900142796,-0.014209867437726379,0.020223688183046904,-0.006470368178098862,-0.01279169373537017,-0.005887451281057673,-0.0057768180433505996,-0.007903937041532895,0.015198785560415217,0.004923464577920755,0.011785244829454778,0.009490893165565065,0.02572201846062301,-0.01087561501816683,-0.027676206792866247,-0.013498389292975433,-0.019862781062860033,0.005472244453593324,0.004730791544457013,0.015548792230142867,0.017479777689720314,0.0027384351109325245,0.004628702395917096,-0.02908114333529161,0.016915674938457036,0.019890253982029264,0.022513135179521606
ALG8,0.015812153447844396,0.017547583587134943,0.01999087832000966,0.013336708243558863,0.008147671773083549,-0.008962390031014018,0.016712936505291032,-0.019701630057440606,0.004527139815457472,-0.029759908266347234,-0.01929828278525691,0.0014507510825835324,0.009535956860815308,0.0008095431670986882,-0.02290888327024554,-0.026469458831569807,-0.024582993334098593,-0.01656076830093836,-0.011793275712582879,-0.0058141006325395745,-0.0037009351074148832,-0.0002468940491559515,-0.007153190728281067,-0.027688119143780252,-0.00823537769009533,0.016413322130128475,-0.003166494617757194,0.015120611523049212,0.0026140016843982164,0.0030853987881870335,-0.0034530668271874434,-0.019516639987872314,0.024305671018100855,0.003163723231505118,-0.0023313309078637507,-0.008215104424438655,-0.0030875822226677885,0.005597014450336183,0.014406688395207144,0.014875546540401144,-0.024997209847368064,0.01317897458376115,0.01123579275035098,-0.0006758954591615487,0.0037879950649639875,0.004381200719847251,-0.022235779741348383,-0.027559685469621124,0.006441025933645334,0.009690331479512695
FANCL,-0.008831167288084514,0.011469881851316376,0.003454896850612766,0.006265691450703125,-0.016290040403557804,-0.011306403071387288,-0.0019738786667082026,-0.004671136018020521,-0.030709919796632897,-0.02980493069062436,0.0050234372480012475,-0.004548010169500345,0.013109030131167496,0.00144094600225335,0.002864065625612518,0.0169564480088261,-0.0028257383853656642,-0.015477508770564884,0.0017053802200483802,0.0038021967646924308,0.018380075423139762,-0.010611009683624764,-0.015666801427935174,0.009037357145553827,0.015305715705776615,-0.0025968560156781288,-0.010148356977695438,-0.013373401135163705,-0.020173503931384867,0.010836676815030954,0.023958254535170247,0.0168916608730294,0.005543174180832715,0.006345665983659761,0.011356539730880862,0.01607413240528102,0.02185946007022483,-0.006864889286540578,0.003912734524660935,0.003459596634735313,0.020477954265292073,-0.02918368325893409,-0.024107286243431184,-0.006595643741829402,-0.005083770279208699,-0.022754285936472978,-0.004098145642415703,-0.023616042166179053,0.012729002250505423,0.024582618338066926
EXOSC10,0.0007268059146769437,0.01582601924832645,0.02538651496119039,0.002292162571114667,0.004815938472038053,-0.022960247586089777,-0.02973931917212143,-0.0004511513261189972,-0.021100570926106076,0.01345451798693652,-0.021762508878875975,0.016546948780086463,-0.002608551209247827,0.03173677919426465,-0.008405598718876271,-0.0009105709406945138,0.0028353172388646364,0.02385441727864048,0.003981383913287236,-0.010061970275293704,-0.01937281444546321,-0.025890407456337583,0.009516478739778785,0.014088005744177581,-0.009624566134770661,0.029776909672967925,-0.014975935579669098,0.007047682691138644,0.034641030452951055,0.009130180970370518,-0.011324220507318501,0.0058471876286780924,-0.02179076196518552,0.015946165690531117,-0.0035361313905341953,-0.005657385458315222,-0.016387579970726946,0.02087296179959017,-0.014258824802625596,-0.013423309463382844,0.0006715772886846139,0.0016054430655527813,-0.0008613046752953969,-0.027138341429854978,-0.0050269317689550985,-0.016680372982834715,0.015395849019056237,0.002913784871464635,0.010761385166341541,-0.0012964997455051312
COPS9,-0.019623401652763824,-0.01014898639364475,0.004176156854186814,-0.006250733607582113,-0.008749869448618103,0.011709254878910181,-0.0038866536695877497,-0.01357240421147842,0.0045660823244737915,0.012090442551971557,0.002775772058175343,-0.026822372785643582,-0.006877960343942811,0.00652959879859551,-0.008714596814480268,0.0012052616945252453,0.0009709800715347664,-0.0022609108154281322,0.011009811665205003,0.00989378311655112,0.022543357860840937,0.00010452675380503724,0.0201431080470461,0.02088532632452498,-0.002872025763576972,0.012100133294729054,0.008606051823185867,-0.011348165004325996,-0.023207603045013365,-0.014926468423108265,-0.012482314140632911,0.0014673790920634929,0.010079686483932265,-0.012815917287187891,-0.0034175599654355814,-0.00407396926469914,-0.009383464815560068,-0.0043634362238791835,0.005443520288579279,0.003806600946492034,-0.00017103556060930967,-0.003973074787809588,0.00959688071331591,0.006569456423252213,-0.004335524915367433,0.0029323462159956204,-0.0036861401875045593,-0.01101358632072514,0.008422062649458256,-0.0022692758321408873
RAE1,0.01381146431704065,0.00982885616707139,0.0015556267125953472,-0.003154501912864302,-0.001003056860390003,0.004229322092879821,0.01191047825137061,0.018484940818098018,-0.009635373544047154,0.023948506781535976,0.012898163267785482,0.015020913752456438,-0.018491803085833546,-0.006783814134932348,0.024217398994914312,-0.018619288878901057,-0.02495728533354957,-0.011906283105335319,0.001337665742772155,0.0196853363300359,0.0075515152726387405,-0.03103481677804038,-0.019553507212662264,-0.012936739611299087,-0.006972346459434969,0.04963636702904797,-0.010592519613049552,0.023278474701935146,0.03838874313628337,-0.0034762281597708806,-0.008459424975362527,-0.003686128277589024,0.011822437913849583,-0.026963359346173502,0.0208278716502525,0.00031313561677896056,-0.007025183731271283,-0.008207108694821646,0.004290599635385511,-0.0020104540228471504,-0.02295865747311006,0.02553265485919368,-0.010495288068869011,-0.004343022562114631,0.004266598547954984,-0.006391698596281669,-0.02254349562628591,0.016528690361333056,0.009996557756462786,-0.006374726816836245
ANKLE2,0.004238811419433408,-0.020620774872839753,-0.019225274524016876,-0.015675056019884677,0.0023585586494511267,0.03256678224093244,-0.011247453539201363,0.026899651656882875,0.007055891406360459,0.010574829809379896,-0.00010485754235520942,-0.006951069486817066,0.012310587181948747,0.03874397321631362,0.01940342935023937,0.002865765547238342,-0.04727940280550652,-0.012716239213189175,-0.003922363476759532,-0.006345032598117663,0.05772615284807112,0.008249614259967751,-0.028632100474324015,0.03560102719732447,0.049192762591130236,0.08423909596309188,0.030013768370649323,0.014168072881747155,-0.05067287821653438,0.03894108750052479,-0.01826586579997715,0.009400523643481616,-0.022659882364171133,0.02572700672825116,0.028905964518849775,-0.03486913238045802,0.03941856462554543,-0.005099983219923212,0.040595093791843236,0.057128257333579326,-0.05917314543903078,0.009973916233415793,-0.0028918414189746293,0.013886206530730817,0.009048889102639773,0.01337417830185236,0.0015367442533231758,-0.006001847100385343,0.00713655330317907,0.0381974537672387
NDUFA8,-0.03152750197878678,0.029976143527160784,-0.026779259167297415,-0.07424162014666813,0.0445899699356973,-0.05177438058627032,0.01722535957918872,-0.003205558840536013,0.0025812869717705294,0.01230902175106895,0.005960396996947088,0.017796739718214476,-0.005653180899143983,-0.03733567238736353,0.004511248493533653,0.025697804269933375,-0.00559970973652528,-0.001056093450911588,0.019371644461004128,0.022350907019728666,0.013254238832276319,-0.008966414715892776,0.006257861310643878,-0.023412671790594943,-0.008018273701284648,-0.0030190302728399366,-0.005604484885601162,-0.017128962502567378,0.020100477967971174,-0.0016070857846333204,0.010243886429817413,-0.0074625434833268285,-0.007477268967222159,-0.0020614636517136413,-0.008950042110720985,0.010444203689641376,0.001159805172574257,0.012775290023107568,-0.004232438308356685,0.0006099868586662781,0.005710809693126644,0.011726796991667838,0.007795871059379435,-0.028393464054813015,0.012067099967657898,-0.009436604831480518,0.015589357945284408,0.0059506247660924255,0.011088622146114625,-0.010845007669988076
RHEB,0.02511210607754946,0.0006096508211738967,0.0035686912309834703,-0.00407776617575462,0.018001465304326145,-0.002858245662506958,0.03355143780104303,-0.013792206834452668,0.020484008358280934,-0.007141793570307711,-0.026112583872401205,0.007112582398580422,-0.027268475175520144,0.018778149402675498,-0.011075769055429745,-0.0017346611245826345,0.014915376258954283,-0.008929783502642412,-0.018492746818744826,-0.028857824708776823,0.025036836536959237,0.005571823599172948,0.02956355623941529,0.028441535590862724,0.01959608609122539,-0.02674462431637503,-0.004144197239631426,-0.007936209255391404,-0.0014178897163046563,0.0009188085207350397,0.004195454391611368,-0.017395658213207047,0.011681625266919822,0.001561494357131572,-0.008267836389452611,0.019127772027618378,-0.02015132808023435,-0.015147431270315797,0.012574162961818434,-0.016914474450824755,-0.003863010494350085,0.0005837700367904109,0.01940594489527109,-0.027075052262852305,0.016664442528498163,0.011472098041502553,-0.024883813325369653,-0.011513177839790634,-0.02192268628059038,-0.015505277725430438
GAB2,-0.0017270431918533198,0.0004110953859910588,-0.00751176161145512,0.00494167090146505,-0.007306479456623564,-0.021450874188245116,-0.01170946398161345,0.0005277859703234476,0.0075809404546095475,-0.01016001560683132,0.007430101140811102,0.012488313390509497,0.00019639480111029536,0.005564581228447882,-0.00422045170339589,0.0007238343471053309,-0.02306471052559476,-0.0148966664092077,-0.002514557064811075,0.023128524468830156,0.006873830718387197,0.00901363399847311,-0.0019255019034401292,-0.005524139564286423,-0.007114544905149239,0.004360045385947746,-0.004517195374056206,0.01687047073742928,-0.0005523275518855571,0.021298438237119657,0.024244251013763016,-0.00723723399450719,-0.0010074613924047513,-0.00545772098985433,0.005071080939432145,0.027431885402066737,-0.02149070877307659,0.026273703754412403,0.03214789164417353,-0.013477935906588735,-0.005060841151624046,-0.003369605240247667,0.0163587203273137,0.015532065322659442,-0.0060086861281525555,0.0009762835561284884,-0.00585129806373777,0.022019801698987238,0.0012595806950762782,-0.007638323121415282
PEX1,-0.0003254339321188655,-0.0014093002974946782,-0.007503242418451676,0.015734972973863337,0.01933628491499092,0.01879467671701507,0.003150903741007151,-0.019325249608389106,-0.006873342387925724,0.00958375801251818,0.022324617168606065,-0.007374890216721535,-0.008861593512554495,0.012412868660026522,-0.0064291657831124244,-0.012569235897558893,-0.031799862698579894,0.006433393159495958,0.01293639732937195,-0.013841482402673348,0.0008983004058205168,-0.0267574494278145,0.007732694134212321,-0.005223360273260232,-0.016491925227003414,-0.006591076059451006,-0.00011677102382439487,-0.005798015019019323,-0.001666198952510733,0.0424662281390472,0.019917768860043535,0.013985292784472116,0.019530308507108234,-0.029517754531894026,0.01478666968334342,-0.014778663344889809,0.00704127984658574,0.014144265237891121,0.004663457069892999,-0.020498287027162967,0.002703071653722968,0.012306863726695823,0.027264352205166466,-0.008440254201135734,-0.0014165927471917993,0.03595948041915832,0.004032367825629672,-0.00649456520860542,0.0015940107026351082,0.009296275897334519
PGBD2,-0.014362436420469126,-0.004611798260799562,0.0030506075791108265,0.008431291373346946,-0.004409956579109922,-0.026389217948595105,-0.012976506267452096,0.007601969980817901,-0.004070580208680819,-0.0015365407256933443,-0.0022536489686715683,0.0054735853251638295,0.007792606151996897,0.00950070116166722,-0.012424302403369631,-0.0018947992647106225,0.003877237340758084,-0.011849500437054631,0.009275289031256573,0.019894143822901934,0.02622219119122405,-0.0028734355184390306,0.006048678298868193,0.010210008035080235,-0.0065900708159691394,0.008410625443187013,0.012737782366241642,-0.008037368531043972,0.005559360738391942,-0.0147226696305945,-0.01633353980700944,-0.0059903710826803855,0.009210185394599099,-0.02567278062987797,0.013163103413505132,-0.0020023476865670244,-0.0003126982834623516,-0.0109736025246853,0.014557557999067562,0.004583987761386101,-0.009575856012835353,0.01739899791687626,0.027404538005616944,-0.002174586580320704,-0.01691635728013009,0.0024242541090326052,-0.010948500534030244,-0.008671674618367318,0.00906659613195812,-0.006544571604519526
HIF1AN,-0.007244034122889378,0.0015581273324940417,0.0008419719181334387,-0.001061711439535168,-0.014747679228385229,0.010725945049850246,0.023464143893258283,-0.012718456204553842,-0.0016961506340031096,-0.0005042323786025432,0.0007643587276888633,0.0021900471616192285,-0.003979721070256935,0.003948584358356988,-0.02089442487105084,-0.0013172529213205198,-0.001725215439615834,0.0181284087916497,0.0034476560934242825,-0.010975407713749413,0.0064720834300542865,-0.0033821599150084133,-0.008028142637640123,0.013632088120382281,0.005580233006735573,-0.011137892772811048,0.019176771021818757,-0.0035728390510941658,0.012023551305013782,0.005932086700939702,0.005176153630543302,-0.0035787884961477725,-0.0022080987182391,0.016436421327911555,0.023423784787339554,0.013093962989133841,-0.003711731656533123,0.008003466447874632,0.004364061332186081,-0.00554947956513437,0.01396480098578805,0.009076239450110367,-0.0056886963185468625,0.001916174877741326,0.002780015827280983,0.016448751828884896,0.0011996148332248718,0.0022232605306539855,-0.013028338190727632,-0.009812642165975763
CKAP5,0.053295420274226825,-0.005342092735753302,-0.019120661531171278,-0.004161768955018507,0.012092326294664436,-0.009885142143236084,-0.019349682459551428,0.04466839504931058,0.020772368672371044,-0.03788327484025605,-0.010711419153506822,-0.025748746950818698,-0.003255171682413876,-0.02560428264844361,0.01540975345343669,-0.005040874004828386,-0.0026149741843579386,0.05019104036912306,0.021183774269429356,0.013926507009598268,0.019149916033454655,0.010214146984987989,-0.02514858673034648,0.01904702752716234,-0.05855026479979137,-0.009283040638295059,0.008846415109828622,-0.05301790425934425,0.013757656080605364,-0.011808190661867774,0.01341056431505501,-0.023619159358096796,-0.026871528207329843,0.07240532226150831,0.028556266030402358,0.03537640704572073,-0.018953598124239458,0.010840122726192638,-0.015103026170184473,-0.06840706556108941,-0.03477524964397462,0.0199462232248423,-0.005986538938650603,-0.04614644880037257,0.011979908039723335,0.028214697552021425,0.04632814670643591,-0.02563496975512966,0.009715249208384229,-0.01886327462513672
ISCA2,-0.04851147013691973,0.006124157687064116,-0.02089980872074666,-0.056778680010770716,0.02731437958921005,-0.01038139602565108,0.033208271638219586,-0.02692620506922089,0.01164042562028145,0.022972206594276234,-0.0022519416991551803,-0.020731424094992904,0.0038424976920879684,-0.02844828221938762,-0.0031296961901227183,0.01888226991589848,6.139821581491328e-06,-0.008823232934470075,0.014303815828324271,-0.011795883665617457,-0.003685251273106937,-0.017138661723027974,-0.003952766429031212,-0.013120610687268922,-0.006807808015624442,-0.005512240544477702,-0.009481838695007374,0.006875844982337353,0.02093088273856071,-0.00479438835079773,0.009567448765052713,0.006245153756161314,-0.004093842182240152,-0.007527650306404085,0.014831613533240296,-0.005697964749645686,0.0029605097036088874,0.013982438431119196,-0.016116079626839846,0.013570832224884111,-0.005484605089666512,0.004873381775821013,0.012860469509812376,-0.007892373740619308,0.002226861625795866,-0.01707757825212716,0.011829673903140204,-0.008178486280257132,0.006322501052041078,-0.01998712299117507
CSNK2A1,0.004068629002559498,0.0015181684886885229,-0.007141695007074838,0.00848494581159866,0.010197766105024209,-0.0067050450992951005,0.014909423941703847,-0.004363407956462438,-0.015798397284857907,0.01543912428550713,-0.013491385082592377,-0.00535087973303022,0.01812952889486839,0.01059241384116966,0.014066627877224696,-0.004019032779295657,0.015889001874993768,-0.019379349787436384,-0.026625989780908615,0.004421218474708567,0.0038086920864356466,-0.002776625173705548,-0.0020035710313289824,0.0020763578063856944,-0.012589071200131157,-0.005926395069832396,0.0040605590480142255,0.012300245603615263,0.006275760359177252,-0.003725351069929012,-0.009386200806300909,0.014852506209014476,0.01524193875621258,-0.010769400092171557,0.025543756935504616,0.004947594272845758,0.031116091106026873,-0.010320911454509595,-0.0018546188594577996,0.013571562855145101,0.010803655635522708,0.035072371596381276,0.00597438928673668,0.006692309073131227,0.0011732148272984638,0.014901805454493362,-0.016887988900972303,0.01578706140924204,-0.001842902822255474,-0.01992435913987897
RAB10,0.007000070679003467,0.010407198249941456,-0.03932626486663045,0.06762236680440319,0.04552000746652553,-0.02013157309382591,-0.017327013797961033,-0.031346337116767625,0.036057750664371335,0.01921155431482224,-0.06821797183812996,-0.01839550707882688,-0.00251612899613163,0.031171363640104387,-0.012759040938972063,-0.01723931830604279,-0.005491665333556618,-0.025251400423303157,0.008501739059196985,0.04609576916846627,0.0566658501600175,-0.032125633911056876,-0.0003620097408745165,0.0021076556869741806,0.024060324887933148,-0.0013649251208485826,0.006926694697366145,-0.016738967944390833,-0.013017481373500605,-0.011533720120149644,-0.02526178820659951,-0.009766990149794364,-0.04159554438048334,-0.004457059981170626,-0.009254057531882966,0.0073066345501138176,-0.01729415063802455,0.002922387760757089,-0.01238806046696685,0.033625935919510984,0.035711150354376615,-0.023694281732554827,-0.03792467332455945,-0.021749762440329234,0.01820888111594209,0.011283523368528356,0.016210695075877614,0.053735765420080385,-0.00241310669027413,-0.012559117855434917
XRN1,0.019662906963430874,0.03556365968714406,-0.01052012440188485,0.016119643615744916,0.0015114168209015722,0.004603173275538621,0.005276097541912973,0.031531603774614614,-0.027702550486111668,-0.04770615824728298,0.007158723567184296,0.007928648629747683,0.005977867891600832,-0.028991639877857616,-0.011313734658148155,0.020265385234147993,-0.06392610306257884,-0.020120986926230648,-0.024150780688210742,0.025274452521466616,-0.04925525669221988,-0.010602136336483868,-0.04049960627429431,-0.024534339522318482,0.02001210030423312,-0.016887345507629454,-0.007371199085565091,-0.0734480212683967,-0.0006922424175135139,0.015504137217004178,-0.03863385390107002,0.03504877931837166,-0.02129354788408897,-0.01678096091979137,-0.016542889242297496,-0.030810860079334576,-0.001278682320587661,0.0011053273813094488,-0.01572832306290086,-0.006250628087250332,0.002304545837663076,0.10238905348554243,-0.010240579838762871,0.06865235120824993,0.033210573484168435,-0.02679500987212836,0.025109736974225985,0.016909641308228168,0.049693792926212496,-0.013298224497311053
RPP25L,0.0012615994445343188,0.018145822249576227,0.040702384340821386,0.00015914812291625523,-0.04932343865276165,0.015672469288870325,0.031805651125904305,0.006164029498409458,-0.018567797775662198,-0.03177988444976891,0.027109587574541464,0.02326218900368359,-0.01879301458527433,0.0083372555001814,-0.009972746926627404,-0.01979533387066963,-1.8109247574946687e-05,0.05723780096695343,0.042766938401657094,0.009808707077440304,-0.019165007177467885,-0.05492411482464423,-0.026462441395775062,0.01972884801495928,-0.02576036313601602,-0.02316811299802388,0.011649301991583979,-0.005147784472853224,-0.023725774451604436,0.0033811122212369232,-0.02117859639457484,0.04543729983059471,0.017419097848389048,-0.003262249130408247,-0.04869784145923129,0.01834573957179407,-0.01880176885690977,0.031879170010742024,0.012688793692393554,0.01313098177972126,0.037677486616563144,-0.007715258458122088,-0.016685327467191497,-0.011593531307765139,0.01691695275446563,0.03194205120805917,-0.008025249810150977,0.007323429490217246,-0.037576640681671505,-0.015246643487230987
COQ5,-0.014118067817082107,0.01767103531858894,-0.010099443933587209,-0.024855246864408077,0.010840054594894174,-0.000385977550601726,0.015949096089355925,-0.019462095744754642,0.0021263455808076762,0.005002908873191135,0.006709101846184685,0.004413327342032445,0.0021524642595546362,0.0029315357919585056,-0.0037818401761973487,0.009879402711124754,0.005603141546318057,0.012332886171480891,-0.0042838316128940655,0.008448767489302662,0.016392048047593,0.0007737579382630258,-0.003459850387040203,0.0007670885950180571,-0.01065025742602338,-0.0013107385920829349,0.0016636616298034575,0.004565979234972236,-0.01307754366699236,0.005392064324660171,0.0024352344764269076,0.0009158069327426343,-0.0020450746024157844,-0.0027845008228356703,0.003740712054165072,-0.010518564235175018,-0.001975326669820025,-0.004864915208198017,0.014158925505971786,0.0004958050092488528,0.01230309974030358,-0.006933745796098302,0.0012718340260891236,-0.00887392155652635,0.00908676641424211,0.0006547175361159461,-0.003910534768981814,-0.031056257600697655,0.012745306831791838,-0.010358075196116128
SF3A1,0.0038879874060721133,-0.03653845756499164,-0.03469019370526022,-0.0005769447323457894,0.026531829537430968,0.0031102241849187053,0.024173017280272966,-0.0020021302961921736,0.006006751699972756,-0.035109196759776806,-0.002920041065078877,0.002927950449910648,-0.025768832836068754,0.00284896973525447,-0.0033059850938112374,-0.03329514715072285,-0.03023876272041769,0.022262895670197645,0.012284207990913525,0.007310111318470284,0.05507654715018253,-0.04921863504650023,-0.023916665239860368,0.02066255986559092,-0.03283539632946655,-0.03657394122753011,0.002007135300369401,0.002967358122191831,-0.008737239662829525,-0.0007276175614689739,-0.006960311623795796,-0.0192481917101903,-0.007561786690954594,-0.0042876865251260405,0.0037330992208535374,0.00807945738300567,-0.010115549506534906,-0.028851030727706298,-0.015937366974939863,-0.010647783207997277,0.006841178188685336,-0.02233936904518234,0.005488007095935609,0.01367332498453582,-0.006587979269756532,-0.019117771675991622,0.010707685621856552,-0.03005381468020124,0.013716020984792611,0.022385163025973334
UQCRB,-0.01771738514781079,0.03714002618209996,-0.031094895109253656,-0.04472776568335498,0.002221071743972592,-0.006976942236577611,0.02468416149716366,-0.02770200060885099,-3.7664850191692435e-05,-0.0009789565341872194,0.007690864192302554,-0.010481071329784283,-0.005385650570848368,-0.013173865136692536,-0.025888864885566323,0.008874612264662305,0.003873917190134795,-0.003941166818831676,0.014063812360687983,0.01659281868649121,0.015358251260594247,-0.0047272842521544085,-0.007176669385478427,-0.006648907777503344,0.008175664590148023,0.008069474806019192,-0.005421850373046583,-0.0018146562971293719,0.0035133119764139712,0.003420192169122006,0.008648127801583584,-0.0013515228669073384,-0.010421900273248247,0.0057266915494311255,0.0024991817717109578,0.007174180882295603,0.010674298616285903,0.004515953319176318,-0.002737182704165857,0.004983673755912235,0.004758823962917787,0.013560012751860315,0.02515865813502271,-0.01340963009634056,0.014140759840506008,-0.014164677015296856,0.0006546032252667712,0.002347097430008391,-0.015298466216781601,-0.006007351880264039
SUCLG1,-0.010548375783716936,0.00624954601941996,-0.002779583602849626,-0.007199152013838989,0.0008674093046746906,-0.0006770500826510059,0.015473906483702345,-0.0020973974064314145,-0.007312581044401726,-0.0037510445428061757,0.013737288743984468,-0.0010334884619020983,0.004154349127513359,-0.00059962956509881,-0.005503054542560332,-0.01610384175211352,0.003029890901065109,-0.005541110886102003,0.00909171130362663,-0.006246157035193877,-0.0018537301877334057,0.001641163824993276,-0.018316914453688223,0.010610106611396358,0.0007762372053811143,0.0010651211218136334,0.0026092476281180063,0.0013028424192869138,-0.005701637927276076,-0.005642132600585727,0.0018332235899142465,-0.0015499831182712361,-0.001925501473838341,-0.00315746646963819,0.01178296088045208,0.009686237604820432,0.0025487666725903446,-0.0068803015095746205,-0.005144815276746893,0.010553672783186554,0.009778726694465029,0.005987160581993969,-0.010007818708858064,-0.005537421507047079,0.003515978524140019,0.006414306311526026,-0.012680577428228392,-0.008732341019181716,0.011594500435500787,0.005217430297354678
ARID1A,-0.004108576744013579,0.011865843961485089,-0.009269652280868965,0.0007162654681818535,-0.021400120337569408,-0.0008015166923084977,0.02265871135420752,-0.00474235328468398,-0.015605310654028343,-0.01683850097578238,-0.026994576100521535,-0.0029283246721731535,0.011820593529644556,-0.03203867931815193,0.008791728146347171,0.017057133690949796,0.020609246155744686,0.004552000048378422,0.01062536480481882,-0.00026666969840526106,-0.01621122766894317,-0.008703599229434708,-0.02760301000738275,0.0072523613420386,0.019400101602664865,0.0006685778202388978,0.01473770804401639,-0.010312031359714742,-0.029753371087650745,0.0014246633119526615,0.006522705531990335,-0.05163881977696428,-0.015601724597251914,-0.006978819379075643,0.004616650367533442,-0.009347890390359952,0.006730842798199891,-0.011291801446847877,0.0016861729920168904,-0.020591104355539715,0.008008335115247858,0.00032747598513213047,-0.02982608578579784,-0.003385033965368895,-0.0056281228592805115,0.02054126851045841,0.023508455175992773,-0.005676558474672071,0.03485026563536694,-0.0004244930798602406
SOD2,-0.0753097895082675,0.03551720534902391,0.0038906669232067433,-0.010636655689924236,0.016683984597796176,-0.020514507481479205,0.03610616186723908,0.07234474327088297,-0.0020584246511584294,0.04308565918316716,-0.02637724693716988,-0.05138598775486729,0.04710514276702035,-0.03236383766009348,-0.009609361276293634,0.01161629506879308,-0.032578975682779794,0.059475380711462716,-0.07234463831408582,0.025019499112549273,-0.01804631381137945,-0.06154953850061608,0.04954028848917818,0.07290432079660236,-0.0657624262494042,-0.014401424797653398,-0.06566381628762298,-0.05198551662012836,-0.043228818302886315,0.013716004477230396,-0.04634499149625184,-0.0752828511987799,0.042104777635696596,0.011901604184663888,0.09040901623661432,0.033854074166875026,0.024426358117575753,0.08470355344804446,-0.06149968894187085,0.08358943049211036,0.0028242653885001846,-0.05503659545398401,-0.0956390030516176,-0.025348172586932675,0.03346160921411416,-0.11587046689249764,-0.00755305048123908,0.02932059763383044,0.027617849937735015,0.015123661129728863
NDC80,0.006666918469777494,-0.030272860309161254,-0.019236829041487113,-0.01606608272866336,0.012974974628700153,0.003140322304033222,0.007753411898050701,0.00989549834698602,-0.020681541156114973,0.004390272035127548,-0.005740212747307915,-0.033485227850164764,-0.03215560594459362,0.010156155420567584,-0.016774804762756352,-0.005542413962427721,-0.00942682046393059,-0.010568723345811626,0.017102827721547573,0.029626226551576127,0.030057455713505706,-0.016382018987000164,-0.020452988704696255,-0.007061551425601191,-0.00853940017967849,0.0041177488693547384,0.02112775087342293,-0.009083209487587746,0.014653523840462217,0.0041585091029536616,-0.0012468611362147514,-0.01661300214876295,0.0010256079612461374,-0.017625186546790888,0.011444799692836313,-0.025138950063453305,0.017166132364912906,-0.024722471677064754,-0.009576484633699207,-0.024721796269769628,-0.013053015078466354,0.0121893382653682,0.03450698485938072,-0.008236576325174374,0.018181043978677872,0.01655401903994482,-0.02964215646132035,0.009383240686533914,-0.00407592426251152,-0.018664127766501913
CSNK1A1,0.017753998390761652,0.010512920179782158,0.003927538114228797,0.0007997282800883657,-0.008563090848197964,-0.032290047477678,-0.007709564502818077,-0.007381754763042367,-0.017128702915560633,-0.03699684287582199,-0.06540846332361049,-0.01484456490387658,0.025025409621783765,-0.0142519425490661,-0.02956977774105799,-0.010962925352120245,0.060777980999334576,0.029897463293057376,0.022870859155321152,0.009551332476390477,-0.007717715951425602,-0.023750648778977524,-0.020365628758320434,0.004605284408819324,0.0021803364302579674,0.007081472578082001,0.009727277347405715,0.01458365114316707,0.04399822032258526,-0.030176163372430172,0.02115129869522549,0.012225923660766129,0.0037572821912840366,-0.04323638670712835,-0.008873540979976922,-0.014128565716754278,0.03526963297270148,0.047879437193778907,0.04667499476720779,-0.02226059199666624,0.03903613946794453,-0.004278838437074786,0.006704074143501495,0.01996721450770244,-0.03890752772091593,-0.02153470288510063,0.030103834649682006,0.028966295395151956,0.007480847381845627,0.02699427085086832
PAN2,0.00759815214569134,0.0028037281040543447,-0.0050373758441324,-0.0025788742774438362,-0.01086106788191153,-0.010850589939900896,0.0009688743045718356,-0.009083069255434596,-0.0015324699287722636,-0.0010943613104885694,-0.002448133674408431,0.0011865545675054463,-0.007292842327452222,-0.009733895553959142,0.0019200422268094057,0.002642737582370504,-0.009579177922216058,0.0008875936872276649,0.005201056057015548,-0.0013825320874770977,-0.013247911494765624,0.0019744871698254176,-0.006128967121563374,0.00574398436130424,-0.008078692968740121,0.010600800735597517,-0.008381670546247565,0.00642307144086301,0.011204961179473694,0.008438217594092691,-0.005219371513313212,-0.0029578826126324454,-0.0056032795784988826,-0.01002889457068118,-0.004492183535769242,0.009051423361220052,0.010814661030171997,-0.010829550004668693,-0.006823497147894701,-0.0056949499428371455,-0.008352323275165469,-0.011099848465438752,0.005746424554615036,-0.005900923173984824,-0.0085819416644791,-0.011169719668276139,0.008785713811860506,0.024889836365290092,0.001445392327935072,0.0014423668171327962
RMND5A,-0.010698407380923411,-0.0143485150694714,0.017712859601870305,0.009444234709214612,0.02780629719592655,0.009144775387623384,0.031222486741735504,0.0016909308194903395,-0.0071716884531802865,0.001903782019598812,-0.0035632620192265264,-0.003478728977928558,-0.0032664632700444944,-0.0013134187231214854,-0.012403328312680055,0.011004788249175274,0.0029389061639727735,-0.014363310624704665,-0.009375997617090685,0.006033742958862095,0.010970062290750118,0.0031500927102654118,-0.004899939629528917,-0.011861588870133893,0.015745016068550402,-0.007379028144641725,0.02604142710564873,-0.0020601568417536365,-0.004553306594458611,-0.015788995759298496,-0.02350504600068249,0.007970109816182357,0.014588397223970661,0.029792908522925887,0.02753889504845542,0.032472776862290706,0.013503894593449656,-0.0023303974205315272,0.003434462123621761,-0.036841096485081506,0.02911902916305591,0.01881682358924255,-0.032476119225713015,0.018569588245749672,0.001960112243006364,0.002793478542681183,0.0007492226636180793,0.013120728079324413,-0.009129033622430536,-0.015504676356049884
CCAR1,0.0015350134384170002,0.014706864158928896,0.021207491467683373,0.008723782640291803,0.030290749595356707,-0.007386182673160975,0.024778558383121024,0.02071829186600154,-0.013971172233817249,-0.01623315928878047,0.01780886567848695,-0.019782374628281387,0.013978969685551502,0.03089525827654282,-0.018143157653351425,-0.0007950141406521679,-0.03955845926311756,-0.01591351798339155,-0.00989073762875831,0.002878886456895033,-0.0037033787698555884,0.006817759269181302,0.004349703737898084,-0.02050492619681421,-0.011261865798950868,0.01081187887743443,0.009302723950966381,0.031208064328967604,-0.01606594150423609,0.021442070321277016,-0.007938090433990982,0.000623706630572834,-0.019313498598803762,0.03449949044279271,-0.0023070030863316837,0.035766167030826954,0.00932580476106663,0.023648837068581223,0.04046599728115854,0.0053979351338786855,0.019401735402914132,-0.012004189632602845,-0.0035556119863562126,0.0004414781062325947,-0.02206272518361123,-0.0035016379786928487,0.009664687684161453,-0.0025579785188349635,0.007115793448503948,-0.0005410548371546385
