0,1,2,3,4,5,6,7,8,9,10,11,12,13,14,15,16,17,18,19,20,21,22,23,24,25,26,27,28,29,30,31,32,33,34,35,36,37,38,39,40,41,42,43,44,45,46,47,48,49,50,51,52,53,54,55,56,57,58,59,60,61,62,63,64,65,66,67,68,69,70,71,72,73,74,75,76,77,78,79,80,81,82,83,84,85,86,87,88,89,90,91,92,93,94,95,96,97,98,99,100
GPX4,-0.027459627,-0.07077897,0.0017309951,-0.09484827,0.07344134,-0.04574015,-0.013463805,-0.0034956692,-0.054086804,0.11438928,-0.0075399256,0.012765184,-0.04962374,-0.10020432,0.035726078,-0.11771287,-0.005422413,-0.009196631,-0.051317155,-0.03187941,0.0814585,0.020653669,-0.046091598,-0.11828703,0.019759335,-0.037704784,-0.12279184,-0.11221266,-0.055754147,0.023141664,0.024634488,-0.036430236,-0.051628295,-0.09252596,-0.07671892,0.033936467,-0.13003007,-0.034594327,-0.065253,-0.040917475,0.034541015,-0.041616004,-0.044724986,0.014535584,0.043690838,-0.08807819,-0.0035190561,-0.04218276,-0.06251982,0.011250143,-0.11324143,-0.020272722,-0.0637665,-0.017719137,-0.0133038135,0.009292646,-0.04624094,-0.004962093,0.023222538,0.018309923,0.07030846,-0.002784569,0.010719867,-0.01783369,0.0015780804,0.0042051254,-0.037844002,0.067119606,-0.052167047,0.10646648,-0.075565465,0.030455288,0.014226287,-0.034358107,0.0026951744,-0.09505646,0.046853714,-0.043901104,-0.106194936,-0.074730724,-0.004049145,-0.02507466,-0.04967156,-0.057215966,-0.027329229,-0.12564065,-0.06583268,0.06324171,0.06849801,-0.1369952,-0.0010644458,-0.02571899,-0.05144068,-0.059867013,-0.047007702,-0.09793249,0.04789193,-0.098537624,-0.07643533,-0.09751435
CDK6,0.0028971166,-0.16336869,-0.048609644,0.013512269,0.0067737144,-0.013377005,-0.061762657,0.044270195,-0.06722507,-0.024670577,-0.043210663,-0.0707275,-0.057104908,-0.07164396,0.018187245,0.013246507,0.09210535,-0.10080945,0.012385941,-0.014874287,0.022788035,-0.102303565,-0.108862154,-0.07388418,0.03978483,0.026795348,-0.040938925,-0.051357694,-0.1470303,0.013427709,0.012626546,-0.10450564,-0.014264698,-0.05501347,-0.07225683,-0.030403517,-0.06937592,0.053204164,-0.12246772,-0.08000551,-0.02013758,-0.076520525,-0.030122003,0.053284775,0.011713984,-0.09409864,0.07198567,-0.12055528,-0.08734199,-0.08267815,-0.123746365,-0.14711085,-0.0299193,0.04857108,-0.0012676932,-0.019054517,0.03212592,-0.06981506,-0.02382572,-0.015587297,0.039983183,-0.051553976,0.03372545,-0.07900434,-0.015384113,-0.015614977,-0.08852608,0.01674028,-0.031135418,-0.0321793,-0.12032612,0.05212094,0.048926055,-0.11920978,-0.0024642749,-0.18509927,0.031318102,0.03199884,-0.15273258,-0.047072716,0.013973556,-0.17000523,-0.13742495,-0.09830009,0.11262611,-0.052466106,0.00020724966,0.031669863,0.063398205,-0.08261762,-0.03207035,-0.011595552,0.032896142,0.024067033,-0.014067579,-0.10981918,-0.040014897,-0.15125574,-0.070343725,-0.05063827
CCND1,0.06840303,0.1707134,-0.10741346,-0.019956693,-0.091244705,-0.027354287,-0.013428686,-0.0029529617,0.020393519,-0.045960505,-0.103481576,-0.030311987,0.08429631,0.16983776,-0.05582584,0.099033915,0.023245303,0.09634713,0.019118672,-0.06731875,-0.07064994,0.003933991,-0.01520952,-0.012042344,0.007711618,0.08823154,0.124330945,0.16076858,0.17042173,-0.017573178,-0.042694043,0.060821094,-0.100763485,0.18325946,0.19594817,-0.12431928,0.13688879,-0.05646046,0.13637252,0.117708415,-0.04859259,0.017024139,0.10262512,-0.037381325,-0.030608598,0.14415604,-0.053414617,0.2052929,0.077698104,-0.07602139,0.12637706,0.091809854,0.08547578,0.047198948,-0.08588257,-0.08853498,-0.015581009,0.14701681,0.020255767,-0.038842518,-0.06036787,0.10827423,0.01598688,-0.058421053,0.023355022,-0.034226555,0.1716929,-0.099065,0.005184948,0.066531025,0.16522664,-0.12334183,-0.019112565,0.10374258,-0.05550966,0.09888683,-0.011333367,-0.08805487,0.091133274,0.090764455,-0.032918274,0.1394752,0.034892805,0.21645984,-0.03679731,0.15018198,-0.13933364,-0.040383995,-0.07969536,0.07970256,-0.15694536,0.088128075,-0.0128796175,-0.03696919,0.0057726144,0.013008787,-0.09406131,0.22205037,0.07996633,0.15075044
ITGAV,0.1042461,0.044185042,-0.06531324,-0.09549001,0.022715265,-0.06257007,0.006957644,0.025695827,0.023272566,0.030976156,0.03530365,0.04108979,0.031990226,0.14051831,0.056137927,0.022802332,-0.024234513,-0.024351787,0.018943164,-0.07077364,0.051458232,0.007473031,-0.030837798,0.007118296,0.03700632,-0.006040584,0.024530288,0.03265019,-0.025531542,0.054683346,0.008664019,-0.07345159,-0.060009647,0.010624268,0.0018155264,0.0009000541,0.087611735,-0.049954936,0.04288744,0.03748481,-0.089299336,-0.04524267,-0.028911836,0.07502366,0.07752434,0.043412615,-0.019472888,0.04139779,-0.038012687,-0.037018195,-0.006643681,0.059595425,0.06749234,0.011028759,-0.03382016,-0.023222247,0.049781892,0.0044916766,-0.022356905,0.0622725,-0.044291217,0.01420637,-0.09435713,-0.008314495,-0.03946488,-0.031934656,0.020005388,-0.013239442,0.012904659,0.09141698,0.0294917,0.04212832,0.0034271262,0.037564456,-0.004697517,0.082819425,-0.06636756,0.051394206,0.048830334,0.0031649251,0.022010442,0.02661373,0.039810624,0.037813302,-0.04883851,0.02970232,0.005442094,0.009865055,0.08536634,0.0065722098,-0.031745322,0.041369233,-0.015924444,-0.08792484,-0.021462554,0.022722246,-0.0960376,0.010021366,0.092491604,0.09263339
FBXW11,-0.061374113,-0.07359078,-0.018278845,-0.016235827,0.008553116,-0.037757568,0.00872758,0.0024560792,-0.036165077,-0.012164163,0.04784192,0.09161456,0.029387092,-0.027721368,0.018356163,0.0071660103,0.056931328,-0.04661599,-0.1389079,-0.023204409,-0.12575835,-0.0047017215,0.039374202,0.0102242045,0.033010013,-0.01593612,0.04454045,-0.06666522,-0.01123654,-0.0099944845,0.067354284,0.02570396,0.079718485,0.0040425975,-0.029680217,0.024458338,0.01378856,0.024738442,-0.052323617,0.05850881,0.102107435,-0.066019565,-0.11035662,0.03405315,-0.015195937,0.011004697,0.033498004,-0.059673324,-0.101692,0.027383387,0.017097687,-0.014917723,-0.016853055,-0.0550089,-0.010427461,0.0061278883,0.082275674,-0.05299155,0.014539864,-0.05484977,0.0225314,-0.03766334,0.07527515,-0.020337762,0.02790563,0.00787444,-0.05645248,0.068350896,0.06274588,-0.020824075,-0.11075884,0.07079934,-0.023406709,-0.004095901,0.076956436,-0.089155816,-0.047263026,-0.0001942145,-0.033400107,-0.04124038,0.098284386,-0.043934714,-0.06935933,-0.00032712411,0.005862256,-0.0925553,0.0046599293,0.07867448,0.05084086,0.07901035,0.09739572,0.059989918,0.030646214,-0.013487957,-0.03202091,0.040819146,-0.021807482,-0.048628062,-0.061966915,-0.038414687
FERMT2,-0.02356272,0.081039056,-0.050012864,-0.048123095,-0.010699856,-0.0057739825,0.06121515,-0.02501186,-0.038495664,0.05646448,0.01814639,0.018284619,0.03553573,0.022400707,0.05207746,0.08654288,-0.079241,0.021483373,0.015368856,-0.010659693,0.06998608,0.07043216,-0.021123664,-0.0020986607,-0.024621036,-0.06970831,0.019018862,0.08950036,0.12870461,-0.06436331,-0.011892196,0.055596467,0.007597979,0.012203341,0.116896875,0.05967017,0.09816897,0.03260781,0.07969752,-0.036370266,-0.015230453,-0.0012206164,0.051087372,-0.11277097,-0.013346809,-0.015394024,-0.06729377,0.015952965,0.07818483,-0.0021047783,0.07672654,0.016031913,0.003642982,0.047186047,-0.049191356,0.02309339,0.06555822,0.059267025,-0.053963486,-0.021969229,-0.024082603,0.05509718,-0.028080016,0.06928299,-0.021961695,0.00844696,0.061084986,-0.07882982,0.032463763,0.019061493,0.09035465,0.040097807,0.013704666,0.10241076,-0.0638362,0.020380097,0.0013265755,0.0070054554,0.060498808,0.047508877,0.06066739,0.098281555,-0.004751651,0.014499965,-0.0116698155,0.02359148,0.01416115,0.04574919,-0.0033495524,0.044763017,-0.029354313,-0.092980735,0.010540286,0.023085305,0.09714647,0.09344707,0.015166252,0.0030686378,0.060234953,-0.013720527
PCYT1A,-0.0006591982,-0.04755328,0.036868513,0.021938384,-0.06446291,0.066540055,0.05575542,0.054349594,-0.027448675,-0.008716725,-0.01770202,0.07142172,0.038132276,0.01754882,-0.02149488,-0.015410306,-0.11609824,-0.034195766,-0.024204139,0.04214049,0.009331973,-0.10570518,0.03020267,0.034681655,-0.11648118,0.06356995,-0.052905075,-0.03573902,-0.070973836,-0.01665626,0.085509285,0.05291242,-0.0655739,-0.014025038,-0.09897356,-0.061451167,-0.034242455,-0.116762586,-0.06567766,0.035731718,-0.060502425,0.025591886,0.058819503,0.05039599,-0.07540719,0.0018663354,0.051180944,0.052830003,-0.016498994,0.008140948,0.006604041,-0.08361764,-0.04138783,0.021033395,0.026277525,-0.04146862,-0.04586276,-0.006759491,-0.07770704,-0.059804574,0.034498263,-0.042404298,0.031816203,0.0038449818,0.042306736,-0.06127376,0.0068709636,0.0025711055,-0.07034927,-0.02961134,-0.065009095,0.0014558295,-0.01113625,-0.07948228,-0.03254657,-0.09312431,0.015423037,0.007679285,-0.0039345627,-0.1109369,-0.051340334,0.043115303,0.03958931,-0.024379518,-0.08347683,0.0038166028,-0.014694236,-0.10721804,-0.03316798,-0.049313143,-0.12536922,-0.065585986,-0.056458473,0.057616003,-0.060148068,0.029630907,0.010135794,-0.04010454,0.04121107,-0.048076104
SCAP,-0.070356034,-0.04451029,0.10335324,0.043039516,0.034807034,-0.0045804507,-0.038469914,0.08391507,0.031422712,-0.016928278,-0.0069631943,-0.123237036,0.017918054,-0.015431529,-0.11427046,-0.057872158,-0.07647794,0.086168624,-0.029950382,0.08332497,0.040595688,0.013739876,0.13184896,-0.023739723,0.009801088,0.05364898,-0.07259046,-0.054669768,0.08366812,-0.058582827,-0.02188632,0.0076731746,0.10155846,-0.049597632,-0.06299305,0.04845371,0.047532544,0.049042575,0.020076053,0.04522217,-0.04207806,0.048727933,-0.004560223,-0.035926454,-0.050820313,-0.005274827,-0.073704064,0.011406059,0.0012208684,0.114624545,-0.003051367,0.031714268,-0.00040331073,0.04258029,-0.08179147,0.027020924,0.0025271983,-0.055737212,0.11127365,-0.030650841,-0.004726017,-0.012606487,0.023376055,-0.018731153,-0.02674431,0.0068652336,-0.031609923,-0.00047393702,0.009416477,-0.012952079,-0.0058764243,-0.042204756,0.029198393,-0.0123460265,-0.06678872,0.04479595,0.034772716,-0.0032817477,-0.031337414,0.0039413036,-0.09274018,-0.04317103,0.0013323803,0.019536586,0.09400358,-0.010332632,0.0048645856,-0.045666516,0.045550108,-0.0821103,-0.023557069,0.0010581431,-0.061388757,0.04039013,0.029624522,-0.016482014,-0.0011679645,0.016751895,-0.012162796,0.0099850865
TYMS,-0.026973192,0.022287693,-0.043938044,0.04235901,-0.096077,-0.026801735,-0.08775804,-0.031931713,0.011890413,0.09934582,-0.010416996,0.016152086,-0.010306782,0.015981464,0.045552593,0.031126853,-0.09826594,0.045745533,0.029014474,0.0053982846,-0.0035772813,-0.0028091536,-0.00936913,0.0058385883,-0.014448067,-0.012434036,-0.01732004,0.026438253,0.071951985,-0.005624077,-0.019237425,0.0016174773,0.00058338424,0.009427438,0.012450422,0.045799185,0.04141703,-0.01507169,0.02685007,0.007923135,-0.011729366,0.011796649,-0.004098405,-0.017988423,-0.015811728,-0.038349397,-0.060980797,0.059757013,0.028360663,0.0060234047,0.07983704,0.024524776,0.0110201165,0.049250856,0.07289402,-0.006822106,0.018215492,-0.00036765402,-0.04670918,0.045816958,-0.07612715,-0.068007946,-0.07547192,-0.05520868,-0.06720434,-0.051296234,0.08090499,-0.028631426,0.037290566,0.010416203,-0.045178723,-0.042047694,0.088726886,0.017184407,-0.059957135,0.035483055,-0.053273294,0.014457176,0.019873247,0.042645596,-0.029385287,-0.056231167,-0.048106052,0.027580617,-0.00790072,0.045020845,0.0063505224,-0.08073565,-0.05480585,-0.0014621754,0.02688465,-0.010549139,0.0008763015,-0.069275655,-0.0038774204,0.005628986,-0.0152434055,0.007583126,0.032864682,-0.013159441
CFLAR,-0.050818183,0.045171436,0.052244145,0.09069942,0.065048225,0.065319195,-0.029843848,0.12767406,0.10422803,0.025553914,-0.028454117,0.02913083,0.035191465,-0.062162574,-0.030355966,0.058796752,-0.043183085,0.04078101,-0.082841784,-0.028518401,-0.03190849,-0.015179072,-0.007313222,0.06693157,-0.1077403,0.074023426,0.014286656,-0.02782073,0.06900339,0.08416761,0.10169829,-0.046834923,0.037211545,-0.010968147,-0.00921246,-0.022131758,-0.079177834,0.008476191,0.03682771,0.04714822,0.004740454,-0.013227222,-0.07026652,0.09369963,0.025004696,0.08320857,0.009047936,-0.02253556,0.07298038,0.031552304,-0.0050527793,-0.0037682396,-0.006587214,0.08205622,0.08291214,0.031852886,-0.014230112,-0.0224186,-0.02640473,0.09799367,0.02148376,0.036571026,0.0801781,-0.051646486,0.035825625,0.06278332,0.032415096,-0.022715665,0.06768692,-0.010285974,0.08192276,0.032192085,0.012088208,-0.00019950184,0.012633193,0.08547786,0.109646596,0.068218865,0.024076356,0.052199926,0.012131377,-0.015019007,0.009149159,0.00060043833,-0.021043865,0.008867169,0.059368443,-0.021741197,0.08980175,0.026934342,-0.020934671,0.084270224,0.025609253,0.0967215,0.04826507,0.03343827,0.025243701,0.072804205,0.043736175,0.093754485
TXNRD1,0.050770678,-0.007563596,-0.0047491733,-0.0043951483,0.05078058,-0.04354242,0.08101138,-0.09297151,0.041193273,-0.120757245,-0.01598583,0.055545744,-0.0597853,-0.087026514,-0.03510084,0.06639285,0.030380836,-0.020257272,0.018940302,-0.020615617,0.01869299,-0.053057786,-0.022050448,0.06108863,-0.021441298,0.0299095,-0.010685377,-0.017845865,0.02051874,-0.025833428,0.04473869,-0.051728696,0.0019925,-0.0050868676,0.011703495,0.018850677,-0.029371798,-0.07088954,0.06577445,0.0238427,0.06353858,-0.03539279,0.060170226,0.010616731,-0.071459055,-0.021182038,-0.06707437,-0.06976269,0.020191811,-0.04693773,-0.10495657,-0.05789277,-0.040606,-0.051489472,-0.09610337,0.045965463,-0.007731197,-0.07685451,0.003395826,0.0026750874,0.0024723373,0.047418255,0.026236374,-0.032778572,-0.074897304,0.026319718,-0.07342795,0.08662452,-0.025547994,0.014025933,-0.03904428,0.09146082,0.031247994,0.013683232,0.046460472,0.021967752,0.03444398,0.013481111,0.022972835,-0.03890911,-0.03366716,-0.033945493,0.028198728,-0.020504922,0.112204894,-0.041472316,0.05263733,0.07600791,-0.025694631,-0.031193119,0.1214102,0.0062825014,0.079257324,-0.07052837,-0.035244912,-0.00058158336,-0.0027516654,0.010575812,0.011576591,0.07178266
EP300,-0.0704044,-0.0035979229,-0.021772692,-0.06511517,-0.05413198,0.062980026,-0.04373531,0.010235162,0.024109636,-0.04986884,0.0015219356,-0.08388997,0.006249137,-0.005653662,-0.012671598,0.00093757885,0.062609114,0.00046469376,-0.08933796,0.04852783,0.07929342,0.0116594955,-0.059546627,0.08185446,-0.011525618,0.003674395,-0.0062279035,-0.024694325,-0.13783714,0.056307483,0.03827563,-0.040985785,0.0055879476,-0.094624035,-0.044108823,-0.037785925,-0.00452376,-0.011621042,-0.10396213,-0.061440907,0.022272028,0.0021706438,-0.08891218,-0.033669576,0.016695991,-0.025073312,0.04700616,-0.024098193,-0.0773899,0.04410301,-0.08736134,-0.07123331,0.036600675,0.020532101,-0.06458454,-0.04278529,-0.006290948,-0.019306397,-0.046641424,0.017308423,0.011628741,-0.0887947,0.016080238,0.059399765,-0.024343306,0.010589253,-0.11060842,-0.0024972793,0.023882136,0.027897147,-0.055494547,-0.04372389,0.009271083,-0.015384043,0.035893217,-0.107915305,0.08474372,-0.05749189,-0.07803028,0.061794825,0.0352026,-0.059537526,-0.013653413,-0.0218475,0.07230086,-0.016652621,-0.08414535,-0.03741569,-0.07979973,-0.031783693,-0.0551223,0.005314054,-0.008091211,0.029619316,0.0075516887,-0.06210755,0.023704188,-0.051358096,-0.059249323,-0.01547135
INTS6,0.052034333,0.046035975,-0.06553759,-0.052253507,-0.08468279,0.030326359,0.019184105,-0.07174797,-0.03557386,-0.015545837,0.03960389,-0.009948479,0.08895563,0.048087094,0.07296749,0.045330696,-0.04626538,0.017266711,-0.03473138,-0.08436536,0.0725928,0.008424988,-0.027772436,0.024952628,0.00094589713,-0.11267099,0.014324343,1.780048e-05,-0.0046277726,0.14609946,-0.05729647,0.052446455,-0.06984305,0.008827925,-0.010204375,0.04239151,0.008708618,0.09644622,-0.016200649,0.029882923,-0.07942562,0.01976922,-0.002082531,0.048957255,-0.02349886,0.030504165,-0.008568069,0.05092318,0.07533009,-0.048045877,0.020895157,0.06372598,0.054866534,0.036204245,0.08828793,-0.023791065,0.049922355,0.011964578,0.066488,0.054592233,-0.024279876,0.0043279096,0.086625904,0.022257589,0.054344784,-0.023062453,0.12793167,0.081969365,0.0616585,0.032203604,0.058143742,0.111112274,0.07139297,-0.020441858,-0.05594225,0.09813997,-0.056430962,-0.046827763,-0.029118413,0.012752001,-0.0048832083,0.038177058,0.058782578,0.02742116,-0.061370093,-0.005174048,0.081278495,-0.042500213,0.0038687848,0.11660655,0.064255446,0.03324628,-0.11519185,0.0051348913,-0.048098296,0.12839429,-0.032918133,0.0603073,-0.009146962,0.006849463
RAB6A,0.006749788,-0.033158503,-0.0074280673,0.010346975,0.085646436,0.0017312783,-0.017227905,0.033741113,-0.07618492,-0.03589616,-0.005940365,-0.101090334,-0.047801632,-0.05686925,0.010130967,-0.055918638,0.004538442,0.011425494,0.0052753165,0.04872542,-0.03999408,0.02940421,-0.038670633,0.08076288,-0.049601298,-0.019647833,0.01902954,0.0012319456,-0.05706109,0.0045342213,-0.00918175,0.09811072,0.031556606,0.0012220761,-0.07506421,0.1235574,-0.046476282,-0.024889352,-0.06293992,-0.018047124,-0.061521783,0.010750817,0.016226163,-0.022514394,-0.0094223535,-0.0708288,0.026957588,-0.06270354,0.011051141,-0.022233801,-0.030834345,-0.048075967,0.016020225,0.07963671,0.011469758,-0.023563571,0.064875446,-0.04460862,-0.0030367535,0.08875853,0.06485934,0.015095397,0.071135364,-0.063367285,-0.023290956,0.05441307,-0.0117270695,0.028551593,-0.11794286,-0.08429451,-0.047178376,0.066577114,0.09722167,-0.045414627,0.03539949,-0.021959346,-0.057332892,-0.0014555141,-0.0076922593,-0.03221006,0.024385499,-0.033926047,0.028783264,-0.013256881,0.0466674,-0.05717253,0.092727855,0.07740375,-0.04290184,-0.015143975,0.05880087,0.017976755,-0.03710581,0.05838379,-0.047999684,0.065163724,0.07407842,-0.07203652,-0.022126954,-0.031191776
GRB2,0.086089626,0.062428787,0.0020085727,-0.044203505,-0.06524603,-0.041592903,-0.0140885385,-0.0304592,0.062883325,-0.028222693,-0.090513624,-0.018904002,-0.020737916,-0.007602495,-0.007326909,0.014166373,0.0766137,-0.026271416,-0.06766748,-0.115222216,0.020422168,-0.13579232,-0.06130498,-0.0034237413,-0.057379637,-0.038294908,0.0827484,0.07670793,0.105918236,0.009066806,-0.0063224053,-0.1271627,0.04585851,-0.05764678,-0.01397789,-0.027250221,-0.029803693,0.03383041,0.031565048,0.049637493,0.019984694,-0.11745026,-0.0071225446,0.040076774,-0.03905188,-0.005448291,-0.058563814,0.09680667,0.016241733,0.0044677304,-0.021150501,0.058370393,0.048283793,-0.15730186,-0.03894671,-0.07730682,-0.040202133,-0.027089356,-0.05550111,-0.03527018,0.012773373,-0.046680477,-0.036086917,0.005521016,-0.040268075,-0.049633358,-0.027667338,-0.06364062,0.039156813,0.11498398,0.07798027,-0.020855293,-0.029733289,-0.00980188,-0.079143934,0.07471019,0.03712976,0.024471048,0.055081785,0.020839667,0.0020413368,0.07063481,-0.018414749,0.06674899,-0.05206876,-0.016863026,-0.07889054,0.012599158,0.07597792,0.07708573,0.013635585,-0.028570693,-0.038590256,-0.001785337,0.014978996,-0.09584098,-0.00920571,0.028201679,0.044212684,-0.019635076
SNAP23,0.02602007,-0.08685333,0.01708281,0.022389652,-0.02093691,0.028208978,-0.0074455547,-0.020986196,-0.09225112,-0.032213017,0.031420343,-0.055726897,-0.011647762,-0.043783654,0.06819696,-0.016292054,-0.107138865,-0.07655084,0.04785708,-0.023034766,0.014659202,-0.0037611935,-0.014837635,-0.050139237,-0.046116345,0.10990269,-0.051190116,-0.10638062,-0.07977484,-0.016903348,0.020567818,-0.05772351,0.006913044,-0.07644655,-0.08602025,-0.021473734,-0.08507868,0.01653194,-0.07739141,-0.063870616,-0.027506895,0.12419984,-0.07707501,-0.027789745,0.0492559,-0.11358574,-0.047333445,-0.048297327,-0.035715017,0.040330037,0.012520866,-0.04734237,0.00040462986,0.07815579,0.01409586,-0.038730975,-0.08077851,-0.10531928,-0.084352255,-0.09120469,-0.018568128,-0.0032606719,-0.012830367,0.0730821,-0.11907761,-0.013536398,-0.07409988,-0.01880194,-0.0861898,-0.04204413,-0.097531706,0.04138199,-0.10588351,0.02868514,0.10963991,-0.040932424,0.108667545,0.10784269,-0.06850811,-0.057394035,0.06627014,-0.11837463,-0.07666818,0.017430201,-0.076066285,-0.072271645,-0.11580897,-0.019457214,-0.057416745,-0.012224522,-0.03734319,-0.086513355,0.037261497,-0.008677393,0.02810977,-0.081763536,-0.025346922,-0.011211356,-0.015271985,-0.020405544
STX4,-0.115138166,-0.0652819,0.03916919,0.04564,-0.007806037,0.029155428,0.01841914,-0.043254666,-0.009265623,-0.10646905,0.07045324,-0.0128049785,-0.007224851,-0.06876656,0.05640787,0.022124505,-0.04594734,-0.021872263,-0.05483798,-0.09454575,0.014128433,-0.074505255,0.038719002,0.011929467,-0.030818881,-0.075462736,-0.109626584,0.018953815,-0.044160414,-0.008475009,0.017791586,-0.034558002,-0.028552733,0.011020941,-0.027022053,0.09039415,-0.029414374,-0.04626297,-0.036719367,-0.0736846,-0.0075078206,-0.026764013,-0.057058267,-0.04148102,0.036455844,-0.09193567,-0.01781031,-0.03500457,-0.04591506,0.029933993,-0.07743883,-0.07954784,-0.009495304,0.049662247,-0.033865083,0.016562093,0.06439989,-0.047020096,-0.10718507,0.044172328,-0.020739935,-0.08971989,0.0034568114,0.023570634,-0.0029525373,-0.06571985,-0.093595676,-0.077601686,0.014774332,-0.121386565,0.007962067,0.041510496,-0.048233125,-0.10714265,0.034195207,-0.04159073,0.09502355,-0.033270262,0.02047971,-0.033671733,0.0024128994,-0.11680169,-0.10922812,0.016669143,0.070817284,-0.0065193553,0.008829176,-0.039526,0.014282172,-0.16381815,-0.02935803,0.006990379,0.03759098,-0.038872328,-0.09830485,0.050696086,-0.008871359,0.012434029,-0.061744772,-0.06815828
NXT1,-0.08731765,0.11577684,0.04524936,0.054459732,-0.068707466,-0.041043863,-0.024746941,-0.024945606,-0.01800472,-0.037595175,-0.03412097,-0.022033691,-0.011351931,0.1331817,0.047317605,0.016747672,0.0071758037,0.035081033,-0.03914706,-0.008576093,0.023537297,0.027887844,0.04458399,-0.06199745,-0.009706663,0.007982429,0.09030528,0.11022379,0.04941755,0.0118482495,-0.02622042,0.0738839,-0.011476265,0.06610856,-0.011387199,0.02761939,0.12263285,-0.003293861,0.03440596,0.070856445,0.04048629,0.067315534,0.00804227,-0.117752485,-0.090401135,0.00326336,-0.010592229,0.16893806,0.09850511,-0.07464171,0.048508648,0.14059334,0.10951772,0.032215945,0.043252237,0.046823062,-0.046697926,0.1239975,-0.0043554255,-0.052284155,-0.030273147,0.024340656,0.04716373,-0.015930634,0.014126952,0.032326818,0.03837571,0.021524584,-0.006018774,-0.009995624,-0.017988278,-0.017131684,0.07595737,0.025988303,0.049791515,0.12869206,-0.033212796,0.0017333768,-0.02421934,0.13259466,-0.041523464,0.0908472,0.0842514,0.007194281,0.024429586,0.02740765,-0.06919097,-0.03833418,-0.04386178,0.02042692,0.033428002,-0.084688716,0.07457632,0.041359734,0.063169576,0.01011543,0.031251494,0.0478661,0.024866484,0.08128023
EFR3A,-0.079038434,-0.11828016,-0.013461689,0.06336605,0.020434089,0.016908595,-0.06546244,0.0861451,-0.07797933,-0.15042289,-0.0100972,0.06451854,-0.116499685,-0.024848953,0.0100385845,-0.0056925197,-0.040453244,-0.08892107,-0.012641469,0.043645807,0.00825368,-0.041433565,0.017098473,0.044067763,-0.03588714,0.0769181,0.007526702,-0.13258038,-0.05470784,0.0032110834,-0.08224045,-0.032698818,-0.015778251,-0.015777107,-0.02725091,0.06508701,-0.05075896,-0.03820591,-0.059374783,0.016754253,-0.0028110917,0.022822795,0.021062152,-0.032302555,-0.008859694,-0.104763985,0.02452876,-0.13381042,-0.09831275,0.007583516,-0.023895962,-0.124378026,-0.100671425,-0.03738196,-0.08338595,0.081390925,0.07135662,-0.11861749,-0.08236886,-0.05945332,0.016945546,-0.030046778,-0.0439265,0.052987985,-0.08096752,0.040105283,-0.06547425,-0.041525517,0.032800782,0.05919052,-0.06848033,0.043748144,-0.119179346,-0.12013944,0.016018938,-0.09504984,-0.0044793924,-0.06484629,-0.026796915,-0.07601157,0.04988261,-0.07314154,-0.028185109,0.050941177,-0.078910634,-0.0021122452,0.0028446228,-0.06084249,-0.024234895,0.009079673,0.022741597,-0.05999249,-0.04842399,-0.041042216,-0.069157824,0.03308739,-0.09352051,-0.06248367,-0.067206204,-0.14693967
NMT1,0.00788285,-0.04810089,0.107118495,0.053031337,0.083706714,0.015500316,0.17962013,0.05382948,-0.074627295,0.017226657,0.15206502,0.020478044,-0.10066776,-0.027060162,-0.01626122,-0.023437785,0.013075053,0.0012431652,0.10871085,0.12094928,0.031981338,-0.08366324,0.17406718,0.116733745,0.060949218,0.038404513,0.060572755,-0.004483409,0.014367399,0.04052266,0.06842839,0.028306453,0.020964881,0.0014549681,-0.1170407,0.14748171,-0.054256983,-0.09215706,-0.073464595,0.04008923,0.14495693,0.03935429,0.057266064,0.04424905,0.07575463,-0.059821855,0.027305372,-0.025927246,0.018724762,0.018757164,-0.032958485,-0.050580963,0.033799354,-0.030151155,-0.0076919813,0.046647564,-0.051495474,0.00960249,0.11974264,-0.054582644,0.11883507,0.030597407,-0.04846999,-0.023140466,-0.053666763,0.13409416,0.055308424,-0.004875669,-0.04008297,-0.037054796,0.018746804,0.03298599,0.03625951,0.030939529,0.084653035,-0.049503062,0.077346206,0.058917247,0.019649934,0.01605573,-0.026281605,-0.035325993,-0.0712162,-0.053756367,0.06877294,0.00040252166,-0.05174269,0.098065205,-0.041237615,0.02202545,0.1371108,0.040295873,0.013495528,0.01967694,0.03804348,0.0291556,0.10423421,-0.06828034,0.05779746,0.02516165
MED1,-0.06564277,-0.029011672,0.1362498,0.13699281,-0.01529167,0.00830562,0.039077707,0.11009025,0.037993737,0.034919687,0.117891215,-0.022231828,0.04663494,-0.02427903,0.02803755,-0.041998293,-0.058113653,0.06590673,-0.09547111,0.04608098,0.007760777,0.050354373,0.06968105,0.041689117,0.08408562,0.028276265,0.018880913,-0.006014691,-0.03792533,0.012965176,-0.0052599,0.110540405,0.1315535,0.013029228,0.0015611416,0.0350521,0.0009820974,-0.06267989,-0.025079155,0.012636316,0.22502105,0.06751573,0.021555167,0.016384063,-0.019634046,-0.015705315,-0.08902462,0.038703278,-0.051815383,-0.026960852,-0.02585523,-0.012930657,0.018619776,-0.0049587446,-0.04048878,0.06311524,-0.087702915,-0.038737208,0.10368253,0.039044477,0.02433524,-0.061940413,0.048233964,-0.030170603,0.01877954,0.11702575,-0.09058893,0.060467422,0.015335042,-0.018214276,-0.027488109,-0.008203378,0.046533942,-0.04668494,0.12830624,-0.02701031,-0.051513106,-0.035441674,0.0029210562,-0.006789043,0.040919352,0.010560948,0.05134313,0.0014394782,0.076780744,0.054269597,0.03524507,0.10386395,-0.021764435,0.018906975,-0.004884726,-0.0016163932,0.028157894,0.06646202,-0.14692439,0.0021796424,0.056688808,-0.045897737,-0.06625817,-0.022146378
CDAN1,-0.015309435,0.034519497,0.10617022,-0.009243149,0.066380106,0.032897536,0.06569233,0.028891644,-0.008746741,-0.030591665,0.084017366,0.019757198,0.0019218873,-0.004177085,0.0069966377,0.053856533,0.05000433,0.047383502,-0.067240916,0.035968058,-0.061013024,0.0690983,0.10407017,-0.011560547,-0.046450794,-0.015838638,-0.013269409,0.062516525,0.008023034,0.03698788,-0.00031573782,0.03033991,0.09045014,-0.009821709,0.050440148,0.0144473845,0.0042113494,-0.0040870407,-0.030013693,0.098555796,0.01935836,0.010442803,-0.0071521285,-0.051283088,-0.017077567,0.042938028,-0.042046648,-0.058009468,-0.055378452,-0.018031605,0.04275445,0.01903077,-0.039464973,0.02126809,0.11399,0.043357417,-0.111767136,0.06051969,0.031157563,-0.023040852,0.13462372,-0.0020118363,-0.06652337,-0.022677861,0.025372159,0.05255109,-0.023238067,-0.04643742,0.013369541,-0.017510004,0.1185447,-0.011876056,-0.07183255,0.00064815953,-4.7864523e-05,0.057733152,0.052109342,0.029979484,0.0022649353,0.024062874,-0.014303153,-0.04932726,0.0056875865,-0.06218035,0.008074186,0.039491296,-0.07828937,0.021793185,0.07038794,0.08231122,0.08652419,-0.051042903,0.0051393984,0.013727342,0.0825231,0.0232682,-0.039944064,0.01133301,-0.00020373176,0.0765561
SLC2A1,0.047043424,-0.022700934,-0.05990842,-0.10234186,-0.004060307,-0.07181362,-0.05571261,-0.11870333,-0.0056414166,-0.04210155,-0.017871441,-0.030552806,0.070400655,0.10309419,0.051212337,0.018978376,-0.0304936,0.025021525,-0.10742619,-0.06354815,-0.12260919,-0.049326196,-0.010182994,-0.01679381,0.08150252,-0.06870578,0.12602848,0.08517089,0.0025657634,-0.015274827,0.06527656,-0.0467984,-0.047489557,0.104588725,0.058918208,-0.001452341,0.092775844,0.020917006,0.06253203,-0.020466998,-0.03571335,-0.04373646,0.07728904,0.08701607,0.02664856,0.12873602,0.030226953,0.117569424,0.08234821,-0.055514105,-0.004385493,-0.043800406,0.038178585,-0.08572131,0.025847135,-0.07935416,0.052910283,0.11212942,-0.03147193,-0.05631557,0.012507239,0.029162925,-0.02291306,0.052366044,0.07553535,-0.03565775,0.031583026,-0.076447666,0.00065963634,0.048934456,0.017039508,-0.0326819,-0.0950815,0.14244984,-0.03252956,0.04776669,-0.04369317,-0.08266658,0.08873212,0.07258113,0.049117774,0.08720046,0.086155266,0.016103487,0.024129657,-0.0024447856,0.053109717,0.06373804,0.008289857,0.07953548,0.06384044,-0.02781798,-0.051069226,0.0037394234,-0.057852097,-0.06040392,0.0039850655,-0.00082291616,0.10556756,0.03950201
CAB39,-0.027851515,-0.054553736,-0.08383853,-0.019188022,0.045285605,0.021200156,0.08444257,0.01270116,0.026045967,0.005575864,-0.012632567,0.04980159,-0.023257365,-0.022174858,0.013142748,0.0010465656,-0.017947605,-0.057533246,-0.026865376,0.09390766,0.03876294,0.07191426,0.059429538,-0.062362555,-0.0155000435,0.03644742,-0.08057726,-0.053598102,-0.040982835,0.0021906106,0.04288014,0.019188618,-0.015253341,0.03818637,-0.037464358,0.06965799,-0.044189528,0.011266402,-0.060353193,-0.010102764,0.09155936,0.07232174,-0.10088326,-0.00029766455,0.05873154,0.001215228,-0.007939708,0.017788932,0.047414295,-0.040286593,-0.04187734,0.03669056,-0.029528823,-0.00034587848,-0.018531064,-0.0124260355,0.10906052,0.049442295,-0.020747073,0.081043355,0.03031102,-0.012752521,0.048658375,0.026112376,-0.08705139,-0.007554917,-0.009242482,-0.043659944,-0.0053908504,-0.0018355256,-0.049075685,0.055425726,-0.030724375,-0.078408174,0.11138584,-0.045732073,0.06312483,-0.016620306,-0.04609173,-0.08657154,-0.09125144,-0.062431667,-0.06007671,0.010046968,0.004224213,-0.0603462,-0.0009229403,0.09269281,0.021157531,-0.09757224,-0.005455193,-0.004645742,-0.02235165,0.067026496,-0.0064032297,-0.025252167,-0.0063248216,-0.0325142,-0.0034938627,-0.0376923
MBTPS1,0.049913306,0.017142072,-0.018828528,-0.046517063,0.018101238,-0.033862583,0.04769007,0.020548068,-0.023400882,-0.042978756,0.04209056,0.061678592,-0.05204029,-0.12343371,-0.02741206,0.02347864,0.06453334,0.0232656,-0.01873083,-0.022986887,-0.016923532,0.08033151,-0.027179984,-0.002418411,-0.0093940785,-0.019492712,-0.012480747,-0.009823055,-0.05617521,0.009576284,0.10091175,-0.009062841,0.053430144,-0.08580243,-0.0112299975,0.00079000957,-0.0030966643,0.036917754,-0.049087632,-0.04467306,0.025731616,0.013001766,-0.05958252,0.052110862,-0.02609494,-0.0039832024,0.019805863,-0.072608665,-0.08470314,0.084919915,0.009698523,-0.027915,-0.038941927,-0.021188803,-0.07631062,0.039649315,0.055007108,-0.028386183,0.08109698,-0.062360615,-0.0020585677,0.03131921,0.07588537,0.007526172,-0.01511126,0.051037982,-0.02394568,0.05211153,-0.06079129,0.053849693,-0.06416447,0.0021571687,-0.014526131,-0.0043229475,0.054664668,-0.0648447,-0.047437422,-0.09786099,0.006269822,1.1362046e-05,-0.017188136,-0.10294113,-0.014598798,-0.016468221,-0.03994888,-0.06561212,-0.05434071,-0.06281712,-0.0035025172,-0.012038082,-0.013143862,0.090858854,0.031660244,-0.03740957,0.03280748,0.041844346,-0.02163303,-0.023333423,-0.10487773,-0.11872905
WWTR1,0.04512045,-0.008395459,-0.019778028,0.07949561,-0.031096548,-0.08980023,-0.028488632,0.031010974,-0.033729006,-0.030952815,-0.034042373,-0.057535227,0.0673273,-0.031962365,-0.02029241,0.032739505,0.022866698,0.015503407,0.045485765,-0.06624576,0.057005577,-0.017855093,-0.0425201,0.031145515,0.0075294683,0.062238835,0.090658285,0.043099992,0.06590673,0.03374241,-0.0663796,0.027925555,-0.0047806767,0.10080945,0.0015848145,0.049621843,0.06578814,0.06977634,0.015036167,0.042113297,0.095751725,-0.016882468,0.0024945377,-0.045033082,0.061749615,0.008683509,-0.09134291,-0.008142098,0.07629359,0.014723294,0.06628369,0.03121691,0.025391903,0.0076281014,-0.00468991,0.008074449,0.07469926,0.107249536,0.023610473,0.047556315,0.03276424,-0.05574404,-0.08166502,-0.043567106,0.022009607,0.011397406,0.05056922,0.03562792,0.07941635,-0.027331905,0.028662533,-0.0570341,-0.11449399,0.058695436,0.090483606,0.09244711,0.018234745,-0.05554054,-0.038216148,0.05445861,-0.034021415,0.042656325,-0.02453457,0.024050646,0.086176395,0.105801396,-0.033053376,0.06797538,0.0904829,-0.05429233,0.13944776,-0.0040522628,-0.00794503,0.04434085,0.083506666,0.0049265353,0.004752172,0.014138026,0.045427352,0.026522005
TADA1,0.006974239,-0.03802333,-0.009462022,-0.05876152,-0.078865334,-0.03524514,0.013751144,-0.050554533,0.020939404,-0.0016334841,0.010161964,0.009798327,-0.05005732,-0.045540422,0.031960674,0.0125634195,-0.05502325,0.018888295,-0.013493453,0.0077856067,0.04989349,0.0986081,-0.060275353,0.04592224,-0.0500198,0.06090361,-0.0494952,-0.050436005,-0.026345007,0.014573617,-0.05610408,-0.012319221,0.0654259,0.015686648,-0.053138632,-0.04927007,-0.106898166,0.01557662,-0.01779186,-0.071352206,0.14838828,0.0019373219,0.05112397,0.04656135,0.0046652085,-0.11302889,-0.00078093767,-0.07929291,0.057901133,-0.05024988,-0.02929861,0.02038476,-0.0401178,0.077946626,0.009784734,0.04178356,0.0215507,0.0072049946,0.061418336,0.044141028,-0.04699117,-0.035288718,-0.04218235,0.0028867994,-0.024380777,-0.039353244,-0.06644326,0.03864721,-0.057556104,-0.029876484,0.00047978392,-0.046076253,0.050338577,0.02615377,-0.024169978,-0.025319466,-0.04278962,-0.04035059,-0.04004653,0.02603558,0.033641413,-0.047234587,-0.069898725,-0.0028368346,0.01218922,-0.11451251,-0.051906224,0.05105727,0.044619553,0.013238025,0.06306291,0.05063791,0.013083057,0.07020485,0.024475146,0.040296625,-0.02835078,0.029259806,-0.05908599,0.063265264
SDHB,-0.050119773,-0.043773003,-0.014197593,-0.05039119,0.008772504,0.041096017,0.071820974,0.004788652,-0.026721735,-0.07983058,0.104459755,0.00070577307,0.02753267,-0.06944402,0.060143106,-0.02116914,0.058624033,0.018733883,-0.021366403,-0.030390948,0.027687447,0.015661955,-0.013350581,0.08828896,0.037758246,0.004036572,-0.0015581322,-0.060263555,-0.055187307,0.086119026,0.015518541,-0.073189,0.08762479,-0.05338272,0.0374294,0.014282658,0.05299935,-0.10775248,0.011782793,0.06304336,0.12252115,0.016071448,0.003981611,0.019063659,-0.0047223787,0.036637526,-0.0055910945,-0.022698445,0.0027324099,-0.009869942,-0.025042113,-0.03596482,0.096634604,0.008305532,0.008036937,-0.029029202,0.054338522,0.020870727,0.087979004,0.027477907,-0.07914493,0.041302547,-0.05684436,-0.038996764,0.059048038,0.013274032,0.07092555,-0.031619363,0.12425893,0.044913806,0.023318332,-0.04006396,-0.05707334,-0.030745357,0.058025494,0.04430435,0.016068943,-0.078512825,0.055625554,-5.9372553e-05,-0.017561743,-0.012731289,-0.0021308155,-0.07296985,0.010408607,-0.09020236,0.06419418,0.05301342,-0.013023774,-0.01916556,-0.015099138,0.009900291,-0.03520546,-0.05479005,0.025867809,0.04140071,0.0011931579,0.044970404,-0.004816233,0.001114233
KCTD10,0.104392484,-0.0065060407,0.038456127,0.08238849,0.123572566,0.0029737912,0.014791495,-0.017053805,0.0140711,0.08546945,0.15825135,-0.006803875,0.0075096623,-0.0077119954,0.05630349,-0.033850577,-0.014788534,-0.011480956,0.016592782,-0.008243293,-0.026745204,0.021735411,0.08115657,0.034708764,0.07823851,-0.03167189,0.055846207,-0.0018678756,0.041738983,0.08672627,0.021220885,-0.011784565,0.061872847,0.03890432,0.042533834,0.09226884,-0.018789014,-0.06527921,-0.018777428,-0.033270612,-0.045422446,-0.073829174,0.025478555,0.024808127,-0.0055488446,0.03764367,0.08026145,0.07914484,-0.017207282,-0.015321848,0.096483335,0.07305997,0.053558417,-0.108747624,0.03775206,0.093722746,0.03812208,0.039889973,-0.028049545,0.11950737,0.06396624,-0.012956353,0.0006808671,0.061137963,-0.060893584,0.029528754,0.035826363,-0.01406151,0.064017706,0.041871108,-0.0026483985,0.041391436,0.0062599443,-0.01972469,0.073971145,0.038843848,0.023913343,-0.046060417,0.047148407,-0.06471914,-0.03538742,0.0035776123,0.028735744,0.021205815,-0.010816963,0.04597588,0.015033792,0.03833237,0.005917646,0.03655542,0.022182716,0.025992522,0.027847452,0.030918177,0.11526828,0.0082862275,0.06800931,0.011016792,0.06356202,-0.0046752044
SEPSECS,-0.027689844,0.043884296,-0.034902845,-0.05055748,-0.014355461,-0.10850743,0.012561819,-0.015078202,0.00033796148,0.09695975,0.005758423,-0.045124583,-0.06516213,0.0021698046,-0.044634607,-0.08686196,-0.041361522,-0.00019765715,-0.08677043,-0.07330586,0.1307035,-0.01743453,-6.170173e-05,-0.008572368,-0.068058,-0.025839152,0.011420984,-0.09657537,-0.016236285,0.011322976,-0.09234493,-0.0032372219,0.05729761,-0.01822169,0.017438313,-0.019252738,-0.120279685,-0.078228146,-0.11234308,-0.05563521,0.113516875,-0.010508715,-0.12858057,-0.0018765897,-0.10495884,-0.07110167,-0.03968444,-0.08576268,-0.04568299,-0.008308682,-0.023510307,-0.098774835,-0.010887226,-0.10127317,-0.01926544,-0.018709684,-0.089042194,-0.03113286,-0.029775376,0.043621488,-0.0434484,-0.06969125,0.073476955,-0.10071729,0.018505448,0.02978316,-0.03157619,0.08381933,-0.0289819,0.05158225,-0.09445221,-0.011190211,-0.012404538,-0.032655705,0.0011604977,-0.083673105,-0.025747921,-0.001631217,0.021717535,-0.07897396,7.132473e-05,-0.10159834,-0.07817124,-0.01815937,-0.043352462,-0.061941806,0.041067775,0.04353299,-0.02680439,-0.006576033,-0.044005957,-0.01914893,-0.052443057,-0.0037345109,0.033093937,-0.020243267,-0.046238832,-0.05834796,-0.10666446,-0.022291668
NHLRC2,-0.009271844,0.014647163,0.010155743,-0.06712346,0.035333954,-0.024534607,0.08276091,0.02505582,0.03919175,0.0052413885,0.04844088,0.03347269,0.07526363,0.09246732,0.049379185,0.04016616,0.08537114,0.008587853,-0.007938553,0.042095464,-0.009493717,-0.019255986,0.046496846,0.04556563,0.036376618,-0.04858945,0.05418887,-0.00824216,-0.026046794,0.030510519,0.033631496,-0.011604275,-0.03510127,0.015419387,0.03994833,0.06628895,0.096189454,0.004390445,0.107127376,0.045444693,0.057664078,-0.05807242,0.00059642235,-0.045644153,-0.053150363,-0.042379443,-0.076336905,-0.01716093,0.03611833,-0.051334195,0.04610598,0.0958527,0.046723805,-0.093317814,-0.0012996922,-0.009329284,0.036060728,0.10203335,-0.0017366733,-0.032831933,-0.03657671,0.0021456354,0.038327444,-0.052161716,-0.056532368,0.03764961,0.016000414,0.017545732,0.06304101,0.046078827,0.019947616,-0.042650558,0.0631384,0.019952431,-0.02802514,0.037304584,-0.050072752,-0.016777005,0.069366924,0.061448336,0.028705718,0.075618945,0.07981769,0.017153565,0.009384841,0.073468864,-0.067193806,0.0995651,-0.016960526,-0.08242749,0.043428432,0.054626267,0.005579124,0.027262364,0.039783724,-0.055896353,0.06153986,0.058578745,0.003512228,0.040973138
MYH9,-0.09532358,-0.021947473,0.030495627,-0.017809788,-0.037651006,-0.018064683,0.012913418,0.015854504,0.017415179,0.037731554,0.015878746,-0.010457279,-0.06494774,-0.12684654,0.034040663,0.034237366,0.020316076,-0.112902835,0.026903281,-0.014860738,-0.0757419,-0.090251975,-0.032306757,0.08269537,-0.038220964,0.055720825,-0.11655524,-0.07854955,-0.109531865,-0.04304634,0.11031464,0.06581142,0.044058435,-0.12682876,-0.07568454,-0.011262141,-0.028487308,-0.020623615,-0.073310934,-0.15824398,0.018602934,-0.013585921,-0.035749484,-0.013178144,0.031134637,-0.106235795,0.092662714,-0.12756392,-0.046969447,0.07336222,-0.109880224,-0.038444214,-0.13153912,-0.008708823,0.0393768,-0.031215759,0.05699178,-0.047587667,-0.0050333366,0.06889703,-0.016419463,-0.001831308,-0.049693756,0.046593767,-0.0016326434,-0.03125004,-0.14144391,-0.030229982,0.04780095,-0.11281761,-0.04212656,0.026354242,-0.023992725,-0.026787633,0.07810279,-0.11229162,-0.10719079,-0.04447413,-0.03941025,-0.04911758,-0.035756778,-0.061261605,-0.027527533,-0.022513678,-0.03206526,-0.13821776,0.058804747,-0.08317026,0.012632932,-0.09272851,-0.035888236,0.055100236,-0.086099625,-0.021664035,0.042018976,0.056446742,0.051453054,-0.0023156207,-0.06771948,-0.011412421
EAF1,0.038470615,0.08581784,-0.032107778,-0.061460618,0.034233365,0.09052648,0.11371385,-0.050501373,0.05619571,-0.04533152,-0.006566549,-0.03796379,0.0081247585,0.065973006,0.015211576,0.008286195,-0.0055001527,-0.01227397,0.056574937,0.0068090046,0.030699302,-0.012946226,-0.013623026,0.13515429,0.08777537,-0.014335753,0.07351886,0.09902397,0.074849606,-0.012953464,0.035429187,0.010217121,-0.013613802,0.09170532,-0.06541284,0.0072786747,0.07373722,-0.04207526,-0.010402184,0.022218766,0.022518625,-0.058951274,0.019576298,-0.017307734,-0.009031389,0.09738039,0.07202253,-0.003735977,0.019831682,0.029499548,0.047360368,0.05170881,0.004487933,-0.041822474,0.015271982,-0.004939091,0.062287107,0.12425048,-0.00845577,0.14083888,-0.033986956,0.08317299,0.0324375,0.06623743,0.030294256,0.056941256,0.07236608,0.023749908,0.002239145,0.021741943,-0.004305792,-0.023932131,0.018565945,0.06136156,-0.026058331,0.007813721,-0.0014369874,0.0005203495,0.024423903,0.029019315,0.0725256,-0.033622257,-0.0031595242,0.04888477,0.0287458,0.04228748,0.097656205,-0.061253045,-0.0117291575,0.08682183,-0.045563236,-0.02482903,-0.057767667,-0.03830542,0.14249273,0.014427673,-0.019468822,0.086031415,0.11468219,0.011401351
RIC1,-0.06333818,0.0427976,0.022744957,-0.03350442,-0.01019222,0.06399654,5.6623558e-05,0.020921012,-0.014177924,-0.040224627,-0.0063068103,0.020957477,-0.07363217,-0.06472583,-0.09114321,0.0039887847,-0.0006318635,-0.0698066,0.00836519,0.03205115,-0.08236666,0.08300154,-0.027574355,-0.03730612,0.02956254,-0.013083209,0.017457176,0.005514543,-0.0141761815,-0.052277878,-0.04177707,-0.025913596,0.058719683,0.027370917,-0.04094327,0.04685421,0.008291398,0.021348296,0.006809031,0.027419923,-0.004855728,0.019797098,0.053799454,-0.013411703,0.036565967,-0.0034873465,-0.03655439,0.06490983,0.030361691,-0.091863304,-0.013294396,-0.025380889,-0.005201,0.050371807,-0.014772702,0.039341487,0.02614796,0.026875345,0.045831833,0.012698816,0.021995757,0.0031893994,0.06846394,0.012977481,0.05930074,0.08566103,0.028140685,0.023931904,-0.050795767,-0.11014552,-0.05685076,-0.04043723,0.009137132,0.018163886,0.09053663,0.008470442,0.08180285,0.050648086,0.011965384,0.08998537,-0.0032531756,0.068091676,-0.025211686,-0.022699457,0.060298312,0.01971574,-0.04020642,0.025907557,-0.0595637,-0.07152215,0.0041717263,-0.04525384,-0.00014979945,-0.055493478,-0.054529935,0.009878066,0.049830873,0.052834187,0.041594155,0.027700422
GART,0.06738872,-0.046301313,-0.037783537,-0.027108606,0.023266729,0.06286583,0.057030946,0.0023758824,-0.09534673,-0.00738178,-0.014939647,0.002459439,0.03510256,-0.019833708,0.024518691,0.041993447,-0.037306562,-0.029462814,0.037958436,-0.11847046,-0.046529073,-0.058303915,-0.024426749,-0.07114077,-0.033328515,0.029144173,0.03702273,0.042263802,-0.06562387,-0.06363988,-0.0020748875,0.03656337,-0.020790575,-0.036706634,-0.075782485,0.004763295,-0.045230925,-0.018710019,-0.042253144,0.07025975,0.042264417,0.028192837,0.0047377353,0.010890557,-0.03290248,-0.031866457,0.025351504,-0.031741537,-0.015151008,0.05106262,-0.01699618,0.0005046339,-0.027329303,0.030998446,0.061833605,0.035134822,-0.040638413,-0.091876335,-0.058552887,-0.07317586,-0.012344934,-0.0703571,0.016047986,0.07077747,0.008353702,-0.11889773,-0.0740999,-0.052769598,0.03281018,0.040663306,-0.006108942,0.072637804,-0.04500881,0.026811538,-0.054464847,-0.05673586,0.024912324,-0.0063121095,0.014099742,0.009208636,-0.049228728,0.007368002,-0.055505943,-0.084802516,-0.05953793,-0.022317065,-0.04187774,0.03640858,-0.030101052,-0.014375283,0.009130295,0.00048682283,-0.07585596,-0.018714255,-0.03195739,0.015024676,-0.026252879,-0.008372981,-0.069506206,-0.033438817
ADAR,0.041623812,0.07525477,0.07661881,-0.01647239,0.04633118,-0.018185327,-0.04203878,0.06123644,-0.0025890996,0.0055445647,0.03337725,0.13408671,0.023820208,0.050567072,-0.014623759,0.1655758,-0.01618757,0.031109203,0.08895878,-0.011912227,0.06011729,-0.054375004,0.0390364,0.11018993,-0.047199294,0.11414001,-0.030925702,0.019612256,0.03589657,-0.058152866,0.03333497,0.0705871,-0.010478416,-0.06508287,0.018900609,-0.042496167,0.027317185,0.051005825,0.016032163,0.060261507,-0.1599965,0.023424376,-0.039945044,0.056174025,0.117164895,0.014091697,0.121286705,0.06888563,-0.008526582,-0.033719443,-0.00018593167,0.06223885,-0.05781807,0.059693635,0.02832165,0.06710505,0.14842016,0.034684617,-0.045450103,-0.010683054,0.025708351,0.08269265,0.054745384,0.081008956,0.06137953,0.035580307,-0.0077489372,-0.11107168,0.07148708,0.032165986,0.053441722,0.01009628,-0.08081478,0.05664006,0.03417493,0.043049876,-0.005778298,0.06480002,-0.019546721,0.027314162,0.093720786,0.05858848,0.065018326,-0.072605774,-0.097400494,-0.002946268,-0.0017751198,-0.0030168786,0.021057144,0.10261389,0.011113861,0.015631735,-0.0740573,-0.044982906,0.07482654,0.097420394,0.014309367,0.055119608,0.0062939394,0.026877185
VRK1,0.079827085,0.16448067,0.07281472,0.0412987,0.052590232,-0.116945714,0.018847726,-0.028414013,0.023115505,-0.099524304,-0.0020693175,-0.026949398,0.16856745,0.039884362,0.0011618749,0.15227014,0.0013551967,-0.010806853,-0.09116948,-0.01671284,-0.0028234133,0.008027246,-0.0074901786,-0.00019387707,0.022563111,0.051176783,0.10670976,0.04383365,0.13970914,-0.0033762134,0.0120439045,-0.005674348,0.0611271,0.1511275,0.12469087,0.015773578,0.092926756,0.011639065,0.052855663,0.075929366,0.056608792,-0.0051341224,0.09038907,0.063752174,-0.05304448,0.13928244,0.029307287,0.123929836,0.11995192,-0.055668436,0.07942121,0.090872325,0.0239337,-0.0090152845,0.07365033,0.022662695,-0.009856632,0.06438513,0.06549743,0.0368575,0.0117635075,0.04810817,-0.022802006,0.008308546,-0.022082757,0.041472793,0.03472611,0.048421398,0.0056967433,-0.07321749,0.02925151,0.05180254,0.055215433,-0.0147921005,0.024493415,0.082447365,0.014223714,0.07603611,0.071239054,0.15954933,0.032310463,0.05815305,0.12578468,0.11090558,-0.030325465,0.15514092,-0.06814855,0.05856797,-0.04116072,0.007952179,0.02349162,0.042533718,0.008185606,0.062364146,-0.021193663,0.038429514,-0.05406428,0.10814493,0.031037059,0.08930257
GMNN,0.01374253,-0.09911342,-0.045620628,0.076434724,-0.009812011,-0.0056446143,0.0051677832,0.06374073,-0.055128373,0.07796297,0.024303317,0.11110728,-0.008293522,0.009716735,-0.009608844,-0.009791431,-0.0077716038,-0.0050015613,0.036172178,0.03898569,-0.03537108,0.0014152196,0.0060203993,-0.028733995,0.003649906,0.014663721,0.005295276,-0.023836939,0.0035798675,-0.032287706,0.08161779,-0.057680488,-0.008337611,0.04630176,0.02191039,0.03267944,-0.04676416,0.005284399,-0.094987616,-0.06257256,-0.09569927,-0.058151435,0.05015614,0.01341264,-0.008197453,-0.04894907,0.0043684407,0.02466827,-0.00671909,0.028235937,-0.021088563,-0.027306123,-0.015049374,0.11266435,0.05705162,-0.08726988,-0.0342633,0.022291759,-0.08638917,-0.07856785,0.01886663,-0.029010154,-0.07725363,-0.061942555,-0.07252897,0.013450985,0.044205703,-0.045415074,-0.05053615,0.07745176,-0.055295672,-0.044794742,0.029138431,0.0017387015,0.035793778,0.01774444,-0.028387902,0.016425587,-0.018096888,-0.08995285,0.06668572,-0.018894225,-0.05571038,-0.06933547,-0.11021532,-0.0612197,0.016386157,0.07195065,-0.03565565,-0.028120916,-0.08975282,0.010571922,-0.08703741,0.061846368,-0.01803859,-0.03554273,-0.02070223,0.0088977935,-0.060723625,-0.094158046
PTPMT1,-0.0146893505,-0.062217496,0.004098594,-0.0050959005,0.046684183,0.07171092,0.0867805,-0.09839458,-0.07453371,-0.09346394,0.11047693,-0.13687517,-0.032854024,0.020501405,-0.11476432,0.0071082124,0.06960958,0.027501805,0.019725671,-0.006966828,0.07647557,-0.046896953,0.007762777,-0.048777685,-0.022314565,-0.01039159,0.026940156,0.04124634,0.0009860808,0.08201666,-0.06826902,0.021143215,0.018631104,0.0013399043,-0.015115604,0.015067942,-0.023691785,-0.017889457,0.030255275,0.045740917,0.034082137,0.027013136,-0.085807316,-0.037840918,0.019391201,-0.014965732,-0.04720102,-0.0014976087,-0.06791795,0.05868582,-0.032297608,0.08202299,-0.056213167,-0.056984045,-0.14359155,0.08361928,0.01691964,0.0042176805,0.06826257,-0.04289241,0.0693597,0.008116681,0.05301203,-0.0134267965,-0.0070713996,-0.006530835,-0.037475295,0.11318091,-0.028325455,-0.06108064,-0.008423588,-0.034333218,-0.00550841,-0.0534098,0.035719477,0.043228198,-0.0077656545,0.005143798,0.023626722,0.009089328,-0.09543635,0.059040092,-0.014908274,-0.002321095,0.0071636825,0.059623502,0.029718345,0.13246657,-0.043786503,0.075601816,0.07716166,-0.08647349,0.04473483,-0.033158474,-0.06463319,0.051759645,0.05998765,0.03471737,-0.026536426,-0.0037514071
SEPHS2,-0.053113908,-0.04782312,-0.07801786,-0.052762095,-0.057535853,-0.059837755,-0.093288116,-0.06106165,0.09747432,0.024546413,-0.12714829,-0.044107627,0.025207337,-0.036536556,0.0017139966,-0.011797007,0.0021592374,-0.04869585,0.03133065,0.061741404,0.051722825,0.030044025,-0.087469414,0.06311632,-0.03791248,0.046148118,-0.081469335,-0.049749155,-0.07934854,-0.04768275,-0.018795239,0.017309735,-0.077668674,0.034709997,-0.012384765,-0.038658533,0.0065723695,0.04788537,-0.029113675,0.02309058,-0.008081394,0.037266638,0.032720953,0.0557531,-0.033188377,-0.095365636,0.021200025,-0.017384762,-0.06356531,-0.012898838,-0.033900443,-0.027617699,0.0013476466,0.051414352,-0.085254595,0.003920017,-0.010771552,-0.01261649,-0.056160204,-0.042601828,0.04088724,-0.04778138,0.060152277,-0.019898482,-0.03284029,0.042472877,-0.01240043,-0.0896402,0.042580962,0.10214687,-0.008195171,-0.08907105,-0.041912418,0.013285433,-0.01997024,-8.8677785e-05,-0.03572337,-0.019116001,-0.034450933,-0.0140456585,-0.09167897,-0.055418905,-0.063581504,0.012715393,-0.045772083,0.042966455,0.032780737,-0.051472906,0.12088719,0.005903268,-0.0003252665,0.0537182,0.0015365155,-0.043719005,-0.15557142,-0.023431296,-0.07635726,-0.07369097,-0.042943854,-0.0045829825
WDR1,-0.0067140358,-0.064975165,0.09357669,-0.013656481,0.03138992,-0.00035843177,0.0046210946,0.09450097,-0.04666533,0.023054013,0.124398485,0.098671205,0.020976799,-0.042909052,0.047435783,-0.028525695,-0.03878687,-0.076525435,-0.030994924,0.093750216,0.03136873,-0.087380745,0.14385861,0.017529987,-0.025308419,-0.045277946,-0.13205425,-0.044316,-0.10210657,0.029231561,0.0064364406,0.17695698,0.013135442,-0.025521325,-0.058198035,0.0807642,-0.06976173,0.03508667,-0.04065302,-0.112070225,-0.042017397,0.012103759,-0.05168065,0.046772663,-0.025471888,-0.004972603,0.041675407,-0.023873085,-0.07017988,-0.09979103,-0.009978139,-0.01433924,-0.06343984,-0.03597185,-0.0455001,-0.021614054,-0.017675696,-0.09560265,0.09008733,0.022496106,0.077576354,0.020274602,-0.030754188,0.010618847,0.016515978,0.056490272,-0.120664425,-0.010216109,-0.00049709005,0.04474658,-0.0676521,-0.048900347,0.09052704,-0.096858755,-0.010031036,-0.016449083,0.042415608,0.041363508,-0.08076866,-0.052945066,-0.019490791,0.0041274223,0.028081315,-0.0630089,-0.00064641173,-0.015597975,0.056127984,0.04495014,0.06626117,-0.07804426,0.035459034,0.06847308,0.010256724,0.08960897,0.015899394,0.041667674,0.083409086,0.008840692,-0.07142778,-0.026447464
ENO1,0.026442517,-0.06959488,0.010087259,-0.0224105,0.0086566275,-0.11152578,-0.0004633636,0.03293045,-0.04159288,0.02373996,0.031756833,0.008306408,-0.11545067,0.038284387,0.010416016,-0.013836456,0.025445962,-0.046189923,0.07031938,0.041947976,0.017838672,-0.021376349,0.04664717,-0.092225485,0.00654011,0.020730527,-0.029026018,0.003339784,-0.034016915,0.016950516,0.0062586716,0.005724649,0.021048268,-0.0899133,-0.049399182,0.00783102,-0.014858316,0.008066916,-0.07204309,-0.017959235,0.018428043,0.059116326,-0.03357285,-0.07370503,0.023949035,-0.013284885,-0.025105538,-0.04373839,0.019037496,-0.03313634,-0.048597243,-0.028987888,0.020079732,-0.02167683,0.055906616,0.07917417,0.009699248,0.06614464,0.009980971,-0.029993357,-0.0018781739,0.036380585,0.004931015,0.044309054,0.010841001,0.117167465,-0.0010782834,0.060866717,0.022228166,-0.0276779,-0.110310845,0.081640355,0.071386196,5.9287027e-05,0.02227091,0.041564234,0.043995876,0.029069455,0.036053307,-0.076955475,0.056504708,-1.8728226e-05,-0.0906111,-0.009841065,0.10268672,0.05963276,0.018005013,0.055217315,-0.02565081,0.021539066,0.114802316,-0.052669022,0.06935806,-0.02334672,0.003964266,-0.027310817,0.07547675,0.01379827,-0.0086465785,-0.023821604
IMPDH2,-0.042842098,0.04141745,0.043937143,-0.018201832,-0.10974023,-0.117571354,0.0448086,0.03556561,0.02988115,-0.0057169264,-0.039494082,0.013538761,-0.013832783,-0.002225301,-0.06650847,-0.02689301,-0.040403355,0.012952466,-0.016593793,-0.026677456,0.0144291045,0.012213186,0.0011449618,-0.0319417,-0.02404757,-6.863157e-05,-0.10301555,0.04544622,0.05527996,0.06325631,-0.043408368,0.01020843,0.06802298,0.027828174,0.037320744,0.00060261466,-0.09557559,-0.009203711,0.06374676,-0.03695904,-0.06809929,0.005634499,-0.09650457,-0.046722654,0.025423732,-0.042134795,-0.005940582,0.08863569,-0.020304851,0.029942445,0.059079565,-0.021839695,0.021918116,0.006228013,-0.042697128,-0.024232524,-0.016722111,-0.035568923,0.0075058965,0.032610584,-0.040322863,-0.017481972,-0.001854374,0.0052292356,-0.0009390994,-0.0031624339,0.02627708,0.0143210385,-0.04268323,0.08244057,-0.06222679,-0.016139045,-0.04783804,0.049870703,-0.051667195,0.03095275,-0.029823586,0.1157678,0.0787365,0.015204928,-0.014131901,-0.04202232,-0.0015114824,0.00032943222,-0.030309515,0.0021896174,-0.05449402,-0.0058936365,-0.09944693,0.052503098,-0.052888103,-0.011324335,0.024992412,0.04169746,0.0011781058,-0.025718018,-0.10442815,0.038005486,0.07165339,-0.04499583
PSMG1,0.017233854,0.005959465,-0.041653216,-0.013314494,-0.01683891,-0.0003431147,-0.025973255,0.022375146,-0.03679267,-0.023006467,-0.013608579,-0.06205388,0.07933943,0.03911741,-0.101345055,0.113037564,-0.00092720275,0.0861151,0.04889446,0.0017797662,-0.098878555,-0.037422735,-0.011550469,0.0063037267,0.0117377,0.0037737906,-0.018028157,0.04194529,-0.006669902,-0.06068666,-0.12058849,-0.05527513,-0.069222674,-0.0043669706,-0.037540063,-0.004188961,0.058394432,-0.00405068,0.000748753,0.019820714,-0.07040418,0.05196798,-0.02947529,-0.028351927,-0.07993986,0.021520326,0.0006292497,-0.053043872,-0.02351998,0.10769652,0.023799896,0.026832601,0.012451464,0.02781526,-0.004357664,0.044640962,0.064981885,0.044788357,0.035364557,0.027597958,-0.030813187,0.024662321,-0.027729867,-0.03281724,0.0320089,-0.08828182,0.010531528,-0.07667254,0.10699685,-0.08490579,0.032052644,0.032240637,-0.06494605,0.039994877,0.0017852387,0.052655328,0.014349216,-0.01654323,0.017499305,-0.036628872,0.011118982,0.044932894,0.02141587,-0.07085487,-0.019647053,0.0066663935,-0.064256474,0.03899979,-0.034224477,0.06964799,-0.096732885,-0.073338956,-0.0022473547,0.011630321,0.0030522463,0.09151558,0.0376399,0.09388156,0.053557023,0.050998636
BCAR1,-0.02928852,-0.07240386,0.03718598,-0.06934321,-0.028646681,-0.11378905,0.009512752,0.030376267,-0.031514704,0.003015648,-0.009719104,-0.03771492,-0.029383503,0.025407683,-0.1100537,-0.08421461,-0.013684505,0.03705665,-0.050739504,0.038401224,-0.058042713,0.009747974,-0.00669392,0.05499049,-0.067500144,-0.030740466,0.02726059,-0.0555202,-0.03465553,-0.032383136,-0.026518088,-0.04863974,-0.008340683,0.008427492,-0.0021777689,0.03993306,0.011103875,0.043749545,0.03852229,0.00060976984,-0.0070761763,-0.0461024,-0.053475477,0.010366991,-0.08497486,-0.08106222,-0.013194016,0.07268469,-0.021102468,0.0062586027,-0.0336655,0.00238058,-0.04143078,0.04548955,-0.14112423,0.025609795,0.008293386,-0.016639587,0.053496342,-0.034452036,-0.026622321,0.05508516,-0.010385322,-0.013066814,-0.07242878,-0.056717172,0.028759358,-0.0086967,0.018356642,-0.021491148,0.019595163,0.05814164,0.0833189,-0.037621215,0.10652446,-0.01663351,-0.044226907,-0.0126139745,0.05940644,-0.03221179,-0.053622276,0.0107255075,0.012799014,0.051327173,0.030204423,0.010442731,0.020627115,-0.027266555,0.012699493,0.0023253458,-0.003580704,0.04342855,-0.033256073,-0.0406686,-0.048986774,-0.081373036,-0.032575164,0.05296567,0.010983308,0.08304738
SMARCA4,-0.049239073,-0.044262417,-0.00973427,0.04484556,0.029876813,0.012144268,-0.03602936,-0.015150474,0.01939491,0.028611148,-0.022516102,0.062835395,-0.01742012,-0.04275731,-0.027032662,-0.0020495479,0.06829891,-0.09850759,0.011548215,-0.036147382,-0.036115993,0.0026133182,-0.018536907,0.024435375,-0.0022728164,-0.041096613,-0.03231007,0.011136217,-0.07029341,0.028744156,-0.077509485,0.026348349,0.007918047,-0.05555936,-0.030582994,-0.03128419,0.030560536,-0.044797696,-0.039399385,-0.04669025,0.040339563,0.041546024,0.053408217,-0.041205116,-0.005077466,-0.034863487,-0.017621396,-0.09238384,-0.09966331,-0.021014279,-0.011585356,-0.11871138,0.058491237,-0.033908293,-0.04197081,-0.08735057,-0.026509283,-0.028130652,0.00045593563,-0.06576321,-0.016329322,0.0046103587,0.013452368,-0.09831454,0.0022062857,-0.06913635,-6.733446e-05,-0.07546325,-0.03009274,-0.134859,-0.08375253,0.05485207,-0.055750865,-0.09715323,-0.063060746,-0.0072219544,0.010491344,0.0042050662,-0.014120134,-0.059757702,-0.08298978,-0.030587964,0.051176567,0.029310541,-0.011772501,0.06976968,-0.089590475,0.006720351,0.02205297,-0.0022366168,-0.040862728,-0.09046609,-0.0687856,0.04145454,-0.094776854,-0.024520367,0.026619073,-0.029365845,-0.04303524,0.0030564393
CYC1,-0.0053013754,0.069293715,-0.02471758,0.0659727,0.01020883,-0.07916537,0.021493517,0.099440716,0.053548917,-0.10051013,-0.006688953,-0.1070436,0.04714714,-0.02170383,-0.0677265,-0.026451143,-0.02801042,0.03277726,-0.030065926,0.0393684,-0.10902095,-0.0139497435,-0.02145341,0.061689317,0.059708685,0.04697562,-0.020957045,0.02327407,0.025225632,-0.01245264,-0.038581498,-0.009281472,0.14445141,0.10240303,0.026732909,0.019977773,-0.04049535,0.088081986,-0.031956546,-0.017989747,0.07441982,0.0428663,-0.12519358,0.00013357011,-0.013105863,0.027160086,-0.010513485,-0.003003155,-0.068180956,0.026388984,-0.051633395,0.009730641,0.026337886,0.054697324,0.00912185,0.019914476,-0.0031649494,-0.010913579,0.026309397,-0.029936666,-0.02567526,-0.03451979,0.056722376,-0.084957585,-0.0065100095,0.10106662,0.010612839,0.002552028,-0.050648488,-0.039600424,-0.048480123,-0.046232358,0.027534522,-0.033281084,0.03577306,-0.043528132,-0.057650898,-0.0009532646,-0.01195574,-0.04092689,0.0025559103,0.017961364,-0.014533217,-0.018544829,0.041258816,0.0015132258,0.014697085,0.11056834,0.014991711,-0.03428292,-0.02388131,-0.04412294,0.016367419,0.011960643,-0.022214556,0.04139439,-0.026332615,-0.071868524,0.044480216,0.09943364
ZWINT,0.019480763,0.079517685,0.0042457567,0.11054809,-0.031594977,-0.060848046,0.08207376,0.02125862,0.066791855,-0.030653631,0.046735313,0.04689276,0.008478439,0.0017615517,0.0011234599,0.061938398,-0.018069495,0.041779052,-0.07914357,0.14050256,0.0033306982,0.018496973,0.04426547,0.01881218,0.010296654,0.016084792,0.030664757,0.07664345,0.048991084,0.056455933,0.0199946,0.01785615,0.013557936,0.083148405,0.031803608,0.06144551,0.12375842,0.092559926,0.030711133,0.07568204,0.030615693,0.021589322,0.029134342,0.12697783,0.104528636,-0.008216784,0.03677426,-0.04616691,0.015916836,0.035131555,0.003866548,0.014981607,-0.020386811,-0.037339523,-0.123620175,0.08976282,-0.054102145,0.022669485,0.04196004,0.050544433,0.056174584,0.016485345,0.024047581,0.04005867,-0.030007206,0.099564016,0.023143355,0.007014705,0.013926888,0.058714636,0.0326129,0.0025064661,0.03132625,0.016501924,0.06079999,0.021147233,0.019101031,-0.07949774,0.06375159,-0.06818743,-0.07846964,0.080514975,-0.008176786,-0.015934883,0.07001561,0.0003603123,0.056418918,0.0546062,0.10485159,0.03255475,0.055869505,0.08852631,-0.025148233,0.08580963,0.012900099,0.077605076,0.03183222,0.029453594,0.06383686,-0.064953536
ANKRD49,-0.0101672225,-0.04616023,0.024702372,0.0287983,0.023795513,0.023721483,0.008329545,0.17187268,0.005094374,-0.020665439,0.018644074,-0.0055695814,-0.012281986,0.03432596,0.00054969406,0.031144261,0.005728467,0.04884097,0.046034466,0.07225665,-0.04857815,0.06512543,0.10432704,0.0027565474,0.074895054,0.078468286,0.026729459,-0.018127117,-0.0146717,0.09286282,-0.07895844,0.10555714,0.0646403,-0.039005347,0.046685442,0.06779835,0.0391095,0.1150729,0.038032982,0.0802981,0.08586198,0.025797129,-0.026895154,-0.048498612,-0.08892937,0.039622,-0.057667032,0.037422318,0.014479384,-0.034421448,0.040091116,-0.062174425,-0.015236202,-0.026214296,-0.027457999,0.09084153,0.03896413,0.05599234,0.13034189,0.047594726,0.079733774,-0.0025645972,-0.03572426,-0.011454292,0.06899042,0.19353838,0.09634716,0.030903373,0.051092237,-0.03554866,-0.03441384,0.004789677,0.10755102,-0.019682549,0.006545377,0.0049365214,-0.011862588,0.055710763,0.018713886,-0.06347144,-0.053025704,0.047530893,0.036644083,0.008656647,0.035817362,0.10128593,-0.07896333,0.013469726,-0.022413777,0.010963931,0.02973386,-0.12764867,0.054609854,0.11711184,0.045570098,0.05503332,0.049376123,0.049244255,-0.009116961,-0.040675852
CRKL,0.10926717,0.14135644,0.0039896257,0.027900651,-0.022463864,-0.038055573,0.017755384,-0.006229558,0.045491237,-0.08527125,-0.015220924,-0.040748343,0.028986035,0.08003824,-0.023869505,0.030414095,0.06241042,0.04418619,0.0733316,-0.030259702,0.01577896,0.0108657405,-0.018717604,0.09669358,-0.027017029,0.008257101,0.061152313,0.12150818,0.14519408,-0.00617288,0.00320876,0.005736154,0.023354994,0.0865584,0.14662986,-0.0071460777,0.08774218,0.057942517,0.0040248316,0.041662753,-0.049319252,0.026141785,0.06749812,0.07220892,-0.091077514,0.14775129,0.04626169,0.151297,0.026866425,-0.030658074,0.14353657,0.032309346,0.13890287,-0.033778515,0.029247915,-0.029667504,0.021065218,0.08029402,-0.056742024,0.01017643,-0.052608628,0.082634464,0.079802215,0.055692516,0.015547878,0.056006547,0.13565442,0.023965921,0.060065422,0.014504558,0.21047246,-0.031865872,-0.070203535,0.0126316985,-0.015516084,0.101278916,0.03366245,0.04318411,0.048858102,0.062077366,-0.024193816,0.08076381,0.038833622,0.041167382,0.06955533,0.10684166,-0.007045149,0.003954231,-0.0105162235,0.022793557,0.06285612,-0.021050476,0.045460958,0.020757206,0.023042727,0.09644163,0.04443468,0.11258472,0.1249027,0.058197144
PTK2,0.035336275,0.124536395,-0.044531077,-0.076192126,-0.026779808,-0.045574475,-0.019058244,-0.092930704,-0.06779317,-0.008909678,-0.022817422,-0.0027511225,0.049151544,0.10736589,0.07344368,0.007995565,-0.024539553,0.055520795,0.03077316,-0.027367447,0.09961896,0.02163751,0.014913603,-0.040162474,0.028220154,-0.08576663,0.041973516,0.033767477,0.10435624,0.0021345236,0.017901767,0.005211324,-0.07503404,0.08563336,0.037584215,-0.036976982,0.08758733,-0.034494534,0.07037489,0.08741738,0.016086204,-0.07702996,0.018974463,0.06366499,0.06170954,0.04112509,-0.071382254,-0.011784579,0.0902092,-0.04219184,0.05276122,0.041847873,0.018089645,-0.09656401,0.052302215,-0.067566164,-0.011001272,0.0043032533,0.0288446,0.02979341,-0.0351656,0.101876535,-0.11295496,0.02137568,0.0728793,0.026746223,0.03445342,-0.0044619283,0.09399461,0.1558514,0.077423856,0.02140109,-0.01621142,0.09244056,-0.11318979,0.13329218,-0.05841259,-0.016092649,0.062953785,0.043688893,0.009678138,0.10184307,0.08201343,-0.024725309,-0.046258755,0.0039254194,-0.006878436,-0.06730446,-0.08699571,0.008559542,0.044828296,-0.01200391,0.01402548,0.025082288,-0.010690691,0.06335449,-0.024203645,0.11784151,0.066034414,-0.00080894993
EED,0.009060726,-0.061792627,0.019394107,0.04271653,-0.0223308,-0.08961819,-0.028669944,-0.050478633,-0.08738295,-0.012761028,-0.08487309,-0.008015442,-0.056588344,-0.0013018899,-0.02683968,0.023603069,0.026587665,0.040851746,0.111605965,-0.01417995,0.016989496,-0.022873728,0.031663273,-0.0488704,0.016457515,0.009303103,-0.05264298,0.023645904,-0.021054417,0.0093215145,0.034355998,0.009456811,0.012741867,0.005259324,-0.11168128,0.034452476,-0.06478232,0.06662491,-0.082561865,0.02682663,0.12853657,-0.033132166,0.0075988467,-0.04421884,-0.03071161,-0.06417148,0.0128829,-0.07626323,-0.05251421,0.019508177,0.03948743,-0.12740354,0.02078682,0.05607967,0.063376494,0.06725213,-0.05106881,-0.0004269997,-0.085359834,0.0830946,-0.0017361694,0.040477008,0.00974743,-0.021461004,0.024100987,0.041041825,-0.030216753,0.034136564,0.017509628,-0.010128247,0.04631776,0.047386196,0.05927161,0.002820509,0.023415139,0.033019852,0.0119168125,0.047047224,-0.032153208,-0.006939196,-0.04101053,-0.03186068,-0.028532123,-0.0063057547,-0.041506898,0.03697414,-0.049849425,0.009661172,-0.022081826,-0.019781556,-0.024430804,-0.04849649,0.05615494,0.009370935,0.0025285357,0.013909805,0.005907646,-0.05832954,0.037099224,-0.056912035
PAICS,-0.07267287,-0.0076793,-0.04208864,0.019005373,0.003655494,0.036206648,0.039362572,0.0052782544,-0.047406238,0.055107765,-0.028014252,0.060896292,0.030825883,0.011772159,-0.035155766,0.00753656,0.032897577,0.013859892,0.043506894,0.011690995,0.048711922,0.008696855,-0.041902497,-0.02900155,-0.00065137434,0.022266487,-0.06405942,0.04225563,-0.06384016,-0.047980845,0.14405231,0.016893907,0.0925356,0.05388937,-0.051777743,0.04468669,0.05576377,-0.074930705,-0.059232913,-0.012792475,0.05526883,-0.016224243,0.0028012272,-0.07237656,-0.08673539,-0.02064115,0.026877545,-0.025601976,-0.061783925,0.060848173,-0.024352703,-0.010168999,-0.06499329,0.007210518,0.004944,-0.0147110615,0.041895308,0.01148086,-0.0033717863,-0.10827255,-0.07738509,0.066140994,-0.022809718,0.024012946,0.026628107,0.030177357,-0.015709627,0.011401011,0.04395372,-0.032239676,-0.05278937,0.057521593,-0.014543029,0.024376778,-0.020317713,0.008567786,-0.023423208,-0.031107495,-0.075324014,0.005881401,0.10449002,-0.043578662,-0.014966657,0.065954305,0.0048705665,0.027453087,0.08456622,0.07267666,-0.115780115,0.050441183,0.08483599,0.019023705,0.039258145,-0.019806484,-2.9025916e-05,0.027676022,-0.038620047,-0.005256662,0.033029716,-0.0094150305
DNAJC11,0.08572209,0.01385197,-0.056799207,0.02498081,-0.053513065,-0.0041177594,-0.05946896,0.062032215,0.012881409,0.04033916,0.029539254,0.07007013,-0.035376262,-0.060069278,0.07714663,0.032664694,-0.02183382,-0.015765147,-0.051697742,0.026690494,0.029315714,0.030887198,-0.0032409679,0.020396011,-0.06607886,-0.052950863,0.002218635,-0.049373932,0.05005948,0.09596134,-0.00066406734,-0.021772532,0.020783812,0.013384467,-0.0145745175,0.04974999,0.039725136,0.11935857,-0.052542496,0.034342334,0.046073735,-0.024667125,-0.0074232337,0.053650998,0.025910884,0.011678289,-0.004589313,0.09443662,0.04512245,0.13357373,-0.01641303,0.0136036975,0.00052114995,-0.03963916,0.010908431,-0.015681686,0.03102412,-0.054563504,-0.010454915,-0.018027717,-0.054017954,-0.0013023019,-0.09119846,-0.034753844,0.019343086,0.034034118,-0.07381357,-0.09660467,0.0077125244,-0.040354095,-0.06723095,0.010843178,-0.08884878,-0.048716106,0.062010746,-0.08087934,-0.11765967,0.05455138,-0.0063864193,0.019110536,0.0026948962,0.016742688,0.015076773,0.0643645,-0.09116928,-0.061205342,-0.030877875,0.015210177,-0.051989328,0.00080694637,-0.00065475726,0.020415155,-0.03794824,-0.042360242,0.08408222,0.0022178763,0.006768233,-0.019084768,0.005814087,-0.090124555
TOE1,0.00814333,0.016132118,-0.032701876,-0.057274617,-0.04475876,0.057304602,-0.02489889,-0.0010454563,0.11703001,-0.08859606,0.008180373,-0.10275697,-0.051898025,-0.061314363,-0.0282898,-0.05443513,0.010541866,0.05473306,-0.012511952,-0.07079904,-0.008993909,0.11611921,0.0064428374,0.10632391,0.06187018,-0.05058487,-0.015580782,-0.029648742,0.04238493,-0.042111773,-0.00026571495,0.047365826,-0.029114932,-0.0024906376,0.037483074,-0.048382442,0.0025869145,0.064275615,0.060966242,-0.04741912,-0.096660696,-0.033934448,-0.040547628,-0.09848075,-0.03235128,0.08195105,-0.08937058,-0.018777702,-0.014391974,0.06518273,0.090173475,-0.009844916,-0.055096943,0.022472277,-0.071200676,-0.018470876,0.019613825,0.058960546,-0.06299969,-0.03846305,-0.06802635,0.05310535,-0.017953075,0.029567368,-0.073942505,-0.033079106,0.043218758,-0.01945461,-0.0041062213,-0.034097806,-0.04390351,0.04501154,0.026505753,-0.012698871,-0.04034266,0.0342826,0.096312866,0.07637967,0.11079728,0.060543176,-0.012377852,-0.032669924,-0.032744773,-0.0021788103,-0.012191155,0.037842877,-0.04287429,-0.0037598168,0.0066829068,-0.01766583,0.06499918,0.042628493,0.07352078,-0.04365205,0.014025389,0.010759832,0.0014370363,0.046621505,-0.056388807,-0.037946984
UFM1,-0.09529911,0.018428147,0.0032678507,-0.058755282,0.04792458,0.041865624,-0.04607005,-0.050460543,-0.03830071,0.036223944,-0.004806304,0.030692209,-0.053115588,-0.0043338086,0.00576774,-0.015973233,0.100626126,-0.039463844,0.0782795,-0.04300807,0.059632517,-0.0149081955,0.013415527,0.04186541,0.025337208,-0.10961622,0.006596322,0.032935597,0.04340773,-0.020986823,0.09761475,-0.018590001,-0.02996357,0.012774299,-0.052055303,-5.3354433e-05,-0.028727068,0.040479917,0.00941084,0.028301679,0.0223821,-0.07227268,0.02135523,-0.005213224,0.031692483,-0.098561674,0.06603451,0.018129744,-0.10600564,-0.019454552,-0.082952194,-0.018574158,0.008326342,-0.012040134,0.082139075,0.016950991,-0.07816243,-0.043509986,-0.07051714,0.055037837,-0.016452745,-0.055535603,0.04215322,-0.0042242757,0.08566987,0.030822486,-0.04173798,-0.069804825,0.0066517186,-0.005715668,0.048392005,0.049966387,-0.054804105,-0.048423667,-0.031389464,-0.0070471843,-0.037593212,0.0028453877,0.04110481,-0.0019600864,-0.058804333,0.002394411,0.039462455,-0.064183265,-0.029678404,-0.010195169,-0.04466603,0.030227302,-0.0060332664,-0.06715138,-0.036962345,0.047616865,-0.0026233008,-0.0866706,-0.044426125,0.048731115,-0.0072960365,0.014160334,0.035431854,0.039552502
ARHGEF7,-0.011285806,0.0820163,0.0978237,0.04873054,0.05942766,-0.10811149,0.026125165,0.065975435,0.12487209,-0.05670714,-0.059708532,-0.041720476,-0.0072049806,0.04067827,-0.031086532,-0.08148191,0.04044453,0.07428846,-0.04567752,0.07215061,-0.034561332,0.010887761,0.0076099606,0.0036792005,-0.020263596,0.092479825,0.053032115,0.004687563,0.027818318,-0.093662694,0.018350227,0.0046388446,0.033331797,0.017895123,0.038900454,-0.017094634,0.047453213,0.01721151,0.09783949,-0.019880202,-0.044387095,0.13204922,0.08327242,0.069352865,0.032522388,0.08594197,-0.051559996,0.045381095,-0.033661623,0.004052558,-0.035954088,0.045854528,0.047073472,0.09451633,-0.0028056467,-0.02565505,-0.032778133,0.05818906,0.081624776,-0.028996801,0.014467856,-0.025527995,-0.058332637,-0.01953428,-0.005770672,0.100445345,-0.002891009,0.004168755,-0.04231498,-0.036828235,-0.03371716,-0.114466436,0.03279779,0.11194298,0.05956569,0.10500342,0.025518011,-0.035722718,0.015028678,0.09614739,0.0661323,0.060586907,0.037064444,-0.032158658,-0.053268474,-0.012278495,-0.03302095,-0.0028196764,0.064829014,0.036990684,-0.009474586,-0.03244649,0.062216416,0.023137845,-0.04920305,0.02550236,0.034669846,-0.028775966,0.021022175,0.02535183
EEFSEC,-0.045573283,-0.033716165,-0.020071026,-0.037283238,-0.066749476,0.008311573,0.07323503,-0.066059,-0.051397584,-0.015167936,0.024385488,-0.02807532,-0.002891954,-0.0709906,-0.08137412,-0.04746452,-0.073811166,-0.054851703,0.07284776,-0.07419778,-0.013877009,0.02198772,-0.024784349,-0.019249476,0.0024772934,0.017159773,-0.11740031,-0.024693184,-0.0365633,0.03928464,-0.11582214,-0.054083753,-0.05722009,-0.07990124,-0.020340467,0.059355516,-0.00029236887,-0.05209077,0.0016882484,-0.027536014,-0.054928835,-0.054393128,0.015187261,-0.05321176,0.03721581,-0.072747074,-0.03554644,0.016039068,0.0004190342,-0.012043549,-0.0135351885,-0.06654655,-0.06195892,-0.050665885,0.027818864,-0.021680636,0.020963442,-0.041250348,0.032308172,-0.0026008703,-0.121161856,0.050774377,-0.026562192,0.044165798,-0.0019960667,-0.077682234,-0.11014228,-0.06516907,-0.051612623,0.05987919,-0.023702884,0.047709137,0.02539423,-0.060558602,-0.022361733,-0.030851541,-0.14804652,-0.022335835,-0.05554105,0.024025485,-0.005137946,0.02831357,-0.02903842,-0.09326408,-0.06194088,0.020619519,-0.049938645,0.013625402,0.051991083,0.003290459,-0.10632332,-0.043034945,0.020441888,0.006104446,-0.10322926,0.0034335537,-0.0059986194,-0.10425479,-0.051763296,-0.06926244
ADAT2,0.026449619,-0.006400645,-0.06084903,0.03869765,0.03528119,-0.06174582,0.042830113,0.027416946,0.10840367,-0.03159871,0.004323685,-0.11190302,-0.012896331,0.0091080135,-0.06623359,0.017732287,-0.015932983,-0.043611072,0.049013194,0.018473303,0.024319483,-0.009675456,0.033739284,-0.07324179,0.013282947,-0.032286413,0.04298481,-0.025617892,-0.008170181,-0.04137263,-0.069822334,0.0010479909,0.019760877,-0.022606555,-0.006206367,-0.039325736,0.037092496,-0.05452709,0.05125865,0.0008505571,0.028279651,0.103515044,0.011272046,-0.061152056,-0.106002405,-0.007050543,-0.013428981,0.09158686,0.08374068,0.098808356,0.056906007,0.03879342,-0.021408523,0.028296825,-0.09394233,0.03096783,0.008606121,0.047386948,-0.018264515,-0.009369495,0.0028700556,0.026303034,-0.024275832,0.0580548,0.08859252,0.0518948,0.01924175,-0.007065122,-0.049199462,-0.049947258,0.07108509,-0.055357292,0.10640464,-0.014571675,0.04061045,-0.010117459,-0.05818307,0.003911289,0.041533645,0.023973064,-0.0807034,-0.029545646,-0.04414908,0.07350558,-0.02236825,0.05436478,0.020684749,0.028172286,-0.04139241,-0.09756633,-0.0032131847,0.019301606,0.02417358,0.11015561,-0.012755244,0.024962906,-0.03390476,0.023005607,0.06437114,0.060052272
PMVK,0.023765964,0.059923712,-0.059255928,-0.042078998,-0.020339604,0.008318781,-0.010874631,-0.002983843,-0.059008744,-0.059810508,-0.030291555,-0.0205786,-0.01144268,-0.0037912582,-0.076351784,-0.012005906,0.019698184,0.013975041,-0.06263325,0.026182776,-0.05400639,0.09770781,-0.057773743,-0.034291707,-0.015997464,0.054630354,-0.0163565,0.00728956,0.04732188,0.004434005,-0.08996417,-0.053992208,-0.006344489,0.009048261,-0.013483978,-0.05525689,-0.009559286,0.06002769,-0.025564054,-0.027113292,-0.032461353,-0.06283163,-0.044365574,0.014938928,-0.03193165,-0.05826294,0.015781825,0.03665634,0.113641694,0.008717928,0.062379785,0.026319984,0.052960306,0.08333327,0.002266167,-0.031291127,-0.09381033,0.002174276,-0.0011108503,0.0016894137,0.038250115,0.0031012052,-0.022728398,-0.0659985,-0.060224697,0.010689014,0.016564842,-0.031656146,-0.010941749,0.10033932,-0.00022158098,0.0072341096,0.07409366,0.024180671,0.032682862,0.027282095,-0.023546433,0.03158959,0.026409581,-0.03989343,-0.029803852,-0.013037222,0.023068476,0.0048978417,-0.0037058413,0.015996557,-0.0545307,-0.053583123,0.015301291,0.011182549,0.00024070217,-0.06717978,-0.044849455,0.022431567,-0.14448948,-0.057278845,0.0044470243,0.024305273,-0.057515163,0.03460099
HUS1,-0.10633828,-0.061016135,0.03081237,-0.01111005,0.05581937,-0.082922354,0.027755482,-0.013109881,0.069938295,-0.055325378,0.019382892,-0.075686075,0.08304213,-0.08820241,-0.15020414,0.051817473,-0.06476538,0.027491704,0.030411562,-0.010945504,-0.0064682364,-0.10850368,-0.05329814,-0.04697506,-0.039489668,0.052629862,-0.009625894,0.0105470205,-0.051525682,-0.024246534,-0.11937869,0.069843955,0.036858577,-0.021069767,-0.062955365,0.060100995,-0.0023607127,-0.056322157,0.07948084,0.08771454,0.120503016,-0.028746447,-0.11211802,-0.07794404,0.016993945,0.07264818,-0.011546773,0.027227169,-0.0547263,-0.079513706,0.05526447,0.06799163,-0.014701532,0.05304354,-0.10362464,0.037154533,0.04081315,-0.0029109928,0.09820796,0.017124314,-0.0042206803,-0.054224007,-0.029436484,-0.01637831,-0.008688084,-0.01386247,-0.012258011,-0.032454833,-0.019333454,-0.06629179,-0.05526439,0.04400563,-0.0012404537,-0.009513749,0.019715594,-0.03354598,0.0033939083,0.0301375,0.031399876,0.008387377,-0.101945,0.016128987,0.034666605,-0.0831062,-0.0599108,0.009576551,0.04014662,0.010138623,-0.01468732,-0.026472257,0.00493588,-0.083254136,0.03248332,0.037080795,0.024918694,0.007185369,0.06724172,-0.021115692,0.02285434,0.056058537
YAP1,0.10055175,0.02367546,-0.042672593,0.0491107,-0.062761635,-0.03486635,-0.056121014,-0.07324225,-0.085617594,0.08413321,0.03375902,-0.04563766,0.066659406,0.018741136,0.014869452,0.000601888,0.029486375,0.01333886,0.039725192,0.00784805,0.07985696,0.035687715,-0.009992654,0.027734501,-0.015955942,0.00054103637,0.0821504,-0.0023224917,0.051282734,-0.08753977,0.004045423,0.013227302,0.045232676,0.044924702,0.11408019,-0.019797647,0.052470807,0.01723368,0.046983067,-0.011922761,0.06885216,0.012215519,0.039496787,-0.028434647,0.030473141,0.0027668676,0.07877498,0.15072945,0.11601152,0.016285772,0.033777233,0.016649907,0.0008016752,-0.033381246,0.0015737922,-0.07531812,0.021074107,0.013707045,-0.07140253,0.08131849,0.0010297444,-0.019016037,-0.049969137,0.018616077,0.038650926,-0.0006771141,0.062537946,0.055351805,0.004889936,-0.06561555,0.09029522,-0.017001506,-0.004967462,-0.035459045,0.031381343,0.020700855,0.08112614,-0.00062060694,0.008239785,-0.023063315,-0.011750707,0.04677475,-0.020197364,0.070669234,-0.00865951,0.109153345,0.041224733,-0.05908649,-0.049406093,0.08861704,-0.009214887,-0.043379124,0.024965042,-0.019763438,-0.029938621,0.036341693,-0.0047343187,-0.022909416,0.054635216,0.08068122
DNLZ,0.029256243,-0.036537953,-0.036614396,0.06309392,0.004093846,-0.0027007067,0.09318831,-0.0030074273,-0.006056111,0.064459726,-0.020653926,0.031527553,-0.03545598,-0.011522895,0.026357539,-0.10539288,0.031944323,0.013695397,-0.07782907,0.05407258,-0.0017116277,0.019935852,-0.025118528,-0.037057575,-0.008900438,-0.016097793,-0.11037149,0.008299696,0.052434962,0.033769608,0.043910276,-0.035045322,0.07177817,-0.079414055,0.009237588,0.033166178,0.0084677655,-0.06318679,-0.03921448,-0.024402963,0.044232797,-0.052618016,0.012660003,0.05310479,-0.010728027,-0.031896167,-0.01587006,-0.028493123,-0.03999954,-0.013181175,-0.056182593,-0.10197823,-0.01572319,-0.061536204,-0.008551258,0.0043976037,-0.023328781,-0.022247382,0.08449756,-0.02913852,0.0315462,0.012712331,-0.038945626,-0.0330681,-0.02870704,0.093877345,-0.04078172,0.054599453,0.004828865,0.0019496253,-0.009825507,-0.041420683,0.10499719,-0.06947786,0.05497216,-0.020686435,0.028500635,0.021658707,-0.03964876,0.006077675,-0.07431811,-0.08189024,-0.00398851,-0.09089864,-0.0007629431,-0.07008645,-0.06895103,0.061141245,-0.05353148,0.038907103,0.021532923,-0.0888947,0.08641114,0.0033410294,-0.087750174,0.038968228,0.07823769,0.0066567464,-0.05333298,-0.11673819
BRAT1,-0.026558664,0.04382797,-0.02605145,-0.016949175,0.013409454,0.0069507454,0.0014245006,0.011533397,0.060147334,0.0123716965,-0.0729002,0.09295897,0.05901041,0.078957684,0.04104584,0.009663583,-0.0057796515,0.016034067,0.042090755,-0.009534583,-0.09245573,0.019850934,-0.021682646,0.005171523,-0.017831674,-0.006634496,0.020257754,0.022674084,0.058796395,-0.04669829,-0.023228955,-0.050088342,-0.09838067,0.10323274,-0.0076353364,-0.0406815,0.1113359,-0.051671933,0.09968973,0.130498,-0.09101592,-0.020958487,-0.025485344,0.06583309,0.049762953,0.10010834,0.08891017,0.07484033,-0.013214244,0.018520175,0.01283225,0.018201549,-0.039000515,-0.04837101,-0.016888643,-0.0122841215,0.068515815,0.0027680022,-0.057148594,-0.062755145,-0.05830147,0.031061696,0.012084049,0.03912701,0.058690533,-0.045435995,0.0050727823,-0.032361392,0.06633584,-0.05600381,0.022920655,0.06469283,-0.018646248,0.08778442,-0.018706271,0.05088654,0.03696388,0.020358328,0.097144715,0.0457445,0.016396066,0.063452676,0.1438429,0.00025973003,0.012983499,0.059033625,0.10919865,0.013991795,0.09314985,0.031213805,-0.008281257,0.04347482,-0.01684304,-0.06294485,-0.011269845,0.06705721,0.033390686,0.0144396955,0.054706402,0.06294679
PPP2R1A,-0.006453472,0.058694176,-0.124659956,-0.028816298,-0.0123196645,0.023947975,0.047733106,-0.028414039,-0.00021280338,0.008591464,0.016658667,0.035560116,0.10185899,0.120133735,0.05966878,0.11131985,-0.0849617,0.040117025,0.031032562,0.0076501886,0.060889296,0.026664559,-0.037015013,-0.021500845,0.028893437,0.06935827,0.10750954,0.08901635,0.065762006,-0.047148287,0.045217507,-0.028267682,0.0075989664,0.076550096,0.07376938,0.023428317,-0.089867726,0.0076789,0.11344687,0.06423518,-0.0547896,0.0142045375,-0.10693457,0.039239425,-0.008767863,0.0679045,0.0067477236,0.046248533,0.08555328,-0.08426881,-0.0038592329,0.069733076,-0.037441555,0.045516152,0.08882887,-0.07844772,0.027616061,-0.03215388,-0.029056191,-0.031598423,-0.046471816,-0.045784753,0.06463943,-0.04577762,-0.030023891,0.026829293,0.039933275,0.07827788,-0.07453933,0.012663178,0.112318106,0.010515472,-0.008245947,0.008190732,-0.007062611,0.041765008,0.073616214,-0.015801704,0.004303221,0.10003388,0.021932079,0.026756173,0.020614062,0.105320655,-0.012544716,0.057362653,-0.03798226,-0.064875096,0.059211772,-0.015091316,-0.06410816,0.033828836,-0.028244091,0.000506847,0.12052509,-0.015826827,0.01281748,0.037374146,0.072958186,-0.0043125283
ZNF217,0.020483466,-0.08608386,-0.05564445,-0.011008271,-0.02097777,-0.06828301,-0.033486057,0.09125394,-0.012074976,0.105388544,-0.044338387,-0.038683,-0.030090654,-0.003628957,-0.041178368,-0.052034587,0.03097921,-0.0090738945,-0.06900198,0.016605398,-0.026928699,0.086683325,0.040290788,-0.022330109,-0.009924082,-0.06845033,-0.09453695,-0.062032096,0.021646446,-0.0010708509,0.056561124,-0.040505257,-0.06996724,0.023064919,-0.11598252,-0.039687626,-0.07729507,-0.047670156,-0.019489309,0.013170531,0.044162925,0.052235935,-0.10334291,-0.026611747,0.0037984215,-0.11576854,-0.024298484,-0.12806919,-0.0010210021,-0.015461311,-0.060388293,0.00014352304,-0.0438989,0.043523815,-0.07978337,-0.025913281,-0.110792555,-0.060806267,-0.04921358,-0.017491313,-0.0033503687,-0.08528889,-0.0512597,0.05610101,-0.03427162,-0.04479069,-0.107965566,0.038525477,-0.056856997,0.04221498,0.00012755851,-0.061680514,-0.05505992,0.035532866,-0.06476881,-0.027613875,0.06258732,-0.00740715,-0.04252328,-0.0048320303,-0.09184313,-0.027794963,-0.04932523,-0.01591138,0.013156306,-0.03543527,-0.030137358,-0.062389534,-0.068804435,-0.10028273,-0.020611593,0.02811761,-0.084942296,-0.06244287,0.07654854,-0.01606916,0.067951486,-0.11111258,-0.064821094,0.025677625
SOD2,0.046942182,0.004656697,-0.005126967,0.041346073,0.12777963,-0.044661228,-0.040594753,0.07492945,0.026181009,0.04362532,-0.022747327,0.08502001,-0.0009975242,0.06448231,-0.009140091,0.027741654,0.039208177,0.0315601,0.06626659,-0.0276694,0.08816274,0.100228004,-0.061948776,-0.027328622,0.029918654,-0.015697816,-0.04177441,-0.06227872,0.0026061274,0.0033556956,-0.029076932,0.011904974,0.030930363,0.0022469303,0.009339015,0.010728835,-0.040716656,-0.010476246,-0.04053886,-0.046510324,0.053024434,-0.037017953,0.035678126,-0.08342649,-0.05095067,-0.0004496544,0.032694716,0.005095053,0.019045278,0.04875852,-0.064170785,-0.016098514,-0.06497889,0.002195291,-0.00081114064,0.02384906,-0.04651185,0.069350585,0.012921539,0.1260871,0.071471535,-0.03755311,-0.09037118,-0.023512643,0.035424117,0.00033667925,0.014461184,0.0044968785,0.04861944,-0.06802505,0.008645668,0.061380807,0.04090949,-0.000102169164,0.039250635,-0.02866182,0.018236607,-0.052534323,0.0072540026,-0.078153156,-0.015689673,-0.028736748,-0.028781896,0.009987431,0.08232292,0.0033453533,0.04288674,0.073572405,0.05310837,-0.006676006,0.075456575,0.03934413,0.12936811,0.0848758,0.0325554,-0.0052957633,0.09174555,0.017932713,-0.07372347,0.038392864
SNRPB2,0.023648603,0.0363732,-0.011653518,0.022321327,-0.048099387,-0.023170926,-0.06571837,-0.034643266,0.07580829,0.061400093,0.018067546,0.021688737,-0.020223072,-0.073643684,0.05709545,-0.01107261,0.008806653,-0.0721439,-0.0015112351,-0.04244594,-0.07449881,0.097387284,-0.061507657,-0.000857618,-0.046770055,0.012661564,-0.019272136,-0.08846771,-0.04137812,0.03183367,0.05523775,-0.016875584,0.003439585,-0.057906356,0.076890014,-0.070810534,-0.03525202,-0.00033867068,-0.122586,0.01869155,-0.009848564,-0.03429593,0.0045832447,-0.02549872,-0.042574976,-0.018184595,0.032926522,-0.045693208,-0.020254593,0.08407072,0.02757196,-0.11807565,0.0065251756,-0.02029202,0.081711024,-0.043516286,-0.039670054,0.029480236,-0.0015094727,0.027475394,0.0878942,-0.013222906,-0.025806282,-0.008431757,-0.06125705,0.0041059083,-0.058139052,-0.03767167,-0.010506153,0.031151252,0.032098465,0.017947188,0.016523536,-0.03347295,0.020676553,-0.05350755,0.05218489,0.0032527726,-0.060801208,0.020062245,0.09398107,0.019838994,-0.036726438,0.008573272,-0.04330322,-0.050312664,0.011380643,-0.037160013,0.009539307,-0.022180215,0.000540585,0.044889856,-0.026158066,-0.056946337,0.0064316657,0.07311131,0.0065915924,-0.055742286,-0.013605489,-0.047443613
MDM2,-0.059927557,-0.008847929,0.003783288,-0.0077046277,-0.029008389,0.041124288,-0.054639496,-0.082524195,0.0764059,-0.041396383,-0.0943057,0.016750785,-0.0113319345,0.025208032,-0.08687623,-0.034306057,-0.06868207,-0.02968438,0.0064229113,-0.08588109,0.06036734,0.009799719,0.021534761,-0.09395434,0.0066850013,0.0274046,-0.018921532,-0.009848231,-0.027083732,-0.056014456,0.068240725,-0.04148492,-0.047321524,0.076146565,0.01780499,0.009253369,0.047532313,-0.019829035,-0.014163172,0.06690158,-0.02611169,-0.034024972,-0.06740166,0.06879827,0.055997226,-0.02006007,0.07316213,0.019906655,-0.038121913,-0.032856025,0.04763591,0.0041134004,-0.018361105,0.038520157,-0.04585514,0.030901622,0.07102016,0.022718372,-0.035048,-0.040360976,0.0020767397,0.044929355,0.046740867,-0.06581255,0.071822956,-0.059738953,-0.02644645,0.044920925,0.044251326,0.02873178,0.0054416033,0.016443525,-0.008439874,-0.022169717,0.039081976,0.008090822,0.0034946012,-0.09917743,0.017222047,0.04288777,-0.03894601,-0.07723628,-0.077047914,0.02540006,0.02011772,-0.032616198,-0.0065767015,-0.005104764,-0.04803344,-0.026248869,-0.09044803,0.020470181,-0.04152493,-0.10084366,0.08534916,-0.026137145,0.021947993,-0.020109154,-0.012773007,-0.027901625
PSTK,-0.05138837,0.0315298,0.09328109,-0.06833265,0.025561355,-0.02400027,0.04291993,-0.09781154,0.031632137,-0.035395235,0.035384618,-0.027943179,0.040053494,-0.07956471,-0.11327279,0.008209938,0.020155795,0.0055505913,-0.020377748,-0.10081456,0.01719871,0.08918714,-0.016997268,0.040082213,0.050200433,-0.013888724,-0.033561267,0.0048685307,-0.054999564,-0.00033624438,-0.08478958,-0.09473258,0.013421087,-0.04056106,-0.010381274,0.018485056,0.050268006,0.06242155,-0.062417403,-0.042150084,0.1337963,-0.10027603,0.053128228,-0.09111774,-0.100623295,0.09668087,-0.07239551,0.020797456,-0.067618854,0.033407,0.043018356,-0.027350176,0.042249348,0.03417616,-0.04159103,-0.027656116,0.047615476,-0.07902341,-0.07348703,0.026390025,0.031467214,-0.041931722,-0.034489527,-0.105025336,-0.03236553,0.0036909622,-0.048534427,-0.055426598,0.012502024,-0.0037909688,-0.01978563,0.07992667,-0.026081001,-0.001069856,0.049647745,-0.021258714,-0.066701196,0.0046997857,-0.038624093,-0.05587444,-0.13693343,-0.03086889,0.058113713,-0.093090124,-0.069277175,-0.0017647975,0.004126846,-0.0629441,-0.08929561,0.042807292,-0.112809286,-0.04185176,0.020667084,-0.0135287475,-0.0115093775,0.020003192,-0.03596636,0.010140863,0.040715996,0.027555548
ILK,-0.0401682,0.052957624,0.039591916,-0.05265852,0.011795558,0.0056840074,-0.013660343,-0.027246071,-0.04743887,-0.0073697935,0.059310146,-0.08329514,0.1377725,0.030135868,-0.005037807,0.10166852,0.012099917,0.10174808,-0.042901557,0.10105472,0.050266445,-0.13071284,0.0362404,0.09944412,0.038353935,-0.019613871,0.044474687,0.0948275,0.084994346,-0.07590769,-0.044990547,0.013320297,0.10863085,0.119464844,0.0602038,0.03404593,0.04617977,0.0099496,0.017116774,0.07613388,-0.15863545,0.0489199,0.07387159,-0.00086412684,-0.08925817,0.10018472,-0.023272518,0.10292601,0.075534426,-0.067322314,0.09013194,-0.011460425,-0.003843909,-0.027577233,0.010947758,-0.003218034,0.02578064,0.037657518,-0.038679384,0.004297293,-0.0048544114,0.10038785,-0.021919467,-0.08940493,-0.00962341,0.049629238,0.05086919,0.005307393,0.13132258,-0.067387775,0.06545225,-0.0016342286,0.019662222,0.011648719,0.07390894,0.01517664,0.00022746435,0.049223457,0.097502455,0.08662971,-0.05929332,0.09500318,-0.00046605073,0.081963345,-0.062463235,0.13284646,0.02193286,0.0493029,-0.10737834,0.053694554,-0.046557013,-0.040626936,0.043933626,-0.011863377,-0.12319082,0.008763394,-0.010647531,0.13103524,0.10028725,0.045242842
C16orf72,0.019427052,-0.071432926,-0.0059074983,-0.040615663,0.048913226,-0.05428947,-0.012898368,-0.03160797,-0.08857514,-0.04351195,0.050807964,0.019814894,0.053418916,-0.081148915,0.05604699,0.13008733,-0.05180864,-0.030811869,-0.017827092,0.029643916,0.002526439,0.07032475,0.00033507007,-0.07011623,-0.019661497,-0.03588652,0.033631623,0.011785893,0.014175726,0.008937021,0.058015134,-0.0048941136,0.02720735,-0.06870903,0.026615188,0.075454496,-0.07366921,0.07851871,-0.0604518,-0.053074073,-0.1813292,-0.008657454,0.003894875,-0.03555321,-0.13293748,-0.020513443,-0.08904416,0.058072567,0.003982741,-0.051845618,0.03964841,0.02396463,-0.0047460375,0.07826765,0.011225169,-0.08299154,0.055194117,-0.10080032,-0.038394757,-0.04492353,0.024172405,-0.010088567,-0.03700764,-0.036513384,-0.0020045636,-0.0257382,0.0035624087,0.04564213,0.055173088,0.054774653,-0.0067730322,0.0031507753,0.10481826,-0.012689016,-0.043383714,-0.011365708,0.048392486,0.036112055,0.04194866,-0.0045700185,-0.029845595,-0.07256834,-0.02351386,-0.017804248,-0.043752458,0.04152263,-0.06711942,-0.038965352,-0.05175775,0.0105026,0.08859001,-0.021605292,0.058429986,0.027461294,0.03826494,0.029828737,-0.024407037,-0.020719273,-0.0076967617,0.008424287
TAF5L,-0.054930117,-0.07172465,0.0056802803,-0.007716748,-0.05972423,-0.060126647,-0.020935109,0.020206954,0.032299254,0.008565,-0.005071493,-0.02290242,-0.08728813,-0.032150898,0.020323724,-0.11652607,0.029425478,-0.08466032,-0.050397836,0.08431507,-0.028811976,0.015182213,0.039499983,-0.02360586,-0.056725435,-0.02116878,0.005771008,-0.05910891,0.018617742,-0.07638576,-0.014825681,0.021671202,0.05069217,0.040958658,0.061460372,0.053671554,-0.035265498,-0.04665801,-0.029336913,0.014145802,0.11114487,-0.049470033,-0.038331933,0.022592355,-0.07271321,0.023083003,-0.041473676,-0.014855183,0.0023651926,-0.086555734,-0.02402777,-0.09295907,0.014065107,-0.04173061,-0.02103248,-0.009768109,-0.0052868025,-0.078592,0.029643709,0.04488871,0.026980143,-0.02289356,0.026437538,0.017696336,0.00918184,0.060926657,-0.0147409635,0.054388743,0.0019533637,-0.03203467,-0.10568328,-0.080906436,-0.016073026,-0.012722302,0.04170749,-0.08197607,0.013005262,-0.038696855,-0.031069627,-0.07803602,-0.10889293,0.03107142,0.002148985,-0.081686325,0.06916594,-0.0887797,-0.052017942,-0.030055491,-0.02018647,0.008551215,-0.017611701,-0.053877037,0.03931255,-0.028511135,0.031664554,0.0074440283,0.021457644,0.020393088,0.02071893,-0.0344921
MRPL23,-0.0028571675,0.08554166,0.011934495,0.018857041,0.061089717,0.050641656,-0.08913645,0.05584203,0.07719799,-0.036690276,-0.09374038,-0.01499484,0.024385242,0.06433634,-0.013195115,0.018669821,-0.03908381,0.08646311,0.08426924,0.0016288519,0.06212924,-0.012513135,-0.08559588,-0.05514062,-0.025882045,0.050295774,-0.0416043,0.088616945,-0.03425359,0.052181818,0.037565514,-0.040527966,-0.0492076,0.071443655,0.073241904,0.075294405,-0.0020372237,0.076754816,0.02768416,0.057439342,0.09113003,-0.049216896,0.11651047,0.057880327,-0.019517034,-0.01157386,0.05345223,0.07891283,-0.038896043,0.0717901,0.05107535,-0.027791452,0.01720217,0.03450941,-0.01826688,0.014131193,0.05937865,0.016931595,0.024999833,-0.00022734667,-0.071390085,0.03820607,0.025499744,0.081933066,-0.0025748261,0.02455052,0.04991688,0.089235306,0.10507787,-0.00046132534,-0.04346207,0.023627503,0.018266408,0.08572342,-0.050130535,-0.037656654,0.008461767,0.018210093,-0.016380876,0.00983467,0.024910681,0.0057112877,-0.0054897866,-0.011009329,0.01344211,-0.03083032,-0.052379385,0.011225627,0.06394067,-0.07698815,0.018809106,0.03734432,-0.061552364,-0.045994036,0.018224966,0.017288316,-0.004446064,-0.04028014,-0.043498486,-0.0053819004
CDIPT,0.11122836,-0.047820732,-0.074587926,-0.05617018,0.0076485695,0.14289977,-0.0063151843,-0.098718,0.019906871,-0.0033112015,0.017141493,0.09359186,-0.0757959,-0.031846143,0.11515521,0.031278457,0.07037889,-0.028336253,-0.006283662,-0.048074268,-0.025015544,0.06640795,-0.09751425,0.005662415,0.10013134,-0.06502951,0.03258278,-0.0047678915,0.012721029,0.07959305,0.0410291,0.0809689,-0.04190641,-0.056604568,-0.04767902,-0.028306821,0.0033026102,0.06300028,-0.054142557,-0.09330644,-0.12945658,-0.031745758,-0.024381047,0.02153855,0.095562905,-0.02731545,-0.009559443,-0.035815876,-0.06822812,0.025415555,-0.04079448,-0.01489107,0.013902653,-0.10560075,0.038222414,-0.032467343,-0.09472965,-0.08988068,0.033692136,0.07549712,-0.0929609,-0.06560128,0.026452461,-0.006020008,-0.06296338,-0.058714334,0.04828686,-0.05595162,-0.08130382,-0.035734486,-0.01976779,0.014424478,0.042698614,-0.02311634,-0.109275274,0.029911734,-0.013736592,-0.04025891,-0.08318222,0.00879125,0.12327033,-0.07989728,-0.055942357,-0.003253401,0.09517632,0.003072225,0.02030001,0.06859623,0.008620465,0.029575754,-0.105886005,0.08667712,-0.038013816,-0.10084433,-0.0033003609,0.032245737,-0.09850624,-0.07026621,-0.037988927,0.041953098
KLF5,-0.013287111,0.045472525,-0.027449729,0.017936531,-0.0102780685,-0.07059341,-0.06388795,0.031577196,-0.057207663,0.011620167,-0.10629301,-0.000559002,0.03141587,0.038324896,-0.043061282,0.033746764,0.045532007,0.053274717,0.019905297,0.022226693,0.04645157,0.0099591,-0.010985109,-0.10303601,-0.042641815,0.0722332,0.07621311,0.11431303,0.06488791,0.045830406,0.08681762,0.043791782,-0.026117286,0.047524285,-0.0071345926,-0.10381737,0.101634264,0.056052037,-0.012175677,0.04932787,-0.15938029,-0.020852057,0.017360616,-0.11348094,-0.10447639,0.020341124,-0.03301414,0.0077838586,0.035448726,0.11178979,0.021732267,0.020575345,0.042604826,0.0101989,-0.07945093,0.019441893,0.041219477,0.08173367,0.044428356,0.055283174,-0.043715462,0.06617161,0.0043732263,0.028236674,-0.049296554,0.05124075,0.09086026,0.03759716,-0.014241955,-0.1533605,0.09889742,0.0019921022,-0.020473907,-0.014390111,-0.019293206,0.10424174,-0.0027719042,0.027289085,0.042957395,0.03789243,-0.036089174,0.03948142,-0.011764936,0.05476329,0.007915604,-0.0200154,-0.06432827,-0.08363093,-0.058429755,0.039956573,0.03430742,-0.022169314,0.054347705,0.012875636,0.026042506,0.035114277,-0.047809575,0.03217562,0.051483173,0.017203396
MAU2,-0.012088617,0.053763825,-0.012085575,0.006251353,-0.02062968,0.07537639,-0.0021385434,-0.0030012187,0.049201902,-0.017097607,-0.031445745,0.021657255,-0.015525085,0.051500283,0.0997856,-0.0054752883,0.022102349,0.032595634,0.038874894,0.093591295,0.019455547,-0.08295795,0.041554794,0.0680813,0.06250801,0.11468806,0.039623544,-0.029298153,0.024912767,-0.024057502,0.038792916,-0.09573324,0.068813056,-0.010389805,-0.011644631,0.04540881,-0.04156342,0.0034183892,0.019044619,-0.015359277,-0.033940855,-0.02103049,0.05517001,0.017621543,-0.05963783,0.0005588113,0.052249633,0.035746887,0.005104283,-0.025051586,0.039502934,-0.025889996,0.028437631,0.12823257,0.05830861,0.023194069,0.03195238,0.045867004,0.028164193,0.04540881,-0.10000992,0.015005834,0.119478196,0.039573204,0.030948736,-0.045119368,-0.0048903436,-0.035924178,-0.03269422,-0.10948516,-0.011791959,-0.04580674,-0.045698866,-0.01905141,-0.006627616,-0.08623021,0.015084944,0.040570214,0.036296155,0.025697835,0.15689914,0.047570925,-0.008938884,-0.0038775054,-0.040663384,0.026787514,0.029998908,-0.039415598,0.005161266,-0.07551164,-0.042649902,-0.022656094,-0.07616688,-0.061033793,-0.027629089,-0.030410841,-0.023776365,0.042780418,-0.020358674,-0.084597655
WDR24,0.018595347,-0.055195093,-0.059582993,-0.0068677594,0.017683288,-0.029711548,-0.053637683,0.069808416,-0.03964444,-0.0077891387,0.007828628,0.033607904,-0.047284223,0.026674842,0.11010301,0.0027151727,0.028099643,0.027515614,-0.07099746,0.052842394,0.018096652,-0.04471201,0.019098135,0.055342678,-0.01913721,0.080893345,-0.08747211,-0.017011335,-0.022716489,-0.002909187,-0.06272485,-0.022633895,-0.017675016,-0.0069915634,0.024413342,0.04712527,-0.0021842066,-0.013422748,-0.03590921,-0.08841254,0.027375005,0.05156301,0.01438769,-0.032080375,-0.07040441,0.003801802,0.06867641,-0.058310896,0.00480654,-0.057218105,0.034191236,-0.0068407254,-0.05697337,0.034293495,-0.031458676,0.05908079,-0.050208367,0.029013304,0.039065484,0.05815366,0.0014907212,-0.06880447,0.04946894,0.022895178,0.030343283,-0.021820031,-0.07511218,0.04237869,0.020183096,-0.047799677,-0.034801237,-0.048727226,-0.011287311,-0.016755782,-0.011705905,-0.036702305,-0.046237532,0.007324397,-0.04283359,-0.09071448,-0.004736292,-0.07034402,-0.035992377,-0.06287433,-0.0058563785,-0.108104244,-0.023633532,0.098217785,0.0098113315,-0.029043194,0.08602843,-7.455031e-06,-0.060349353,0.069662,-0.066672385,-0.10793952,-0.015801309,-0.02335904,0.016254308,0.030683275
MIB1,0.113248326,0.12637366,0.016165458,0.0805595,0.116664276,0.009842824,0.029593013,0.022856744,0.054844923,0.0072753504,0.083181,0.011100308,0.061764665,0.0062940763,0.046048127,0.008019175,0.11196201,0.11519307,0.02929086,0.022033695,0.028449623,0.1232119,0.07283525,-0.08312806,-0.012182966,-0.06488684,0.04179884,0.065796904,0.044756394,0.06397942,0.07073534,0.0338947,0.056548852,0.069759496,0.00010116306,0.041695107,0.04730238,-0.015848378,0.115639515,0.05722609,0.10746445,-0.021388557,0.087585166,0.053109717,0.058773078,0.015667638,0.05212085,0.07886969,0.080702394,-0.013805495,-0.007968346,0.020562667,-0.014720291,0.061323326,0.05409428,0.061778817,0.029054109,0.014421611,0.05441965,0.10639162,0.13134678,0.06413277,0.05777957,0.06729596,0.00880998,0.0797599,0.11275214,-0.014472409,-0.086912304,0.024699505,0.059242863,0.073707946,0.062195186,0.053619377,-0.007591835,0.12826417,-0.016453136,-0.06810075,0.12218458,0.074429385,0.051957976,0.06465963,-0.028611176,0.009274108,0.018692432,0.03933356,-0.03545765,-0.03318899,0.05136303,0.10189737,0.05770068,-0.056651942,0.06898198,0.03273609,-0.04259326,0.039965063,0.03313238,0.029207973,0.11289321,0.08868204
CDS2,0.01971426,-0.19550402,-0.014548549,-0.052215394,-0.046023726,0.015428961,0.048458,0.04654805,0.0015910887,0.03186206,-0.012990604,0.014462029,-0.10784396,-0.17638053,-0.054574944,-0.009991803,-0.017979829,-0.15813571,0.058385037,-0.04491422,0.0070649437,0.017861446,-0.004057707,-0.04303137,-0.015168939,-0.01452671,-0.16258523,-0.20800284,-0.045371268,-0.051462386,-0.058523405,0.06306675,0.020280862,-0.13615009,-0.09010073,0.052983236,-0.14057848,0.050181095,-0.073214315,-0.0278099,0.10496,0.06468974,-0.080845654,0.06470112,-0.0147995185,-0.13608019,0.034914136,-0.050983388,-0.1483792,-0.070802204,-0.15999922,-0.15036958,-0.14664426,0.031244684,-0.0049905824,0.0633616,-0.023901911,-0.062661424,-0.004465427,0.022796677,0.1048414,-0.04492811,-0.093713626,-0.07762277,-0.028494298,-0.008352984,-0.13521853,0.040567953,-0.1027879,0.02385982,-0.107471064,0.01834431,-0.04710442,-0.17166561,-0.031364806,-0.15051877,0.049188327,0.076766476,-0.12448243,-0.100617796,-0.014943789,-0.12791142,-0.13343272,-0.034655683,0.014577772,-0.01977891,0.040625196,-0.0010875263,0.0076179537,-0.10677746,0.041398793,0.08617241,-0.034459732,0.06921071,0.0077645695,-0.025556097,0.0551317,-0.14003754,-0.2305522,-0.10063307
TEDC2,-0.1145772,0.09934145,0.068030596,-0.0826139,0.019642843,0.012628562,0.018171288,0.063578345,-0.0060502347,-0.0709866,0.06437097,-0.07344972,0.013975338,-0.020914609,-0.080986336,0.03193812,0.052881144,0.03212482,-0.06881291,0.03799927,0.044000532,0.039763205,-0.024591407,-0.036518298,-0.02945858,0.024339493,-0.033671092,0.056430306,0.005306917,-0.011888024,-0.06908826,0.065316565,0.0673124,0.07511726,-0.030181132,0.02256757,-0.02724176,-0.029392384,0.07734694,-0.037984163,0.055698786,0.04010435,0.03814328,-0.046600502,-0.049032588,0.061856102,-0.11332392,0.003819581,-0.015212179,-0.03610217,0.0336024,-0.018304741,0.04256417,-0.019069437,-0.1077829,-0.026012812,0.066066355,0.037705068,0.061227795,0.03696773,0.073335804,0.049134962,-0.0828,-0.108692065,0.03517238,-0.015109351,0.06179155,0.05105776,0.079749785,-0.06772015,-0.044870928,0.08526457,0.02713088,0.0012524325,0.0719637,0.042770445,-0.017796755,-0.015620322,0.046261035,-0.039771777,-0.016219035,-0.042767547,0.073486194,0.03829334,0.037120216,0.03690657,-0.010681406,0.0021780904,-0.09616392,-0.091239646,0.072738506,-0.093153544,-0.00037662714,-0.018188247,-0.04318068,-0.008568088,-0.016103901,-0.00085640245,0.07276039,0.020427365
