0,1,2,3,4,5,6,7,8,9,10,11,12,13,14,15,16,17,18,19,20,21,22,23,24,25,26,27,28,29,30,31,32,33,34,35,36,37,38,39,40,41,42,43,44,45,46,47,48,49,50,51,52,53,54,55,56
AAAS,0.0036208373,-0.030538585,0.0058029117,-0.053522695,0.08125776,-0.061140895,0.009467216,0.04117684,0.024254559,-0.05110114,-0.020415457,0.03831565,-0.017761303,0.062270314,-0.01667253,0.028822344,-0.04755545,0.09382415,-0.03702731,0.023955202,0.042652372,-0.024113916,-0.039550576,-0.050121475,-0.01896332,-0.0042284825,-0.016706463,-0.025439428,-0.02881972,0.038233135,0.035978068,-0.0032264253,-0.07139347,-0.058061495,0.051561702,-0.011870925,-0.020040125,-0.021849854,0.04585597,-0.009778187,0.07467766,-0.042041156,-0.0012044419,-0.0065080156,0.03638078,0.056332182,-0.0076203384,0.07631114,0.0044592633,0.019866489,0.018265186,-0.008329925,-0.08459093,0.024034612,-0.018625643,-0.028110115
AAMP,-0.035203766,0.054120254,-0.016582984,0.03184049,0.053772394,0.0439848,-0.038977966,-0.041584186,-0.049981054,-0.060264267,0.04932936,0.06180348,0.035849318,0.030942215,0.007601083,-0.0008715164,-0.0052494495,-0.009798712,0.06491926,-0.03897592,-0.0009963849,-0.026985623,-0.048397597,-0.051190767,0.038988803,-0.008655533,0.124862954,-0.039001755,-0.051579714,-0.029890837,-0.043260526,-0.025685985,0.061159447,0.060870238,-0.017437268,0.0071304007,-0.083944306,0.02877161,-0.015485527,0.053013835,0.04600998,0.11019003,0.028548263,-0.09903429,0.07039791,-0.0757231,-0.04798605,0.009263925,0.037030526,-0.020135196,-0.06978379,-0.04269242,0.044006206,-0.06647946,-0.041928872,-0.13135695
AARS1,-0.00871593,0.055789642,-0.016234484,0.026713198,-0.026491268,-0.031591665,-0.039715584,-0.002118656,-0.030370163,-0.00343848,-0.07957147,-0.020329792,-0.010868944,-0.035693485,0.008050363,0.025301535,-0.016529463,0.004296865,0.050017375,0.035547886,-0.037022922,0.004401181,0.04270077,-0.08559293,-0.025128711,-0.059284206,-0.021306735,-0.01913025,-0.023605466,-0.03414078,-0.044365678,-0.021657102,-0.0077170613,-0.07971099,-0.010632614,-0.019521043,-0.037308067,-0.015381449,-0.031695258,-0.024674855,-0.013540675,0.06287719,-0.0019438092,0.0075218,0.047268342,-0.011272661,-0.037922747,-0.049077034,0.0051983106,-0.03642631,-0.009238768,-0.04450991,-0.032880526,-0.018755998,-0.040604822,-0.014352472
AARS2,-0.04303602,-0.0022560917,-0.010100963,-0.0021270462,-0.058435936,-0.019942295,0.0021004542,-0.02592651,0.04034419,0.0024909182,-0.065048374,0.008267736,-0.028626433,0.0022742737,-0.09007438,-0.017540963,0.0020495853,-0.04046119,0.015781935,-0.007414513,-0.0013268148,-0.050311238,0.0037783838,-0.009918931,0.041048083,0.05342393,-0.15263456,-0.03367946,-0.06628243,0.04983897,0.011064657,0.052558105,0.038407404,0.0015845872,-0.05250019,0.07198186,-0.08419695,-0.049836818,-0.021340432,-0.037855286,-0.04378906,-0.029948017,-0.077024385,-0.03724592,-0.015409906,0.022162719,-0.012966179,0.009157211,-0.0029293585,-0.03709288,0.019742679,-0.057615682,-0.11406715,-0.04158614,0.0003541724,-0.008620858
AASDHPPT,-0.044865545,0.018422354,-0.017908223,-0.00065105245,-0.0049642995,-0.05328989,-0.01419899,0.06317584,-0.040643733,0.10629163,0.04680803,-0.11846567,-0.06986519,-0.031214528,-0.0070095733,0.027525023,-0.012195315,0.016634388,-0.008819654,-0.03404727,-0.035552062,0.035481844,-0.0780047,-0.036108173,-0.0872786,-0.00962036,-0.03728166,-0.05807273,-0.10229492,0.019674055,-0.060433865,-0.041783687,-0.017827809,0.062454935,0.029490015,0.08012839,-0.09072647,0.06560475,-0.035152998,-0.09658616,0.0027695692,-0.05782327,-0.054267455,-0.10733005,-0.03363934,-0.039916545,-0.00049147167,-0.096097365,-0.030075429,-0.0040711723,-0.03605464,0.027726728,0.022332253,-0.125409,-0.0008666287,-0.022036733
AATF,-0.03815136,0.015164225,-0.029722184,0.111900456,-0.015339103,0.033464186,-0.042224247,0.022473406,-0.026417904,-0.025621727,0.04483108,0.030068832,0.00811114,-0.027218215,-0.029919706,-0.012921604,-0.058134366,0.05148855,-0.06463151,0.049025446,-0.036888294,0.0069422903,-0.063417144,-0.007787336,0.076162696,-0.11882819,0.010350556,0.028774152,-0.029570105,-0.006586118,-0.08677279,0.040105306,-0.036363237,0.00706592,0.0031789907,0.048929222,-0.052870855,-0.035509005,-0.08215595,-0.012515003,0.066475496,-0.06616483,-0.050936393,0.03469171,-0.024314769,-0.014927217,-0.0055957213,-0.033314478,-0.037035864,-0.0626519,-0.03522853,-0.035710316,-0.083208375,-0.06649485,-0.037033673,0.0069081755
ABCE1,-0.027673813,0.0054563503,0.008773975,-0.059158493,-0.023235815,-0.032123733,-0.03216652,0.04944809,0.0014904847,0.04713507,-0.015715431,-0.049055602,-0.05737988,-0.037952643,-0.042183112,-0.02868119,0.059948444,0.013660575,-0.045633767,0.0643971,0.06736589,-0.05106644,0.022036903,0.012279593,-0.057041377,-0.09825471,-0.079985246,-0.024213001,-0.056268353,0.022075605,-0.0846038,0.0220218,0.0487631,0.0058069606,0.011800994,0.014039053,-0.023723148,-0.05805862,0.03619992,0.020239128,-0.07664411,0.038760394,0.07407871,-0.045937803,-0.008598061,-0.030059654,-0.041521054,-0.041616753,-0.07699552,0.0028411013,-0.0024359655,0.0061552767,-0.010661878,-0.020757714,-0.008582549,0.021496266
ABCF1,-0.039436866,0.04532539,-0.11353117,-0.013223815,-0.053107705,-0.12870617,-0.037423827,0.09768379,-0.026690766,-0.020793281,-0.035025507,-0.12646985,-0.06935958,0.03382983,-0.11052531,-0.063600965,-0.08071625,-0.051818646,-0.10768469,0.058378614,0.027483936,-0.025957447,-0.046759266,-0.08564536,-0.0035993855,-0.0779904,-0.051008284,-0.01748112,-0.10511262,-0.039059542,-0.015233389,0.03709772,0.06113086,0.02779913,-0.04696976,-0.04517386,-0.021674786,0.058384255,0.008632029,-0.03445262,0.054154858,0.031967185,-0.0014003975,0.06517078,-0.04737792,-0.06750831,-0.008861275,-0.044471614,0.033757035,-0.00996454,-0.04877315,-0.02320792,-0.06986582,-0.005419667,-0.02343939,-0.16252142
ABI1,-0.09048281,-0.03280548,0.061595943,-0.0047968724,0.032815456,-0.05978814,-0.02115629,-0.028247273,0.07187628,-0.010065479,0.043356646,-0.06401489,0.00758734,0.05201124,0.003589612,-0.07104937,-0.016675092,0.004600386,-0.004226372,0.06091359,-0.027224706,-0.046856534,-0.030625185,0.06324994,-0.012754379,0.03623982,-0.01558748,0.014414938,-0.016283931,-0.041694686,-0.093081266,-0.0326968,0.007099105,-0.0014473518,-0.04746379,-0.07733071,0.044577308,-0.034821372,-0.04611023,-0.03930365,-0.036611132,-0.024245284,0.024863537,-0.01900765,0.015755301,-0.032026526,-0.06439773,0.01613572,-0.08084198,-0.057022914,-0.02556263,-0.04151267,-0.01982035,0.015630955,-0.052476883,0.0008912012
ABL1,0.05601042,-0.051103126,0.044836283,-0.028314477,-0.0007625205,0.036658872,-0.044947136,0.09513336,0.03925157,-0.04932109,0.035099126,-0.017909432,0.0025138825,0.029668212,0.0041569867,-0.032348067,0.09377361,0.0037861066,0.0043905727,0.05940164,-0.036739558,-0.008369122,0.051989112,-6.902408e-05,0.0964793,0.029640604,-0.015934061,0.0367003,0.03229837,-0.077091895,-0.014938724,0.037899304,0.034755405,0.0820957,0.050415676,-0.02590485,0.051146477,0.042761717,-0.040714137,0.023302443,0.044246297,-0.05304775,0.020244025,-0.07231127,0.039253272,-0.030703485,0.07049075,0.03605772,-0.062056523,0.041366823,-0.03974707,0.017657846,0.052294783,0.057451677,-0.05799404,-0.07039282
ABT1,4.942376e-08,-0.003116952,-0.0036196753,0.06699781,0.03486496,0.054052074,0.040971186,-0.06285235,-0.01175631,0.015713671,0.05012588,0.10161259,-0.014130027,-0.007801929,-0.053320434,-0.10119656,-0.077640794,-0.038463473,0.08942545,0.03917312,0.020192275,0.04301184,-0.031420372,-0.002604935,-0.015577932,-0.017929573,0.074212626,0.018280093,0.056693032,-0.010028646,0.027432699,0.055643894,-0.03211392,0.054185543,0.04788363,-0.029979536,0.030395709,-0.033796113,0.07127683,0.03761121,0.057863723,0.04797951,-0.016132643,-0.020565005,-0.09521303,0.064346254,-0.006754233,-0.04349068,0.0073805894,-0.004943884,0.011075007,0.04274351,0.051210858,0.0799605,-0.03188758,0.02848698
ACACA,-0.056634672,-0.07664548,-0.020318503,-0.06555168,-0.10971451,-0.06861601,0.013236138,-0.0014764057,0.017366253,0.02198382,0.033240102,-0.11733354,-0.018907549,0.03775939,-0.053506512,0.057090886,0.008732637,-0.0072918735,-0.08564704,-0.084926665,-0.04572064,-0.027408877,0.018554213,0.008230446,-0.04914225,-0.01058798,-0.071422875,-0.032251086,-0.07840553,-0.0052834675,-0.01998291,-0.023847304,-0.04107436,0.054707587,-0.01999473,-0.031670887,-0.0071660867,-0.04195975,0.026288083,-0.08989857,-0.008763173,-0.034229424,-0.0576336,-0.044415325,-0.017573655,-0.10767166,0.0086167045,-0.08519876,0.057229422,-0.024254603,0.0097913,0.04746729,-0.052740492,-0.06786285,-0.035418805,-0.037539415
ACAD9,0.033980772,-0.029111935,-0.009208135,-0.0023012592,0.0068802233,0.05700519,0.09801793,-0.027471159,-0.046634845,0.05160158,0.0023237474,0.021043641,0.011529804,0.02828333,0.06192434,-0.03985643,-0.025601763,-0.035448935,-0.06768744,-0.074180156,-0.0010522476,0.12567902,0.04040965,0.057934705,0.031632163,-0.01938148,0.009993858,0.054238934,-0.036020685,0.0004219019,-0.001563262,0.04466309,-0.0044497033,-0.0014579641,0.00055249035,0.13565288,-0.048161466,-0.012257406,-0.021737685,-0.025087457,-0.047540057,0.03919084,0.004847014,-0.029600242,-0.085289255,0.018372646,-0.048752014,-0.01678854,0.1062322,-0.017431555,0.045619812,0.117172234,0.013732663,0.13004644,-0.08196982,0.006132176
ACAP2,0.0023407107,-0.074513115,0.052697066,0.07109221,0.0366591,-0.033585694,-0.11533943,0.008441395,0.06365295,-0.035849858,0.02523103,-0.039711144,-0.09161908,0.053669356,0.04793403,-0.05125328,0.06945224,0.02681131,-0.057709057,0.038926307,-0.01935869,-0.039654326,-0.0012298793,0.07326105,-0.0506965,0.05156595,0.051865567,0.026674794,0.008922881,-0.004341203,0.0416725,-0.009233345,0.044307914,-0.025887184,0.013327439,0.059981186,0.008319957,0.0017621304,0.023215428,-0.085768335,0.052620027,-0.01953662,0.03973686,0.015532215,-0.024807503,0.033876058,-0.04179642,0.01806576,-0.009811579,0.048721142,-0.0313846,0.035393927,0.006302735,-0.027770959,0.007753183,0.15660016
ACD,0.11159164,0.014881481,0.01710395,0.012436286,0.08329299,0.011780508,0.030770048,0.050890412,-0.039783098,0.003442445,0.052109048,0.13192154,-0.027083803,0.009990211,0.09806286,-0.018998722,0.0291436,-0.064899705,0.06311208,0.04878182,0.014931561,-0.010091114,-0.015927773,0.06254227,0.009658022,0.050147377,0.089051016,0.054829188,0.055708904,0.055364255,0.1267302,0.05589293,0.0050837346,0.044276502,0.03689615,0.06634166,0.035633907,-0.0054479367,0.18551528,0.02831886,-0.059002776,0.063858815,0.017988548,0.0070575764,0.05665313,0.054052565,0.054063734,0.12509479,0.07490339,-0.040193416,0.0024854995,0.009341091,-0.017659515,0.02827248,0.10997614,0.020468827
ACIN1,0.030287553,-0.03749165,0.028126929,-0.008340091,-0.022550352,-0.06268289,-0.04691762,0.018679589,0.10157809,0.039680514,0.041024577,0.022854744,0.03273618,0.10943634,-0.021695,0.021825204,0.025489576,0.018823719,0.0056121615,0.08039916,-0.04917188,0.010773229,-0.03517135,-0.012116665,-0.08756228,-0.022562074,-0.056266315,0.021467695,0.011244864,0.008219192,-0.017247116,-0.06934653,0.025573004,-0.0027165671,-0.033986,0.012130619,0.004017991,0.080036186,-0.025480818,0.032521237,-0.04777235,-0.039396074,-0.018252747,0.1102632,-0.005508866,-0.05555282,-0.025089432,-0.052025948,0.0034368106,-0.048623417,0.07088516,-0.014818048,-0.03626912,-0.0016994125,0.018007578,0.023185583
ACLY,0.0012255376,-0.046691615,0.010398973,-0.074816115,-0.10552845,0.022383008,0.044088986,-0.043046523,0.0966155,0.06054911,0.013045761,-0.037870876,0.06498911,0.0222058,-0.10870661,0.024472337,-0.013162691,0.001672543,-0.052879106,-0.06723564,0.0009870796,0.021288875,0.0141982185,-0.08630759,0.07321417,0.033075806,-0.060946908,0.09911129,-0.061288603,0.060192738,-0.03184388,-0.06256529,0.0304516,0.09996773,0.012845359,-0.028073248,0.06536548,-1.1288401e-05,-0.044342645,-0.02614903,-0.04454135,-0.03946704,-0.08202777,0.008649208,0.011287558,-0.01660679,-0.054701004,-0.0566271,0.05822798,0.034096394,-0.0025676098,-0.03008663,-0.006464022,0.00837847,-0.0753109,0.021291781
ACO2,-0.010112538,0.12403736,0.092785425,0.0021043762,0.017931826,-0.04375416,0.040369425,0.08145542,-0.03228812,-0.016571376,0.047952235,-0.024022972,0.0014516572,0.07418483,0.036878217,-0.060491074,-0.08905119,-0.010310214,0.04068506,-0.009755607,-0.0019113756,0.07168794,0.03132393,0.021008074,0.061022915,0.028665742,0.0427843,0.0031785388,0.01114807,-0.08022133,-0.03153105,0.020877106,0.07248858,-0.022683524,0.044797633,0.039270848,0.03476932,-0.030364687,-0.021165324,0.056900725,-0.044264022,0.062761575,-0.055144675,-0.008991274,0.030510457,0.0584439,0.013622267,0.038154434,0.072291896,0.038449865,0.022476252,0.025885966,0.073706105,-0.10569611,0.01285583,-0.13267134
ACOX1,-0.06793142,-0.03929917,-0.03412879,-0.0034444758,0.0018334051,-0.091081336,-0.06831642,-0.013719589,0.0046261335,-0.014902565,0.004325364,-0.0057668085,-0.04860424,-0.03113301,-0.0691509,-0.01715776,-0.07502804,0.08472105,0.039190825,-0.02898813,0.026098264,-0.049307317,0.013443647,-0.04048214,-0.07530509,-0.09640988,0.013799483,-0.025886273,-0.03263927,-0.09178902,-0.023445608,-0.027872736,-0.02414894,-0.05852479,0.02097939,0.018074997,-0.00881059,0.0075097457,-0.04000941,-0.074401826,-0.06481106,-0.096187726,-0.074925505,-0.0493678,-0.012474466,0.024510778,0.007833787,0.013872031,-0.090238534,0.001161894,-0.05800644,-0.09236329,-0.035716668,-0.057425,0.038982384,0.05086607
ACSL3,0.023566613,-0.045234095,-0.02076591,0.040460404,-0.060113657,0.00237788,-0.034141015,0.037129115,-0.029143034,-0.068120725,-0.023672916,0.043221176,-0.026318833,-0.009669132,-0.00429956,0.022051655,-0.02982284,0.0388331,-0.038350567,0.028281733,0.051375553,-0.065097295,-0.03302463,0.030021792,-0.003325888,-0.046655666,0.07216654,0.042234316,0.038274527,-0.09385194,-0.007936335,-0.032586727,0.06366209,-0.055539016,-0.015938625,0.0015357806,0.01757161,0.014899836,-0.047732826,-0.020198215,-0.07449773,-0.03701183,-0.007430217,0.022173632,-0.038459986,-0.03910401,0.016585499,-0.08528169,0.07252109,-0.038846325,-0.076244116,0.0048432574,0.02849384,-0.025799505,-0.047297265,0.044269003
ACTB,-0.04025575,-0.062796436,-0.0038526815,0.015660724,-0.043381594,-0.031977225,0.053583603,0.032972727,-0.06618989,0.11914477,0.031538874,0.020021224,-0.07357051,-0.020505479,-0.02445986,0.030469904,-0.05294547,0.04720549,-0.108427905,-0.06363584,0.05022649,-0.019673804,-0.03470534,-0.028607832,-0.029393887,-0.019034922,0.016560834,0.05393364,0.011167333,0.060059328,0.060625993,-0.014543878,0.0827153,0.00784657,-0.05040289,-0.0069032833,0.023235923,0.044548366,-0.061989263,-0.00963809,-0.0022394387,-0.14260858,-0.021202806,0.07542318,0.005180497,-0.014489662,-0.05672483,0.08060526,0.0214238,0.02198872,-0.01025644,-0.02038277,-0.0756925,-0.034640696,0.03785284,-0.030923693
ACTL6A,-0.0032540616,0.0067044124,0.06989249,0.10511468,-0.036962274,-0.039987937,-0.006931016,0.005614216,0.0496193,0.041137233,0.0010915513,-0.07497449,-0.05967928,-0.026256273,-0.12007829,0.025011742,0.0031272303,0.0051324274,-0.011783863,-0.07091215,0.040445507,0.015121846,0.014457155,-0.020835767,0.08396891,-0.0065664747,-0.088736005,0.028180541,-0.065145805,-0.0042578657,-0.044825744,-0.0723056,0.008323846,-0.0063587553,0.018131422,-0.08464905,-0.040829223,-0.049318757,-0.02370821,-0.036678,-0.054592695,-0.07937251,-0.0556115,-0.034353916,-0.009710164,-0.1034881,-0.004187624,-0.025209486,0.003369559,-0.015920019,0.063670665,-0.017562531,-0.051195282,0.0092113,-0.107903406,0.042751994
ACTR10,-0.09235869,-0.059007093,-0.0645902,0.07171691,-0.0845458,-0.023422327,-0.041684102,-0.07313013,-0.066606864,0.018237708,-0.05386494,-0.027964823,-0.009993291,-0.050248202,0.045532946,0.040899687,0.002048945,-0.023957651,0.043213673,-0.036620986,0.009317798,0.029121935,0.03436486,-0.001243512,0.012799518,-0.023539076,0.04150496,0.037712295,-0.012141653,-0.083974235,-0.05095878,-0.042501956,-0.015159372,-0.008414255,0.03509249,0.03430562,0.040675804,-0.03187492,0.04171036,0.023542779,0.08231444,-0.046795987,-0.01698949,-0.033559185,-0.047760904,0.009976054,-0.044184897,-0.034822375,-0.008800679,-0.02109706,-0.03745554,-0.007663594,-0.027926352,-0.040368605,-0.0051688654,-0.040032297
ACTR1A,0.054155007,-0.0107002985,0.015787736,0.06890927,-0.04908244,0.04536819,-0.062387045,-0.0019618112,-0.03462819,0.004896466,-0.07907766,-0.04439745,-0.09103865,-0.042839274,-0.039139073,0.03594066,0.0017796399,-0.021267666,-0.003075611,-0.07461888,-0.042308617,-0.05620366,0.00490379,-0.05859462,-0.039876733,-0.0659894,0.047533628,-0.06608103,0.028873032,0.027337136,0.08400185,0.01616752,-0.0710915,-0.029150601,-0.07865899,0.09281657,0.005169849,-0.0529296,0.012587949,-0.045254976,0.018322201,0.043321125,0.086605564,0.040925737,0.042769812,0.013531788,-0.050164137,0.04388876,-0.050295666,-0.09076782,0.00054036995,0.029162979,-0.051085614,0.0071176286,0.03159349,-0.022067452
ACTR2,0.0036371204,-0.028110264,0.018937562,-0.033996698,0.0048949346,-0.08597771,0.0039723567,0.031334892,0.03483302,-0.0061626895,-0.016629998,0.012436555,0.06452147,0.014896466,-0.057174064,0.04218067,0.021439092,0.051811624,-0.0144575,0.026657745,-0.018175215,-0.04592318,0.044707377,0.011149339,-0.05141984,-0.04312915,-0.062560305,0.041597113,0.028338296,-0.08430827,0.033962306,0.016380318,0.021124866,0.04241472,0.01664649,-0.07551555,0.058558233,-0.038507257,0.035678174,0.063653134,-0.005360559,-0.014836743,0.01116903,0.06298704,-0.012147103,0.046479896,0.032070484,0.00015653166,-0.0888434,-0.030743206,-0.026125511,0.011158736,0.021498336,-0.036624126,-0.025619509,0.049484342
ACTR3,0.017654825,-0.02550596,-0.0060756537,0.022459565,-0.013172545,-0.05136179,0.04788393,0.06334097,0.049706005,0.007529651,-0.069993705,-0.06107026,0.032245345,-0.03964332,-0.028565917,0.03384251,0.110973075,-0.023205142,-0.024993489,0.0058918856,0.032416105,0.047706075,0.013279075,0.015291158,0.028686747,0.011523543,0.057784785,0.02774496,0.065367356,-0.01659477,-0.04867662,-0.0028286139,0.022374595,0.0020317456,-0.01443389,-0.06657063,0.033906065,0.06340937,0.013601156,0.03899716,0.019122208,-0.016142057,-0.009807249,0.0050278,-0.031403538,-0.04628176,-0.03402311,0.017966235,-0.0067417165,-0.009068216,0.022984454,0.010921049,-0.06920309,-0.036554344,-0.025517114,-0.015646981
ACTR5,-0.019188778,-0.026077747,-0.07498899,-0.07651226,-0.009983127,0.009582734,-0.011474035,-0.055676922,-0.079853415,0.028734744,-0.026133513,-0.037862804,0.0057004094,-7.099104e-05,-0.0029657143,0.09895893,-0.012751392,0.038124435,-0.004227255,0.026145872,0.034751963,0.029337585,0.09139445,-0.055131666,-0.03609881,0.055676747,-0.08804007,0.042408787,-0.022851376,-0.028830232,-0.009250394,0.0625964,-0.012133503,0.036009416,-0.004247733,-0.0545178,-0.030032845,-0.022927638,-0.0034024871,-0.03146429,0.06279851,-0.106469534,-0.034409396,-0.018537153,-0.03557609,0.0058535375,-0.034891237,0.036259737,-0.01892086,0.032534406,-0.010720758,0.011039329,-0.13397634,-0.0020793295,0.0116492435,-0.10012124
ACTR6,0.0083519,-0.03328406,0.012675142,0.0016891052,-0.012720559,-0.021379162,0.048942428,-0.01708,-0.005784212,0.033134248,0.06614165,-0.060996678,-0.06806687,-0.007491374,0.014213166,0.04835532,-0.082481615,0.05605192,0.030409856,-0.049692646,0.056499958,0.010210552,-0.026269859,-0.011755627,0.0016537588,-0.028886754,0.028642982,0.022455815,0.061451785,0.07450806,-0.044205453,-0.068491995,-0.0028819987,-0.029847413,-0.02981878,-0.024638623,0.030958258,-0.014549068,0.0006537479,-7.754482e-05,0.07815485,0.07781723,-0.02733383,-0.053601373,-0.0025158084,-0.039547518,-0.011399044,0.0049046064,-0.04734111,-0.00656336,0.089719094,0.054956604,-0.053528726,-0.01735415,-0.013594686,0.015702078
ACTR8,-0.012331768,-0.037026778,-0.020951789,0.019320259,0.027313175,0.018143225,0.07995659,0.02514879,0.052398916,0.042842887,0.036019597,-0.02398386,-0.028154384,-0.021360891,0.05267575,0.03498415,-0.018892275,0.03751476,-0.042784672,0.08967939,-0.011959815,0.050026108,0.0044912254,-0.09529233,0.02018035,0.03719112,0.056817103,-0.028264156,0.055392876,0.03138768,0.080941185,0.070514575,0.0064043114,0.030406937,0.033158954,-0.057820387,0.09255774,-0.0028482685,0.050278686,0.05555485,0.07032742,-0.006003965,0.018719267,0.05643291,0.039316557,0.0323086,0.022496052,0.014496614,0.043607187,0.029500177,0.09015913,-0.054944504,0.06570708,-0.014993503,-0.049172483,0.03886258
ACVR1B,-0.0903499,-0.07763562,-0.026141051,0.0049042627,0.049649056,0.11499751,0.061657537,-0.010135744,-0.051084816,-0.013768836,0.029224211,0.07809415,-0.025356174,-0.008831262,-0.04193113,-0.004555961,0.06461868,0.04012248,-0.0011136053,0.05749986,0.095002465,-0.10235025,0.022801775,-0.043417946,0.018320145,0.05838186,0.0068147997,-0.07217324,-0.048906904,-0.008218682,0.043335322,0.0992172,0.071506545,-0.0070182392,-0.08275794,0.023324627,0.07722111,-0.029976951,0.03814812,0.09291582,0.046201546,-0.06534047,0.011338708,-0.08422782,0.033773597,-0.046034507,0.077893816,0.036980215,-0.08815332,-0.056765866,0.020235484,-0.023461709,0.08934248,-0.010673496,0.042280693,-0.010560261
ADAR,-0.016734038,0.0054680887,-0.11506572,0.0026939441,-0.01692631,-0.09608079,0.0042737583,0.06952213,0.034656744,0.034218047,-0.028002793,-0.017031284,0.023053193,-0.007034096,-0.12448992,-0.00590651,0.04534642,0.02460865,-0.042392604,-0.0221309,-0.027794342,-0.040287733,-0.043508843,0.015403645,-0.035261396,-0.09122159,-0.057372455,-0.056856573,0.04589265,-0.022943417,-0.056601238,0.006610918,-0.0579041,-0.017754337,-0.06446689,-0.044241443,0.092068255,-0.09230477,-0.09564382,-0.05108106,-0.031638913,-0.058060687,-0.019143945,-0.04744612,-0.011029079,-0.056176867,-0.0074456804,-0.017468551,-0.008183033,0.04268062,0.012407478,-0.027576538,-0.06863501,0.026052587,-0.062425103,0.033557713
ADAT2,-0.013929442,-0.10711045,-0.040989198,-0.034905918,0.090217866,-0.009488547,0.016538229,-0.07030001,0.0015527596,-0.039672934,0.060450085,0.0010191207,-0.033657297,-0.046591662,-0.015632352,-0.014457584,-0.0023367524,0.03491258,0.007136461,-0.03966238,-0.011243789,0.022231596,-0.017746372,0.011021901,0.006199854,0.03162733,-0.017016927,0.022019137,-0.043362204,0.07710127,-0.019337736,-0.05469205,-0.040366195,-0.0024037627,-0.041995738,-0.07163154,0.073592626,0.05405082,-0.0032761532,-0.018510247,0.029770583,-0.0165054,-0.094527654,-0.002227613,-0.047221098,0.0029875156,0.0035302495,-0.048977047,-0.021914717,-0.14656913,-0.0819986,-0.033637956,-0.017393518,-0.090678744,0.025093907,-0.011735448
ADPGK,0.059360214,0.039185286,0.010467573,0.05612508,0.020971665,-0.0038788598,-0.019444918,-0.094611734,-0.033873063,-0.030268429,-0.02508101,0.060107786,0.06265696,0.043707125,0.0108521925,0.050995383,-0.027677735,-0.095566556,0.07100114,0.12222367,-0.035839893,0.020988092,0.00069846056,0.05158301,-0.042717773,0.012221225,0.07283311,-0.02865461,0.05702715,-0.012958509,0.13851804,0.109141186,0.05545054,0.051107183,0.09282979,0.019321231,-0.0029931376,0.07007235,-0.0037785622,0.042358387,-0.0074008885,0.06888163,-0.036097378,0.04368682,0.08075932,-0.0020265481,0.07341785,0.04224577,0.0011152633,-0.015834263,0.029133787,-0.015461456,0.05282734,-0.00640551,0.045925256,-0.039781198
ADRM1,-0.06351612,-0.074239634,0.035144426,0.0341245,-0.04675251,-0.042501204,-0.03378283,0.046430446,0.038390372,-0.08123264,-0.06321393,0.001811984,0.0019121291,-0.110875055,-0.045540474,0.07634811,0.007976253,0.07664967,0.07272893,-0.018170854,0.048102003,0.011627952,-0.07305907,0.007902525,0.008702351,-0.064946994,0.017987266,-0.04600632,-0.049420036,-0.02775147,0.056420542,-0.020899665,0.036718752,-0.017918982,-0.020457147,-0.03059894,-0.1347059,0.080552146,0.016533323,-0.025888747,-0.018880753,0.1083238,0.031402815,-0.014416702,-0.06644227,-0.05755351,-0.003736654,0.075325154,-0.047441524,0.0012502273,-0.0076672984,-0.08366682,0.047261894,-0.010443459,0.050180342,-0.046846766
ADSL,0.02380834,0.103712454,0.051482845,0.0077481857,0.0038274957,-0.0073688384,0.027638748,0.064329065,0.008149439,0.0018093628,-0.028988244,0.0071409084,-0.060797397,0.06519973,0.008224659,-0.0043513216,-0.09090454,0.099194385,0.089556985,0.0447163,0.071449496,0.05283069,0.06345138,0.0022349327,0.047235318,-0.0606524,0.073508844,0.03426525,-0.01069815,0.031932134,-0.06489797,0.057612978,-0.0038832952,0.0632824,-0.007274555,0.020522514,0.017291985,0.009506174,0.06296091,-0.002952539,-0.041125063,-0.04876378,-0.034268875,-0.025031604,0.033376653,0.026841972,-0.023242006,0.008111331,0.05857936,0.008142445,0.0394097,0.031479385,0.005160045,0.014667105,0.025615204,0.014628515
ADSS2,0.06885069,0.06830046,-0.03206316,0.023090564,0.026311299,0.095468536,0.0837172,0.022897383,0.032260995,-0.03315628,0.047277648,-0.017368363,0.00886158,0.008538088,-0.027117822,-0.079053015,-0.054194298,0.15576755,0.028298149,0.06031835,0.05922352,-0.00025871053,0.029172808,0.01688788,0.067667365,0.031734962,-0.0039255167,0.080559336,0.008105507,0.09998849,0.071788535,0.08178131,-0.021699851,0.1000434,0.062552124,-0.01883144,-0.055824533,0.024192706,0.07397403,0.007613211,-0.07690829,-0.03099071,0.015965141,0.034484576,-0.044425778,0.052948013,-0.034201987,-0.00840587,0.05725707,-0.02752872,0.11293614,0.06766239,0.056858342,-0.019334473,-0.0009035825,0.06250341
AFDN,-0.039380282,0.002623668,-0.06304761,0.042039912,0.053130284,-0.02296846,0.05486445,0.05898924,0.0023316245,-0.010119217,-0.0082724625,0.03915404,0.04314597,0.006955879,0.066175126,0.027943712,0.0397778,0.049194034,0.03155164,0.09793749,0.007096895,-0.0632205,0.00834331,0.032534588,0.020574233,-0.017343385,0.035954382,0.083322935,0.020563526,-0.008578076,0.033397175,0.08814878,-0.03012922,-0.034829613,0.058322493,0.057652056,0.01515761,0.0026366452,0.09615223,0.023261337,-0.05305496,0.012526421,0.05542923,0.038408417,0.015895866,-0.062046535,-0.020653125,0.048121143,-0.005524297,0.090220094,-0.033758733,0.008271749,0.019856637,-0.020355696,-0.0073686475,-0.032534823
AFG3L2,-0.034480676,-0.051082928,0.015162478,-0.08952154,-0.04663493,-0.045353767,0.016445652,-0.04792491,0.022350423,-0.005137189,0.00022389056,-0.031062284,-0.018639028,-0.046822283,-0.010518675,0.051734027,-0.06813492,-0.022333954,-0.02860659,-0.031100746,-0.034146164,0.016894776,-0.09638188,0.015211213,-0.0447709,-0.08037566,-0.064069554,-0.0042341324,-0.103657305,-0.05239751,-0.011075321,-0.0049089864,-0.0028345545,-0.0014028881,-0.009755054,-0.016625108,-0.028557358,-0.065695204,-0.009955972,-0.044696666,-0.002162272,-0.05695304,0.017029746,-0.017930822,0.0086749075,-0.059883077,-0.11268142,-0.055994287,-0.0641087,-0.04450553,0.034906603,0.0020506212,-0.039817765,-0.05085839,-0.025277896,-0.07790339
AGBL4,-0.027507266,-0.010546162,0.04704356,0.05796277,-0.0020452684,-0.043534793,0.08046308,0.0899232,-0.08077441,0.05127502,-0.013007171,0.015046206,0.023759287,0.038304023,-0.058342613,0.0068037515,-0.030367596,0.0332674,-0.046761602,-0.003378238,-0.049300652,0.069457315,-0.009463504,-0.0964763,-0.018868493,-0.025500825,0.010517342,0.028244719,-0.039729133,-0.0016889874,-0.05809516,-0.013904701,0.0805913,0.030730616,-0.11934984,-0.004211729,0.058861453,0.016397648,-0.031847887,-0.075095005,0.01081908,0.012901553,0.043829065,0.0074356957,-0.03422721,-0.0724708,-0.024921926,-0.0050780633,0.03271369,0.03680289,0.022777073,0.01405603,0.006529296,-0.009913627,-0.030028857,-0.051365715
AGFG1,-0.013668459,0.034102846,-0.032149084,-0.004609632,-0.024529336,0.101213485,0.046135165,-0.034307215,-0.00071293936,0.0414994,0.042081658,-0.022473218,-0.0056641996,0.06968985,0.03353786,0.04231162,-0.016787663,0.07466939,-0.020732924,-0.014677131,0.057536542,0.04207781,-0.005348113,-0.027889531,0.05138266,0.050025098,0.038186952,0.019984221,-0.013627377,0.016109321,0.04512921,-0.062518895,0.01894412,0.026375232,-0.00754878,-0.045434106,0.05378757,-0.07422854,0.06566419,-0.032076135,0.08002748,-0.004027963,0.009747464,0.025529152,0.03222042,-0.0029027185,0.0979803,0.011154077,-0.011460312,0.04680559,0.040241413,0.055115193,-0.0014252092,0.010313574,0.00642869,-0.04059438
AGO2,-0.04955988,-0.050640486,-0.04139468,0.044218242,0.016832424,-0.017723914,0.06772453,0.0032716913,0.07747644,-0.04881444,-0.04174559,-0.073940225,-0.0872304,-0.04841489,-0.008121331,-0.028919887,-0.04672626,0.10279195,-0.058786534,0.0043243608,0.09625331,-0.0438004,0.0063906847,0.025610007,0.07654438,-0.030052118,-0.10419832,0.003768078,-0.017209044,0.02764084,-0.020922806,-0.038459353,-0.014969395,0.050530422,0.03624841,-0.057364848,8.2358296e-05,-0.015945476,-0.05764092,-0.007159911,0.0075463257,-0.034346297,0.09302132,-0.039348915,0.00921884,0.002449887,0.026154285,-0.008447918,0.037407663,-0.049860824,0.075707205,-0.071880735,-0.06208612,-0.017694851,-0.05064409,-0.052220535
AHCTF1,0.016684793,0.10049215,0.00950225,-0.025407644,-0.09736948,-0.05897735,-0.04022236,-0.0115388455,0.049157895,0.06655672,0.02705231,-0.053885024,0.00990002,0.03540526,-0.05617692,0.10477657,0.010569337,0.07507478,-0.035296798,0.02651083,0.015143975,0.030202918,0.06797346,0.034194063,0.071253955,0.0024143488,-0.030944103,-0.052336726,-0.039485388,0.058396287,-0.05014488,-0.111349955,0.044804044,0.012290346,0.035077155,0.030839521,-0.0546788,0.053883154,-0.031520568,-0.06847367,0.002918219,-0.06376947,0.034480862,-0.024106309,0.018033931,0.030113647,-0.04476305,-0.041966062,0.07145271,0.08236783,0.046304822,0.057367396,-0.021635383,-0.023360556,0.037321586,0.07469985
AHCY,-0.0023794062,0.02496632,0.025410406,0.010454554,0.06333623,0.014505599,0.028290574,0.050554838,0.03998679,0.061156783,0.04275808,0.049183376,-0.0560064,-0.01956231,0.05290299,-0.036718205,-0.048386775,0.12914458,-0.0056048655,0.038645394,0.06742562,0.026429793,0.13230415,-0.042654067,0.05609996,-0.04893276,-0.0018122729,0.06613625,-0.050277602,-0.056325626,-0.05969902,-0.003292672,0.036498833,0.047760382,0.043863617,0.08994818,0.041004065,-0.043487146,0.037002027,0.010912061,-0.04811609,-0.0007822437,0.024441333,-0.023470731,-0.011494119,-0.036622457,0.0329428,-0.032856025,0.07621905,0.02076638,-0.013384866,0.03206797,0.025936518,0.036484756,0.01940091,0.060433242
AHCYL1,-0.010194615,-0.018997107,-0.003209709,-0.011555686,-0.0002990181,0.011268156,-0.03914003,0.0219478,0.010822129,-0.032425027,-0.06824004,-0.0058412566,0.03239006,-0.04524418,-0.06773937,-0.024721876,-0.07920872,0.03900743,-0.007041972,0.032573547,-0.083902165,-0.025255382,0.03800986,-0.021635663,0.051033612,-0.032183647,-0.041313346,-0.00046535063,0.017150661,-0.058847222,-0.06410304,-0.022496024,0.0055753947,0.008321362,0.028004253,-0.010982652,0.0008752977,-0.014671167,-0.0139302295,0.001235491,-0.17220928,-0.008614092,0.035195645,-0.049504314,-0.07838893,0.007292903,-0.057231493,0.00840748,0.01127318,-0.01797909,0.08446102,-0.00908486,0.015517936,-0.048417207,0.008757909,0.010055493
AHR,-0.019797875,0.023650011,0.027191898,-7.0330185e-05,-0.02628168,-0.0074062366,-0.026225442,-0.048449136,0.015564936,-0.039490983,0.034679834,-0.0014739962,-0.029845089,-0.040986415,0.041538883,-0.044554118,-0.033009168,-0.09995758,0.036671724,0.0052853227,-0.09535149,0.032809436,0.01467539,-0.04050737,-0.016158646,0.11636574,-0.017639868,-0.019190244,0.04177918,0.00035776824,-0.0070246942,0.0389097,0.0014090001,0.04336718,-0.012387936,0.021866513,0.07065953,-0.0369625,-0.05249045,0.04694154,-0.13100079,0.0005426354,-0.10693223,0.05747979,-0.050290316,0.06438677,0.012364382,0.0018078618,0.022178816,-0.06187922,0.014928474,0.0044994066,-0.026691629,0.050226886,0.054825053,-0.0417543
AIP,0.012500189,-0.031614553,-0.020399597,-0.03655005,0.05089156,0.04744218,-0.050969463,-0.068722315,0.0427227,-0.028224103,-0.044324365,0.0058580493,-0.0055658645,-0.03425197,0.011584408,0.048243474,0.0789182,-0.03436777,-0.020487254,0.03029639,-0.004032355,-0.057318684,-0.03694355,-0.008014476,0.052222475,0.08635362,-0.12189997,-0.047785357,0.08314923,-0.030179994,0.013299996,-0.03704197,-0.01248586,0.08200749,0.040402737,0.028154852,0.075151,0.052010875,0.025670124,0.040351287,-0.029383061,-0.06705706,0.01425332,-0.019712204,-0.010503998,0.022883419,0.06900508,0.005815352,0.072181724,-0.0020282238,-0.009622842,-0.044887792,-0.09187765,0.0699454,0.022284243,0.015690714
AJUBA,0.007084008,-0.0589972,-0.038197473,0.02597289,0.0029406862,0.042866472,-0.037585225,-0.022423428,0.104660004,0.13380706,-0.025589427,0.08328228,0.072475165,-0.036584858,0.040734004,-0.014767266,-0.07206584,-0.003962329,0.033040665,-0.008387855,-0.04258465,-0.024873327,0.02415401,-0.013141885,0.0036458753,-0.022381062,-0.039158072,-0.0045400704,-0.00084137905,0.036581866,0.031325784,-0.109803565,0.011364913,0.038368065,-0.062391665,0.03422349,-0.025645211,-0.08236906,-0.009405502,-0.025369376,-0.050869044,0.0294107,-0.034092147,-0.024377264,-0.028708693,0.062449344,-0.023319485,0.014888179,0.009973812,0.035446554,0.01543091,-0.008913858,-0.011040984,-0.036430176,0.013426936,-0.06383998
AK2,0.047596667,-2.5795209e-05,0.10901316,-0.055614084,-0.014969468,0.099973,0.11375963,-0.039377525,0.12954827,0.018537644,0.12240533,0.056077026,0.005907559,0.017541293,0.020119585,0.045225363,0.05617096,0.07732641,0.070578165,0.056169752,0.0997421,0.047064465,0.06541385,0.06608377,0.117783785,0.008977154,0.018239278,0.100352,-0.0043053534,-0.014715007,0.016525472,0.024918443,-0.004534378,0.03556444,0.009221226,0.057817154,0.01736684,-0.032609325,0.012691845,-0.02900674,0.03188802,0.021125048,0.05584822,-0.004146964,0.019509315,-0.07460392,-0.018886445,-0.028681051,0.013665878,-0.015366891,-0.05533228,0.03327326,-0.0037806323,0.012682813,-0.057056706,0.12754108
AK6,0.004879293,-0.0013741715,-0.035020705,0.06836378,0.0057922467,0.0052116765,-0.0023817918,0.010862405,-0.017299242,-0.060101386,-0.03338011,0.09147766,-0.04801663,-0.022585444,0.0031876815,-0.05270729,-0.05810084,0.025706735,0.07244428,-0.0086294515,0.002709922,-0.044210285,0.03341251,-0.031213334,-0.052771498,0.055761058,0.03779633,-0.10473471,0.05579142,0.032452147,0.06424552,0.042532783,-0.07889094,-0.014729157,-0.012212853,-0.037387203,0.08105873,0.015709728,0.06527278,0.077669956,-0.006758364,0.06601887,-0.015223191,-0.019548437,0.030949993,0.0070870914,0.051799677,0.021419048,-0.008899721,-0.091053486,0.034437075,-0.0077322912,0.022397732,-0.049477857,0.07275179,0.02127629
AKIRIN2,0.024451358,0.09302265,0.02722096,-0.051141843,0.04648511,0.014221293,-0.023662861,0.0566924,0.11651689,0.04590313,0.040431462,-0.04597872,0.08631976,0.062615745,0.015043927,0.10296855,0.008060043,0.08617569,-0.016540421,0.017622637,-0.0054350593,0.06652561,0.037955664,0.039325096,0.096734256,0.031589743,0.024703521,-0.009372821,-0.009686848,0.013979308,0.0114234295,0.04590375,0.0445732,-0.005778813,0.1258849,-0.037818212,-0.029839871,0.07670721,0.03178508,-0.010211008,-0.0046617044,-0.0035005156,0.10628451,0.11862097,-0.003453036,-0.0056465487,0.013003876,0.0081318505,0.054846175,0.034040052,0.070656255,-0.0049726586,0.045343254,0.030582804,0.022138402,-0.011446172
AKT1,-0.021309322,0.051910393,0.09701468,0.024192236,0.031474285,0.042684197,0.04637264,0.016937599,0.05985512,0.05906532,0.011449619,-0.09285496,-0.037751313,-0.0008436885,-0.06689561,-0.0043191887,-0.021870458,-0.052117847,0.015405584,-0.021172108,0.0048401686,0.08867677,0.06404388,-0.029357754,0.007821345,-0.05452311,0.0806641,0.070491344,-0.023897018,0.02926359,0.05796602,-0.04960069,0.06291569,0.058305737,0.07552215,0.059351094,-0.01782762,-0.030696156,-0.049016085,-0.0915136,0.0140025485,-0.056697454,0.064607255,0.062357318,-0.036894612,0.046152826,0.062439337,0.08131562,0.0613551,-0.0215751,0.11159804,0.061620984,-0.032997154,-0.045700755,0.0142477015,0.06009455
AKT2,0.04618148,0.0442,-0.036489516,0.028735442,0.021002302,0.0014113004,0.033439275,0.0016088648,0.03745461,-0.0033742972,0.033508245,-0.086844966,0.029744385,0.071458004,-0.034443922,-0.017543942,0.0026509615,0.042177085,-0.035286713,0.14371288,0.071791604,-0.061446592,0.07604711,0.0011569272,0.05553956,-0.03917459,-0.0856567,0.10404931,-0.019379701,0.0071840696,-0.022782493,0.005762729,0.020758793,0.1725825,-0.044703312,0.07050706,-0.021248948,-0.053072557,0.024297629,0.0099875685,0.0282429,-0.10179648,0.03368199,-0.0081818355,-0.0063590286,0.062164605,-0.03622872,-0.07311765,0.052109968,-0.030947473,0.050412748,-0.0058652186,-0.0391202,0.07355503,0.028953198,0.06934301
ALAD,-0.068637654,-0.017516626,0.11434516,-0.08917536,-0.05430702,0.11353344,0.021870254,-0.02383247,0.10834096,-0.04488699,0.11055533,-0.073084414,-0.0452147,0.0013246135,0.039499648,-0.038822703,0.0228503,0.12744,-0.028345669,0.051247533,0.09709636,-0.011366768,0.12721339,-0.065420784,0.037329122,-0.06251177,-0.08363215,0.05649575,0.04168295,0.13226527,-0.098431475,-0.005559602,-0.038619213,0.13646843,-0.073747166,0.10076226,-0.0037991407,0.031210558,-0.014774807,-0.06936558,0.033265647,-0.066458814,-0.010415615,-0.04207613,-0.033678632,0.021809826,-0.014039166,-0.006444408,0.09258862,0.014857064,0.07641564,0.12825243,-0.021899354,0.0010985261,-0.04879414,0.10516573
ALAS1,0.084867366,0.031765655,0.07151485,-0.0013267163,-0.000939627,0.057112936,0.039416023,0.070485815,-0.014125117,0.032670293,0.09384692,-0.084159106,0.045974102,-0.0019921982,-0.04780715,0.06128638,-0.06663892,0.08478005,0.04036982,0.08693475,0.07559994,0.03650817,0.037716612,0.068609074,0.04625306,0.0028588665,-0.0034838528,0.10330322,0.0029503962,0.03890121,-0.04816718,0.0063926443,0.0036537051,0.07118422,0.010933613,0.011120256,0.009388721,0.008855932,0.0012820082,0.0019215461,0.035419874,-0.004881548,-0.021086529,-0.00077530363,0.0470569,0.034655873,0.030632352,-0.015445642,0.13372111,0.012944496,0.10742256,0.10387318,-0.0030653463,0.0144211305,0.068722904,0.1608058
ALDH18A1,-0.035571385,0.05641031,0.07623271,-0.07427044,-0.0027758225,-0.05886491,0.051951006,-0.0610973,-0.023608048,0.038578194,0.020928472,-0.01931567,0.06747712,0.052556384,-0.0025909527,0.021085989,-0.01884955,-0.037675902,-0.047167413,0.026461795,0.012496385,-0.06410526,-0.015154307,0.043431338,0.028468622,-0.025630232,-0.006278299,0.13761984,0.0026719323,-0.06913674,0.045916777,0.014939275,0.06632752,0.062135775,-0.06765962,0.028151894,-0.023893522,-0.037628915,-0.040688705,-0.06904736,-0.012800127,-0.01038139,-0.097321786,0.011018513,0.013452503,0.023156967,-0.077213384,0.012582823,-0.018256275,0.03413142,0.08879479,0.024905806,-0.048428938,-0.067143634,0.097361855,0.0034536512
ALDOA,-0.045073796,-0.009626171,-0.03323573,-0.054184817,-0.033588056,-0.043627616,-0.0068612583,0.010633658,-0.059319127,-0.0939969,-0.0042760815,0.06544108,0.0024791835,-0.062696375,0.02067213,-0.008474793,0.035313834,-0.0042492943,-0.07706353,0.012737332,-0.038066924,-0.053516746,-0.032142513,-0.0831664,-0.081072204,-0.037930626,0.0589524,0.05263039,-0.036109358,0.031689864,-0.04791146,-0.09387071,-0.03331049,0.006180538,-0.039203487,0.028343882,0.07175904,-0.015448975,-0.0582052,-0.006543866,0.015149686,-0.02444084,-0.0015947345,0.028951367,-0.047468632,-0.035099093,-0.04970216,0.032723688,-0.056247067,-0.00047032235,-0.0034368897,0.021422824,0.023879806,-0.079912275,-0.04947932,-0.009928629
ALDOC,-0.004090702,0.0054937056,-0.009878416,-0.0768615,-0.032853216,-0.020471947,0.03937769,-0.056620732,0.03463028,-0.058046803,0.0038809024,-0.01831937,0.046134938,-0.01998572,-0.051265463,0.023977319,-0.08346687,0.03164305,-0.04030555,-0.11840445,-0.027936727,-0.029204661,0.01516441,0.060427256,0.024743125,-0.034256298,-0.04997682,0.073158726,-0.04125141,-0.024347689,-0.07846879,-0.06072663,0.054145657,-0.025819661,0.03779352,-0.063787304,-0.071994446,-0.03362963,0.03167566,-0.1304845,-0.04642735,-0.06531107,-0.036594927,0.0041426234,-0.065344565,0.0074521475,0.049411353,0.03461051,0.06769619,0.04074791,-0.02129291,-0.038195793,-0.045376137,0.030189188,-0.08185426,0.086123414
ALG1,0.015599138,-0.092243694,0.06933175,0.043497697,-0.010541558,0.00065339246,0.050819844,-0.00022988247,0.0068683717,0.062104445,-0.020477425,-0.04721691,-0.024685027,0.025367115,0.023746993,-0.007006441,-0.0018011827,0.015429935,-0.028346784,-0.028070662,-0.0014970832,0.02461131,0.053351007,-0.030727264,-0.027655074,-0.03877845,-0.012230023,0.016745102,-0.00925438,-0.05355015,-0.05467809,0.02640703,0.0007950974,-0.09430966,0.012684277,0.029448412,0.049024366,-0.009627272,-0.014774953,-0.03970755,0.09110347,-0.011779805,0.0032305073,-0.020084394,0.06193241,0.031877395,-0.07647888,-0.075562015,-0.020437742,-0.10995768,-0.045568462,-0.022999361,-0.05562238,-0.061878033,-0.006194056,-0.07802058
ALG11,-0.06680256,0.035990752,0.031243717,0.0017061708,-0.022632543,0.0015649573,0.058861956,0.07426206,0.015180905,0.081751995,-0.07124777,-0.06608014,-0.009688554,0.024493497,-0.028566098,0.04764446,0.042907324,0.0064219274,0.008938093,0.017926607,-0.07811878,0.024712069,-0.10012067,-0.056254502,-0.018795287,-0.037683204,-0.06873649,-0.024399057,-0.046774235,-0.0094844075,-0.016042331,-0.09882665,0.028593067,-0.045877486,-0.089814484,-0.021737741,-0.007007273,-0.055994626,0.013232613,-0.11508555,0.010006395,-0.013444793,0.01912896,-0.010341361,-0.12755154,-0.026419757,-0.034761883,-0.009005194,-0.04097481,0.067122795,0.01950279,-0.016670244,-0.02377665,-0.0017007379,-0.0548069,0.013196892
ALG12,0.07079236,0.107421,0.020826083,0.07058318,0.023415642,-0.039199598,0.026017828,0.083246954,0.09924805,-0.10772478,0.036751006,-0.0400508,0.07254853,-0.035055637,-0.032508217,-0.008944287,-0.007387889,0.055010222,0.07142813,-0.0052926647,0.07259692,0.006470652,-0.007136196,0.017824408,0.084473215,-0.037013907,0.048661567,-0.009297615,0.08317763,0.042177167,0.020823283,0.09890455,-0.044685498,0.0010257288,0.03051827,0.0057855737,-0.04858185,0.0025807596,0.010626689,0.064482436,0.07385127,0.0020223968,-0.012963062,0.010142199,0.07686644,-0.018572543,0.099571824,0.004096819,0.016094286,0.028063785,0.03529609,-0.063405104,0.003250741,0.024597147,-0.005624732,0.005051517
ALG2,0.06034397,-0.02302547,0.007386732,0.06511149,0.0054468485,0.056449957,-0.009843436,-0.076166384,-0.061257053,-0.07416918,0.018230056,-0.024368528,0.035669807,-0.021374175,0.06975764,0.005259711,0.00726373,-0.0055130934,0.052273907,-0.00032577245,0.011679512,0.030293072,0.017695252,-0.02861189,0.013945611,0.056938957,-0.0027981892,0.028172124,0.038559824,-0.07176683,0.017657883,0.014659899,-0.05660764,-0.061833218,-0.01642393,0.023442585,-0.014440792,-0.025826667,0.10503956,0.071095526,-0.024201062,0.040185396,0.014730646,0.015967675,0.042460788,0.0682545,0.015533459,0.009853652,-0.012790444,-0.112659656,-0.056971923,-0.09106045,0.011344643,-0.0035105876,-0.008590751,-0.08833536
ALG3,0.02553164,-0.018060818,0.03271012,0.019195616,-0.043810546,-0.038498387,0.118192054,0.022989335,0.07710977,-0.026145073,0.10570414,-0.00665903,0.024074828,-0.009563112,-0.058143444,0.035309367,-0.010179585,0.03981817,0.02068247,0.05352803,0.035894793,-0.04369252,0.0026582775,-0.0076564616,0.04637484,0.026183674,-0.00015487979,0.020162642,0.014289558,0.009617289,0.002770993,0.0325678,-0.05632763,0.015351001,-0.009508127,0.012881471,0.06611079,0.07257303,0.037531417,-0.016645458,0.07613353,-0.07540176,0.039220016,-0.036243226,0.04624213,-0.032158136,0.038916077,-0.026408084,-0.02229227,-0.03631135,-0.06703403,-0.047156196,0.005859541,0.008190706,-0.024492845,0.055243254
ALG5,-0.05668785,0.036263272,-0.01961592,0.0063156504,-0.002318788,-0.052447353,0.046920314,0.006670639,0.009629218,-0.054496158,-0.022813998,-0.06882955,-0.0639645,0.01934846,-0.02042364,0.02649645,-0.0056465357,0.0013895121,0.060595904,0.03145586,0.0028191537,0.040867224,-0.027463956,-0.01827796,-0.027840257,0.031783346,0.011072101,-0.08150662,0.009228293,-0.008685671,0.058079116,-0.03723425,0.03637468,0.047991652,-0.024839628,-0.035842355,0.013096269,-0.029623544,0.06139069,0.056866348,0.06636741,-0.015791865,0.020313416,0.079037674,-0.00759695,0.003950097,0.039160345,-0.02695746,0.0058153737,-0.07394612,-0.010623962,-0.0031377506,0.007296426,-0.00051166746,-0.02702267,0.0072568315
ALG6,0.00188235,-0.07224132,-0.019718038,0.038960956,-0.071223415,-0.06316105,0.01689493,-0.046154033,0.05779122,-0.06728761,0.032304335,-0.012484529,-0.053646233,-0.004233256,-0.06091246,0.049306042,0.057614855,-0.02371851,-0.025427163,-0.016734134,0.03671033,-0.005003127,-0.051209163,-0.040696215,-0.05468787,-0.011472385,-0.016836172,-0.029222628,0.02696084,0.08482357,0.012800614,-0.00056956644,0.026911613,-0.048233658,-0.039876763,0.005438076,0.08511909,0.064392276,-0.03499332,-0.03554983,0.11266382,-0.057747904,0.06344559,0.019056713,-0.012042565,0.021841735,0.09584163,0.0073255515,-0.0077296044,-0.04686254,-0.032682236,-0.039857183,0.03947275,-0.00025849493,-0.007936796,0.0037340727
ALG8,-0.023194542,-0.026800038,-0.020197414,0.021277107,-0.09613978,-0.008771928,0.059190217,-0.030239835,-0.035822645,-0.11338925,0.059840977,-0.0022211648,-0.027857536,-0.019351672,-0.030829862,-0.00046230352,0.027328635,0.030807765,-0.015045643,-0.037751865,0.074383914,-0.07371356,0.021255583,-0.0842132,0.069919154,-0.05196499,0.01726615,-0.047002032,0.023673426,-0.0014298963,-0.0038544333,0.052340824,-0.013005562,-0.08753336,-0.104670376,-0.035557687,0.07254325,-0.028516272,-0.0643489,-0.085719034,0.0972253,-0.060322195,0.022518542,-0.099323325,0.059119254,-0.024609132,0.0571477,0.015988939,0.027934857,0.013013547,-0.041638494,-0.009868816,-0.03316206,-0.054964118,-0.03480522,0.05078204
ALG9,0.0550747,-0.035474755,0.13114384,0.06969711,0.033229247,0.0075243325,0.06303342,0.030455714,0.12382638,-0.017488332,0.11669369,-0.020457955,-0.044138484,0.019117255,-0.022319172,-0.04333979,0.046950184,0.04355317,0.09553175,-0.038267512,0.081921674,-0.0026856628,0.02141425,-0.047931273,0.014263661,0.03610283,-0.04546619,0.13665295,0.046521727,-0.03299512,0.026765697,0.04542289,-0.009294739,-0.015582251,0.03741134,0.014485179,-0.017777005,0.015716057,0.018919822,0.031416617,0.08380696,-0.057241526,0.08624535,0.031118251,0.07151729,0.0010298413,0.024120117,0.04736928,0.03229398,-0.011621861,0.034085147,0.0045990855,-0.032620452,0.044668976,-0.03655145,0.020325266
ALKBH8,-0.04691922,0.033387005,-0.032253414,0.09480042,0.0136571955,-0.020419959,0.014237731,-0.018727051,0.016775748,0.021213487,0.037404563,0.035591938,-0.10021246,-0.026943933,-0.011131325,-0.028425192,0.005581909,0.0028402188,0.0232871,-0.005809995,0.018027708,0.05064382,0.010686548,0.006303249,-0.030489802,-0.029495561,-0.11687296,-0.0070788735,-0.0003919293,0.047520295,-0.038699295,0.014760227,0.067628294,-0.0047662393,-0.018627828,0.04080572,0.05829008,0.112206146,0.070784286,0.033048082,-0.08844721,-0.012624593,0.0011930257,-0.02385404,-0.059141688,-0.06330938,0.08903608,0.052141476,-0.0036959609,-0.014983109,-0.036576945,0.13318692,0.024131566,-0.043536138,0.019277096,-0.00219263
ALYREF,-0.03637038,0.06378853,-0.0147816595,-0.027187463,-0.017348522,0.07488024,-0.010860702,-0.015248463,0.11048599,-0.00882516,0.068593904,-0.10606357,-0.02067249,0.09064202,0.08560027,-0.019478716,0.014784057,0.021003503,-0.13419712,0.053634387,0.06642129,0.09830835,0.052830774,0.041029584,0.02796423,0.029926945,0.0061426037,-0.0029308393,0.0064321,0.021805586,0.023270955,0.01916362,-0.07027335,0.07366229,0.03910778,0.079340145,8.483516e-05,0.010920053,-0.011824982,0.03754225,-0.016528895,0.010005805,-0.028598554,0.03526934,0.0057060155,0.08226159,0.018954113,0.0143378,-0.017183078,-0.04202849,0.11446948,-0.0026060473,0.022037277,-0.010885234,0.058067765,-0.031553034
AMBRA1,-0.0056202,-0.019505221,0.030743059,-0.0062784767,0.0010825854,0.059991796,0.038952757,0.03468021,-0.025449192,0.024188742,0.033567112,0.068120375,0.048760295,-0.029114004,0.021837397,-0.011399866,-0.0009971983,-0.026245896,0.028357523,0.06346253,0.046166882,0.046040025,0.021950422,-0.001644373,0.02331258,0.018520815,-0.040956195,0.05697883,0.02576957,0.010924417,0.03851863,0.00164584,0.04195345,0.01358865,-0.024454322,0.03572453,0.07579779,0.027231883,0.013004,-0.02082298,-0.046605263,-0.06086714,-0.027091863,0.03953323,-0.10916291,-0.025212295,-0.024087302,0.09440014,0.025122,0.05632412,0.07213961,0.033556223,-0.042772137,-0.040354356,0.019099416,0.031432573
AMD1,0.041803,0.016734732,0.032044243,0.02988069,-0.0658728,0.020890359,0.07546067,-0.028736832,-0.14654464,-0.065538734,0.059486903,-0.011259813,-0.039976463,0.041929543,0.016355377,0.0014646668,-0.04203861,0.025665695,-0.027514432,-0.0036307017,-0.0021068708,0.0889401,0.013261512,-0.009055339,0.0054441704,-0.0030968222,0.056580335,-0.051057704,-0.023699922,0.06453414,-0.0065615512,-0.013323609,0.11517536,0.045238417,-0.12393634,0.005481289,0.038419917,0.009577277,-0.06474706,-0.04441377,-0.058893718,-0.0029329108,-0.098161206,-0.056889176,0.019384878,0.0394315,-0.023499453,-0.016635312,-0.013703973,-0.0420927,-0.0080538,-0.008587683,0.057808805,-0.04810917,-0.0063067265,0.052276522
AMFR,0.11180039,0.08001106,-0.09702264,0.09631627,0.084970824,0.035469536,0.013822419,-0.012587951,0.023118261,-0.057151463,0.0099913515,0.087654315,-0.00096098176,0.077333815,0.053785633,-0.051819067,0.0011076233,0.10571698,0.05320118,-0.008663113,0.068720296,0.012058122,-0.0021201777,0.15338115,-0.017448178,0.03176877,0.09765663,0.062342454,0.061611023,-0.047587197,-0.005037639,0.059975173,0.008619003,0.015814496,0.036138117,-0.038081124,0.0586145,0.010012219,0.055740714,0.06334188,0.007877571,-0.0064392495,-0.0024098817,0.03620133,0.078686245,0.09061511,0.06483358,0.020366028,0.08709757,0.015421063,0.05178078,-0.060596444,0.03344166,0.021611392,0.051040847,0.025562301
AMOTL2,0.033419304,0.0127509935,0.06868763,-0.047739662,0.0095905,-0.01681751,-0.06446666,-0.035927508,-0.0022839515,-0.03611062,0.06745808,-0.026585748,0.08113058,0.009746551,0.03493435,-0.015955938,-0.044123635,-0.046157636,-0.0879245,-0.10531259,-0.004949861,-0.008237647,0.008558403,-0.062378496,-0.002902238,-0.03180476,0.02445015,-0.0037155556,-0.0015378693,-0.043225147,0.020656733,0.050051913,-0.030336121,-0.004037495,0.048757557,0.023883838,-0.033403818,-0.01809934,-0.07311734,-0.03125068,-0.12536868,-0.09017117,-0.1186446,-0.06570265,-0.037950076,-0.008474512,0.07164362,-0.018050456,-0.06029533,-0.07111358,0.029557778,-0.0155350305,-0.0521344,-0.05024799,-0.023899715,-0.013741138
AMY2A,-0.08671503,0.082006544,0.029167991,-0.043778412,-0.038193855,0.0349098,0.037654005,-0.051544014,-0.020144118,-0.07142149,-0.025327131,0.025511306,0.018300524,0.05874103,-0.018951666,0.00074490317,0.014532583,-0.062600695,0.057579767,0.057720415,-0.026953183,-0.016713725,-0.09517625,-0.042770658,0.030517291,0.0011019222,0.027592828,-0.01263505,-0.034236178,0.01947437,-0.04424056,0.10390896,0.027567891,-0.015783213,-0.036222305,-0.048536826,0.012564889,0.044569228,-0.009970007,0.041583866,-0.06424577,-0.009458133,0.04588633,-0.01216669,-0.007551672,0.0298668,0.05708013,0.020834262,-0.043596063,0.095863916,0.033533853,0.019669129,-0.03713433,0.13590443,-0.009423396,-0.018354917
ANAPC1,-0.07156798,0.014609404,-0.036794025,0.04031487,-0.097834855,-0.017446434,0.09589876,0.0032732093,-0.029689461,0.05205455,-0.0582142,-0.030547122,-0.0024698235,-0.071480446,-0.1312583,-0.043630082,-0.004106176,-0.031337768,-0.04165854,0.053997245,-0.055678267,0.03532716,0.0393626,-0.0760038,-0.049079243,-0.05076584,-0.114140876,0.0055639073,-0.040242825,-0.070683606,-0.077679776,-0.058918715,-0.0032639836,-0.009957275,-0.023418376,0.01606633,-0.02652171,-0.024265738,-0.05206077,0.008173825,-0.030782647,-0.094873585,0.038342673,-0.041029163,-0.07470531,-0.1109529,-0.02760243,-0.092683055,-0.052098565,0.015804145,-0.11637668,0.0061388123,0.012380095,-0.09799364,-0.022220384,-0.036430642
ANAPC11,0.0017327818,0.06787574,-0.0010852484,-0.0438164,0.006213782,-0.019790791,-0.034826275,-0.033164427,-0.055915713,0.036619343,0.05550983,0.03817563,0.09560107,0.04235005,-0.006050558,-0.007925625,0.055325884,-0.0011089386,-0.058110848,-0.0150174545,-0.0020291249,-0.010736888,0.008485265,-0.039738737,0.028048247,-0.04353575,-0.005247365,-0.01403667,-0.012941703,0.057000864,0.048521534,0.014981976,0.040490795,0.052167926,-0.023098314,-0.04816064,-0.0251596,0.07237767,-0.019566672,0.018522393,0.046730667,0.00084042846,0.014406399,-0.00036804695,-0.01623067,-0.00048525605,0.024169771,-0.050555717,-0.040750228,-0.03604894,-0.0716739,-0.018279465,-0.0057211667,0.13408771,0.043226134,0.0041474365
ANAPC13,-0.013603938,0.052769504,0.026929542,-0.007410251,-0.015044859,0.019280009,0.022606418,0.01431679,-0.025780285,-0.008711677,0.00142178,-0.05388742,-0.09370255,-0.0012333317,-0.08184131,-0.00097400905,-0.004459092,-0.040676016,0.026380036,0.031406146,-0.039489605,-0.024295356,-0.03766495,-0.030516507,0.02197135,-0.01954548,-0.07306217,0.00017801407,0.08273205,-0.006327159,-0.0047484115,0.08373507,0.033426847,0.041462883,0.11536535,-0.02437632,-0.01141611,-0.008956465,0.020929638,-0.064964265,-0.008239176,-0.035420153,-0.011503144,0.0047386205,0.07466907,-0.05312505,0.060443547,0.05865107,-0.034265786,-0.04787936,0.0941773,-0.054332558,0.034054086,-0.11059189,-0.021706697,-0.098176725
ANAPC15,0.004932985,-0.09780536,0.06006155,0.027114829,-0.069494665,-0.056353133,-0.01551262,-0.12081747,0.001353849,0.039102353,-0.016877646,-0.051582795,-0.05199075,-0.047360584,-0.078320384,0.030531408,-0.02392786,0.03226196,-0.056193914,-0.00068530405,-0.091891095,-0.018231278,-0.024853926,-0.07411813,0.01051222,-0.09720322,-0.0069783702,0.054881413,-0.039629582,-0.04031229,-0.049379986,-0.031777587,-0.043804303,-0.011723814,-0.012207628,0.05534093,-0.0086170705,-0.11294562,-0.029696524,-0.057164673,0.0022634687,0.0016713348,0.13403262,-0.068089135,0.014921906,-0.08920434,-0.040253263,0.03142359,-0.063400604,-0.09340116,-0.047612995,-0.014359489,-0.069829054,-0.092656896,-0.060820702,-0.014663299
ANAPC2,7.354293e-05,0.021623634,0.019654391,-0.06545338,0.016999725,0.006317423,0.017524954,-0.007196125,-0.05189248,-0.032132678,0.0069114272,-0.11231564,0.073797084,0.001368595,-0.068015866,0.103255205,0.07702013,-0.022487083,-0.04514787,0.06578417,-0.019253276,-0.009182379,-0.026667126,-0.004171645,-0.012892297,-0.06504523,0.042970568,-0.01184834,-0.028345924,0.025911584,-0.038190212,-0.006700119,0.07260532,0.017925221,0.0849456,-0.03893843,0.054347195,0.027825497,-0.007872684,-0.04872866,0.034989394,-0.02392878,0.041728918,-0.037321463,0.06533392,0.056576833,-0.002320644,0.041692644,-0.037107255,-0.053969167,-0.030737814,0.07672025,-0.06329742,2.4019108e-05,-0.010724415,-0.06028087
ANAPC4,0.004489396,-0.021997308,0.08514593,0.05282982,-0.02634331,0.03246154,-0.018879801,0.029918307,-0.12816805,0.04194133,-0.01795269,-0.110304736,0.015624544,0.014796649,0.050897855,0.02560898,0.061591405,-0.027445508,0.025639955,0.03222265,0.03329516,-0.0044062636,-0.010184481,-0.045147978,0.01764717,0.01717699,-0.01394605,5.099261e-05,0.07467163,-0.040627405,0.038279653,0.036820214,-0.004970336,0.0064755455,-0.0013880868,0.03856308,0.009279938,-0.0044320025,0.013937742,0.021871634,0.008891534,0.05323351,0.09775387,0.00082686066,-0.046989404,-0.047665678,-0.05261337,-0.035436213,-0.02016357,0.057503764,0.059951603,-0.030213328,-0.01968931,0.039939065,-0.038046803,0.05289048
ANAPC5,-0.055179816,0.07866614,0.021006512,-0.06658034,-0.005583361,0.007905249,0.019909618,0.04148248,-0.06418501,0.066413485,0.056961175,-0.07951956,-0.034201317,0.014569607,-0.030851904,0.019283406,0.011357421,-0.0060732244,-0.051436234,0.023883514,-0.028566465,0.0146835735,0.019022463,0.027288653,-0.0031803271,-0.08749115,-0.03383689,-0.010103608,-0.03663938,-0.01086306,-0.145338,0.020839112,-0.03933241,0.013372668,0.011578054,0.073471576,-0.022105344,0.005431971,0.0128024155,0.01043663,-0.030838465,-0.08006865,0.01562151,0.044431597,0.024609214,0.031367604,-0.001934136,-0.012093054,0.032935157,-0.059292726,0.06481004,0.015808742,-0.015547962,-0.052459016,0.03510635,-0.023451012
ANHX,-0.060213808,-0.04496481,0.013501561,0.09009631,0.053369943,-0.005629556,0.03995547,-0.03667138,-0.033290092,0.0014503541,0.005231941,0.117742814,-0.042226817,-0.025688248,0.11845423,-0.056605875,-0.019411108,0.06786725,0.079648115,-0.026321081,0.043456294,-0.027324338,-0.054051444,0.096148744,-0.0076080104,0.05314417,-0.020242248,-0.008533152,0.06699009,0.07769432,0.04441685,0.06693981,-0.02292352,-0.006520249,-0.031330384,-0.03246984,0.038379688,-0.091989465,0.060699582,0.00065484486,-0.040812895,-0.0038838743,-0.043230083,0.028345324,0.071859516,0.06259016,0.04830262,-0.008609189,-0.009766772,0.0007237551,-0.06675098,0.021947138,0.03757081,-0.055072226,0.04246697,0.031764105
ANKLE2,-0.015972774,-0.044777725,0.036561664,0.0148495855,0.0075373277,-0.00021974412,0.051876556,0.048849367,-0.027971508,0.016096469,0.009595973,-0.032257445,-0.049282655,-0.007502012,-0.0025312589,-0.01593971,0.07273491,-0.014733653,-0.078558445,-0.051011674,-0.03895624,0.023277603,0.030810587,0.003406638,0.023747262,0.00891495,-0.030289106,0.027470753,-0.0023898818,-0.0754586,-0.045411434,-0.10481034,-0.018379072,-0.05981494,-0.034075744,0.006386227,-0.012710438,-0.012955663,-0.099432126,-0.0018391428,-0.058413286,-0.044845287,-0.08181752,0.028153937,-0.042163443,-0.087945215,0.025748888,0.048145503,-0.0014586704,0.10284321,-0.10720612,0.07718131,0.036381282,0.026872665,-0.08080323,-0.033862673
ANKRD11,-0.043580927,0.114273325,0.004534071,0.0073824883,0.11461346,-0.024032805,0.07799314,0.01686495,0.04725924,0.0073034717,-0.022563307,0.078220725,-0.023795886,-0.054476913,-0.0062950263,0.034458656,0.0030342115,-0.044206243,0.0027680297,-0.02026315,0.03167256,-0.0625527,-0.035722967,-0.016657976,-0.05312173,-0.051245727,-0.062196646,-0.0021952628,-0.056726456,-0.10258258,-0.062501624,0.037869606,0.09304269,-0.019739827,-0.0046552164,0.04670648,-0.046600882,-0.09483073,0.013237529,-0.069790535,0.02442039,0.040008895,0.018979207,-0.036123678,-0.033667624,0.098746784,-0.04142084,-0.1013084,-0.07529503,0.022071403,-0.09754875,0.08954328,-0.039410118,-0.009824026,-0.03865011,-0.0711179
ANKRD17,-0.06461558,0.04940706,-0.04069731,0.035220288,0.08089863,0.058322947,0.040365245,0.013175398,-0.07572981,0.0076906797,0.032235283,-0.035723124,0.008452221,-0.06325016,0.022417272,-0.103570975,-0.025646377,0.05355303,0.018514143,-0.01688478,-0.02129521,0.023601307,-0.072349474,-0.049656235,-0.00069228007,-0.016404077,-0.0062872306,-0.014709421,0.04522143,-0.0073904567,-0.022982476,0.0033137952,0.03944311,0.093232624,0.0013961784,-0.010943871,0.123381875,0.023210585,0.038400978,0.06672522,-0.1052327,-0.028055895,-0.02839519,-0.06361056,-0.0723622,0.051301844,-0.040972892,0.054849163,-0.019734684,-0.05991642,-0.029214215,-0.0779881,-0.02803684,0.024677169,-0.039871875,0.026285466
ANKRD49,-0.040431228,-0.10502452,-0.028390829,0.0043093474,-0.004482768,-0.0937546,0.058170125,-0.0017768983,-0.046933673,0.009606415,0.01702428,-0.020410018,-0.12061989,-0.053257525,-0.0731733,-0.09369466,-0.047704525,0.022976076,-0.03377319,-0.094718136,-0.03394368,-0.0033820241,-0.038134675,-0.015080061,-0.0034766817,0.0012948177,-0.053742573,-0.11395495,-0.000321309,0.026561838,0.0146458745,0.08543523,0.027030107,-0.02350786,-0.0129420925,-0.007515889,-0.016510569,-0.07004726,-0.028525935,-0.021441884,-0.020260496,-0.027285287,-0.02076017,-0.07951483,0.06303932,-0.03753221,-0.08269497,-0.050447408,-0.012675667,-0.095518224,-0.08593238,0.009754881,-0.088759124,-0.074251525,-0.044095777,-0.045198627
ANKRD52,-0.0065900013,-0.026131755,0.03127394,-0.03282918,-0.05222473,0.01780328,0.015510009,-0.0026025767,-0.04252789,-0.07570603,0.036555957,0.0694485,-0.012254568,0.03221792,0.0023634373,-0.0487637,-0.05802727,0.038859632,0.056013998,-0.04269219,0.030399043,0.010837155,0.0137653155,-0.08781605,0.020689774,-0.029411571,-0.010390628,-0.047859434,-0.01585242,0.00989429,0.06763755,0.046235092,-0.047179025,0.11284744,0.008250151,0.012811476,0.058556616,-0.0042273873,-0.062221143,0.035230156,0.0024081713,-0.046207868,-0.13429062,-0.08192955,-0.025197089,-0.033928335,-0.10458115,-0.028972384,-0.05156209,-0.025373925,-0.077980116,-0.0003104844,-0.06668673,-0.034038328,0.0023267542,0.03764718
AP1B1,-0.01925836,0.05093402,0.037611507,-0.065721296,-0.08693908,-0.029034974,-0.067079894,0.022454366,0.033072483,0.065918826,0.007724009,-0.083359554,-0.014234393,-0.008193687,-0.06574277,0.013132854,-0.014427883,0.042217325,-0.03561467,-0.018815631,-0.030440826,0.026173593,-0.016785672,0.042911895,0.078218214,0.016929002,0.011360194,0.07327481,-0.006116817,-0.017726894,-0.016172389,0.0076682307,-0.04967083,0.010142251,0.032444224,-0.04999403,-0.061127532,-0.10726247,-0.083262704,-0.030506883,0.0059295627,0.029000752,-0.032628525,-0.002882184,-0.078468494,-0.03423044,-8.2151804e-05,0.038897883,0.07934102,0.0016180906,0.06888216,-0.118773535,0.057387542,0.021635128,-0.024971098,0.010373593
AP1G1,-0.021512203,0.0825173,-0.009864408,-0.023175137,-0.031732116,0.095104314,-0.037515458,0.0058459663,0.004714349,0.04563186,0.03452217,-0.12088024,0.04586816,0.094484664,-0.037085734,0.030274492,0.01876989,0.06820531,-0.08764164,-0.043604843,0.023914559,0.045557782,0.080169946,-0.03592433,-0.0025999723,0.0047178864,-0.07094099,0.020933377,-0.07098411,0.10531555,-0.024048544,-0.0040809694,-0.030419584,0.02100373,0.0118872505,-0.009330327,0.030008396,-0.03702925,-0.040958967,0.0074541685,0.014225925,0.007857813,0.09802676,0.01678459,-0.004454402,-0.020250125,-0.025517015,-0.0075666895,-0.04059773,0.038509585,0.025196688,0.024189211,-0.030050583,-0.03640876,-0.0803008,-0.010878289
AP1M1,0.018944234,0.055159632,0.010968266,0.0032267806,0.0069934973,0.028212246,0.040191416,0.027407112,0.037777558,-0.0065418007,-0.028381595,-0.044874296,0.009297627,0.042037763,-0.04398037,0.010190611,-0.024025291,0.056167148,0.016245814,0.06836337,0.00092561997,-0.028178332,0.029669225,-0.0366515,0.091082156,-0.043748826,-0.06322902,0.09895449,0.04421063,0.02715618,-0.009929261,0.0782045,-0.048554767,0.004095897,0.05332827,0.036149986,-0.06866375,0.0043704137,-0.0076041743,0.049771257,0.066434324,-0.022113368,0.0209724,-0.082874976,-0.06109568,-0.021286799,-0.06660296,-0.019165406,-0.034126695,0.01299496,0.010059156,0.017945359,-0.08387408,-0.034440946,-0.078385614,-0.07126019
AP2A1,0.07073658,0.070405245,-0.008175198,0.013242325,-0.00043145273,-0.012856482,0.1365489,0.008392934,0.009717922,0.099441014,0.015208116,0.0015876788,0.08617771,0.16140254,0.055444513,0.009907218,-0.021460658,0.030050917,-0.024480037,-0.03219433,0.020257404,0.053597067,0.042684685,-0.077021986,0.008084038,-0.025004249,-0.034594245,-0.07822996,0.0426729,0.0947686,0.07702535,-0.083983734,0.078027405,0.01735723,-0.002976743,-0.036748406,0.043952093,0.033155665,-0.0026867846,-0.035753388,0.023828104,-0.012772267,0.005180385,-0.012055921,0.07535738,-0.018475816,-0.026431395,0.05778749,0.0044403835,0.07732934,0.011193388,-0.010174451,0.03921719,0.006424654,0.007991721,-0.024902463
AP2B1,0.0074383714,-0.0011058216,-0.028108792,0.027495105,-0.008851582,0.009061386,-0.025105622,0.013520743,-0.011494579,0.030139534,-0.074232034,-0.1392984,0.029520271,-0.026026366,0.036849815,0.011749424,-0.009082546,-0.010095599,0.069137536,0.016426582,0.013687855,0.082589075,-0.040219765,-0.025990346,0.093201905,0.06782699,-0.07716575,0.00049001974,0.05693265,0.033839982,0.0072143814,0.0060462244,0.060019422,0.04602721,-0.041204818,0.018572135,0.018556882,-0.09342315,0.00077512854,0.03709442,-0.07076513,0.027216608,-0.012277911,-0.08876537,-0.0239828,0.06553403,-0.024218762,-0.01264343,0.014180808,-0.01187123,0.026663858,0.0047003063,-0.029753046,0.016977847,-0.08580105,-0.0041092285
AP2M1,-0.008679501,0.038073685,-0.017828988,-0.040420886,-0.07372314,-0.02883864,0.07250508,0.0136747025,-0.0031551819,0.0029526972,-0.02247384,-0.099942654,-0.08056245,0.03638913,-0.10883542,-0.0013777383,-0.020489367,-0.017260183,-0.021951128,0.009191113,0.08166015,0.059354354,0.006131733,-0.11066094,0.10975671,-0.04105658,-0.04608252,0.0057541574,-0.07207539,0.012587732,-0.061929703,0.005932901,0.07585434,0.11202087,-0.03254144,0.04481509,0.058408573,-0.09447662,-0.08510792,-0.022266997,-0.10199363,-0.00082088367,-0.08141299,-0.053777184,0.008377865,-0.04543629,-0.0820488,-0.04210563,0.003947876,-0.05190462,0.06520303,0.0074780933,-0.10637755,-0.016391417,-0.035636477,-0.05490607
AP2S1,0.007294811,0.06375809,0.056179177,0.04637647,-0.034781735,0.086741395,0.043534294,0.057581533,0.013143236,-0.018309735,0.030319534,-0.087066956,-0.0022223222,0.116487674,-0.051823866,-0.04997201,-0.02792206,-0.036921207,-0.05577695,0.019411715,0.12230252,0.010078346,-0.01693481,-0.036616977,0.14190583,-0.018802661,-0.010235449,0.039226618,0.0046071988,0.007070261,-0.0141194705,-1.4604668e-06,0.03201459,0.07790949,-0.044845305,0.034968797,0.070783354,-0.043117758,-0.035096012,0.00028404992,-0.05736167,0.0111507485,-0.029987434,-0.031797495,0.006944017,-0.06715766,-0.0028029897,-0.08658325,-0.011487406,-0.017295284,0.018268686,0.06557785,0.007589194,-0.013628476,-0.014903264,0.001882237
AP3B1,0.0041192207,0.016144577,-0.011806392,-0.06295836,0.0464251,0.030227073,0.044780277,0.013275554,-0.03191297,-0.037652846,0.017116874,0.050910078,0.012134097,-0.0002009943,-0.02928493,-0.075077266,0.018323028,0.11571167,-0.040161576,0.046722062,0.027050138,0.006914299,0.040460773,1.02974855e-05,0.068378225,0.11080713,-0.045956474,0.06338547,0.04837281,0.072677806,-0.031737138,0.0036086931,0.012047361,0.09095998,0.024685156,-0.041327536,-0.016664682,0.039336864,0.043053657,0.022824522,-0.11516972,-0.0038268082,-0.010494112,0.053228438,-0.03520561,0.043076336,0.041256145,-0.07304218,-0.041738708,0.0077264644,0.044255406,-0.04716646,-0.01583297,0.034513053,0.023438742,0.09292134
AP3D1,-0.005626246,-0.054729342,0.024611758,-0.06255953,0.025224743,-0.019130765,0.005856366,-0.022177579,-0.038061086,-0.050753273,0.00850154,0.03378903,-0.021839645,-0.06611212,-0.037424516,-0.025582407,0.060228415,-0.037019156,-0.023036718,0.05524552,-0.030249689,0.008804375,0.048761543,0.08070348,-0.02001406,0.032581475,0.01461164,0.05491452,0.015940912,-0.022075191,-0.0023711664,0.0069938577,-0.01601934,0.04570367,-0.024662616,0.0050764834,-0.05350276,-0.0143811945,-0.010843639,0.04561374,-0.12533614,-0.056303628,-0.038615927,0.0050734454,-0.023938932,0.04115699,0.039023772,-0.036071733,-0.043489046,-0.045167364,0.123322465,0.05779001,0.0040902323,-0.017785877,-0.018880317,0.022119643
APC,0.0020605556,-0.015783008,-0.034821194,-0.00607445,-0.044387516,-0.018114068,0.04970721,-0.033350702,0.03567206,0.026704071,-0.006036744,-0.005272357,0.027653614,0.08102455,0.015799398,-0.02814404,0.06010311,-0.039810725,-0.006909178,0.07209293,0.0404937,-0.045774586,0.003540482,0.06290409,-0.04567438,0.015824623,-0.001676539,0.06125646,0.057820663,0.013051285,0.009032764,-0.0071207527,-0.06906424,0.029258084,-0.029083513,-0.06590594,-0.0285129,-0.036587924,0.043893468,0.0023408346,0.023248294,-0.030266518,-0.053984746,-0.106218114,0.062352877,0.030284692,-0.0639935,-0.0048964946,-0.0020750058,0.035355363,-0.044486612,-0.08400921,-0.02374107,-0.05038577,0.030642886,-0.0758026
APH1A,-0.08110299,-0.015557668,0.012467226,0.014808027,0.00851257,0.024457447,-0.0059754034,0.041165248,-0.07771872,-0.0855385,-0.020398661,-0.10506873,-0.057525072,-0.04150507,-0.042817745,0.030406,0.018710714,-0.105847776,-0.0058262846,-0.061808486,-0.019855643,-0.01804028,0.046376277,-0.106195524,0.08608396,0.011778222,0.012980076,-0.027952908,-0.07008063,0.06346603,0.04556145,-0.037010796,0.061645735,-0.0011567563,-0.09649817,-0.032603063,-0.03660312,-0.029361323,-0.078375116,0.01043375,0.02886434,-0.07705494,0.013482101,0.0012669109,-0.12656379,-0.046806794,0.056169607,-0.041210253,0.015440261,-0.037265416,-0.068937205,0.0065025752,0.015077193,-0.012811229,0.036217343,0.000109576475
AQR,0.012167891,0.009838256,0.0065466543,-0.035139233,0.0015257157,0.03035675,-0.036451794,0.07415576,-0.06636006,0.074447535,0.0118376855,-0.06339662,0.041837573,0.080235586,-0.0022641935,-0.0057293996,-0.0066193473,0.038417697,0.024307003,-0.024153015,-0.0015820222,0.08692931,0.09572519,-0.025458382,0.039950907,0.10267364,-0.09064434,-0.008360992,0.0009662931,0.10840862,-0.03708804,0.049906142,-0.019453447,-0.0083533935,0.04773204,0.057894684,-0.0011538364,0.027947675,-0.020034231,0.06487869,0.019437196,-0.019203821,0.06943196,0.028602414,-0.01759697,0.0289693,0.07726466,-0.004537537,0.11641129,0.05056944,-0.0140680885,0.07041134,-0.01407219,0.024576008,0.02183362,0.021852396
ARCN1,-0.046418015,0.055494294,0.031951603,-0.025905967,-0.030859543,-0.0060955067,0.107817784,0.11357556,0.036835138,0.11852652,-0.015784575,-0.066153064,-0.010233678,0.075988315,-0.051716626,0.082305826,0.08634425,-0.06936077,-0.03591129,0.055102095,-0.05073593,0.093507454,-0.036455892,-0.065590344,-0.01955707,0.049668133,-0.066845514,-0.022840343,0.011905751,0.03441479,0.032505117,-0.020582968,0.073704414,0.07405413,-0.03829594,0.02388216,0.00068468903,0.019040577,0.03361296,-0.03815597,0.058766894,0.005677,0.0713544,0.034063727,-0.086263165,-0.039338995,0.0043646684,0.01102932,0.034840595,0.11447066,0.02445091,0.054894395,-0.017268889,-0.04826159,0.045563817,-0.005592258
ARF1,0.07398734,-0.0038136272,0.034974027,0.05981275,-0.04728549,-0.0040145493,0.0030883136,0.013195288,-0.016938167,0.04637262,0.026772555,0.05195145,-0.04376282,0.011361294,0.04239117,0.00045255522,0.016260222,0.00041913197,0.03645427,0.08330907,0.0764458,0.04518811,-0.011032682,-0.058290623,-0.00395198,0.054373074,0.0040461146,0.077983715,-0.0057562534,-0.032189492,0.028292837,-0.030717941,-0.021566706,0.018160187,0.007125614,-0.03688346,0.023924207,-0.021325592,0.06359239,0.06364721,0.007901126,0.005321151,-0.065647304,0.023914248,-0.011224116,-0.007755184,-0.056835573,0.023687497,-0.021418398,-0.012781233,0.032912742,0.005171677,-0.012843595,-0.05357159,0.08744327,0.005825943
ARF4,-0.0364328,-0.007826413,-0.01010224,0.0039852154,0.023198612,-0.04460136,0.0070477426,0.042175557,-0.014635635,-0.06772519,-0.027527776,-0.046647657,-0.014827262,-0.032701477,1.9515079e-05,-0.057813473,0.0425291,-0.01246785,0.048959903,0.044793345,-0.021997666,0.051546622,-0.02360289,-0.0035855665,-0.07304447,0.0056786425,0.024888776,0.019474821,0.03349936,-0.01689997,-0.003751638,-0.012290176,0.054131847,0.072907895,-0.020836677,-0.07480796,0.014673401,0.0939388,-0.049393833,-0.024749167,-2.6089521e-05,-0.013727795,0.055483796,0.053124547,0.012155052,0.036624845,-0.014557716,-0.037023414,-0.028940689,-0.03482985,-0.05602426,0.0018701897,-0.0076469183,0.029767413,-0.06577954,-0.053593613
ARF6,-0.02081457,-0.04966555,0.0666595,0.08679629,0.029137053,-0.08076808,0.06783696,-0.028026156,0.040773746,0.07837289,-0.07809561,0.03011695,-0.036961768,0.1089106,0.020829393,-0.010160861,0.042605344,0.024111697,0.02045814,-0.0015941907,0.073706724,-0.0016966027,0.073328115,-0.019152438,0.07467689,-0.0014181143,-0.02901577,0.01256415,-0.03417055,-0.0130463345,-0.017049154,0.08647406,0.068863384,0.07736516,-0.0418882,0.051349457,0.08996269,-0.026627783,0.011091323,-0.06709296,-0.0044865804,-0.07940331,-0.060011864,-0.0124672325,0.009427802,-0.017227001,-0.05970502,0.00786549,-0.001677415,0.00062955124,0.058260493,-0.0079651885,-0.00889121,-0.024059169,0.029400686,0.012555443
ARFRP1,-0.016768446,0.023263723,-0.031895038,-0.03794927,-0.07455064,-0.013187899,0.00051463896,0.0011293761,-0.054212775,0.022293208,0.022899903,0.041319065,0.073588945,0.052139953,-0.061544698,-0.017455729,0.00049431244,0.023005838,0.013156727,-0.0412402,-0.016378982,-0.07422806,0.015140407,-0.015719831,0.06624007,-0.0022555015,0.04169733,-0.039155785,-0.021484604,-0.0470452,0.035516404,-0.02467553,-0.015447145,-0.027878819,0.023376878,0.05067094,0.047855407,0.00038941513,-0.05303822,-0.032613337,-0.03078563,-0.009210367,0.08448408,0.020591898,0.075195394,0.020849137,0.0045276745,-0.041451495,-0.02790427,0.08025746,0.05500056,-0.013115129,0.04933255,0.006452506,-0.04868486,-0.003944261
ARGLU1,0.024174856,0.122090764,0.07471651,0.0927692,0.06259402,-0.033116903,-0.0019954157,0.06025143,-0.013965095,3.6156252e-05,-0.009083929,0.096222416,0.09882375,0.08189407,0.05932863,0.023438454,-0.026250828,0.050502714,0.0024203036,0.05217849,0.0782372,0.08112394,-0.011580724,0.03634721,0.012118054,0.07200301,0.022858689,0.07430802,0.016271792,-0.0103969695,0.030319024,0.005059365,0.0058288383,-0.015651438,0.0014578908,0.041336887,0.05694951,0.08743119,0.021127015,0.090794794,0.056657523,-0.00027671692,0.00939391,0.046517193,-0.02392125,0.060549513,0.09092991,0.04543666,-0.042741016,0.041341357,0.12810455,0.11980691,0.041311543,0.0094404835,0.057241954,-0.011513054
ARHGAP11A,0.022368608,-0.03163185,0.027084854,-0.018005492,-0.098906495,-0.049321044,-0.03526933,0.027075065,0.009969125,-0.008153486,-0.0900062,-0.10746535,-0.0056941784,-0.06156524,-0.085954055,0.06608614,0.09405,0.07360283,-0.013202468,-0.1261653,-0.11496641,-0.01816351,0.092066914,0.019724179,0.008581663,0.01781837,-0.001492633,-0.0063716434,-0.034219537,-0.0055696825,-0.09103393,-0.07809614,-0.08187732,0.03974998,-0.00873854,-0.0420814,0.017852992,0.06483052,0.0026716033,-0.023877066,0.03914731,0.008882664,0.082218446,0.023069214,-0.11434451,-0.004268649,0.075198956,-0.027208256,0.0598751,0.0060774456,0.027771533,-0.02414207,0.014417098,0.04553068,0.010508651,-0.092143364
ARHGAP21,-0.036909778,0.035369147,-0.034061935,0.03655688,0.010797985,0.017478963,0.036504846,0.03432189,-0.04535966,-0.023028824,0.028235754,0.08207191,0.036163565,0.0706957,0.024786748,-0.012920018,-0.093822695,-0.034705065,0.0012908401,-0.039642565,0.012357587,0.027718563,-0.039937377,-0.000289352,-0.051277515,0.016279984,-0.02446382,0.077348165,0.027291408,-0.07295699,0.028620899,-0.008253284,0.046979107,0.010988608,-0.040575285,-0.06450109,0.05853993,0.015798992,-0.072127506,0.035488844,-0.07199136,0.048945658,-0.06533437,0.013555454,0.035337526,-0.005504351,-0.020514088,-0.012378502,-0.0043649077,0.020186266,-0.066195935,-0.04021961,-0.0041278843,0.0007369235,0.029488768,0.022309937
ARHGAP29,0.00536429,-0.0050746296,-0.057249527,-0.025097493,-0.007759948,-0.073645264,-0.0057976157,0.02217036,-0.086173944,-0.028821731,-0.0006904278,-0.021722214,0.061679427,-0.07369573,0.03482693,-0.06810394,-0.007685493,0.03424225,-0.006272954,0.022156755,-0.009196937,-0.11192927,-0.010315929,-0.07932155,0.05758172,0.019965775,-0.014881081,-0.10054471,-0.023965314,-0.009162222,-0.046409227,-0.04780161,-0.0026814758,0.05648876,0.0066578295,-0.09542942,0.08009185,0.016728168,0.024543736,-0.003093261,-0.08664326,-0.016962834,-0.0066974275,-0.12172472,-0.036183055,-0.03921706,0.0569147,-0.02860199,-0.07237314,-0.040334318,-0.08135467,-0.03347543,-0.043719783,-0.022517106,0.00882613,0.03897572
ARHGAP45,0.08368149,0.0095997825,0.040414367,0.043491974,0.08550637,0.094752416,-0.009484563,-0.023715554,0.050386954,0.024277445,0.09972532,-0.056513194,0.037642572,-0.007915753,0.05887882,-0.027799709,-0.04362216,0.064554825,0.021230409,0.036992073,0.11800793,0.021589262,0.035262223,0.0042033456,0.07996146,0.052547276,0.033182092,0.1328799,0.066535,-0.03897795,-0.050356977,-0.045739576,-0.049042746,0.15896747,0.034796372,0.062376563,-0.013447494,-0.08166427,-0.02056991,0.031969253,-0.0012977022,-0.004474087,0.027573144,0.040355843,-0.015433296,-0.013149231,0.06327882,0.06360167,0.1484046,-0.059115436,0.031818934,-0.060974166,-0.011079543,0.044230193,-0.02523988,-0.06492407
ARHGEF12,-0.0060204137,-0.087259874,0.06595088,0.03448056,0.009022115,0.057947844,-0.097012326,-0.035609264,-0.002179193,0.02051771,0.018125132,-0.049849894,-0.015100783,-0.08428228,-0.054033518,0.08001957,0.04934761,-0.008297301,0.01483355,0.031005371,-0.110981934,-0.05461203,0.031668555,0.009042353,-0.020220662,0.015752861,0.03141118,-0.026563486,0.022883952,-0.04038635,-0.07326635,0.02047891,-0.100533836,-0.033724368,-0.0043215184,-0.0061666337,-0.092030026,0.028981369,0.031304553,0.04792434,0.07739735,0.0002774091,0.011405515,0.016210942,0.009618858,0.032936465,0.080468915,0.06419207,0.028331462,-0.03638884,-0.021763885,0.016995944,0.072563596,0.056285016,-0.014208609,0.043148097
ARHGEF5,0.05836009,0.028867107,-0.022781696,-0.042662717,-0.007171719,0.08615935,0.061502278,-0.04328764,0.034583554,-0.0004334527,0.025215926,0.03629871,0.018709276,0.011634261,-0.0020090993,0.053692784,0.07445758,-0.03405019,0.023178037,0.005456355,-0.015497608,0.018299848,-0.0033878752,-0.052426465,0.06672428,-0.03173298,-0.050760936,-0.0067114895,0.039850187,0.0727728,0.05015171,0.0027640394,0.0541816,0.083580725,0.02973181,0.006202127,0.0186287,-0.019250063,-0.06349104,0.02901601,-0.012880594,-0.055600155,0.09254805,0.13068385,0.056821674,-0.019380728,0.080878615,0.033254668,0.023556337,-0.08647772,0.06080709,-0.04152303,0.0040341294,-0.015738375,-0.042327903,-0.016691986
ARHGEF7,-0.007918927,-0.0574066,-0.07182152,-0.016678788,-0.049404707,-0.10401187,-0.016548442,0.044292346,-0.0072983145,-0.032071173,-0.015002283,0.009352336,-0.00065494014,-0.07011737,0.048133727,-0.04382359,-0.057439376,0.023422247,-0.030831134,-0.042290587,0.00853145,0.02110196,-0.04881754,-0.025582932,-0.10985577,0.056329224,-0.040996276,-0.0874023,-0.04579589,0.08494559,0.013218265,-0.003590248,0.11472608,-0.07058091,0.01917524,-0.0043222546,0.10515309,0.041966546,0.028197365,0.029939163,-0.019522494,-0.03432237,-0.11026244,0.02546714,-0.04041243,0.037075125,0.05014158,-0.0337076,-0.037965957,-0.01322635,-0.0769966,-0.0036053038,-0.066503026,0.03260823,0.005022752,-0.074393
ARID1A,0.011157,0.022257786,-0.00046367152,-0.006412918,0.020115465,0.035775486,0.052148465,0.027827572,0.12544528,-0.0065200264,0.03423669,0.064987265,0.029258925,0.09122104,-0.0058108238,-0.051363222,0.09967997,0.011099085,-0.041712772,0.016602756,0.032846566,0.008416567,-0.007087711,0.02676957,0.090117484,-0.04457551,-0.03608792,0.06467918,-0.0063255527,0.07251253,-0.006711779,0.00013042452,0.013981888,0.010273232,-0.13026936,-0.056907892,0.046153832,-0.073796034,0.025387075,0.0037869234,0.08360813,-0.016883941,0.013827669,-0.056297842,-0.060474794,0.05104764,-0.030079085,0.057893053,0.077920265,0.025055975,0.0885992,0.019425409,0.027620219,0.052833922,0.015078878,0.0641744
ARID1B,-0.0011300688,-0.061964866,0.06879251,0.06691348,0.045765556,0.056433834,0.025332104,-0.025064766,-0.04299583,0.0067521506,0.056772508,0.039179116,-0.05389834,-0.07419562,-0.0001360485,0.024116516,0.01869574,0.081971705,0.015605333,-0.045804318,0.026375785,-0.03771429,0.05443424,0.033149302,0.071990736,0.0055292854,0.002370454,0.0061655105,0.022400124,-0.008693234,0.046210267,0.049777128,-0.007346749,0.048929296,-0.042019986,0.13005851,0.037678532,0.007428847,-0.020043246,0.073529154,0.020322295,0.08169645,0.1251353,-0.0007341519,0.06863754,0.020141114,0.0021841098,0.08071195,-0.009813103,-0.01223487,-0.021954617,-0.03382477,0.04210106,0.04897224,-0.060923472,0.0072273617
ARID2,0.0041308035,-0.026864173,-0.01380976,-0.01826886,-0.04470433,0.055555705,-0.023654472,-0.0066578975,0.0042952793,-0.0053463634,0.058969036,0.0011507666,0.011839002,0.026758222,-0.10496426,0.027132854,-0.042903595,0.08349499,0.058677465,0.035377644,-0.005400407,0.010250828,0.056749847,0.013571638,0.089276336,0.010281414,0.005816804,0.03325839,-0.0121217985,-0.02995677,-0.04463156,-0.03578004,-0.032722842,-0.008521679,0.0050252588,0.012753286,0.02974443,-0.103533424,-0.004772483,-0.015257654,0.061397556,-0.058956333,0.03147681,0.018014867,-0.0457065,0.08620888,0.098156,-0.02972901,0.07255752,-0.028375518,0.0748014,-0.0049380097,0.010699064,-0.014068978,-0.005080567,-0.022606978
ARID4A,0.016098393,0.075332694,-0.013509392,0.008972558,-0.022691026,0.025848527,0.00661495,0.07534304,-0.014706102,-0.029856693,0.039126262,-0.02687847,0.015197379,-0.01949018,0.029724019,0.021365354,-0.014832223,-0.04228869,-0.093022086,0.0030733785,0.02848647,-0.016659431,-0.005221427,-0.043282147,-0.007028709,-0.024984159,-0.0033693155,-0.0060012615,-0.007873412,0.025615599,0.038623445,0.021455247,0.039127953,-0.037961323,-0.027116686,-0.03655582,0.016323935,0.033478193,-0.101615675,0.011325861,0.013700075,0.01771199,0.042915534,0.042133592,-0.107260294,0.05943378,-0.033759344,-0.07864007,-0.017177736,-0.0023996353,0.049320746,0.0079978015,-0.004839586,-0.0093456,0.013094621,0.003954504
ARIH1,0.049527027,0.012838167,-0.045847,0.023249112,0.049008574,-0.0098794475,-0.048009228,-0.036518313,0.016708655,0.065865524,-0.045284644,0.058612503,-0.057374492,-0.0029781377,0.023580141,-0.03279089,-0.055093445,0.03761106,-0.04176373,0.0055908537,-0.04316231,-0.08212166,-0.038108632,-0.024638865,-0.026835313,0.027480518,-0.014113148,0.002499876,-0.023779161,-0.060946316,0.07291505,0.06033267,-0.04233615,-0.053147703,0.048351217,0.007316901,0.05173446,0.020051446,-0.087448865,-0.0062948586,-0.05984579,-0.05178336,-0.008144301,0.038473897,-0.03868433,0.008740188,-0.0825887,-0.031564265,-0.05297068,0.017760105,-0.011386325,-0.03412716,-0.038516477,0.025458254,-0.015876655,-0.03582593
ARIH2,0.0438312,0.08555304,0.0064470484,-0.016879525,0.058877695,-0.05228067,-0.04707614,0.020161284,-0.013319499,-0.012662355,0.0014540064,0.05542332,0.00025565777,0.026608508,-0.019120196,-0.037719056,-0.028553966,0.05546057,0.008482614,-0.02824409,0.025209153,0.035528217,-0.009537844,0.07400281,-0.00051344687,0.0485131,-0.012746741,0.020823365,0.0040232358,0.01923074,-0.056332458,0.003929878,0.061386093,-0.024594596,0.0017478146,0.0065143057,0.010736016,0.035115432,-0.013281013,-0.06026155,-0.053187676,0.005708904,0.009298171,0.027802104,0.038145043,0.010078751,-0.027142096,-0.052772213,-0.025344048,-0.0028204343,0.08058632,-0.015547896,0.045153897,-0.00997465,-0.021830728,0.051226854
ARL1,-0.05618921,-0.030637775,-0.036355242,-0.04255922,-0.07334884,-0.016968083,-0.040359203,-0.00015368852,-0.018387277,0.0057334118,0.039185457,-0.0080279345,-0.04869056,0.037813477,-0.10667517,0.04942761,0.045858823,-0.0358581,0.008435495,-0.031695426,-0.024565466,0.019649893,-0.038461126,-0.05856783,0.04311571,-0.030165061,-0.011899041,0.003970894,-0.051636584,-0.03812777,-0.06165764,-0.040897444,-0.04392141,0.046901338,-0.03911644,-0.05493587,0.039117537,-0.058228858,-0.00551305,-0.021089029,0.0076259533,-0.07937482,0.04396776,0.044250246,-0.011519071,-0.07117726,-0.04357995,-0.015771693,-0.04145173,0.017748179,0.00151998,-0.0001887158,0.034150787,-0.029099762,-0.0763037,0.1120602
ARL8B,-0.041233838,0.076669574,0.049943775,0.03870876,-0.032159124,-0.03515374,0.054900046,-0.04667573,0.007973024,0.07100439,0.06474544,-0.09507039,0.060122695,0.101055264,0.0045908624,0.0049011344,-0.015334564,0.02415468,0.029299213,-0.0458766,0.036109954,-0.088657565,0.05405828,-0.08698165,0.0038714712,-0.00086024276,-0.015905,-0.025731275,0.02378038,0.007891645,-0.03355694,-0.03754999,-0.027279146,-0.03878486,0.022738514,-0.01963319,-0.042962674,0.047612697,0.022552721,-0.07267721,-0.0083492715,-0.044299208,-0.003773015,-0.06662779,-0.0040497864,-0.033475287,-0.06490049,-0.014505433,-0.02216332,0.037101593,-0.028153721,0.09592348,-0.05538346,-0.015406368,0.035998505,-0.06671953
ARMC5,-0.016886206,-0.032100946,0.04502378,-0.055999447,-0.042571805,-0.07767612,0.004420787,-0.0012204149,0.0042252466,-0.000580382,-0.044213,-0.051233124,-0.02374912,-0.05025307,-0.043640286,0.019458512,-0.018457081,-0.03474952,-0.0034190433,-0.0554768,0.05156831,0.031664174,0.044637363,-0.017747223,-0.025987662,-0.014358484,-0.001666271,-0.012248877,-0.030946443,-0.028529216,-0.02126379,0.020653477,0.028396703,-0.095620446,0.05793759,0.0048018806,0.01737195,-0.04809919,-0.048883654,0.06486103,-0.057315253,0.011070655,-0.06039036,-0.009324293,0.055946782,0.02215015,0.0010994548,0.027657004,0.08168666,-0.07929719,-0.026444392,-0.06396581,-0.039675243,-0.06581289,0.033702526,-0.07146472
ARMC7,0.057265647,0.0883304,-0.011068541,0.0430301,0.013849669,-0.008994796,0.021206025,-0.07045487,-0.025088198,0.03696627,0.01845766,0.019058103,-0.017302291,0.045534216,0.057963174,-0.03165445,-0.09610921,0.052425064,0.061531376,0.08075869,0.0036520264,0.072009526,-0.0033123558,0.105908655,-0.016584713,0.0069874194,0.059803993,0.0389545,0.052397583,0.049720034,0.12283023,-0.0077938437,0.009841394,0.057031702,0.04221492,-0.06202136,-0.022649333,0.03402415,0.0412683,0.10025498,0.08461406,-0.009277278,0.046906635,-0.0075860713,-0.013154365,0.13060221,0.08410779,0.0378881,0.026285166,-0.028006837,0.1181097,0.022424737,0.073350795,0.018585633,0.046733744,-0.06984122
ARMH3,0.023364061,-0.062262163,0.033993322,-0.019096708,0.022198472,0.038221013,-0.0069095218,0.05477436,0.032955326,-0.1101685,0.06742599,-0.037938934,0.0031979617,0.0114368675,0.018830607,-0.0027089543,-0.07166731,0.045943223,0.11165703,0.0670232,0.08421321,0.018258438,0.04606276,-0.046280626,-0.011925389,0.04439326,0.0138051985,0.04744315,0.008017638,0.0495718,0.030453235,-0.064440064,0.0032538155,-0.025197187,-0.098107316,-0.0046856054,0.000882583,0.080996186,0.029839711,0.025229044,0.02292945,-0.0089471415,0.045890335,-0.01775705,-0.02050822,0.019793972,0.048093624,0.008415794,0.044873465,0.031072326,0.0048069414,-0.021844741,0.0053941146,-0.049089186,-0.009590427,-0.010304447
ARNT,-0.003930306,0.06255378,-0.015324698,0.011771145,0.01154099,-0.050878707,-0.021202074,-0.046243995,-0.010344435,-0.049267817,-0.08041991,0.0678482,0.054303408,-0.00500004,0.045351315,-0.015616088,-0.073677495,-0.10821743,0.0027315582,-0.062771305,-0.018255357,-0.010798855,-0.012318533,-0.032948952,0.0056710397,0.07266364,-0.048043765,-0.060153406,-0.06891337,0.03869923,0.058703143,-0.051092677,0.110216565,-0.020209754,0.001819302,0.056938168,0.018226905,-0.04909446,-0.009646424,0.0634016,-0.06864222,0.028338868,-0.07728053,0.052384235,0.018367883,-0.05058819,-0.044286814,0.009256045,0.02856077,-0.009807322,-0.06014828,-0.054021854,-0.013872088,0.02781862,0.012629102,0.042244032
ARPC2,-0.07077043,-0.074728474,0.00988282,-0.03864468,-0.041648794,-0.066745,0.024551323,0.02594989,0.026226012,-0.020554855,-0.060916994,-0.05989029,-0.00468178,-0.04236061,0.009564747,-0.0063146874,0.046086326,0.021154817,-0.026569976,-0.044628642,0.04677319,-0.030976776,0.042913254,-0.08292307,-0.013336365,-0.069236636,-0.069992155,-0.033596892,-0.016571147,-0.051306617,-0.02801019,-0.06324569,-0.03060182,0.0027123084,-0.06219707,-0.05547872,0.011009466,0.08465887,-0.043708146,0.031200966,-0.0014946696,-0.038786,0.03168928,0.023904227,-0.075684614,-0.07442912,-0.050255097,-0.06817835,0.03794395,-0.06877896,-0.096370295,-0.05300479,-0.07269919,-0.05150379,-0.021708986,-0.053403836
ARPC3,-0.058437802,-0.01422704,-0.04315132,0.028864903,-0.046251774,-0.04201511,0.05363339,0.039061923,0.043084543,-0.025647156,0.003694563,-0.087250784,-0.031965513,-0.021717349,-0.014412189,0.05929378,0.049854696,-0.0042289216,-0.088150516,-0.01646745,-0.022121137,-0.02208975,-0.048996788,-0.06912592,0.03965242,-0.042798303,0.014890012,0.04329418,-0.035894215,-0.015642801,-0.09668929,0.030985508,-0.04092234,0.005253787,-0.08371578,-0.058841366,-0.02165105,-0.027416224,-0.0073457626,-0.031847112,0.036775503,-0.025280895,-0.0085553,-0.07321038,-0.06439907,-0.01788869,-0.11115042,-0.04753616,-0.040122196,-0.04710543,0.00885037,0.03317176,-0.10009059,-0.04182603,-0.022440953,-0.018277096
ARPC4,-0.041121345,-0.022303266,0.01868705,-0.037050713,-0.0054554585,-0.069874845,0.018146656,-0.010847892,0.025938274,-0.014045291,0.07575099,-0.031175012,0.031703368,-0.003909358,-0.011570772,0.050854277,0.05181905,0.045831636,-0.050658647,0.11397901,0.05903678,0.008398267,0.0021635809,0.015431833,0.023544285,-0.019743847,-0.042200834,0.040993776,0.018095177,-0.028275913,-0.10037769,0.0032234008,0.08126004,-0.021685643,-0.030955032,-0.046383668,0.014702156,-0.011968479,-0.026439613,-0.01268652,-0.081969984,0.015686085,0.047375463,0.017352141,-0.017871322,-0.06144672,-0.03499758,-0.02686888,-0.02818605,-0.082485616,0.021463716,-0.043750122,-0.08228534,-0.027715025,-0.013178911,-0.03506725
ARRDC3,-0.08585178,0.030735131,-0.09386798,0.029007299,-0.0033196297,0.032164644,-0.051949535,-0.0063258205,-0.079919495,0.030657006,-0.05433209,0.0072304714,0.078661986,-0.101098314,0.031132791,-0.015869834,-0.010860602,-0.045060065,0.03211436,-0.036022097,-0.04364439,-0.050262667,0.050579816,0.019727312,-0.08205478,0.009207441,-0.02127306,-0.020243583,-0.071423635,-0.07930068,-0.059264794,0.025440326,-0.07257289,-0.06248994,-0.04642119,-0.056622904,-0.005405188,0.043099217,-0.051531237,-0.025050804,0.021842198,-0.018350307,0.01895476,-0.024864085,0.014979178,-0.04321804,0.040819447,-0.098374374,-0.018053591,0.00080900296,-0.059906952,-0.08017574,-0.034768045,-0.027866077,0.04407846,0.032326717
ASCC2,0.07745765,-0.08034136,0.06208064,0.016160179,-0.093060605,-0.010037954,0.005897277,0.035530902,-0.036811974,-0.011273698,0.018743064,-0.08224583,-0.059615966,-0.049392458,0.05940649,0.0018294265,0.004261196,-0.04339715,-0.024144,-0.025707826,0.0024866606,-0.017675906,-0.002271476,0.032817066,-0.07385987,0.07081073,-0.107660934,-0.064255856,-0.03636319,0.020789761,0.018383203,-0.042275175,-0.03377378,-0.050798275,-0.06491333,-0.019332392,0.03220858,-0.10258937,-0.0014545202,-0.0047253333,0.033852864,-0.044039678,-0.038036864,-0.113283694,-0.002450614,-0.10084489,-0.03605925,-0.039907288,-0.018390935,0.06278088,-0.015893314,-0.012082362,-0.08129969,0.040270723,-0.028847141,0.0498677
ASCC3,0.013376588,0.031542618,-0.024001878,-0.061783038,-0.02580038,-0.05509748,-0.051852297,0.0058868765,-0.10827157,0.010451879,0.020539228,-0.027843015,-0.009359751,-0.0732533,0.0073514422,-0.030930921,-0.06487456,0.023568552,-0.11252458,-0.028888028,0.000837787,0.009153958,0.017241564,-0.04611524,0.029946439,-0.002766275,-0.035101015,-0.06845623,-0.014287719,-0.031105584,0.04628909,-0.033333756,-0.030853728,-0.10959649,0.012656303,-0.08161895,-0.046899702,-0.017682027,-0.01842687,0.057165157,0.017363736,-0.0137087,-0.011443156,0.036983814,-0.0113101695,-0.014457805,-0.0064828047,-0.093727574,0.0008924358,-0.07051008,-0.010796378,-0.012994765,-0.0006238898,0.030667586,-0.011782212,-0.04819408
ASF1A,-0.08429382,0.009337005,0.0032277955,0.007723776,0.012932301,-0.068729304,-0.024359148,0.050286904,-0.00608292,0.01395065,0.01701599,0.072687276,0.11258666,0.03023724,0.00015357023,-0.01846318,-0.022054844,-0.013229977,0.05673044,0.01896704,-0.05476691,0.05601636,0.0012429275,0.02718579,0.012587118,-0.020641198,0.010191079,-0.02169191,0.075108156,-0.015923502,0.028776301,0.043883547,-0.044804953,-0.05959242,0.058119778,-0.08517208,-0.008812702,0.019984903,0.008266653,0.090032496,-0.048827127,0.03552085,-0.00974312,0.085559614,0.06297489,0.081953205,-0.06029871,0.00039857917,-0.05492625,0.036359165,0.105715275,-0.076109275,0.023279432,-0.024652617,0.014441,-0.0719177
ASH1L,-0.050570253,0.00024702123,-0.007975576,-0.04644332,0.05285705,-0.039326213,-0.0068382225,0.016132109,0.009161835,-0.08568174,0.0640755,-0.012065351,0.05510642,-0.06995137,0.067949936,0.037751213,0.009831806,0.11037936,-0.010067822,-0.033462632,0.020800425,-0.03933682,-0.0059915325,0.04621305,-0.004449873,0.0017415348,-0.027701685,0.04704792,0.04574566,-0.06104621,-0.063345686,-0.024792224,0.00029880542,0.04499085,0.048526466,0.0023666825,0.018621221,0.045572698,0.03592999,0.075164184,-0.028934812,-0.0137390215,-0.027311273,-0.06360581,0.0054018446,0.008849599,0.033292327,-0.025509644,-0.03938454,0.060494106,-0.014314174,-0.05256804,0.020635348,0.049826406,0.05261552,0.043371793
ASH2L,-0.038525034,0.021794943,-0.0345164,0.0021265205,-0.005430897,-0.09210205,0.06379284,-0.05993989,-0.052311797,0.008086914,0.030949416,-0.002128527,-0.057517335,0.012656324,-0.027867397,-0.052404676,-0.0014476022,0.04112871,-0.09648195,0.014208112,0.022094624,-0.056162987,-0.019873442,-0.07682788,-0.07819996,-0.040648505,-0.041456066,-0.011244968,-0.12713996,-0.0119536705,-0.057661347,0.019825282,0.009033221,-0.058909196,-0.01625821,0.010362483,0.026467284,-0.03502431,-0.0890234,-0.079065196,-0.008695573,-0.06567025,-0.049116686,-0.007890012,-0.043934178,-0.06449267,-0.084190995,-0.08443346,0.030865991,-0.05308578,-0.023648608,-0.035760242,0.03959867,-0.100595884,-0.0022904817,0.008322346
ASNS,-0.08775239,-0.074415855,-0.03626738,-0.053723823,0.014175431,-0.077981435,-0.020223185,-0.029651867,-0.05572891,0.08756129,0.016056608,-0.027567688,0.01961944,0.04370873,-0.043646276,0.01221043,0.058810055,-0.057115793,0.053097658,0.007426364,0.00072250975,-0.07392792,-0.0019767736,0.024846584,0.0035471641,-0.044741374,0.06876449,-0.00138,-0.04808354,0.008526454,-0.019137193,-0.026524581,-0.020625262,-0.04180918,0.010037707,0.063143484,0.04494319,0.06571386,-0.03506952,0.025530271,-0.037957847,-0.031741135,0.057058062,-0.00474994,0.04870122,-0.007598276,-0.08395706,-0.091742665,-0.106431775,0.053278275,-0.022066807,0.039558306,-0.017718684,-0.048485264,-0.038505103,-0.060513854
ASPM,-0.058261786,-0.015703024,0.05643533,0.0032752245,0.005830617,-0.058621116,-0.078205764,0.030295478,-0.06691984,0.004652664,0.030479187,-0.0041478295,-0.038689874,-0.027115488,-0.029438518,-0.0042545847,-0.05446067,0.002249648,0.0074806903,-0.093593,-0.07765486,-0.0027874939,0.007835688,-0.023918768,0.06602395,-0.039193377,-0.027063107,0.04405387,-0.02002882,-0.0027432593,-0.033065267,-0.026774054,0.0048860684,0.019273771,0.042458143,-0.06966097,-0.028176136,-0.011332466,-0.048050098,-0.0274594,0.017023716,0.015301562,-0.029516848,0.006754865,-0.08944707,-0.038280256,0.04077841,0.013349817,0.056924917,-0.030747674,0.011692935,-0.0073896544,0.012918984,-0.10300728,-0.027075956,0.0012748486
ATAD3A,0.050376114,0.022828957,0.033199415,0.072961405,-0.06470043,-0.014008371,0.06453828,0.052991632,-0.0034109373,0.029875968,0.09124944,0.119072355,-0.024442568,0.018909734,0.034733042,-0.053541187,-0.0148804765,0.06811467,0.012982533,0.034352474,-0.025880713,0.08963709,0.044583194,-0.020483792,0.03225832,0.009534468,0.026829861,0.06322266,0.041150104,0.07855483,-0.024422018,-0.076051116,0.066335745,0.103288054,-0.11250755,0.053674944,-0.010376501,0.014179496,-0.006467578,0.04556826,-0.004639146,-0.023385871,0.019499514,-0.044495933,-0.057384234,0.032245085,-0.09269743,-0.08083706,0.079193,-0.01239053,-0.03349188,0.014530369,0.0044864947,0.11993255,-0.018925902,0.012904737
ATF7IP,-0.031290438,0.007033664,0.0275272,0.08300519,-0.04839294,0.037737027,0.02011196,-0.022907292,0.028622212,-0.062012706,0.028894145,-0.047991283,-0.02097453,-0.009920426,-0.020706093,-0.048502147,-0.08050593,-0.029876929,0.025291367,0.049825016,-0.040445965,0.0071559376,-0.062404305,-0.046954695,-0.01597559,-0.06113739,0.029297158,-0.029329738,-0.05050537,-0.0035433648,0.015190978,-0.075537615,0.057957336,0.037321936,0.006261511,0.037750896,-0.04063339,-8.8466695e-05,0.0053174216,0.0010423904,-0.019014934,-0.03926489,-0.079902835,-0.022518761,-0.036754295,-0.008289159,0.022445653,0.036070365,0.09578774,-0.03823631,0.038851902,-0.032722756,-0.03687092,0.003304538,0.0030074478,-0.004800765
ATG101,0.0028261484,-0.07376212,-0.049886953,0.038668606,-0.010941627,-0.047082882,0.041287426,0.06778106,0.025624383,0.0027638732,0.030550575,-0.009618979,0.0062995167,0.001729299,-0.014325711,-0.056932125,0.017081147,-0.04132278,-0.004982156,4.2361567e-05,-0.030654952,0.085657425,0.042364247,-0.0797139,-0.07582305,-9.9054814e-05,-0.041326,0.021415181,-0.09053635,0.06938307,0.027052406,0.06111765,-0.057383765,-0.08351665,-0.045063883,-0.039958425,0.035612766,0.047258813,0.006453261,0.03921475,0.0002619397,0.016062489,-0.07224955,-0.08335184,-0.013316664,-0.003432348,0.027478438,-0.10365612,0.0035132966,0.017137917,-0.0027940313,0.0011422491,-0.00090062903,-0.006943664,0.008109954,-0.109170206
ATG12,-0.052721485,-0.06883986,-0.023493014,-0.06086827,0.0031830345,0.038563613,0.020326365,0.025595808,0.07381669,-0.009850227,0.0013559898,-0.01825019,-0.06056979,0.10107372,0.050727237,-0.027632779,0.035759173,-0.13599162,-0.007877315,-0.016398262,-0.031175248,-0.018323796,-0.01961875,-0.075197496,-0.0089307465,0.030599803,-0.035689697,0.012119391,0.01089543,-0.026674505,-0.095832475,-0.058010302,0.0066069877,-0.06614503,-0.06065153,0.041985415,0.012880929,-0.083767116,0.030998573,0.031594135,-0.022185318,0.0016531404,0.021936722,0.00419566,0.05723735,-0.03937949,-0.039188232,-0.056787215,-0.05764665,-0.045442555,-0.025294824,0.022661675,0.019225605,-0.014713483,-0.080145374,0.06233466
ATG13,-0.0035004942,-0.055078417,-0.039906792,0.01339512,0.013850555,-0.0070606624,0.067962,0.0512114,0.023568157,-0.0423975,-0.023941044,-0.015368156,0.04796832,0.019598424,-0.09296853,-0.032815862,-0.09720778,-0.07604148,0.09512139,-0.0249683,-0.078283675,-0.0018965394,0.036853723,0.028515723,-0.06418653,0.032419864,0.0037409572,-0.0071097803,-0.012739888,0.06948059,0.05953706,0.01977685,-0.009003024,-0.07051805,0.03326309,-0.03583216,0.045976095,0.057841167,0.027368505,-0.034840282,0.054942068,-0.023375075,-0.14614509,-0.022292761,0.003908074,-0.029166164,0.07054454,-0.043453664,0.004853487,0.08927576,0.017223326,-0.023580479,0.07152902,0.014784532,0.031809878,-0.015646223
ATG3,0.018896632,-0.06904527,0.0023451892,0.0661999,-0.008332223,-0.020930726,0.010712231,-0.017437179,0.0018565808,0.017034099,-0.11195113,-0.0595698,-0.036806546,0.0657757,0.030318528,0.051323183,-0.022882652,-0.020579869,0.058605675,-0.061645895,-0.0101436945,0.02887349,-0.05358902,-0.06452535,0.035752606,0.011346797,-0.08250336,0.027020596,-0.0028737634,-0.017315768,0.02175144,-0.03291989,0.004804202,-0.019576717,-0.053020246,-0.022578647,0.030311786,0.07841974,0.054808207,0.010043449,-0.030304117,-0.034740534,-0.025260087,-0.020610454,0.018772835,-0.0056563006,0.053019166,-0.056028165,0.05446604,0.046107437,-0.024544545,-0.031791784,0.06730346,0.0028509977,0.053940475,-0.085996546
ATG7,-0.04662245,-0.10369189,0.059874438,-0.002328641,0.008102981,-0.0454014,-0.089040205,-0.022750638,0.03180077,-0.002784644,-0.0064480337,-0.034679044,-0.043313958,-0.00866275,0.014170025,-0.019454151,0.01031421,-0.093819775,0.04361127,-0.045701224,0.010826951,0.062464707,0.012883393,-0.041409597,-0.042570196,-0.03526097,-0.017776992,-0.025743145,-0.064185575,0.027370254,-0.006226323,-0.012012079,-0.033460233,-0.05209147,-0.07636496,0.017558515,-0.03181916,0.02598784,0.03327738,-0.058663752,0.03320643,0.008283107,-0.027721675,-0.099483,-0.0053399717,-0.11736446,0.051720537,-0.077663064,0.028774545,0.036467824,0.008720862,-0.053590797,0.021819443,0.014636748,-0.013841985,-0.006989466
ATG9A,-0.010467851,-0.01855813,-0.008104702,0.033958223,-0.018739032,-0.14450507,-0.0100581655,0.01265692,-0.0474288,-0.01107512,-0.05709854,-0.027494106,-0.01402298,-0.026973335,0.029296692,-0.035695165,-0.0178261,-0.070813306,-0.088939115,0.0028716328,-0.06132908,0.00838389,-0.017095288,-0.083392374,-0.030786997,-0.040402763,-0.09934695,-0.06436676,-0.04191213,-0.02926076,-0.04262256,-0.06130802,0.056677725,-0.04655214,-0.10150916,-0.0035180014,-0.03694146,-0.029180964,-0.006826885,-0.010565378,-0.094492614,-0.05525471,-0.054010656,0.021137452,0.03525521,-0.056679495,0.014678967,-0.037257716,0.027795821,0.013132616,0.03985424,0.0062128347,-0.016930597,-0.0164262,-0.08210313,-0.1158518
ATIC,-0.07103168,0.014738849,0.098078765,0.046802554,0.025485355,0.07579703,0.044589482,0.0349704,0.050799582,-0.017823948,0.05401511,-0.09233257,-0.03365111,0.06540374,-0.042488914,0.037087616,-0.0728858,0.12781666,0.05966535,0.008711179,0.14429276,0.094255336,0.022154894,-0.088227026,0.09180764,0.05761685,0.022035819,0.11145772,-0.006909777,0.046010975,-0.087610796,0.077606,0.061452474,0.22205672,-0.012120671,0.054111306,0.034561016,-0.0119956415,-0.02688289,0.020402646,-0.05445511,0.063051045,-0.00894274,0.039021116,0.05766406,-0.022929387,-0.034704242,-0.010479828,-0.024283925,0.03730355,0.06358961,0.04968064,0.0075595384,-0.035262223,-0.033602286,0.10040671
ATM,0.0482637,-0.01569226,-0.0077200537,-0.06897352,-0.03866005,-0.022858925,-0.030091505,-0.00138936,0.0862525,0.033321336,-0.02148712,-0.092719786,-0.0044125933,-0.03611904,-0.06702866,-0.019959738,-0.03093951,-0.036910005,-0.018300239,0.01638684,0.014367783,-0.030089224,-0.055701125,-0.013952751,0.0011549253,0.036132224,-0.01318158,0.014040761,-0.058861807,0.015717166,0.054550327,-0.085081734,-0.040847152,0.00044506445,0.06656614,-0.03410581,-0.023316609,0.016576143,-0.17190425,-0.028698748,0.0100569995,-0.16674818,0.050240643,-0.026463429,-0.058090053,0.013762106,-0.017017394,-0.055342,0.026836399,-0.039637387,0.00909693,0.08127921,0.025426924,-0.048219528,-0.04003638,0.030205885
