0,1,2,3,4,5,6,7,8,9,10,11,12,13,14,15,16,17,18,19,20,21,22,23,24,25,26,27,28,29,30,31,32,33,34,35,36,37,38,39,40,41,42,43,44,45,46,47,48,49
AAAS,-0.038390126,-0.010071573,0.031174647,-0.07553271,0.14733103,-0.008981705,0.052985188,-0.015244976,-0.07949964,0.008005168,0.0325906,0.052574676,0.038786694,-0.011179175,-0.0062065115,-0.0668439,-0.020884017,0.021346327,-0.023771925,0.017981514,0.030403811,0.00032398265,-0.06165153,-0.020205919,0.0005297939,-0.047783762,-0.050795242,-0.1197857,-0.019908307,-0.021469133,0.11052808,-0.06508781,0.011512636,-0.05189847,-0.010264187,-0.045454238,-0.015540769,-0.025638355,0.04177168,-0.03621588,0.036292516,-0.016212234,-0.09393816,0.030863278,-0.003590017,0.0063227257,0.0077079996,-0.02043917,-0.008555976
AAMP,0.061055202,-0.041609693,0.013261492,-0.0211861,-0.0001305401,-0.074913055,0.020564213,0.06912026,0.026608763,-0.0077252225,-0.12648875,0.08827758,-0.040724352,0.0035422442,0.08944924,0.049280945,-0.039751504,0.018260743,0.075283326,-0.052623887,0.07529612,-0.023574352,0.05327006,0.012074678,0.04824513,0.080161616,-0.02892441,-0.0370087,-0.007971803,-0.0023450544,-0.020951755,0.055671033,-0.05090192,0.0065198387,-0.0811461,-0.009582994,0.020425646,-0.055457316,0.01895475,0.004073474,-0.0065112356,-0.023371441,-0.0058556367,-0.021866081,0.012609232,0.0057224035,0.012720612,-0.033651013,0.012130524
AARS1,0.0034464027,-0.06164796,0.016865904,-0.082558796,0.06305743,-0.00885516,-0.023238901,-0.027252212,-0.09671859,0.083446026,0.074251235,-0.0579295,-0.08051798,-0.019176146,0.008235978,0.03357958,-0.05682197,0.014596007,-0.010863038,-0.02183924,0.019962838,0.02892532,0.021759747,-0.048795648,-0.07745763,-0.036899544,-0.007430491,0.013062622,-0.025804399,-0.011052584,-0.0141616585,0.018477902,-0.05512021,-0.028139891,-0.038307793,0.014274834,-0.026395516,-0.02889487,-0.01602401,-0.027030569,-0.03918198,-0.053009167,-0.09348127,0.0042912634,-0.046226747,0.0064104255,-0.07016764,-0.013230788,0.012958844
AARS2,-0.05409525,0.004925601,-0.055858996,-0.01041383,0.040705495,0.030561425,0.09311582,-0.055641,-0.011852406,0.020741751,0.032705832,0.046684403,0.008762358,0.02986382,-0.0015861972,-0.049189556,-0.060776304,0.0757685,-0.0427642,0.026376326,0.009909491,-0.075683594,-0.058480605,-0.042457692,0.051512364,-0.022020403,-0.0936122,-0.058488227,0.014044592,-0.0047663413,-0.018187815,-0.0033819843,0.00019833208,-0.016425023,-0.05087093,-0.042429846,-0.03771937,0.0018049855,0.06067768,-0.008817955,0.07771479,0.0034478735,-0.04912537,-0.054797452,-0.080224164,-0.024840608,0.07614022,-0.05624366,-0.042099472
AASDHPPT,-0.021162542,0.025108047,-0.05459026,-0.031430695,0.049622618,-0.021308567,-0.023289664,-0.05716683,-0.012088711,-0.0065947114,-0.01781984,-0.053440824,-0.037315503,-0.07054545,-0.014277469,-0.07494019,-0.07465502,0.017410738,-0.09486312,0.026817586,0.051015534,-0.12428943,-0.004809493,-0.079622924,0.0069973096,0.015295998,-0.02197376,-0.04713576,0.007935874,0.018732639,0.022200624,0.023950672,0.030069718,-0.030396536,-0.06900975,0.04735805,-0.052729584,0.0031974395,0.010321763,-0.032670848,-0.049985252,-0.0932794,-0.012201367,-0.012457818,-0.021575172,0.008026865,-0.04732537,-0.039885342,-0.052857697
AATF,-0.07244483,-0.004413567,0.025467347,-0.09692621,-0.04808564,-0.047872875,-0.0735364,-0.039422404,-0.104586594,-0.052574735,-0.08981043,-0.012812393,-0.031415727,0.094391644,-0.07945097,-0.12202202,-0.016069382,-0.059964452,-0.019700836,-0.008112602,-0.0514818,-0.012754388,-0.0129736485,-0.081303135,-0.00838658,-0.00457763,-0.054794636,-0.10966577,-0.043546293,-0.033107243,-0.0074007865,-0.050729018,-0.017666858,-0.021699505,-0.078196384,-0.010883952,-0.031885877,-0.08313417,0.09559262,-0.08721933,-0.027722528,-0.03410615,-0.014229133,-0.010568997,0.0015897545,-0.036399517,-0.02353071,0.06860701,-0.09051486
ABCE1,-0.00563253,0.030472653,-0.06890638,-0.0695737,-0.074120276,0.044206575,0.03816932,-0.013861989,-0.13057339,-0.008105915,0.06493323,-0.025755405,0.015369728,0.053622298,-0.0019092028,0.005763965,0.0066028503,0.04131243,0.014308732,-0.011270248,0.004079283,-0.020937154,-0.021306487,-0.05709038,-0.07281939,-0.058152437,0.055767335,-0.011968526,-0.027971277,-0.055087753,-0.026451807,0.0068328134,0.005061951,-0.06844496,-0.06308508,0.036682066,-0.0044960356,-0.014556041,-0.005730471,0.033509277,0.029773068,-0.030547164,-0.061707683,-0.029650638,-0.0005997084,-0.010160913,0.052958593,0.011321732,-0.04941784
ABCF1,0.017551852,0.05339681,-0.016633963,-0.06715609,-0.009232952,-0.01583513,-0.0029314589,-0.01970429,0.006404218,0.009544991,0.015680254,-0.084980235,-0.02446772,0.0011929031,-0.031897843,0.0024822385,0.006800933,-0.07953768,0.0216788,-0.08075587,-0.007256269,-0.060685772,0.018082533,-0.053792074,-0.0039683874,-0.02424454,0.005166845,-0.058089755,-0.012791534,-0.093302816,-0.0203267,-0.017979529,0.05510817,-0.058970023,-0.026888633,0.035965234,-0.053991467,0.053319514,-0.054338988,-0.07656443,0.02292889,0.0030548796,-0.030237215,-0.04492101,-0.012476094,0.06776821,0.0030049453,0.006036438,-0.020932622
ABI1,-0.020628136,-0.00088622456,-0.13308366,-0.036533516,-0.027060045,0.038105987,0.0130618,0.08740844,-0.03680289,0.03627023,0.10492024,-0.096843526,-0.037427895,-0.010860646,-0.05748881,-0.038985766,-0.035568997,-0.06376357,0.0366835,-0.0053412872,0.020831758,-0.0346437,-0.08046286,0.037807696,0.009928891,-0.011521167,-0.037297945,-0.021610595,-0.012984274,-0.036609,0.061542034,-0.048379853,0.032553013,-0.030135421,-0.01170345,-0.035475254,0.019649854,0.046026997,0.026869068,-0.016721455,-0.030321835,0.023773123,0.02374161,0.044284593,0.02219348,-0.089011006,0.027882697,0.0013395685,0.0060789953
ABL1,-0.016324928,-0.022486623,0.052931212,-0.10623637,0.036669113,0.07692518,-0.040363155,-0.04979375,-0.023517692,0.015778435,0.016010279,0.043136448,-0.018234568,-0.019752955,-0.0153150065,0.083028905,0.024523549,0.029783867,-0.035421208,0.00884527,0.03586132,0.05709187,0.024140414,0.01660323,-0.009045842,0.01536201,-0.0320356,0.04335745,-0.04974194,-0.022335378,0.04966389,-0.01517677,-0.0012767151,-0.016963951,-0.023870522,0.015314539,0.011174221,-0.047387566,-0.0032045944,0.04099165,-0.006941686,-0.010414997,-0.037732426,-0.015213192,0.0041724523,0.04344838,0.00063515716,0.02574347,-0.0011645469
ABT1,0.023845704,0.028597577,0.021985559,-0.08700532,-0.0009058956,-0.055050895,-0.020324582,-0.0871296,-0.04738992,-0.033114817,0.022848422,0.03901682,-0.09333668,-0.017496835,0.022976644,-0.0062770704,0.05201388,0.039384812,-0.07710419,0.00996249,-0.021825267,0.058589216,-0.013790715,-0.035198055,0.061600953,0.053880215,-0.03899327,0.05800441,0.027222771,-0.0013241838,0.077336945,0.03766435,-0.0029116098,0.078015536,-0.024291763,-0.0073297396,0.028080493,-0.05544329,0.035980318,-0.010875956,-0.03984338,0.12566511,-0.0035000388,-0.07142166,0.089123875,0.0009638202,0.04564399,0.043228786,0.083635546
ACACA,-0.05989477,0.02945254,-0.06928852,-0.09230499,0.0032681918,-0.026939377,-0.008306601,-0.090532646,-0.02703705,-0.0056763734,-0.045387395,0.017283143,-0.057830967,-0.07951244,0.037776574,-0.0714981,-0.04373041,-0.0028104773,0.011600623,-0.0804407,-0.021512067,-0.11257561,-0.0038491182,-0.078874804,0.07466454,-0.032400876,0.001882493,-0.13995858,-0.03609859,-0.036280565,-0.04504112,-0.039077245,0.011726028,0.0018770989,-0.030658757,-0.05952593,-0.15754235,-0.022024417,-0.022025155,-0.043813467,-0.0012342269,0.026197663,0.016775971,-0.08558395,-0.11759467,0.0017374409,-0.0044542574,0.035301723,-0.07694481
ACAD9,0.02201711,0.024591286,0.035583742,-0.069629945,0.09747301,-0.015350586,0.089889005,0.002219035,0.036741573,-0.03136642,-0.027652474,0.034863453,-0.0073987604,0.011965766,-0.025055382,0.0200972,0.020910172,0.14494076,0.0006003366,0.060421783,-0.019580774,0.063467614,-0.015957126,0.11613851,0.127573,0.079818666,-0.040825754,0.051639944,-0.010792724,-0.03774663,-0.046245046,0.021143444,0.009598107,-0.04438028,-0.0044698576,-0.001547911,0.0015817038,0.043031916,0.09116941,-0.007850126,0.08889474,0.016139254,0.014484055,0.05233887,0.0017547446,-0.032135073,-0.057591256,-0.013177458,0.004597385
ACAP2,-0.044410698,-0.047611132,0.0602487,0.021893643,-0.020550672,0.07574584,-0.07216731,0.036788512,-0.039521597,-0.007940339,0.05628715,0.044205565,0.0637528,-0.0082495855,0.06862477,0.0312655,-0.06302297,0.05150995,-0.004107055,0.0059002186,0.019164693,0.005413651,-0.06270352,-0.010997293,-0.022495028,0.06524543,0.009575805,0.029905459,0.04648045,0.028099636,-9.019544e-05,-0.06234969,-0.048938192,0.003922393,-0.044291865,0.027911533,-0.06682501,0.013111667,-0.01840567,0.024248248,-0.0006433115,-0.034999326,0.03169054,-0.055710163,0.1484909,0.0138940895,0.032899506,-0.016128311,-0.04622184
ACD,0.037876863,-0.05563489,-0.02891842,0.040210627,-0.05618092,0.00086295826,0.065730445,0.043032035,0.0183022,-0.016012346,0.07219248,0.032288637,0.058603704,0.0077091516,0.04164504,0.033522177,0.0793925,0.053589016,0.032932628,-0.003887134,-0.024076385,0.07895156,0.081450075,0.028737614,0.06343083,-0.008585945,0.01670795,0.07965838,-0.014526874,0.021579172,-0.022785008,0.02560221,-0.046601,0.08095699,0.06239012,-0.03605242,0.10711248,-0.017145177,0.044233378,0.060819868,0.018900527,0.011639952,0.1052911,-0.0046082665,0.069702335,0.051650286,0.048191603,-0.027458606,-0.02311126
ACIN1,-0.036594108,0.015172245,0.043418024,0.042694137,0.01571318,0.008170246,0.07667895,0.04577355,-0.010512648,0.03576297,-0.028785676,-0.019311706,0.037682004,0.05456971,0.0025734305,-0.022784177,0.091025375,-0.0337769,0.030545937,0.07393511,-0.016201437,0.023269918,-0.114010595,0.06495604,-0.0070836674,-0.049809325,-0.04687259,-0.033553038,0.08061269,-0.019501256,0.004826854,-0.092893265,-0.022021247,0.04569504,-0.042479735,-0.0055269864,-0.15022177,0.03819203,0.046150185,-0.09038141,-0.017610159,-0.008427073,0.08075532,0.020380924,-0.033607025,0.069662675,-0.051028147,0.009066937,0.052160345
ACLY,-0.041943222,0.048009958,-0.026791286,-0.0573795,0.05971292,0.0005518975,-0.0075090537,-0.0058812452,-0.066197276,0.04482264,0.003114291,0.059137333,-0.0404936,0.0018824624,-0.030287344,0.0034018212,-0.014367844,-0.04761708,0.037194435,0.0825002,-0.0017368972,-0.07153826,-0.06654284,-0.0010268821,-0.04998595,-0.015626356,0.017572721,0.017196486,0.055842135,0.024832346,0.047333427,-0.0703672,-0.058086116,0.0022623318,0.04492974,-0.056440156,-0.05989695,0.036175434,0.057289265,-0.051176354,0.0019271065,-0.02081916,-0.027258892,0.02805745,-0.015952243,0.053746045,0.07122942,0.030166553,0.0039437125
ACO2,-0.0031463238,0.08700625,-0.044151373,0.052045718,-0.0151182385,0.038348664,0.01790231,0.06605465,-0.07927516,-0.015407786,-0.008904898,0.08669288,-0.0623697,-0.039898627,0.0857152,0.039890323,-0.0035295365,0.073975,-0.011801457,0.05333433,0.024121352,0.044097736,-0.06406021,0.06603475,-0.03988971,0.022008643,0.0043096207,-0.025152545,0.05345143,-0.05308279,-0.03217588,-0.0071162693,-0.060122017,0.054014027,-0.039967332,-0.020055069,0.016443282,0.0016932721,-0.04083958,0.033429116,-0.0077154324,0.027303642,-0.025311,-0.0067792106,0.059786506,-0.03339857,0.02742539,0.009237317,-0.034119576
ACOX1,-0.013301902,0.06719749,-0.033359926,0.052141696,-0.024785697,0.007374672,-0.13764569,-0.01711527,-0.024047099,0.010302515,0.014966293,-0.09476007,0.09522817,0.005871692,0.010957917,-0.036334947,-0.026370294,-0.06051943,-0.077485465,-0.057652406,0.01138026,0.08177851,-0.03541229,-0.015573022,-0.06287541,0.051267326,0.039944194,0.0015351675,-0.024587927,0.025076784,-0.019744327,-0.11440975,-0.04318166,0.07488074,-0.04298551,-0.0017195198,-0.1099984,0.023790842,-0.05313949,-0.04800222,-0.107451074,-0.044509053,-0.059726313,-0.06082567,-0.027181111,-0.14490817,0.08366474,0.03699942,0.035149425
ACSL3,-0.08615305,0.08069414,0.050510272,-0.03378449,-0.06271168,-0.04981485,0.021913247,-0.057014193,-0.0067304582,-0.0036088207,0.04105234,-0.018552957,0.0062554968,0.02833984,0.01470963,-0.05587938,-0.06651489,0.018184088,-0.023061408,-0.03905714,0.040661883,-0.029974608,-0.03813875,0.03676638,0.056814667,0.057268485,-0.06949679,-0.045921847,-0.0016521348,-0.0013934037,0.04658718,0.010256876,-0.094682865,-0.004951129,0.068115205,0.007329913,-0.032902736,0.012007958,0.016883437,0.041311365,-0.015805608,0.018741678,0.015914295,0.028851075,0.007626567,-0.04468435,0.04036129,0.010875671,0.030461032
ACTB,0.0067186835,0.016883178,-0.041743726,0.024049094,0.035765067,0.0014903625,-0.0074890433,-0.034901768,0.107536644,-0.008145701,-0.019393174,0.034423493,0.059096184,0.036581457,-0.050598025,0.049996838,0.018696789,-0.02029766,0.027923487,-0.0032558981,0.019369936,-0.01826622,0.0141037395,-0.0039637443,0.03263959,0.029277477,-0.03072832,-0.08032233,0.022726025,0.04754352,-0.05445097,0.068605855,-0.07523922,-0.106320284,-0.016661093,0.0056796274,-0.0710503,0.02532808,0.019775318,0.049312644,-0.08032057,-0.02706266,-0.010510256,-0.061214793,-0.051875867,0.018673573,-0.027848305,-0.010740253,0.06598749
ACTL6A,-0.06362246,0.056082398,-0.13071126,-0.03457924,-0.04675873,0.053753927,0.013565311,-0.08765691,-0.061652485,0.0018495782,0.035351902,0.021550607,-0.07842348,-0.00482305,-0.053172067,-0.020939074,-0.0049791574,-0.09700272,-0.058889724,0.045757696,-0.06694913,-0.025020123,-0.01334164,0.009267015,-0.04127682,0.011641835,0.022773053,-0.068562806,-0.1049576,-0.06755055,-0.004199311,0.041135956,0.06402436,-0.059172276,-0.021710986,-0.016150283,-0.027296737,-0.091900155,0.0903692,-0.05079985,-0.057625487,-0.03352235,0.008437945,-0.0025869438,-0.024894394,0.041218005,-0.013239905,-0.027482424,-0.024195848
ACTR10,0.062479135,-0.035307154,-0.042181674,-0.026334638,0.0051597035,0.04176083,0.0016666822,-0.049325764,0.011708309,0.045691077,0.049170267,-0.014590314,-0.033475664,0.007886355,0.048425887,-0.04664518,0.03925074,0.09543008,0.035745613,-0.0023570682,-0.022066142,0.020743137,-0.015063344,0.03720538,-0.035959292,-0.073021695,0.01256718,-0.010979276,-0.017229944,0.0024294618,-0.01182329,-0.04256247,0.0010869632,0.0036517663,0.033716563,0.03201245,0.017707335,-0.020313878,0.016831992,0.0661745,0.02121693,0.0075671575,0.012373504,-0.033047818,-0.02701353,-0.05929679,-0.028673708,-0.067709126,0.0062653334
ACTR1A,0.1276528,-0.0006309473,-0.007329783,0.14267816,-0.022368377,0.009756124,0.03517241,-0.047148295,-0.040928386,-0.010971876,0.08302875,-0.04144669,0.0050280453,-0.08026454,-0.001564451,0.009009325,-0.029515306,0.03975066,-0.022768708,-0.0064732525,-0.00063550874,0.027154008,0.010299869,0.009170874,-0.037932336,0.0068615465,-0.03545901,-0.06358484,-0.0073398654,-0.031204607,0.09437581,-0.05528779,0.061277643,-0.011932119,-0.008960427,0.008557394,0.012560981,-0.028637908,-0.046315614,-0.056036446,0.060328864,0.05975733,0.021277586,0.05649957,-0.039094545,-0.03242715,-0.07985515,-0.0060384963,-0.0013183707
ACTR2,0.084307484,-0.12193882,-0.03146023,0.13753405,0.012792407,0.0069476846,-0.052843723,0.066201165,0.022645494,0.00011631181,-0.034121502,-0.028685208,-0.09928281,-0.013547052,-0.059108153,0.053503785,0.026270352,-0.044137664,0.017819738,0.014117756,0.08177092,0.007971319,0.013135558,0.05810573,0.01594674,0.0034832018,-0.028105617,-0.024795713,-0.054727506,-0.021759283,-0.011367339,-0.00010145827,0.06682394,0.034293815,-0.044286095,-0.108616345,-0.021270385,-0.03617605,0.021412633,-0.03211344,-0.048132073,0.0028981029,-0.017658828,-0.03268729,0.007155786,-0.050665002,-0.02063714,-0.013018854,-0.020652056
ACTR3,-0.014356651,0.015323138,-0.0226519,0.09602829,0.07458436,0.0017579355,0.015884621,-0.027481137,0.035986017,-0.02136151,0.11995438,0.061777722,-0.010587973,-0.041688614,-0.047124818,0.006878545,0.03235685,-0.056875236,0.043251064,0.06700358,-0.022522388,0.0066041127,0.05032568,0.002526943,-0.050459765,-0.0416866,0.028539257,-0.008251654,0.037854895,-0.026500281,0.049832422,-0.03832253,0.05917982,-0.031408925,-0.019510718,-0.040361304,-0.070879005,-0.01137697,0.0023886447,0.07170109,-0.008079081,0.016625445,0.06709822,0.026545838,0.0036366493,-0.04124409,0.056105115,0.03292469,-0.0150422435
ACTR5,-0.06215003,-0.036707215,-0.09065831,-0.0516414,-0.112808846,-0.036599755,-0.01406184,0.0007660816,-0.018656189,-0.0028450915,-0.015346652,0.010607046,0.018058851,-0.07069781,-0.021915317,-0.017833777,-0.02452715,0.0036834027,-0.020571264,0.008096641,-0.050856248,0.069515966,0.033432566,0.055090435,0.08966355,-0.084169306,-0.02411595,-0.022511391,-0.031216517,-0.059571154,-0.0025108354,-0.046453778,-0.013281741,-0.019322095,-0.10440515,-0.030702721,-0.05916549,-0.10554705,-0.035802037,-0.053298395,-0.008066434,-0.022165615,0.00090299593,0.044595685,-0.0058042663,0.0013904122,-0.0028610635,0.0151173035,-0.106017575
ACTR6,0.017846122,-0.03043746,0.010937319,0.03722145,-0.03977478,-0.025658986,-0.031727858,-0.025398802,-0.060017332,-0.044747658,0.02755772,-0.050369326,-0.013314984,-0.15000266,-0.02675756,-0.054372802,-0.026083978,0.017876495,-0.0004053583,0.0058881636,-0.0010258085,-0.004139796,-0.061150864,0.017214628,-0.07854826,-0.008163432,-0.071295604,0.024408534,-0.06231393,0.029735673,0.0057263896,-3.4975874e-05,0.05103446,0.0047967546,-0.07591929,-0.021795304,0.0058632893,-0.020312034,0.088558994,0.018340083,-0.011059646,0.0052142143,0.011904285,0.04492191,-0.03560742,0.0068244166,-0.022555267,-0.07274462,-0.045847505
ACTR8,0.019096605,-0.05607697,-0.040089827,0.06951901,-0.050699677,0.06237206,0.0918865,-0.023088261,0.040759552,0.0023581344,0.006467578,0.055208795,-0.011279431,-0.009215651,-0.021082819,0.07528927,0.020599708,0.012954287,0.018494386,0.041949876,-0.048812173,-0.007667231,0.02771717,0.10029279,0.042748585,-0.055270053,-0.054413036,-0.030425265,0.016935356,0.015678475,0.029974123,0.13718048,0.009856025,-0.032710064,-0.0378197,0.086845465,0.048856914,0.05606323,-0.045711424,0.014907836,-0.027180823,-0.06536984,0.002911605,0.00015154594,0.066227354,0.008450124,-0.017174676,0.0034895102,0.023073869
ACVR1B,-0.016309492,-0.09673564,0.07652652,0.04272134,-0.009451375,0.06374642,0.01196503,0.017883034,0.039929308,0.0021557454,-0.063831866,-0.048584238,-0.12958348,-0.009137954,0.0315732,-0.0824875,0.019866455,0.039718416,0.061663594,0.035821073,-0.028602129,-0.037879527,0.048487626,-0.01502007,-0.03517952,-0.07582483,-0.00815585,-0.03516743,-0.017595334,-0.07515302,0.04105368,-0.07333518,-0.026936954,0.02052099,-0.09031612,-0.0064950767,-0.06068492,0.036361914,-0.037826292,0.019132555,-0.0009739471,-0.009712696,-0.07539542,0.0058640353,0.018980732,-0.066418804,-0.06361652,0.08319417,0.020796979
ADAR,0.027569167,0.047947023,-0.016660985,0.018527418,-0.06982501,0.12249828,0.042213604,0.044622358,0.008196904,0.059422147,-0.023539523,0.027419344,0.059710603,0.031861234,0.07119337,-0.11932041,-0.034221075,-0.00445143,-0.014519189,-0.026524853,0.011402546,-0.061566483,-0.12467284,0.054759443,-0.10193659,-0.0719375,0.026040388,-0.06957377,0.040182073,-0.0015268439,0.022710912,0.0011045269,0.051837217,0.030814646,-0.058823235,0.011539954,0.0025142322,-0.014736622,-0.06501026,0.08081613,0.065612845,-0.08488229,0.06981019,0.007810151,-0.06862657,-0.072773,-0.027569594,-0.011845584,0.0064561176
ADAT2,0.00022411444,0.055185664,-0.020730505,0.006406921,-0.07233636,0.0023512002,0.06714446,-0.05661373,-0.009005499,-0.05483675,0.029847363,-0.0028291682,-0.041418325,-0.03682591,-0.059041213,-0.067732625,-0.02357512,-0.052331828,-0.05180174,0.0033141514,-0.0023438032,0.034493443,0.061112437,-0.03989022,-0.018990615,0.00069758715,-0.10709072,-0.0924754,-0.0072907917,0.01256068,0.017371992,0.023460744,0.08257157,0.005876521,0.018418202,-0.080961764,-0.07352424,-0.027202604,-0.06813229,-0.049175136,-0.024135754,-0.08287568,0.00892232,0.000809353,0.043009266,-0.08569199,0.005040786,-0.06605771,-0.03579842
ADPGK,0.04094717,-0.0037668853,-0.02393623,0.047797237,0.065009646,-0.030304672,0.115239464,0.025888745,0.08461555,0.061262265,0.010115807,0.025524946,0.018077694,0.0050504226,0.0048804977,0.12112857,-0.017044807,-0.0077738194,-0.0041180295,0.050060663,0.0014450684,-0.0034998446,0.017206118,-0.090453915,0.08630916,0.032870993,-0.030354708,0.025664194,-0.041701317,0.13461487,0.019019179,0.024488784,0.010280229,0.014183956,0.10182954,0.008992457,-0.060039323,0.00068273314,0.0076051652,0.07337228,0.013785329,0.041884735,0.0056149424,0.0041417903,0.032351535,0.026606755,0.07183143,-0.029405644,0.031244436
ADRM1,0.020981936,-0.03428769,0.03030476,-0.031012088,-0.039162826,0.056534708,-0.003693917,-0.03685742,-0.011772595,-0.07811291,-0.018020997,0.021421924,0.005909561,0.008141897,0.06469587,-0.01130393,0.03773466,-0.07954816,0.013008578,0.023734363,-0.042449765,-0.0138716195,-0.021909509,-0.025647484,0.0143716885,0.079303145,0.014500174,-0.023061188,-0.0566617,0.0033146585,-0.013039519,-0.034018453,-0.030070182,-0.07277624,-0.0019290632,-0.017479554,-0.036044225,0.042704526,-0.0001887325,-0.016588973,0.049737755,-0.020655524,-0.07412082,-0.015381363,-0.013639323,0.025527649,0.039933916,0.081228144,-0.02446011
ADSL,-0.046644427,0.031077439,0.025419097,-0.020558907,0.04302336,0.059760317,0.0046852184,-0.10650569,0.051277097,-0.029871559,0.09097534,0.012678656,0.019874457,0.02041323,-0.011415836,-0.054569703,-0.00054801564,0.06323953,0.049260538,0.11909539,0.02194719,0.033489805,-0.014717566,0.0015859951,0.020236019,0.038213246,0.021021795,0.019965751,0.003189096,0.026063284,0.07344266,0.092900336,-0.053589173,-0.011281054,-0.006809102,-0.012713595,0.016169293,0.07407127,-0.055387266,-0.053372826,0.023879824,-0.019857423,-0.005888297,0.007234712,-0.040721707,0.0635251,-0.0058334083,0.043303814,0.009738876
ADSS2,0.07331269,0.04026457,-0.053471267,-0.03156026,0.009436787,0.07092163,-0.024940332,0.050893042,-0.0662661,-0.04205907,0.029473769,0.038523857,0.014947373,0.050925314,0.09548336,0.032207914,0.041126385,-0.02246875,0.019559683,0.010193044,0.034698654,0.063205995,-0.078790516,-0.034006096,-0.005751902,0.08391808,0.045496978,-0.0094673075,-0.00083781674,0.018570887,-0.056578644,0.09474747,-0.0025370794,0.10519569,0.02754779,0.03343574,-0.0055455645,0.071871854,0.0049195923,0.00023199522,0.0048336624,0.0010698099,0.031135308,0.0056422986,0.06159077,0.0743587,0.032518744,0.05654434,0.07683017
AFDN,0.05258589,-0.03327753,-0.055291362,-0.03140017,-0.038664673,-0.092526674,-0.0036286588,-0.07559821,0.06916566,0.07786099,0.029471347,0.0138511835,-0.00028793898,0.009381042,0.021731986,0.058356445,-0.009069067,0.03546809,0.10403784,-0.03692853,0.06642482,-0.012338466,0.03125692,-0.02656504,0.022250993,0.045970917,0.043088596,0.026537018,0.07147924,0.007747351,0.08181133,-0.018355558,0.032508373,-0.029317467,-0.0055986755,-0.039162673,0.028991668,0.013351581,-0.064348534,-0.0027724416,0.01727385,0.050170887,0.04122851,0.057339154,0.027708214,-0.09586481,-0.05115379,0.03733525,0.033761803
AFG3L2,-0.06625072,-0.027337033,-0.0035620725,-0.0751147,-0.03271539,-0.04540988,0.023188367,-0.011376806,-0.041640215,-0.018214049,0.033796612,-0.023921242,0.042517614,0.060493004,-0.08320909,-0.04352762,-0.027964689,-0.04399881,-0.06647483,-0.0006821187,-0.015659409,-0.060403924,0.017949136,-0.028559368,-0.06393476,0.052729964,-2.4779596e-05,-0.035614878,0.009940875,0.072365806,-0.08153965,-0.08808693,-0.046671312,0.010532063,-0.004695987,-0.03600741,-0.02157902,0.02330084,-0.04444357,-0.07731068,-0.048166994,-0.07843694,0.0012317743,0.01180108,-0.09003529,-0.05891239,-0.0996393,0.06302508,-0.022224527
AGBL4,-0.06963218,0.043720644,0.028424375,0.042147614,0.018873842,0.058309745,0.013388535,0.11149985,-0.057278425,0.059054077,0.010747538,-0.06853859,0.11568859,0.013054764,-0.06981678,-0.042615786,0.009101085,0.03188157,0.04645581,0.023940759,-0.010229412,0.05558869,-0.035015196,0.021912187,-0.009251429,-0.052177876,0.09332097,0.05282737,0.02405483,-0.054609504,-0.01573301,0.0054041357,0.02119634,-0.014530542,-0.06777314,-0.009117652,0.014831014,0.01881222,0.010280513,-0.042993333,0.11669681,-0.105711944,0.001144022,0.044010773,0.07198436,-0.004156558,0.015113523,-0.0025239668,0.015891837
AGFG1,0.07203566,-0.05699169,0.04724591,-0.009230911,0.06303856,-0.012945277,0.05304714,0.06588915,0.031015128,0.048417237,-0.00189677,0.13463551,-0.0049971235,0.0032515544,0.0040947734,0.072015874,0.03607377,0.065656,-0.028443145,0.09227503,0.09931176,0.02618288,0.08720376,-0.033436585,0.06428809,-0.007817322,0.051526867,0.03128159,0.077733286,-0.052112274,-0.009547607,0.12328476,-0.00590624,0.04576551,0.044957153,0.002115392,0.020621203,0.018242244,0.040888917,0.06341093,-0.016090807,0.08806582,0.03942707,0.005280388,0.05606064,0.10620314,0.100229345,0.050670464,-0.08176069
AGO2,-0.0003114836,0.0715107,0.0832046,0.028291509,0.016142655,0.03518834,0.04764042,0.004114727,-0.040286444,-0.040953677,0.050160192,-0.001029292,0.08033544,-0.005497392,-0.010093845,-0.005305925,0.05890157,0.048919585,0.062395874,-0.018401742,-0.032668903,0.044263836,-0.04887667,-0.01793521,0.07109056,0.0291878,-0.01636352,0.007932841,-0.05591175,0.09145045,0.06040407,0.04178336,0.07903622,-0.03382572,-0.022373958,-0.0020203786,0.0041950066,-0.007699016,0.08678318,0.098404445,-0.016264742,0.034650397,0.02126032,0.03817268,-0.06139724,0.027298441,0.009982369,0.033502787,0.012786595
AHCTF1,0.03155827,0.09358428,0.04404235,0.068252325,-0.007039701,0.08815751,-0.03797975,0.019812677,-0.07545229,-0.06643195,-0.023197811,0.04692114,0.031069506,0.052404538,0.031807482,-0.07596466,-3.392228e-05,-0.044227768,0.023427732,-0.0111719845,-0.051198777,-0.047527812,-0.0029703865,0.02364282,-0.026547424,-0.04456461,0.045158472,-0.020539273,-0.0047722515,-0.062939756,0.0022867182,0.047864627,-0.010885326,-0.012714795,0.04373103,0.08337737,-0.10754854,0.035367757,0.03536682,-0.019916778,0.010465301,-0.0888477,0.020942641,-0.0039050265,-0.1482056,0.030928724,-0.0055535403,-0.0027926834,-0.106870405
AHCY,0.0058459244,0.068477504,-0.037670147,0.032190677,-0.037578106,0.0611332,0.042071205,0.058000498,-0.03688616,0.02552513,-0.010258281,0.039305706,0.0094238,-0.007540228,0.022558874,-0.015946459,0.040457416,-0.012510517,0.021753008,0.06287694,-0.019558992,-0.017264295,-0.034324568,0.059018034,0.056917112,0.03186538,0.023606207,0.05111927,0.029582825,0.034645833,-0.038748942,0.05141163,-0.0847878,-0.046813764,-0.010159288,-0.00069150183,-0.029985465,0.03744664,0.018297104,-0.0282749,-0.006351676,-0.01197176,-0.09410085,0.06555819,0.01810763,-0.0442441,0.024678314,0.044198945,-0.013670759
AHCYL1,-0.010721982,0.011291797,-0.030391434,-0.024713427,-0.08557616,0.03991479,0.0035965915,-0.011261102,0.012622516,0.022295788,0.05162253,-0.09559928,-0.048912905,0.017235074,0.011430057,-0.008570405,0.016717324,-0.035449896,-0.045269985,-0.0485861,0.017376587,0.032914676,-0.01736785,0.0071648792,0.035226543,0.06069738,-0.068709224,-0.029676756,-0.037240546,-0.10027458,-0.04058997,-0.11710198,0.012473798,-0.07765628,-0.06322482,0.009801102,-0.07211641,0.004799057,-0.0056224302,0.0033801922,-0.018516608,0.012874413,-0.0032907485,-0.03361112,-0.06293085,-0.043734726,-0.01703965,0.03355831,0.077020235
AHR,-0.082549475,0.04689277,-0.020287897,-0.07533872,0.059821617,0.05310277,-0.05445453,-0.0078306245,-0.016944833,-0.028131777,-0.040988766,-0.0765199,0.046602454,-0.04121782,0.009029353,0.033236254,-0.03788256,-0.062631965,-0.045841757,-0.016746718,0.012919843,-0.0904866,-0.10044511,-0.037713103,-0.0086807385,-0.021546297,-0.03288672,-0.010249473,-0.022787057,0.06941594,-0.099228814,-0.10639726,0.05781838,0.04161689,0.06230574,-0.0048163487,-0.042638004,-0.037228607,-0.0494096,-0.0028605692,-0.10000052,0.10333727,-0.01908931,-0.019270757,-0.026127959,-0.04571758,-0.026312167,-0.12888719,-0.0055881706
AIP,-0.08859836,0.010358897,-0.014322703,-0.09405506,-0.05170676,0.09896087,-0.013523788,0.055556998,-0.032779478,0.0036931233,-0.03503305,-0.027880892,0.049784776,-0.019672595,0.0041566524,0.0027455096,-0.055980433,-0.02965414,-0.042745914,0.04103658,-0.013070354,0.052536078,-0.046522204,-0.033920765,0.057433244,0.034467626,-0.027476106,-0.009659495,0.029317668,0.0030899371,-0.018908227,0.03534018,0.006057407,0.014719427,-0.024591874,-0.009090767,-0.0662046,-0.008060252,0.04089529,0.09964777,0.069849364,0.05917747,0.031068096,0.042070776,-0.002586621,-0.020810349,-0.03560672,-0.06953178,0.026580175
AJUBA,0.0054470953,0.032752737,-0.0129287895,-0.034818444,-0.049968828,-0.018867586,0.017248673,-0.023186639,-0.10245967,0.04969771,0.01041342,-0.06379183,0.021994665,-0.04709915,-0.069572575,0.016109012,0.0047168965,-0.025021056,-0.044582862,0.09589269,-0.054599106,-0.019851241,-0.04633353,0.052527893,-0.05444295,-0.017991487,0.010034068,-0.012938638,0.011704329,-0.030687848,-0.03938393,-0.009155482,0.05918161,0.052216403,0.034243867,0.019672874,-0.06590276,0.02451299,0.030046491,0.022935642,-0.042587686,-0.08703246,0.0066849752,0.012688982,-0.018274473,-0.030276531,-0.03508493,-0.009888932,-0.09996202
AK2,-0.032168414,0.053834382,-0.00613124,0.054259654,0.05358504,0.022607872,0.07317508,-0.041171454,-0.00999481,0.032575898,0.01787362,0.137344,-0.012582213,-0.026819965,-0.01813087,0.010506774,0.1385649,0.0925489,0.09834242,0.059858005,-0.029523373,0.06313389,0.037284452,0.029034335,-0.07851554,-0.015093804,0.061175577,0.013259318,0.11254834,-0.05829996,0.07532818,0.0069360468,0.0046460372,-0.071106985,0.0364494,-0.03905789,-0.0055955276,0.041716192,0.11463411,0.0034584077,-0.061102837,0.046883464,-0.033858277,0.1220353,-0.00087873393,0.1446393,-0.01845454,0.038157377,-0.0078421505
AK6,0.05000527,0.047552798,-0.049172215,-0.010035874,0.009582098,-0.043713555,-0.03763361,-0.08345606,0.08424623,0.0011723291,0.03632206,0.016236303,-0.054847762,-0.055521928,-0.013955981,-0.017768556,-0.082816854,-0.042519834,0.021369854,-0.073866054,0.015863758,-0.0063227573,0.020883456,0.060111105,0.05582715,0.036161955,-0.06246369,-0.11791215,-0.016835932,-1.1206608e-05,0.03481062,-0.032851227,-0.017670719,0.008265797,0.004851702,0.036582008,0.06828125,-0.053991143,-0.051669203,0.055197697,0.02453567,0.13025583,-0.025531135,-0.08135439,-0.0054285196,-0.02670056,0.032115836,-0.073597655,0.075841896
AKIRIN2,0.13933057,-0.029580923,0.07283274,0.014021583,0.09551444,0.07652161,0.06439854,0.03876478,0.023011567,0.006151019,0.0075786887,0.042732522,-0.0033601732,0.07265346,0.0668219,0.07444813,0.02865096,-0.0117411455,0.019008525,-0.029298417,0.08503969,0.0016728528,0.029780665,0.028724201,-0.015835475,0.031897385,-0.004910654,-0.00535844,0.018213132,0.11143603,0.022297826,0.069837846,0.011480867,0.024399403,-0.0071878624,0.033878565,-0.023859529,0.097777285,-0.026038473,0.05026474,0.016159104,0.018832251,0.09261247,0.036821757,0.03890895,0.036415845,-0.017319746,0.054229125,0.07084702
AKT1,-0.018514216,0.015254502,0.028132476,-0.011123319,0.02391959,0.066116124,0.096649855,-0.10817543,0.054714195,0.025838047,0.015712213,0.06272946,0.042928867,0.03547565,0.0071431813,-0.00018531327,0.019023804,-0.011285636,-0.030111862,0.080563046,-0.021389775,-0.00840247,-0.03216857,-0.015212447,0.08901535,-0.036547136,-0.11360807,0.051346406,0.12865491,0.059216395,0.040679965,-0.1174078,0.045279127,0.022003505,-0.046108942,0.053376894,-0.043509986,0.0441471,0.05148478,0.050216537,-0.03510041,-0.016880196,0.055588674,-0.02210727,0.0031714842,-0.011092085,-0.021836786,0.029160183,-0.0632378
AKT2,0.030794514,0.040266957,-0.054474667,0.05051651,0.08363684,-0.02323177,-0.05586268,-0.039621517,0.006077395,0.038970593,0.081894234,0.09705659,-0.046050686,-0.05016628,-0.06136981,-0.015786793,0.06855667,0.025698053,0.005351071,0.061995633,-0.07216994,0.07978633,0.012372331,-0.11077159,0.052855875,0.03316104,0.07599044,0.020944942,0.08189247,0.030338118,-0.0009860316,0.03880194,0.012622592,-0.039959442,0.041688036,0.0033089253,0.016164595,0.024338586,0.05152081,0.0002687415,0.04762547,0.0930942,0.030983973,0.0026493862,-0.04174736,0.06761119,0.029032592,-0.030885912,-0.026691359
ALAD,0.06817473,-0.0187742,0.039454464,-0.035241254,0.075514816,-0.00939692,0.11327317,-0.010695591,0.03578973,-0.003741526,-0.061970588,0.16628933,-0.01237478,-0.016246941,-0.016645482,-0.05689447,0.03547904,0.045372836,0.109788254,0.057127718,0.005020821,0.060433604,-0.0027247923,-0.0152646825,-0.052725438,0.016676128,0.0019834812,0.04828698,0.033694424,-0.010348778,-0.013328516,-0.04011661,-0.004546968,-0.025852129,0.041807827,-0.111882575,0.031392023,0.0634782,0.14839098,0.042001188,0.11169537,-0.055418193,0.076735795,0.013735551,-0.03068786,0.14644615,0.104838274,-0.010757547,0.0012730759
ALAS1,0.055952046,0.007737112,0.0774911,-0.017160168,0.07257482,0.021955652,-0.060849007,-0.08245449,0.028444268,0.027925842,-0.113332726,0.14716624,-0.0028928493,0.039776683,0.06435641,-0.025276382,0.094055474,0.011595211,0.10565561,0.04112887,0.056508917,0.05618303,-0.03915986,-0.008199293,0.010030681,0.031529482,-0.0017580696,-0.013369913,0.11909904,0.03940444,0.0050012907,0.048839156,-0.013370876,0.000182168,0.022292435,-0.03362165,0.043058887,0.04441288,0.026282825,-0.05785303,0.08821544,0.040150985,0.06037724,0.04477925,0.06622491,0.076815754,0.07004044,-0.011717478,0.018036025
ALDH18A1,-0.074024074,0.040446855,-0.008246972,0.042193253,-0.016539607,0.04705272,-0.013628731,0.041920602,-0.045057632,0.0056007225,0.08458106,0.10359998,0.026951466,0.028149808,-0.0749822,-0.05083473,0.030974332,-0.009372249,-0.016720057,-0.012995679,-0.080841854,0.09602821,-0.07295274,-0.043574218,0.07626641,-0.009897783,0.060957648,-0.00038573562,-0.023362335,-0.052825734,-0.018687308,-0.0023841416,-0.011545426,-0.030050652,0.011066042,-0.035374954,-0.06295939,0.052805055,0.015656658,-0.0109366765,-0.0011607113,0.045399897,0.07673895,0.07686212,0.08406431,-0.037904296,-0.014828239,0.08467307,0.05079502
ALDOA,-0.024891624,-0.058718275,0.02246164,-0.052136485,0.037023418,-0.029457338,0.025795784,-0.031732086,-0.030812064,-0.045002185,-0.02560977,0.013142831,-0.035153467,-0.038014617,-0.0926903,0.014309984,-0.06045148,0.03921828,-0.045837782,-0.03867577,-0.035083503,-0.09104865,0.049411416,0.0069740685,0.045962,-0.03541312,-0.0061608846,-0.014692014,0.06716777,-0.038103573,0.022916548,-0.018903324,0.05601502,-0.026481338,0.013255935,-0.04616425,-0.035964802,-0.006322346,-0.02783875,-0.0014064094,-0.02441686,0.017294576,-0.065397546,0.010207965,-0.03071669,0.014960085,-0.06597317,0.03136978,-0.007937529
ALDOC,0.02553351,0.024862548,-0.014693314,-0.013404604,-0.0046930443,-0.020747907,-0.07097029,-0.09274983,0.058352776,-0.042563237,-0.03963678,-0.026977768,-0.0065959427,0.016812025,0.07764561,-0.021924734,-0.04547678,-0.03547752,-0.03408388,0.016035192,-0.07255216,0.02882933,0.04041183,-0.069475256,0.027388087,0.109683536,0.011581494,-0.023136597,-0.07179567,-0.026342377,-0.0066468026,0.054575626,-0.05587313,-0.0417627,-0.018745236,-0.007916833,0.0054300283,-0.034019936,0.050675683,-0.09802215,-0.0022636538,-0.037547085,-0.003315772,-0.022268506,-0.02347542,-0.0598224,-0.10548846,-0.016914735,-0.020049417
ALG1,-0.030572569,0.049982958,0.012532792,0.07296416,0.10087063,0.00096907065,0.0069723995,0.018964909,-0.077097975,0.011759474,0.011452589,0.07740966,-0.045475505,-0.04498823,0.004415902,0.02352413,-0.029834762,0.09441489,-0.0020706758,-0.0052233823,-0.061471988,-0.014405024,0.0070985267,-0.039606687,0.0119823795,0.04288964,-0.029038696,-0.040449817,-0.007852429,-0.007715843,0.043702852,0.11021846,0.07264383,-0.018939527,0.015784062,-0.065265276,-0.041030943,0.0017269735,0.027134927,0.06107779,0.0010996152,-0.004677101,0.022362277,-0.05798246,-0.012442663,0.020971423,0.004100972,-0.049548257,-0.046837907
ALG11,-0.04128254,0.052696247,0.022227434,-0.013717212,0.05934122,0.08812474,-0.041461647,-0.018906366,-0.017062495,0.10115622,0.044295657,-0.010365713,0.048835367,-0.047801055,0.06409821,-0.098405816,0.021182591,0.072721966,-0.0062704054,-0.075420365,-0.077350445,-0.01812716,0.02603455,-0.026578147,0.05142625,-0.08791492,0.115682915,-0.02458423,-0.043316063,-0.048968606,-0.076306745,-0.07505196,-0.029299084,-0.021759288,0.009553301,0.03390772,-0.05305444,-0.0073820567,0.040136546,-0.033516105,-0.04303917,-0.041794196,-0.033119686,-0.040125914,-0.06912344,-0.07283483,0.06838139,0.05389801,-0.09010142
ALG12,-0.005089219,-0.06308737,-0.01801349,-0.0052778265,0.016366413,0.0060651046,-0.029371127,0.00733327,0.010090477,-0.04547422,0.11574502,-0.0225744,-0.06180588,0.05489229,-0.023935242,-0.040967427,0.06506769,0.0034602284,0.08829178,-0.04925056,0.0063351253,-0.050599918,-0.039945263,-0.07347246,-0.04896531,0.022434387,0.043786053,0.018229604,0.007947618,-0.04229168,-0.03374191,-0.0018317712,0.0685916,-0.080533065,0.06367044,0.0060081296,-0.06150755,0.018630136,0.05186722,-0.053935166,0.023042316,0.073627785,0.05326893,0.085425675,0.013889326,0.02850735,-0.0119039025,-0.030020436,0.00886105
ALG2,0.019359352,-0.0338714,0.006759582,0.0037364664,0.049551424,-0.0622853,-0.017837321,-0.035324108,0.033075996,-0.050433744,0.024028163,-0.02600229,-0.053257372,-0.0056998665,-0.016002566,0.0054782606,-0.02103599,0.036689986,-0.056208454,0.0050921454,0.014481436,0.04384864,0.13074224,-0.0010688923,0.04487779,0.030048452,0.020844301,-0.004845908,0.020967804,0.006190999,0.046686623,-0.016338494,0.02623606,-0.00041862423,0.012187694,-0.062181782,0.0020612814,0.012736914,0.073561035,0.0050280434,0.022112675,0.003037643,0.01009125,0.05159291,0.018275928,0.0061032553,0.118334055,0.024788681,0.11755748
ALG3,-0.08811716,0.005427986,0.07265401,0.049281016,0.06888335,-0.059305795,0.07531827,-0.06324979,-0.02350255,-0.018383665,0.07983439,0.02176378,-0.03866662,0.056879528,-0.017325832,-0.047993377,-0.0025502206,-0.006906667,0.05587325,-0.04952665,-0.09149845,0.008428567,0.007746067,0.013348204,0.016516298,0.007892155,-0.01520482,0.06474603,0.044066086,-0.1043606,0.0265533,-0.058826808,0.04103493,-0.029653404,0.01670537,-0.03989621,0.009614652,0.007242027,0.008297569,-0.029497592,-0.00082222786,0.024973892,0.05993793,0.014118849,0.057581365,0.0016376446,0.028095614,-0.006289667,0.036094226
ALG5,0.072302945,0.02557862,-0.027781071,0.025212575,0.04610331,-0.08705031,-0.0012681202,-0.024374064,0.008469008,-0.075377256,0.015744207,-0.019013267,0.020999884,0.0730458,-0.023836277,-0.06219968,-0.006115575,-0.039667763,0.07669276,0.0073399297,0.014466363,-0.03954685,0.10392075,-0.0022883287,-0.03692854,0.017519534,-0.04781816,-0.015740637,-0.10066468,0.039556053,0.017708134,0.015455936,0.020825988,0.005731854,0.009738049,0.023791289,0.02348058,-0.041600764,-0.09107523,-0.02671122,-0.013590587,0.019294847,0.042608034,0.035375625,-0.00029471357,-0.06157495,0.056308143,-0.017020859,0.02650471
ALG6,0.0050581694,-0.007896216,-0.029105995,0.040666245,0.0111477915,-0.052886277,-0.052012883,-0.03300092,-0.041917574,0.024891643,0.08818809,-0.09881142,-0.036411323,-0.037343632,0.051119726,-0.0060966183,-0.048565518,-0.14005621,0.016406735,0.012100763,-0.039703306,-0.05672323,0.038324542,-0.04382118,-0.032628085,-0.018294191,-0.022861583,-0.018074466,0.019653818,-0.023570606,-0.084728196,-0.07078166,0.018159134,0.020888295,-0.016235704,-0.029175777,0.029905783,-0.059806257,0.037365668,-0.0158434,0.018068546,-0.049711585,0.051403087,0.009085809,-0.016228883,-0.03329315,-0.017994013,-0.050996527,-0.0972416
ALG8,-0.011907079,-0.02900995,-0.0421026,0.094071165,0.060434658,-0.0374868,0.047915693,-0.07406988,-0.006766912,-0.05895095,0.1532558,-0.06727047,-0.014372532,0.017351164,-0.048655156,-0.076751485,-0.081948906,-0.022862786,0.030190662,-0.08809764,-0.043160275,-0.043337185,0.040217713,0.015527565,-0.032760907,-0.015597126,0.0020324853,0.0029289357,0.0141172595,-0.086118646,-0.042094667,-0.08069087,0.033537846,-0.057474084,0.050683234,-0.03802524,-0.03095004,0.010507704,0.06473544,-0.041149557,-0.07994372,-0.03276891,0.052510727,0.04963755,-0.06958758,-0.007863853,0.03144819,-0.034243837,-0.04647459
ALG9,-0.059588917,0.013560219,0.049784992,0.07682773,0.06986147,-0.101004645,0.0857889,-0.023720559,-0.038731568,0.039220743,0.10319341,0.11738626,-0.0075344094,0.02953412,0.04884624,-0.0053554624,0.04620109,-0.03062853,0.06397193,-0.031013288,0.015018425,0.102636285,0.06589056,-0.0674656,-0.024249943,-0.0116144875,0.016093023,0.05308957,0.06600922,-0.017686037,-0.027271636,-0.075407855,-0.022198718,0.017432123,0.042930473,0.010262164,0.0032147465,-0.076994,0.060584806,0.06984032,0.028137764,0.056077722,0.10957585,0.08651656,0.029423442,0.016635988,0.07721406,0.005677741,0.033777222
ALKBH8,-0.0817063,-0.021941358,0.026013011,-0.028016,0.04054067,-0.05915837,-0.028970368,-0.07050841,-0.006588425,-0.040822655,0.044006705,0.011044295,0.08077025,-0.024895934,-0.0061364938,0.028038314,0.055284515,-0.016993608,0.025544984,-0.0029769533,0.053017963,0.0036011713,0.0022753614,-0.013758101,0.006566674,0.059278514,-0.0028370577,-0.03975824,0.058461472,0.02394928,-0.07575362,0.0033698166,0.08585338,-0.030449804,0.00834007,0.06844537,-0.0416795,-0.008266074,0.055348985,0.039021637,-0.021753764,0.019180965,-0.030778112,-0.05420187,-0.05823796,-0.029699119,0.0018858137,-0.034008346,-0.07999922
ALYREF,-0.001046762,0.06050169,0.028350517,0.021620503,-0.010455112,0.04279393,0.09291417,0.021679508,-0.06310336,-0.0110690305,-0.007999522,0.011017695,0.015714006,0.0011068247,-0.005045695,0.032591082,0.006839632,0.0006039052,0.03281101,0.026357608,-0.043314565,0.0010176504,0.054289583,0.00342997,0.034813568,0.056406748,-0.057448175,0.03777232,0.08373455,-0.0014648464,-0.010390803,-0.032169122,0.030447947,0.053560175,-0.0030477056,-0.038363293,0.026969336,-0.034540907,0.042887285,-0.014229387,-0.01823797,0.039427634,0.10496867,0.023544682,0.06625139,0.067889385,-0.023628036,-0.008644136,0.0003345708
AMBRA1,-0.0043856953,0.0380911,-0.043568473,0.047156937,-0.066989355,-0.0019004588,0.01809167,0.029004857,-0.06300467,0.028642885,0.009148317,0.009045585,0.09035819,-0.009162401,-0.028003752,0.008873097,0.08007028,0.02294445,0.06991775,0.041580554,0.021777553,-0.0812947,0.020738631,-0.0054975743,-0.09927905,-0.045696992,0.008918869,-0.04614748,-0.03631672,-0.023915697,0.016611926,0.0018611843,0.055084333,0.04580404,0.0030786782,-0.03041779,-0.020788373,-0.038359538,-0.0023271532,-0.07098137,0.019424818,0.043473065,0.053496104,0.019334355,-0.007996871,0.043004427,0.065550156,0.016720185,0.056091774
AMD1,0.033094916,0.0045884512,-0.06403313,-0.02669228,-0.032207306,-0.0011247869,0.013979382,0.0061133397,-0.09567682,-0.113501415,-0.06598519,-0.021417726,-0.032845072,-0.07541078,0.05926091,0.0077457586,0.018751897,0.04100549,-0.013594307,0.011015596,-0.044661567,-0.019800944,-0.050539415,0.08016947,0.077586085,0.04371646,0.008087254,-0.07063773,0.02912972,-0.03146251,-0.035203267,-0.0010844084,-0.027717303,0.01686381,0.0045406087,-0.16399859,-0.050463196,0.0083259,-0.07058817,-0.053341594,-0.050457094,0.038921446,-0.11538004,0.0076985112,-0.018719915,0.031058708,0.017961478,-0.028675806,-0.093965635
AMFR,0.034309488,0.10374472,-0.02669378,0.018053664,-0.0690937,0.018163025,-0.0071132286,-0.035008594,0.04803835,-0.031790957,-0.07384734,0.11371012,-0.033560302,0.03589626,-0.038362943,0.05354612,0.06821638,-0.07251005,0.014373142,0.019298378,0.0012432684,0.047832906,0.032384228,0.073296204,0.07385315,0.06600853,-0.049718656,-0.013812564,0.009969384,0.06358482,0.0077417213,0.12121184,0.055944502,0.14983562,0.05284093,-0.03950756,-0.005425427,-0.005835337,0.017437544,0.040635563,0.013010502,0.13557129,0.0020076933,0.03606917,0.01077709,-0.041623294,-0.0023696285,0.027472753,0.09535032
AMOTL2,0.026269693,0.020674875,0.050091885,-0.06030213,-0.08776612,-0.021795236,-0.03783476,-0.023060668,-0.05495135,-0.004019242,-0.07354667,0.024072584,-0.0037504835,-0.031694096,0.06708169,-0.018598897,0.023945382,0.0061540166,0.020249385,-0.020281382,-0.0115318205,-0.05516523,-0.06371708,0.010943659,-0.033629507,-0.027516847,-0.08234463,0.011200031,-0.04963631,-0.022977263,-0.053286918,0.0679781,-0.052206703,-0.0247143,0.019449988,-0.0056968406,-0.026543524,-0.018351536,-0.031317804,-0.12223252,-0.029865636,-0.041233394,-0.059778888,-0.022649962,0.08789376,0.006011839,0.071048476,-0.031540446,-0.07861988
AMY2A,0.05842593,-0.07706408,0.06323751,0.035385896,-0.0039629685,-0.048548304,-0.0018081061,0.06951602,0.041455586,0.00010922702,-0.018513832,-0.02199864,0.04211514,0.0019862219,0.00563764,0.047837153,0.038166333,0.018402005,-0.02292596,-0.034745038,0.074353166,-0.05974233,0.031946186,-0.040401086,-0.10685771,0.06644745,0.012096878,-0.04375149,0.031926688,0.029116835,0.04360804,0.019354781,0.06774929,-0.045990273,-0.030958079,0.07022511,0.014227054,0.048791368,-0.038329657,0.09666326,0.05421286,0.0056561506,0.0772354,0.010240883,-0.0072940225,-0.016567882,-0.029983392,0.07823294,0.0024410088
ANAPC1,0.0011030853,-0.0410794,-0.052044764,-0.03681085,0.034113932,0.048033386,-0.017846195,-0.04731114,-0.04566387,-0.02794382,0.04650793,-0.117520794,0.02861356,-0.046573654,-0.07744007,-0.064420946,-0.08905748,0.00016219255,-0.011049528,0.060122456,-0.029832862,-0.028880138,0.0016653097,0.026216937,-0.020436017,0.037042096,0.034680523,-0.047842607,-0.051544596,-0.03210195,-0.029231934,-0.00239796,-0.025525881,-0.04476775,-0.078537725,0.021113992,-0.08271047,0.021324337,0.0043175407,-0.05609502,-0.051103815,-0.051465496,-0.042292323,0.07846461,-0.13757248,-0.019028373,-0.043890715,-0.0014366437,-0.11288208
ANAPC11,0.03028545,0.0051332284,0.070718385,-0.013726868,0.035722643,0.052605208,0.02534349,0.06743414,0.027482633,0.03865352,-0.022044387,0.035574917,0.0036050384,-0.06427592,0.015223766,-0.04012753,0.08246715,0.13855171,-0.010428318,-0.015244624,-0.01087912,-0.025898129,0.0045115747,-0.046919778,-0.00071706745,0.043379545,0.0088450005,-0.037455905,0.033114884,-0.027113575,-0.048760686,-0.04102287,0.048378345,0.003440075,-0.042435955,0.09072976,-0.04829573,-0.05009728,-0.01536954,0.045359716,-0.049604613,0.029530836,-0.057037294,-0.07268659,0.0076736156,0.026834218,0.006318392,0.020595245,0.06440831
ANAPC13,0.040713012,-0.12711658,0.0014159381,-0.017465962,-0.016597588,0.024429627,-0.052265596,0.023114624,0.009968085,-0.03574206,0.017118102,-0.08278564,0.0007741328,-0.015317915,-0.008314948,0.013105329,0.016470302,-0.023016434,0.09034351,0.038571153,0.001083608,-0.053957224,0.011946155,-0.06014037,-0.028420122,0.0011182369,-0.011878501,-0.0633947,0.03544959,-0.014915604,0.046119757,-0.043434,0.09927499,-0.040297393,0.034406453,0.060585838,-0.0042646443,0.015845207,-0.016453521,0.0024548946,0.065815955,0.016395457,0.06496168,-0.07781837,0.014194635,-0.016863221,-0.08282496,-0.034228638,0.015705952
ANAPC15,-0.014410365,0.026828384,-0.036191966,-0.064947695,0.03767974,0.017744845,0.008383373,-0.02809981,-0.02226298,0.037481647,0.0922789,0.023984598,-0.039053287,0.047237456,-0.055303063,-0.0708296,-0.024127929,-0.026429046,0.052280698,0.065584466,-0.07891618,0.018825943,0.018941179,0.067416914,-0.051044315,-0.03082041,0.037650682,-0.025212087,0.044042602,0.022742864,0.032772947,0.019714808,-0.04113934,0.03824774,-0.037498508,-0.08041453,0.009425442,-0.03744938,-0.0069503738,-0.016904548,-0.004025932,0.03278079,0.029767817,-0.021059273,-0.07018337,0.045392763,-0.039329425,-0.12811948,0.015123044
ANAPC2,0.024325203,-0.0051022717,0.0376689,-0.041880157,-0.04653126,0.07951952,-0.07019096,0.041874647,0.002214697,0.048463162,0.0067854105,-0.036717758,0.030009998,-0.0023069598,0.13327213,-0.0722346,0.021500047,0.03986069,-0.0076722833,-0.045474224,-0.0032421013,-0.046215996,0.0058914474,-0.040025268,-0.03953733,-0.042986635,0.036325824,0.010900964,0.023264669,0.03661238,0.02951414,0.058050662,0.002924827,0.03626967,-0.024858542,-0.01663524,-0.035795264,0.10493212,-0.08177329,0.0005292,0.08354575,-0.054638527,-0.03339608,-0.0034093056,-0.021106565,0.041704074,0.063990034,0.06363727,-0.06541301
ANAPC4,-0.012081092,-0.0006296279,0.017781932,-0.03598822,0.035414163,0.09856212,-0.03030219,-0.0099145165,0.102009885,0.1251395,-0.023212263,0.030027911,0.04735472,0.07558429,0.046601295,0.04884489,0.06669224,0.037094835,0.01912462,0.069383696,0.04526726,0.024312481,0.07505652,0.0034641034,0.019502629,-0.0072460715,0.039716747,0.010279274,-0.010146775,0.053521097,0.033323348,-0.005823139,-0.0399057,0.0032221966,0.04430641,0.034258373,0.011554459,0.04219112,-0.06317082,0.05752551,-0.017362649,0.083232194,0.09068249,-0.013218744,0.020882547,0.028804163,-0.0059126164,-0.030123247,0.008518458
ANAPC5,0.0050722044,-0.001512211,-0.06913082,-0.0058787367,-0.06828474,0.059972312,0.031858884,-0.030869361,-0.012651086,0.075975396,0.066420555,0.037875015,0.06266583,0.012215641,0.07937999,-0.00070085237,0.0973547,0.06442465,0.04999477,0.08709852,0.0018835306,-0.007837587,-0.037811838,0.010371993,0.07399798,0.01042583,0.0679828,-0.01850353,0.050705824,0.051266134,-0.015766192,-0.015442229,0.024785213,0.05724731,-0.0991776,0.009404326,-0.00913643,0.09538592,0.008810691,-0.052732866,-0.029439498,0.030170415,0.01889465,0.049198758,0.028644959,0.01505993,-0.0018570706,0.043671083,-0.0042715473
ANHX,0.0015701676,0.107117094,-0.12648189,0.13464706,-0.012190473,0.0049511,0.011484795,-0.06794204,-0.08331615,-0.03490116,0.05247535,0.046713673,-0.016771989,0.06952189,0.056168664,0.03064115,0.04918758,0.071860075,0.032147285,0.010471093,-0.00750987,0.043097474,0.105569616,0.018361006,0.07108559,-0.02281935,0.03276862,0.05128568,0.01999284,0.028764501,-0.0538412,0.10228546,-0.0004774253,-0.022304134,0.029175585,-0.034131892,0.040522825,-0.04399735,0.009813445,-0.06798361,0.10531358,0.06535784,-0.053894117,-0.04809612,0.046180543,0.09833027,0.0154399965,-0.05089084,-0.038680907
ANKLE2,0.050779648,0.02920541,-0.03687961,-0.07272718,0.01572524,-0.010288366,-0.010056475,0.017528253,-0.015570009,-0.00401244,-0.015665382,0.06472734,0.057187352,0.014923673,0.0392217,-0.0070246155,0.060879312,0.019048126,-0.015377934,0.1494686,0.0044105006,-0.01647146,0.04951191,-0.0096663525,0.04375428,0.035105165,-0.0015392491,0.02719236,-0.01698851,-0.049969822,-0.053165816,-0.00048230094,0.0236183,-0.03962793,-0.05606627,-0.019943362,-0.007687133,-0.009209675,-0.0116115175,-0.064508356,-0.0719434,0.024851603,-0.006228788,0.0006495352,0.0038323149,-0.05273179,0.017615087,-0.009107661,-0.08159956
ANKRD11,-0.06496772,0.023609165,0.0023888908,-0.020860946,0.00593018,0.04597555,-0.041462854,-0.026351076,0.009074639,0.0033847648,0.008228978,0.0057533793,-0.07147101,0.00092896324,-0.059549816,-0.09744346,0.019718882,0.0034183036,-0.08042072,0.019195179,0.012893964,-0.039815765,-0.021529935,-0.0775474,-0.005791659,0.019130515,-0.03378362,-0.059811063,0.017481115,0.022657357,-0.0710926,-0.04752181,0.045273066,-0.008268845,0.0052312165,-0.08359896,-0.060870364,-0.021168193,-0.007188108,0.002958117,-0.030076556,-0.024893522,-0.09868151,0.031149017,0.061655816,0.011942493,0.03313626,0.009157783,-0.15308318
ANKRD17,-0.034813244,0.027592508,-0.021209918,-0.049288556,-0.068450466,0.03865761,-0.079182416,-0.032992605,-0.017019501,0.03182547,0.038944896,-0.010554972,-0.0033717253,-0.03696939,0.043339122,0.01890633,-0.048170377,-0.09963452,0.055756517,0.06646395,0.06294922,0.0051254733,0.05850932,-0.03776337,0.062327653,-0.006692522,-0.0065382128,0.039204147,-0.005191525,-0.009576712,0.0031511488,-0.0898963,0.048462585,-0.043656424,0.006949382,-0.017230054,0.079664685,0.02904775,-0.07839017,0.007362191,-0.05884529,-0.019377623,0.0013438715,-0.015190048,0.028175846,-0.0044637565,0.01631034,-0.11312693,0.036186896
ANKRD49,0.0386874,-0.0064676246,-0.022075828,-0.047706638,0.028028568,-0.019433778,-0.00916148,-0.079638205,-0.033356383,-0.07505109,0.066094846,-0.02323385,-0.09382841,-0.077099875,-0.001096589,-0.076370195,-0.030131185,-0.01956515,0.0012095516,-0.078193605,0.008235992,0.031926494,-0.09313087,0.019107662,0.06844763,-0.022861445,-0.07263452,-0.09451317,0.042236555,-0.013028074,-0.049207296,0.0082545215,0.026085587,-0.009817791,-0.028420813,-0.04606497,0.002181513,-0.026242705,0.03675956,-0.041643206,-0.04350033,0.02665857,-0.048086606,-0.041113947,-0.0022797093,0.027599275,-0.04199924,-0.09147567,-0.005562014
ANKRD52,-0.024736132,0.061368972,-0.031263955,0.02993421,-0.023808947,-0.032947544,0.046395186,0.053207137,0.0746524,0.021617206,0.06420882,0.021252198,0.05464358,-0.04080958,-0.01552842,0.008555103,0.040509157,-0.043175504,0.09173505,-0.039987132,0.045037635,0.052170377,-0.10086506,0.032722946,0.030050093,-0.006570728,-0.07021809,-0.015778683,-0.0011528434,-0.0042351363,0.0025823028,-0.06443888,0.030022651,0.018123811,-0.060430057,-0.041208364,0.013134912,0.05176777,-0.044851467,0.0061926777,-0.023090227,0.04905226,0.031337224,0.018161885,-0.07453118,-0.03151938,0.03410577,-0.05051938,0.03203108
AP1B1,-0.07546575,0.018633055,0.080064245,-0.040641442,0.046692193,0.07725601,-0.013848675,-0.084559344,-0.049621955,-0.024377253,-0.02010056,-0.0319622,-0.013113812,0.047513843,0.0060473825,-0.054353926,0.03762423,0.020684162,-0.0026655705,0.016212685,0.034049246,-0.028554605,-0.08271071,-0.07734564,-0.07367832,-0.04211221,-0.05086052,-0.014670471,-0.059674863,-0.063232526,0.019316135,-0.028441016,0.053623006,0.06261308,-0.049559698,0.011122865,0.017556686,-0.0073533854,0.058862887,0.02069315,-0.09577911,-0.13704422,0.059752397,0.0011597764,-0.028778838,0.016274966,0.037221096,-0.068227984,0.021451602
AP1G1,-0.042854704,0.010027595,0.08750132,-0.044829886,0.068730764,0.061318897,-0.0111500425,-0.051270206,0.06830439,-0.04554361,0.038505588,-0.04145371,0.09245153,-0.010744816,0.02614091,-0.007759244,0.08487814,-0.01152644,3.8753715e-05,0.009492175,0.06806359,-0.06959302,0.043342374,0.014313242,-0.005071367,-0.0018424988,0.054187767,-0.040054377,0.03280726,-0.04764735,0.11151694,0.050898165,-0.028679505,-0.062395807,-0.040405698,0.038230248,-0.067985795,0.040884435,-0.013454077,0.07424525,-0.014268187,0.046335742,0.03229931,0.012359278,0.04598006,0.021524532,0.08904165,-0.057612404,-0.014615261
AP1M1,0.05660132,0.04753914,-0.03530322,0.025964936,0.05675577,0.009005976,0.04957794,-0.022609256,-0.015041643,-0.055900577,0.031211913,0.030488191,0.048458163,0.010350091,-0.11457436,0.0039004232,0.04651969,-0.045532327,0.040623914,0.012432923,-0.025813017,0.04179684,0.00838283,0.030551003,-0.03935593,0.015224014,-0.03150562,-0.049677525,0.017187221,-0.020055445,0.04378505,0.062305544,-0.025289588,-0.042226013,0.044357263,-0.060380857,0.031877015,-0.0037924065,0.04817958,0.085559964,0.043567196,-0.035389125,0.08795486,0.10025093,0.06568849,0.12545997,0.060702626,0.0023145108,0.017954664
AP2A1,-0.0753172,0.020302031,0.040087484,0.111478485,-0.044020686,0.040015634,0.05742125,0.023192156,-0.044768125,0.049759194,0.042898398,0.010368824,0.105309345,0.026828768,-0.00412549,-0.0011448626,-0.039598968,-0.00946939,-0.033789124,0.043456014,-0.0048423884,-0.0032811996,-0.048070278,0.071213104,-0.015670178,-0.07486877,0.007939161,0.07404883,0.02877749,-0.022234034,0.04015877,0.051842205,0.042958524,-0.024383534,0.023596838,-0.034713056,0.027874734,0.0984961,0.010459472,-0.08184828,-0.0040257364,0.010054552,-0.079742074,-0.05217166,-0.038025983,0.050287545,0.009540826,-0.006874273,0.091362625
AP2B1,0.03544086,0.055041704,-0.009114793,0.05020578,-0.03955233,0.02445269,0.017377244,0.06632259,0.060199533,0.04787219,0.01086742,0.009736105,-0.034476887,0.10604733,-0.08633828,-0.04356102,0.031930674,-0.014396475,-0.044726286,-0.011188638,0.07054373,-0.056744587,-0.011291785,-0.00036359622,-0.001834688,-0.047432903,-0.015337243,0.039921485,0.07046509,-0.053940173,0.03890623,-0.06874779,0.0016268521,-0.01767014,-0.030135991,-0.04685416,-0.00987007,-0.003014324,-0.10428386,0.030841168,0.046360876,0.0033179244,-0.04003189,-0.02167556,-0.041435383,0.0049022194,0.035135705,0.018967513,0.0059722243
AP2M1,-0.060278356,-0.0025289424,0.07682761,0.032500673,0.031945936,-0.041400384,0.007133894,-0.04735309,0.0006538881,-0.028705435,0.0027502421,0.032968115,0.0411359,-0.01966369,-0.05192776,0.037764937,0.002007125,-0.0036700987,-0.050294127,0.06939397,-0.02067037,-0.06466906,-0.030379592,-0.030653974,0.01244017,-0.0299689,-0.06613012,0.036518544,0.06972901,-0.08402993,-0.045502536,-0.0091470955,-0.020258171,-0.10213979,-0.0019722423,0.04129741,-0.0850299,0.0066626435,0.036645822,-0.06552162,0.006876871,0.0344798,-0.048379548,0.015127294,0.0109688295,0.07824327,0.10794568,-0.041581128,-0.07100791
AP2S1,0.012877066,0.06119479,0.016968114,0.07605186,-0.018415805,-0.033200707,0.025375424,-0.041910943,0.034339387,-0.081105486,0.015918002,-0.023566453,-0.021602683,-0.05726676,-0.012533492,0.040261663,0.024329962,-0.018908566,0.0039096973,-0.034218717,-0.037721936,0.010242021,-0.049462028,0.043240868,-0.0072624595,-0.06534342,-0.013145373,-0.00685638,0.060649883,-0.07205213,0.013754599,0.0035505889,-0.011172112,-0.03968709,0.05030457,0.04066626,-0.05324524,0.034103476,0.0022925003,-0.09654295,-0.03910382,0.023948511,-0.011403724,-0.03710656,0.016204651,-0.0144288875,0.07386756,-0.056807317,-0.013706221
AP3B1,0.030886792,-0.011439454,0.01913007,0.021397004,0.089845285,-0.07731468,-0.065180786,-0.023804624,-0.03943695,-0.0042713354,-0.0762549,0.010419498,0.0119261,-0.006920312,0.04358591,-0.11791046,-0.102911316,-0.049307406,0.01289607,-0.08466864,0.03000713,-0.016062247,-0.07011788,-0.086055994,-0.00058266934,0.071753584,0.03974591,-0.0066184844,0.006123054,-0.08722632,-0.028569616,0.009983094,0.0044754543,0.001759336,-0.083090514,-0.059065014,-0.009832269,-0.08108324,-0.06449971,0.023712747,-0.024726724,0.058549173,0.0007648484,0.016648553,0.11798398,-0.040218387,0.042920597,0.006779455,-0.057794835
AP3D1,0.022389282,-0.0006631789,0.08907408,-0.07841673,-0.03891112,-0.081518196,0.047564667,-0.011388238,0.011520023,0.010049777,-0.006257159,0.06549842,-0.067270845,-0.05986718,0.017381147,-0.0646526,-0.047969196,0.03506075,-0.013558912,0.02109049,0.0878152,0.07926734,-0.022407897,-0.10135921,0.048840728,-0.026554417,-0.0049532983,0.009880126,0.03182032,-0.021077286,-0.033638712,-0.012054329,-0.04975723,0.018450389,-0.047891967,0.020653104,-0.031167505,0.0039806436,-0.030761266,0.029704237,0.042077463,0.0716315,0.001497553,0.02945483,-0.03499696,0.034686964,0.07809361,0.059158336,-0.02125306
APC,-0.0278922,0.00046348872,-0.036679156,-0.06884797,-0.12194447,0.034501012,-0.019069156,0.034005377,0.003316695,0.0048041088,0.067901865,0.06824065,-0.033605475,-0.04573668,0.025634954,0.025766404,0.019757615,0.052423563,0.015371016,0.08098409,0.036819424,-0.059968982,0.0010241637,0.025386594,-0.039469525,-0.017797964,-0.007126872,-0.0047135022,0.0029093188,0.1089392,-0.0043897144,0.04302417,0.03425715,0.09193315,-0.011227756,-0.07401821,0.023422142,-0.060109064,-0.08873795,-0.06874398,0.051192675,-0.03347015,0.017809754,0.053996257,0.02349006,-0.04108582,0.019058583,-0.069871135,0.08890008
APH1A,0.0012905245,-0.060469765,0.06793476,-0.037972018,0.0015277666,0.01024369,-0.0048960377,0.10553435,0.0037099451,-0.036564186,-0.058169685,0.011397402,0.00012557504,0.039413046,0.058455955,0.06060751,0.069838606,-0.002349381,-0.01065258,-0.01768354,0.02893301,-0.020086942,-0.013555648,-0.0163875,0.049965296,0.0054313936,0.058949906,-0.01919383,-0.05192052,0.0061681406,-0.05845166,-0.053528782,0.032402642,0.093360215,-0.08126049,0.06047533,-0.0052452935,0.017425556,0.03947492,0.052481417,-0.013182828,-0.080357775,0.044702563,-0.07723101,0.026860295,-0.010421216,-0.00045585664,-0.032863334,0.007970547
AQR,-0.03520608,0.013742505,0.08602979,-0.0559633,0.014827212,0.03988355,0.047025636,0.012193099,-0.014512425,0.07427468,0.06473403,-0.0309655,0.07115143,0.04358977,0.001779412,0.0020076076,0.04506947,0.0038022422,0.0620476,0.0024888793,0.06763458,0.00067473564,-0.016282365,0.049947586,0.031772252,0.062766515,-0.028088745,-0.08888348,0.058385696,-0.022473946,-0.038192254,0.066202335,-0.014918487,0.017691076,0.054796804,0.020057471,0.056010813,0.100279346,-0.024994727,-0.030824957,0.012809373,0.040187716,0.052196603,-0.043471247,-0.006973183,0.025854476,-0.06500604,0.07819095,0.0069865095
ARCN1,-0.076805525,-0.06896792,0.03618938,0.028825965,-0.038280267,0.058106985,0.01748465,0.06509664,0.0013001792,0.09563522,-0.036502972,0.027833583,0.07821226,0.08849979,0.07708682,-0.022600636,0.085446775,0.028251989,-0.051408086,0.028686114,-0.010529605,-0.013066062,0.071045205,-0.024962528,0.1350525,-0.017672876,-0.0075850966,0.037834205,-0.06333676,0.06583338,0.060414776,-0.104045875,-0.03876197,-0.021260628,-0.015238394,0.107185066,-0.043626755,0.107726015,0.0636876,0.043074775,-0.054171313,-0.04560143,0.088001944,0.039000947,-0.021406047,0.057003483,-0.0052565993,0.09740412,0.006112412
ARF1,-0.07951695,-0.051355686,-0.028401095,0.08654998,-0.008260299,0.006259907,0.019640712,0.060496602,-0.03601705,-0.025629181,0.0010581566,0.053212736,0.04698241,0.033218857,0.03094695,-0.019467793,-0.028983183,0.09300948,-0.035467695,-0.067327626,0.033811174,-0.009939302,0.015271299,0.0122908065,-0.038575355,0.0391881,-0.0257042,0.03215969,-0.009642758,-0.021107027,0.038320996,0.030543365,0.021482794,-0.06350257,0.032272883,-0.07015923,-0.017009797,0.0058064507,0.032414302,0.042040702,-0.05639843,0.03894327,0.06025591,0.00019195619,0.015043239,0.01626225,-0.010335367,-0.053972527,0.006222586
ARF4,-0.002579977,0.016886948,0.08709353,0.10291825,-0.063356705,-0.071496576,0.04548485,0.043415137,0.035532698,0.023337893,0.019297287,-0.07109918,0.03234767,0.005618918,0.049906418,-0.07568329,0.0098234415,0.02594634,0.08548903,0.0075965,0.061055347,0.054139297,0.01882915,0.0572918,-0.08314479,0.022478081,-0.08921818,0.03935709,0.0062643792,0.02858787,0.033177122,0.035256103,0.15824933,-0.045123585,0.040821835,-0.019805118,-0.003684785,0.05318994,-0.07356364,0.0037121193,-0.007822359,0.05453853,-0.046288777,0.014401124,-0.028339915,-0.009855593,-0.004311821,0.10413844,-0.0002195248
ARF6,0.0056756716,0.04161047,-0.013163308,0.13659178,-0.020638777,0.043403924,0.018720329,0.021801716,-0.06313776,-0.027252674,0.04366401,-0.0013736123,0.09336377,0.0027362534,0.026274236,-0.00041114038,0.082738146,0.036727034,0.06830139,0.01451663,0.022075377,-0.025586275,-0.006785713,-0.007275272,-0.051041283,0.0045230254,-0.03857219,0.0109042255,0.0905942,-0.063087195,0.041864436,0.04803873,-0.0812924,-0.045459624,-0.0025142631,0.09563258,0.038262047,0.004450449,0.092220075,-0.09932983,0.022355076,0.051954683,-0.0057387888,0.029651094,0.0516761,0.020962313,0.047561217,0.028209621,-0.061569054
ARFRP1,0.06735002,-0.09210618,-0.046788286,-0.015281205,0.0425486,-0.03465395,0.047446504,-0.0019869262,-0.039748125,0.0032699811,-0.021209378,-0.009586793,-0.005775149,0.003611336,-0.056158226,0.057502788,0.03452136,-0.001477609,0.071868986,-0.015952945,-0.049830772,0.02175827,0.041993503,0.0128533635,-0.0035335335,0.033671133,0.070636936,-0.022128634,0.028803783,-0.024818037,0.0866259,-0.002507061,-0.03133561,-0.012260458,0.0005286333,0.03065253,-0.053555798,0.01921821,0.019132273,0.06918524,0.039421145,-0.035714984,0.041473303,0.05962497,0.010286879,0.0066648372,0.08619296,0.043082718,-0.00620789
ARGLU1,-0.07227865,-0.0010157058,-0.032284424,0.03537023,-0.050254192,0.019249983,-0.020440103,0.06816168,0.003624212,-0.006161955,-0.040616494,0.009323337,0.14408028,0.054359846,0.037778627,0.04349508,0.028418824,0.053118408,0.028374087,0.06656689,0.08370736,0.042721093,0.10409965,0.070206806,0.005653929,0.075368136,-0.026703302,-0.015576351,0.03364365,0.05609716,-0.022121185,0.060773157,0.09241686,-0.017606365,0.13488904,0.013930723,0.010860921,-0.04553683,-0.05859095,0.09510973,-0.044341974,0.051200274,0.026324246,0.07993485,-0.012518526,0.02282431,0.026195107,0.00996893,0.08738522
ARHGAP11A,0.05515008,-0.007978009,0.0058797738,-0.055775966,-0.04824609,0.0101956455,-0.017277768,0.0057379743,-0.004775671,0.030135117,-0.04119572,-0.036307782,-0.08084834,-0.019161317,-0.010131374,-0.0010155275,-0.012767488,-0.006764754,0.010618831,0.0810517,-0.0057361233,0.042676292,0.06960622,-0.11209579,0.0661837,0.038687743,0.031331003,0.0004400875,0.0073276768,0.012112519,-0.0050544324,-0.06363322,0.058973663,0.082075156,0.0229421,-0.003207706,-0.05615618,-0.047503293,-0.09727024,0.08551654,0.028171696,0.0077187903,0.040785063,0.019641679,0.07924141,0.032274872,-0.029099712,-0.033071645,-0.07276454
ARHGAP21,-0.07960604,-0.04100586,-0.07031857,-0.08971151,0.028343482,0.027893625,-0.06996989,0.03227831,0.043102093,-0.002139997,0.058185637,-0.053622376,0.05407401,-0.03374436,0.038617928,0.014121594,0.017670313,0.024607798,0.0053489404,0.039031465,0.09146847,-0.009189138,-0.0062889336,0.04748023,-0.05239314,-0.062233314,0.029457884,0.070292495,-0.027377225,0.0979496,0.031576764,0.06535331,-0.02819783,0.057822477,-0.031732954,0.012550325,-0.08082948,0.043159988,-0.05735229,-0.06699151,0.03324266,0.027379086,0.044836823,-0.0699736,-6.1971165e-05,-0.04929808,-0.06117472,0.063841306,0.026414158
ARHGAP29,0.051239155,-0.00018477229,-0.028674996,-0.0037226435,-0.07482098,-0.012190883,-0.11551839,-0.0061945193,0.03356341,0.028493233,0.07264736,-0.07471793,0.0036330489,-0.041723117,-0.12961143,0.036730263,-0.061605934,0.0945991,-0.016465317,-0.062454384,-0.017907273,-0.10644604,-0.003855345,-0.09871014,-0.020661224,0.030866042,-0.012885792,-0.033939045,-0.069276154,-0.057653565,-0.09750616,0.029912751,-0.076434985,0.061460204,-0.03361178,-0.05227436,0.009098311,-0.0053410586,-0.039895725,-0.051897597,-0.043135263,0.014969334,-0.036686663,-0.03957029,-0.09629345,0.021968082,-0.03837635,-0.023415986,-0.04832554
ARHGAP45,0.0020672625,0.00015072685,0.006957445,-0.047133777,0.08103869,-0.0506206,0.08297807,-0.017772049,0.040774383,-0.016456509,0.024341436,0.12326821,-0.0515801,0.025737291,-0.009352539,0.042859558,0.033232424,-0.01733784,0.089113854,-0.028996047,-0.0070265913,0.106100656,-0.03635817,-0.0541594,0.0068788948,0.07177111,-0.006993949,0.008442171,0.059861094,0.023973191,0.009906401,-0.078824185,0.018899225,-0.016031822,0.058695067,-0.11439794,0.07263065,0.04708297,0.09113058,0.0074952054,0.07923013,0.014720718,0.08988452,0.16324615,0.050310902,0.1049481,0.16158219,0.018100306,0.0656473
ARHGEF12,0.052650377,0.016374605,0.0671156,0.00845032,0.0005709216,-0.01369219,-0.021837136,-0.09002964,0.04606676,0.038785636,-0.047940467,0.025840001,-0.03324931,-0.016069701,0.059533615,0.05422256,0.015896123,0.075050324,0.07627737,0.020878267,0.0071566124,-0.024078596,0.08663396,-0.03749572,0.012353969,0.016518114,0.07164571,0.091629796,0.031218108,-0.00925196,-0.005399531,-0.054396745,0.07242623,-0.028915402,-0.0043398435,-0.03141816,0.07997764,0.062068462,-0.0056603956,0.08238243,0.02792973,0.14261205,0.05157051,0.055982657,0.059547793,0.02436731,-0.060221102,0.01595225,0.052254304
ARHGEF5,0.014963531,-0.049512915,0.043567915,-0.018088536,0.0031370576,0.0040391563,-0.00072469976,-0.0005741593,0.058219425,-0.0216749,0.014214315,0.012287163,0.01599728,0.0120156985,0.04907732,0.029579787,-0.02573917,0.034705516,0.040123116,-0.10411602,-0.0072797737,-0.07235093,0.022792445,-0.023176419,0.08164342,-0.008750998,-0.07166338,-0.029625854,-0.011966563,0.03528291,0.016282456,-0.022019487,-0.09057628,0.027131774,-0.015548488,-0.0023382683,0.02405307,0.003957939,0.08145416,0.028330505,0.048827518,-0.053538244,0.094709285,-0.066474795,-0.032829084,0.041078165,-0.00662996,-0.06698401,-0.03461764
ARHGEF7,-0.008538207,0.061094064,-0.01862012,-0.01518113,0.005209781,-0.007695878,-0.030848304,0.045358527,0.052159924,-0.054627452,0.069004275,-0.03113659,-0.026995484,-0.096195295,-0.053652797,-0.023984889,-0.03413249,-0.03439193,-0.061373245,-0.081328295,-0.058159444,-0.078914136,-0.017510036,-0.121520676,-0.06088386,-0.06584138,0.024547521,-0.026601283,-0.0069737816,-0.053184994,-0.08328496,0.025513701,0.01042503,-0.018766591,0.07065144,-0.088315085,-0.024675589,0.009369396,-0.1048446,-0.11360325,-0.0028310528,-0.010701763,-0.046594102,-0.10014491,-0.032060392,-0.029325265,0.0052267485,-0.024753505,0.04111761
ARID1A,0.03147331,-0.027960658,0.037817553,0.0020027065,-0.028659685,-0.03622905,0.08709537,0.014160877,-0.063114956,-0.021346606,-0.01797012,0.09076133,-0.01759181,-0.053607292,0.06636918,0.11803032,0.061445117,-0.018286755,0.06782684,0.017664732,-0.07212724,-0.045285713,0.09093372,-0.110026814,0.050782587,-0.04547368,-0.010236871,-0.0075294417,0.07173848,-0.06175462,-0.031076645,0.03108288,0.03101672,0.0056365146,0.04554111,0.012286255,0.01326212,-0.0053503043,0.12659314,0.009625585,0.023116823,-0.03886617,0.0630819,0.038856905,-0.056188498,0.11545179,0.11046945,0.028246764,-0.04232382
ARID1B,-0.029674986,-0.00119961,0.021179115,-0.009976116,-0.014600102,0.043499485,0.09197153,-0.0034039991,0.04704683,0.049454916,-0.036308147,0.072090894,-0.05080294,-0.0039953813,0.03474306,0.008804033,0.08377412,-0.05414188,-0.019266753,0.07641268,-0.14163378,0.072026715,-0.041868992,-0.042947736,0.010466564,0.12387888,-0.0058350754,0.04920015,0.1028429,0.011507122,0.057172015,0.0019967416,0.076119535,-0.010583267,0.009089011,-0.019359542,0.02219685,-0.05067567,0.14173558,0.018230533,0.08323934,0.040951774,0.055754222,0.046304233,-0.0644775,0.024703471,-0.0902581,-0.00019890653,-0.027701851
ARID2,0.019102339,0.053848226,0.09647867,-0.014583062,-0.06546155,0.07003302,0.015708817,-0.01931498,-0.056766942,0.032607634,0.041456323,-0.04484465,-0.06168772,-0.008441104,-0.07671773,-0.04981787,0.03377115,0.042885747,0.042519666,-0.03678907,0.0010107206,-0.019000432,0.01997311,-0.052268177,-0.04693758,-0.052245963,0.008099021,0.031177206,0.05472936,-0.015654532,-0.038014628,0.073975965,0.011559019,0.08675054,0.108083256,-0.025577009,-0.056930665,-0.05622844,-0.0063021523,-0.061691437,0.0046804613,0.042149052,0.06150292,0.022574993,0.0056402767,-0.05876128,0.015262475,-0.07606654,-0.03960798
ARID4A,-0.062640525,0.016806012,0.0073164743,-0.0432209,-0.009303207,-0.026913252,-0.0107920505,-0.021337463,-0.0005200393,-0.02201543,-0.030619549,0.008993377,-0.029329369,-0.004665276,0.01690614,0.03503742,0.029120399,-0.06260942,0.04859026,-0.05991657,0.020978676,-0.0069009024,0.008542917,0.00024659926,0.0136445025,-0.061131094,0.03325484,0.0017124739,-0.08193742,-0.061737023,0.00602705,0.03347501,-0.060011815,0.014049911,-0.022318834,0.039974794,-0.0048867143,0.054741584,-0.028019603,-0.07575318,0.060617656,-0.016767828,0.006471868,-0.075973056,0.024076292,-0.019075569,-0.053995773,0.053088024,-0.027535291
ARIH1,-0.090194516,0.010705103,0.01559896,-0.030757887,-0.043976262,-0.071946114,0.045387745,0.0033495396,0.04743661,0.0028073099,0.031180535,-0.07050718,-0.002815255,-0.06206003,-0.010510482,-0.02495543,-0.00010098943,0.004886078,-0.0039301505,-0.13275847,0.033295438,-0.038965162,-0.008770797,0.058603235,-0.013525144,0.03715675,-0.043826602,-0.03006472,-0.032013364,0.03953148,0.02232542,-0.01524648,-0.02827547,-0.006030364,-0.002605077,-0.0976381,-0.022014795,0.048823353,0.020460196,-0.04046791,-0.050092764,0.0382731,0.0023063836,-0.039776985,0.009778454,-0.034913387,-0.05893529,-0.018543841,-0.05644153
ARIH2,-0.08321944,-0.05520275,-0.07691138,-0.048841376,0.016904019,-0.025220826,-0.005079974,-0.00078495085,0.0612194,0.036889665,0.051064424,0.052999295,0.021609006,-0.09830411,-0.06127527,-0.036105067,-0.037249222,-0.006615111,-0.009534495,0.0219272,-0.049671438,-0.11639613,-0.023475217,-0.017064393,-0.023212207,-0.08108052,-0.0041052904,0.03459548,-0.04875746,-0.0086209895,-0.103273086,0.0034522123,-0.03974755,-0.074216396,0.013224292,-0.0126803685,-0.08332218,-0.009132988,-0.00074651046,-0.028570253,-0.0020742996,0.0029452937,-0.049423404,-0.019287666,-0.10014083,0.0697293,0.000595149,-0.019167425,0.020566769
ARL1,0.0221373,-0.062853776,0.077615775,0.03966778,0.055246435,0.04493313,-0.029383844,-0.09107846,-0.04497879,-0.007399834,-0.020891033,0.04506915,-0.036874212,-0.023006678,-0.009715221,0.01763157,-0.031205561,-0.013686423,-0.041216236,-0.038939964,0.014288941,0.03289259,0.05982919,-0.046912555,0.05145149,0.079848856,0.022683954,-0.03570071,0.060847133,-0.047944404,0.054889735,-0.048419718,0.022120947,-0.092459634,-0.003849138,0.056272,0.08639778,-0.0558543,-0.01977421,0.0439313,-0.056543574,-0.014808879,0.043739192,-0.02713789,0.023720156,0.055609673,0.011651207,0.051201344,-0.03426086
ARL8B,0.022470465,0.041958805,0.023351865,0.025413249,0.0321314,0.0023669414,0.018809497,-0.030977806,-0.062322237,0.05897538,0.096535,0.08144269,-0.02040919,-0.0029793526,-0.016747247,-0.12377234,-0.06770186,-0.023794457,0.043397725,-0.038387142,-0.032460533,0.088010736,-0.011118662,-0.048809174,0.012056615,0.026025057,0.086039476,-0.04916366,0.099064216,-0.15320285,-0.050683167,-0.053461447,-0.001117542,0.06340985,0.025266595,-0.035901345,0.00030424894,0.0491134,0.04008004,-0.0358572,0.054860972,0.02909167,0.019342748,-0.02592097,0.012501526,-0.0041982313,0.060133327,-0.035897512,-0.007924953
ARMC5,-0.0037361337,-0.02387768,-0.030576147,-0.002032492,-0.013708413,-0.033243425,-0.043517113,0.023595652,-0.020227706,0.006743156,0.074967034,0.022666987,-0.031431694,-0.08242175,-0.060701337,-0.019758644,-0.010762936,-0.01006361,0.01911384,0.07576743,-0.017869288,0.022608187,0.053617626,-0.106264,0.019854603,-0.02161923,-0.058422353,-0.0069631254,-0.07565133,-0.023171749,0.033350468,0.051307745,0.048542872,0.026334522,-0.008000352,0.006566444,-0.0676419,-0.051725842,-0.075125925,-0.07145584,0.016786251,0.06315995,0.012450829,0.03146132,-0.005343981,-0.038774546,0.07000086,0.011050044,-0.024675557
ARMC7,0.06659032,0.0043077976,-0.013584495,0.020098938,0.051757243,-0.02581771,0.07973718,-0.048856284,0.08026833,-0.064874224,-0.05553126,0.055403356,-0.0038186996,0.046653528,0.064197004,0.101250574,-0.058338106,0.0655347,0.014424128,0.079499386,0.03501761,0.09332962,-0.07486894,-0.03380883,-0.051677916,0.051116582,0.024202934,0.06370708,-0.03391237,0.034983203,0.020420559,0.067737676,0.042138167,0.06834557,-0.0028294332,-0.076034635,0.10483875,-0.008749355,-0.032139417,-0.0032884437,-0.049220778,0.0839317,-0.015112736,0.009961028,0.06872659,0.053345215,-0.0302757,-0.01619266,0.069196165
ARMH3,0.0009879355,-0.016018558,-0.069140136,-0.028236322,0.033954352,-0.014353493,-0.013771826,-0.039290544,0.083587445,-0.031707436,0.05296315,0.045256373,-0.07331372,-0.016975395,0.08104673,-0.035406705,-0.058389705,0.0010755849,-0.00014298489,0.015190109,-0.038572613,0.0003619815,0.04967451,0.03174427,-0.035127465,-0.030465536,0.022459539,0.0029114913,-0.025070222,0.0003174061,-0.024195049,0.023569303,-0.06145203,-0.030357772,-0.039724357,-0.11057495,0.039207596,-0.04074853,0.038009163,0.07426625,0.07112698,-0.00295523,-0.051214717,0.07151813,0.06519983,0.07091585,0.0030241043,-0.0077163465,0.041948784
ARNT,-0.056222353,-0.024171503,0.0007952147,-0.10088621,-0.0024210035,0.027131202,-0.034446802,0.051744238,-0.04047658,-0.0020650805,-0.09792612,0.0045360015,0.043087915,-0.012678429,-0.056496616,0.08003718,-0.0240946,-0.05229748,-0.05827372,0.041119147,-0.017435845,-0.05264918,-0.057920672,-0.030467667,-0.026536757,-0.06993184,0.017296245,0.00581217,0.027257405,0.02690495,-0.11272148,-0.068416364,-0.017451778,-0.012608817,0.030368738,-0.0073927445,-0.081809685,-0.012143584,-0.09757478,0.025229653,0.0062733446,-0.01609023,0.05357956,-0.06992044,-0.035088815,-0.11189244,0.0005145899,0.026295021,-0.044639684
ARPC2,-0.01563066,-0.011551205,-0.03354223,-0.015161737,0.08030593,0.032139715,-0.010174359,-0.007315011,0.03746491,0.0057378355,0.02698356,0.082336366,0.026602283,0.029054068,-0.036546353,-0.08339674,-0.0070100892,-0.033492412,0.03549715,0.037316397,-0.02157154,-0.10146477,0.00032063245,0.063613325,0.0053488086,-0.051372427,0.07726742,-0.06626676,-0.033561695,-0.0007445373,0.026795212,0.025090786,0.0684738,-0.007006001,-0.057346463,-0.069889784,-0.044817578,-0.020573558,-0.030224662,0.028697154,-0.048576128,-0.09933146,-0.01786037,-0.044472974,-0.030166384,-0.06631685,0.0252402,0.017024739,-0.026550554
ARPC3,0.030799625,-0.010780167,-0.022703499,0.055150386,-0.0016891678,-0.0107833715,-0.056400884,-0.08095757,-0.06526455,0.0033067998,0.060198132,0.03371637,-0.08970435,-0.11747629,-0.031303454,-0.056955718,0.0034910243,-0.084826395,0.052453425,0.03774581,0.0560569,-0.06589464,0.031352285,-0.03446454,0.022868697,0.041070823,-0.032160714,-0.002110809,-0.04533042,-0.12676933,-0.046946954,-0.1268906,0.027765185,0.0015255929,0.01294116,-0.12294703,0.012275444,-0.081766196,-0.056539923,0.038276628,-0.093399145,-0.072536625,-0.042761333,-0.0474741,0.035453077,-0.0057741003,-0.02001915,-0.00732245,-0.042863104
ARPC4,-0.013498647,0.051319275,-0.02351605,0.060186412,-0.00035887375,0.02083418,-0.06590217,0.036881436,0.034797408,0.046862595,0.07152487,0.051133595,0.022974696,-0.03412171,-0.07750516,0.05662553,-0.0037595027,-0.061608717,-0.03634699,0.03118801,-0.024699247,0.03328399,0.12820457,0.064224996,0.008910621,-0.013393394,-0.009395195,-0.012724567,-0.027409183,-0.09335698,0.006067019,-0.0674037,0.018043075,-0.14069678,0.008972813,-0.040960215,-0.05747285,-0.024111293,-0.031706043,0.064060114,-0.035939407,0.00036582447,0.08295691,0.03512136,-0.066567294,0.042374346,0.010760198,-0.0042434176,-0.055748377
ARRDC3,0.009918298,-0.004872707,-0.021482041,-0.028433016,-0.05846543,-0.036492173,0.008774909,0.06673774,0.015309007,0.08519335,-0.119839,0.03825642,-0.016593382,-0.029189106,-0.018145403,0.005158326,-0.0014452266,-0.01737219,0.010331703,-0.05409373,0.07663885,-0.025246862,-0.004749702,0.0008791106,0.028804805,0.003079521,0.02493334,-0.058602136,-0.032418255,0.010757256,-0.059208117,0.0592871,0.04195623,0.045088965,0.029931761,0.021959886,0.018311491,0.07764749,-0.030251544,0.051973738,0.07939581,0.043684263,-0.009050148,-0.040093336,-0.02342082,-0.08419154,-0.03518888,0.05649988,0.026678136
ASCC2,-0.06088331,0.019433308,-0.10264036,-0.0769419,0.005111421,0.083886385,-0.00024567454,0.022618435,-0.08527196,-0.020118129,-0.056161743,-0.02800955,0.036831506,-0.0070710946,-0.049083464,-0.06512995,0.028370354,-0.034685742,-0.035247974,-0.010917099,-0.016250558,-0.08774445,-0.029803103,-0.05937719,-0.07915305,-0.10811868,-0.04924422,-0.13308099,-0.053726345,-0.033759765,-0.041672856,0.015447186,0.03548379,-0.047944542,-0.007467736,0.004517102,-0.11219308,0.00091145345,0.03345147,-0.0895506,-0.0961326,-0.06105026,-0.019460542,-0.007480068,-0.041764576,-0.051579833,0.029259067,-0.032833025,-0.0103612635
ASCC3,0.047851786,-0.07159596,0.02254368,0.0058032107,0.00034623093,0.042931203,-0.06679125,-0.011388658,0.007135755,-0.07081543,-0.079131156,-0.089187354,-0.018459816,-0.058551844,0.058038495,-0.08522694,-0.029266637,0.0752001,-0.029564954,-0.074480265,0.043045167,-0.10590915,-0.079829454,0.0046372856,-0.08862092,-0.021245543,-0.011792185,-0.04528708,-0.046157457,0.02761912,-0.046264037,0.0015254815,0.041083757,0.080542535,-0.045223493,0.046316266,-0.04856019,0.043166004,-0.08797786,0.067722596,-0.100367375,0.056129154,0.030419603,-0.0543729,0.04050558,-0.035654146,0.042203315,-0.035185244,0.012091195
ASF1A,0.072299436,0.0007344566,-0.0062085125,-0.0058027743,-0.00203099,0.006868411,0.021314034,0.03874416,0.048386797,0.04541787,-0.057420418,-0.063393965,0.060776643,-0.01274879,0.06178506,0.028911687,-0.0719453,0.10143959,-0.020239905,-0.004606655,0.018773558,-0.04692399,0.09892039,-0.011904996,0.10398808,0.05474561,0.057400018,-0.026147893,-0.1049837,0.059677098,-0.009466149,-0.004751699,0.07330702,0.080197975,-0.056935433,-0.019869704,0.030930893,-0.008181601,-0.12930372,-0.037472997,0.0509572,0.00062541047,-0.04666654,-0.023717072,-0.013675456,-0.009416208,0.021001095,0.0071906075,-0.00832095
ASH1L,-0.010136733,0.020990863,0.05998402,0.0223634,-0.045843873,-0.015496307,0.08810449,0.044644065,0.102162376,-0.012292985,0.024954578,0.011532124,0.1212833,-0.014501885,0.045027956,-0.019784858,0.011457326,-0.050323326,0.0078301765,-0.058683146,0.034623355,-0.06308788,-0.028332427,0.0029729393,0.056231774,-0.016778992,0.0463669,-0.016858617,-0.016834347,0.01269575,-0.13216414,0.052904207,-0.061371922,0.051101867,0.031671226,0.009097723,0.016587906,-0.020652546,-0.025149003,0.038865,-0.043290026,-0.021871835,0.088818416,0.026233975,0.085913114,-0.0043915827,-0.00649405,0.0018485553,-0.054388102
ASH2L,-0.012954956,0.022727871,-0.04002909,0.0070947004,-0.024718292,0.037413206,-0.029759442,0.011357852,-0.024809327,-0.039808534,0.04156642,-0.028666634,-0.015107557,-0.021468828,0.0024509977,-0.020893143,0.024480132,-0.03677648,-0.02220275,0.017372187,0.02013308,-0.079461806,-0.027955165,-0.13673414,-0.030957079,-0.013556535,-0.016707003,-0.11974784,0.00656851,-0.023324577,-0.016492467,-0.038704533,0.020092132,-0.10076994,-0.014288665,-0.00017299992,-0.05832336,0.029633302,-0.0006714925,0.0019404542,0.023606822,-0.053864196,-0.019595908,-0.03527416,-0.112329185,-0.047040623,0.016004385,-0.028256452,0.008593713
ASNS,-0.005750081,-0.013217441,0.032709423,-0.020745877,-0.020683782,0.028755186,-0.049076036,0.044092692,-0.011710929,-0.0032907468,0.006730627,-0.022578485,-0.016608657,-0.029286876,-0.01413678,0.06460008,-0.0068750405,-0.0074415426,-0.049053263,-0.038794212,0.028361388,0.0011315206,-0.02594336,0.013808108,-0.0220896,0.05885718,0.07403184,-0.062802464,0.045451336,-0.0018254716,-0.01860903,-0.048011627,0.03975369,-0.023001814,-0.04099764,0.07247908,-0.05880426,-0.0037054527,-0.095468014,0.012531091,-0.05021898,0.0009555614,-0.016053554,-0.052603006,-0.034117624,0.0141535625,-0.10718455,0.020406503,-0.02014136
ASPM,0.083070494,-0.06167543,0.043605722,-0.00815041,0.04734865,0.05635824,0.005536391,0.0122788865,-0.014587507,-0.12780443,-0.024187969,0.0073995213,0.009508667,0.057040483,0.0034640508,-0.046202194,0.052949782,-0.03632037,-0.046988543,0.0034300354,-0.049053203,0.030260349,0.008186656,0.0146296555,0.021084346,-0.0025677178,-0.018436925,-0.0036877478,0.005951424,-0.09932723,-0.034509327,-0.033666547,-0.06154252,-0.058393836,0.055083033,-0.06542074,-0.014620087,-0.01679873,-0.015029685,-0.07181071,0.01937703,-0.025110984,0.010204638,0.0642599,-0.037530888,-0.043846924,0.0061669373,-0.11801608,0.0044240765
ATAD3A,-0.05114692,-0.042010855,-0.13177057,0.015735315,0.11101474,-0.037049018,0.1300523,-0.049722943,-0.02540941,-0.011776326,0.11702394,0.08940776,0.023337286,-0.072850436,-0.047074962,-0.023736384,0.040423,0.07666615,0.050782513,0.02976052,0.018296083,0.044681475,1.1925489e-05,-0.08019833,0.0871311,-0.025045356,-0.06114326,-0.048719984,0.07785217,0.055283956,0.018968463,-0.028705817,-0.0023973496,-0.022186268,0.046671942,-0.07554808,-0.024141986,0.028669257,0.033428445,0.0061157243,0.03319756,0.00990484,0.021892484,0.01838551,-0.09412451,0.12395955,0.022048274,0.09411905,0.08244644
ATF7IP,0.010718031,0.06885057,-0.010840362,0.03124175,-0.039103914,0.041044656,0.03010666,-0.04997659,-0.0073810406,-0.053322684,-0.037425227,0.031744495,-0.045414206,-0.018089643,0.006102226,0.007911346,0.054972913,0.0011679976,-0.019475983,-0.030241026,-0.043924607,0.008508998,0.00689064,-0.037201677,0.018995998,0.01198773,-0.041066375,-0.080356725,-0.05794717,-0.009548695,0.026004856,0.044087417,-0.006473586,0.019966003,0.05727201,0.023201158,-0.09303064,-0.07744867,0.061006173,-0.0021370999,0.056238294,-0.051481478,0.087791964,0.016473675,0.08102079,0.06538986,-0.014237061,-0.0208411,0.004616127
ATG101,-0.015348273,-0.016529858,-0.03256538,-0.02307199,-0.016924277,0.006195902,0.015135945,0.031096805,0.0533047,-0.045343205,0.036589075,-0.075250246,0.07679224,0.036778875,0.011366485,-0.018985871,0.07073292,-0.013142255,-0.056780875,-0.046345234,0.07658619,0.0046574697,-0.027364708,0.07351988,0.009953838,-0.054273184,0.03411766,0.079163514,0.03898063,0.013208754,0.028096242,0.053999666,0.048973043,0.041106425,-0.012877844,-0.02213548,0.106547356,0.057300564,0.0035315284,0.016325774,-0.10378337,-0.07059295,-0.054757237,-0.054747157,0.06684965,-0.039354797,-0.051146876,-0.047211193,0.026426064
ATG12,-0.10304165,-0.032014195,-0.10645059,-0.0034884277,-0.014734149,0.04197175,0.05622704,-0.034698274,-0.0050297724,-0.0037953516,0.010118126,-0.08344656,-0.012257668,-0.051144157,-0.107927695,-0.0013647045,0.0697723,0.061624397,0.020757856,0.009053922,0.057566665,0.0063165543,-0.046068966,0.02806576,-0.10047499,-0.05285487,0.02168895,-0.021582833,0.010736451,0.033094298,-0.03383931,-0.00032339996,0.019965602,0.0009007452,-0.009606663,-0.0070790513,0.020799411,0.026940674,-0.066642895,0.06137151,-0.034644067,-0.101227134,-0.0722026,0.02177904,0.021955352,-0.041646082,-0.037762173,-0.016571337,-0.007591543
ATG13,0.022367125,-0.058547582,0.0115091875,-0.025992298,-0.014346122,0.05243597,-0.009932151,0.036752615,0.08575445,0.029956298,0.034616984,-0.0012693553,0.022706179,-0.001375006,0.03122838,-0.025564345,0.018248966,0.0121491635,0.0487245,0.0038828915,0.037620448,-0.0020118477,-0.07493601,-0.06764319,0.03564845,0.07486961,0.008461727,0.009280197,0.031546142,0.037352927,0.018967431,-0.051177356,0.061127357,0.06071553,0.0061386432,0.011252876,-0.031925034,0.04122725,-0.08134484,-0.05443068,-0.047163222,-0.004175026,0.06177407,0.0045468416,-0.027565362,-0.015419426,-0.043032043,-0.05686035,-0.1156546
ATG3,0.066523574,-0.06879933,0.046699308,-0.06236988,-0.07141149,0.05648758,-0.039126683,0.012448229,0.04084301,-0.039256208,-0.0018573548,0.033476047,-0.11125957,-0.016295968,0.015609646,0.007467713,0.05320458,-0.041380733,-0.016671412,0.058541704,0.07313429,-0.017747406,0.045167074,-0.014639041,0.071063474,0.05417379,-0.016127046,0.04833874,-0.023221837,0.004993515,-0.010797923,-0.0023513013,0.026911963,0.15793456,0.03903641,0.07836433,0.08820828,-0.03292537,-0.040767957,0.042209238,-0.00852188,-0.07464328,0.043307867,-0.036542572,0.0492731,0.033092093,0.016760528,-0.0761638,-0.015044732
ATG7,-0.06849535,0.0010566729,0.03859519,-0.08054125,-0.01344666,-0.06291918,-0.0685,0.059244588,0.06992804,-0.022534814,0.019148761,-0.0022225014,-0.10202807,-0.03483901,-0.025008976,0.007969227,0.061073836,-0.0060893535,-0.032171413,0.07587633,-0.06426341,-0.035111632,-0.08941701,0.01456796,0.038362484,-0.09378738,-0.026212744,0.106701344,-0.07447575,-0.04983286,-0.033560075,0.0109082945,-0.060872655,-0.00038697824,0.0613313,-0.08161775,0.078441195,0.017543407,0.0013988769,0.01563941,-0.0368322,-0.08207245,-0.013343896,0.0029202886,0.0067425556,0.024205348,0.059533793,-0.09134353,0.05039046
ATG9A,-0.05084606,0.0684978,-0.031755656,-0.00013150879,0.025343914,-0.041760605,-0.046587765,-0.00046717335,-0.032206416,-0.016268052,0.023249136,-0.054383963,-0.0019712553,-0.009333509,-0.0074953455,0.0037426231,0.07830618,-0.025530893,-0.053834382,-0.05715615,0.002294737,-0.015000105,-0.058135077,0.05852476,-0.021747353,-0.021440566,-0.053297337,0.08839253,0.010783661,-0.0315179,0.048379328,0.045033403,-0.09821024,0.042497065,-0.04706523,-0.049335636,-0.0043763625,-0.028130852,-0.010936126,-0.059753552,-0.04547786,-0.0087152505,-0.045857087,-0.006766414,0.054741267,0.0039067823,-0.08545143,-0.020030582,-0.031358976
ATIC,-0.062832765,0.090358265,0.025635816,0.041598417,0.0072961478,-0.009053939,0.043084025,-0.04631254,-0.019296747,0.007763766,0.02256154,0.11131942,0.03923842,0.06190909,-0.043754395,0.01708206,0.021131875,0.01814852,0.027509302,0.10604744,-0.023499062,0.030340912,-0.076638,0.028636286,0.10580045,-0.08044114,-0.052881155,0.016376564,0.010377391,-0.031391837,0.019724198,0.045040015,-0.10261771,-0.045126513,0.0543234,0.03100713,0.03715145,0.05263568,-0.021509893,0.0021284886,0.048486862,-0.002209271,-0.026043214,0.042965967,-0.0022859497,0.06255605,0.04199486,0.0025136394,0.002168426
ATM,-0.057718214,0.0068602716,-0.009928797,0.04798445,-0.0772374,-0.0006072069,-0.03841835,-0.028103836,0.050841972,0.046844486,-0.0048458073,-0.06116635,0.0014971048,-0.052979443,-0.059917264,-0.048117794,0.07016522,0.044506174,-0.08182079,0.0024945925,0.045736462,-0.041077815,-0.07762131,-0.08830563,-0.023495343,-0.00039070548,-0.0026904885,-0.0060622143,0.04006968,-0.05915104,-0.04982487,0.014954667,0.040872093,0.012337766,-0.017394034,-0.020848269,-0.026309902,-0.09177797,0.04352116,-0.017565794,-0.013266539,-0.04901918,-0.063056506,-0.031822577,-0.039006595,-0.04533524,-0.043067187,0.054782707,0.06081992
ATMIN,0.029140921,0.046821956,-0.09351083,-0.033505067,0.050377987,-0.066574514,0.013316712,-0.06929562,-0.0708831,-0.013601025,-0.019777099,0.05177715,-0.004086111,-0.044710435,0.012245167,0.0014298173,0.05276985,-0.01937875,-0.0108602615,0.0050700055,0.028697267,0.029371072,0.0784984,0.0885183,0.048861865,0.051931843,-0.028110387,-7.0516406e-05,-0.08561773,-0.013262443,0.07344948,-0.042290855,-0.06619325,0.0010320098,0.012146928,0.013765227,-0.02638213,0.043063194,-0.055696186,0.03145934,-0.0022515536,-0.02684514,-0.035731673,0.029565796,0.044260222,0.01825142,-0.017701587,-0.04195161,0.046018824
ATP13A1,-0.0122226905,-0.00037478344,-0.009863278,0.017266192,-0.0082380315,0.028572233,0.093791775,0.038402412,0.0037211059,0.0074676718,0.080383524,0.047004815,0.025596363,-0.0037776818,-0.02541566,-0.06575704,0.013604716,0.023156071,0.020263763,0.004541224,0.0167056,0.08376349,0.030947667,0.0057104877,0.043995425,0.041001264,-0.061008707,0.00038273685,0.02491354,-0.021694692,0.08779974,0.025127638,0.06614844,-0.07910197,-0.045216918,-0.01832173,0.013658648,0.009053911,0.09610616,-0.0012401144,-0.0719594,-0.07045497,0.0038530712,0.027162042,-0.04324308,0.03166887,0.05154839,0.010876617,-0.047368634
ATP1A1,0.06765209,0.04647256,-0.038494576,-0.017102495,-0.032407623,0.00078505813,-0.002698181,0.077491224,-0.014685972,-0.08589432,-0.023223527,-0.0289616,0.053995408,-0.0012619431,0.022092387,-0.015888045,0.0051628887,0.048707947,-0.00311949,0.026807599,-0.02685917,-0.03256403,0.0009295261,0.033468213,0.02835943,0.12455541,-0.095662735,-0.08224554,-0.04236247,-0.060943052,-0.0806697,0.069325276,-0.057809077,-0.061054677,0.046904236,0.08951575,0.081274204,0.047339544,-0.00053801574,0.019055612,0.0028308004,-0.0037790749,-0.018020462,0.018628776,0.07260122,-0.08450319,-0.0013760681,-0.103051364,0.0013134817
ATP1B3,0.035402056,0.0003047142,-0.0033636894,0.01004177,0.122135006,0.014126563,0.094013356,0.012806163,-0.016552063,-0.052031215,-0.026301917,0.13780034,-0.0128537305,0.037331548,-0.03477794,-0.031019522,0.16483542,-0.027439835,0.13984735,0.14989603,-0.051693607,0.08833364,-0.05183363,0.13512821,-0.02555427,0.06184348,-0.047000308,0.07182116,0.08643805,0.053617436,0.048115328,0.15033123,0.029890565,-0.011641453,0.05129321,0.0043990277,0.07514559,0.051784243,0.11728819,-0.036046755,0.13193691,0.06905815,0.057477508,0.10657696,0.04779214,0.10436524,-0.004638641,0.0160419,0.03307354
ATP2A2,0.017760765,-0.054529168,-0.005428383,-0.025690898,0.0763107,-0.061772257,0.011959952,-0.046691626,-0.02489499,-0.11127483,0.0039854976,0.015986824,-0.12552728,0.021768933,-0.0025606232,-0.0049579265,-0.0030696997,-0.010764102,-0.03213089,-0.06643102,0.019080773,0.012943947,0.0635761,-0.077495776,0.044674817,0.022420954,7.906975e-05,-0.080214076,-0.14843157,-0.032336477,-0.060696516,0.035922337,0.09469569,-0.04768362,-0.11870032,-0.13859326,-0.06439019,-0.053642627,0.040903665,-0.03661856,0.08548132,-0.07545255,0.010305147,0.042637557,0.060312614,0.026815621,0.051933836,-0.039796755,-0.067175806
ATP2C1,0.04114951,-0.005767896,0.0680344,0.028311048,0.013313869,-0.048064653,0.10018642,0.013795423,-0.04761724,-0.13358873,-0.039174844,-0.037124332,-0.019785892,0.059185736,0.02857119,-0.029899534,0.10202421,-0.007173847,0.032432478,0.08725953,-0.03933051,0.029009575,-0.050142027,0.024352163,0.001344034,-0.0849994,0.034295894,0.052184083,0.076710954,0.028497776,-0.011959943,0.03055485,0.060523894,0.08028101,0.0971821,-0.0046919812,0.014486513,-0.05507377,0.044652607,0.05561564,0.016051179,0.012862132,0.008489561,0.059340674,-0.043425456,0.058561493,0.07582807,-0.03118414,0.044676065
ATP5F1A,-0.0144346915,-0.04544508,-0.031879827,0.028194534,0.04435826,0.023948057,-0.0061054863,-0.03779687,0.052845184,-0.02520249,-0.06419664,-0.00014762014,0.06411098,0.0061295526,0.013682155,-0.009061183,0.023975877,0.10703938,0.029374326,0.02712186,-0.10201688,-0.039439056,0.026919184,0.009178573,0.033653375,-0.08364,-0.020943796,0.01888867,-0.031366356,0.0014340468,-0.029953292,-0.0050730915,-0.042182833,-0.07703497,-0.021804053,-0.08305356,0.011294847,-0.033145756,0.10944957,-0.076575965,0.035165697,-0.026974,0.009977687,-0.034716822,-0.022711331,0.0068281926,-0.017294858,-0.022837948,-0.02635354
ATP5F1B,0.027713617,-0.021834273,-0.0583022,0.011236548,0.06647854,-0.0125585515,0.06579719,-0.023370354,0.01097371,0.0044859517,-0.05986974,-0.035109956,0.064921126,-0.036998194,0.0035509686,-0.00700868,0.02303046,0.09303595,-0.007621,0.012691525,0.018065609,-0.023295034,-0.047343317,-0.09774074,0.039758086,0.011531661,-0.02875251,0.07914476,0.018887538,0.08421171,-0.011925114,-0.04242735,0.023224045,-0.06709427,-0.07238803,-0.03900865,-0.034557987,0.025688011,0.04911851,-0.02728042,-0.032179452,-0.017770555,0.06845061,0.037850678,0.04720963,0.027807705,-0.068986274,0.03971311,-0.012724731
ATP5F1C,-0.00049257773,0.0013859972,-0.028254071,-0.023813898,0.03979152,-0.07182775,-0.034591656,0.051667385,-0.058349684,0.0044634,-0.037063856,0.003571334,0.017145984,0.020552484,-0.0027500053,-0.06499089,-0.018105902,0.047303513,0.029683933,-0.016147511,-0.00318647,0.0019007819,-0.056420207,0.004488322,0.03295739,-0.006465999,-0.08151227,0.053865563,-0.013685043,-0.014409367,-0.039243557,-0.016481368,-0.06755578,-0.03154449,-0.051071312,-0.035213437,-0.001701915,-0.005923196,0.0390826,-0.0007838763,-0.015353714,0.021322682,0.029632173,0.042896654,0.012539126,-0.039178036,-0.0049525993,0.059379984,0.045186836
ATP5F1D,0.008881737,-0.0039155125,0.008139985,0.043270282,-0.0028851014,-0.027385483,-0.025022194,0.0008308408,-0.018583946,0.015420093,-0.049644377,-0.021045534,0.009021031,0.0024616271,0.07410048,0.015066751,0.012919131,0.066058904,0.0138656115,0.093535006,0.02791779,-0.054453686,0.0037378874,0.02222781,0.041882265,0.0468252,-0.04478751,0.010877923,0.03914269,0.06461554,-0.00014180315,0.0071077985,-0.021142025,0.06712649,0.012398146,-0.030566994,0.01031407,-0.019894896,-0.009242937,0.04610274,0.06977143,-0.052803956,0.071509905,-0.009757331,0.0063160546,-0.023141352,-0.07152628,-0.008621754,-0.04478445
ATP5ME,-0.0049901106,0.022897385,-0.0767269,0.021639274,-0.00995556,-0.108569175,0.066093355,-0.053071734,-0.045342818,-0.019093385,-0.012565971,0.07355448,0.04375115,0.041546617,-0.021362707,0.014224258,-0.022262366,0.14388615,-0.06239099,-0.00043617896,0.107582375,0.013271033,-0.075802535,-0.06503005,0.08627633,0.037020802,-0.028877003,-0.040723182,-0.009445715,0.029603206,-0.09163954,0.012464341,-0.005976046,-0.083400786,0.013275962,-0.06138295,-0.0022510167,-0.047253944,0.008286875,-0.00510712,0.02348788,-0.0620657,-0.052898698,-0.021830106,0.03852033,-0.013646557,-0.005658085,-0.018986754,0.08607884
ATP5MF,0.03648174,-0.0772081,0.028706526,0.07019856,0.09855679,-0.03684921,-0.009443304,-0.042195085,0.023428023,-0.014595817,-0.04546832,-0.046853136,0.07896781,0.049440034,0.0071567567,-0.022648726,-0.0148087535,0.015772587,-0.0361122,0.031213766,0.03095745,-0.050943624,0.009541825,0.008191144,0.06424928,0.02828238,-0.0024997918,0.077139564,0.03661803,0.09925275,-0.0034696606,0.040215664,-0.09495456,0.05588936,0.006837393,-0.06482096,-0.0043236976,0.001835172,0.043158345,-0.006308778,-0.02749697,-0.03944868,-0.0012734544,0.058081843,-0.0057227486,-0.08141873,-0.059426256,0.0019458502,0.021993995
ATP5MG,-0.08022822,-0.01578804,-0.0383428,0.014703467,-0.033411257,-0.08829987,-0.0073224865,-0.10924531,0.09122408,0.08934352,0.02189994,0.00703609,0.066320255,0.0036132159,0.05652065,-0.05973893,-0.036939617,-0.003752569,0.0030129286,0.024399271,-0.022447145,-0.07800702,-0.06273115,-0.045345794,-0.037174653,-0.042553768,0.004971728,-0.028159887,0.012274615,-0.06959803,-0.022995168,-0.08955727,-0.028985608,-0.027182152,-0.0018783348,-0.06311902,0.07464633,-0.00044740265,-0.059521712,-0.014000118,-0.008093132,-0.04286053,0.068821885,-0.0019722546,0.0012995248,-0.018773213,-0.102011934,-0.032862883,-0.03263598
ATP5MJ,0.057168975,-0.06699987,-0.036088098,-0.094316654,0.095467076,-0.058607116,-0.0036066063,0.047117583,0.03167081,-0.036974005,-0.080955945,0.040361326,-0.040529285,-0.063430145,0.07535054,0.017230807,-0.12599602,0.07697482,0.0031952152,0.03433245,0.08230346,0.044981483,0.05656077,-0.004549522,0.03103842,-0.007964539,0.051729865,0.0034298957,-0.009407958,-0.04589409,-0.0058947206,-0.01968645,0.009361473,-0.035392936,-0.013225302,0.009745275,-0.010096245,-0.11125679,0.0072632367,0.03270179,0.025074376,-0.0019429292,0.03482611,0.018899571,-0.0080668,-0.053013444,0.017213795,-0.0634092,-0.09018405
ATP5PB,-0.07353192,-0.04642073,-0.10682273,-0.004811956,0.09601715,-0.012259717,-0.0057133064,-0.04776482,0.0051330416,0.07201972,-0.08619334,0.0031813239,0.03332346,-0.0095288,0.022500323,-0.0053004893,0.020475758,0.09154906,-0.06453668,0.0056589544,0.013241572,-0.03809125,-0.008744856,-0.0486157,-0.009530185,0.009241612,-0.0038248422,-0.003788906,0.020403396,-0.056471657,-0.022720302,-0.041839693,-0.04159351,-0.03238644,-0.049141727,0.04946288,-0.06262534,-0.008337399,0.052396297,-0.0450821,-0.026875796,-0.04457366,0.015224907,-0.013505322,-0.005421254,-0.010743898,-0.06454921,0.070368834,0.027848152
ATP5PD,0.0010886685,-0.09187042,-0.016072704,-0.06167387,-0.006857284,-0.0757033,0.03297458,0.03845282,0.017688569,-0.021690179,-0.02972587,-0.00267954,-0.0050985827,0.044032857,0.039057773,-0.01994797,-0.030656766,0.045155354,-0.020140406,0.017796788,-0.029008865,0.02444116,-0.03731484,0.02321676,-0.0019562044,0.05180993,0.006804811,-0.04848775,-0.03050174,-0.060204744,-0.023454234,-0.060086485,-0.09823975,-0.019400626,-0.096353985,-0.0019040876,-0.029756349,-0.044459835,0.022776118,0.004496541,-0.09461118,-0.066408984,0.013381766,-0.010016943,-0.0776013,-0.022925237,-0.044444606,0.036201075,-0.06340426
ATP5PF,-0.0596595,-0.03594088,0.015601913,0.09299966,0.07421409,-0.086789966,0.046722144,-0.012060571,0.065531,0.020834317,-0.061004095,-0.012708003,-0.030578014,0.06996674,-0.04976903,-0.07670705,0.05157582,0.0032448343,-0.012121882,0.05344366,0.018554566,-0.030551197,0.00072741584,0.105160296,-0.021883659,0.041802943,-3.4660534e-05,-0.0021579086,0.019261042,0.03282225,0.03538319,0.0124711385,-0.034629166,-0.005967619,-0.0989787,0.08498512,-0.04842686,-0.017788462,0.02720664,-0.039795477,0.04716742,-0.078787185,-0.025824608,-0.02724526,-0.007686673,-0.047962654,-0.02537986,-0.004195865,0.06929292
ATP5PO,0.023314135,-0.065106764,-0.032826222,-0.055806763,0.054281123,-0.087372534,-0.0028807733,-0.038418457,0.033336483,0.03561126,-0.005527883,-0.008454631,-0.060653497,-0.032213237,-0.0037727454,-0.036633696,-0.03046043,0.07449598,0.0013447134,0.042557526,0.04988333,-0.0704676,0.007300301,-0.039244805,0.028486867,-0.07700711,-0.052913245,0.0176488,-0.13697635,0.004240004,-0.04889792,-0.01462099,0.036309753,-0.05926398,-0.0673727,0.021467587,0.009447995,-0.053093653,-0.030350873,0.020931387,-0.034247786,-0.031119434,0.022951417,-0.011446615,0.026961774,-0.03414855,-0.0040557967,-0.0739719,-0.0040355944
ATP6V0A1,-0.06653405,0.051337775,0.026573775,0.055920847,0.07690218,0.027524529,0.00021770304,-0.047894303,0.073626265,0.07375392,0.024877546,-0.10147993,-0.056856774,-0.0991096,-0.09719779,-0.004459419,-0.018206412,-0.022307357,-0.070287816,0.047576785,-0.03050006,0.07154873,0.022717234,0.021844473,0.023713779,-0.18107094,-0.016806023,0.035156403,-0.03214811,-0.0056390576,-0.0040147286,0.046399303,0.015685664,-0.059553657,-0.040093176,0.0031204128,-0.01680138,-0.025405554,0.047699694,0.01536952,0.029903488,-0.02250947,-0.00029915673,-0.02064351,-0.039267566,0.0533143,0.02638185,0.094331145,-0.011781876
ATP6V0A2,0.015394399,0.025875183,0.007722176,0.09013379,0.10634039,-0.014316504,0.12636888,-0.062766515,0.02174176,0.08362519,-0.040120345,0.039645456,-0.035110872,-0.038564324,0.10121893,0.08951821,-0.028548464,-0.0024795015,0.048683446,-0.028924774,0.0023671624,0.007212755,-0.024044361,0.040170085,0.013014818,0.03753787,-0.0583894,-0.017326286,0.021586489,0.06961458,0.053872537,-0.042703457,-0.075225875,-0.0030702048,-0.029502923,-0.11685522,0.037630565,-0.032456316,0.07199552,-0.026279388,0.08007306,0.03142166,0.024705334,0.013123237,0.025245763,0.1337488,0.056453068,-0.116599225,-0.040809542
