0,1,2,3,4,5,6,7,8,9,10,11,12,13,14,15,16,17,18,19,20,21,22,23,24,25,26,27,28,29,30,31,32,33,34,35,36,37,38,39,40,41,42,43,44,45,46,47,48,49,50,51,52,53,54,55,56,57,58,59,60,61,62,63,64,65,66,67,68,69,70,71,72,73,74,75,76,77,78,79,80,81,82,83,84,85,86,87,88,89,90,91,92,93,94,95,96,97,98,99,100
GPX4,-0.0034312364,-0.066462316,0.02334783,-0.087692946,-0.035378426,-0.13016623,-0.011302773,0.0022150811,0.06509998,0.010738766,-0.07730495,-0.08274544,0.047869723,-0.117269196,0.16641413,-0.08213654,-0.09105748,0.020025318,-0.046512257,-0.034337442,-0.0010942736,-0.04288813,-0.09794583,-0.0055762925,0.039836507,-0.09511894,0.029601,-0.14683126,-0.015393975,0.055442836,-0.02224443,-0.0007369719,-0.016136399,-0.046885606,-0.04441873,-0.027699666,-0.13375162,-0.029471273,-0.056792527,-0.095752075,-0.06327955,-0.02938913,-0.020101964,-0.10507306,-0.016762951,0.02760374,0.016131297,0.013229472,0.002782446,0.01255839,-0.09797856,0.008710343,0.014911651,-0.085161954,-0.0023208223,0.037333686,-0.041827455,0.012337636,-0.0035035296,-0.060608324,0.065809615,-0.045021188,-0.06764392,-0.07219028,0.0938718,-0.09465066,-0.004666461,0.07983811,0.076093875,0.05547391,-0.05240901,-0.0088373935,-0.014561162,-0.012686054,-0.008104548,0.01092739,0.038133677,-0.014821104,-0.06634508,-0.027669262,-0.013004946,-0.044729494,-0.05201662,-0.037639037,-0.01816411,-0.047384296,0.018173696,-0.017923532,0.05356511,-0.14292651,-0.122327484,-0.08998318,0.008672237,-0.03205598,-0.07081761,-0.042180438,-0.043921288,0.070101425,-0.02108023,-0.009599437
CCND1,0.041190475,-0.036413196,-0.07380353,-0.0034568799,0.2140469,0.09404525,-0.09693899,-0.04662763,0.05516187,-0.014837972,0.10314001,0.03823297,-0.012384442,0.1417921,-0.068150476,-0.022182954,0.09906381,-0.029891988,-0.05265159,0.026991664,-0.02655613,0.07453202,-0.022407496,-0.03059178,0.053274132,0.15876393,-0.05030202,0.15077429,-0.0071316715,0.022502085,0.14272176,-0.18126978,0.036893684,0.0023233339,-0.03812191,-0.03818512,0.12091527,-0.02179602,0.10327931,0.11789898,-0.07248691,-0.018070213,-0.009772553,0.093824014,-0.07581519,-0.0058574425,-0.01711696,-0.05824695,0.008278325,-0.12558076,0.11660403,-0.111111805,0.077774085,0.059220556,-0.041706003,-0.01059042,0.15839352,-0.046098076,-0.010112809,-0.011936516,0.022581615,0.11605991,0.079971194,0.09170125,7.706057e-05,0.11836608,0.014281332,0.02498655,-0.07674898,-0.07933823,-0.03423822,0.076022334,-0.010969154,-0.13624834,0.092437446,-0.08823373,-0.09436817,0.035106607,-0.07883484,0.026215043,0.12234847,0.112094946,0.14206083,-0.037256815,0.03315853,-0.05284729,-0.0052325246,0.02346476,-0.060569204,0.0535698,0.07366902,0.104023695,0.0069504785,0.009300517,0.07434237,-0.05428878,0.12282321,-0.103080615,-0.096314736,0.04027339
EP300,0.042925563,-0.047306105,-0.007981336,0.09237858,-0.049409382,-0.051858056,-0.00027204986,-0.015935667,-0.08825601,0.053241547,-0.060527053,-0.012879824,-0.0079101985,-0.048824526,0.023599453,-0.013876614,0.046699226,-0.004410098,-0.036603384,-0.01623764,0.015663598,-0.105244376,-0.05097029,0.01601454,-0.01486094,0.016241344,0.002368557,-0.026875278,0.058668505,-0.0036698885,-0.0947333,0.08847342,-0.0610367,0.021213267,-0.0074547827,-0.045345273,-0.093277715,0.02783556,0.039376445,0.051647913,0.11141047,-0.03013108,-0.054199815,0.008170995,0.03426323,0.10792468,0.017302606,0.06304537,-0.04756809,-0.0052157575,-0.07176238,-0.049768344,-0.0007552768,-0.06545511,0.011099163,-0.027117025,-0.04595389,0.09040475,-0.011007461,-0.0068755657,-0.040745407,-0.0009236498,0.017316315,-0.09072075,0.03039114,-0.060666088,0.04413707,-0.0015632388,-0.0526153,0.012474524,0.057393845,-0.043300133,-0.047195595,-0.028314825,-0.035465103,-0.011411163,-0.0047856364,-0.049066063,-0.06619807,-0.09325673,-0.026902692,-0.011843682,-0.09422841,0.034880955,-0.0030389354,-0.022376059,-0.07473814,0.040561866,0.0033725535,-0.08708012,-0.0718266,-0.009377279,0.06744868,-0.05456532,0.00047695663,-0.0009179193,-0.092842534,0.08544707,-0.07233971,0.031898182
CDK6,0.025110658,-0.041454777,-0.05600639,0.023689752,-0.043088485,-0.09455181,0.011754379,-0.006810465,-0.007835382,0.055285096,-0.10701055,-0.010653879,0.043083236,-0.066188425,0.045007363,-0.07798783,-0.11335449,-0.07554286,-0.13278794,-0.029374778,-0.03362341,-0.067354456,-0.16595188,0.0119694965,0.047335837,-0.11129518,-0.017045474,-0.13526218,-0.03516183,0.018046593,-0.12263287,-0.01647653,0.04028815,-0.029786771,-0.05346602,0.02796494,-0.11243234,-0.01578928,-0.08789332,-0.13092831,0.02050673,-0.014818062,-0.08993831,-0.11212079,-0.006833697,-0.027034057,-0.05211656,-0.013718178,-0.04082753,-0.08176362,-0.0744796,0.008944736,0.018498177,0.018357359,-0.06470067,0.03566878,-0.023257205,0.0060895714,0.016041825,-0.036875676,-0.04618279,-0.14498346,-0.05259471,-0.14756626,-0.10626551,-0.04285959,-0.079398155,0.03274096,-0.0023820407,0.0013822499,-0.060135804,0.010465083,-0.13469803,-0.025633583,-0.015067203,0.034446325,-0.088556945,-0.008194269,0.012711864,0.0075747236,-0.08818469,-0.089921676,-0.122113064,-0.03182905,-0.05501512,-0.02335611,-0.03954348,0.03697318,0.06971968,-0.04012539,-0.10521232,-0.081106,0.022532841,-0.052183196,-0.101708494,-0.038274158,-0.14880924,-0.03871808,-0.024034733,0.0038996933
TXNRD1,0.00016671391,-0.018388255,-0.069531985,-0.09617362,-0.059824437,-0.032565523,0.0706434,0.013985462,-0.008484137,-0.067907885,0.040508706,-0.0074954433,-0.007824037,-0.0120684905,-0.06593916,-0.04101441,0.0042261216,-0.057748023,-0.06641728,-0.052905153,-0.07090574,-0.015008059,0.058737844,0.022937143,0.019647447,0.017116077,0.022333648,-0.004230539,0.024994144,-0.05688345,0.0080881845,-0.021485146,0.053292572,0.09758645,0.004754267,0.020676749,-0.010983637,0.060608026,0.018106949,0.009623639,0.07004643,-0.05754379,-0.03917849,-0.0029372922,0.037533782,0.039453465,0.045456894,0.015076615,0.013129638,0.065874,0.025387112,-0.0013583876,0.082717225,-0.012563255,-0.0016548268,-0.050856248,0.06638703,0.036399525,0.019497324,-0.069934994,0.0117439,-0.020853167,0.009832591,0.020442924,-0.090693176,-0.012325265,-0.00033099556,0.033010367,-0.019967707,-0.06724679,-0.039520964,0.0009313373,-0.033584166,0.029196138,0.04582997,0.042306945,-0.06306092,0.012696064,0.02455243,-0.05783264,0.025314435,0.023677614,-0.048421722,-0.010905288,0.03117692,-0.020260327,0.0027703089,0.023285316,0.06537296,0.03700086,0.08334692,0.030248495,0.009382274,0.011457058,-0.023764439,-0.003426578,-0.043585945,-0.049834244,-0.042049482,0.007480722
ITGAV,-0.056991305,0.028744198,-0.014220938,-0.037844487,0.06819543,0.046027213,0.035774436,-0.002906234,-0.07832641,0.076441765,-0.003869029,0.095204204,0.037313025,-0.014497693,0.0048285304,0.046010256,0.025821833,0.026683982,0.034012776,-0.06988603,-0.013301091,0.1150613,0.06472053,0.045976896,-0.031968947,-0.015559932,0.04824756,0.09873792,0.0842759,-0.026415104,0.0762422,0.07576628,0.06364706,-0.065199785,0.056719664,0.07005946,0.08839087,-0.027704567,0.06417487,0.036401268,0.055959444,-0.014913887,0.037808325,0.00944202,0.018665532,-0.038105063,-0.06666162,-0.040005952,0.04342978,-0.027692715,0.084694184,0.004738344,-0.06800298,0.03543107,-0.0189944,-0.023773072,0.1159349,0.040048454,-0.0865865,-0.056766387,-0.03420507,0.06863778,-0.049379803,0.07474436,0.029028572,0.062120747,-0.05121497,-0.079197645,0.060604222,-0.035063114,0.016114896,-0.0023775105,-0.04736886,0.04811164,-0.024984378,-0.03994388,0.041723512,-0.0051185526,-0.025354452,0.009876267,0.071880095,0.08035122,0.015913995,-0.06427037,-0.06255735,-0.03806197,0.018396126,0.004234426,0.0013822076,0.053934723,0.015424815,0.02961404,-0.06392165,-0.027268115,0.048289794,0.01681179,0.053457156,-0.049270593,0.025581378,-0.06316791
TYMS,-0.064411245,-0.023304263,0.001574079,-0.018730327,-0.025737163,0.08605475,0.06993742,-0.08012036,-0.06875363,0.017818864,0.012327624,0.08245751,0.10246721,0.061040245,-0.04969023,-0.033762783,0.016425543,-0.03725594,-0.12030039,0.032416556,-0.005174871,-0.06431787,-0.0019236057,0.006915011,-0.055972014,0.04849945,0.03883925,0.037077203,0.033133194,-0.010765556,0.070988625,-0.025601126,-0.004280723,-0.063516445,-0.11746194,-0.060276,0.022748526,-0.04788679,0.012857447,0.089316264,0.036834083,-0.059733074,0.03346088,-0.023356698,-0.115017354,-0.08377944,0.013142467,0.051240657,0.02652742,-0.051638234,0.026793238,-0.022998711,-0.03478361,-0.07513796,0.11805512,-0.0783838,0.0061680684,0.01344257,-0.11842563,-0.11072244,0.041467797,0.03327881,0.09278018,0.015758758,0.07685351,0.006437993,-0.010504135,0.08724658,-0.094590284,-0.032766983,0.11731443,-0.0176788,-0.07904304,-0.051222093,-0.031703692,-0.08877335,-0.023688259,-0.123327166,-0.062571175,-0.04084582,-0.04419383,0.082805976,0.118669756,0.044217616,-0.049055137,0.013489523,0.0029981162,-0.10984836,-0.054176174,-0.0010988663,0.01058037,-0.032019973,0.050118174,-0.03799777,-0.01093542,-0.030524729,0.038787454,0.011611956,-0.046866257,0.010529094
RIC1,-0.043984417,0.011548974,0.060841434,-0.0035505656,0.0076305736,-0.084173806,-0.08086773,0.047256477,0.039296247,-0.0493078,-0.018034298,-0.049063176,0.109982856,0.0006307789,-0.008710502,-0.0154799,-0.10347228,0.03166343,0.0051076887,0.06284195,0.056571573,-0.050975576,0.047985885,-0.026050944,0.065542676,0.020607466,-0.12238273,-0.0029264067,0.040152162,-0.09065079,-0.027374083,0.014707925,0.019197464,-0.0027384993,-0.049955737,-0.06772465,0.04740863,-0.043661475,0.05489887,0.0037513387,-0.05018538,0.043740854,0.0753529,-0.08929451,0.059835568,-0.055246264,-0.07539997,0.04504529,0.019853957,-0.06470304,0.0070382683,0.017662013,0.012504802,0.05323602,-0.059396073,0.007089996,-0.0155500155,0.0023620066,0.032797337,0.030516163,-0.008082789,-0.030735932,-0.054691922,0.0029990068,-0.062229514,-0.016183794,-0.044888522,-0.037505366,0.0029571976,-0.03233115,-0.013146332,0.035273094,0.045761667,0.035824835,-0.10729854,0.06437713,-0.026606949,0.08661193,-0.047613878,0.024112932,-0.066970944,-0.03569479,-0.07459711,0.044865426,0.08542843,0.068045564,0.013140098,-0.017042512,0.08324253,-0.09685212,-0.05998958,0.014966613,-0.05504355,0.06775231,0.01652319,0.025536947,-0.11827525,-0.0012640429,-0.014093359,0.02085115
STX4,-0.012480479,-0.020549241,0.0096614715,0.027265532,-0.0748022,-0.11289866,-0.026402863,-0.087209076,-0.037486862,0.06607149,-0.036989007,-0.01872357,0.044835478,-0.04613471,0.0739575,-0.0118253045,-0.096694045,0.07273995,-0.0042264904,-0.007449508,0.01708767,0.034753453,0.05981109,-0.013848565,-0.06107954,-0.06653337,-0.09690925,-0.058137167,0.014456452,0.025414994,0.018741386,0.088246755,0.046465795,-0.058622472,-0.05219791,-0.018296981,-0.018449234,-0.042957935,-0.053656965,-0.07711375,0.114154026,-0.04622998,0.05832762,-0.05806338,0.011623151,-0.12802891,-0.08300749,0.03905743,0.01642369,0.0072882944,0.008472464,0.045647655,-0.0018321986,0.03919469,0.027477847,0.02240756,-0.015054125,-0.012687058,0.008017875,0.03170443,0.032487463,-0.09007801,-0.074869014,-0.046290655,-0.08970642,-0.062448397,0.010463352,-0.05475847,-0.026796043,-0.095968485,0.022615997,-0.081124246,0.07994508,0.041594576,-0.055076614,-0.03213107,-0.045210868,0.06028938,-0.05678459,0.02450728,0.009587711,-0.14041765,-0.12381277,0.039098624,-0.022578593,0.03043796,0.023824586,-0.011724629,0.017914712,-0.021195404,0.0010854268,-0.038666572,-0.029036982,-0.062260736,-0.01777336,0.00019962185,-0.05491203,-0.06016207,-0.022052009,-0.020593846
SDHB,-0.0649526,0.0044839475,-0.021556417,0.050947897,0.024307689,0.050657168,0.0024895559,0.081671424,0.071248226,0.017459577,-0.04631235,0.05411396,-0.046975043,-0.034778852,-0.07170249,-0.013325949,-0.031771515,0.014888686,-0.0819469,-0.0745687,0.035851557,0.033184875,-0.045073487,0.033119522,-0.068054765,0.00949681,-0.0016150591,-0.041359484,0.06429048,0.03947967,0.062258385,-0.08419386,0.058560066,0.052667327,0.018114604,0.048406675,-0.081535295,0.03667225,0.015172921,0.01724551,0.040390376,-0.08397554,-0.02007243,0.063102424,0.004525506,0.0463909,-0.019971475,-0.04552646,0.02136444,0.029666398,-0.036159676,0.08057066,0.045948055,0.043088008,0.07775695,-0.014226515,-0.02432011,-0.0137654245,0.018049102,0.043581914,-0.033029765,-0.0014575268,0.008050389,-0.028385635,-0.04664001,0.050100468,0.038789097,0.04514538,0.020262606,0.074083,0.026997114,0.1227689,0.0070166546,0.08681861,0.07181136,0.034044925,0.019391134,0.044631198,0.036884155,0.03225578,0.014377501,-0.022172408,-0.016108325,0.048723876,0.07514044,0.0014196234,0.06922298,-0.019508427,0.01900345,0.0035573228,-0.06733042,0.044017777,0.027236303,0.07244508,0.0066570244,0.005767933,0.012322126,0.04390586,0.047081888,0.03502714
MYH9,-0.056516934,-0.05062677,0.13538134,-0.059632864,-0.026757775,-0.15307823,0.06233209,-0.074360356,-0.0014641325,0.0022274046,-0.15144762,0.022811593,0.0032030484,-0.079190485,0.08074276,-0.03869676,-0.05150419,0.025533196,-0.03151088,0.0058148224,0.032114644,-0.092359014,-0.094556905,0.09755583,-0.029554743,-0.057815168,0.011693211,-0.10204632,0.16869415,-0.026264524,-0.03545045,0.008972514,0.05304784,-0.06521935,-0.07261276,-0.058397025,-0.08381072,0.01423753,-0.06516169,-0.16456835,0.06988176,-0.090289526,0.1133606,-0.039177615,0.014028662,0.02246598,0.00550587,0.025624659,0.14913562,-0.09163108,-0.14724405,0.062160544,-0.018886905,-0.02580895,0.014255636,0.029461678,-0.1147168,-0.05077481,-0.04231648,-0.0945694,0.07708277,-0.06397833,-0.06738854,-0.09658928,-0.115044616,-0.10655644,-0.09808331,0.025435427,0.026894415,0.06996893,0.01869376,0.026459256,-0.05353912,0.08375056,-0.06895661,0.07543245,0.09288811,-0.025022598,-0.028943222,0.012635233,-0.104439534,-0.14499737,-0.109354556,-0.004553779,0.014409562,-0.021388618,0.028739123,0.029879514,0.038728517,-0.11000044,-0.039757155,-0.035997763,0.11276813,-0.1497921,-0.03869895,-0.051557682,-0.027111119,-0.016875839,-0.04050826,0.1506934
CFLAR,-0.026517307,0.091788046,0.011899173,-0.076197095,-0.04954741,-0.02185201,-0.06643289,0.026866918,-0.018701222,-0.026808836,-0.037010264,0.0013821666,0.11554551,0.07321473,-0.010729802,0.0052968687,0.019204263,0.034014374,-0.0016576626,0.09180628,0.03846874,-0.006575577,-0.037612036,0.05190633,-0.09432127,0.04143541,0.1859623,0.047458034,0.00034354997,0.1313325,0.072888926,0.061748616,-0.011111124,0.008944192,-0.00066372583,-0.017352877,0.063451946,-0.05224735,0.023086306,0.024397869,0.030165233,0.15221238,0.009010851,0.078466535,0.019793587,0.012352604,0.0030755703,0.06274712,0.014013105,0.0074833273,-0.0037160614,0.03113491,0.0188309,0.039176494,-0.005884244,0.0024969385,0.014073062,0.018857373,-0.08114072,0.06515824,-0.00039627898,-0.030137407,0.065490976,0.088604234,0.026133493,0.01674202,-0.015026058,0.096789174,0.024571583,0.091775596,0.0042207395,0.052110873,-0.024508981,-0.009424428,0.06371505,-0.03170117,0.037231065,-0.004596539,-0.04440759,0.10039156,0.080433145,-0.02398516,0.0065748477,-0.00016074309,0.027589092,0.08287224,-0.043811932,-0.05400859,0.016110208,0.014397136,0.02443158,0.008907427,-0.06196115,0.039656818,0.019709192,-0.0536856,0.049676493,0.07865493,0.00919153,0.052946735
GRB2,-0.064990796,-0.05634302,-0.08992339,-0.090379834,-0.019260148,0.04574812,-0.07966116,-0.027673837,-0.09078041,0.019556306,0.094800845,-0.022231113,0.06164992,-0.0017074997,0.10186284,-0.08830087,0.021205701,-0.084322445,-0.15179121,-0.041269116,0.033315174,-0.049585134,0.014559484,-0.036719393,-0.012543861,-0.06128163,-0.046116088,0.0074697477,-0.023839353,0.077965096,0.020569755,0.04530136,-0.045846477,-0.021285607,-0.061672036,0.040192124,-0.068485014,0.029694745,-0.020684015,-0.009132918,-0.012992785,-0.021325074,-0.03330164,0.068873614,-0.0039277673,-0.019770237,0.034541838,0.0027291416,0.017955588,0.002462451,-0.0029590034,-0.06817631,0.0050786776,0.027814496,0.027296074,0.07742282,0.047026757,-0.014644933,-0.003049193,-0.014831587,-0.061895516,0.0034336303,-0.029875131,-0.0061170394,-0.0127602955,0.02986267,-0.07992647,-0.02455819,0.026416155,0.015376254,0.0038903547,0.0647857,-0.057236344,-0.037544657,0.025683872,-0.011509048,-0.040068585,-0.11654065,-0.05688481,-0.037409376,0.012235777,0.034018774,0.048081197,-0.10785458,-0.10052065,-0.051540785,-0.0148272095,-0.110137485,0.014501605,0.07601242,0.097710066,0.060151637,-0.0783077,-0.026264243,-0.09776672,0.002555799,0.0288236,0.08887848,-0.0630385,-0.113148965
PCYT1A,0.07990859,0.050556615,-0.035064563,-0.060530614,0.040507905,-0.029108766,-0.09750294,-0.0043868823,-0.074876554,-0.08694795,-0.04089834,-0.066665135,-0.06593956,-0.054642525,0.020098973,-0.0321838,-0.0630292,0.03298554,0.04970879,-0.041317683,0.032108527,-0.032727733,-0.09081946,0.018064577,-0.017714938,-0.0059325793,0.09508917,-0.02181179,-0.061648145,-0.0792422,-0.011184282,0.031225936,0.030072363,-0.015455798,-0.044875793,0.031503912,-0.05693775,-0.05453816,-0.08151203,-0.04373415,-0.0688376,0.093495846,-0.009356103,-0.07722669,0.018862681,0.031098885,0.006296379,-0.024380796,0.012590473,0.011948371,-0.027586952,-0.03777609,0.005939594,-0.010154222,0.015480164,-0.09765644,0.03756767,0.016270492,-0.03595861,0.13444896,0.06913737,0.016553108,-0.0019025042,-0.02432655,-0.029030574,-0.093505085,0.06563597,-0.024118839,-0.018926937,-0.08031952,-0.0758748,-0.03311781,0.10106371,-0.05180744,-0.0019807073,0.0016553066,-0.0055586146,0.08475676,0.02668399,-0.03701641,0.020359622,-0.011317211,0.009835996,0.058849595,0.047021348,-0.00070698524,-0.00287032,-0.02070626,0.024684466,0.06408582,-0.011744344,-0.0013642258,-0.017161746,0.014856904,-0.06424624,0.08639028,0.05480208,-0.05148785,0.018746927,0.045805536
RAB6A,0.052786317,0.07995727,0.00014869345,0.061719272,-0.09375702,-0.077614024,0.03621924,0.070989266,0.07961144,-0.0083406875,-0.10135263,-0.10656813,-0.029673154,-0.07193581,0.048602134,0.054151755,0.049098466,-0.04066418,-0.021738186,-0.08108502,-0.037625995,0.012238214,-0.06570214,0.012758487,-0.04694707,-0.012830416,0.09832128,0.0013305988,0.0063572917,-0.033247817,-0.08193269,-0.0228808,0.051330242,-0.066287644,0.080508225,-0.09870252,-0.054894,0.049619026,-0.09128963,-0.035905052,0.047445834,0.01459218,-0.030770876,-0.016311226,0.032563448,-0.058645923,0.016811425,0.06308572,0.012291724,0.044199076,-0.059907313,-0.058681674,0.030906133,-0.017924614,-0.01318365,0.029798048,-0.022718232,0.0081398105,-0.020489907,-0.004095748,0.014596541,-0.08943229,-0.079629436,-0.0709474,-0.0968328,-0.024462625,-0.040499225,-0.03440892,0.063818425,0.116580546,0.014478861,0.06084953,0.028037643,0.021338196,-0.069806635,0.10893355,0.021597764,0.022977248,0.013409891,-0.016166309,0.0066201724,-0.0095157325,-0.05052169,0.03977757,0.010300762,0.023027249,-0.044137537,0.042975254,0.11894266,0.0046981624,-0.054266658,-0.04340767,-0.14077964,0.096236944,0.0013131661,0.039935466,-0.03357467,-0.04492251,0.012927489,-0.03900018
ENO1,0.06443669,-0.0018961311,0.03231979,0.04889486,-0.033296626,0.031226603,0.030160159,-0.036456805,-0.015828988,0.07092607,0.04705692,-0.056681126,0.020645702,-0.0011916613,0.075497635,0.042954642,-0.061538752,-0.009317396,0.040397447,0.011032422,0.0012618987,-0.010223317,-0.0040266765,-0.01274412,-0.019014703,0.026377466,-0.02988908,-0.0496649,-0.029360106,0.033256784,0.007778341,-0.0097441515,0.058947682,0.032718014,-0.015284497,0.024255468,-0.016006669,0.07310228,-0.050719842,-0.036297146,0.057754904,0.10860456,0.0291156,-0.037524316,0.036864936,-0.08656212,-0.014582429,0.0018009214,0.08479345,-0.035492834,0.037806023,0.04205848,0.05498129,-0.014705905,0.05644027,-0.02309237,0.02878286,-0.0060537932,-0.034250036,0.024472728,-0.0027504875,-0.014396173,-0.01435133,0.0020379073,-0.08477955,0.003888516,0.03736215,-0.03334566,0.03316453,0.008589636,-0.007904225,0.06325873,-0.0105773825,0.010143608,0.042188205,0.015762689,0.10033355,0.11901436,-0.067430355,0.014075402,-0.015501419,-0.12000619,-0.0143241165,0.09658783,-0.062328942,0.017046757,0.07185933,0.07950263,0.024656694,-0.005828307,-0.03865037,-0.08197308,0.05874116,0.03735744,0.05441058,-0.01712909,-0.041086137,0.075983115,0.04010437,0.0071260734
GART,-0.057814013,-0.07318735,0.059370946,0.06541761,-0.020172548,-0.002770643,0.05437209,0.043033127,0.01820403,-0.033688422,0.045594636,-0.02291156,-0.042269655,-0.048110757,0.059079044,-0.008019092,-0.070824765,0.029968472,-0.04059386,-0.0402784,0.0044623897,-0.10584631,-0.008554122,0.013477013,-0.013411892,0.0027070341,-0.084683456,0.062071778,0.03642302,0.037216984,0.025138397,0.03452659,-0.026422808,0.03851528,0.009522532,0.07089816,0.029967805,-0.03894524,-0.07082622,-0.021977447,0.05436646,-0.03328377,-0.06075145,-0.055081207,0.019999094,-0.036430843,0.0027136721,-0.10548045,0.04247,-0.078074895,-0.09478339,-0.051434804,0.06612036,0.046395294,0.059583988,0.027474698,0.046918552,0.02772365,-0.061910998,-0.060915653,0.009637688,-0.08598815,0.0762349,0.03801509,0.058750097,-0.03395634,-0.053709656,-0.11108768,0.06932977,-0.083170995,0.006996359,0.10008094,-0.037874583,-0.010543648,0.02957648,0.02013998,0.07164501,-0.0917698,0.024411155,0.011593611,-0.024356706,-0.0719605,-0.077727735,0.011128429,0.0066806753,-0.006310022,0.034115292,0.052885868,0.06974676,-0.08443529,-0.027414365,0.028231176,-0.0064449306,-0.019843834,-0.07132742,0.010444068,0.014618464,0.0480002,-0.053787615,-0.11558729
CAD,-0.06984916,-0.041615684,-0.021609912,0.019247415,-0.06893437,-0.049469262,-0.017209051,-0.09953995,0.0093477415,-0.06835534,-0.051614325,0.0154329715,-0.04269653,0.05678618,0.022030242,-0.04754394,0.086236626,0.022299062,-0.031014457,-0.06475382,0.087995686,-0.03335133,0.049121372,-0.056402292,0.026112195,0.010768861,0.060034495,0.032552876,-0.031049995,0.02617049,0.0030610694,-0.033483125,-0.057280183,-0.040405586,-0.08968381,0.040122844,0.047504883,-0.041181915,-0.041933276,-0.04055906,0.012730351,-0.03268054,0.002808979,-0.056321234,0.014818622,-0.015438739,0.04683072,0.035567496,-0.0009992517,-0.03204917,0.03715617,0.03201717,0.038850635,0.01667016,0.06796307,0.011639354,-0.039276533,0.034675222,-0.03707284,-0.09352051,0.041965697,-0.028118411,0.013050911,0.04366646,0.015643902,0.0047562574,-0.07486623,-0.012557298,-0.053643048,-0.04416313,-0.088798426,-0.041564085,0.006972332,0.13575369,-0.015056114,0.028547041,-0.017841974,-0.02846186,-0.061033636,0.023901131,-0.04255838,-0.0035826338,0.011326463,-0.07378444,0.0038233607,-0.038349364,-0.011897812,-0.009978751,0.11672418,-0.050494283,-0.0036166161,0.0014947947,0.034980867,0.009215345,0.04699283,-0.08112321,-0.014934212,0.0149575565,-0.06840303,0.006455741
EAF1,-0.043719128,-0.046502545,-0.045922417,0.008807811,0.05143799,0.029445127,-0.0071844435,0.09530518,-0.053326003,-0.11189126,0.015579333,0.1244168,-0.0033204393,0.009456864,0.0627891,0.04911167,0.02815942,-0.03232099,-0.0065170126,0.06710378,0.016029904,-0.0024219598,0.10935383,0.10180626,0.042483762,0.061866906,0.1013032,0.035907034,0.015295914,0.056775685,-0.0012022442,-0.07809129,0.00032966162,0.025697336,-0.028234797,0.03744773,0.05083572,-0.046054497,0.08088687,0.08755555,0.018508956,0.023147458,0.093293965,0.049818013,0.015619254,0.043168336,0.0340768,-0.029584568,-0.009120334,-0.014920413,0.073299244,0.025206963,0.020743249,-0.005443249,0.0049991477,0.02217242,0.0726209,-0.06385503,-0.042046923,-0.043444894,0.06367003,0.07468792,0.07391334,0.07654042,0.04730343,0.093227014,0.05284166,0.07333616,0.0060068965,0.15739292,-0.02525003,0.051530953,-0.08152913,-0.021836512,0.08553408,0.04964365,0.02097063,-0.081997305,0.085422024,0.03047387,0.10622317,0.016015094,0.09038276,0.113029875,-0.058681194,0.04588508,0.06905161,0.052535113,0.07346935,0.095282786,0.10678763,0.036823116,0.017945781,-0.03728996,0.09418392,0.036639746,-0.03480852,0.020044597,0.034266356,-0.050568465
WWTR1,0.028348032,-0.06753051,0.027581446,-0.038302828,-0.044480346,-0.002255689,-0.00020986624,-0.011669898,0.037488703,-0.079819836,0.061333857,0.00756184,-0.057796665,-0.04071736,-0.021526597,0.045579907,-0.08106341,0.026362307,0.06697847,0.09390665,0.05124015,0.05427076,0.12627587,0.09348508,0.054225545,-0.002909195,-0.040417325,0.029483387,0.05902735,-0.07962058,0.029454462,0.112577155,0.031607077,-0.033939157,-0.0382484,-0.03188856,0.01759169,-0.0024392207,-0.047319062,0.060740184,-0.009486475,-0.03557165,0.06463576,-0.021489765,0.018976659,0.0055131377,-0.031528097,0.03517953,0.025633706,0.01006504,-0.0076409546,0.01861668,0.035267077,0.026925867,-0.049195923,-0.07469149,-0.017180184,0.02956459,0.060163572,-0.06720805,0.029659992,0.043552697,0.042130686,-0.011980039,0.0083246,0.04739587,0.03570199,-0.07901755,-0.01669495,-0.10062486,-0.007595143,0.014670129,0.040957857,0.023548204,-0.0656044,-0.04291177,-0.0034836475,0.08844566,0.08082693,0.047142047,-0.028948514,-0.039868407,-0.026580038,0.024273783,0.03526654,0.07843831,-0.012719087,0.008708906,-0.09333855,0.06684108,0.03178055,0.02697845,-0.014512081,-0.02925048,0.08472349,-0.050368257,-0.041355707,-0.07864807,0.08722931,0.08661686
BRAT1,-0.07298893,-0.093491584,0.0027657594,0.0984608,0.03988298,0.13298686,-0.009155815,0.008438124,-0.05726764,0.055206846,0.109094016,0.09063028,0.07523282,0.06003497,0.04119452,-0.11007004,-0.011614046,-0.03209592,-0.11815431,0.062280346,0.05763626,-0.0216492,0.08729979,0.08835038,0.08094877,0.08369252,0.010189419,0.077051766,-0.031161403,0.087960094,0.03340491,-0.0043591033,0.069063514,0.015996316,-0.056552533,-0.02461428,0.06366594,0.05973175,0.023343712,0.009313765,0.12426014,-0.05498279,0.010299234,0.085771404,0.09604368,-0.04652868,0.022163317,0.07368238,-0.008863563,-0.08119575,0.076540224,0.016575146,0.09883685,-0.014464378,0.11637428,0.032192715,-0.017806845,-0.105282895,-0.052358344,-0.095830485,0.0010532317,0.027910424,0.116418056,0.08006978,-0.02982003,0.14551772,-0.12724303,0.09955161,0.015605352,0.0021916507,-0.014230703,0.07118636,-0.07313495,-0.008486982,0.10784093,0.035203975,-0.028896289,-0.09335205,0.058650587,0.034193784,0.038182072,0.08210566,0.1019748,-0.05378328,-0.045394685,-0.03385301,-0.0055273864,0.11726696,-0.06960557,0.08925355,0.04373633,0.041940823,-0.055311352,-0.05221063,0.07588572,-0.11315737,0.10470809,-0.009887734,-0.082252614,-0.019492418
RPP25L,-0.12853555,-0.07786502,0.08007894,-0.053511556,0.01251007,0.047418084,0.020287028,-0.042333264,-0.07143441,-0.008303914,-0.035753403,-0.07745825,0.04739861,-0.111232534,0.10890247,-0.006403132,-0.045352135,0.002576777,-0.129378,-0.012599859,-0.010227583,0.026880546,-0.019058695,0.020931456,-0.025375914,-0.09164427,0.03689395,-0.022245936,0.03518858,0.02931359,-0.0003693832,0.05658151,0.103173755,-0.04396573,0.038280487,-0.0035929675,-0.048268612,-0.0063077286,-0.036399566,0.060202554,-0.02654674,-0.021598637,-0.020991381,-0.043857563,-0.068330154,0.09344583,0.043151405,-0.016923647,-0.014150792,0.06528559,-0.06565655,0.0017282114,-0.03560526,-0.012450105,0.026695404,0.05924532,-0.09672577,0.029138373,-0.028697155,-0.09340233,0.121499576,-0.008012831,-0.026083073,-0.042771388,0.018355647,-0.10972095,-0.08369861,-0.05625781,0.060509518,0.04802915,0.029351935,0.08897027,-0.08882743,-0.04632428,-0.12413942,-0.022341924,0.009001733,-0.056262344,-0.061326224,0.032585923,-0.053967383,-0.048413813,-0.05414366,-0.048990823,0.005484697,0.03058266,-0.028764168,-0.053391904,0.05827843,0.06274096,0.004809362,-0.09828789,-0.0016175362,0.027286649,0.025115436,-0.039797463,-0.08947041,0.08521022,-0.030675985,0.026539551
FERMT2,-0.06545396,-0.054632407,-0.08716751,0.01758535,0.04494614,0.013951426,-0.06676005,-0.0363046,-0.080506265,0.010055562,0.058776338,-0.015837226,-0.058865413,0.07870341,-0.015356788,-0.058121536,0.022854881,0.013407637,-0.101357445,-0.0528341,-0.08688206,-0.008414281,0.013705666,-0.075556464,0.028316308,0.0068335403,0.090803504,0.06298023,-0.06994148,-0.03614667,0.09067928,-0.012805259,-0.0012120674,0.01597312,-0.036764577,0.011569916,0.05326532,-0.078237236,0.020705488,-0.006693761,-0.06862836,-0.06466288,-0.057481915,0.1316658,0.033227507,0.093959436,0.019253938,0.008179951,0.052819125,-0.016812308,-0.030998271,0.007255842,-0.07231754,-0.078495964,-0.00044734057,-0.039293956,0.086396456,0.083245195,-0.009663803,-0.09483917,-0.016252303,0.010143229,-0.06054262,0.09206618,0.13183512,0.034095492,-0.11556427,-0.046229012,-0.038739428,0.016538514,-0.07396666,-0.06345703,-0.07013839,0.04357912,0.017807502,-0.022419525,-0.029455392,-0.07292436,0.025486005,-0.06869285,0.019232638,0.043939356,0.07061446,-0.0377942,0.0004945821,-0.062772326,0.05869341,0.014479562,-0.018867074,0.066706404,0.073206335,0.039460223,-0.08083154,-0.037218302,-0.05562191,-0.082972474,0.06383568,-0.07185234,0.050120864,-0.054163508
UMPS,0.004522297,-0.052121807,-0.020839855,-0.0692394,0.015768597,-0.0752613,0.05457755,0.040595718,0.010358225,0.009291907,-0.07769341,0.0067326003,-0.032160487,-0.043522,0.016856335,0.019151796,-0.06912227,-0.015280585,0.037868246,-0.0020234918,0.06317121,0.04152723,-0.068829544,-0.0657156,-0.064536035,-0.010375865,-0.037119277,-0.056159336,-0.013135389,0.01523299,-0.00060759444,0.04128212,-0.110126354,0.047622766,0.015596039,0.021686334,-0.04975695,-0.047386322,0.031464867,-0.09707116,-0.0038172477,-0.03522279,-0.050282504,-0.06641254,-0.0013579291,0.048287757,0.05581863,-0.014191883,0.028871765,0.019971173,0.008942184,0.021202683,-0.058315456,-0.027960941,0.031573817,-0.003377832,0.020975616,0.07657233,0.009428168,0.009653924,0.06022815,-0.02455853,0.021759236,0.037305042,-0.023487398,-0.06625358,0.0625634,-0.04227211,-0.0385039,-0.036080077,-0.045110136,-0.012836629,-0.056755517,-0.010709927,0.04044552,-0.010603163,0.04953747,-0.0049504656,-0.0196664,-0.09461414,-0.051831078,-0.07007895,-0.052620802,-0.0061179493,0.04045219,-0.020709272,0.045220967,0.052579638,0.047051314,-0.12071624,-0.04280642,-0.032758795,-0.039040163,0.06636709,-0.027625762,-0.069908686,-0.09295872,0.012101475,0.06643312,0.02712508
INTS6,0.043508504,-0.049735263,-0.042863403,0.031654753,0.03522091,0.07731847,0.10872848,0.060540866,0.07610152,-0.0016853453,0.059627693,0.08891517,0.058077093,-0.048352767,-0.088947736,-0.068175204,0.08537017,0.07378461,-0.051866848,0.061621256,-0.042777065,0.04144814,0.11348989,-0.01624619,0.037546538,0.012092345,-0.03464405,0.12163069,-0.052299906,0.028918723,0.088718645,-0.051318176,0.016701134,-0.06104838,0.008121293,0.023400564,0.089470275,0.041163024,0.051591273,0.08617094,0.024710199,-0.006153653,-0.024013914,0.01481346,0.07590502,0.014981084,0.02184788,0.00024764147,-0.0425628,0.01601112,0.07002063,-0.0928636,0.053624228,0.0700939,-0.027056184,0.05422254,0.083948374,-0.029300261,0.054332145,-0.0019775927,0.036610804,0.08911017,0.09615715,-0.006611466,-0.02549116,0.056665763,-0.013559469,-0.0024089422,-0.063954264,0.09078974,-0.006953938,0.088100344,0.06215539,0.023552828,0.030427795,0.034140065,-0.06765296,-0.054021675,0.03862566,-0.014860951,-0.0190818,-0.020256676,0.05093529,0.03230052,-0.042564534,0.05680141,0.0054646,0.028078977,-0.059289742,-0.00091475836,-0.0058270665,0.114620246,0.045746334,0.058251284,0.05886959,0.061605524,0.026254535,0.03083163,-0.05470683,-0.082273856
SEPHS2,0.05805707,-0.037719686,-0.06512113,0.06586746,-0.0706892,-0.08601742,-0.010712596,-0.02017366,-0.006563594,0.033494845,-0.03836897,-0.06908803,0.00897025,-0.06634376,0.046188515,-0.016345212,-0.04685676,0.0014082019,0.019919988,-0.055691015,0.039122142,0.0058526844,-0.09275335,-0.013110913,-0.016572822,0.0507396,0.054378174,-0.0030225485,-0.0214018,0.012568925,-0.0811951,-0.0061264173,-0.041296933,-0.018347528,-0.075321734,0.037071,0.019845694,0.004012042,-0.023611214,-0.0053017144,0.030318301,-0.082459964,-0.08378575,-0.06106785,-0.007105326,0.02538776,-0.058545306,-0.07878085,0.035429616,-0.060641058,-0.035567116,-0.03739546,-0.026647672,0.040244203,-0.012836132,0.01864419,0.03557327,-0.04424077,-0.058576852,0.040593382,-0.021313293,-0.04275518,-0.058746427,-0.035198603,-0.0034483096,-0.0009697841,0.07156355,-0.045842823,0.02131848,0.0037640992,-0.028809218,-0.051763307,-0.05049444,-0.054902636,0.020789312,0.010792736,-0.042845044,0.04437005,-0.07931777,-0.012778419,-0.028893417,0.02066357,-0.07700837,-0.12141828,0.010188164,-0.0029943231,-0.02301365,-0.04102206,0.051241968,-0.08466599,0.02244715,-0.018629178,-0.07961771,-0.003441847,0.042432737,-0.045811497,-0.03742485,0.0570525,0.017509487,-0.016485954
WDR73,-0.025994213,-0.02900264,0.02270508,-0.052344244,-0.04990427,0.001086195,0.08178256,-0.041587118,0.013906952,0.016488548,-0.043312557,0.038575783,-0.012678063,-0.012622643,-0.013880923,0.023263281,-0.016895102,0.03538728,-0.060230844,-0.00665773,0.07167686,0.037212387,-0.061708495,0.010822987,0.0024497788,0.03868551,0.07510335,-0.027946962,0.032652706,0.048656523,-0.048638992,-0.07793651,0.003941517,0.04397258,-0.034308072,-0.07805927,-0.04282004,0.11687629,-0.03765923,-0.043996427,0.03217714,-0.03561913,0.08935669,0.06518987,0.01393471,-0.0066376296,-0.023838922,0.035087958,0.093548976,-0.045766015,0.055203076,0.0003480142,-0.016627654,0.026796246,-0.018188396,0.04551821,0.09189645,0.04648938,0.04586065,-0.020118339,-0.044656496,-0.042574767,-0.012718285,0.021163492,-0.031195471,-0.1081824,-0.024026725,0.044294514,0.019797549,-0.08512523,0.06813589,-0.07495196,0.034957644,-0.021150608,0.058793116,-0.0072671566,-0.047933493,-0.07434842,0.045038432,0.023252005,0.019453824,-0.00852957,-0.06275451,-0.05186912,-0.025196446,-0.005464155,-0.07945539,0.08967839,0.041649666,0.07428232,0.027501876,0.05125776,-0.012981881,-0.0007571581,0.04529049,-0.0060301125,0.002253168,0.024746802,-0.08199643,0.028760767
EFR3A,-0.004891559,-0.01749372,-0.021874093,0.0113326125,-0.12103943,-0.037630603,0.0676573,-0.04987531,-0.0912728,-0.03193303,0.001411067,-0.119392015,0.048964098,-0.14469409,0.06056345,-0.045110296,-0.07031758,-0.006367472,-0.025021736,-0.025478093,-0.036159508,-0.042923305,-0.05613091,0.004909373,0.009778895,-0.07800632,0.059240054,-0.06657584,-0.008860379,0.08651555,-0.091731474,-0.023339357,-0.04703044,-0.063915245,0.04902989,0.038116932,-0.014362678,0.0035295715,-0.047330387,-0.054321792,0.018048525,0.034362096,-0.004065415,-0.09425213,0.009437916,0.041386902,0.08722728,-0.03095734,-0.024201361,0.01826269,-0.08628549,-0.08493072,0.046104215,-0.018275538,0.10894626,-0.13763145,-0.053324208,-0.033330373,0.058384255,0.03683415,-0.033341274,-0.07013893,-0.11428424,-0.10318872,-0.09191341,-0.052968692,0.06709968,-0.08003383,0.025179112,-0.00847936,-0.044879425,-0.09592415,0.016865479,-0.026607469,-0.051385943,0.042862993,-0.02487709,-0.05568991,0.08854208,-0.027881363,-0.13372554,-0.14237453,-0.100986935,-0.12463734,0.031145569,-0.029114865,0.035008587,0.0658999,-0.081519075,-0.1188138,-0.13967058,-0.088435166,-0.0003211429,-0.07955297,-0.024644447,0.044133663,-0.026914258,0.06223197,0.026976276,-0.009035569
MED1,0.14561522,0.02670858,0.04391483,0.018608991,0.046280686,-0.025583502,-0.07845075,0.13744147,0.15957691,-0.022927877,0.019138115,0.031571258,-0.047747932,-0.03883588,-0.020971237,0.025232052,-0.053238276,-0.011676567,0.100102715,-0.07651943,0.023474831,-0.031031683,-0.0016024072,0.008448993,0.06648897,-0.0038794582,0.15622316,-0.058453213,0.05677885,0.026083231,0.009930064,-0.14480601,0.043789815,0.028415652,0.13053592,0.024028542,-0.027952166,-0.045380015,-0.08101263,-0.0794016,-0.03549484,-0.04319282,0.038666233,0.06110397,-0.024237573,0.0491019,0.046447113,0.06324569,-0.048376497,0.016920703,0.05740196,0.0029312086,-0.03202089,-0.010637971,-0.0058724196,0.015657531,0.02078905,0.056574926,0.010564518,0.10207174,-0.05506103,-0.07674173,-0.08318117,0.005195442,0.029718034,-0.027864378,0.08631253,-0.016797135,0.023765719,0.073858835,-0.070753336,0.0166048,0.0392678,-0.1117544,-0.03706207,0.084162965,-0.021773288,0.036426175,0.06531644,-0.05686893,-0.020857837,0.031185156,-0.06695608,0.088004194,0.059108615,0.03369662,-0.036976404,-0.020661572,0.05890275,0.03137614,-0.04453143,0.0014761183,0.016939225,0.035365053,0.10690101,0.1078086,-0.006414154,-0.077472135,0.097386084,0.0013414527
DHODH,-0.020011703,0.023476876,-0.01683344,-0.10631373,0.01133768,-0.09378497,-0.04047373,0.031990387,0.038932156,0.05219659,0.01709843,-0.017117947,-0.08069851,0.0035787993,0.035746917,-0.064819835,-0.060387395,0.054885477,-0.02602275,-0.12972817,0.08093969,-0.056560278,-0.00062118896,-0.018683119,-0.037792675,-0.074482076,0.11033581,-0.09197537,0.018708998,0.010063341,-0.05239811,-0.01451392,0.029407263,-0.026966516,0.0032696803,0.011709542,-0.06490794,-0.056276824,-0.117611416,-0.081503354,0.021626761,0.010943056,-0.08648487,0.057325255,-0.116592854,-0.016693562,0.020589376,-0.063128434,-0.027195377,-0.019755388,0.036832567,-0.08232475,0.0019806495,-0.0743214,-0.034901336,-0.07227757,-0.09890642,0.01934769,-0.052868024,-0.061033845,-0.04224198,-0.06168378,0.022817742,-0.06672422,0.044053383,-0.014750561,0.014620989,-0.018674804,-0.013517122,-0.00045251907,-0.023144145,-0.02067833,-0.027663054,0.001229997,-0.04870434,0.017340392,-0.029435717,0.014755886,0.044510245,-0.021503296,-0.007050333,-0.10400497,-0.09577657,0.019965993,-0.0525458,-0.03096128,0.04987186,0.013345216,-0.01591164,-0.012929844,-0.011324516,-0.044463154,-0.09211326,-0.017869275,-0.011412432,-0.05324844,-0.021173825,-0.011919528,-0.060640704,0.013644494
NHLRC2,0.03759073,-0.029478172,-0.04589566,-0.044606265,0.0062744683,-0.034170598,0.017503558,0.059486564,-0.0517623,-0.027415963,0.0017535771,0.05185227,0.04136226,0.090318955,-0.004657894,-0.058152057,0.04053707,0.060281828,-0.01739234,0.03487964,0.017664662,0.02946489,0.099279396,0.017459335,0.022932336,0.081660606,0.061202478,0.0030472837,-0.03620033,-0.05050326,0.09295022,-0.03649606,-0.05439233,0.04080201,0.031715024,0.00080543983,0.039411608,-0.011297859,0.06797036,0.0501865,-0.055073135,0.01292535,0.04823915,-0.0127829425,-0.037662633,-0.036817178,-0.081859276,-0.018574586,0.033342436,0.018719427,0.03405389,0.14962766,0.012702092,-0.060681023,-0.022769295,-0.0085589355,0.065043986,0.11085703,-0.06499684,-0.025794286,0.05410391,0.035368264,-0.07958661,0.009344711,-0.082259744,-0.020581631,-0.05344217,0.029603703,-0.017533744,0.029700756,-0.0128999185,-0.02851197,0.029222852,0.038062792,0.04227139,-0.03899131,-0.008897128,-0.12181211,0.017372392,-0.023210783,0.047595005,0.002798962,0.022023324,-0.0020975338,0.04318414,0.00338998,-0.042576786,0.041528337,0.04432061,-0.00072201504,0.043224093,0.061946657,-0.025812026,-0.028830795,0.041274123,-0.07526384,0.094260186,0.009169218,-0.042208593,0.05284146
GMNN,-0.05144757,0.047316752,0.04124053,-0.08678412,-0.058198325,0.021778466,0.003342354,0.042663787,-0.00548236,-0.0036700165,0.02969425,0.0043510287,-0.04784214,-0.055245668,-0.0015416824,0.0008854309,-0.027353011,-0.09436551,-0.036264233,-0.0041006273,0.07037728,0.00046787152,-0.052959874,0.0830754,-0.017332539,0.042306203,0.008448224,-0.053663287,-0.022670295,0.012656332,0.03974488,0.162765,0.057740476,-0.06275561,0.013518968,-0.033199772,-2.0290876e-05,-0.03450185,-0.0833269,-0.047434706,0.011489003,-0.00033364096,0.09320764,-0.04297691,-0.028295372,0.0006905631,0.037974514,-0.008709162,0.048502833,-0.004663931,-0.0055972678,0.06959623,-0.070707336,-0.07548033,0.035146408,-0.015159354,-0.08262674,-0.00888328,-0.051541053,0.030016553,0.05800003,-0.0034559313,-0.0033789843,0.019910388,0.07860895,-0.014968876,-0.039134458,-0.030504249,0.015890619,-0.0040597445,0.088536605,-0.07009915,-0.001114464,0.05390006,-0.0003347652,0.010874765,0.0062138713,0.0026377405,0.011631878,0.027338132,-0.051017847,0.057651237,0.019292036,0.014264744,0.048635706,-0.0068860017,0.05415102,-0.039224073,-0.0284129,0.02068099,-0.055009786,0.06514635,-0.011798912,-0.0885982,-0.061951518,-0.0029442157,-0.016075224,0.047218565,-0.037728593,0.02090705
WDR1,0.07920448,0.0882013,-0.0531185,-0.02181346,-0.029701749,0.014804714,0.0012740105,0.07036902,0.07727616,0.043025956,-0.05367768,-0.1788176,0.021598836,0.007923417,0.08696269,0.058760002,-0.0731385,-0.030388225,0.106919564,-0.032016117,0.024536496,0.012374235,-0.07265012,0.13349894,0.06759686,-0.012771154,0.033399116,0.03271986,0.043025322,-0.088847205,-0.06758064,-0.041722324,0.05490299,0.06771388,-0.017441578,0.027787138,-0.058697842,-0.0025458662,-0.059679996,-0.08872502,-0.0020611412,-0.040138654,0.08320954,-0.042043407,-0.04927284,0.022824964,0.05201627,0.010686239,0.00019371488,0.07813763,-0.038392283,0.057788495,0.056244813,0.020444872,-0.013442005,0.009440975,-0.040860858,0.07947791,0.049473796,0.07823724,-0.0115565015,-0.07951848,-0.0115295565,-0.08080731,-0.06472429,0.023286816,0.09333146,0.014142088,-0.0022177969,0.0390417,-0.010304336,-0.016334152,0.053454768,0.049047142,-0.076095544,0.008915933,0.0010870028,-0.03306454,0.0028782915,-0.058684397,-0.02978943,-0.07164234,-0.09898311,0.031456936,0.039319023,0.057765093,0.13131875,-0.057976108,0.03896006,-0.06670877,-0.08375902,-0.05400582,0.002544619,0.073183686,-0.04961892,0.09483368,-0.13132948,0.091948435,0.13302055,0.021504112
FBXW11,0.037753787,-0.045777436,0.050611477,-0.053580347,-0.12124113,0.020746533,0.00029479415,0.055604275,-0.008985942,-0.10243194,-0.022993531,0.03333789,-0.054896113,-0.096075766,-0.08848599,0.050436772,-0.108497575,-0.06388755,0.015646948,0.033091936,-0.022891875,0.04452138,-0.06925226,0.027336484,0.10300305,-0.026389604,0.049166135,-0.0005917783,0.08255783,-0.10740812,-0.03516446,-0.011780908,0.06655851,0.10403776,-0.0058991136,0.019814484,-0.066175714,0.035585094,-0.028124185,-0.009960286,-0.023782797,0.06776492,0.06268613,-0.023689821,0.0142198885,-0.023868537,-0.051223647,0.1550067,0.102942176,-0.01633896,-0.07937038,0.07897101,0.030298177,0.074076824,0.03805217,0.054954976,-0.06136459,0.051159434,-0.0063370042,-0.0006901249,0.0815154,-0.06909408,-0.04025837,-0.01624038,-0.0054426654,-0.026054386,0.03277434,-0.01415429,-0.011309645,-0.056984734,-0.01730217,-0.010045041,0.025843864,0.051538676,-0.03599103,-0.031121522,-0.0033982012,0.06461473,0.05122737,0.05612005,-0.052435335,0.009989114,-0.11781951,-0.026409065,0.012394325,-0.0748883,0.045996435,0.019197794,0.078075565,-0.044397447,-0.09050125,-0.10069664,0.029835336,-0.028127989,-0.06159373,0.030816274,-0.06738115,-0.024140691,0.081515454,0.010547189
CDAN1,-0.040838417,-0.042395625,-0.02833208,0.028550923,0.10046872,0.049702972,0.052932438,0.036638483,-0.025049139,-0.004581541,0.03445261,-0.01899248,0.0341702,-0.015087581,0.02202087,0.063884765,-0.03687395,-0.04800366,0.0146582145,-0.0434244,-0.04332132,0.0030724416,0.024251727,-0.046648294,-0.024275271,0.05477562,0.030070407,0.06152307,-0.09583058,-0.027213963,0.023399897,0.08559142,-0.062235497,0.056780785,0.014243364,-0.025936464,0.01413723,-0.06262462,0.0003392922,0.035985332,-0.038472597,0.09687444,-0.016675083,-0.009642682,-0.055322524,0.06745551,-0.013947758,-0.03570482,-0.028156957,0.020092394,0.00070121075,0.0012350379,0.010410484,0.08203287,-0.0006612491,0.021617899,-0.011508299,0.01748558,0.024975346,-0.018686054,0.011259038,-0.03620851,0.024134194,0.06788993,0.046622235,0.0074036107,-0.07332165,0.0008474198,-0.016932037,0.0008072826,-0.034965344,-0.009519946,-0.02110626,0.034846075,-0.033596035,-0.13440438,-0.009287284,-0.021425467,0.094825335,0.028224824,0.03049209,0.060189337,0.011236842,-0.03815593,0.0274931,0.082512796,0.00818605,0.010402781,-0.03565287,0.02352553,-0.0049926564,0.015954545,-0.06728725,0.07528476,-0.00020166156,0.031751208,0.011265646,0.0052781613,0.02103369,-0.10832898
ARHGEF7,0.04217872,0.123353936,0.010642067,-0.08143348,0.06864842,0.011653088,-0.06880242,-0.023364171,0.09147924,0.06816874,0.07085642,-0.0171387,-0.0319247,0.057101842,0.002625864,0.10438251,0.006666678,-0.10316941,0.12460439,-0.048824828,0.0273355,-0.03367591,0.041931026,0.057467934,0.016422795,0.056354728,-0.118614264,-0.009068294,0.08354403,-0.030079806,-0.09335835,0.06525528,-0.0224616,0.04365395,0.061710626,-0.026546054,0.08039768,-0.019741936,0.007167363,0.041233268,-0.08407539,0.004500402,-0.02048229,-0.008962003,-0.015122901,-0.0316911,-0.11180196,0.023172414,0.005076514,-0.06776267,-0.06858679,0.0682466,-0.0938145,0.013745543,-0.09225683,-0.092879094,0.06107203,0.001528245,0.030148836,0.1608405,0.03318584,-0.0053436724,0.04948402,0.060399894,-0.10162546,0.017380813,0.07787718,-0.040337943,0.06312445,0.045894153,0.01703947,-0.0039135665,0.0618877,0.009669285,0.009366837,-0.034781333,0.012461293,0.1262548,0.01431996,-0.0023827192,0.036110055,0.10988476,0.060236063,-0.027464323,0.0033086943,0.10860639,-0.102433525,-0.06974184,-0.04282139,0.064267166,0.021342466,-0.050265744,0.019322114,-0.03660455,0.045899786,0.08989402,0.024793316,-0.031855002,0.09319884,-0.015840901
MTHFD1,0.021310285,0.024838982,0.019994235,0.02783692,-0.0011488359,-0.08089685,0.05251456,0.020986075,0.051657714,-0.057987887,-0.009101719,-0.062254436,0.06775985,-0.08083755,0.09693014,0.083261885,-0.085300155,-0.035801664,-0.08129636,-0.037741486,0.008870925,-0.14185384,-0.077726,-0.018984308,0.016670842,-0.045058724,0.0028177276,-0.09532395,0.046314318,-0.0057181884,0.010296153,0.036544435,0.015279335,0.07478773,0.03422721,0.04923443,-0.078393646,0.058893774,-0.030670153,-0.009872159,-0.0073429574,-0.08261365,0.054508198,0.034897964,-0.0079785455,0.01874939,0.097501434,0.039157815,0.01367313,-0.015497247,-0.0046948423,0.053050812,-0.046649087,-0.025336765,0.0679302,-0.036031168,-0.07942857,-0.07181419,0.023789778,-0.0698368,-0.005612054,-0.016705526,-0.045770556,-0.048633765,-0.03906188,0.047394376,-0.056607425,0.005074978,-0.032104697,-0.080067076,0.019443324,-0.012791521,-0.0005394586,-0.04135927,0.013352938,-0.0017547975,-0.043031655,0.019222345,0.0081704175,0.02372899,-0.003526401,-0.016396217,0.01996016,0.04948034,0.014974153,0.05346749,-0.045844976,0.10157721,-0.059374224,-0.054279026,-0.03227391,-0.04780662,-0.056777246,-0.030189972,-0.099390656,0.013022451,-0.07877778,0.057418823,-0.07908013,0.017109798
VRK1,0.06887123,0.03217932,-0.040143937,0.026411766,0.07193965,0.08121942,-0.054240696,0.1031498,-0.08235068,0.027850768,0.10405734,0.10106081,-0.011163297,0.15835361,-0.036631472,0.047422525,0.09370339,-0.009679968,0.0113103185,0.118188865,-0.0009908152,0.024664972,0.09889533,0.039314963,-0.06896718,0.06845408,-0.022365963,0.10270601,0.04867711,-0.055136442,0.128396,0.01520421,0.001231636,0.075387836,0.13206163,0.014806936,-0.012374372,-0.009729256,0.030771978,0.044723246,-0.06613017,-0.012625095,0.01562271,0.044647202,-0.032945637,-0.00083074335,-0.06724272,0.048241295,0.058070328,0.035459213,0.12430301,0.023998618,-0.03639391,0.047055855,-0.047495734,-0.06535338,0.058327165,0.11072615,0.014659996,0.015376126,0.09191021,0.105152465,0.06620071,0.08422286,-0.0699704,0.10088449,0.04606261,-0.07918137,-0.061773274,0.041686505,-0.050578438,-0.04674792,0.10561818,0.050055087,0.075991504,-0.052190706,-0.07106005,-0.01728951,0.031567324,-0.060292054,0.13992067,0.08387137,0.07414304,0.04277575,-0.03153347,0.03291968,-0.0020686164,0.036870725,-0.08453854,0.08701687,0.036886208,0.097237505,-0.07856508,0.079790704,0.09434178,0.063512996,0.09560669,0.024927502,0.035489656,0.034174014
PSTK,-0.01502811,-0.11113649,0.037264403,-0.01679442,0.09509844,0.02500672,0.1306894,-0.029748065,-0.08099302,-0.053081535,0.032188345,-0.032892924,-0.020381708,0.015287044,-0.013505343,-0.048397593,-0.018169638,0.051015887,-0.08597206,0.03004176,-0.030626304,-0.0458864,-0.032929257,-0.005499649,-0.083633915,-0.01465878,0.026644621,0.08792685,-0.021260494,0.04059073,0.043436386,-0.0023081219,-0.016952436,0.017859941,-0.022368986,-0.012412969,-0.017792676,-0.0019473304,0.056755442,0.027418483,-0.010919586,-0.024266079,-0.030297814,0.006345678,0.074147575,-0.025977025,0.05092436,-0.012235413,-0.04867892,-0.08214227,-0.03620092,0.039906275,-0.013768792,-0.021722293,-0.013691643,0.08665312,0.018064648,-0.031411033,-0.021879576,-0.08217811,-0.008460328,0.0148937395,0.04651024,0.027239814,0.0018725897,-0.036517423,-0.10381393,0.0480696,-0.07499784,-0.008208453,0.046703704,-0.10789188,-0.07449178,-0.043022834,0.0019809229,0.06090953,-0.049980782,-0.0040457267,0.049020376,0.040073868,0.005150051,0.038969878,0.03992835,0.018001897,-0.0899788,-0.032310195,-0.021582007,0.066152096,0.03867611,0.016142875,-0.0072121667,-0.0070802444,-0.05140178,-0.06065019,0.0088903,-0.021159312,0.040891685,0.05913176,-0.122946836,0.06904623
PAICS,-0.06283027,-0.05177788,-0.04310889,-0.021637661,-0.037849,-0.06041837,-0.015467223,0.015612579,0.063742906,0.009615429,-0.06133158,-0.03878127,0.07087767,-0.025041917,-0.003953137,-0.032530196,0.04795097,0.010931498,0.010629031,0.039474186,0.003044223,-0.0108623635,-0.05559644,0.08911866,-0.018299067,0.030395238,-0.043066267,-0.06569576,-0.04220645,0.07152187,-0.0011909041,0.027659843,-0.04501675,0.007364599,-0.043173827,0.0028436237,-0.0035581137,0.12819219,0.047881868,-0.0020528238,0.016055496,-0.07640027,0.060714822,0.04652022,-0.024129165,-0.04580065,0.080967456,-0.016299723,0.00253937,-0.049700998,0.015073655,0.0412923,0.046774793,-0.07432333,0.030243311,0.013702308,0.00825989,0.04079848,0.004189701,-0.09125132,0.057061948,-0.011472138,0.019192815,-0.053518392,0.037513122,0.019335749,0.025879078,0.010523371,0.0594167,0.06637553,0.06420031,-0.087030016,-0.055759985,0.033829756,-0.014431323,0.05079424,0.031172805,0.03139496,-0.09185072,-0.06559541,-0.022618968,-0.08180757,-0.06449377,-0.0014507928,-0.03801782,0.06914125,0.11214989,0.038953204,0.056357756,-0.037987422,0.061418988,-0.0031353722,0.016872283,0.035684217,-0.05943643,-0.07325008,-0.00057673606,-0.044245575,-0.09413826,-0.084617645
TADA1,0.005528758,0.035507962,0.011428727,-0.13296223,-0.03778826,-0.07379816,-0.038818795,0.011316873,0.019699223,-0.055370465,-0.005451675,0.022705035,0.045581866,0.0012888872,-0.08710223,0.046975367,-0.055134375,-0.11348037,-0.05784053,0.015452947,0.00049377815,-0.061161727,0.042584065,0.03285106,-0.1145563,-0.06502422,-0.06571459,-0.051443275,-0.052964494,0.0026592636,-0.050358716,0.03930645,-0.054207373,-0.05258127,0.024135144,-0.00091451354,-0.026088988,-0.041363135,0.019257806,-0.07632315,-0.07293014,-0.04621354,0.0004403154,0.01158874,-0.109762736,-0.025988583,-0.10198284,0.013178923,-0.028887719,0.0001005749,0.017901657,0.02806661,-0.10028986,-0.08585261,-0.103504516,-0.06294348,-0.003267626,-0.013325512,0.039779212,-0.02262553,-0.0021207149,0.025016556,0.026386963,0.02560495,0.08933258,-0.007009692,-0.04929424,-0.084460676,-0.040343195,0.026959173,-0.058908753,-0.04238196,0.033879343,-0.033697244,-0.06364796,-0.05583429,-0.007377005,0.059097387,0.0045309276,-0.006187346,-0.08004924,0.049948975,0.025971582,0.073566645,-0.08393374,0.06058816,0.041008156,-0.024595693,0.042819194,0.010941596,-0.002349638,-0.026692938,0.0099551,0.052318707,-0.012957613,0.037225503,-0.015525337,0.114000924,0.0047959797,0.05044589
SEPSECS,-0.024873208,-0.059347577,-0.08837955,-0.05284328,-0.02110022,-0.12088246,0.034494426,-0.004973597,-0.08078564,0.023844527,-0.05171529,-0.06741616,-0.026491247,-0.020389143,-0.0021649015,0.03007811,-0.0041125393,-0.042693123,-0.04277098,-0.08882877,-0.04588257,0.0056853564,-0.044296652,-0.08166558,-0.028796446,-0.038468968,0.016634258,-0.03387856,-0.08580259,-0.08641739,-0.04043465,-0.09298403,-0.029730672,-0.09516191,0.004230967,-0.08157649,0.007840829,0.01695029,-0.10316516,-0.06750761,0.06794081,-0.094764605,-0.014688862,-0.08582643,0.017065672,0.039417118,0.09022221,0.013159056,0.025082693,-0.108440176,-0.07628884,-0.06096175,0.073124275,-0.025136419,0.040267125,0.08427223,-0.013881776,-0.00019943445,-0.007977258,-0.07796088,-0.0562936,0.004617376,-0.02225265,-0.048725393,0.028459085,-0.0023296012,0.007431092,-0.018152116,-0.036358256,-0.026212506,-0.055551156,0.05651934,0.023107398,0.013746176,-0.060105547,0.06448218,-0.0048086927,-0.046717223,0.055892203,-0.09863808,0.025447756,-0.037961632,-0.0763014,0.07498644,0.04210574,0.0114956945,0.03945473,-0.014683536,0.006987702,-0.032613195,-0.01988636,-0.032605503,-0.03067577,-0.068026476,-0.07689302,-0.019649558,0.008493891,0.086891636,-0.012674232,0.037841257
TOE1,-0.06424464,0.06801525,0.03334258,-0.0123121105,0.0173414,0.028408578,0.12157693,-0.00077506935,-0.08276011,-0.04352441,0.007940637,0.049395125,0.03894107,0.03140378,-0.05767015,-0.047337815,0.016677976,0.0020390167,0.02700712,0.035491522,0.032936804,-0.023620129,0.047100537,-0.061469294,-0.009393657,0.032875184,-0.0758049,0.09489724,0.06705692,0.024105826,-0.03702194,0.06804145,0.05194995,0.025213944,-0.004293383,-0.0069716075,-0.017047133,0.0056748083,0.069087006,-0.013883317,-0.064743556,-0.049807943,-0.13442715,0.10471611,0.1285285,-0.050427597,0.057480764,-0.031831197,-0.09638484,-0.02667446,0.10801278,-0.029360166,0.062065177,-0.007961997,-0.025610438,-0.08004651,0.04001157,0.010314507,0.05781382,0.017460117,-0.048536073,-0.006191177,0.07396913,0.02926644,0.027578654,0.019913333,0.037836295,0.0035376581,-0.04148831,0.111395575,-0.0529975,0.004688715,-0.038317807,0.07650744,-0.016723752,0.024106711,0.010819697,0.04544483,-0.00079917966,0.06595477,0.053856608,-0.010599641,-0.019687371,0.039982315,-0.040561143,0.060104184,0.033218324,0.13207048,-0.06552011,0.05051508,-0.014189064,0.060912598,-0.003623244,-0.0029123665,0.02948488,0.012500217,-0.009348501,0.041647214,0.018037727,-0.01620285
ADAR,0.09551107,0.04758776,-0.035244055,0.020884035,-0.03990532,-0.05872186,0.04068,-0.0010282793,0.084965184,-0.00389708,0.02239403,-0.0052558254,0.050202582,0.05735751,-0.07105725,0.019137636,0.035953484,-0.016948061,0.03307546,0.07111763,-0.05384417,-0.014089634,0.018945113,0.07165103,0.06614855,0.03595225,-0.010980913,0.1196297,0.09384256,-0.007659975,0.018232217,-0.026289126,0.0022369423,0.031429216,-0.05202959,-0.089798264,-0.010372217,-0.0057573207,-0.07712935,-0.00932006,0.03860024,0.13482389,0.03158402,-0.020793835,0.012305805,0.06070126,0.098373786,-0.049016643,0.006581265,0.07332371,0.030954624,-0.006595734,0.085109636,-0.014815587,0.16225593,0.05382103,0.029178217,0.03747152,0.0920844,0.082429074,0.068660796,0.049918797,0.021244472,0.06393737,-0.0701439,-0.052244578,0.06471645,-0.01039282,0.058035936,-0.033141688,0.0415166,-0.0134314075,-0.005667692,0.056202307,-0.010818658,0.09139104,0.022072012,0.04693129,0.01653986,0.042206872,0.02270219,0.0037898158,0.025618702,-0.08228883,0.0057570767,0.06660922,-0.062328555,0.060054738,0.08811633,0.022244852,-0.026641024,0.014951098,0.045301862,0.02914831,-0.043042842,0.03862421,0.029534992,0.007464729,0.10394578,0.045556508
C16orf72,-0.054602847,-0.07332524,0.00665006,-0.005183829,-0.030452525,-0.028994447,0.07029309,0.011292042,0.059449255,0.08100865,0.021102704,0.008786248,-0.054598924,0.035171814,-0.08213662,-0.028145649,-0.027919503,0.12707604,0.014398065,-0.012417441,-0.022088718,0.065282226,0.009829566,0.05256766,-0.03205972,-0.0305917,-0.050654035,-0.073570065,-0.068875,-0.01756112,0.011578526,-0.05291568,-0.008405222,-0.09162828,-0.03527297,-0.009948502,-0.012281503,0.0857761,0.035537463,-0.018542288,-0.060257155,-0.0072465166,0.032182395,0.042003803,0.027734466,-0.11429279,0.016324129,0.06969634,-0.03540895,0.04395195,-0.021076301,-0.01660813,-0.051175483,0.025761094,-0.07649572,0.079866655,0.06632505,-0.0463068,0.0039056889,0.054586116,0.013408577,-0.01722315,0.018659202,-0.042047024,-0.12159951,-0.069831274,0.00800401,0.065446444,-0.023587735,-0.101115964,0.08076109,-0.007995854,0.039501388,-0.009012478,0.039157417,0.06712329,0.0077593545,-0.035551127,0.046058286,-0.06850992,-0.040794384,0.022616766,0.03142031,0.08829866,0.023909396,-0.090468355,0.10112348,-0.03616287,0.00535161,-0.087089315,0.026292156,0.045733694,-0.027709486,-0.024667881,0.054786097,0.0027638061,0.02803315,-0.017767996,0.023606753,0.08325118
SLC2A1,0.032234065,-0.06919125,0.038881034,0.081930675,0.08663766,0.06692844,0.024465181,-0.008337453,0.03602639,0.026920494,0.035833433,0.07696859,-0.034556367,-0.013538579,-0.015745843,-0.06652523,0.045364365,0.062483966,-0.023491595,0.05782368,0.029888013,0.086122036,0.013834657,0.08213715,0.066824816,-0.0005157295,-0.05678818,0.06858662,-0.050410904,0.019587182,-0.031637926,0.0075861216,-0.008553549,-0.06975018,-0.036029235,-0.022527494,0.06912945,-0.013431614,0.07736441,0.00050465326,0.11909635,0.021601576,0.08448865,0.08883056,0.038740527,0.03702098,0.08153238,-0.035129257,-0.08153614,-0.008925779,0.06908607,-0.01959038,0.0806614,0.00847854,0.06112739,-0.07914342,-0.036298808,0.03967691,-0.043782562,-0.030870942,0.048566174,0.06247759,-0.048990954,-0.024683433,0.05845818,-0.0146160135,-0.050082818,-0.03735913,-0.06966942,0.04384564,0.024712153,0.1332778,-0.09172686,-0.041137926,-0.028230978,0.09920516,-0.030768907,0.022609824,-0.061784863,-0.068234965,-0.042418253,-0.017628398,0.05131131,0.05631338,0.018691014,0.054253895,0.016064873,0.03677332,-0.06007461,0.06994525,-0.027477928,-0.028808841,-0.04341787,0.01484891,-0.0013091202,-0.026188368,0.07659397,0.003569111,-0.0036131358,-0.056826
ADSL,0.11675215,0.13437675,-0.009760137,0.05222008,0.003985356,-0.011065903,0.06384042,0.12844886,0.11708459,-0.1342066,-0.016156573,-0.030825585,0.062877886,0.059462685,-0.01694652,0.06718645,-0.010189052,0.07453176,0.012681397,-0.013902242,-0.056041993,-0.011397889,0.03428813,0.044766117,0.043502178,0.020888949,0.09890723,0.09906773,0.071366176,-0.04073254,0.053694315,-0.015102808,0.074346386,0.06531453,0.07427996,-0.010648524,0.0042341263,0.054715484,-0.0037269571,0.066154525,-0.017618828,0.09975275,-0.09412194,0.10260337,0.016332828,0.038072497,-0.04706957,0.005842826,-0.026951456,0.06398901,0.00020858567,-0.010477513,0.04008912,0.122090936,0.050838895,-0.02154649,0.05031839,0.107635155,0.038008414,0.014764408,-0.05668515,0.0010055196,0.043282103,0.0014912704,0.03692469,0.08436816,0.084869966,0.03465322,-0.016778633,0.07120119,-0.035837583,-0.03841337,0.1423746,-0.04199848,0.07590916,-0.025194872,-0.0069700414,0.081202134,0.037034582,-0.020845298,0.055972975,0.061113164,0.09132614,0.050455276,0.13212684,0.07971711,-0.012383647,0.099922135,0.03400392,-0.006300785,0.02332273,0.027148208,-0.00653685,0.03050699,0.005802348,0.119280905,-0.007000822,-0.076734215,0.13454877,-0.014186746
CAB39,-0.08863823,0.019714672,-0.01577047,0.016598975,-0.024515316,-0.09373578,0.0042285374,0.057619452,0.0091806445,-0.041059792,0.059486214,0.008122216,-0.005605968,-0.029631408,0.033132866,-0.029700799,-0.09442248,-0.012406398,-0.040861115,0.038418204,0.10374403,-0.01250447,-0.10345358,-0.035079148,0.03763366,0.05029161,0.054873846,0.042940766,0.023993907,0.033161856,-0.03223499,-0.0829601,-0.014640752,-0.018245392,-0.027329603,0.07032386,0.013289542,-0.002346259,-0.019783523,0.011087711,-0.011196583,0.03350182,0.017991876,0.025799593,0.034350928,-0.028055817,0.04789311,-0.024114396,0.052209117,-0.030994711,-0.10054973,-0.018680844,-0.030196061,-0.07946515,0.021328457,0.066256605,-0.04202167,0.0036005047,-0.0038295225,0.005119351,0.01987416,-0.03578643,0.044745147,0.021735625,-0.0080978405,-0.040451493,0.073099084,0.058042645,-0.044870418,0.080876045,0.055185623,0.043036364,0.060020328,0.055840377,-0.054134335,0.0023113156,-0.014716075,-0.11122271,0.012827219,-0.055081114,-0.030957898,0.033691786,-0.08787533,-0.047250748,0.023928074,-0.09412001,0.07533341,-0.0031806822,-0.14215325,0.028033732,0.049959175,-0.011444235,-0.03345912,0.05544054,0.0017727172,-0.03050143,-0.06514593,0.11297703,0.04185958,-0.016153691
KLF5,0.04819659,-0.037708133,-0.13429311,-0.052564412,0.06277186,0.05468462,-0.09322178,0.04044736,-0.09540705,0.0052988078,0.014328523,-0.027924616,-0.055399172,0.06746347,-0.07067895,0.052257225,0.04713451,0.0559918,0.032623626,-0.037929963,-0.10361857,0.11044644,0.017563175,-0.0852365,-0.0051282085,0.07548327,0.0012047418,0.018125385,-0.12552118,-0.014195948,0.06489087,0.0959102,0.030283457,-0.025369167,0.0019838347,-0.087149106,0.06633546,0.028885424,0.037975144,0.10597532,0.045593057,0.012102819,-0.12533155,0.032034002,-0.0026659835,-0.02009026,-0.04599821,-0.05934302,-0.07481693,0.07684407,0.014967734,-0.11198567,-0.06345483,-0.036706485,-0.049270835,0.040460683,0.06198337,0.06867234,0.042513154,-0.052421793,-0.16672395,0.028918363,0.01988013,0.09658039,-0.019212412,0.117252186,0.088015616,-0.066296265,-0.016869195,-0.05630614,-0.033533074,0.02190843,0.009400544,-0.051902346,-0.036856763,-0.04874583,-0.027352275,0.076463744,-0.0054791863,-0.06546765,0.07673333,0.09160254,0.123967096,-0.010909548,0.036714062,0.011445147,0.033994257,-0.03167543,0.004935511,0.12697841,0.02878647,0.0019790272,-0.051333714,0.05379505,0.11469302,-0.0031213937,0.03103574,0.040829804,-0.03808671,-0.06938539
SNAP23,0.022223523,0.08137098,0.01572607,0.07924774,-0.07243973,-0.06290913,-0.00013931806,-0.02187682,0.07425814,-0.017944878,-0.0669735,-0.016018145,-0.022275968,-0.09031257,0.060719788,0.003618678,0.04875552,-0.07457421,0.07253206,-0.0071208226,0.036575258,0.024431748,-0.03226569,0.06980159,-0.039432306,-0.025574947,-0.10503888,-0.034914497,0.021250062,0.047677025,-0.08139913,0.07325782,-0.09067777,0.042578142,0.046962176,-0.11006792,-0.042749126,0.01807439,-0.09128305,-0.06523522,-0.07264462,0.056507405,-0.008669186,-0.028449962,-0.12995046,0.060406167,-0.04778774,0.09047283,-0.06455864,0.0067006447,0.08081916,-0.060941745,0.016146554,-0.11636733,-0.07549777,0.06722454,-0.073182315,-0.050914545,-0.059843678,0.03875114,-0.013898343,-0.03729358,0.07147269,0.026636638,-0.07816952,0.048924014,0.0573773,-0.008336315,0.008538763,-0.04882667,0.09931216,-0.0780487,-0.05602736,-0.008886414,0.0050970525,-0.086923465,0.03800303,-0.022489151,-0.05743837,-0.056707896,-0.0660313,-0.008289508,-0.067870826,-0.08677125,0.08736601,-0.072144054,-0.05208602,-0.008246491,0.004263305,-0.054944687,0.05778281,-0.06602836,0.03971919,-0.027049769,-0.06634687,0.028418776,0.020087315,0.043255564,0.023203628,-0.029166007
UBIAD1,0.0060045184,0.05087927,-0.010552586,-0.068863966,-0.005813335,-0.0518205,-0.015122012,-0.027674295,-0.051539976,-0.009513902,-0.013063363,0.041030526,-0.009104008,0.05914187,0.061446194,-0.05279053,0.0747195,-0.012868903,0.021689584,-0.05787682,0.083074674,0.09128622,0.037921663,-0.079878405,0.022194987,-0.008759301,-0.007954178,0.063688345,0.02508248,-0.0065159528,0.05141128,0.105642036,-0.006734655,0.0301793,-0.056939512,-0.012220086,0.08645504,-0.01986454,0.085490115,0.04303314,0.058786068,-0.03397492,-0.0421754,0.009249111,-0.015065513,-0.0052707726,-0.16327156,-0.08134777,0.0136689525,-0.023715189,0.08319581,0.0113095455,-0.026285354,-0.049711596,0.024333423,-0.07770772,0.00043936537,0.013886086,0.06176999,0.06286139,0.0055911266,0.086156495,0.007909858,0.035079993,0.09864158,0.08202638,0.08625196,0.0831094,0.06636314,0.03576673,0.001845771,0.046914935,0.022800194,0.02120303,-0.04099516,0.025028521,-0.03751333,-0.011173422,0.029468978,0.041134827,0.018673109,0.07219062,0.044061817,-0.017054804,0.0050072316,-0.016810635,0.039837327,-0.10511594,-0.024233142,0.039307408,0.040803976,-0.020252263,0.010040847,0.10702471,0.051152464,0.1300719,0.008116808,0.03065757,0.027143642,-0.06944649
EEFSEC,-0.09881721,-0.1097117,-0.019693037,-0.021401104,-0.07670332,-0.02594003,0.0010050716,-0.093429685,-0.06978201,-0.04871766,-0.13629611,-0.032181926,-0.023350354,-0.054304615,0.081863664,0.010299395,0.019188387,0.034185715,-0.046147622,-0.05331715,0.0050784396,-0.05878463,-0.039696235,-0.0030012305,-0.08550213,0.031371545,0.01392668,-0.049838442,-0.006311945,0.0605812,0.030154586,0.036998183,-0.0036135432,-0.0006511008,-0.051741008,0.035737954,-0.08937936,0.03187475,-0.05797735,0.016399987,0.07481226,-0.12478468,-0.036506783,-0.09145465,-0.033997383,0.012413525,0.020092515,-0.08878642,-0.10415217,-0.02531209,0.019573577,-0.09748128,0.01897883,0.016525684,0.06644102,0.03546846,-0.06655667,-0.047317497,-0.09507217,0.019778764,-0.05328705,-0.029780395,0.076338544,-0.054858837,0.024025757,-0.026449881,-0.09320697,0.008952315,-0.021432972,-0.09648479,-0.0019041138,-0.018372823,-0.018424934,-0.03677138,-0.07170758,0.05799428,0.0012266414,-0.08938685,0.0091021415,0.01632369,-0.055671882,-0.08159711,0.0007359956,-0.13102613,-0.033541113,-0.024410002,-0.06100765,0.052235205,-0.009721616,-0.027493572,-0.108125575,-0.051077925,0.011646851,-0.06711932,-0.045794945,-0.05673889,-0.013015722,0.016629204,-0.042835433,-0.080244884
MDM2,-0.10291476,-0.07940646,-0.07495381,0.014998059,0.0070102187,0.042267147,0.033450328,0.012132764,-0.09816062,0.018239085,-0.060705572,0.021522995,-0.036798548,0.015651561,-0.11535854,-0.066986695,-0.010256241,0.012338379,-0.021018839,0.015158145,0.057406466,-0.027310297,-0.022022251,0.020620447,-0.031028371,0.03873109,-0.04728957,0.013696951,-0.040256295,-0.115415365,0.060768705,-0.008749965,0.052866347,0.0038300897,-0.07191501,0.04719884,0.04199681,0.009052606,-0.057917245,-0.09258091,0.031299956,-0.015257962,-0.03937461,-0.036735624,-0.051937062,0.012704584,-0.0063877585,-0.027337274,-0.053280354,-0.010928658,-0.003669418,0.03168561,-0.052351747,0.031521264,0.11330398,-0.0024500822,0.004739851,-0.07921113,-0.025188586,-0.09696844,-0.113305844,0.023702402,-0.01916865,0.026986156,-0.018636722,0.024960432,-0.04024223,-0.039236236,0.014635505,-0.06299201,-0.15311973,-0.039872665,-0.0871019,0.039784484,-0.0060832007,0.09847572,-0.04550746,-0.09797175,-0.0545976,-0.0061327713,0.06077796,0.009851915,-0.012587851,0.046463117,-0.09483041,-0.009837012,0.048390336,0.027003082,-0.017449467,0.05340263,-0.003374175,0.030297332,0.028177377,-0.025327044,-0.014447743,-0.039755385,-0.062192764,-0.08703766,0.021250283,-0.060078975
RPIA,-0.005173312,0.047153413,-0.0991752,0.036211092,0.021576257,0.059690956,-0.03980923,0.030384343,0.034176264,0.043221533,0.09055671,0.036260683,-0.053136926,-0.02374704,0.0028982048,0.044602443,0.06501972,-0.00031040137,0.04286792,0.037106875,-0.08583278,0.02239428,0.023623684,-0.11586707,-0.113696724,0.016287757,-0.01431148,0.018987618,-0.029911602,0.027569918,-0.0023028327,0.08783887,-0.016103355,0.017867684,0.10734616,0.080335066,0.04046232,0.037261974,-0.01436821,0.08874497,0.022887597,-0.005076788,-0.06744249,-0.019033924,-0.08807345,0.03034285,0.034921363,-0.09065521,0.032638982,0.009199595,0.053238172,0.035762843,0.01807175,-0.043071125,-0.0016328053,-0.041737266,0.07968329,-0.052488133,-0.016430655,-0.021152483,-0.07825221,0.04936883,0.026241831,-0.04396322,0.032476217,0.12053268,0.01160617,-0.122110404,-0.053598505,0.00540259,-0.068801,-0.052266512,-0.027758995,0.028016496,0.1621262,-0.059011232,-0.07164383,0.06755254,-0.037154242,-0.03490719,0.03247883,0.03984088,0.050086517,0.0515259,-0.05304483,-0.07200686,-0.02196804,-0.05534254,-0.06136943,0.0060591158,0.088180035,0.0672269,-0.05205897,-0.078660965,0.014945723,-0.02539706,0.0029261387,-0.051558997,0.06119091,-0.07673022
NAMPT,0.102979064,0.025038218,-0.008794787,0.005572606,-0.016851712,-0.002459923,0.096554264,0.09848108,0.06287886,-0.1329476,-0.06733268,-0.0527849,0.059293218,-0.0226211,-0.052440654,-0.052990712,0.0035299405,-0.006454487,0.077830195,-0.019184303,-0.020447785,0.055456884,0.019921258,0.021645442,0.07084792,-0.0690648,-0.053553946,-0.019882023,-0.015097936,-0.015366348,0.029956635,0.020203078,-0.075782135,0.0077430545,0.012201246,-0.023658613,-0.01372377,0.10690172,-0.002446461,-0.033276662,0.01953975,0.03457925,-0.0050576874,-0.053028457,0.09546219,0.0061130207,0.024888927,-0.03989535,-0.068763144,0.059483167,0.04122762,-0.076251574,0.057837635,0.049952526,0.10731409,-0.029081192,-0.029584952,0.094905086,0.035234995,-0.0852104,-0.013305337,0.02184278,-0.08374212,0.018681914,-0.021904515,-0.09891981,0.07202787,0.06276661,-0.009314804,0.03168157,-0.10161848,0.09913216,0.014476834,-0.03445991,-0.023048013,0.039328463,0.007996848,0.08036191,0.046562623,0.06721096,0.03465107,-0.09251529,-0.116125025,0.049546048,0.014879831,0.06755743,0.028400062,0.09657018,0.012978812,-0.0914437,0.021283666,0.029884292,0.032098264,0.025815185,0.11598877,0.038196977,0.02770765,0.056394834,-0.015187253,-0.072960764
PSMG1,-0.038184512,0.037103232,0.021617007,0.020822681,0.05124047,-0.03004927,-0.0030408716,-0.032835163,0.0052337013,0.053185772,-0.022409314,0.08170576,-0.07242727,0.072676,-0.054539412,-0.024777165,0.07156252,-0.035332963,0.049247883,-0.048426133,0.04316341,0.056904916,0.044347934,-0.02512735,0.017008347,0.007705915,-0.022469053,0.022806505,-0.044867933,0.03942326,0.047772035,0.056477517,-0.116291665,0.026204165,-0.03555052,0.021936355,0.0089827,0.071916044,0.030447349,0.057752434,-0.0057566,-0.03251843,0.022421792,0.03571264,-0.001524602,-0.022024814,0.05070192,0.025001675,-0.12947835,-0.065776855,0.013853018,-0.034509264,-0.002810343,0.006599329,0.026969746,0.037754476,-0.052267324,-0.027409552,-0.061437655,-0.0085048145,0.026228528,0.008921911,-0.014175613,0.033880483,0.027277222,-0.032561716,-0.022258997,-0.03813976,-0.047207832,-0.07392249,-0.027347296,0.07765561,-0.0055790436,-0.07349594,0.0014691022,-0.028996127,-0.12558585,0.007072905,0.009685419,-0.0058101555,0.0353175,-0.0018285187,0.07532709,0.0052860063,-0.0398761,0.020595757,-0.083858386,0.013042826,-0.024553658,-0.057048105,0.01293338,0.08226432,0.0046719783,0.033454947,0.019006876,0.066579714,-0.002786361,0.009989149,0.02505786,0.10556293
KCTD10,-0.018305248,0.069781125,0.023233965,-0.04909862,0.0953292,-0.024523092,0.010982329,0.06916103,0.11885421,-0.0055902572,0.01696451,0.01944778,-0.0021421716,0.005052309,0.022690663,0.020769455,0.09362478,0.03487146,0.027648997,0.08194169,0.039255567,0.07366411,-0.013962907,0.098352596,0.011685766,-0.0022106841,0.052273635,0.01023014,0.032927543,-0.03860679,0.0259071,-0.054874063,0.028991535,0.13648182,0.047374967,-0.051857825,0.024226164,0.01588802,0.11797246,0.01527685,0.00093712105,0.050249588,0.031091144,0.09429177,0.05118792,0.041959148,-0.11794727,0.005834191,-0.09863202,0.09802209,-0.018097097,0.049624864,0.056790117,0.11206978,-0.08819312,-0.068022944,0.0041827653,0.04100667,0.0849825,0.006710656,0.02587559,-0.03241043,-0.010981861,0.055284027,0.08945931,0.03809217,-0.05076557,-0.04574073,0.032969564,0.0025730096,0.0068133823,0.048807047,0.046225876,0.026323326,0.0006615281,0.109770246,0.03236613,-0.022127373,0.017944284,-0.006460116,0.08422091,-0.02516243,0.039006874,0.0023552836,0.032323252,0.057185054,0.0017518542,0.026446031,0.07830386,0.019158358,-0.011059368,0.052803315,0.090491496,0.012637428,0.051455356,0.031460505,0.08489461,0.023887632,0.03202857,0.032702252
NXT1,0.03979923,0.0013607434,-0.058970924,0.018440722,0.046449967,0.067075044,0.09069964,0.0415025,-0.0398174,-0.00990548,0.14389525,0.019427743,0.0012893468,0.045281816,-0.00995373,0.020596286,0.061491776,-0.027937975,0.056238532,-0.05231252,-0.058435522,0.009261651,0.07350996,-0.06281918,-0.012322779,0.15706955,-0.06098597,0.089964755,-0.044309165,0.06691017,0.07767604,-0.037596174,-0.014457414,-0.015401041,-0.034072626,0.12941782,0.093262985,-0.008123184,0.12826416,0.052388247,-0.0509125,-0.010933854,-0.036709987,-0.0023732043,-0.039660364,-0.06306633,-0.060139753,0.03375959,0.04408057,-0.011994503,0.08336286,-0.08452624,-0.04968735,-0.03857413,0.05493111,-0.053757176,0.09020956,0.044241916,0.058817856,-0.011424137,-0.074279055,0.13627283,0.003670356,0.09867948,0.029239533,0.043447256,0.0067919753,0.024892721,-0.015970679,-0.011761266,0.05390159,0.032607473,0.033965558,-0.11583091,0.03550692,-0.016389363,-0.09620552,0.061293468,-0.032822106,-0.019448008,0.14533688,0.13317855,0.11964645,-0.0018716085,0.028159957,0.06619118,-0.06622019,0.025215555,-0.059116572,0.07218997,0.057055358,0.11040216,0.05275793,-0.03294453,0.0052366997,-0.01451704,0.058619212,-0.046254054,-0.01994982,-0.004734491
UQCRC1,-0.023122584,-0.0138104865,-0.08240966,0.036390368,-0.010254271,-0.021719456,0.085691124,0.0679126,0.07345235,0.006147746,-0.01046542,-0.008425257,0.056139134,-0.018489573,0.046791058,-0.014459246,-0.009487921,-0.015606883,0.0565463,0.06240179,0.045326296,0.073523,0.06663609,-0.038280465,0.017940521,-0.0436374,0.042980623,-0.011791032,-0.08480324,-0.027523082,-0.019581422,-0.04208254,-0.04318723,0.021670176,-0.038306206,-0.042117685,0.047674667,0.06540294,0.04924992,0.07442313,0.13497499,0.07317617,0.0110838665,0.00519088,-0.02389187,-0.11114972,0.021706775,0.02034555,0.026286842,0.060341176,0.042774376,0.033054885,-0.00363915,0.082437806,0.06386315,-0.059519317,-0.050046053,0.049601845,-0.010428256,0.023145514,0.0051311646,0.051414825,0.09290367,0.028574238,0.08941455,0.010596899,0.029112495,-0.014965778,-0.03332061,-0.05934957,0.022882942,0.032368634,0.04659521,0.022792026,0.05232604,0.015555957,-0.040229417,0.061853535,0.056329302,-0.013204541,0.024397243,-0.016070446,-0.010806444,0.05879207,0.02871583,0.02652964,-0.02198445,0.09439351,-0.044869076,-0.079060905,-0.009911248,0.09710323,0.016416576,0.11404716,0.04062577,-0.011141606,-0.020406095,-0.027958343,0.08553254,0.01407323
TIPARP,0.015971702,0.0037251671,-0.009353701,-0.04604967,-0.08779781,-0.04077178,-0.013804363,-0.007787301,0.013428094,-0.049600538,-0.045703344,-0.05450149,-0.029898962,-0.024616605,0.08542991,-0.08342294,0.048893217,0.0656478,-0.1555077,-0.009630176,-0.038233392,0.02099475,-0.11042952,-0.019541727,0.0069401953,0.0027207732,-0.10082729,0.0009918014,-0.024639228,-0.034123532,-0.09836666,-0.036900923,-0.0418822,-0.058879144,-0.051970094,0.00039663096,-0.086739,0.052894775,-0.020092092,-0.09059763,0.012370138,-0.123934016,-0.037363913,0.00086093583,-0.024418427,0.032201007,0.09645903,0.05802171,0.066740446,-0.065589905,-0.020558408,0.03030335,0.05892098,-0.0794778,0.016467221,0.022046058,-0.083809726,-0.04661024,-0.023083344,-0.045069195,0.028733807,-0.04658687,-0.0670095,-0.0758396,-0.2168166,0.024904992,-0.10676496,-0.05206184,0.016748752,0.023800371,0.020536436,-0.06588921,0.011692598,0.029711258,0.0027282236,-0.0076944646,-0.042910792,-0.008423736,-0.07680975,-0.08262252,-0.044657994,-0.06666535,-0.036183182,-0.045717273,-0.049362548,0.05917309,-0.014405026,-0.057828575,-0.040296525,0.0040593236,-0.07818915,-0.07387188,-0.04219578,-0.024303261,-0.064054586,-0.05107839,0.016252715,0.09819606,-0.12788744,0.026955398
STAMBP,-0.04531186,-0.036240056,0.003836964,-0.062932216,0.14768377,0.05190939,0.041747,-0.08065121,0.06191721,0.004948192,0.05888036,0.00862009,0.052495707,0.04101523,-0.1708502,-0.0076268753,0.058045603,0.046190504,0.033800766,0.03939855,0.021669919,0.0026156432,0.033368684,-0.04588981,-0.024606677,0.12343811,-0.015246465,0.07000023,-0.004597959,-0.012151288,0.030619072,-0.008092213,0.031448178,-0.026412398,-0.09109177,-0.034438755,0.08304479,-0.066201754,0.12261887,0.11022009,0.0013612651,0.004622528,-0.06642207,0.06757571,0.09927767,0.031388145,-0.035351083,-0.09507041,-0.031974964,-0.11622178,0.10039685,0.10784412,-0.10892463,0.06459627,-0.048564054,-0.0009374439,0.030432139,0.012792748,0.018097319,0.05321992,-0.017571818,0.0706716,-0.07617798,0.098218456,-0.15771025,0.010672663,-0.031818822,-0.024545418,-0.07837819,0.02264714,0.036051802,0.06310715,0.0037612198,0.040946655,0.032054383,-0.041040637,0.029783322,0.014773467,-0.025238942,0.025340836,0.04302785,0.0801943,0.07871902,-0.07180483,-0.029621994,0.009762996,0.0020577994,0.087179445,-0.011972862,0.020399885,0.07743874,0.0312506,-0.036854167,0.0034489897,0.06793267,-0.027448643,0.17038491,-0.070563234,0.020015784,-0.03732268
FPGS,0.060035232,0.0076800673,-0.00798546,-0.0027902285,-0.05327889,-0.04485858,-0.013063497,-0.08035757,-0.05296475,0.06894761,0.04290721,-0.085301965,0.05103141,0.00506852,0.076808676,-0.0075379866,-0.035811745,-0.04594178,0.009274621,-0.067476675,0.14834498,-0.0057708626,0.030031953,0.052985135,0.02108817,-0.025900537,0.074454054,-0.036325045,0.05327147,-0.026607998,-0.04888523,-0.024728205,0.09660598,0.01338074,0.034164466,-0.05879986,0.04953918,0.07357901,0.084301054,-0.030070748,0.0073566143,-0.10786967,0.022477977,-0.067997575,0.009786893,0.004092156,0.06151499,0.12686126,0.08696518,-0.04653579,0.007775583,0.059004206,-0.009243193,-0.052141596,-0.008534619,-0.05586578,-0.04286387,-0.030398276,-0.07033142,-0.006161116,0.024179226,-0.0642405,0.021116255,-0.021176139,0.07657972,0.00941943,0.024593981,0.049170922,0.09811457,-0.10272334,0.08741327,-0.03660113,-0.06739227,-0.003157907,0.018919298,0.008160799,0.029911956,0.00047160182,-0.016501714,0.0045116283,0.052277297,-0.004911434,-0.013278526,0.059904996,-0.026075792,0.076104745,0.022647874,-0.020704847,-0.01877543,0.018325975,0.06072097,-0.027770586,0.11138666,-0.070563816,0.06215592,0.0011254287,0.063160285,0.0041717812,-0.0072383196,0.07184241
CEP43,0.07734957,0.022455823,-0.05822642,0.049651116,-0.03223833,-0.008927117,0.058040466,0.034430612,0.03658831,-0.030480353,-0.037420955,-0.018250167,-0.02946038,-0.0061886054,0.033289343,0.048533153,0.024753196,0.04704677,-0.017485186,-0.07154205,0.08795692,-0.005125024,-0.047355726,0.00053723983,-0.029890632,-0.02041242,-0.11130589,0.00018862741,0.027934138,-0.012325221,0.008350958,-0.08875387,0.016742308,0.044487298,0.05664705,-0.0005319701,0.018475642,-0.049053255,-0.042870052,-0.031288493,-0.026014004,0.023522442,0.002256628,-0.011149634,-0.0027395252,-0.06141079,-0.014853999,0.005588032,-0.059401426,-0.0065595834,-0.04945782,-0.072593234,-0.011464447,-0.044637304,-0.03488262,0.03057591,0.01917714,-0.012414888,-0.032167226,-0.016665025,-0.10139157,-0.011428133,-0.027301878,-0.061834946,0.0019777387,0.0050173793,0.0033287185,-0.02904772,-0.014605613,0.05432215,-0.035243098,0.00078823295,0.10683772,-0.044730045,-0.01564865,0.023047153,0.026917046,0.08349526,-0.05162866,-0.0061654528,-0.10206259,-0.08035505,0.011600642,-0.07353411,-0.060977917,-0.05663897,-0.015543812,0.03463429,-0.07781034,0.024581622,-0.046270303,-0.109249175,0.0318355,-0.019630201,-0.06857684,0.033538017,-0.0095312,0.005083284,0.0014410721,0.012847702
PPP2R1A,-0.021884697,-0.0008359418,0.052940477,0.010942369,0.06146345,0.05806329,0.015243437,0.019971034,0.06695966,0.11418543,-0.060902003,0.057215218,0.016777992,0.14498271,-0.014877093,-0.043981016,0.022721227,-0.06984879,0.04679152,0.05501017,-0.008407371,0.031129016,0.02189287,0.041781835,0.017845785,0.03368362,-0.065989695,0.0028650498,-0.053202264,-0.053855747,0.04947911,0.014759985,-0.035605572,0.05773524,-0.046926565,0.0509782,0.08763645,-0.051016524,0.117157824,0.056036472,-0.057268634,-0.002341482,-0.010431016,0.048613627,0.044336677,0.0980572,-0.014852078,0.096045285,0.036892816,0.025429502,0.02844019,0.015642911,-0.039478086,0.022556044,0.029168194,-0.044102874,0.05244005,-0.02615972,-0.062078297,-0.10752358,0.0058009843,-0.028212862,0.031502016,0.03276833,0.021074755,0.0045050974,-0.033654995,-0.030949155,0.1022394,-0.0823127,0.090260476,-0.013052272,-0.014208308,0.08556948,0.09583381,-0.081278555,0.0616838,-0.023874339,0.027836226,-0.03135036,0.101136155,0.044069707,0.12356611,-0.061949447,0.032103505,-0.0010767269,0.09622045,-0.0497041,0.03562111,0.07089209,0.06453409,0.10295738,0.030749394,0.03315909,-0.026653051,-1.9031137e-05,0.0916709,-0.022822358,-0.006247228,0.026689375
FOSL1,-0.068098456,-0.047025494,-0.053277835,0.02368504,0.08724684,0.031565003,0.0080566155,-0.010650193,0.01647789,0.03268758,0.042464864,0.02926413,-0.07090521,0.08480441,0.017285379,0.011314668,0.04749395,0.021997876,0.0010099568,-0.035441004,0.08152321,0.040522095,0.00796079,-0.051738765,-0.00073724356,0.08837459,0.06460426,0.03625579,-0.05888333,0.037614096,0.08627119,0.053055182,0.033471327,0.04775853,0.10108467,0.047318805,0.025482064,0.004402605,0.05034106,0.0835201,-0.042080734,-0.085364185,-0.042529702,0.030693242,0.022368087,0.047992207,-0.04094794,0.053145263,-0.010965401,-0.060873087,0.0032915683,0.018423134,-0.08592994,0.0060551767,0.030767744,-0.05340241,0.06171672,-0.0034641763,-0.021076929,-0.027407972,-0.0015026107,0.026840013,0.09551122,0.013843479,0.010684458,0.062105376,-0.03873811,0.045665856,-0.012803741,-0.054737452,0.053933285,-0.012513842,-0.0049773883,0.00014301883,0.012042114,-0.040040642,0.048000064,-0.08405277,-0.061735783,0.0050430186,-0.046154525,0.06499545,0.0617882,0.053907357,-0.066006295,0.018627651,-0.020659143,-0.007035162,0.027265592,0.07076436,0.07709041,0.06583226,-0.07681602,0.07740673,0.059026543,-0.028545236,0.042601585,-0.03374132,-0.013520001,-0.025546145
MAU2,0.0725161,-0.061065614,0.046475716,-0.045681898,-0.002799831,-0.017766818,-0.05864605,0.013475477,0.08444454,-0.0085353255,0.00089812063,-0.040116236,-0.03304311,0.020392152,-0.089376085,0.032820597,0.022153877,0.042791776,-0.03602694,-0.007361538,0.06045831,0.06926396,0.022008186,0.075524345,-0.008614113,0.0025148697,-0.028126644,-0.032886922,0.05100556,0.023125315,0.053605877,-0.028860195,0.05202846,0.020350158,-0.074405335,0.012238154,-0.078259185,-0.028523995,0.05808373,0.009419068,0.020458978,0.06518703,0.008332584,-0.04680425,0.019029163,-0.07717112,-0.018036703,-0.044945292,0.07707589,-0.0950653,-0.051739126,0.105991654,-0.033289462,0.023580486,-0.061026093,-0.010063651,-0.047375716,-0.03701858,-0.086032316,-0.032896906,0.023047311,-0.08312832,0.005044899,0.021988021,-0.063342534,-0.060156982,-0.06142584,-0.004249922,0.03552405,-0.011525665,0.0037579911,-0.06250606,-0.048583455,0.11599968,-0.053596105,-0.031183977,0.112628385,0.0027697436,-0.025469564,0.07998998,-0.050458916,-0.0632591,-0.0144943185,-0.022506552,0.05771629,0.0016206984,0.012329756,-0.038708538,-0.03877566,-0.055768784,0.03602336,0.009120925,-0.048390318,-0.06600956,0.04138094,0.049658835,0.071800396,-0.046019595,-0.058771,0.10997528
MRPL18,-0.02151737,0.0043715737,-0.021048712,0.030913737,0.03153237,-0.055912945,-0.02784506,0.03380021,-0.014729544,0.044210944,0.015781198,0.044084635,0.031461377,-0.013908548,-0.0094533125,-0.10417342,0.056208532,0.041943565,-0.00065254874,-0.048785176,0.019620894,0.014072689,-0.086992316,-0.06863964,-0.011361421,-0.04240509,-0.046827253,-0.03438031,0.0025124296,-0.050518204,0.04072796,-0.030137042,-0.022066081,0.026241252,-0.009040566,-0.012939937,-0.04558316,0.005755465,-0.060348,-0.028012898,0.038564164,-0.03358195,0.048122566,-0.06633715,-0.085389435,0.040706318,0.02826512,-0.0071265097,0.039029818,0.076855,-0.04065239,-0.057738543,-0.08464655,0.0610451,-0.025882524,0.029235797,-0.038537297,0.015681772,-0.043044243,0.07755663,0.037071317,-0.036628015,-0.04386952,-0.036551416,0.062117998,-0.01839419,0.04154509,-0.007878315,0.00445316,-0.076528564,-0.057726588,0.012788857,0.060940396,-0.01789198,0.023044076,-0.049207836,0.05107448,0.014832052,0.005069557,-0.04911293,0.01771183,-0.06103151,-0.03352479,-0.07231233,0.03720604,0.033001613,0.034756005,-0.047685314,-0.023118475,0.011351724,0.05538444,0.030726345,0.059097942,0.011661698,0.03827985,0.026303243,0.05580496,-0.008113964,-0.13639398,-0.0138465725
CRKL,0.055903304,0.045701437,0.0077981846,0.05791389,-0.0026118348,0.09364574,-0.0328061,-0.057019055,0.10023488,0.07950399,0.06140147,0.066357195,0.010467656,0.047114223,-0.06178594,-0.03963835,0.12076755,-0.017736921,0.005221789,-0.00028304278,-0.01571405,0.13485672,0.049745016,-0.017534122,-0.010849935,0.09995475,0.042134106,0.054691933,-0.040786386,0.108462624,0.18522045,0.019281723,0.05781048,-0.066223174,-0.0029119,-0.036578313,0.04383405,-0.008234302,-0.009146565,0.1084281,-0.03516851,0.002245912,0.025705459,0.023433197,-0.03283394,0.018149046,0.03743907,0.008032758,0.065162145,-0.00931899,0.19571243,0.02135701,0.056869373,0.06822928,0.036156174,-0.03499728,0.051178455,0.04038038,-0.03316033,0.029393166,0.06165728,0.061998304,0.103507884,0.036744844,-0.093680166,0.13580064,0.024542019,0.047668178,0.015734844,0.050149947,0.1000298,0.074533895,0.04103669,0.030835286,0.09886529,-0.036519993,0.07386796,-0.024161508,-0.03461558,-0.007074382,0.07066434,0.070509695,0.07703655,0.048537865,-0.032817766,-0.09198456,0.034797613,0.009391013,-0.050733127,0.121567704,0.11398959,0.073712446,-0.059747722,0.005980084,0.1255232,-0.0123332925,0.13433082,-0.07292737,-0.020637257,0.025412776
PGM3,0.014932866,0.04664771,0.04794459,0.09427091,-0.08659429,-0.021435987,0.00422173,-0.035060983,0.08409774,-0.09830663,-0.062208913,-0.013371454,-0.080623314,-0.014871071,-0.12525608,0.023759149,-0.04189925,-0.068755016,0.049236972,-0.10788393,0.027003445,0.007286259,-0.0073408387,-0.025380764,0.045855474,-0.051308054,-0.019192059,-0.039137807,-0.052632634,-0.057960846,0.023699613,-0.027991673,0.015453019,0.08850419,0.051881984,0.039614692,0.015633253,-0.042911436,-0.06880308,0.002075287,-0.031831026,0.08207114,-0.035422854,-0.020595789,0.049588718,-0.09243583,0.015419015,0.10013492,0.014226337,-0.0002849687,-0.0044896244,0.084012076,-0.0637441,-0.031655196,-0.08075395,-0.0071270796,0.021427298,0.05442116,0.008401094,0.07704332,0.03760584,0.01250376,0.0070826244,-0.10974019,-0.017038256,-0.021402575,-0.0003491422,-0.011500447,0.07936602,-0.13778244,0.08536195,-0.011295562,0.043114718,0.04820571,0.021609358,0.019932369,0.039470658,-0.0036400943,0.0032300826,0.06365164,-0.031225286,-0.10507274,-0.06695623,-0.014574263,0.08984939,-0.018579986,-0.006178357,-0.009644293,-0.11428695,-0.0077760327,-0.016549328,-0.04391307,-0.011780272,-0.05703367,0.0749683,0.0487421,-0.04673074,-0.08254462,0.040612467,0.0032241351
RFK,-0.0021783363,0.0255979,0.092947364,-0.017927824,0.040667243,0.006681972,0.023891067,-0.06839355,0.045202196,-0.0034072797,0.0800512,-0.066825956,0.010836256,-0.11042554,-0.06674563,-0.03307084,-0.005493255,-0.031724915,0.08520449,-0.09665049,-0.03265572,0.035581548,-0.036283758,0.040640756,0.05334423,-0.0017538707,-0.0029771586,-0.05268678,-0.023779092,0.0004854198,-0.045896955,0.020674126,0.053563602,-0.04390256,-0.04036459,0.10859916,-0.04146467,-0.00126292,-0.063084036,-0.09919631,0.06874659,-0.017386787,0.018692717,-0.02559371,-0.06201148,-0.0030775808,-0.019298743,0.04225059,-0.04293957,0.0010222611,0.044579446,0.016041405,0.034117542,0.056417137,0.0059060743,-0.02081279,-0.041178036,-0.017290443,-0.036116485,0.09080852,0.06702669,-0.052149843,-0.063222304,-0.081890635,-0.03971457,-0.0073887575,-0.025792524,-0.053276762,0.015084462,0.05826851,0.01581307,0.056087416,7.687708e-05,0.012637727,-0.0429964,0.061327793,-0.019449016,0.020185372,-0.0115907425,-0.03779849,-0.10014099,-0.061869297,0.0008959676,-0.08413701,0.0068724793,0.012833315,-0.06513378,-0.03619639,0.00327203,-0.010323253,-0.109361395,0.0018328499,0.008116665,0.033924606,-0.024193613,0.07008705,-0.05256027,0.008303594,0.10160599,-0.0071718553
GET1,0.004019894,-0.03244175,0.065903075,-0.039395455,0.022020323,0.034975853,-0.0046853805,-0.02387045,-0.051914327,-0.015529722,0.065281466,-0.0016855202,0.03988038,0.029664984,0.018146096,0.003391056,0.06562206,0.08928657,-0.025411151,0.019829288,0.009172889,-0.008034017,-0.014930846,0.094513156,0.059730113,0.010992587,-0.071702026,0.039899472,0.03556425,-0.023472503,-0.03306692,0.06473832,0.05889702,0.027647315,0.015278158,-0.036931034,-0.01844619,-0.05459423,-0.017010178,-0.019449573,-0.106461674,0.05646458,0.071799584,0.04442906,-0.025401363,0.0096968,0.02558131,0.027276201,0.07872648,-0.04117726,0.06857642,-0.06242303,-0.054621607,-0.040327188,-0.004073655,-0.03275967,0.009961386,-0.056985468,-0.05030164,-0.034429472,-0.01928346,0.00029402078,-0.035330936,0.020539409,-0.04660897,0.019517314,-0.028950687,-0.030112797,0.056155108,-0.12799527,0.07384955,-0.034347463,0.04220009,0.003623473,0.06315323,-0.033974357,0.013609054,0.024063615,0.020241031,0.041615784,-0.052385416,0.01956672,-0.034991756,0.043347932,-0.069252,0.048344452,0.0035224117,0.050983742,-0.045898315,0.0043393336,-0.005429964,-0.045882653,0.005235294,-0.028012194,-0.086062215,-0.029863682,0.030779034,0.03212783,0.02645794,-0.010060184
PFAS,0.046762653,-0.0945427,0.018119972,-0.034688253,0.021609792,0.008443,0.044287343,-0.0029044973,-0.041299466,-0.044294592,0.040460143,0.054922666,-0.049442906,-0.096283905,0.097032,0.028519763,-0.08211823,0.024805887,-0.030069254,0.04859743,0.022793548,0.010133457,-0.14140491,-0.0024266553,0.018536346,-0.042637207,0.062385917,0.017076937,0.04504946,0.047240146,0.029468691,-0.059440922,0.027623732,-0.06955603,0.038218647,0.0675476,-0.03060763,0.06221487,-0.055523243,-0.049641013,-0.03420383,-0.015126732,0.031785246,0.066289686,-0.09750057,-0.09413178,-0.06120008,0.0452646,0.03347932,-0.08135541,0.026779864,0.07152915,0.06364266,0.006168383,0.0009792141,-0.043196555,0.014052849,-0.027468938,0.022271585,-0.004237318,0.0022301537,0.014803041,-0.007948576,-0.022441937,-0.027794758,-0.044876084,-0.018664418,0.017244013,0.05847302,-0.023404704,-0.0296309,0.027243761,0.07043581,0.048727322,-0.028907657,-0.022381809,0.007137815,0.0424781,0.045620862,0.106593736,-0.11523759,-0.07598593,-0.035475545,-0.013887688,-0.053481653,0.018947555,-0.026414521,-0.034419097,0.001737632,0.08356919,0.034734637,-0.04548067,0.049314138,-0.014090387,-0.025572965,0.022168616,-0.038545214,0.029731778,0.059008032,0.03078365
NCKAP1,-0.06551616,-0.06996361,-0.010338682,0.034549184,0.081934266,0.057591833,0.019464977,0.09895808,0.0022847075,0.095118485,0.09621783,-0.0016977028,-0.09511521,0.12519158,0.024989648,-0.07835095,0.078618735,0.027781565,-0.07959731,0.05130959,-0.038134504,0.04009054,0.088068366,0.015010374,-0.03573831,0.050789673,0.077452645,0.0709474,0.09932187,-0.016768334,0.066188894,-0.0004975128,0.079638496,-0.016824575,-0.0013282341,0.10202109,0.090659276,-0.0128908185,0.040160283,0.08064547,0.04932123,-0.101801604,-0.020773675,0.087864146,-0.09255788,-0.02721092,0.01160946,0.042932592,0.033993065,-0.051205985,0.08163521,0.022272134,0.037485152,-0.010203927,-0.00039463543,-0.0046854154,0.092197716,-0.003939871,0.055920083,-0.01413566,0.039579544,0.07018518,0.11333089,0.14781444,0.045847874,0.12704764,5.811479e-05,0.03215198,0.12015896,-0.08520048,-0.1085853,-0.0041901693,0.047699008,0.041936513,0.07467702,-0.038409982,0.0022333218,-0.05701204,0.050850715,-0.00795039,0.04289416,0.054622844,0.08273149,-0.031879622,0.040587395,-0.0583639,-0.032633312,-0.06646246,0.022656871,0.12833434,0.055469662,0.013264547,0.07300706,-0.012615904,0.107160404,0.04791507,0.086295724,0.0704049,0.06666506,0.005497743
EED,0.03907751,0.102551065,0.03613637,0.011540497,0.022557853,0.0067579085,-0.04853618,0.0110136885,0.1479349,-0.0008851012,-0.08295305,-0.048618134,-0.06317319,0.047663055,0.030022267,0.01760726,0.04602251,0.025599297,0.07258179,-0.074401066,0.019014545,-0.10418149,-0.11095812,-0.072415076,-0.005334125,0.023551947,-0.019471977,-0.003893725,-0.06096204,0.028744651,0.002755827,-0.013667658,-0.009163479,0.05636037,0.09437996,0.11927484,-0.030252857,0.08986435,-0.036792364,0.05086309,-0.020064263,-0.10260692,0.068551965,-0.04086902,-0.023341693,-0.022366198,-0.032338664,0.030240051,-0.029596698,0.10557108,0.0136444075,-0.0075548813,0.013151193,-0.051355515,-0.050193567,0.033385668,-0.017888919,-0.035328235,0.023777552,-0.0007831993,-0.10233044,-0.0031615894,0.028454313,0.03974738,-0.026637848,0.0683451,0.033680525,0.04725715,0.025076244,-0.08304535,-0.06009165,-0.0701301,0.013625706,-0.0076374495,-0.0040040324,-0.122553855,0.011339389,0.03857495,-0.07789462,-0.048211493,-0.0059917565,-0.026714485,0.06725688,-0.0013772455,0.05320749,-0.07680904,-0.08622933,-0.03071334,0.044450127,-0.060905278,0.056189243,-0.022259964,-0.08251944,-0.06767304,-0.0064791106,-0.052763063,-3.2682477e-05,-0.062373847,-0.028521221,-0.0066343234
TAF5L,0.035101544,-0.014529651,-0.0053801043,-0.0045698225,0.027615858,0.009351274,-0.05380371,-0.0016058477,-0.031554066,-0.049608268,-0.0518917,-0.012799004,-0.04437447,-0.10955438,0.011511094,0.03289803,0.0064477245,-0.053246915,0.02829811,-0.02857906,-0.0453923,0.00090345857,-0.064697556,-0.009648535,-0.014391912,-0.015673237,0.05056257,-0.017687147,0.019605994,0.1265538,-0.060739692,0.029291397,-0.05334368,-0.035305556,0.035103593,-0.051252052,0.040340163,-0.035637088,-0.06981907,-0.09773121,0.029862186,-0.02142717,-0.015624074,-0.012013225,0.016590076,-0.028593302,-0.07416125,-0.048725206,-0.046038464,0.039079554,0.013668603,-0.020920293,-0.017150521,-0.103225924,-0.0679804,0.068956725,-0.070486955,0.012813369,0.05835541,0.05480667,-0.090752356,-0.048237365,-0.07366645,-0.0876224,-0.06957812,-0.010522524,0.07365977,-0.08103666,0.006080306,-0.03093006,-0.011746475,0.008946885,0.088610515,0.016709376,-0.050908484,0.027228523,-0.054953165,-0.050359223,-0.05266124,0.019011829,-0.013217967,-0.06208409,-0.059950363,0.03573083,0.03786496,0.056555305,-0.012426706,0.018538518,0.07435992,0.041650407,-0.047455784,-0.048938394,-0.04168695,-0.05628846,-0.057746008,0.0473865,-0.0017783772,0.004236633,0.012519282,0.051553912
ACO2,0.07756773,0.10983679,-0.07299648,-0.005290157,0.036980588,-0.0099595105,-0.02552267,0.15119536,0.016893685,0.0053708726,-0.06914757,0.03129848,-0.09798111,-0.003168334,0.0509609,0.10218439,0.037199922,-0.008439047,0.09451975,0.013226199,0.020371031,0.045790095,0.04487875,-0.053796522,-0.041965958,0.05624627,-0.03498866,0.07141872,0.019090537,-0.00948578,0.022390163,-0.06452561,0.006530246,0.0632491,0.042200804,0.0037487145,0.030891867,0.0527669,-0.009799959,0.0401694,0.018420994,0.03158565,-0.031017553,-0.063689545,-0.06215814,0.040796187,-0.021915073,-0.037782777,-0.033788454,0.084356464,-0.037771355,-0.043765366,0.09202475,0.025420865,0.016206663,0.027198648,0.012245793,0.15061189,0.17813222,0.18366022,-0.021160493,0.049643397,-0.029955586,0.05007913,-0.061644107,0.034761887,0.10838525,-0.009916509,-0.04793151,-0.07397792,0.08365462,0.018991558,0.08922409,-0.049053933,0.017878149,0.034966916,-0.09124118,0.047610883,0.08626429,-0.06859542,0.040028427,0.0036702664,-0.025600255,0.053670514,0.0547717,0.04552872,-0.038977828,-0.028988289,-0.04351532,-0.063208975,-0.03439134,0.04619399,0.013028934,0.09041963,0.043547247,0.13048689,-0.026634676,0.051659394,0.092502885,-0.007382745
CDS2,-0.10904589,0.067189895,-0.046300862,-0.0026873178,-0.10211993,-0.05501091,0.0078670485,0.03732618,0.079177745,0.037525296,-0.092760876,-0.123052046,-0.05031517,-0.07322805,-0.052795824,0.002663003,-0.09580974,0.035729464,-0.0010577599,-0.03788754,-0.029794328,-0.15830609,-0.028699735,0.05169901,-0.0092750965,-0.060472507,0.087772265,-0.11708235,-0.013810233,-0.082891576,-0.16799702,-0.05225665,0.03932224,0.043504827,-0.018874448,0.09288578,-0.15205789,0.029505845,-0.05026491,-0.13224107,-0.06585664,-0.05049736,-0.022157013,-0.06050636,-0.098838344,0.070399575,-0.083653234,0.025982497,-0.062988825,-0.011351779,-0.091644816,-0.12522548,-0.025347175,-0.027560344,0.06729494,-0.016259283,-0.060638662,0.014925791,0.021654125,-0.051390298,-0.07560484,-0.039999783,-0.020293275,-0.12757763,0.06804987,-0.1344552,0.017356068,-0.028455691,-0.059724785,-0.027802167,0.045887697,-0.13817243,-0.04352427,-0.0660356,-0.10771718,-0.07943275,-0.06500534,-0.014446367,0.020966839,-0.02217962,-0.014006485,-0.004247486,-0.1664771,-0.0139053995,0.011196349,0.035621695,0.09813876,-0.055307046,0.0012298877,-0.20930833,-0.073289044,-0.15445481,-0.06306684,0.025076943,-0.11203189,-0.0843946,-0.15050365,0.025796587,-0.019870466,-0.041001443
CCNC,0.029725637,-0.084875666,-0.016655942,-0.03754938,0.026444213,-0.040454876,-0.10843298,0.059943505,0.024754656,-0.06284833,0.026033636,0.024110306,0.043453977,0.0066932626,0.0646666,0.01652585,0.0021704568,-0.019145094,-0.045367684,0.015905134,0.021793049,-0.047545478,0.0019315715,0.04671592,0.026662001,-0.017354617,-0.06144466,-0.029702928,0.04693027,0.025927331,-0.038273305,-0.022639407,0.07530517,0.020155393,0.02990257,-0.015080163,-0.015901463,-0.09698567,-0.033727188,-0.0722275,0.0400962,-0.05546325,0.0069886083,-0.04792952,-0.057530843,-0.07550237,0.06583402,0.003678028,0.0071960553,-0.038473476,0.039114498,0.035007697,-0.07572054,0.057712983,-0.024496354,0.03441192,-0.0071168477,0.08522214,0.07183399,0.06567074,0.015240786,-0.07713341,0.012217676,-0.016663117,-0.011162918,-0.050422072,-0.04403907,0.06578201,0.07261965,0.04106101,0.0117887035,0.048817992,0.052058563,0.03369231,-0.08257856,0.041277107,0.0021951674,0.006543594,-0.011108868,0.04631784,-0.01104088,0.029062942,-0.024659304,-0.0041387957,-0.030587446,-0.042108282,0.07233827,0.00017661716,0.07331199,0.00921308,0.0295437,-0.033928584,0.017880866,0.050320916,-0.054893825,-0.036136802,-0.07901493,0.011351817,-0.0074909963,0.0042524096
KDSR,-0.016345147,0.016183672,0.00955538,0.022451364,-0.04501047,-0.12268943,0.0054693134,-0.027054213,0.09282879,-0.012399763,-0.110911585,-0.13455075,0.08606028,-0.17608096,0.09074893,0.038316775,-0.032596838,0.061972722,-0.058575254,0.0025828567,-0.025586681,-0.011062498,-0.10572272,-0.030381095,-0.07868871,-0.16171488,0.033724047,-0.05565308,-0.04058467,-0.052845903,-0.11572121,-0.028512236,-0.13434312,0.06139186,-0.01869898,0.04932972,-0.16543967,0.08117037,-0.0099628735,-0.09733328,-0.04856935,-0.028829534,0.05332097,-0.02023497,0.12503193,-0.0066459384,0.11158892,0.033405658,0.06309533,0.021471744,-0.104193404,0.02184646,0.08939281,0.02227003,-0.018017283,-0.012936378,-0.07419285,-0.061153147,0.015594924,0.06202134,-0.0056602433,-0.12972023,-0.08561194,-0.120819755,0.039202657,-0.04403359,0.029591624,-0.06054791,0.017405422,0.11148443,0.1307317,0.08438472,-0.01636595,-0.08365735,-0.10851874,0.21264914,-0.043523796,0.031846564,0.00378973,-0.017688265,-0.09937492,-0.10547511,-0.11939825,-0.038979474,-0.010550961,-0.053004686,0.028080063,0.013065754,0.111963086,-0.021406926,-0.08167055,-0.14060745,0.019633615,0.057435963,-0.07007889,-0.0108889425,-0.08878451,0.04937025,0.0052460707,-0.06795891
ANKRD49,0.1288638,0.008444056,-0.06200053,0.004704086,-0.021816107,0.04850506,0.088937424,0.12982205,0.082705066,-0.0069334405,0.048186835,0.049033895,-0.00022104026,0.06314664,-0.079311974,0.13232112,0.068784714,-0.019194214,0.12844457,-0.10506828,-0.009222114,0.03108999,0.015303191,-0.114168525,-0.026180401,-0.0045622587,-0.0064180517,-0.06220191,-0.02741042,-0.024081778,0.015572942,0.008007609,-0.065724514,0.03049015,0.06660073,0.02094386,-0.04691983,0.081185505,0.062680624,0.06928881,0.03322409,0.20687723,0.025093386,0.08791978,0.053225107,-0.0033055001,0.075018406,0.010555583,-0.03408177,0.07763998,-0.052884743,-0.07211653,-0.08619215,-0.015248446,0.03296544,0.004953748,0.08916764,0.07894311,0.046516612,0.06830461,-0.012615253,0.05509432,-0.04761617,-0.0008743594,-0.031495366,0.022632703,-0.010421149,0.059424836,-0.12118878,0.013784791,0.034640595,-0.00019715716,0.05234179,-0.021370912,-0.0045293723,-0.007202196,-0.0347287,0.13671611,0.055783425,-0.05208482,0.09042891,-0.0219392,0.005948758,0.06791297,0.068085104,0.15342368,0.025159618,0.054949217,0.13469584,-0.037603583,0.07868693,0.097518325,-0.0429453,0.16903606,0.026885351,0.11447771,0.09741738,-0.04201905,-0.01560336,-0.019782469
POT1,-0.045760438,0.10301412,0.027556133,-0.11927773,-0.027493011,-0.02044673,0.02892218,0.0017042285,-0.06374449,-0.0143557675,-0.0071325223,-0.043544576,-0.059343815,0.0034550303,-0.046539024,0.0031838957,0.04945945,-0.005276731,-0.051825732,-0.066531256,0.04132226,-0.0095980875,-0.027525857,0.0062851612,-0.035850435,-0.00756984,-0.01874664,-0.024821196,0.013863653,-0.053564902,-0.07239109,-0.009807818,0.10235981,0.036505662,-0.07318038,0.013497406,-0.09220996,0.037100963,0.04389912,-0.04816775,0.036784746,-0.012227703,0.0572928,-0.008622068,-0.014507422,0.02165611,-0.036465213,0.051647045,-0.004716927,-0.0669949,-0.010500023,-0.0021360356,-0.027556024,0.014874305,-0.06193466,-0.025760598,-0.0013929222,0.016256537,0.027500656,-0.0005133609,9.641984e-06,-0.010183386,-0.04248625,-0.04907977,-0.07261387,-0.032328527,0.024225086,0.11062432,0.042849697,-0.014375681,-0.049180772,0.033191733,-0.034671407,-0.049734276,0.021131808,-0.038114537,-0.015468829,-0.0414333,0.025552608,-0.02886966,0.044559155,-0.08150672,0.065237105,0.056498338,-0.023008468,-0.01313215,0.088333935,0.015558312,-0.043041907,-0.07303889,0.0487752,-0.040109478,0.0068691876,-0.06513212,-0.0032032721,-0.023875507,-0.022172345,-0.040444747,0.020718653,-0.07912883
