0,1,2,3,4,5,6,7,8,9,10,11,12,13,14,15,16,17,18,19,20,21,22,23,24,25,26,27,28,29,30,31,32,33,34,35,36,37,38,39,40,41,42,43,44,45,46,47,48,49,50,51,52,53,54,55,56,57,58,59,60,61,62,63,64,65,66,67,68,69,70
FAM50A,-0.03464317,-0.01878569,0.0048837434,-0.021371305,0.039248314,-0.04238413,0.032414284,0.009567498,0.02833211,-0.012950779,-0.027286978,0.016897302,0.047184546,-0.043383397,0.06490623,-0.03358875,0.018889,0.021298388,-0.018499268,-0.03260217,0.06963628,0.0007260693,-0.067000784,-0.060911708,-0.015334008,-0.04261046,-0.06905283,-0.017358735,-0.01152921,0.022852551,0.042820595,-0.007022502,-0.050201084,-0.015580745,-0.016222684,0.02542451,-0.06849784,0.043510225,0.056761753,-0.026144082,-0.006488316,-0.011128885,-0.04729846,0.01362809,0.02936552,0.0052668364,0.05126215,0.036415756,-0.01666373,0.013814679,-0.06599736,0.012152906,-0.014132243,-0.045146182,-0.008591835,-0.014343652,0.03296554,0.05811747,0.00284808,-0.023276158,0.084093824,-0.02181429,-0.031163245,-0.005313377,0.041809432,0.015910463,0.01617545,0.033529703,0.02356287,0.06633637
CDK6,0.030043954,0.05799849,0.006439174,-0.02942136,-0.003977402,-0.016620826,0.02159096,-0.01998759,-0.06378173,-0.045516856,0.065947205,-0.025580231,0.013564523,-0.062794864,-0.02156529,0.024583297,-0.07561672,0.04182233,0.048663873,-0.09369364,-0.04072681,0.00038131175,-0.069406465,-0.012367123,-0.05038456,-0.058294438,-0.043256007,-0.014542253,-0.008470365,-0.06729937,0.030611921,-0.05354127,-0.02843558,0.025313098,0.03154435,-0.051310234,-0.061114296,0.07095708,0.05272109,-0.057605132,-0.064087756,-0.0567072,0.027989581,0.010730072,-0.013122491,0.04110685,-0.005493612,-0.044728227,-0.04624959,0.040236283,-0.047062624,-0.08546466,-0.058184337,-0.033320084,-0.031875122,0.04949786,0.012537852,0.015803454,-0.024182284,0.0038927698,0.03358263,-0.10305903,-0.027936613,0.012752098,0.035558663,-0.0049117533,-0.051766925,-0.026627468,-0.028017366,-0.03939352
CDAN1,-0.044884726,-0.024700057,-0.002074281,0.011753732,-0.042093273,0.014245463,0.047969762,-0.009488754,0.011400945,-0.057065036,-0.016811382,-0.012317373,0.059347473,0.036935516,-0.037407614,-0.042951357,-0.0074943807,0.038777918,0.046236113,0.004690266,0.052399546,-0.0017329202,-0.017596262,-0.03093919,0.03788826,0.0051080463,0.025441138,0.039622203,-0.056920346,-0.057849392,-0.025748583,0.10005641,0.044055037,-0.070120126,-0.060247336,-0.027253207,-0.03751656,-0.007004313,-0.046737194,0.0764828,-0.012974292,-0.06141569,-0.0080471635,0.0023808412,0.084180176,0.020504517,0.042502377,0.071349815,0.01855588,-0.07468524,-0.06392425,-0.038714085,0.026178647,0.110620126,-0.027063819,-0.03893729,-0.0034921123,-0.021580603,-0.03900313,0.041395243,0.055405382,0.004944153,-0.051125877,0.024678413,0.0038317088,0.008838896,-0.028263021,0.026857484,0.012917975,0.02835375
GPX4,-0.0155525,-0.0030877374,-0.055477466,0.014941935,0.029629592,0.07279837,0.040607307,-0.070493355,-0.0043244935,-0.0675953,-0.042422377,-0.0014898592,-0.021887138,-0.03956945,0.025755584,0.030958632,-0.026492493,-0.002107334,0.036752723,-0.059134625,-0.07747573,0.07533342,-0.08231214,0.034258075,0.082428664,-0.0143171325,-0.04434627,-0.014116242,0.0039801956,0.013474481,0.016065879,0.0058531,-0.06647577,0.08360083,0.007132682,0.013619933,-0.031775426,0.038886312,-0.056926634,0.0093429815,-0.009702208,-0.057112206,-0.0067303213,0.012195527,-0.049421035,-0.06403273,0.017521104,0.039600737,0.04538787,0.012855711,-0.045731775,0.04554253,0.027300714,-0.064649105,-0.049285676,0.03406001,0.009076936,-0.062391073,-0.06366766,0.029959416,0.018114435,-0.08246041,-0.023459388,-0.042566407,-0.03806317,-0.011955946,-0.02481467,-0.058612768,0.006045809,-0.05992772
SEPHS2,0.02024004,0.028379152,0.008226205,0.056760363,-0.01061573,0.03344075,-0.0439717,0.06263368,-0.037838418,-0.007190135,-0.055139747,0.089304164,0.08380835,-0.039731186,0.05424854,0.00044697424,-0.08222765,0.078225054,-0.04051277,-0.020888196,0.07110603,-0.026351659,-0.075814776,-0.038173042,0.024950597,-0.031150557,-0.018841809,0.034516726,-0.010732955,-0.011540035,-0.015291567,0.0707513,0.010561998,0.08538357,0.044628087,-0.02837426,-0.023719825,-0.079517506,-0.04794572,-0.03512616,-0.017852586,-0.0002832712,-0.022675648,-0.0067158467,0.04852655,-0.00017659183,-0.02694567,-0.030140588,-0.07161804,0.0004444493,-0.017010361,-0.047854684,0.01705375,0.005325092,-0.07301172,0.036048926,0.0037839175,0.01426265,-0.018784229,-0.021926535,0.023998078,-0.044415567,-0.06245797,0.005181026,0.08730945,0.035429772,-0.049907822,-0.06636655,-0.058387805,-0.047590345
RAB6A,-0.048233844,0.014733411,0.024234634,0.053018067,-0.015604431,0.020074112,0.06007374,-0.028986873,0.054731105,0.08466141,-0.08330861,-0.020806335,-0.016159704,-0.04399475,-0.04342423,0.081538655,-0.053018495,0.05176741,0.004488474,-0.020541376,0.001307027,0.039309967,-0.038270902,-0.008644698,0.041657932,0.0059364126,-0.0207091,0.07211197,0.05032168,-0.03492131,-0.022595441,-0.00013369446,-0.002302918,-0.024819795,0.01986086,0.012290717,0.00710324,0.056944966,0.026436085,-0.031596947,-0.0014162383,0.015641157,0.051025126,-0.06992867,-0.04974284,-0.068724364,-0.08126874,-0.041452263,-0.008072832,0.052827667,-0.0011001752,-0.018692527,-0.017355502,-0.056355555,-0.008246741,0.03779825,-0.010073981,0.008417209,-0.05334004,-0.025241056,0.026533114,-0.008066637,0.008977375,-0.014422244,-0.040759142,-0.0152558815,-0.006742846,-0.06350929,-0.08248656,-0.0688419
SDHB,-0.068081275,-0.06664401,0.01740414,0.050631788,0.039150786,-3.0071085e-05,0.054133873,-0.027678465,0.02334848,-0.037871808,0.0015802906,0.0014282063,0.037534166,0.027158497,0.003561438,-0.014285902,0.008727572,-0.04116599,0.045832638,0.057031743,0.049193323,-0.066438474,-0.048270013,0.04258753,-0.038109593,0.019248955,-0.0057502864,-0.04916118,-0.06326117,0.03413716,0.007908123,0.011866176,0.048841972,-0.08824036,-0.054069296,-0.05273051,0.043757137,0.002654755,0.0027777366,-0.066393286,0.053613503,0.016496638,-0.01145287,-0.022446994,0.03800608,-0.032396547,-0.03418503,0.014500466,-0.022529049,-0.028132081,-0.09091251,0.058640916,0.0049495436,0.024150042,0.09504163,-0.02284789,-0.0395777,-0.02117293,-0.022548227,-0.050479226,0.01974378,-0.017016426,-0.07882097,0.0019980983,0.02751212,-0.021603791,-0.030322496,0.029253172,0.057109296,0.042182636
AIFM1,0.09209767,0.0688605,0.05143658,-0.021590473,0.009551657,0.00783299,-0.013910353,-0.064758666,-0.04942662,0.014978149,-0.05423427,0.04356069,-0.028915944,-0.055206,0.06224154,-0.034213044,0.08027723,0.017085513,0.008592278,0.0002059916,-0.053613365,0.03604459,0.097070806,-0.019808305,0.038118325,0.047559224,0.0005952902,0.0030721722,0.085525416,-0.032347217,0.064736545,0.05649524,-0.024750283,0.020504229,-0.018154575,-0.08746711,-0.00923322,0.00028013726,0.08266777,-0.098864846,0.025430117,0.037323084,0.03199982,-0.052101105,0.040112596,0.060496014,0.054280866,-0.0015892565,0.03759689,-0.005972181,0.06893019,-0.011682796,0.023415234,-0.05525039,0.030847434,-0.057019286,-0.04829613,-0.031658627,0.012056481,-0.027601765,0.049787223,-0.015138161,-0.0051705367,0.06975109,-0.030817928,0.045058273,0.046287503,0.061699796,-0.046534684,-0.021146664
SEPSECS,-0.0022371723,0.00762677,-0.019148145,0.030243656,-0.033791047,0.03384359,-0.029950205,-0.08760923,0.044538464,-0.025066962,0.059072744,0.043442834,-0.023292216,0.03163072,-0.047860842,-0.059284016,0.0062743197,-0.002633573,0.004962944,0.008340286,0.07068061,0.037101753,-0.028020319,-0.040559452,-0.06841156,-0.025246017,-0.012206476,-0.0035642865,-0.018910632,0.018457524,-0.00839913,-0.045835122,-0.03995491,0.02124725,0.04384238,0.066176854,0.043448623,-0.06583194,0.03785068,-0.02655766,-0.02530748,0.013483318,-0.009998547,-0.013746938,-0.04348194,0.018518308,0.025668874,-0.0346213,-0.0542309,0.008567969,-0.03699464,0.056406382,0.04848568,0.08898423,-0.049640834,0.043358892,-0.00979691,0.00041324605,-0.04738541,-0.004315836,-0.03278346,-0.058302637,0.0057824305,0.004268177,0.0019017532,0.018955486,0.015713124,0.020868108,0.03655413,0.029589212
GRB2,0.022707257,0.008489268,-0.06813524,-0.011175535,-0.09545902,-0.078195944,-0.015888052,-0.06539504,-0.05617557,0.05984988,0.021207614,-0.021041868,0.039545298,-0.059347708,-0.04560329,-0.039053023,-0.018296096,0.037379798,-0.0067105186,0.042435724,0.035984587,-0.0017078858,-0.0023388737,-0.031926148,0.060058,-0.08552419,-0.02039218,-0.016279489,-0.025816498,-0.0153312115,0.044201925,-0.04009558,0.09995788,-0.052333094,0.05892658,-0.014788752,0.020447377,0.018182397,-0.0066235494,-0.06701418,0.037950255,7.8807796e-05,-0.014131684,-0.04184306,-0.034475088,-0.024894817,0.08632477,-0.055434786,0.018951086,-0.08363814,-0.06244595,0.09556145,0.027057964,0.07801515,-0.03171109,0.07972862,0.024141138,-0.024119247,-0.036353506,-0.009760145,-0.062997535,-0.043493517,0.009510094,0.040526688,-0.032415185,0.028744873,0.004023876,0.007717965,0.08253841,-0.009149426
RIC1,-0.057322524,-0.030427814,0.048601627,0.026325172,-0.003426172,1.4666148e-05,-0.042928018,0.06622447,0.072965086,-0.043382153,-0.032265425,-0.06790747,0.059721194,0.0013924831,0.0121245505,-0.0147690205,-0.033271465,0.03787348,-0.05277866,0.078446895,0.06461131,-0.05761795,0.033479277,-0.0054668733,0.013521355,0.08302455,-0.072637156,0.027362196,0.07476519,-0.085254565,-0.018726952,-0.0016387064,0.043311298,-0.07549164,-0.010843017,-0.018872807,0.042087596,0.041174322,0.026869234,0.010548017,-0.0685282,0.041970592,0.07236013,-0.018933589,0.062374804,-0.037126828,-0.06834967,0.0146901,0.030372405,-0.05129672,0.009439311,0.023198823,0.0051106825,0.016829416,-0.03633361,-0.029580614,0.016630985,-0.0061627445,0.039998736,0.012383992,-0.025636885,-0.020812389,-0.052663982,0.058648705,-0.040077593,-0.012589853,-0.044965066,-0.057418384,0.04098113,-0.031730548
TOE1,0.009850932,-0.013212256,0.014659302,0.02177335,-0.05637466,0.020626321,-0.027297897,0.09559329,-0.09131342,0.04105918,-0.07445925,-0.051482473,-0.0066934074,0.07464983,0.09256257,0.065159,0.0044754636,-0.09952161,0.09681006,-0.050425574,-0.039184578,0.054460164,-0.07221603,0.09456069,-0.01863271,0.02409287,-0.05454544,0.04156571,0.024658851,0.0598914,-0.050216652,-0.045529746,0.009444349,0.020404903,-0.025771482,-0.05747301,-0.032738987,-0.038344488,-0.08143489,0.006871636,0.034132466,0.0486576,0.008929924,0.038423765,0.081655666,-0.016751926,-0.01791414,0.074826464,-0.0110525675,0.03830671,-0.041881077,0.046732254,0.1189523,-0.047358155,-0.0848175,-0.02858814,-0.054981064,0.03875577,0.024847357,0.043567274,0.020100579,0.055852618,0.0778083,-0.010984863,-0.055108592,0.034312863,0.032316063,-0.028656766,0.03975679,0.030549116
STAG2,0.03420639,-0.052393187,0.022416506,-0.007963186,0.049903102,-0.029256064,-0.06091215,0.061940834,0.07433116,0.041005008,0.025438912,0.008742945,0.012050121,0.06020532,0.09369058,0.020604454,0.08206349,-0.057858173,0.08733473,0.04812079,0.018265434,-0.048671667,-0.07167186,-0.013285133,-0.08361158,-0.013198762,-0.0077412245,-0.028059624,-0.020962536,-0.0718575,-0.0051925736,-0.053501442,0.029587362,0.008111995,-0.065106645,-0.039365195,-0.052089993,0.055528097,-0.005512473,0.04541625,-0.019693356,-0.03797,-0.05924633,0.04843109,-0.03465252,0.023560556,-0.016211534,-0.07020625,-0.027080541,0.08351859,0.036319483,0.039775535,-0.036093894,-0.06921124,0.010858827,0.023587627,-0.0031501467,-0.074997805,0.04430113,-0.04638013,-0.037653323,0.024169426,0.014342757,0.054687355,0.03736414,0.031021262,8.763506e-05,0.052884612,0.0533013,0.038274277
EFR3A,-0.068854846,0.025061043,0.029736895,-0.04796286,-0.044402152,0.035297286,-0.02023808,0.0056965216,-0.07610253,-0.06560737,0.019735565,0.012830457,-0.041994333,-0.011427765,-0.07730101,0.012512778,-0.055953056,-0.06402982,0.03553273,-9.248625e-05,0.08981134,-0.07783864,0.04302095,0.047462787,-0.058153417,-0.018072367,-0.09410747,-0.008856003,0.013058377,-0.02126775,-0.018307284,0.058852267,-0.027805042,0.05222932,0.028776482,0.07313726,-0.019924508,-0.044276506,0.008940865,0.018768381,-0.01804113,0.042580713,-0.037321918,0.043294657,0.07645856,-0.032857794,-0.019915389,-0.10333925,-0.017494587,0.06525947,0.033759307,-0.019664686,0.03428258,-0.015904594,0.008408407,0.05159565,0.044987652,0.024514083,-0.0013040854,0.018750837,0.08496808,0.019871041,-0.032769196,0.04196968,0.045681313,0.041620422,0.06488641,0.07104488,0.04306633,0.053868175
ITGAV,0.006965984,-0.009158188,-0.037532542,0.042408522,0.04538338,-0.0053513125,0.049012568,-0.057801675,0.06637235,-0.017296191,-0.07115588,0.054198522,0.005443928,0.085977204,0.01989941,-0.015618567,0.028763438,0.0286162,0.021397687,0.064304434,0.020370107,-0.025330411,0.03740522,-0.01037493,0.07836133,-0.061383944,0.061492894,-0.06970639,0.051458176,-0.07811136,-0.03195741,0.036455974,-0.040949423,-0.06653577,-0.046139818,0.068966456,0.004114828,0.03214785,0.02374142,0.0023397277,-0.049887378,0.009791077,-0.06446745,0.025280377,-0.06363017,0.025242245,0.02004086,-0.026211696,0.038499076,-0.06601579,0.07290225,-0.025198834,-0.05480487,-0.06928231,0.0016823277,-0.03609368,-0.039636023,-0.05068069,0.007049067,-0.014612416,0.03403973,-0.05248406,0.08189858,0.010225365,-0.039690256,-0.04504285,-0.03949875,-0.031760544,0.046359286,-0.046964936
BRAT1,-0.038580503,-0.034920342,0.023574166,-0.012263822,-0.052856475,0.025268955,-0.04888315,-0.07172321,-0.04281602,-0.055448692,0.011065593,0.06451395,0.010798763,-0.04227825,-0.03255854,0.03165857,-0.049872693,0.048011955,-0.029069211,0.00571564,-0.053619243,0.03213468,-0.008921462,-0.013349682,0.046949163,0.05063592,0.06620181,0.06893294,-0.00628488,-0.055300668,-0.038042456,-0.062095717,0.04138462,0.042916957,0.06639614,0.0038149834,0.02950148,0.042738978,0.027302478,-0.09907275,0.05956902,0.04025082,0.04140581,-0.06274677,-0.0021974146,-0.011432568,0.033723127,-0.036416523,-0.005582902,0.013139579,0.010230403,0.007778383,0.0052729608,-0.04770611,-0.05800428,-0.0088841785,-0.04478638,0.041521255,-0.051736422,-0.06788628,-0.018489983,-0.011213567,0.068003684,0.048765816,-0.041668765,-0.008472386,0.018864013,0.022772014,-0.038669825,0.08535929
ENO1,0.03418984,-0.030325752,-0.024326477,0.029598366,-0.019771865,0.04153542,0.038217463,0.04509607,-0.037843168,0.016497234,0.062340096,-0.022156434,0.0075774584,-0.039038613,-0.03255064,-0.037761576,0.040585347,0.042238943,-0.027640155,-0.040361676,0.014408075,0.05469113,-0.03710831,0.01634959,-0.04024757,-0.027424917,0.005666319,0.021431569,0.010566954,0.020455852,-0.028124064,-0.049916737,0.02693754,-0.007787967,-0.031307258,-0.0017563222,-0.026549002,0.029641645,-0.052002918,0.05885483,0.020715617,-0.05547332,0.03196055,0.07545906,-0.02504145,-0.038203135,-0.046787526,0.055954948,0.029875038,0.047000755,0.003719921,-0.00965383,-0.010801842,0.026423207,0.061289903,-0.0685737,0.046869427,-0.045341164,-0.053091347,0.05439332,0.026845831,-0.011574473,0.033405017,0.028297525,0.054704405,0.051076025,-0.045482595,-0.029804176,0.0013282377,-0.014552351
FERMT2,-0.02914828,0.028044984,-0.01085746,0.00072252355,0.014985,-0.068734996,0.06498546,-0.03710287,-0.00023652615,0.054080132,0.026509462,0.030150635,-0.07695516,0.0012467476,-0.020619802,-0.0019670005,-0.033520065,-0.027949005,-0.0032269682,0.040456504,0.071685985,-0.05299458,0.09493312,-0.047047485,0.062013444,-0.032827858,-0.022179134,-0.060526937,-0.047712076,-0.03627043,0.051898237,-0.09356095,-0.021049654,-0.046952877,-0.017679583,-0.074040405,0.04420515,-0.041982166,-0.027955586,0.06261087,-0.05562636,0.030855492,-0.0758698,-0.006643122,-0.044410057,0.057272773,-0.040395413,0.0013534167,-0.06799528,-0.035728194,0.02376022,0.032788243,-0.04030475,0.022211917,0.008125005,-0.022461608,0.04509384,0.010280622,-0.022960018,0.030889267,-0.07330682,-0.0035148992,0.016830854,0.046657655,0.03805888,-0.0693997,-0.008887431,-0.014394066,0.021560404,0.07079845
NHLRC2,0.047140848,-0.020709263,-0.024869993,-0.005445678,-0.022959517,-0.008254372,0.022187801,0.035609793,0.029483212,-0.0002180796,-0.0129518155,0.038905293,0.043062586,-0.047484506,-0.044136997,0.057730976,-0.024600158,-0.022672692,-0.02802794,0.012977514,-0.03649197,0.015900975,-0.03208034,-0.010534136,-0.042329777,-0.012729348,0.059764225,-0.055726252,0.09137283,0.019043855,0.041500606,0.004242808,-0.019697119,-0.0013902903,-0.07225012,0.057366546,-0.021783058,0.058380995,-0.055625398,-0.046032302,-0.0041903853,-0.038028833,-0.057031434,-0.0021951492,0.038294487,-0.012705773,-0.037366442,-0.028439786,-0.06676652,-0.028727751,-0.023217062,-0.073519856,-0.01790402,-0.047343872,0.031273324,-0.021862965,0.0037174576,0.058129422,0.0029479088,0.0414552,0.0026854065,0.016404966,-0.04946722,0.05128178,-0.049728855,-0.033073608,0.06457035,-0.00021266729,-0.07017275,-0.074425034
NXT1,0.030341662,0.01712501,-0.0040541696,0.016342025,-0.059313968,0.015916869,-0.055839337,0.021332674,-0.034015045,0.06848516,-0.052617997,-0.013054483,0.028788451,0.041735888,-0.010550222,0.030184757,0.06665872,-0.004819044,0.04420849,0.0028052053,0.03966862,-0.05227152,0.068724275,0.069338374,0.080025285,0.010481601,0.07292722,0.027126715,-0.10612356,0.068065144,0.051957835,0.028850066,0.04953239,-0.003826774,-0.022851383,-0.06633285,0.024692304,0.010323026,-0.04595673,-0.051036716,-0.036136866,0.015703326,0.0430157,-0.042845525,0.036639884,0.061355744,-0.053423256,0.0693443,0.05358899,-0.014749015,-0.0029035737,0.041749116,0.067895345,0.09612758,0.041798875,-0.003485217,0.05385554,0.037787307,-0.002974158,0.032902922,0.06955307,0.043338712,-0.122683,0.06117041,-0.021007374,0.06185474,0.074355505,-0.045015715,0.015988342,0.047266364
STX4,0.022316737,0.05238184,-0.041047063,0.07302827,-0.04403722,-0.040327378,0.048236277,0.06059167,0.06271628,-0.038066305,-0.05450289,-0.028185874,-0.011738991,-0.06927285,-0.026746241,-0.017030021,0.058982074,-0.044171125,-0.059449606,-0.053051963,-0.03238048,-0.0052909385,-0.014114733,0.05928788,-0.029984273,0.02283414,0.050315358,0.011799687,0.05168161,-0.012930719,-0.030271983,-0.027044417,0.0653067,-0.051344078,0.02996253,-0.064146355,-0.037809387,0.06316857,-0.012256792,0.03299438,0.040132556,-0.09163766,-0.07030734,0.0491189,0.0012385589,-0.041197214,-0.061573386,0.07423431,-0.004726499,0.022294892,-0.023497788,-0.03471211,0.016586931,-0.042809512,-0.00565291,-0.012221169,-0.0019431493,-0.027420776,-0.05579863,-0.03168654,0.032884296,-0.056721184,-0.03707173,-0.02230554,-0.029862106,0.042611245,-0.041291542,-0.050989132,0.10878939,0.04482143
DNAJC11,0.056786835,0.054495133,-0.06529245,0.03208577,-0.02784703,0.047027968,0.071518846,0.015531919,-0.01314251,0.047774296,0.050986458,0.009635031,-0.057955984,0.017165972,-0.014502462,-0.015207406,-0.012857394,0.01376192,0.08703547,0.072723985,0.04580421,-0.08771719,-0.07991377,0.10001248,0.005099553,-0.03541521,-0.0069834357,-0.052578967,0.016752502,-0.007065728,0.025628066,0.015726851,0.051631935,0.031450666,0.0056170076,0.023036547,-0.033703357,-0.026033176,-0.080201544,0.05136779,0.06452321,-0.05748499,0.01984135,0.06956503,0.03888741,-0.0063497424,-0.040243305,-0.06454034,0.04054176,0.0041646445,0.0068728602,0.07818084,0.033899892,-0.03482123,-0.020657435,0.046981853,-0.0523506,-0.031148992,-0.0070942487,0.07106012,0.02276955,-0.015784591,0.026569268,-0.01071526,-0.071373805,0.020561913,0.010922062,0.030295722,0.0017201725,0.04371213
MBTPS1,0.10999366,0.06761673,-0.045612913,-0.013905721,0.065017894,-0.057400066,-0.053809855,-0.03254028,-0.04870723,-0.035546035,0.046966065,0.02795491,0.0912999,-0.0074779713,-0.0658475,-0.011014519,0.046703875,-0.022079857,-0.02070281,0.01993316,-0.061616268,0.05693444,0.06886409,0.0687862,-0.057840746,0.07093139,-0.009731183,-0.02446718,0.006414003,-0.019144807,0.009372841,0.06576965,-0.04246125,0.043970667,0.053048655,0.006537821,0.06135307,0.062183112,-0.037346344,-0.050390437,0.013446894,-0.035238434,0.021865243,0.08102585,-0.033021115,0.0030258093,0.018228844,0.007509456,-0.032008234,-0.05261,0.001113915,-0.04487203,0.0641454,-0.0480475,0.055576816,0.02485221,-0.048641764,0.054836176,0.023703951,0.030557452,0.00095399853,-0.041178636,0.00692339,0.07657703,0.02758231,0.02048464,0.06935477,0.026669895,-0.0019761631,0.008481197
CFLAR,0.03869359,0.007822293,0.07020674,-0.011391667,0.05576139,0.0071427254,-0.025671942,-0.015305544,0.019633591,-0.032418214,0.04933393,-0.068508774,0.0052880687,0.038918726,-0.044618644,-0.0116509665,-0.054409392,0.084698215,0.032683007,0.005524342,0.02613577,0.00932373,-0.015328882,0.033577815,-0.00496189,0.039249867,0.0060536074,-0.033736445,-0.018320616,0.009023601,0.05665907,0.008075253,-0.040140636,-0.05508301,0.021903055,-0.008531783,0.028101046,0.03581711,0.018437812,-0.046966,-0.06240366,-0.035933927,0.04093632,0.021541892,0.081426576,0.07864735,0.059927754,0.036706112,-0.021804426,-0.016841857,0.049685866,-0.06373769,0.06592646,0.03884555,0.03788531,-0.024939178,-0.09012662,-0.03385305,0.033617932,-0.05627718,0.06128388,0.076116584,-0.03722882,-0.035719726,0.08890196,0.0012325692,0.09034447,-0.021707565,0.051953726,0.0035536638
SNAP23,-0.05971119,-0.0822246,-0.06948171,0.0502394,0.012771703,0.03412274,0.020500584,-0.0063861087,0.06045718,-0.06601855,0.012211341,0.035758883,0.046576515,0.019684535,-0.11271488,0.044177853,0.03390615,0.049184334,-0.008717317,-0.07786205,-0.07246773,0.019446757,-0.06444943,0.040871687,-0.07225426,-0.108248726,-0.015155853,-0.07483033,0.03364888,-0.045732036,-0.044156194,0.040243383,-0.096758366,0.07481033,0.11855075,-0.013519712,0.05854663,-0.04565551,-0.026066491,-0.044701714,0.030923927,-0.042649917,0.058035236,-0.04433947,0.01192101,0.0069833524,-0.0031116935,0.03451014,-0.035900127,0.00488777,-0.034415986,-0.03890882,0.030349901,-0.008240353,-0.023259368,-0.008999173,0.09152895,-0.038118713,-0.046234835,-0.023464637,0.026915224,0.017649788,-0.029438978,-0.07548406,0.032382283,-0.066777565,0.08431535,0.07678369,0.060095154,-0.05132473
VRK1,0.030984871,0.01178891,0.009589654,0.0392353,0.058415726,0.015674012,-0.0670136,-0.008433077,-0.02797698,0.04117155,-0.017069627,-0.022674622,-0.0044543566,0.035357565,0.013302319,0.057971958,-0.06396446,-0.006549662,-0.046635,0.006885247,-0.053253014,-0.054652918,0.08374963,0.078474306,0.021266546,0.02392969,0.022831202,0.008211812,-0.024206363,-0.0077435873,-0.0633775,-0.039414503,0.06545518,-0.05326237,0.004771222,-0.029947914,-0.023295043,-0.017177934,0.07901376,0.024813684,0.04455118,0.010076166,0.06008437,-0.0011784834,0.04066533,0.038677745,-0.011318972,-0.02164843,-0.028357092,0.03614027,-0.0616796,-0.035241883,-0.045196947,0.024973908,-0.0049171424,-0.033736166,-0.06340272,0.059958987,-0.026820472,-0.030604402,0.019497309,0.05451322,-0.03251172,-0.012787449,0.013259179,0.024547648,-0.051996797,-0.0019131299,0.021039024,0.07422583
WDR73,-0.013689926,-0.038581587,0.07864263,0.1086963,0.0029840535,0.0010982236,0.03790488,-0.043579947,-0.01842431,0.016193189,-0.055837147,-0.082663484,-0.018543167,0.020216212,-0.048345067,0.076419674,0.036034424,-0.05533853,0.049147226,0.03492666,-0.0042017596,0.038218237,0.040802184,-0.01330245,-0.022763085,-0.018985461,0.05122826,-0.0065590274,-0.015894152,-0.01962575,-0.0001700884,-0.03161885,0.00079883565,-0.07100651,-0.045831554,0.08854034,0.058497064,-0.024741828,-0.047056835,-0.09114974,0.037528027,-0.018838951,0.012529693,0.060811665,0.0095828045,0.04145818,0.063374124,-0.0075806626,0.03639191,0.05246712,-0.01587952,-0.01735326,-0.020412335,-0.06370457,0.06565066,-0.0035317894,0.011657663,-0.06723594,0.06648976,0.03754172,0.06991486,0.012000171,0.06386599,0.05431523,-0.088746905,0.09061717,-0.035717703,0.009395699,0.0056912224,0.071695976
EP300,0.015184664,-0.06513901,-0.06369152,-0.039455023,-0.018902047,0.051736496,-0.08942824,0.006157523,0.018795218,-0.109522335,0.046318557,-0.070462875,0.05139357,-0.07050941,0.0050947475,0.026514333,0.05860915,-0.042931587,0.007741878,-0.07194476,0.09593207,0.024832819,-0.101935826,-0.013001564,-0.04012643,-0.057232823,-0.088182285,-0.013799804,0.06791794,0.048493724,-0.035688166,0.016148208,0.014043941,0.046807155,-0.008581926,-0.04907464,0.077426165,-0.014517833,0.040480606,-0.04252443,0.08546218,0.014988182,-0.07589975,-0.0034022047,-0.06490297,0.012577576,-0.09008133,-0.02617152,-0.060023855,0.065767474,-0.044402912,-0.012716237,0.048526987,-0.0014140276,0.004177112,-0.030058628,0.040755622,0.019484242,0.043169007,-0.035309006,-0.008078428,-0.03181105,0.0623985,-0.06772577,-0.0043669725,-0.03216897,-0.032171942,0.051272366,0.056359544,-0.06511234
PSMG1,0.056148607,0.05523754,0.004679868,-0.01804393,-0.048706334,0.038518336,0.058133014,-0.073948555,-0.05201179,-0.034308318,-0.013213601,-0.010225583,0.047904316,0.02883114,-0.095681004,-0.006912462,0.009204997,0.036484756,0.04785124,0.040802464,-0.004242611,-0.058800437,-0.003948239,-0.0031989557,0.0362645,0.030383945,-0.047582455,0.024158567,-0.023825794,0.020109758,0.044581734,-0.011988888,0.018806867,-0.07614048,0.023131216,-0.034732137,0.021778023,-0.048828464,0.114537396,0.07682859,-0.01024823,-0.005092145,0.035376646,0.040407833,-0.04137127,0.059822507,-0.0468842,0.04574584,-0.036003876,0.025697568,0.07656137,0.017611297,0.0416812,0.014811086,0.032968033,-0.059689857,-0.017695112,0.04511293,-0.06915638,0.0004928174,0.020941658,-0.0071046976,0.009948762,0.034869,0.07482491,-0.016345812,-0.043620028,-0.0238717,-0.04911527,0.034625463
MYH9,0.007897509,0.021482721,0.09549844,0.020817397,0.0032059106,-0.006194631,-0.028944604,-0.03000364,-0.02881732,-0.04336319,0.060150743,0.0076473164,-0.010394627,0.017092098,0.05362811,-0.009959992,-0.019737016,0.014668574,-0.011048928,-0.06591869,0.021122102,0.07667089,-0.00024003573,-0.07393868,0.025298404,0.048027072,-0.09581948,-0.061323844,0.06060727,-0.020849599,0.003269045,-0.0502605,-0.033733964,0.014078426,0.011675345,0.054436654,-0.07251075,0.049179263,0.009849392,-0.06187651,-0.0468339,0.049487885,0.0019044637,-0.016425185,0.03140049,-0.029126931,-0.045774356,-0.036717698,0.008894006,-0.016117673,0.043660652,0.046279673,0.044445608,0.040893897,0.03145467,0.041280154,0.0076890853,0.100398354,-0.05413432,0.042277094,0.0148637425,0.0021999017,-0.014622596,0.033399846,-0.07431694,-0.017401522,0.023089923,-0.0150460955,-0.01344413,-0.0067819348
ATP5ME,-0.07149362,0.0032312204,0.06853237,-0.071904615,0.003919478,0.023644652,0.022408385,-0.006056473,-0.043448284,-0.04146414,0.03429684,-0.044468336,-0.0023622212,-0.03464985,0.05136204,0.020516073,0.012917273,0.031510767,-0.05100277,-0.0058077495,-0.063598335,0.013071599,0.04548758,-0.0020950327,-0.036651004,-0.062609404,0.03534118,-0.0007095874,-0.016159777,0.008052956,0.035174195,0.0150573915,0.064560495,-0.007000018,0.04002635,-0.006522853,-0.08875595,-0.017071005,-0.041656747,0.07489516,-0.034838647,-0.038696993,-0.060657613,-0.10559513,-0.03854199,0.036312092,-0.008076728,-0.017158723,-0.049453586,0.008915192,-0.06386758,-0.030173967,-0.029227924,0.014406278,0.053208325,0.09971345,-0.04937165,0.00052562007,0.012839041,-0.044088494,0.036819216,0.019775854,-0.04102162,0.030636223,0.035288937,-0.03318725,-0.04103851,-0.066911556,0.023261994,-0.0008457347
MED24,0.07082005,0.015509797,-0.04986263,-0.08256197,-0.06494727,0.0017209313,-0.010161604,-0.031943236,-0.065215096,-0.022839967,-0.032356925,-0.07308011,-0.034676123,-0.039045405,-0.028062185,0.03576069,-0.026778944,-0.04143144,0.025848247,0.05253518,0.08107283,-0.060387865,-0.05232746,0.025172044,0.059655935,-0.029163985,-0.081661366,0.05374183,-0.049623314,0.030046165,-0.06536787,-0.046252258,-0.055420734,-0.004290138,-0.009249026,-0.064898916,-0.036933377,-0.04323392,-0.020799413,0.014856908,0.019428795,-0.05811775,-0.017618332,-0.0017981546,0.019189324,-0.060669523,-0.029824302,0.023401724,-0.08791313,-0.05469057,-0.047965743,-0.08915901,0.0015981054,-0.050424796,0.04883696,-0.03940285,0.08158029,-0.0077865743,-0.032461986,0.0022829706,0.07292098,-0.033507355,-0.025782835,0.052985806,-0.02402671,-0.033852298,0.040430214,-0.013001179,0.023021905,-0.10514796
EMC3,-0.07215558,-0.013268152,0.0013024608,0.09021043,0.08445396,0.033432677,0.029968793,0.017954385,0.037544344,-0.05425453,-0.03791183,-0.075283006,-0.009521652,-0.07666456,-0.0019266412,-0.021143261,0.015646517,0.031446204,-0.01662766,-0.05175325,0.09791645,0.008379183,-0.088067755,0.104389966,0.054570667,-0.014886038,-0.06073254,-0.033106033,0.018555772,-0.016868552,-0.0013386526,-0.04897462,-0.034776997,0.06512663,0.03292079,-0.0400995,-0.014607795,-0.047275428,0.0044316556,-0.025956731,0.014389234,-0.0069763004,0.037379626,-0.07188555,0.076657586,-0.08539301,0.060102977,0.037415206,-0.01918282,0.021612257,-0.015334514,0.02387909,-0.071519405,0.021477971,-0.006757681,-0.061304886,0.028521894,0.0114242025,0.07162607,0.03921782,-0.060428835,-0.033920035,-0.05179681,-0.035181955,0.09069632,-0.017160647,0.08256144,0.03502421,-0.019217383,0.06129104
LARS2,-0.02737148,0.042788383,-0.030610235,-0.009013118,0.0146612525,-0.0008056197,-0.061382353,-0.05802872,-0.027920976,0.07185321,0.0075081554,0.02075688,0.023324672,-0.076880604,-0.05585206,0.026045088,-0.0171898,-0.065466344,0.014849056,0.040194325,0.009332171,-0.0066176145,-0.08024562,0.035892807,-0.0064079054,0.012985886,-0.036002655,-0.01766714,0.017006245,-0.073590875,0.046220947,0.010943805,-0.05831248,-0.060839802,0.02714801,0.033293705,0.0042624525,0.026111163,0.024855178,-0.02939934,0.04835821,0.053177066,-0.007471497,0.01923015,0.035598464,0.014687474,0.05024471,-0.005888248,-0.03432152,-0.015116706,0.01005002,0.021849541,-0.00028438907,0.05505185,-0.07605121,-0.034715492,0.03369368,-0.05913163,-0.06900725,-0.020850005,-0.01732361,0.019955654,-0.082163855,-0.06009329,0.057305183,-0.020038694,0.027814033,-0.03377447,-0.05300807,-0.06448228
SCAP,-0.047630943,-0.037016522,0.0014014278,-0.026471762,0.04232238,-0.03138075,-0.007826029,0.067346826,0.035393782,-0.0371844,-0.041929524,-0.013777101,0.04977509,0.014283687,-0.0072317678,-0.03081758,-0.074638166,0.01717922,0.06883944,0.020575363,0.029790586,0.03485163,-0.04309965,-0.0022073581,0.0052102925,0.015937624,0.0684296,0.050861105,0.029728122,-0.035252336,0.010880703,0.042016506,0.07207752,-0.034968305,-0.0470431,-0.02625654,0.035122987,0.026785294,-0.024921974,-0.005118236,-0.033551745,0.03212422,0.0052566915,0.007849427,0.024994254,0.03086134,-0.0027887486,0.023102716,-0.033887662,0.0013786398,0.030223435,0.009139159,0.091482654,-0.07437168,0.004393616,0.04429501,0.017601442,-0.043714844,-0.009467696,0.069643945,0.006769626,-0.002392798,-0.015881239,0.038856763,0.058107577,0.04478707,0.022071512,-0.03669271,-0.040036142,0.009889383
MED12,0.047862273,-0.03523608,0.012905036,-0.03131207,-0.05712879,-0.0062219566,0.0332944,-0.023935009,0.035561334,-0.040854607,-0.02147418,0.08152596,0.07978805,-0.013833817,-0.057697374,0.04832778,0.014804476,0.054300934,-0.07912022,0.058763046,-0.017901437,0.038891897,0.02410776,0.033997867,0.042292252,-0.046007544,-0.06331905,-0.02130269,0.082190566,-0.004382456,-0.013898712,-0.06580533,0.020190878,0.05118104,-0.08345956,0.04300457,-0.013539378,-0.07892964,-0.033730086,0.011031089,-0.00859648,0.045494795,0.031069072,-0.0030697172,0.0106099695,0.07224854,-0.042410884,0.07653168,-0.021403227,-0.021730276,0.047364715,-0.10078845,-0.0068084374,0.02911779,-0.04790948,-0.08309889,-0.05478097,0.059903696,-0.044022553,0.045002054,0.0041744183,-0.027316196,-0.013564298,-0.03270924,0.01877032,0.020362118,0.029699732,-0.028303124,0.03820681,-0.048142202
TYMS,0.06470022,0.00042977376,-0.049958654,-0.023806961,-0.014101525,0.073487006,-0.011459856,-0.022472568,-0.019494185,0.0063654045,-0.051951658,0.008332141,-0.01197589,0.013576228,-0.031502567,0.017862987,0.02042332,0.045486227,-0.012786088,0.046118118,0.058435157,-0.039062165,-0.0418349,-0.008996098,0.011457168,-0.010891345,-0.004389056,-0.030084046,0.0231244,0.044302896,0.011988393,-0.013825,-0.032409914,0.021588212,0.01583331,0.007217775,0.0105311945,0.052226014,-0.026637565,0.070439585,-0.007632152,-0.07211423,-0.024171967,-0.03849511,-0.018391442,0.026683597,-0.036479566,-0.031857163,0.035196204,0.05617262,-0.019949162,-0.07081744,-0.043234162,0.06404354,0.0099960035,0.056259632,0.026982307,-0.0033873091,-0.06973132,-0.02711137,-0.046551075,-0.0023729196,-0.04456393,-0.061752014,0.0980545,0.06505835,-0.0022430606,0.014503205,0.024032084,-0.046059694
TXNRD1,0.07303132,0.017635541,-0.041913822,0.08440546,0.030864066,-0.028346648,0.0034024492,0.004781952,-0.01246343,0.0154917175,0.042107224,0.002065311,0.008908288,-0.10057151,-0.033561923,-0.0039481223,0.04828082,-0.06493792,0.0023708506,0.056853436,-0.016300008,0.057031106,-0.0720691,-0.0026460355,0.0650376,0.07644125,-0.06508692,0.06276363,-0.023893679,-0.0023740118,0.00867925,0.060745068,-0.028077297,0.030003434,-0.04827054,0.064899,0.043400023,-0.020034561,0.0060424763,-0.0023633249,-0.0025428506,-0.048991337,0.020750828,-0.02708722,-0.023972647,-0.07358004,-0.081135124,0.08034637,-0.03217437,-0.05963319,0.058042902,-0.04127816,0.042797774,0.10336535,-0.0051765325,-0.05555952,0.00504689,-0.010220882,0.04293013,-0.032821316,-0.009849293,0.06286316,-0.080023415,0.0494847,-0.006480793,-0.0037765694,0.010697953,0.017827375,0.06949448,0.05425016
CDIPT,-0.04333473,0.005458727,0.010504313,0.028375939,-0.007902355,-0.028782131,-0.012978706,0.05135447,-0.0060342667,-0.052766405,0.06986058,-0.057921328,0.07236322,-0.0038593304,-0.009860052,-0.010677207,-0.053557646,-0.06174493,0.015551327,0.033350267,0.02937013,-0.05948929,-0.052932378,0.0028761937,-0.013758759,-0.05549373,-0.05613121,0.083407655,0.07269735,0.041210704,0.03879076,0.08059496,-0.005134499,0.042371757,0.033440333,0.06076197,-0.015230951,0.057655178,-0.043510195,0.042018514,-0.065076604,-0.04591519,-0.009012941,0.022476157,-0.027038025,-0.0064993952,0.08591458,0.0018629634,-0.061234225,-0.055100136,0.045943722,-0.04732367,0.045503687,-0.03322565,0.012378875,-0.06950759,0.0014501023,0.039959587,-0.0017366209,-0.006065434,0.0020374253,-0.0036082177,0.023402445,0.04425614,-0.021746708,0.011654966,0.01770594,-0.026419485,-0.0069713523,0.0528337
PTK2,0.020935915,-0.031808726,0.017554758,-0.0561981,0.011242985,0.043197658,-0.022422899,-0.08392001,0.020324737,0.015755842,0.022320366,0.0206711,-0.022534816,0.046322703,-0.024401568,0.056407265,0.012093178,-0.020207053,0.0025440047,0.022681376,0.0075299377,-0.0414407,0.013210181,0.0025017348,0.005342079,-0.054667182,0.062369954,0.0194605,0.086610205,0.0052144835,-0.05150752,-0.027788958,0.0040358803,-0.04733062,-0.03537445,0.023361444,0.072871424,-0.049926776,0.060629934,0.0059956,0.033779453,-0.08250204,-0.032394152,-0.043663535,0.06514729,0.019323327,0.026927056,-0.09399089,0.029301973,0.030028323,0.0033943646,-0.003965304,-0.02740843,-0.040970586,-0.008076473,-0.0864488,0.08777767,0.02087143,-0.053823963,-0.047695808,-0.042083863,0.020396745,0.0004149099,-0.052469183,0.040005505,-0.016789192,-0.0038074513,0.031097533,0.004816587,0.042229436
RARS2,0.039245203,-0.05016702,0.043454558,0.049304772,0.027728384,-0.0006750973,-0.043329563,0.0616878,0.01615938,0.014751532,0.015999243,0.0011558668,-0.022569744,-0.06830658,0.035237703,-0.05361734,-0.055840153,-0.034209095,0.045656815,-0.02015931,-0.037983764,0.017818308,-0.0071698283,0.045225434,0.079569586,0.022000866,0.077826776,-0.034623556,0.02642246,-0.021938903,0.04577865,-0.06995667,0.02944337,0.008849325,0.033019256,0.08209158,-0.056901883,-0.056489225,-0.078389436,-0.076319225,-0.047416773,-0.031974588,-0.0032685143,0.050643742,-0.012787139,0.06666831,0.041205134,0.04667925,-0.022898188,-0.051347397,0.045928553,0.00909803,0.046447515,-0.02588814,-0.035967,0.02981612,0.058845986,-0.012078565,-0.084446035,0.08215648,0.008230221,-0.039681695,-0.07736068,0.037852816,-0.012351493,0.052186158,0.0069783074,-0.084493555,0.0364429,0.022103019
PSTK,-0.028287947,0.021854714,-0.0254582,-0.06790615,-0.005250645,0.050207987,0.03074952,-0.05089204,0.027118467,-0.080076076,-0.0063175648,0.02057763,-0.036672056,-0.0040443223,-0.0008419743,-0.011186821,-0.03947627,-0.013431679,0.027912296,-0.0183348,-0.06204656,0.053782195,-0.033094015,-0.072899275,0.09029402,0.030851994,0.014953562,-0.078992315,-0.023382364,-0.05526498,-0.018234473,0.08075999,-0.029558973,-0.06559388,0.011533738,-0.039332595,-0.031921607,-0.0076304977,0.0036736182,0.08938458,0.04248956,0.011965034,-0.066478066,0.05794444,-0.023957616,-0.06018894,-0.050164618,0.028690644,-0.038327903,-0.07829341,0.061242636,-0.035368755,-0.012077785,0.017121809,-0.080506116,0.021183483,0.060003743,-0.043868937,0.035996843,0.0029854537,-0.05279213,-0.008927517,0.08954122,-0.067048185,0.067498304,-0.035904977,-0.032534063,-0.0751506,-0.04423717,-0.05546518
HSD17B10,0.051465403,0.035672802,-0.069889866,0.075304925,-0.05499342,-0.03210589,-0.031684715,-0.004410821,-0.019608093,-0.021264153,0.053680956,-0.089361995,0.004093271,-0.063234136,0.02758174,-0.06737818,-0.08067091,0.057486713,0.0057566334,0.013919707,-0.006189054,-0.0021290611,0.052279767,-0.07024752,0.044012625,0.02913441,0.018718116,0.0012949553,0.030388545,0.016607685,0.014618974,-0.038698647,0.00036922342,0.03314934,-0.021525081,0.015020535,-0.042642664,0.017225446,0.07348981,-0.039894175,0.05284311,-0.08142337,-0.06185434,0.0016584948,-0.043209504,0.0073347846,0.05373752,0.04104657,0.015578739,-0.005464991,-0.030280888,0.026872663,-0.04422402,0.040273976,-0.010038107,-0.011449525,-0.023928693,-0.04335223,-0.056859523,0.008617597,0.015393566,-0.050121218,-0.024195774,-0.042344134,0.046126902,-0.03576613,0.032390423,0.024084382,0.024116244,-0.071564995
UMPS,-0.011699749,-0.00895223,0.041701447,0.07115566,0.029098667,-0.046608094,0.063629225,0.026685992,-0.03154463,0.018826056,-0.060429115,-0.025802016,0.03604555,0.041959938,-0.00082448707,0.03637779,0.04342063,-0.09393695,-0.061950367,-0.020368502,0.015618101,-0.016555874,-0.043912455,0.0027959913,0.0008971659,0.03895358,0.002642686,-0.009181408,0.04817836,0.07928609,-0.032817923,-0.008211964,-0.0047115497,-0.053969238,-0.02320275,-0.09011764,-0.06830723,-0.04911363,-0.018842064,0.0094351,0.02227207,0.06798811,0.045100156,-0.08532619,-0.028303443,0.0173432,0.007495483,0.03700429,-0.032980714,-0.019526135,0.0072807167,0.0028728654,-0.0059592407,-0.049398907,-0.04833716,-0.041981313,-0.06808653,0.044425763,0.0076490315,0.02938497,-0.030352222,-0.047431245,0.004451414,0.029391186,0.02008492,0.020469937,-0.045371294,-0.020469248,0.006064706,-0.028097814
UBIAD1,0.0273722,0.05067696,0.021127623,-0.018169213,-0.010585991,0.019670498,-0.047973298,0.050344773,-0.019969355,-0.033273377,0.008507129,0.026476081,-0.047964644,-0.016977714,-0.026750691,-0.05403607,0.03943311,0.0021020162,-0.07522172,0.038029786,-0.048359282,0.02870205,0.03810867,-0.08357201,-0.012172915,0.0011511085,0.0146017745,0.06724668,-0.011169891,0.05057382,0.028285023,-0.0705926,0.0062147104,-0.044906233,-0.014676289,0.021834945,0.0064525073,-0.047532443,-0.016313894,0.009974568,0.04749352,0.039748814,0.019010052,0.062383775,-0.075677544,0.04461226,-0.008347352,0.042308267,0.004919927,-0.0222057,0.071170695,0.035428055,0.054916777,-0.07048998,0.027132448,-0.06968701,0.040038936,0.0030114583,-0.029844543,-0.041469224,0.03920756,0.010387578,0.07214776,-0.028195182,0.07828143,-0.05188607,0.0121930195,-0.08478743,0.055621356,0.04331214
MICOS10,-0.029620972,0.0075301374,-0.06545337,0.022815675,0.006784302,-0.02466633,0.0053988583,-0.041519977,-0.051103365,0.042218912,0.0035947023,-0.046596855,-0.01253169,0.039287064,0.009210359,-0.051056974,-0.06399575,-0.065641485,0.040051192,-0.01787562,0.08194806,-0.04015251,-0.02924901,0.034888458,0.04534335,-0.007891073,-0.02672653,0.007885544,0.008925816,0.0053941254,-0.05663939,-0.0033210802,0.026840357,-0.011330876,-0.016152775,-0.02743436,-0.0017548007,-0.026558762,-0.06439524,0.014217781,-0.062558256,0.052998133,-0.052541334,-0.030578721,0.03722814,0.045152076,0.03012854,0.010551853,-0.025041442,0.027655508,0.040288348,0.061285723,-0.08127835,-0.0095836315,0.053717244,0.09474327,0.04270641,0.0076392633,-0.016573066,0.014422704,-0.045939434,-0.015833981,-0.042145055,0.018236171,0.0675106,0.009606292,-0.016700765,-0.046238057,0.057774827,0.04748455
PPA2,0.03931518,0.0011208567,-0.051948622,0.050840866,0.074156284,-0.0016510567,0.016873175,0.055186175,-0.0018876244,0.026934,0.011143224,0.018239776,-0.023178518,0.036509678,-0.07198962,-0.031184567,0.049490646,-0.013415951,-0.045293085,-0.02374699,-0.012608554,-0.07339963,-0.04098003,-0.07893172,-0.05341437,0.055459093,0.033725347,-0.07782203,-0.04434059,-0.0116664255,-0.0057108495,-0.04403709,0.013316892,0.013993821,0.07780527,0.017438537,0.012117892,0.011174017,-0.013934875,0.0045070117,0.014768548,0.042202167,0.008781825,0.0038837027,-0.074319385,0.02795606,0.06601623,-0.018567909,-0.04032829,0.011339403,-0.07401376,-0.09200297,0.02443349,0.03777858,-0.020515922,-0.013572533,-0.022164613,-0.121084936,-0.033218842,-0.04197935,-0.004793114,-0.07490482,-0.081503555,0.02570052,0.0012388957,0.018621577,0.045486707,-0.06060492,-0.01099018,-0.009550824
MED1,-0.050717633,-0.021354066,-0.05734645,0.0020121932,0.067349724,0.038287528,-0.02932777,-0.0051352773,0.09050886,0.0073759328,-0.0027856936,-0.068353765,-0.004594426,-0.046778873,-0.025784336,0.06654854,-0.011294965,0.008135112,0.0075553013,-0.012756409,0.021297937,0.086122416,-0.060569506,-0.04024327,-0.039245825,0.017822653,0.004456749,-0.04849309,-0.014529225,0.0011199008,-0.08726402,-0.0050346497,-0.089815594,-0.070180096,0.04829601,0.00108906,0.011884383,0.018173814,0.060664777,-0.0097955875,0.0104555255,-0.03151059,0.04088114,0.019282006,-0.042627823,0.00768649,-0.021647295,-0.055446386,0.014927403,0.020772493,-0.028286971,0.063860126,0.027308132,-0.013925626,0.062891945,-0.002427906,-0.0026961581,0.034862492,0.07773595,-0.026329245,0.018012414,0.05787222,0.02437546,0.008065156,0.09522379,0.008846494,-0.009374238,-0.009303764,-0.017811105,-0.03480552
MYBL2,0.023128785,-0.012376089,0.0300322,0.061915655,0.042665835,0.03799341,0.023168867,-0.010751802,0.002064847,-0.054541484,0.0037568037,-0.096370116,0.055374373,0.049255326,0.028207747,0.03926291,0.05412413,0.066793114,0.0685933,0.042470574,0.06706769,0.057905816,-0.024445819,-0.01776608,0.018438743,0.0028870213,-0.033129983,-0.0029956235,0.0030707922,-0.054906923,-0.05455414,-0.047401544,-0.03777064,-0.035175975,-0.05770406,0.015872912,0.022972785,0.0006888042,0.07838681,0.03574931,-0.01047637,-0.021522809,-0.00487391,0.02654018,0.07848828,0.0871399,0.07217814,0.008885813,-0.07009159,0.025143445,0.009343982,-0.03501233,0.050867002,0.021082286,0.053166524,0.025660148,-0.0678383,0.024804207,-0.02551634,-0.050295435,-0.027432872,-0.047918618,0.03872764,-0.0287722,-0.0036990612,0.08266329,0.09901279,0.06416064,-0.0142801115,-0.06490688
UFM1,-0.019743193,0.046034288,-0.000640387,-0.0013991792,-0.057496518,0.04542911,0.009604207,-0.032590114,-0.017580012,0.04363593,0.060917053,0.06889917,0.003817554,-0.01547387,-0.01303196,0.011851554,0.06024032,-0.0001747442,-0.03555613,-0.0053574466,0.0008762584,-0.025464375,0.035226837,0.06602984,0.054651577,0.013730701,-0.016009254,-0.043558296,-0.0074891727,-0.057804607,0.060772326,-0.039555624,-0.021593504,0.01941185,0.03240519,-0.036222745,-0.08456124,-0.0387165,0.0797023,0.03226556,-0.044743486,0.043874394,-0.06578095,0.09187314,-0.06814761,-0.06749827,0.036678255,-0.05924637,0.052295025,0.04541161,-0.010508975,0.014004609,-0.029783899,-0.064913586,-0.0689842,0.029374184,-0.063231416,0.041206088,0.003220391,-0.027927056,0.056940604,-0.0014631258,-2.310055e-05,0.017436232,0.0017349302,-0.029326063,-0.05899531,0.04764864,0.0018187577,-0.06877413
ADSS2,-0.04797723,0.0165588,0.024258977,-0.03364612,0.05301389,0.020395506,0.021325583,3.3276803e-05,-0.04623975,0.00887572,0.051490374,0.09972819,-0.027001644,0.04407012,-0.0506605,0.07370863,-0.0507466,-0.010445502,0.08642852,-0.054882962,-0.0018948467,-0.055483207,0.06299345,0.044545215,-0.015150615,0.07227246,-0.03837686,-0.028036527,0.021697994,-0.043647368,-0.11262101,0.072676845,0.006446817,-0.015778003,0.074520096,-0.019881433,0.033597272,0.040207397,-0.009688074,0.02969286,-0.0842189,0.00895286,-0.042308014,0.0099353315,0.07409282,-0.03103099,-0.016345177,-0.0021589815,0.014636166,-0.025161821,-0.05783766,0.008093343,-0.07287035,0.012270458,0.062493663,0.041858617,0.04636671,0.039754685,0.023687262,0.01918367,0.023209957,0.02111552,0.03883527,0.014334751,0.045498345,0.013051835,-0.0060096537,-0.019024156,0.093943566,0.028172547
MBTPS2,0.071936645,0.05867169,0.011856331,0.021828158,0.010551794,-0.015590488,0.0064702244,0.019301513,-0.032779068,-0.00034270206,0.047626946,0.07347732,0.046223894,-0.10287639,-0.073036544,0.030421128,-0.040506672,0.046652433,-0.04687221,0.082028605,0.0355964,-0.065206744,0.019329827,-0.046231706,0.017757285,0.062301077,0.005193268,-0.024122858,0.035999127,-0.021138871,0.056425318,0.034083415,0.03050246,-0.0059100646,0.053022463,-0.05292604,0.08506388,-0.08102117,0.055623405,-0.08735997,0.026247911,0.0053863153,0.036183856,-0.040979806,0.07032295,0.06851914,-0.037143122,-0.09033293,-0.102490075,0.004288705,-0.00445185,-0.044253238,0.0075426497,-0.040388618,-0.00838459,0.013666998,-0.019666364,-0.04848326,0.06022496,0.019272747,0.055206545,0.06446119,0.03745514,0.07509652,0.03652801,0.030853607,-0.012552503,0.052401368,-0.014055326,0.06061338
ADSL,-0.011952485,-0.049728572,0.0452747,0.055923708,0.042356778,0.03775446,-0.006919361,0.07264939,0.015817642,0.034069557,0.03449765,0.06565538,-0.096271,0.017120287,0.004863556,-0.01707655,-0.08358175,-0.05836757,0.06967528,-0.015020891,0.014770065,-0.005843232,-0.016924866,-0.01242226,-0.048179388,0.058199387,-0.039366525,0.0022964543,-0.010528633,-0.060977258,-0.007918802,0.05320879,0.045272484,-0.053019598,0.021084372,0.039438684,-0.04906051,0.0064920452,-0.016828952,0.040802944,0.07310158,0.032230094,0.038935732,0.04789309,0.012690456,0.089157,-0.12566088,0.07286848,-0.013383803,-0.0094025945,0.03901403,0.03614836,-0.024055015,0.039171074,-0.0020481301,0.026743144,-0.042527936,0.038734116,-0.0970933,0.023937268,0.019265698,0.009554089,-0.091963805,0.046129573,0.0069331666,0.030447176,-0.035201706,0.012898479,-0.050228756,-0.005116651
EARS2,0.00036384942,0.02959204,-0.050337944,0.0432869,0.009520318,0.026879173,0.008629188,0.046935312,0.0004568932,0.07641179,-0.06718157,-0.07937623,-0.054439597,0.043059066,-0.043488182,0.005620839,-0.079069674,-0.0358947,0.03320285,0.013199068,0.008059949,-0.0023235395,-0.013220053,0.043101445,0.0624521,-0.017835334,-0.04518509,-0.03529773,-0.0892939,-0.022009822,-0.049734075,-0.10425259,0.05601574,0.017148925,-0.040183663,-0.069802105,-0.032947943,0.06873289,0.045136493,-0.0086298315,0.043021902,0.0050965026,0.004026359,0.04389675,-0.041455377,-0.05902517,-0.032483086,0.04280589,-0.0695069,-0.07521277,0.014372191,-0.07472841,0.016407354,-0.08129964,-0.07788886,0.073671274,0.051436055,-0.0767093,-0.056923702,0.056165647,-0.07104742,-0.05794697,0.06814192,0.0327692,-0.005267685,-0.04598481,-0.07386197,-0.02983785,0.02329295,-0.028370762
NAE1,0.031783395,0.0015170494,-0.04084145,0.02224252,-0.013667695,0.039139044,0.028462576,0.061932143,-0.021763794,0.010816442,-0.072248004,-0.025844669,-0.06765721,0.09220693,-0.048172086,-0.0058933618,0.01753141,0.067121826,0.025088705,0.017371645,-0.03641872,-0.10811181,0.04995678,0.026099928,0.023053829,0.034339614,0.05840465,-0.03188385,-0.03902826,-0.08400311,0.034424342,0.011251893,-0.0012582109,0.011863932,-0.048945993,0.023867888,0.012101678,0.043664623,-0.013847129,-0.0034291765,-0.0091811735,-0.013516064,-0.05019253,0.01087285,-0.03057238,0.029694472,0.04712546,0.07426903,0.038831167,0.0689933,0.05258402,0.022131504,-0.015713697,0.071244664,-0.0059730257,0.035123866,0.014596377,0.026452435,0.04133543,0.045736894,-0.021530995,0.09027056,-0.058917567,0.10981608,0.054681942,0.00028975419,0.011297725,-0.030004589,-0.04247882,-0.011876991
MED19,-0.02970194,0.058249358,-0.02898847,-0.05310269,-0.024536114,0.04975411,-0.022507152,0.0065518417,0.04478772,-0.028607534,-0.016681654,-0.007999015,0.023717778,-0.0074495557,0.008998845,-0.033159345,-0.041093085,0.038778547,-0.03561488,-0.014879305,0.045384865,-0.06649325,-0.01830673,0.012717822,0.033522878,0.043249927,0.02968421,0.034649212,0.017632704,0.043397635,0.015746495,0.06409998,0.00093896536,0.053269383,-0.047055837,0.019960657,-0.002425722,0.052405234,0.025694493,0.030974144,0.015369955,-0.00800286,-0.041180126,-0.0478319,0.026014447,0.023199465,0.06494315,0.046782732,-0.060586657,0.061370637,-0.079910874,-0.08540337,-0.058693986,-0.06028465,0.020872012,-0.019421633,-0.049383886,-0.050246533,0.005514101,0.08895142,-0.054154728,-0.054895613,0.013284086,-0.02192986,0.07582206,0.01529031,0.04623834,-0.0006174078,0.030498782,0.08480502
HAPSTR1,-0.034377445,0.01065928,-0.037408147,0.06531595,-0.042936657,0.022264699,-0.040968366,-0.059861265,-0.09456507,0.01782951,0.0050686,0.008533303,-0.06055116,0.02538089,-0.037258122,0.020386698,0.008862125,0.05577689,-0.014194532,0.0608746,-0.009876359,-0.022804093,0.031269006,0.0394937,-0.035886504,-0.008266243,0.040087424,0.016240837,-0.006094348,-0.018286675,-0.040198404,-0.036549274,0.057479177,-0.06754059,-0.029306615,-0.01977212,0.044508293,-0.0695206,-0.0155350845,-0.032212097,0.045997985,0.009772236,-0.0010145962,-0.06468492,0.01879733,0.07246104,0.0354151,-0.04376846,0.040404208,0.053278565,0.06271723,-0.057453815,-0.06516853,-0.0075919516,0.06903954,0.034091998,0.0058182217,0.05636324,-0.026590709,-0.052730255,0.0110911,-0.09099736,-0.016415045,0.03596903,-0.0025452073,0.060821045,0.08673034,-0.04661742,0.06270608,0.038108476
NCAPD3,0.03931579,-0.019407857,0.03870813,0.030632067,-0.11675708,-0.04239551,-0.01774305,-0.0634993,-0.03828485,-0.05961722,0.022494536,0.033536237,0.007408674,-0.048893858,0.011200008,-0.06406925,-0.029444758,-2.2210452e-05,-0.023451723,-0.07071193,0.026141327,0.065743126,0.024586707,0.03409147,-0.039236475,0.021601908,-0.033068392,-0.02118354,-0.03487653,0.012214604,0.022806725,-0.10543564,0.076184504,0.021220626,-0.107291296,-0.055521503,-0.041628987,0.0202589,-0.06729108,0.013750124,-0.0732886,0.024971375,-0.06219393,0.0047251475,0.0064539555,0.06583496,-0.020544112,0.0018349082,0.029669499,-0.025876038,-0.07546464,-0.042078916,0.02104804,0.07528091,-0.062058855,0.05302591,0.0074119125,-0.016528582,-0.011075739,-0.07036971,-0.008194643,-0.004975448,-0.036429048,-0.044602163,-0.06050273,-0.05909249,0.010721928,-0.014271341,0.04169858,-0.0059061954
MAU2,0.017054131,0.114963636,0.025200374,0.02743391,0.028843323,-0.0016132618,-0.07407359,-0.013087735,-0.009048017,0.08791922,0.0012814279,0.037506767,0.028387157,-0.039228246,-0.055761427,0.0059450967,0.040485617,0.04609477,-0.0038482505,0.025429238,-0.044545323,0.042726357,0.050981812,0.022157421,-0.041155424,0.04754034,0.06775075,0.0068749706,-0.0053004823,-0.011674381,-0.03003177,0.019373031,-0.027485995,0.030985745,0.059891555,0.021261446,0.023825405,0.055683676,-0.021260856,0.077996425,0.00396858,0.010917342,-0.03827822,-0.063668236,0.009778145,-0.06584769,-0.016360778,-0.06973158,-0.049975786,0.04805564,-0.045216396,-0.01927731,-0.015567104,0.046921607,-0.016944379,0.041648354,0.048631564,-0.10105924,0.05323447,-0.06917642,0.016125288,0.0376838,0.012443726,-0.03859054,0.011332768,-0.034202293,0.046458997,0.03927697,-0.046499055,-0.01475219
RHOA,0.033720907,-0.008104668,-0.057903007,-0.09768975,0.047090963,-0.020343814,-0.047030415,0.02389759,-0.056134474,-0.06362818,0.02431566,0.02076994,0.038497988,-0.08403148,0.027299752,-0.015221219,-0.0016876326,-0.02267677,-0.005179402,-0.10450849,-0.028993323,0.0003871942,-0.0057844985,-0.025189254,0.0525394,-0.00038907016,-0.041162446,0.07821224,-0.036048494,-0.06961521,0.01308269,0.043283034,-0.060448676,-0.011368231,0.05814154,0.044298217,-0.021773282,0.00034970872,0.042983413,-0.04963747,-0.042236462,0.049221564,0.04111279,0.0697098,0.042640585,0.059777886,0.044984564,0.0063170623,-0.0012429407,-0.078663945,0.02859727,-0.02060396,-0.06977066,0.10274147,0.07160953,0.03177239,0.08834455,-0.015283087,0.02942353,0.034492232,0.08469018,-0.08586012,-0.03702946,-0.11072332,-0.046237927,0.046813507,0.0470809,0.09586908,0.041828748,-0.005159337
ZNF217,-0.063377544,0.05161893,0.045146096,-0.0035770687,0.0041200994,-0.026233383,0.02774958,0.011236742,-0.010370061,-0.055040836,0.045789964,-0.008383346,0.011262261,0.041621454,-0.02766485,-0.039178196,0.0024896066,-0.06357923,-0.011852159,0.017658291,0.04158181,-0.004916129,0.0020687513,0.008274477,0.02429369,-0.0024554092,-0.05297052,0.056418445,0.05294039,0.011907633,-0.052079987,0.024850532,-0.0010764075,0.06825387,0.079954185,-0.0200556,-0.060711943,0.05372367,0.0633871,-0.04630541,-0.06577551,-0.050550446,-0.04782376,-0.020208329,0.057295907,-0.10239797,0.0052254274,0.075679414,-0.11821293,-0.022291344,0.028802162,0.01917337,-0.002592195,-0.04488237,-0.060000397,-0.040547285,-0.02997961,-0.048881724,0.053853214,0.038443983,-0.034324955,-0.036486104,0.017571677,-0.048245907,0.03661277,0.021081554,-0.0076313,-0.031400878,0.025995774,0.030695293
METTL1,-0.056159813,0.044401277,-0.058726773,0.046240035,-0.028238239,0.09343569,0.0023566026,0.058749802,0.04209886,0.020157957,-0.025902264,-0.05019249,-0.00085275713,0.022627316,-0.07775546,0.007353504,0.026845288,-0.003088037,-0.055363882,0.07766556,-0.035806343,0.02036971,0.013311449,0.001363642,0.048166532,-0.0021494208,-0.09066767,0.059151776,0.06859525,-0.09153424,0.05906479,-0.010892612,-0.008789469,-0.02955808,-0.0038858394,-0.018912952,-0.037072215,0.022907186,-0.03739351,0.0558447,0.0019922,-0.027081622,0.08912565,0.058460403,-0.055030465,-0.040245738,0.06793951,0.011658534,0.0035888976,-0.029980663,-0.11213713,-0.061372682,-0.006616581,0.03797308,0.0498838,0.045739226,-0.07914899,0.06209888,0.05511515,-0.06737732,-0.01023874,-0.0591664,-0.018115085,-0.034685425,-0.04935211,-0.019193832,0.037864298,-0.049744714,-0.032450162,-0.020090684
TRPM7,-0.087986596,0.026310945,-0.04867944,0.027706765,-0.026208006,-0.0030437426,0.085611194,-0.025897736,-0.0037704255,0.0140215065,0.041377608,-0.009347178,-0.0076309885,-0.055251043,0.008151288,-0.0057625975,0.013757583,0.06440081,0.058679532,0.051570617,-0.005514512,-0.04010515,-0.028005986,0.060023468,-0.016382111,-0.043190632,0.031817906,-0.02554281,0.050867293,-0.082403496,0.03234795,0.023343168,-0.07016872,0.07639995,0.018858528,0.067402616,-0.06864073,-0.0640432,-0.017276919,-0.020746442,-0.012666189,0.016262833,0.035119724,-0.04255184,-0.015285049,0.0031425606,-0.054577425,0.04900749,0.04572214,0.024338026,-0.05067933,-0.053210374,0.02476106,0.047475986,0.05345883,0.00965785,0.014249216,0.036987405,0.07199775,0.004645349,-0.06804738,-0.025166418,0.011174739,-0.039111514,-0.003934556,-0.004392631,0.0714004,0.08066251,0.003677325,0.026938206
MRPL33,0.008033626,0.012756611,-0.016167725,0.043134455,-0.018245274,-0.08997762,0.032347698,0.040005323,-0.035312515,0.014380244,-0.034495153,0.011263342,-0.053136274,0.0685845,-0.017415728,0.020488553,0.03769946,-0.08013387,0.010331546,0.015040753,0.05233527,-0.08061509,-0.014298291,-0.028666638,-0.029412115,0.024154635,0.02262371,0.03388213,0.026986064,-0.047158998,0.029890556,-0.02405814,-0.072865024,0.0006720328,-0.027473085,-0.061591804,6.95489e-05,0.009842891,-0.053233664,0.023470858,-0.02309189,-0.02410036,-0.0692857,0.018738605,-0.0379013,0.04876907,-0.00023246274,-0.008308621,0.010157409,0.051266402,-0.076264426,0.042832777,0.033960868,-0.0091038775,-0.07565997,-0.05657959,0.0045345617,0.039129768,0.029491413,0.01899064,0.042302582,0.04251103,0.009614845,-0.048853755,0.043476433,0.032099966,0.0054050386,-0.06641783,0.015785215,-0.05864162
ATIC,-0.009278303,-0.021734167,-0.018285517,0.08152662,0.03142752,-0.028386766,0.02893284,0.02806929,-0.087774016,-0.09062441,-0.027496817,0.060354996,-0.0490525,-0.037161253,0.020787392,-0.047016002,-0.004638494,0.0075971307,0.005021785,0.016637111,0.05897211,-0.031622194,0.017589048,0.03673504,0.04638908,0.041108016,-0.05650818,-0.051791932,0.034595285,0.03113595,-0.01959448,0.07715852,-0.07449889,-0.06762812,0.003191741,-0.009295725,0.027866937,-0.05979014,-0.012726421,0.012564409,-0.03748637,-0.011771548,-0.03655556,0.045799498,0.07976761,-0.051713143,-0.033270266,-0.021395111,-0.05801184,0.03164745,-0.08694637,0.070657484,0.02510322,-0.012672,0.0023323116,0.036661744,0.043212228,0.02108116,0.07256669,-0.035551406,0.06325344,-0.028938666,0.044619475,0.045197222,0.020477561,0.018830305,0.030931769,-0.07102725,-0.037544757,0.0012633909
ATL2,0.0222811,-0.017803755,0.040675934,-0.031179387,0.032295685,-0.06995482,-0.025961384,0.0819901,-0.00088228553,-0.012034151,0.06485413,0.037828118,-0.026504489,-0.10394515,-0.0036569661,-0.026041279,0.07008666,-0.043466937,-0.04797658,-0.010228436,0.030348362,0.06007021,-0.03999777,-0.0007424679,-0.024131175,0.029118598,-0.00978207,-0.028678736,0.00022857617,-0.047801897,-0.044536136,-0.06582942,0.03787479,0.05031635,0.032205455,0.040522035,-0.050677743,0.0022259774,0.02728741,0.025031943,-0.008832042,-0.019302364,-0.06680247,0.057213143,-0.09128824,0.011746919,0.06618838,-0.07723458,-0.021441419,-0.06175791,0.05547161,0.09622921,-0.030960599,0.039889477,-0.0048785703,0.0011745222,0.036188386,0.043495804,0.02378272,-0.029560436,-0.049912207,-0.09590007,0.021607865,0.017579922,0.06010876,-0.013211272,-0.07827784,0.02180396,-0.091837935,-0.001460164
ARHGEF7,-0.04528809,-0.030271105,-0.04989625,0.015978303,0.05822062,0.034264978,0.032127704,0.052704383,0.042697858,-0.072470754,0.018385744,-0.0015404533,0.082596235,0.06747179,0.041293338,-0.008376445,-0.016486233,0.11077381,-0.033654537,-0.006347842,-0.016202016,0.018876228,-0.021931222,0.094629675,-0.04954512,-0.0034989878,0.06114131,0.014607661,-0.025389975,0.031580143,-0.04609753,-0.027653312,0.06494718,0.0830927,0.024641285,-0.027533285,0.03547782,-0.01973315,-0.046641145,-0.07643017,-0.07119663,-0.057777993,0.07090628,-0.015957806,-0.016522098,0.037870657,0.019625438,-0.0072515244,-0.019585507,0.036167875,-0.06572163,-0.032646567,0.08622676,-0.018397667,0.04792425,-0.040383037,0.03377567,0.015794197,0.044945672,0.04770704,0.06349086,0.0618846,0.04055108,0.012652419,0.09144519,0.032661226,-0.02270795,0.033808097,0.052347273,-0.032313254
GET1,-0.042071726,-0.028642748,-0.05143331,0.004030026,-0.012349261,0.05810996,-0.044210132,-0.046691746,0.017299945,0.03267096,-0.015773512,0.038734473,-0.06286133,0.04717336,-0.05033641,-0.046451416,0.017569015,0.007145966,0.08035861,-0.033823907,0.0140097225,-0.0010099167,-0.036105014,0.025027711,-0.025397994,-0.02072935,-0.02896014,-0.010938624,-0.0022967781,0.029339798,0.01590035,0.011399749,0.013626464,-0.04413233,0.030249842,0.004049421,-0.007085974,0.040313207,0.020895598,0.0050951326,-0.012419541,-0.07122733,-0.015206731,0.05604861,0.02092886,0.018859152,0.029129362,-0.026073772,0.020761771,0.03554744,0.011907232,0.046941012,0.017980391,-0.022202687,0.023479745,-0.010682844,0.043938566,-0.05605587,0.03434705,-0.023525026,-0.015395368,0.00061949354,-0.046009284,-0.012362581,-0.087699965,0.06759639,-0.046248887,-0.033033982,0.009541348,0.034851428
CHMP5,0.028559657,-0.040813677,0.060885884,0.0325808,-0.054614864,0.0032581906,0.06321304,-0.050429974,-0.037784494,-0.0008059094,0.020054411,0.035150662,0.0136040095,-0.027174639,-0.049616877,-0.04666205,0.027449159,-0.036472335,-0.0011335599,-0.06848001,-0.054210756,0.031735875,-0.05184957,-0.022578055,0.033398192,-0.030353291,0.044777025,-0.010381563,0.022724817,0.037604608,0.058972783,0.01354758,-0.017922487,-0.030932613,0.04897542,0.037595086,-0.029357247,0.016634857,0.020259002,-0.070779234,0.029119775,-0.0188872,-0.06931667,-0.035422552,0.00065976824,-0.012730051,-0.058038104,0.047720987,-0.07343618,0.030705031,-0.08545722,-0.009639806,-0.04776453,0.0020111722,-0.0041953465,0.082126245,0.022136297,0.028074253,0.033067368,-0.026851535,-0.0235232,0.043854825,-0.011847235,0.024244934,0.023073006,0.10571431,0.024373803,-0.04977108,-0.037489753,-0.048261046
PFAS,0.005958329,0.027647832,-0.015454422,-0.036559273,0.009952135,-0.029657781,0.00420825,0.06663408,-0.055905867,0.034753423,0.08297693,0.0574151,-0.0456735,0.032894827,-0.0593771,0.020064509,-0.025170248,-0.010246395,-0.044823557,0.025286226,-0.011021702,-0.06888177,-0.03958723,-0.0680254,-0.022761866,0.019562043,0.014428878,0.07255881,0.03635955,-0.0018965739,-0.039724085,0.02220305,-0.04660164,-0.004131797,0.08888012,0.06546973,0.048644014,-0.027475476,0.051626347,0.019712944,-0.046269532,-0.053895414,0.015143373,0.012289949,-0.031708766,-0.048915584,0.026152214,0.052142322,-0.020230075,-0.04084358,-0.08423836,0.040799674,0.032205623,0.008398925,0.012658763,0.07184768,-0.07082186,0.0057698446,-0.0058891377,0.030764489,-0.06064777,-0.09470973,-0.013691877,0.018811995,0.055490788,-0.009368616,-0.02119627,0.029869493,-0.043565203,-0.02255256
KLF5,0.015753422,0.01758962,0.023388384,0.070476964,-0.027985299,-0.09632582,0.026872829,-0.012193074,0.045314744,0.0188484,-0.0033337793,-0.012994818,-0.08387929,0.015040105,0.06956678,0.0025533908,0.12324574,-0.009437921,0.06021944,0.015009606,0.01662335,0.07681325,0.02071349,0.09120113,-0.06878026,-0.080679856,-0.0058585447,0.002322163,0.0545286,-0.00544519,-0.060203355,0.0420842,0.09024419,-0.02471408,0.092062615,-0.0035846133,-0.010632245,0.037852287,-0.03780655,-0.084842235,0.016917603,-0.0014671427,-0.03468533,0.027299343,-0.064632945,0.0837787,0.027400501,0.023146918,-0.055426925,-0.0075560943,0.09309325,-0.06022841,0.06277231,-0.06079388,0.004683294,0.006010942,-0.007466183,-0.007035581,-0.06344325,0.044969384,-0.005740942,-0.0107702445,0.0645837,0.040834814,-0.038921166,0.0724499,0.0785337,0.012592901,0.021686079,0.048024036
RAD9A,0.08358638,-0.037877366,-0.011059952,-0.022917103,0.023388656,0.021399222,0.0129101565,-0.020220388,-0.06888995,0.0033813238,-0.0649288,0.023290692,-0.06001047,-0.05387909,0.058907438,-0.016081473,-0.060710177,-0.0034417477,0.036564358,-0.013820426,0.07917129,-0.022979913,-0.01156963,0.06822789,0.0016176861,0.03298554,0.02517182,0.0005090318,0.034454558,-0.0142801115,-0.037251193,0.035679646,-0.0013088019,-0.0031559984,0.030215696,-0.029756175,-0.031071022,-0.017870234,-0.06713047,-0.02312771,-0.03618381,0.00026117818,-0.0114821205,0.053668797,0.043334525,-0.02434971,0.004319085,0.034232028,0.0061035035,-0.014013859,0.050074514,0.023522958,0.049727846,-0.047919195,0.05520457,-0.060193773,0.032164235,-0.02464477,0.017109858,-0.023285586,0.0052230093,0.051153343,-0.045334164,0.07031975,-0.014742323,0.04140359,0.037212096,-0.0403756,0.038607877,-0.014261927
TAFAZZIN,0.08027116,-0.0069671734,-0.04175113,0.07532281,0.042783797,0.011923042,-0.06243072,-0.057316713,0.0041835518,-0.05174832,0.0053014485,-0.010721856,0.0026110734,-0.028211463,0.07457293,-0.03197731,-0.018466879,-0.06579808,0.058253255,0.0587667,-0.013999085,0.07841121,-0.111827336,0.02620811,0.05875757,0.047081046,-0.018621262,0.020963298,0.05132904,0.045214653,0.08150211,-0.023583245,-0.049851865,0.029448912,-0.058406156,0.023710974,-0.07614332,-0.05808694,0.0050261314,0.02186515,-0.025619805,0.02508272,0.047789514,-0.0818166,-0.029904846,-0.04255243,-0.031690054,-0.074882485,-0.056782898,-0.011733529,0.021468986,-0.042304203,0.014146635,0.07155817,0.0145594,0.05803931,0.019070677,0.042510405,0.014286995,-0.06213022,-0.07146674,-0.038057398,-0.020768678,-0.01036201,0.030174835,-0.020263176,-0.055753212,-0.04719827,-0.08117769,0.0011006789
EEFSEC,-0.057868283,0.0374933,0.015303435,-0.033167314,0.031114064,0.06447087,0.04655973,0.044001423,0.037007242,-0.036583863,0.04915154,0.015984543,0.0019539,-0.017192136,-0.018193576,0.00037211206,-0.045444217,0.0019953316,-0.03433262,0.008484826,0.04692275,0.011049946,-0.030153146,0.00042679472,-0.076991156,0.06487561,-0.09450213,0.045011632,-0.093767665,0.050340675,0.04017491,-0.03700681,-0.05522123,-0.049177613,-0.014433429,-0.030841717,0.007980033,-0.059630588,-0.0659272,0.09737595,0.025312353,-0.048362598,0.017391933,0.05198897,0.059799507,0.0067488975,-0.04723823,0.020944199,-0.032779202,0.042184595,-0.043107264,0.033606492,0.05463928,-0.015764656,-3.938921e-05,0.018335585,-0.051787537,0.049118996,0.009841176,-0.07896198,0.008828578,0.024080383,0.06003994,-0.01895697,-0.02283064,0.04457636,0.07368443,0.0011337,0.025688684,-0.009931989
SMARCA4,-0.0440623,-0.028453093,0.04615796,-0.045947213,-0.0003216628,0.052917764,-0.012194483,0.06257374,-0.046961676,-0.00029528304,-0.010865906,-0.0062466622,0.038387273,-0.004624904,0.024560897,0.023019886,0.032231644,-0.037796106,0.048608538,-0.03282113,-0.07068272,0.01155653,-0.06497478,0.014281503,0.0116533125,0.049359404,0.0059170467,0.049141232,-0.039735842,0.021546269,-0.06284338,0.059957903,0.005096309,-0.008699702,-0.015184415,-0.029300066,0.00112002,0.020645276,-0.011085882,0.059377525,0.012773016,0.013235788,0.018757824,-0.016620122,-0.032166835,0.057097025,-0.04040454,0.047620114,-0.01774467,-0.051836435,0.040754072,-0.008431375,0.061138306,0.08338827,-0.04588465,0.008512161,0.056691658,0.0027115569,-0.037609436,-0.0026854814,0.072406635,0.0021405905,-0.040883757,-0.026152415,-0.0367458,-0.004342098,0.03078443,-0.018126894,-0.07178583,0.042829562
SDHD,-0.036493123,-0.012145969,-0.04006364,0.060217727,0.09368623,-0.05242131,-0.0067095575,0.007687375,-0.011356187,-0.069163024,-0.097666256,0.068106554,-0.010854859,0.015150669,-0.017456703,-0.03349753,-0.0039040004,-0.04166557,0.03655107,-0.06586794,-0.027065283,-0.036483094,-0.041503083,0.029885864,-0.03308042,0.06468035,-0.046766248,-0.04200474,-0.041077297,0.003805705,0.046936378,-0.02184243,-0.028160354,0.063288346,-0.022710904,0.066281885,0.028849091,0.03754248,-0.06773044,0.051083174,0.047950402,0.052891452,0.014044003,-0.029313577,-0.02481568,0.03169028,-0.07784654,-0.02204117,0.023223622,-0.050586972,-0.048370916,0.06905618,-0.06821942,0.029244272,0.012494741,0.025817286,-0.059248094,0.0149329705,-0.036962807,0.036935262,0.01609855,0.015962226,-0.03952595,-0.0338703,0.061324157,0.04336739,-0.015077294,0.0051560407,-0.017986795,0.035544027
PPP2R1A,0.038633082,-0.022701617,-0.03295822,-0.021390902,-0.027650714,-0.032347288,-0.0062723877,0.009880231,0.0071976543,0.05219417,-0.044565555,0.039944347,0.029834611,0.050804805,0.071558595,0.015488704,0.04483584,0.069040135,-0.054521028,0.032047134,0.063565895,-0.0358655,0.021426186,-0.03584292,-0.008514087,-0.01836517,0.001817734,0.06591154,0.055352464,0.03463339,0.003950656,-0.012812438,0.012975722,-0.051790677,0.021200689,-0.016560601,0.018537432,-0.05023149,-0.03438856,-0.0439979,-0.036223218,0.0058525773,-0.0114279445,-0.042244304,0.0069718403,0.041210175,-0.054284126,-0.058390744,0.012548673,-0.015227976,-0.030835731,-0.049890373,-0.11186605,-0.04228199,0.023781076,-0.064532675,-0.012082579,0.04080983,-0.025052924,0.045306288,-0.040191736,0.038347553,0.016307576,0.057924956,-0.04813629,-0.06637209,-0.021985887,-0.073665544,-0.04661664,0.0025128108
TAMM41,0.04085794,0.028839026,-0.007772105,-0.010417376,0.053184938,-0.026670823,-0.047761887,0.0071469513,0.07650418,-0.032847263,0.07117161,0.03464765,0.025839457,-0.057760295,-0.068792194,0.030264927,-0.018931268,0.048548717,0.094247624,-0.016857171,-0.02811616,-0.08127252,-0.030993594,0.001865001,-0.059807748,-0.038696013,0.08039438,0.012896423,0.06258483,-0.049660202,-0.005672298,0.022944188,0.050663292,0.018838217,0.10390561,-0.02792382,-0.083312646,-0.011246769,0.009938303,-0.039015844,0.047622237,0.056491576,-0.0677857,-0.00966379,0.01812059,-0.043291856,0.011472186,-0.0025525081,-0.02885013,-0.0077716634,-0.06843941,0.0002491378,0.01879281,-0.062387712,0.0491534,0.01383729,-0.026989195,0.003998904,-0.06280794,0.03574127,0.034845524,-0.014519916,-0.053734243,-0.016721953,0.079851314,-0.040976226,-0.04220632,0.034488708,-0.015033429,-0.004633583
TKT,-0.06295976,0.056768067,-0.053438835,0.047789253,-0.06826868,-0.049042873,0.0464023,0.045302924,-0.052076552,-0.042021252,-0.032934003,0.07298163,-0.023903335,0.06544293,0.008776904,0.003386533,0.04858307,0.028155401,0.045423668,0.048618186,0.03693836,-0.08293352,-0.047617387,-0.009055072,-0.025515335,0.06030279,0.013934262,-0.049656242,0.0072998707,-0.014952771,0.036009215,0.055279948,0.095393315,-0.045754608,0.077117324,0.02011788,0.006797577,0.018528678,-0.043275747,-0.026531387,-0.09540231,0.034101725,-0.017300002,-0.0057372386,0.040603854,-0.028768083,-0.078872204,-0.061124153,-0.05415854,0.03644401,-0.053695425,-0.025685968,-0.0046371613,0.057172745,-0.088673,-0.027392386,0.06987036,-0.010245865,0.02373093,-0.073319264,0.012522288,-0.0050896225,-0.02717114,-0.009818377,0.025016451,-0.018680973,0.058223017,0.008368576,0.07573957,-0.0005775758
MRPS11,0.061540395,0.015735427,-0.026548594,0.09766762,-0.005274815,-0.0036387236,-0.011070911,0.0700811,0.008337135,0.044032376,-0.023179185,-0.085503966,-0.008988408,-0.030573264,0.028496789,-0.047214057,0.031954303,0.031490814,-0.039917137,-0.027318832,-0.013916486,-0.05758834,-0.018638704,-0.010012305,0.080480315,0.08540084,-0.043761455,-0.033116125,-0.05920541,0.032777805,0.044765376,-0.02032717,-0.013705542,0.06289835,0.07279398,0.029707972,-0.07724734,-0.06299103,-0.019551972,-0.059638627,0.05620275,0.064497076,-0.015933393,-0.059762523,0.0019442464,0.011686303,-0.0770011,0.0021521188,0.042756982,0.03183234,-0.047161106,-0.05371861,0.03216826,0.020059414,-0.0126037635,0.015517585,-0.03504367,0.07655849,-0.08840912,0.0033780476,-0.038275182,0.056243327,-0.020686042,-0.0037546938,-0.016818566,0.02829887,-0.052405648,0.0045690895,0.01496083,0.051541075
CHMP7,0.008092167,0.056213655,0.014471922,0.021683803,0.04929827,-0.02195446,0.034463827,0.0060948827,0.05844166,0.036500305,-0.020156587,-0.032178834,-0.030420495,-0.029234229,-0.017257182,-0.010070672,0.018982738,0.057613578,-0.044773977,0.010508481,0.0692149,0.029778779,0.024740146,0.08030316,-0.0137602165,-0.04056576,0.042324733,-0.016053576,0.034999855,-0.027633404,0.011454093,-0.06348111,0.06530584,0.0041452125,-0.021043882,-0.027984489,0.0048555466,0.041019194,0.08382851,-0.008210583,-0.0070844693,0.06610028,0.064553745,0.047530103,0.014565085,0.11687797,-0.032938804,-0.022049032,-0.07642931,-0.01658994,-0.034592964,0.0025503049,0.04941933,0.022554927,-0.04895128,-0.017436853,-0.011058577,-0.03515107,0.071540244,0.007378833,0.009463267,-0.03882035,-0.035103522,0.033550676,0.022906354,0.046244163,-0.10221428,-0.05536735,-0.019715805,0.039788883
VBP1,-0.035113655,-0.032164745,0.04401771,0.015400862,-0.028718788,0.04464907,0.037578948,-0.049037695,0.008941866,0.0223116,0.07223284,-0.016144348,0.0004971872,-0.09337569,-0.060953304,-0.027768081,-0.039966602,0.03304591,0.042811316,0.016430277,-0.005950734,-0.01271977,0.035543893,0.030097434,0.010006482,0.023210578,0.027158804,-0.0828202,-0.067387305,-0.034140885,-0.09774642,-0.02249409,0.032572314,0.022594785,-0.0036532977,-0.019029759,0.08352345,-0.017073788,-0.026407886,-0.045495387,0.045703396,0.008026849,0.0022295208,-0.0045858975,-0.031854235,-0.019324377,-0.025748318,-0.009227853,0.0877965,-0.066150464,-0.06586863,0.01833505,0.024314929,-0.023479957,0.038199246,0.042029068,-0.02379753,-0.033406686,0.0058912328,0.038419563,-0.0023117852,-0.0018095004,0.00038613353,-0.045594897,-0.024467995,0.041694656,0.052649677,0.008984936,0.032641005,-0.057137217
CYC1,-0.04232121,-0.07391692,0.020625586,-0.0020283,0.07862083,-0.07322704,-0.04858431,0.05853264,0.017813725,-0.04966264,-0.0062638796,-0.05860504,-0.050863173,-0.015449659,0.045619816,-0.05574031,0.028712679,0.009853618,0.020722369,-0.028613212,-0.04046684,0.070021324,-0.007878909,0.06053912,0.0345577,-0.032949395,-0.03308263,-0.02380256,-0.029793954,0.053985447,0.018533355,0.035621043,0.004050576,-0.047934014,-0.026293518,0.035602007,-0.061653715,0.032900542,-0.010643064,0.089043766,0.06878754,0.052267905,-0.0075227716,-0.04097597,-0.04120762,0.10502761,-0.07614502,0.039325166,0.048288282,-0.0052393842,-0.071303435,-0.018253617,0.028163277,0.03447658,-0.030770535,-0.051641837,-0.015739886,-0.07385669,-0.03798025,-0.022818157,-0.0016632037,-0.033626657,-0.071200654,0.03830266,-0.017625382,-0.018352542,-0.00076633913,0.0068252617,0.03522781,-0.03436478
MRPS6,-0.012333133,-0.01664211,0.01140619,-0.048759103,0.07007964,0.0062514497,-0.05384133,-0.078507826,-0.0025150962,0.046487954,0.00705366,-0.02892443,0.022381155,-0.06173838,0.014340314,-0.027084764,0.03912703,-0.043116335,-0.037904426,-0.03474158,-0.07082761,-0.035655614,-0.024205305,0.0011219863,-0.058425967,-0.058008693,0.06464915,-0.04632266,-0.0019384415,0.024371793,0.05922819,0.052376732,0.035285328,0.004343175,-0.04167917,-0.073834874,-0.007471646,0.054367512,0.03522804,0.062463634,0.059002142,0.01658346,-0.009032685,0.07914868,-0.04652289,0.0006726822,-0.02051923,0.031052614,-0.024569357,0.023730047,-0.0050554113,0.011180287,0.066220365,0.026244804,0.029634006,0.019544903,0.032169238,-0.017486973,-0.06344508,-0.028661672,0.08241234,-0.0031017927,0.026901834,0.040218398,0.013583453,-0.011024342,-0.034182236,0.06436593,0.049612198,-0.03450705
FIS1,-0.020665938,-0.0004195353,-0.0040043583,0.034140997,0.022934293,0.021457544,0.021328313,0.02007593,-0.018881716,-0.07505774,-0.008214408,0.06061419,-0.008131413,0.0036996645,0.040094994,-0.012787888,-0.017329875,0.012700043,0.054954078,0.010364464,0.012725764,0.006983448,-0.037843794,0.0008690002,-0.037171993,0.003457829,-0.017603446,0.03165012,-0.023134237,0.0121011445,0.014049985,0.0154690435,-0.05928487,0.019911902,-0.06298731,-0.022249524,0.054635614,0.0024557624,-0.037249453,0.020986665,-0.08237016,0.05074625,-0.033032365,-0.0068517914,0.04312105,0.020142449,-0.06753511,-0.0048159957,0.029875081,-0.023780763,-0.049922675,-0.08544787,-0.0028981795,0.008266555,0.037557658,-0.039774533,-0.0012011254,0.053504545,-0.029819198,-0.010387426,0.08013411,-0.061589018,0.038452357,0.043338485,-0.010607875,-0.046844404,0.03894534,0.0028670079,0.08421662,0.02573661
IRS2,0.04343752,0.025832426,0.051840797,0.016733224,-0.043657348,-0.01163997,-0.0439404,0.01170568,0.009291552,0.03504,-0.005571409,-0.0048722103,-0.009793728,-0.045720883,-0.06795276,0.03817356,-0.05832585,-0.036196828,-0.003559391,0.059431884,0.03858104,-0.066260725,0.054359756,0.09195024,0.053063706,0.004307136,-0.02147386,0.052270204,-0.032633405,-0.036723796,0.01725307,-0.06483285,0.020342045,-0.0343335,-0.040955663,0.026471002,-0.06532807,-0.07406035,-0.08431195,0.025196295,0.004470038,-0.07659304,-0.060029767,-0.035481703,-0.08775209,0.010150402,-0.010936808,0.028099136,-0.09150476,0.012094557,-0.08344332,-0.023567637,-0.027411489,6.0534887e-05,0.054507535,-0.098405585,0.058194622,-0.05198361,-0.0007931501,-0.060114805,-0.06470536,-0.011045245,0.024484068,-0.06201287,-0.06907733,0.038432885,-0.024185466,0.033055544,-0.00070001715,-0.032232363
FOSL1,0.02803733,-0.063780695,-0.023485826,-0.058877856,0.01639086,0.050645977,-0.0064004143,-0.0126331085,0.0047835116,-0.03538185,-0.04000178,0.049253702,0.026657373,-0.038307372,-0.028476598,0.055926405,0.05078323,-0.032768562,0.024002874,0.05766875,0.065328136,-0.03573818,-0.017302446,-0.027872577,0.017125547,-0.0058361636,0.017689584,-0.041166984,-0.013016769,-0.083722815,0.058585268,0.039869886,-0.0106104445,0.05557859,-0.061476562,-0.014603119,-0.015474333,0.07193547,0.08793405,-0.029285138,0.049682204,-0.0794004,-0.044536907,0.01025472,-0.037478626,-0.039922174,-0.01835259,-0.0028248413,0.0015011929,-0.016546315,0.009053018,0.010519127,0.011625475,0.01941943,-0.021374244,-0.016137399,0.015834915,-0.040526234,-0.011276601,0.03968173,-0.014768521,0.030090097,-0.021459784,-0.024271755,-0.016633205,-0.010149941,0.028121518,0.043471444,-0.019539787,-0.02997424
ACTB,-0.031773392,-0.0052442164,0.005240052,-0.0055261627,0.016438589,-0.0027801767,0.07333672,-0.03450651,0.033911984,0.042223223,0.08274487,0.015614843,-0.044423103,0.026490577,-0.05432159,-0.06301037,-0.029533966,-0.033956964,-0.04667129,0.048678808,0.056899182,-0.06384396,0.06049292,-0.031969987,-0.027601214,0.039478533,-0.020492554,-0.054565094,0.029249337,-0.034585867,0.08349407,0.020211717,0.05078579,-0.026888376,-0.04021126,0.023200756,0.069013916,-0.031800333,-0.018640501,-0.08509339,-0.027847378,0.038044345,0.07403911,0.08405145,0.06301162,-0.0059875767,0.054306384,0.037632488,0.034552354,-0.010122291,0.053425048,-0.04018034,0.029383948,-0.020986164,0.0014948533,-0.0050587673,0.07368114,0.09729316,0.035062946,-0.007927969,0.045963418,-0.04335373,0.045522243,-0.028854549,-0.029574541,-0.025279218,-0.029389886,-0.024507143,-0.054168977,0.01673713
PTPMT1,0.013951279,-0.00010870695,-0.015012096,-0.0032381117,0.028260687,-0.038988225,0.010436077,0.028158315,0.020037211,-0.02850809,0.03628374,0.04930553,0.0032065199,-0.07826224,0.031824812,0.019709308,0.014150732,-0.028904203,0.023108426,-0.016154421,0.080217056,-0.022397125,-0.015688132,0.058844227,-0.040523537,0.06478955,0.036961265,-0.030322663,-0.03902525,0.034044415,0.051426534,-0.031388022,0.08105289,0.023196775,0.09663193,0.030001674,0.02345866,-6.7954345e-05,0.068197355,-0.0025467381,0.06518885,-0.017881963,-0.05548889,0.021128826,-0.0008356917,0.003980673,0.07985202,-0.028974451,0.033220172,0.029758135,-0.01925544,0.03922142,-0.005084756,0.044691734,0.014909992,-0.036394235,0.041637104,0.045902893,-0.11484611,-0.011929727,0.057748515,0.031610683,-0.043071564,0.02581647,0.0024956618,-0.048931155,-0.079753645,0.036023363,0.07072804,0.07435183
PAICS,0.07798699,-0.071799435,0.053174064,-0.021510234,0.04569975,0.007571486,0.0148852,-0.0063510616,-0.06458943,0.0035778086,0.0032575652,-0.019516068,0.04103452,0.082542434,-0.009252261,-0.010323965,-0.04347093,-0.011908509,0.021864388,-0.08153504,-0.0400965,-0.059348255,0.016214965,-0.005740569,-0.019551098,0.039441902,0.060304992,-0.029292028,0.0027072951,-0.057487026,-0.0322535,0.060614843,-0.031701483,-0.06541216,0.0018495454,0.056851752,-0.00826226,-0.0015739619,-0.024764484,0.053996626,0.04420403,0.05343288,0.049525082,-0.0567761,0.06254954,0.027632037,-0.006543956,0.05915312,-0.03718552,0.042531826,-0.054156613,-0.04334228,0.07125721,-0.032878652,0.010602144,-0.02150536,-0.010080107,0.03771552,-0.025155945,0.06825515,-0.012851185,-0.037095644,0.012565349,-0.024048368,-0.03205411,0.05556621,0.05027058,0.028808374,-0.01983348,-0.033278264
FARS2,-0.028513754,-0.021741452,0.030224118,0.032724105,-0.011989976,0.026985701,-0.04710555,0.06711525,0.011554973,0.04675129,-0.07938515,0.05389783,-0.013364044,0.057255097,0.04011816,-0.07092592,-0.028404498,-0.037289623,0.038263857,0.059653156,-0.045442224,0.0033531522,0.013665668,-0.028769221,0.019846769,0.034120217,-0.03391272,-0.03790703,-0.0032858918,-0.012291059,-0.017075043,0.0022351623,-0.076031074,0.07627933,-0.045398027,-0.009665337,0.040278006,-0.041696005,0.07085958,0.0062188148,-0.024487557,-0.021655371,-0.06612184,0.056796327,0.040815357,0.073400885,0.022123313,0.027471174,-0.07664472,0.018619677,-0.0070360187,-0.008137454,-0.040514916,0.09014281,-0.0036465703,0.031374685,-0.021890314,-0.031572744,-0.057917595,-0.042381197,-0.07827526,-0.06307103,0.012933181,-0.0071170223,0.008267854,-0.055004153,-0.019958332,0.0033990056,0.05964721,-0.063003644
CTPS1,0.0069971867,0.029049288,-0.0047261296,0.0504171,0.044539545,-0.038282752,0.021189403,0.017646737,0.023007048,-0.033008385,0.027994165,0.02122038,0.05407185,0.028060704,0.02767491,-0.008542359,0.02527067,-0.019544527,0.07779485,-0.038650557,0.06669356,0.06265034,0.011688744,0.035613332,0.04616915,-0.007863842,0.05428527,-0.048531394,0.0023294494,0.0027691452,-0.008618538,0.03580684,-0.049335286,-0.027663281,-0.0024170952,0.028199011,0.024588078,-0.027206982,-0.0017435108,0.0393949,0.009677704,-0.021157376,0.06094716,0.07740685,0.033197336,0.02571036,-0.055524006,0.025835022,0.03111155,-0.006026552,0.027322967,0.003734556,0.026058987,0.016664872,0.017828368,0.06500518,0.074193254,0.031221284,-0.017790837,0.007721373,0.04726225,-0.025045646,0.011517528,0.046068866,0.10191942,0.067676514,-0.033465326,-0.02867096,0.04464563,0.05876735
TRAF2,-0.048936706,-0.0097348895,-0.06800919,-0.014606725,0.025469603,0.029513067,0.014578308,0.04769058,0.014816254,-0.009169654,-0.03970422,0.056315888,-0.10850318,0.023362206,0.043969624,-0.015601704,0.048897643,0.0070798397,-0.043720115,0.029318232,-0.007160244,-0.021807142,0.07458817,-0.035195693,-0.0015646433,0.006035667,-0.048995487,0.0146907745,0.006599957,-0.041277844,0.053580355,-0.016376162,-0.058907084,-0.06935011,0.046885684,0.002345856,0.044422414,-0.041821208,-0.019308565,0.046927843,-0.053169962,0.021748107,0.05624539,0.034411322,-0.031213306,0.005997304,-0.07852636,-0.021446101,0.053638007,0.03944443,0.031415287,0.006234122,-0.06285138,0.015039042,0.04700591,0.018692298,0.038168713,0.047845334,0.06755403,0.024865892,0.11753661,-0.03376341,-0.0337759,0.018297404,0.036229853,-0.015871363,-0.0644293,0.016157253,-0.009151765,0.015537091
TLN1,-0.009153739,-0.06745305,0.02088752,0.041941516,-0.05792977,0.015373551,0.012266475,0.054567274,-0.079251274,0.021264406,0.03516571,0.058693662,-0.017787797,0.020543277,-0.025336627,-0.07160171,-0.053575877,-0.017631648,0.038441148,0.022215242,0.06539276,-0.06381293,0.038510725,0.014145576,-0.06091454,-0.0404504,-0.016623804,-0.042847034,0.09340062,0.04861923,0.037283413,0.02774233,-0.033792958,-0.027060915,0.029266644,-0.030752024,0.0062135933,-0.08403898,0.037732396,-0.08867706,-0.078650914,0.033735935,0.034785114,0.036211632,-0.022377554,-0.052572433,0.006127333,-0.07490604,-0.030381233,-0.036359012,-0.013012491,-0.026437568,-0.015274783,0.04793348,-0.04595746,-0.085384004,-0.05109292,0.029902045,-0.011908772,-0.027916128,0.055436,-0.03016099,0.015000196,0.023886053,-0.060574852,-0.024440998,0.043500736,-0.054994136,-0.007280842,-0.009131477
CRKL,-0.045511294,-0.05398994,-0.013724384,0.06591972,0.049925987,0.047642022,0.025887461,-0.054015122,-0.04242704,-0.029515574,0.05463067,0.0148365535,-0.09780655,-0.018372666,0.044824947,0.03492573,0.06069651,-0.029574484,-0.02704806,0.11158549,0.06121161,-0.032708146,0.018178703,-0.011276803,0.065232545,-0.045025565,0.03367901,0.028908106,0.063750006,0.023986565,0.04188379,0.05149377,0.033481944,0.079080045,0.09389117,-0.01956102,0.042349227,0.012906107,0.053720333,-0.11655851,0.034213804,0.050208177,-0.056412347,-0.046688277,-0.03472682,-0.0011910932,-0.028039945,-0.049223594,-0.022599017,-0.030177405,0.028409965,0.010206415,-0.002751691,-0.010443882,-0.008327725,-0.041579746,-0.040741973,0.008343225,-0.007043076,0.022374472,0.06382478,-0.008501344,0.023807172,-0.059479915,-0.049767222,-0.0012574762,0.0089035565,0.015586098,0.058376838,0.08716669
LRPPRC,-0.01758499,-0.040320054,-0.027107554,0.06602172,-0.0017278097,0.022990806,-0.03914695,0.056586806,-0.040694844,0.056936484,0.029880948,-0.063628435,-0.08330431,0.028778527,0.053239502,-0.023928722,0.01910413,-0.03182135,0.055420425,-0.042327277,0.018489398,0.04544371,0.030166434,-0.0191358,0.06332852,-0.006465762,0.069025785,0.007683638,0.0035796869,-0.060983412,0.0060190554,-0.026719868,-0.011256226,-0.0056657465,0.03688979,0.025432002,0.0047158645,0.018784735,-0.012783876,0.029422712,0.07846819,0.036334775,0.061074436,0.0061944644,0.05294266,0.047762647,0.010843538,0.035875324,-0.04740339,0.009630909,0.028875234,0.047593344,0.029663093,0.045053203,-0.05996972,0.033494536,-0.06976118,-0.020776177,0.04908521,0.027314754,-0.020778555,-0.010528133,-0.028495224,-0.062336333,-0.028901698,-0.06941935,0.034774803,-0.09885468,0.011370312,0.0026300324
ICE2,-0.044651214,0.02762327,-0.034191784,0.0024511495,-0.025828196,-0.005145428,0.012438933,-0.063777596,-0.025325954,0.052343827,0.07677958,-0.0063273325,0.02563712,0.0049332296,0.020377927,-0.02769439,-0.021852918,-0.028631227,-0.05251709,0.047252703,-0.0019360298,-0.002170309,0.0033474127,0.012826283,-0.010415395,0.016377,0.021587009,-0.046809506,0.068382755,0.03219354,0.054147433,-0.039299842,0.05173751,-0.022463733,0.0059981006,-0.09117138,-0.023749355,0.06226496,0.014622576,0.050588723,0.06563153,-0.02640738,0.038725138,-0.0279478,-0.051867016,0.017102584,0.022587493,-0.057545945,0.025527826,0.02242187,0.06415805,0.05736733,0.07927666,-0.026118893,0.045954395,-0.059483677,0.06812942,-0.04502527,-0.023105022,0.065924935,0.007944444,0.04202839,-0.030142467,0.07940044,-0.017801534,-0.047284104,0.029590646,0.020453997,-0.07470084,0.01422269
ADAR,0.040351514,0.0038590946,-0.0057556336,0.006132054,0.055939727,0.038610835,0.049148027,-0.056365747,-0.013175257,0.0110526765,-0.047923554,-0.029574933,0.0036129057,0.055859003,-0.00928947,0.040658403,-0.02012253,-0.02893947,0.047714993,-0.034590445,-0.06849789,0.043937624,-0.0262869,0.03623619,-0.050727114,-0.04300031,-0.028167587,-0.003419744,0.06436635,-0.029890487,0.043930475,0.043034267,0.05161681,-0.01473801,0.041060723,0.040764105,0.0014068166,-0.013744004,-0.05942114,-0.025737967,0.05858354,0.004126698,0.033625465,0.08689535,0.029399725,0.065921575,0.045879994,-0.009716097,-0.035936806,0.04892176,0.005669063,-0.070141256,-0.05816061,0.044330597,0.06974458,0.010304371,0.027905907,0.061251782,-0.01537263,-0.04733487,0.024273017,0.07297371,0.00041532112,0.029118674,-0.003989632,0.019998323,0.05962946,0.03080387,6.0744416e-05,-0.0073726936
PPP1R15B,-0.016284946,0.04952127,0.013218355,-0.051899668,0.050641015,-0.09751013,-0.030700972,-0.012911471,0.077454455,-0.01501208,-0.0086451685,0.04506498,-0.028428126,0.003229112,0.07672676,-0.00014341233,0.0064744498,-0.07339622,0.0047002602,0.03822184,0.03168185,-0.05871571,-0.06807797,-0.030617753,0.04045988,-0.053006925,0.0207944,0.0802459,-0.056629673,-0.032496806,0.034109194,-0.033134054,-0.009561959,-0.056015138,0.060908422,-0.06625362,0.009403193,-0.003690758,-0.056512956,-0.002740775,-0.004502432,-0.02666973,0.05186548,-0.060836535,0.01609963,0.014221045,0.036718007,-0.08510384,0.036769792,-0.071046405,0.050927978,0.008689208,0.016704023,-0.06064862,-0.041676484,-0.014451662,0.034762044,-0.045869097,0.027574616,-0.0075530033,-0.04383077,0.057927698,-0.017417002,0.009846707,0.047922168,0.06123751,-0.020935552,0.022936214,-0.06442337,0.039370485
NAMPT,-0.02679957,-0.03051271,0.008400261,-0.044670742,-0.006790589,0.040332932,0.04852692,0.06703603,-0.057374053,-0.07601279,0.03010053,-0.05204709,0.048815906,-0.061259907,-0.059437715,0.037737038,-0.062728494,0.022309884,-0.00686356,0.0023150602,0.05617554,0.006978322,0.05771109,0.067460574,0.009785659,-0.005231827,-0.017423946,-0.008988028,-0.060221184,0.06114968,0.03338717,0.017566992,-0.05313129,-0.054467477,-0.047852363,0.023154091,-0.046156146,-0.020677663,0.0060830023,0.030349806,0.024582254,0.047652863,-0.052073676,0.051257018,-0.0057258853,0.06907319,-0.033108335,0.0011639078,-0.032394055,-0.0378536,-0.08778752,-0.044208445,0.053824812,-0.040674813,0.0447052,0.033536065,-0.06063938,-0.047512434,-0.049033858,0.034155622,-0.075459294,-0.069907196,-0.008443097,0.008426298,0.036884796,0.020459117,-0.051709745,-0.022135172,0.06825951,-0.028194174
UQCRC2,-0.015310187,-0.00541161,0.044074986,0.018964719,0.049166143,-0.032140706,0.010835559,-0.055526294,-0.041507017,0.00035124287,0.010539286,-0.03266379,0.030062333,-0.022268131,-0.007109696,0.042285345,0.05036093,0.042325635,-0.033881977,0.07589169,0.04720227,-0.060884897,0.0047481656,0.058391117,0.054916333,0.015852358,-0.0028981632,0.034000747,0.03643229,-0.044929188,-0.020797966,0.09812934,0.054133236,0.0011411523,0.029764522,0.0084681455,-0.059636887,-0.050711717,-0.05380099,-0.025481846,-0.058128674,0.022373522,0.023991246,0.043949965,-0.0492748,0.079423785,0.024579575,-0.012790039,0.043149438,-0.043657176,0.026750507,-0.02270034,-0.006354771,-0.04816274,0.03418873,0.024001222,-0.04486756,-0.053139072,-0.067539476,0.0059844675,-0.028043225,0.0054051736,-0.06498261,-0.042405494,-0.018602228,0.035726056,0.040401354,-0.0025020468,0.044785965,-0.066324465
PIK3C3,0.03678605,-0.006432622,0.0014931571,-0.00846291,0.01392005,-0.007543716,0.041950386,0.013413268,0.040023774,0.07744412,-0.062080182,0.0022309388,-0.036539625,0.062923335,-0.05386165,0.041933477,0.0046203295,0.1158163,-0.0367217,-0.016256094,-0.09337659,-0.024030251,0.05644237,0.010529232,-0.07363979,-0.023229383,0.05078449,0.05830864,0.11282643,0.018906275,0.04299507,-0.06349706,0.057930205,-0.045979667,0.042124707,-0.0031553016,0.054370876,-0.028295914,-0.045877546,-0.029685887,0.0707257,0.061896373,-0.005762289,-0.06067319,0.08928124,0.019109372,-0.028119503,0.034656756,0.006250866,0.06679548,0.013015137,-0.01115707,-0.018313736,-0.037084535,-0.03480461,-0.05628091,0.0584962,0.048198126,0.027360583,0.09104115,0.067194864,-0.04552614,-0.0092394855,-0.037420224,-0.028540468,0.060463473,-0.049278762,0.07992022,-0.06262561,-0.027978709
METAP1,-0.022632608,-0.029606434,-0.0016969967,0.03625314,-0.012405882,-0.03739073,-0.02867256,0.032606695,0.020318288,-0.017127313,0.027211402,0.06537044,0.06594477,-0.009312017,0.036791123,-0.013365665,-0.0053740735,0.005237041,0.0011605688,0.033122994,-0.024521317,0.045041747,0.026677417,0.004904557,-0.02656214,-0.009290089,0.02936777,0.104653165,0.06129243,0.016483728,-0.013742504,0.06460381,0.124007255,0.008334089,-0.029501261,0.0059267823,-0.0059361234,0.04205514,0.012990835,0.0383196,-0.016467487,-0.049092658,-0.03432512,-0.07708884,-0.043468513,0.079161935,-0.038591437,-0.013363348,0.026025705,0.047338296,0.08103516,-0.05526487,0.0644561,0.02287668,0.022388747,-0.01681886,-0.048896793,0.05945968,0.058509324,0.020073047,-0.05943669,-0.027158534,-0.0615703,0.084499806,-0.046644337,-0.0960214,-0.0018971174,0.029024437,0.032030843,0.0771768
IPPK,0.003820732,-0.01017961,-0.07490273,-0.0044592856,-0.026840415,-0.064185895,0.04657973,0.02819955,-0.033150584,0.048121773,0.0022302,-0.03738453,0.026423909,-0.03632683,-0.07020727,-0.027319763,0.07345567,-0.02894834,0.01579523,-0.070776574,-0.04357529,0.032678936,0.016975954,0.056530885,0.08725508,0.09332104,0.008870027,-0.008386949,0.014972311,0.019766053,0.013135841,-0.021425715,-0.07345855,0.028073944,-0.059422676,0.08345415,-0.029503629,0.031319622,0.0023172523,-0.061245095,-0.0012287719,-0.007473211,0.030830162,-0.06797351,0.00031329185,-0.020620085,0.027948927,-0.037749454,0.046833534,0.04584221,0.005845841,0.0099528935,0.07503021,0.031773042,-0.008348527,0.079296626,-0.0021843878,0.066958316,0.041247617,-0.06005873,-0.04175306,-0.051366087,0.016548349,0.014978405,0.083798766,-0.05460211,-0.00010836752,-0.03649831,0.069295175,-0.062087
TWNK,-0.07668142,0.033286553,-0.04339895,-0.069100894,0.0387087,-0.06278207,-0.12228467,-0.05729066,-0.0023060758,0.04901126,-0.01607884,-0.044744678,0.04294967,-0.06301058,0.014214076,0.032276064,0.014631946,0.015145773,0.033070706,-0.029063031,-0.05152337,0.062454708,0.00339198,0.054078534,0.01131443,0.0053928182,-0.06722138,0.04515519,0.06293093,-0.037634406,-0.0861588,-0.068811364,0.023427218,0.03918943,-0.009045843,-0.013005183,-0.002678852,0.06495313,0.04323826,-0.022139082,0.059709873,-0.055545203,-0.06558021,-0.063760646,-0.00808892,0.011940776,-0.050697066,0.0452766,-0.03415109,0.069243066,0.0015447277,-0.0380648,-0.009321279,0.06683805,0.03943844,0.090883434,-0.03604476,0.029440846,0.0026928065,0.04557585,0.053545684,-0.018282188,0.08356474,-0.010297724,0.0045090173,-0.027520575,0.015415193,0.04676779,-0.018713178,0.07689271
UROD,0.0251863,-0.019956319,0.038947623,0.03281898,-0.05891408,0.031880163,-0.041867997,-0.017508404,0.04543205,-0.01555425,-0.02654706,-0.04320398,0.005258735,0.05089373,0.0070047416,0.044829536,0.008636628,0.030605868,0.06873633,-0.023058642,-0.024456484,0.00284382,0.019201247,0.032325447,-0.051568426,-0.037660092,0.07044062,0.03693113,-0.07890162,0.015473212,-0.00053162116,0.0042555104,0.010618101,-0.04740998,0.076487646,-0.0774202,-0.018709306,0.033844836,0.07674286,-0.053957302,0.08890552,0.060614552,-0.06124935,-0.06332895,0.018229704,-0.025182126,-0.029717645,-0.10222862,-0.02347434,-0.0203225,0.078302205,-0.008490222,-0.010689435,-0.006711427,0.049833246,0.057145566,0.018013913,-0.025446726,0.05228882,0.015493942,-0.0053216596,0.00047839212,-0.034892,-0.07292356,-0.03372296,0.062725715,0.045798957,-0.0596341,0.028590824,-0.03013555
GPI,-0.043233424,-0.0054372367,-0.057909627,0.03042642,-0.016344901,-0.011763794,0.067880996,-0.012413429,0.04125975,0.05285966,-0.04767353,0.07022895,-0.033746056,-0.032295547,0.040702764,-0.003138424,0.07106489,-0.012460675,-0.055060703,-0.05747914,-0.060185425,0.039283432,-0.02692774,0.028650165,0.08957921,-0.011800428,-0.045282375,-0.059386194,-0.09237305,0.0067446805,0.022195438,-0.041527424,0.030987002,-0.08062962,-0.011883927,0.06931508,-0.09676632,-0.067206785,0.071066454,0.02388124,-0.0732947,-0.01373718,-0.06784332,-0.04260775,-0.064505644,-0.001896628,0.1040444,-0.08234563,-0.04659211,-0.007552693,0.01722992,0.029557444,0.05618581,0.0012535095,-0.04582265,0.047949083,-0.051501993,0.008256554,-0.050225496,0.030598374,0.021491837,-0.026285093,-0.027073415,-0.015330397,0.058729135,0.021672271,-0.008458509,0.023565888,0.042029083,0.0038170468
IMPDH2,-0.056603435,-0.024863368,-0.041781615,-0.062389314,0.011298768,0.05212873,-0.009001111,-0.012794998,0.005163262,0.061742783,-0.016691774,0.0042209383,-0.030392729,0.001723853,0.0055718315,-0.05181866,-0.0446261,0.043730937,-0.026477626,0.0020663438,-0.04951207,0.053501308,-0.007563366,-0.053187825,0.016754074,0.035318106,0.05201801,-0.013840279,-0.04084958,-0.03162377,-0.013929953,0.027713407,0.03624113,-0.05474964,-0.0077053807,0.046029232,0.011356959,0.0138887325,-0.0028648153,0.00037513897,0.060471904,0.03203693,-0.0062964945,0.0515266,-0.0014577803,-0.07838906,0.04150427,0.05181148,-0.059094198,0.049681254,-0.11451189,0.015256854,-0.022914894,-0.055127442,-0.08462483,0.010910561,0.010837509,-0.029669574,-0.045905642,0.07364438,-0.058519036,-0.07547076,0.032314394,0.010628322,-0.0037078436,0.03523382,0.046722483,0.034189127,0.103263915,0.07756431
METTL14,0.021839114,0.086413175,-0.018192224,0.041305687,-0.05400674,0.1049387,-0.012714898,0.036676273,-0.015209901,-0.056760605,0.08737847,0.013114491,0.0001429991,-0.08809538,-0.02312534,0.07147368,-0.052169867,-0.003054266,0.041410755,-0.036664538,0.05447669,-0.009302112,-0.016790133,-0.0035083985,-0.0018617256,-0.046048272,0.01941312,-0.026597485,-0.035328697,-0.059847344,0.035830665,0.070737556,0.06785213,-0.00130476,0.04094552,0.072122194,-0.057016447,0.06919893,0.033046197,-0.009752247,-0.06426464,0.052608397,0.030453434,0.015252487,0.034821384,0.02235631,0.05333235,0.044574503,0.08689922,-0.0045672017,0.010060844,-0.020823281,-0.035819396,0.047631137,0.0056952294,-0.020002728,-0.05320057,0.07592862,0.070215836,0.08829826,0.02464111,-0.016991561,0.03453506,0.024207225,0.044798594,0.06312475,0.118932664,-0.005330271,0.02445907,-0.044353686
AHCYL1,-0.09455547,-0.09837442,0.03556439,0.022239398,0.039866284,0.06623625,-0.03061525,0.015491978,0.033612948,-0.021956855,-0.009138413,-0.06361674,-0.023806488,0.024481647,-0.09532413,-0.008317751,-0.008343893,-0.005399883,-0.053306635,-0.04359088,0.05582208,-0.08763501,0.03318569,0.039181277,0.09966857,0.002488433,0.096588336,0.026236685,0.05256621,-0.018070959,-0.06381257,0.042896885,0.08045328,-0.067646,0.017451447,-0.03480932,-0.030755792,-0.0784762,-0.09394163,-0.06205305,-0.015713224,-0.0666914,-0.045232613,-0.05017212,0.037986644,-0.08518231,-0.03697701,0.0132045485,0.05161799,0.004246063,0.03223959,0.037359994,-0.057442456,-0.014226674,-0.013031608,0.06386655,0.097467,-0.008088638,-0.004501393,-0.036548246,-0.008133661,-0.04810733,-0.054959543,0.0059415996,0.025927221,-0.062493015,-0.027237162,0.044759464,0.009560327,-0.067877054
TFRC,0.033483226,0.021385256,-0.07026785,-0.02007579,0.009914805,-0.016843881,-0.08684864,0.11601438,-0.0075346176,-0.07034708,0.080067635,0.029398872,-0.043256074,0.08174727,0.049749825,0.015152711,0.020355416,0.05681674,-0.04646438,-0.018249853,0.039040267,-0.02250354,0.014370588,0.009031598,-0.021238778,0.018137192,-0.038845945,-0.013584666,0.045844983,-0.056158826,-0.010180932,0.042756993,0.016153937,0.05005354,0.08097367,0.068921514,-0.029830404,-0.053294856,-0.07413002,-0.0056623886,0.0052590724,0.013548474,-0.024988074,-0.024394626,-0.052345164,-0.011892346,0.02119628,0.049306512,0.0026689887,-0.023331434,0.038541615,0.07487033,-0.07803671,0.026328286,0.032402392,0.019907277,-0.023012966,0.060517713,0.03684316,0.057793383,-0.04148013,-0.011737613,0.0128740445,0.025572347,0.03043279,-0.04017577,-0.056487095,0.01907042,0.06606854,0.056867693
ATP1A1,-0.043373987,-0.065833926,0.028651921,0.0077857943,-0.060665417,0.010759941,-0.0084596,0.057480834,-0.054694515,-0.036543038,0.0010302888,-0.058953475,-0.06694892,-0.016013335,-0.004112134,-0.012106235,0.022035543,0.08655812,0.053592887,-0.023487423,0.07637733,0.015978225,-0.012374566,0.064165235,-0.032882635,-0.03617667,-0.00588055,0.038624797,0.037474904,0.03793339,-0.0024860206,0.010959141,0.01967273,0.039107878,0.032962944,-0.008019925,0.007062126,-0.07052064,0.010872304,0.038758386,-0.02725227,-0.04409843,0.051616997,-0.06957444,0.07105526,-0.006640703,0.06654654,0.023497622,-0.0107213035,0.005659791,0.009541662,0.042509507,0.0010692587,-0.072926156,-0.036724508,-0.056272507,0.052542422,0.018568499,-0.031248365,-0.035198443,-0.030986568,-0.03574522,0.0027926327,0.04719507,0.014034603,-0.015848497,-0.03418906,-0.0534439,0.10109066,-0.015871719
GART,-0.040093765,-0.03394794,0.033019163,0.05688712,0.028229604,-0.055766,0.006805963,0.01773523,-0.022156805,-0.03617973,-0.00013270703,0.002148708,-0.017692491,0.003184661,-0.070054546,-0.022009397,0.011841319,-0.10935695,0.065375306,0.009250086,0.03964102,0.005294351,0.0073995222,0.026200792,-0.06461344,0.05081984,0.068155766,-0.039029576,-0.03978767,0.026288483,0.03919005,0.089331895,-0.0017419589,-0.092351526,-0.024147151,0.09537755,-0.062318392,0.005269598,0.015714819,-0.021232318,0.057400253,-0.026905244,-0.054446053,-0.075225346,0.053453784,-0.026595153,-0.024752473,-0.083266266,0.037597213,0.0999644,-0.024950247,-0.03545137,0.0019470898,0.07675937,-0.028815176,0.06152712,-0.012928468,0.0769638,0.078794524,-0.020803507,0.05733021,-0.10564402,-0.05339507,-0.03676151,-0.047974717,0.05596605,0.020110937,0.04257616,0.08934119,0.01941728
DNM1L,0.010728453,0.011381018,-0.0062416475,-0.00011170742,-0.05424663,0.039062276,0.048102777,-0.11739297,-0.0053739217,-0.04966306,0.007922066,0.003241015,-0.05092459,-0.016522875,0.014445348,-0.030740906,-0.041539382,-0.06498052,0.07098451,-0.01775306,-0.034468483,-0.0413032,-0.0329985,-0.023470568,0.010481977,-0.0014896458,-0.037020367,0.027001213,0.004904978,0.059849504,0.02810293,0.060753446,0.07461421,0.027861265,0.0005711782,0.027036961,0.02580974,0.038296167,-0.027799748,-0.0008469249,-0.08000093,-0.025173686,-0.04068874,0.038045757,0.027008256,0.070445135,0.035083555,-0.018463878,0.027129257,-0.016928071,0.018834526,-0.00893246,-0.030292718,-0.0394031,0.021738488,0.014858204,-0.02313313,0.045054525,-0.0767384,-0.030893821,0.006739786,0.061747447,0.020189775,0.012673783,-0.043401454,-0.047237203,0.049722373,0.105391614,0.009039787,-0.0004934656
HUS1,0.016907437,-0.031083861,-0.004344455,0.06528785,0.00768238,0.082477786,0.03180731,-0.019447027,0.045101274,-0.0044588884,0.024738517,0.070299305,-0.02261548,0.052690845,0.006027972,0.050009128,0.04258227,-0.030281443,-0.018359061,0.030600168,-0.030901123,0.04800295,0.041542362,-0.07206268,0.0064317845,-0.028954647,-0.01913829,0.06892726,-0.0066554463,-0.0050079725,-0.0052961092,0.002820986,-0.011927439,-0.07465122,0.0062451074,0.0020202554,0.05093979,0.014552027,0.011976456,-0.022286484,0.036103033,0.017658565,-0.06786348,-0.055367537,-0.032994222,0.0326352,-0.05904043,0.026256876,0.008230756,-0.016875444,-0.056041252,-0.029301902,0.07160579,0.037209626,-0.04856306,-0.003042709,-0.053338934,-0.0013121504,0.057661295,-0.03779546,0.069215715,0.015370476,0.011119722,0.051841065,0.012553459,0.06434921,-0.032589167,-0.042970102,0.017523022,-0.01344309
