0,1,2,3,4,5,6,7,8,9,10,11,12,13,14,15,16,17,18,19,20,21,22,23,24,25,26,27,28,29,30,31,32,33,34,35,36,37,38,39,40,41,42,43,44,45,46,47,48,49,50,51,52,53,54,55,56,57,58,59,60,61,62,63,64,65,66,67,68,69,70
FAM50A,-0.065517336,-0.032732595,0.016796438,-0.05484384,0.036953103,-0.05053547,0.035076484,0.0071589947,0.03210271,-0.022362927,-0.034801766,0.011276021,0.017907225,-0.022583198,0.05861108,-0.03497756,-0.019538362,0.022419222,-0.01736899,-0.045085505,0.058737602,0.009186119,-0.038786903,-0.07644742,-0.0025402338,-0.058348797,-0.08965099,-0.0035829868,-0.02628092,0.012874527,0.04182882,-0.005250118,-0.058302626,-0.05149369,-0.022947093,0.015371441,-0.07359937,0.004936813,0.028779952,-0.05843086,-0.031160109,-0.005754973,-0.03994438,0.013299122,0.025823925,0.004728599,0.039805062,0.002153104,-0.048822623,0.041451488,-0.05843116,0.0049229967,0.0143232625,-0.0609588,-0.027649876,-0.046744104,0.038861923,0.07491481,0.029059386,-0.012528761,0.06739051,-0.024656827,-0.012545006,0.0040222895,0.009110985,0.0072086556,0.038655404,0.041392963,-0.013804041,0.034198448
CDK6,-0.0026794798,0.04550752,0.031916905,0.006864596,-0.011732334,-0.044318803,-0.0011060624,-0.030110635,-0.03252073,-0.060816333,0.054214563,-0.029994775,0.015845846,-0.03603182,-0.030279059,0.0042868727,-0.06458175,0.0573288,0.035060275,-0.10024274,-0.087281935,-0.007822118,-0.080639325,-0.039738823,-0.034282066,-0.044355903,0.0020818703,0.00056768465,0.00015471206,-0.026544502,0.0359003,-0.013095144,-0.05198677,0.015281867,0.037550826,-0.053843923,-0.076606266,0.07712505,0.049725484,-0.07552443,-0.05112073,-0.046521764,0.0075801094,0.02907227,-0.036241323,0.021532502,0.0130271325,-0.026849074,-0.051262144,0.04230713,-0.031361625,-0.08161259,-0.052618064,-0.06606378,0.012583586,0.016173258,-0.023864727,0.0033075386,-0.033670247,0.0062314845,-0.0037564912,-0.098214045,-0.030270431,0.029219681,0.024960304,-0.03160984,-0.07795339,-0.0057508578,-0.028775055,-0.0277715
CDAN1,-0.06535076,-0.022535551,0.0024430605,0.003644138,-0.05218232,0.003412897,0.043524783,-0.0013449525,0.04129448,-0.05963976,-0.016360272,-0.014601583,0.03763478,0.048582118,-0.052040596,-0.036362488,-0.016820239,0.043331303,0.023495983,-0.017872805,0.05176551,-0.010509634,0.0032508816,-0.042556074,0.013625923,0.011413819,0.006184483,0.018508544,-0.060900226,-0.077076524,-0.046384633,0.09885162,0.039985377,-0.09155375,-0.046239134,-0.0394092,-0.016163457,-0.00646658,-0.059645563,0.038827203,-0.028586583,-0.0810892,-0.0014905594,-0.01098219,0.07110342,0.027261244,0.07172025,0.05021812,0.05324419,-0.085621536,-0.06513755,-0.027509065,0.037113063,0.08967258,-0.04035547,-0.039354604,0.006433709,-0.010531653,-0.019285185,0.057220645,0.052261878,-0.020467918,-0.038527917,0.019662078,0.013878757,-0.0206905,0.019237155,0.010506779,-0.010601515,0.025415339
GPX4,-0.051661644,-0.011449968,-0.06315219,0.023218881,0.0049728993,0.056592967,0.018016765,-0.054374408,-0.011834732,-0.0806681,-0.028578818,-0.0021628444,-0.041431405,-0.013822272,0.022100387,0.0388578,-0.027164724,0.016799796,0.07441486,-0.058455303,-0.028148325,0.033936154,-0.06919785,0.040488098,0.08036426,-0.06169249,-0.025611714,-0.025959637,0.001377877,0.0444055,0.013056199,-0.0040408573,-0.05388777,0.09741066,0.018366378,-0.01284033,-0.044827707,0.06354394,-0.049470354,-0.025698774,-0.012943852,-0.056402717,-0.028677413,0.014523806,-0.036250718,-0.07198392,0.027230978,0.06490921,0.05306587,0.026810052,-0.060672816,0.076211885,0.066945136,-0.08921407,-0.027149111,0.0063264994,0.03944955,-0.048072923,-0.04850483,0.018808015,0.005305687,-0.060738694,-0.04565618,-0.0016051605,-0.040403232,-0.023257652,-0.043614876,-0.081618585,-0.02904837,-0.069127224
SEPHS2,-0.013520882,-0.010980014,-0.004322761,0.046486102,-0.047012787,0.03436046,-0.049735907,0.044843122,-0.027026704,0.004495189,-0.07145174,0.078203864,0.08051828,-0.024136052,0.061788127,0.018483,-0.063156486,0.07789574,-0.03405255,-0.01719849,0.06443898,-0.061845805,-0.05608375,-0.06286213,0.028907573,-0.055053793,-0.01224714,0.055432398,-0.018569658,0.010991956,-0.03517576,0.03532158,-0.01833658,0.07731225,0.032822758,-0.034650393,-0.041803148,-0.05244511,-0.010934053,-0.044518664,-0.012842068,-0.005303126,-0.025841266,0.008574956,0.07552458,-0.0010273112,0.0031541495,-0.0071387454,-0.055084936,0.0052939104,-0.023898797,-0.063398294,0.033396836,-0.010535871,-0.07340289,0.025039842,-0.0053286115,0.010165333,-0.0055875774,-0.0048168707,-0.012993114,-0.01699864,-0.053928602,0.027879983,0.04706712,0.017588869,-0.05706766,-0.060426407,-0.07333473,-0.05718337
RAB6A,-0.036943164,0.0059044356,0.04051351,0.036358822,-0.016670853,0.0067825746,0.05369751,-0.025334459,0.019403875,0.056587867,-0.08931138,-0.036465425,-0.009385551,-0.03742742,-0.051626746,0.08430968,-0.04300602,0.05488194,0.008161087,-0.03196817,-0.011961301,0.09696052,-0.047218338,-0.04469549,0.027585965,0.0076505262,-0.015315463,0.07677585,0.047203347,-0.008914191,-0.04912827,0.0102966195,0.015543788,-0.016329337,0.0053537097,-0.0046414426,-0.02218403,0.08375274,0.011901686,6.603224e-05,0.010480442,0.01220511,0.025755128,-0.07205326,-0.043015722,-0.05321591,-0.10614546,-0.056365874,-0.0038242368,0.054890294,-0.0032016055,-0.018565426,-0.041996352,-0.07201244,0.01682634,0.02247731,-0.015018332,0.024159363,-0.053930644,-0.01096977,0.03002525,0.0036812497,0.008783885,0.043607924,-0.024145033,-0.02079987,0.0015634365,-0.03984143,-0.06929183,-0.05347217
SDHB,-0.06837419,-0.07101148,0.018832378,0.0838785,0.0064673657,0.033326216,0.05125801,-0.04214829,0.060408745,-0.034802694,-0.0034370837,0.010788202,0.052313376,0.026790213,0.014816177,0.013184866,0.029835802,-0.028657695,0.030422002,0.037125535,0.049237162,-0.043027166,-0.055900916,0.033858437,-0.044127952,0.023691304,0.00064154784,-0.04987166,-0.058433257,0.041078314,0.011871608,-0.015396306,0.049189962,-0.05571125,-0.048194453,-0.06793129,0.057598114,0.008168684,0.013982091,-0.037586037,0.07890684,0.011125789,0.01368176,-0.01409665,0.032891784,-0.07319707,-0.021654652,0.024061924,-0.0059989803,-0.057239015,-0.1129096,0.049100675,0.024768585,0.021005465,0.078589976,-0.030823499,-0.04730327,-0.0347929,-0.011561201,-0.03716028,0.010935387,-0.0016852476,-0.059090566,0.00408367,-0.010964308,-0.04775924,-0.036430705,0.027716693,0.052262776,0.021538584
AIFM1,0.06738265,0.07773833,0.047814555,-0.045546066,0.008011002,-0.0009061439,-0.030956501,-0.05326984,-0.06112657,-0.01678469,-0.04215219,0.053566433,0.00034878068,-0.048944086,0.07627617,-0.03160552,0.061522152,-0.0017717156,-0.027122807,0.007143179,-0.09772804,0.04079806,0.09847458,-0.060558904,0.046132263,0.03250226,0.0007236296,-0.006366436,0.07296949,-0.024853505,0.05213702,0.05665607,-0.056791708,0.010743958,-0.027515868,-0.06888728,-0.017056774,0.011709641,0.05726128,-0.10321107,0.03268831,0.039719492,-0.008435787,-0.07662435,0.03656373,0.040242914,0.0043194178,-0.016455714,0.040282812,0.010044315,0.0823471,-0.018163433,0.025926707,-0.06580981,0.04408924,-0.014332994,-0.042599924,-0.038071077,0.018957134,-0.035511352,0.038774405,-0.018443214,-0.021019388,0.04750371,-0.0066573117,0.019175895,0.056767665,0.06595936,-0.028577339,-0.02688831
SEPSECS,-0.04585109,0.0010356995,-0.019859275,0.04443861,-0.062241253,0.03443372,-0.06358164,-0.088438906,0.051278878,-0.051504306,0.03894606,0.042840283,-0.0096587455,0.052243102,-0.044057637,-0.043145224,0.027519345,0.017850157,0.012091786,0.03980169,0.08308598,0.035802007,-0.012770343,-0.059729893,-0.06062668,-0.046040893,0.005733901,-0.008822607,-0.016879257,0.06217224,-0.034018494,-0.022747576,-0.042973824,0.026266908,0.0452212,0.062693596,0.012422227,-0.059099942,0.030045493,-0.038312953,-0.024885248,0.016840328,-0.044125646,-0.013358956,-0.011136448,0.027784202,0.06246996,-0.026338546,-0.035130884,0.03138466,-0.0072302637,0.049369704,0.077042066,0.077848956,-0.012676495,0.039822716,-0.02445079,-0.005535896,-0.043429025,-0.0040802183,-0.053793143,-0.047922295,-0.0142080635,0.028447304,-0.010402267,0.0012680758,-0.0062399497,0.012874812,-0.009841556,0.023820626
GRB2,0.03386622,0.0066789077,-0.06090469,-0.00053160975,-0.06725262,-0.1046013,-0.013426928,-0.054433845,-0.059423372,0.07795467,0.0462228,-0.024261486,0.04485305,-0.024580501,-0.00097583554,-0.040515125,0.0062547685,0.026118085,-0.0025347655,0.029491227,0.010259362,-0.006656094,0.013272893,-0.020797908,0.08480226,-0.07478118,-0.032287203,-0.010085984,-0.02460464,-0.038316026,0.057914466,-0.021593379,0.08990143,-0.0036827067,0.053808965,-0.014490454,0.0031154857,0.033936888,-0.0020216596,-0.07234316,0.041985538,0.012241783,-0.009829264,-0.026587058,-0.035188146,-0.027030755,0.062858306,-0.044403724,0.03251692,-0.061484065,-0.07905433,0.062934354,-0.005213037,0.08545938,-0.033301502,0.064578295,0.025700616,-0.097306274,-0.059096336,-0.014759455,-0.08018744,-0.040564016,0.011536303,0.03254853,0.03594191,0.052783974,0.0343951,0.016402924,0.065545976,-0.02941281
RIC1,-0.027844395,-0.030402333,0.058846008,0.033854406,0.0033533655,-0.0135352975,-0.05379575,0.03818112,0.084064454,-0.041436464,-0.02823912,-0.062559664,0.06553193,0.021028483,0.02683588,0.0045662243,-0.047989383,0.013937143,-0.037427656,0.07020971,0.030517634,-0.005611833,0.0239879,-0.017085457,0.021290002,0.073528476,-0.07011465,0.047722474,0.04804276,-0.03464421,-0.053380672,0.023526568,0.069629215,-0.08164003,-0.017972572,-0.014774859,0.048184954,0.042466983,0.0013317267,-1.4150937e-05,-0.071904935,0.046457488,0.016731694,-0.0064434824,0.05286373,-0.032231085,-0.08003226,0.021317214,0.05038187,-0.02949814,0.025699047,0.016672684,-0.00532477,0.016769405,-0.015005012,-0.0354484,0.006435038,-0.02082928,0.04024652,0.021035397,-0.027527303,-0.019619163,-0.06199978,0.062780716,-0.06334063,-0.021071771,-0.0775542,-0.040421076,0.037606757,-0.02849666
TOE1,0.03535006,-0.009845591,0.03313196,0.021341478,-0.02893233,-0.00772172,-0.020299584,0.088498466,-0.06967911,0.038880628,-0.060392477,-0.017969035,-0.016537327,0.054382324,0.11313899,0.0776434,0.023583336,-0.110829465,0.06206881,-0.02267816,-0.064000614,0.094165504,-0.08334759,0.07988187,0.021416258,0.029737813,-0.040927324,0.041030053,0.024194838,0.09143905,-0.045822237,-0.014084826,-0.014375606,0.037096273,-0.02215419,-0.06010047,-0.061956566,-0.035319943,-0.083555944,0.0071743918,0.034536958,0.029680157,0.0022988392,0.037389886,0.05852888,-0.017076867,-0.040627085,0.06707538,-0.023554612,0.053817112,-0.03808488,0.052712314,0.08768355,-0.04894822,-0.072798654,-0.041867673,-0.06755961,0.020298406,0.05436276,0.03385019,0.0055015837,0.053330895,0.069765754,-0.023916364,-0.023482494,0.014132561,0.031043235,-0.026994098,0.04421563,0.028658137
STAG2,0.031834777,-0.06216983,0.022491485,0.032943066,0.0538463,-0.037153836,-0.08477588,0.07369249,0.058035024,0.01037374,0.050474126,-0.016004672,0.0071893544,0.08033317,0.07717556,0.012224259,0.06927491,-0.03799658,0.06155477,0.03376066,-0.020386986,-0.049466696,-0.07784314,-0.04133311,-0.09086594,-0.018722119,-0.021589033,-0.03568037,0.024487572,-0.045704465,-0.014010459,-0.03127483,0.048074163,0.0020455397,-0.024215799,-0.019809278,-0.06783753,0.07292195,-0.016624592,0.0688209,-0.03951,-0.05478422,-0.039868057,0.04024954,-0.048637263,0.017286582,-0.032523468,-0.06642449,-0.01523683,0.03675052,0.055225372,0.04025558,-0.036324583,-0.061884318,0.0032642258,-0.0070641306,-0.00182575,-0.0404947,-0.0030557334,-0.04435936,-0.04145847,0.01771491,0.0191666,0.047444947,0.01565417,0.029823767,-0.030196805,0.049170546,0.07837824,0.028739944
EFR3A,-0.052945085,0.016377835,0.035843395,-0.034939565,-0.026770953,0.007922566,-0.03975417,0.012775407,-0.07346658,-0.065399945,-0.009929806,-0.007263741,-0.039018437,-0.0039071147,-0.024740146,0.0052036974,-0.038447578,-0.06757412,0.03873404,-0.0016914498,0.0257888,-0.046408664,0.0408132,0.04418281,-0.031035308,0.017609257,-0.084375106,-0.001993142,-0.009674861,-0.0056196623,-0.024356075,0.059285317,-0.046310317,0.047633607,0.009357578,0.0657335,-0.0657686,-0.01566504,-0.013867486,0.013829818,-0.008120514,0.06703314,-0.019723395,0.033878352,0.06755652,-0.028512197,0.008200535,-0.095006116,-0.019448118,0.08206904,0.028265322,-0.01653691,-0.008505836,-0.041448746,0.020652262,0.031742904,0.017161647,0.006199212,-0.004224006,0.024611104,0.072101906,0.023323344,-0.0075931684,0.04512323,0.027004844,0.02397772,0.026211357,0.07300091,0.04853307,0.05869903
ITGAV,-0.0114131635,-0.0028201374,-0.050741125,0.028934127,0.05385678,-0.020565199,0.047960993,-0.08527328,0.055370413,-0.003681918,-0.072289035,0.047316417,0.0044536833,0.06500227,0.015390582,-0.006313961,0.010877833,0.02873974,0.034661207,0.060512856,0.048892386,-0.032904122,0.026255934,-0.0062438026,0.05655289,-0.076912224,0.043255422,-0.073886,0.032501362,-0.058848426,-0.044457205,0.05549261,-0.053005267,-0.06964171,-0.054979753,0.062041298,-0.008690389,-0.0016981811,0.03028791,0.021943463,-0.035340093,0.0028463365,-0.056905277,0.01889632,-0.071383394,0.03874038,-0.020256631,-0.00084231317,0.02252638,-0.06139491,0.045490332,-0.03728953,-0.027430778,-0.034665275,0.010613926,-0.032280494,-0.046654366,-0.044934217,-0.0060519245,-0.026110245,0.02904192,-0.055263948,0.10045335,0.0052328994,-0.028843937,-0.010408188,-0.009937057,-0.061353415,0.049283594,-0.03678319
BRAT1,-0.02530573,-0.02523417,-0.013133656,-0.022411497,-0.018150765,0.008889736,-0.06507259,-0.06915476,-0.013850587,-0.042858317,0.015939603,0.04754505,0.0059026335,-0.051778268,-0.030032383,0.027558189,-0.041591812,0.023626398,-0.035290465,0.0011152072,-0.06399114,0.053612586,-0.027707074,-0.012783849,0.059640646,0.024892772,0.06441017,0.06246425,-0.017481806,-0.0078082797,-0.059827853,-0.039336286,0.009375706,0.019021733,0.051961396,-0.017502561,0.03621905,0.03833967,0.032846987,-0.08164211,0.0667783,0.020881718,0.034115773,-0.06867189,0.00032035154,-0.02088369,0.012420204,-0.05124642,-0.0007379532,0.05196961,-0.016418694,0.018249104,0.005333263,-0.035022773,-0.06034974,-0.01592462,-0.039698076,0.025328143,-0.03784027,-0.07976964,-0.02469266,-0.010118584,0.06631296,0.050718457,-0.027256992,0.0088901045,0.029745478,0.039952174,-0.016897492,0.06237833
ENO1,0.027889019,-0.044757724,-0.027458027,0.036892414,-0.028190633,0.019985663,0.015609634,0.0729209,-0.043524954,-0.015614179,0.018226713,-0.035223275,-0.0015890116,-0.022055982,-0.008762564,-0.052280776,0.071334325,0.038661808,-0.048740946,-0.025976984,-0.043034587,0.06799446,-0.025119912,-0.008508759,-0.027586678,-0.022779608,0.0050436384,0.026360393,-0.002031488,0.038124137,-0.05556049,-0.050338715,0.0070932894,-0.014163587,-0.029734991,-0.0034317593,-0.022778507,0.03161081,-0.063246235,0.045067344,-0.005253752,-0.05090033,0.0062646526,0.05784759,0.0011985635,0.0066071707,-0.0314836,0.041924912,0.025235763,0.056412514,-0.008718791,-0.010557399,-0.004118809,-0.01306584,0.069486596,-0.09641197,0.047909256,-0.06603131,-0.022909116,0.059599027,0.0039093923,-0.009231561,0.026520548,0.031620327,0.08665194,0.020089079,-0.04946155,0.00052824896,-0.019631792,0.009834096
FERMT2,-0.04497441,0.035515208,-0.017720863,-0.013551421,0.04126025,-0.061279878,0.059701648,-0.046578515,-0.014836993,0.07642267,0.034657903,0.014037073,-0.074826926,-0.01777441,-0.01747947,0.007974635,-0.05584688,-0.032008886,0.033021115,0.02760485,0.076671146,-0.07115116,0.08887718,-0.027654674,0.052528,-0.04681765,-0.052297942,-0.081176125,-0.07295564,-0.006295443,0.046897043,-0.058852293,-0.014036273,-0.04640018,-0.023592206,-0.050033122,0.04917311,-0.057686657,-0.011842864,0.081852086,-0.048743207,0.03842076,-0.050619747,-0.0044315793,-0.05374653,0.07225905,-0.063419364,0.044241,-0.057303343,-0.03471419,0.017718226,0.032379787,-0.04429107,0.048806287,0.018817281,-0.022207843,0.0392184,0.022650069,-0.0050556543,0.012048688,-0.06339351,-0.022223016,0.02310258,0.0073468545,0.057522323,-0.03490293,0.02381278,-0.037957907,0.015762383,0.059889145
NHLRC2,0.008991386,-0.045433994,-0.034994394,-0.024326928,-0.039909672,-0.016302396,0.04666475,0.036447544,0.0008331533,-0.015156064,-0.0028359408,0.04061248,0.021497814,-0.041859068,-0.040048696,0.05263547,-0.026333638,-0.014605637,-0.014219624,0.023584988,-0.028024884,0.026911639,-0.045400996,-0.011647939,-0.051203117,-0.032869432,0.061436545,-0.06640289,0.07867229,0.028351052,0.04431884,0.02933542,-0.0070828306,-0.017781736,-0.07538753,0.053909086,-0.012199071,0.03277659,-0.044798322,-0.030329015,0.0020802647,-0.045453977,-0.0821666,-0.008827441,0.03159669,0.020401241,-0.064868465,-0.005304286,-0.040998362,-0.044718225,-0.010802577,-0.07797992,-0.0031436128,-0.07767567,0.02775794,-0.018728463,-0.01899857,0.057502903,0.0050617685,0.049966574,-0.0032251587,0.016547885,-0.040210728,0.04942564,-0.059109833,-0.017536176,0.066844225,0.018355653,-0.07242845,-0.055728145
NXT1,0.0060322443,-0.0053713433,0.006833723,0.0043129134,-0.057527456,0.011107972,-0.043171298,0.027489359,-0.017272858,0.044669904,-0.060468428,0.010208131,0.033199903,0.038242623,-0.02017901,0.028167117,0.079726614,-0.008839537,0.024132917,-0.011345347,0.01811058,-0.042084295,0.07391037,0.07705733,0.07848518,0.0090182945,0.049447477,0.0012888474,-0.09663691,0.049742285,0.048277427,0.04114744,0.046618678,-0.025852287,-0.050274357,-0.03672798,0.014221368,0.022983303,-0.029881744,-0.08229292,-0.04833521,0.031474978,0.04708577,-0.058337174,0.045336943,0.05205793,-0.043539837,0.04743303,0.058453973,-0.010569159,0.0022850474,0.036321934,0.04921334,0.090809405,0.03459149,0.02939657,0.045296665,0.01326832,-0.023199126,0.034393474,0.075454205,0.037488278,-0.085496016,0.034876823,-0.016831633,0.04944697,0.10103323,-0.037277825,-0.014766724,0.037829537
STX4,0.023199784,0.04010283,-0.01408608,0.0820262,-0.058546904,-0.05675867,0.042312946,0.05862407,0.07809491,-0.07099355,-0.079205796,-0.045326807,0.00083165657,-0.048403352,-0.014663563,-0.025413739,0.09293428,-0.052287992,-0.06808915,-0.054490462,-0.050676074,0.016343705,-0.03593523,0.023556238,-0.010373283,0.040680148,0.020269023,0.031062739,0.02987669,-0.02463852,-0.016973805,-0.029040374,0.039349884,-0.060338546,0.026017841,-0.06760852,-0.0680921,0.058365528,-0.02534477,0.03381453,0.030956421,-0.07905737,-0.07331262,0.0540071,-0.003902871,-0.037138604,-0.06569514,0.05753807,-0.03228665,0.006700832,-0.01692431,-0.028860275,-0.0015895747,-0.039372955,-0.017962685,-0.039539605,-0.013415862,-0.0331582,-0.04216952,-0.0616788,0.01688844,-0.052532118,-0.047296636,-0.0136016365,-0.038085047,0.028092278,-0.047384698,-0.0013468792,0.1277508,0.066678196
DNAJC11,0.049832076,0.03156057,-0.031229306,0.03884972,-0.0114451805,0.045058213,0.06471976,0.029570086,0.0006117054,-0.008128101,0.036488604,0.013042025,-0.042665087,0.021443883,0.00024360849,-0.04180873,-0.01707493,-0.0013462361,0.074323244,0.064825475,0.002556982,-0.069959775,-0.075030915,0.08067907,0.0029922253,-0.01903705,0.018323576,-0.06277625,0.015937755,0.01878656,0.01183134,0.019944746,0.019201724,0.010994701,0.0013596212,0.02530031,-0.023423571,-0.047676835,-0.11064266,0.04895905,0.044087917,-0.082249336,-0.01046927,0.036784265,0.02821725,0.008987862,-0.057125606,-0.055024933,0.030190919,-0.0015874954,0.017438779,0.05129694,0.023338832,-0.049957976,-0.005588894,0.07151138,-0.031880587,-0.012826928,0.008361014,0.0675315,0.0165682,-0.01799984,0.04377678,-0.019936837,-0.07237488,0.009684961,-0.013956119,0.03206926,-0.0089623835,0.035503447
MBTPS1,0.101946324,0.07857055,-0.0495096,-0.01607906,0.079276696,-0.05334777,-0.02928567,-0.051324293,-0.04389677,-0.058976192,0.0417127,0.028956411,0.10370612,0.015074064,-0.015767546,-0.04689201,0.049860388,-0.041215815,-0.02962903,-0.015068405,-0.08333215,0.07711392,0.06376379,0.029360097,-0.0444814,0.07817307,0.002020102,-0.04729972,-0.008203507,0.022067921,-0.015323048,0.050226346,-0.036400586,0.05324218,0.049729433,0.0024748351,0.043761935,0.058800545,-0.05676463,-0.041130777,0.009191617,-0.04634064,0.016988812,0.065637656,-0.054400645,-0.013422282,0.020473754,-0.006369163,-0.030586245,-0.051535066,0.027081694,-0.044205647,0.028327748,-0.05061437,0.07022641,-0.01184518,-0.0417796,0.04017325,0.022518933,0.028645273,-0.02662188,-0.040319655,0.012484448,0.070214435,0.021861743,-0.0027496496,0.024214055,0.0035017638,0.0069594695,0.00967505
CFLAR,0.051175367,-0.011195134,0.05521502,-0.009854807,0.06921809,-0.0078196665,-0.050480794,-0.014697296,0.01324896,-0.030914593,0.02869352,-0.047681812,0.034861386,0.024569629,0.007246598,0.005237899,-0.07494507,0.055769306,0.040850833,0.012278958,0.05134371,0.00790836,-0.027381591,0.039785076,0.012710967,0.04103202,-0.004470781,-0.022705039,-0.052980997,0.04455699,0.060087163,0.03147185,-0.026535692,-0.03715917,0.010093605,-0.03562286,-0.00093086774,0.02957451,0.022015499,-0.054942727,-0.05794017,-0.0511661,0.009373267,0.030854125,0.04903508,0.0853908,0.034452263,0.055877794,-0.054889265,-0.013774377,0.027967902,-0.06853678,0.058657985,0.04452312,0.036624447,-0.023867581,-0.07814768,-0.05952203,0.039482582,-0.052053127,0.053640515,0.062693074,-0.010746538,-0.048768107,0.090955414,0.007866892,0.057411943,0.0027816072,0.07362234,0.023564117
SNAP23,-0.02895817,-0.08241357,-0.04580539,0.04419545,0.0024635307,0.04111241,0.013057049,0.012217836,0.059716936,-0.05690446,-0.009653466,0.042355206,0.04122714,0.0021553014,-0.07974832,0.06638921,0.05335049,0.047076236,-0.019877458,-0.07832611,-0.0550607,0.046113443,-0.08326784,-0.007887677,-0.053425405,-0.09860734,-0.008953462,-0.04070541,0.014658628,-0.039037403,-0.022281528,0.032061394,-0.11380455,0.11398618,0.1159423,-0.0037629113,0.06492406,-0.05106771,-0.025336685,-0.025799822,0.056044355,-0.0257394,0.055166543,-0.028912228,-0.017437568,0.015124642,0.02059179,0.014193828,-0.05736806,-0.010235647,-0.02524019,-0.015341716,0.010704877,-0.005354582,-0.051118243,-0.038600817,0.07432153,-0.06158673,-0.020574355,-0.053389885,0.062192813,0.0106638465,-0.025464272,-0.05135139,-0.002994835,-0.06015342,0.022997418,0.08922154,0.053115986,-0.058597818
VRK1,0.016353061,0.0022515988,-0.0002991135,0.049328685,0.056441214,0.023406407,-0.0479997,-0.0068878173,-0.008149946,0.035445027,0.0024232115,-0.025902897,0.02703277,0.04315839,0.01415452,0.05224418,-0.059637673,-0.05068586,-0.053744223,-0.007726037,-0.06436019,-0.030572454,0.04053556,0.072281174,0.04820494,0.014889354,0.0696573,-0.026571337,-0.048682395,0.02438517,-0.04263647,0.005789551,0.08097911,-0.028735954,0.010228987,-0.025405357,-0.042870034,-0.019523328,0.064131245,0.03245353,0.022515286,-0.0026676334,0.032658942,-0.026982341,0.029757507,0.035312288,-0.008718015,-0.027945736,0.0046312273,0.040585708,-0.04475427,-0.07280525,-0.054452624,0.022285322,0.009127598,0.00427403,-0.057380117,0.051691633,-0.038888194,-0.03324055,0.022062505,0.048132416,-0.05364939,-0.05686576,0.051612888,0.049721476,-0.056711428,-0.016947567,-0.020218855,0.08371529
WDR73,0.01080612,-0.035389002,0.040428843,0.11204178,0.031672593,-0.012686727,0.03507685,-0.032954134,0.00610398,0.039394874,-0.05455474,-0.08086294,-0.023322443,0.029589757,-0.016758386,0.09041922,0.05080424,-0.05527016,0.065802015,0.02181323,-0.024741141,0.047536068,0.020077648,-0.012881158,-0.021181477,-0.042005926,0.032591224,-0.048785087,-0.032143228,0.01452005,-0.0018915723,0.0015631651,-0.03080816,-0.04993711,-0.042457882,0.067869104,0.060514532,-0.030876482,-0.051023573,-0.07322848,0.050580267,-0.021706298,0.018489545,0.07175831,0.020450344,0.03559764,0.057910524,0.009443373,0.06477398,0.0852709,0.007607188,-0.0031650192,-0.029727293,-0.06583426,0.042254996,-0.019112762,0.022050174,-0.071981855,0.08061506,0.00850836,0.07578973,-0.0049012997,0.07893323,0.07668016,-0.074333675,0.10053855,-0.012426037,0.025769038,0.025871588,0.058346637
EP300,0.0066584344,-0.08085038,-0.063065924,-0.050025173,-0.033454947,0.07899212,-0.09564171,-0.008816029,0.031610973,-0.07793548,0.050974347,-0.07330768,0.05618967,-0.06560223,-0.013377002,0.04645092,0.06527641,-0.031873107,0.017082686,-0.062264986,0.08600878,0.0062904186,-0.10395046,-0.0012728227,-0.07311959,-0.05097183,-0.117556944,-0.030418849,0.078869395,0.054718934,-0.048898835,-0.01451356,0.012686165,0.06353768,-0.004803943,-0.029267054,0.0764072,-0.025972297,0.03547442,-0.05578719,0.09040232,-0.003662338,-0.039871316,0.014908006,-0.046370495,-0.0056337276,-0.0887672,-0.01817019,-0.06257415,0.0609082,-0.024825575,-0.008571107,0.05976393,-0.020546481,0.014826035,-0.072755985,0.036789734,0.033334006,0.06808294,-0.021773113,-0.019456506,-0.02866081,0.06823611,-0.011919642,-0.03247777,-0.045589495,-0.033690535,0.04096748,0.04497167,-0.08949593
PSMG1,0.041585546,0.020998731,0.012384071,-0.003054678,-0.034994606,0.029559277,0.071323104,-0.060789216,-0.022192018,-0.04142274,-0.00093824766,-0.018907638,0.028249715,0.063990034,-0.08697659,-0.011471484,0.034297355,0.050603174,0.053526532,0.046380255,-0.039571878,-0.06875572,-0.018977605,-0.017611649,0.036806546,0.04817426,-0.09057572,0.0178245,-0.058457065,0.028638054,0.024096062,0.014609211,0.0024426847,-0.06443084,0.045186583,-0.05083902,0.021629142,-0.07561742,0.08922007,0.08214964,-0.023224153,-0.026536714,0.04027989,0.06979026,-0.0709039,0.06044819,-0.04732007,0.05431654,-0.034040302,0.025276773,0.05240563,-0.0097097745,0.04457924,0.0051562777,0.0389747,-0.04527847,-0.06282539,0.020964341,-0.068964474,-0.005749041,0.0041281423,-0.0070457193,0.03891414,0.013386138,0.04248416,0.002340583,-0.03377853,-0.0131482165,-0.057397515,0.02570486
MYH9,0.010563899,0.013773416,0.102758415,0.010008032,-0.013673471,-0.026533933,-0.020480543,-0.010214811,-0.05611202,-0.053219542,0.03847156,-0.0015220565,-0.006502805,0.038541894,0.082364805,-0.010033904,-0.035694733,0.024926107,-0.013913461,-0.038215153,-0.030431874,0.09553134,-0.028468683,-0.09063558,0.02912705,0.024839062,-0.081057444,-0.029865034,0.049278077,-0.0107014645,0.008612263,-0.030877393,-0.023229249,0.012406496,0.0074930717,0.04016915,-0.08884693,0.02827958,-0.0069519947,-0.046235636,-0.045865156,0.043236136,-0.010615048,-0.010416171,0.04112744,-0.019714367,-0.03685646,0.013243644,0.018742396,-0.02937576,0.063863255,0.0483392,0.02069961,0.038976144,0.04232128,0.03135991,-0.001403113,0.09865535,-0.017733738,0.060330067,-0.03174297,0.029969782,-0.03288028,0.02571631,-0.06326213,-0.023740506,0.0013564589,-0.0060482407,0.006750701,0.013313108
ATP5ME,-0.061297625,-0.024464238,0.092498995,-0.06756352,0.001130783,0.010537602,0.0022373432,-0.012798592,0.0034578722,-0.048850387,0.021982457,-0.014667786,0.029150786,-0.031511143,0.04775414,0.018677901,0.012720596,0.063920915,-0.072615884,-0.018827846,-0.050246496,0.02327664,0.04119135,-0.0021303594,-0.049819835,-0.033814803,3.4944012e-05,-0.026308624,-0.0030656473,-0.013960957,0.025824858,0.032315087,0.07587944,-0.029122181,0.025696062,0.034696855,-0.052238252,-0.037450287,-0.05346494,0.090518534,-0.02618426,-0.04847252,-0.052640162,-0.093648404,-0.06459324,0.00993561,-0.0110356845,-0.017158771,-0.042177226,-0.018717859,-0.056524478,-0.026741268,-0.008913614,0.008441481,0.05358624,0.02014772,-0.060862653,-0.024452701,0.0059401216,-0.04920507,0.045325607,0.030443694,-0.017108481,-0.016522527,0.028786542,-0.020736627,-0.03295822,-0.082325995,0.019482376,-0.016760776
MED24,0.07957873,-0.003621207,-0.066982225,-0.08728317,-0.088456355,0.0013286977,0.0023878303,-0.0048889746,-0.041450404,-0.023842897,-0.015716111,-0.07171827,-0.033828817,-0.0419596,-0.050587133,0.033724423,-0.019587716,-0.046639126,0.028695159,0.071927324,0.06842075,-0.04699668,-0.05525068,-0.020080503,0.08649938,-0.0015439658,-0.07340464,0.013964475,-0.03484958,0.05355828,-0.03402247,-0.057530306,-0.039701805,-0.0009794981,0.0036437756,-0.06190952,-0.05707818,-0.025767436,-0.0352076,0.0066550504,0.013117723,-0.044817984,-0.0051323683,0.0023625302,0.018831184,-0.07334709,0.0021964046,0.0032629098,-0.073952466,-0.0578046,-0.03321699,-0.091056004,-0.0068916497,-0.06835562,0.06576363,-0.026528839,0.08170901,-0.0055088913,-0.07739759,0.036278263,0.07896913,-0.018819109,-0.019685624,0.05180571,-0.04388233,-0.049409524,-0.029034952,0.00016364519,0.018567966,-0.08010278
EMC3,-0.091396235,-0.039073903,0.014245792,0.083853334,0.05016235,0.024277117,0.05056277,0.021733372,0.044105936,-0.038712155,-0.07924313,-0.06883332,-0.037922643,-0.048619423,-0.005924394,-0.029554352,0.02269753,0.058863547,-0.008902754,-0.07011757,0.08461177,0.026464477,-0.06562631,0.09320402,0.050818082,-0.010604533,-0.06543903,-0.029664738,-0.018710436,-0.010306559,-0.018023,-0.057405703,-0.029363712,0.08128113,0.029585099,-0.021648679,-0.021795254,-0.046875086,0.0005422933,-0.01504125,0.010304177,0.005190882,0.043378957,-0.054081976,0.07086378,-0.055295218,0.06510009,0.045844298,0.010434711,0.029825358,-0.0035980507,0.028361596,-0.094092615,0.0077304426,-0.041425686,-0.05453299,0.025826806,0.007902736,0.048833452,0.006390491,-0.030397577,-0.013119021,-0.041996207,-0.04360068,0.07424394,-0.05271588,0.06797672,0.03426768,-0.018828023,0.06303863
LARS2,-0.046575222,0.028012216,0.0072447476,0.029243898,0.0013989245,0.019752543,-0.05993773,-0.07059309,-0.011353808,0.0541874,0.017828984,0.02660312,0.0405439,-0.081287876,-0.062414262,0.03252041,-0.022000944,-0.06207729,-0.026878782,0.031248093,0.0018860991,0.01112514,-0.08363243,0.025145149,-0.014089488,0.0013733521,-0.034417015,-0.01565636,0.022961088,-0.07467557,0.02882414,0.022021795,-0.07528926,-0.063375436,0.025761286,0.042538583,0.00235061,0.0066347606,0.016548343,-0.037881117,0.044940807,0.025057876,-0.028048512,0.029795436,0.016829666,0.0011406257,0.018032271,-0.01634888,0.0009927627,-0.023561256,0.018103499,-0.0027395526,-0.0009088103,0.05678339,-0.061347738,-0.05073509,0.034938812,-0.07491903,-0.037391048,-0.032221977,-0.04840579,0.032702684,-0.06060091,-0.07226746,0.07857166,-0.02951774,0.03791121,-0.019014057,-0.038185142,-0.06801356
SCAP,-0.033299282,-0.026001062,-0.006707677,-0.05682025,0.0390196,-0.0619052,0.022921275,0.0374329,0.038647525,-0.047529,-0.07419023,0.03246663,0.072260074,0.04527265,0.016926268,-0.056211375,-0.043437224,0.024290748,0.045961365,-0.0043247794,0.032029245,0.057636295,-0.033237476,-0.03224372,0.002469978,0.04372821,0.07544683,0.0351399,0.031134618,-0.059122056,-0.014021912,0.02639396,0.09218721,-0.027678328,-0.07466007,-0.017471766,0.026621252,-0.0047589936,-0.064711705,-0.018347502,-0.06275919,0.013828228,0.011403323,0.00082823634,0.0076650167,0.013111498,0.0105018085,-0.0062004738,-0.018717518,-0.023279386,0.048744503,-0.0019643053,0.043820146,-0.08062802,0.01839714,0.03875467,0.029497754,-0.026184592,-0.0057776733,0.075209774,0.0025998119,0.0004837223,-0.007836131,0.036228783,0.053185757,0.02149011,0.025969012,-0.056146216,-0.009732341,-0.00021107744
MED12,0.06240631,-0.027637422,0.0058802124,-0.011247765,-0.07655991,0.013073709,0.053300463,-0.003847619,0.045418758,-0.021710496,0.031195955,0.07718363,0.081885256,-0.0036950512,-0.062022854,0.04359734,0.007742476,0.040559366,-0.051807463,0.06934834,-0.024631398,0.051779523,0.024367526,-0.00788228,0.07868867,-0.045530785,-0.032120503,-0.052568935,0.08742104,0.032372314,-0.0011496485,-0.045608208,0.005999208,0.05941805,-0.064244136,0.029636495,-0.06005268,-0.040559396,-0.032185197,0.012406814,-0.008886015,0.04014973,0.027971368,0.00061776227,0.008384614,0.06892958,-0.02659815,0.028266015,-0.026872218,-0.041577537,0.05797734,-0.08266066,0.009203412,0.002352115,-0.027598912,-0.08885697,-0.022762582,0.06233447,-0.049726967,0.05214895,-0.007316029,-0.01464113,-0.019567309,-0.03081292,0.017799005,0.0010510422,-0.0050480817,-0.0035807458,0.052778397,-0.06145874
TYMS,0.059401307,0.0036086112,-0.05250525,-0.015595983,-0.03714687,0.06460867,-0.013682479,-0.016838321,-0.019661082,0.0123394,-0.048843466,0.01718675,-0.016135715,0.03755797,0.0016151713,0.01450074,0.035187557,0.029882291,-0.008926676,0.035499338,0.025525186,-0.04805218,-0.05398663,-0.056043178,-0.0022475282,-0.0047940426,0.006074308,-0.061902214,0.028987415,0.018922485,0.0024877035,-0.018532673,-0.022665737,0.02658964,-0.01678363,0.02697444,0.037954543,0.06509707,-0.015991017,0.038999718,0.013422512,-0.046130583,-0.022378823,-0.050947286,-0.0064531593,0.03348074,-0.009151144,-0.026229108,0.05969726,0.05460227,0.0005190045,-0.065647066,-0.04486787,0.04071799,0.028913008,0.021403478,0.029930985,-0.012929994,-0.07696093,-0.041649807,-0.03954195,-0.009438044,-0.05895397,-0.10549402,0.07351879,0.049719103,0.032070465,0.018841399,0.04085243,-0.06193115
TXNRD1,0.050378475,-0.025196007,-0.059469055,0.057503454,0.025423622,-0.0016178564,0.0015176266,-0.005260164,0.005471495,0.020551715,0.034607947,-0.0009703213,-0.007519821,-0.061249033,-0.05062034,-0.0073208762,0.05163432,-0.06674246,-0.019583892,0.06465515,-0.040750142,0.038026582,-0.047196854,-0.022335202,0.06501681,0.05245223,-0.028215496,0.069623254,-0.034189764,-0.00764491,-0.02650113,0.05487628,-0.053549908,0.019945966,-0.0431442,0.083885215,0.041972484,-0.018499382,0.007995139,0.011118545,-0.0065611163,-0.060700323,-0.00792582,-0.03541432,-0.008897669,-0.064135745,-0.056304406,0.09554033,-0.021880792,-0.047441196,0.07196416,-0.039286796,0.05114338,0.09048972,0.026003268,-0.058541246,-0.010895375,0.0011296292,0.059955712,-0.05760686,-0.03683129,0.047820583,-0.07319458,0.055738106,-0.011435592,-0.0060994723,0.04139071,0.03669748,0.07942493,0.038957726
CDIPT,-0.05460639,-0.019870078,0.02509362,0.03651342,-0.009280487,-0.047710024,-0.018586753,0.05782592,-0.028656846,-0.05862301,0.06685447,-0.07668784,0.07291626,-0.00013289452,0.010440809,0.006647496,-0.038913622,-0.075175874,0.019515647,0.052178536,0.01397887,-0.03285896,-0.06743756,-0.0052063484,-0.013994009,-0.0593498,-0.05441176,0.06777451,0.06664814,0.06615764,0.020515783,0.065660015,-0.018745795,0.050754227,0.030097239,0.04301361,-0.039508123,0.056278925,-0.05641946,0.056122113,-0.08258941,-0.062544174,-0.03799641,0.014669156,-0.038138,-0.012380988,0.062218454,0.03697111,-0.03748317,-0.062250875,0.041608803,-0.050198708,0.020895833,-0.044372898,0.023527076,-0.036817964,0.0061839772,0.015710894,0.006163614,-0.01979988,-0.03755452,-0.0021264146,0.00873656,0.022092601,0.0011124499,0.011624931,0.0084415395,-0.009982612,-0.0068432074,0.068104155
PTK2,0.018446276,-0.017357197,0.00078768213,-0.08357229,0.035231795,0.017141094,-0.018791292,-0.10221462,0.015017256,0.01512794,0.011840842,0.007703738,-0.030979343,0.03522311,0.007600745,0.060821995,-0.018592129,-0.024075914,0.011681673,0.033973865,-0.018413424,-0.058179565,0.019980967,2.8248864e-05,-0.0018624011,-0.06292209,0.038546395,0.01713883,0.046957266,-0.005047257,-0.047969423,-0.0077944673,-0.00841864,-0.046304278,-0.030473815,0.02508954,0.055886067,-0.070945226,0.06994571,-0.010310475,0.051058557,-0.05591802,-0.033865593,-0.045502048,0.022700021,0.015779197,0.004867574,-0.051056556,0.048939507,0.040343847,-0.02367009,-0.027997883,-0.012933349,-0.03651886,-0.033782236,-0.073795706,0.09583406,-0.006883491,-0.0737068,-0.047261897,-0.040928487,0.009169497,0.015204707,-0.051975705,0.0317734,0.021203293,0.024660813,0.017659025,-0.013760988,0.048455074
RARS2,0.04419563,-0.048436537,0.06031454,0.02217373,-0.005265166,-0.023892308,-0.03874683,0.046100453,0.022971699,0.0064905793,0.030603664,0.011550219,0.00041833497,-0.073768996,0.025233323,-0.06273308,-0.059916664,-0.03210929,0.016333165,-0.044317525,-0.052650046,0.042941533,0.012335393,0.046707455,0.05229829,0.044937667,0.057834193,-0.040330514,0.04682438,-0.008626418,0.050717603,-0.060855325,0.01854865,0.004707382,0.04679315,0.10795557,-0.028323429,-0.05788442,-0.082800515,-0.09896944,-0.057034206,-0.05836353,-0.026484972,0.07269826,-0.030204672,0.062242825,0.050649457,0.029937554,-0.006087873,-0.03799117,0.045471046,-0.021131715,0.033691954,-0.029825937,-0.031833295,0.024755517,0.06822021,-0.0013708676,-0.06684465,0.083196506,0.012753151,-0.022250947,-0.06455053,0.03918455,-0.052588586,0.03196217,0.019621242,-0.085287616,0.02531558,0.021399472
PSTK,-0.085635416,0.00017741893,-0.010190489,-0.076650776,-0.042827748,0.06048872,-0.0053657666,-0.054676022,0.037700064,-0.08979688,-0.018432345,-0.012859918,-0.007898561,0.036850933,-0.022500545,-0.011520772,-0.015834454,0.00513415,0.034447428,0.015695559,-0.05057244,0.013225675,-0.013359342,-0.0948408,0.0754919,0.013117201,0.022457935,-0.10048119,-0.010651252,-0.024627212,-0.04512293,0.08846043,-0.02622004,-0.043540634,0.021597575,-0.05306774,-0.04405376,0.004891435,-0.016347397,0.047526833,0.011621459,0.014881743,-0.093274884,0.056600586,0.004630242,-0.06533501,-0.01590522,0.0231504,-0.016315907,-0.049557686,0.069785126,-0.04757141,0.02441676,0.0014519541,-0.057862524,0.0024073757,0.034909714,-0.039109726,0.04548705,-0.0053209458,-0.08074707,0.0051499056,0.08182482,-0.029652096,0.04766151,-0.0557706,-0.040108554,-0.08073121,-0.0677536,-0.06980194
HSD17B10,0.031360712,0.011138287,-0.056694217,0.073138,-0.09061132,-0.016211078,-0.019430807,-0.0062588234,-0.00611015,-0.03693284,0.060766876,-0.07825988,0.013876682,-0.07445511,0.034462076,-0.059036743,-0.0813555,0.055511247,-0.020585272,-0.004634194,-0.028202826,0.0067953463,0.053882964,-0.063481234,0.03294837,0.047210652,0.028037053,0.013647827,0.032661278,0.009751202,0.004724174,-0.039499022,-0.008381572,0.0016605702,-0.01438997,0.033933952,-0.026819747,0.014955091,0.056430217,-0.038733125,0.044973917,-0.09431644,-0.0764566,0.026735885,-0.056339156,-0.010455349,0.03704848,0.038102496,0.053301804,-0.029438987,-0.031733766,0.008993496,-0.037931565,0.029160343,0.0058117467,-0.034474093,-0.033167154,-0.047107887,-0.0443468,-0.008727341,-0.01326206,-0.03901888,-0.010797601,-0.04522307,0.02622743,-0.04822972,0.03230456,0.039046526,0.023830475,-0.08103349
UMPS,-0.0016269592,-0.015064741,0.048348226,0.06999028,0.018608239,-0.04414275,0.06095625,0.008614834,-0.009530071,0.018022867,-0.055343255,-0.02962476,0.045243017,0.0602422,0.02829094,0.04606552,0.06984583,-0.083929084,-0.06825488,-0.02552666,0.011171993,-0.026432313,-0.06003553,-0.03638611,-0.004232768,0.049822584,0.014369608,-0.005467142,0.04694162,0.042216975,-0.027257638,-0.036388446,0.004854908,-0.002486138,-0.046361208,-0.09450187,-0.05219463,-0.032019623,-0.0322108,-0.01498199,0.022673665,0.06663815,0.07913121,-0.08570605,-0.016671227,0.0026733484,0.031575687,0.051678818,-0.04143988,-0.043628927,0.02208229,0.0029981837,-0.011439961,-0.07169645,-0.04320441,-0.06633886,-0.06101207,0.02575719,0.01966766,0.051212575,-0.048837572,-0.024112139,0.020475797,0.037312724,-0.0074908063,-0.0005013242,-0.040155116,-0.014343799,0.010930938,-0.036881767
UBIAD1,0.01939928,0.03405462,-0.0023175145,0.012437654,-0.025413575,-0.0014369305,-0.04599603,0.024274703,0.014355698,-0.025482696,-0.00695947,0.04025369,-0.04356091,-0.029310077,-0.0020837502,-0.040199034,0.016986266,-0.025946397,-0.09952201,0.04472615,-0.04183122,0.069336966,0.04532787,-0.059370786,-0.0403084,0.008448895,0.024263026,0.106323466,-0.028275272,0.038578335,0.022002352,-0.05032719,-0.002360471,-0.03164354,-0.018204538,0.012280445,0.049181197,-0.060821168,-0.0047678123,0.03132141,0.035410367,0.014608653,-0.018552879,0.061319377,-0.08989977,0.054644156,-0.01098784,0.06860643,0.00106951,-0.030454172,0.073351495,0.04046136,0.04963048,-0.08364038,-0.0054686707,-0.04852608,0.012819269,-0.002373515,-0.039267108,-0.035763532,0.0472644,0.0046024746,0.05947318,-0.047604773,0.0765647,-0.040763315,0.013333273,-0.062403947,0.050727386,0.08008262
MICOS10,-0.03379782,0.0070693623,-0.047783077,0.01173237,0.010403451,-0.01804853,0.05408915,-0.008047354,-0.026661234,0.045023482,0.012929865,-0.0172736,-0.01845817,0.05743508,0.01192788,-0.03757925,-0.055603832,-0.06290358,0.037601084,-0.03821447,0.07515211,-0.025050217,-0.011118954,0.050512873,0.023335056,-0.001756154,-0.062066417,-0.022565462,0.039904766,0.03274288,-0.04701735,0.0089706825,0.02849332,-0.025540791,-0.010872943,-0.012146615,0.028496316,-0.023826009,-0.059111394,-0.008242431,-0.06589879,0.06057329,-0.05250973,-0.051169284,0.024304384,0.024535276,0.059632685,0.008443401,-0.020520626,0.048035745,0.04486812,0.05503438,-0.05476762,-0.014110927,0.06622218,0.07896705,0.043237954,0.0262061,-0.024807584,0.030826012,-0.034374915,0.0023409312,-0.013616596,0.028303161,0.04755991,-0.002316559,-0.021276822,-0.06722003,0.037366513,0.03629216
PPA2,-0.00091272686,-0.016430827,-0.034513816,0.039636556,0.039838523,-0.009898452,0.043918535,0.07859377,0.0326391,-0.015236299,0.006961503,0.014496815,-0.011510841,0.04996605,-0.09670366,-0.023837235,0.05963656,-0.0053966665,-0.06972467,-0.022313613,-0.0013459253,-0.047430746,-0.022892494,-0.108231425,-0.040133853,0.05769189,0.038349196,-0.07314649,-0.067262344,0.008488575,-0.012580714,-0.021763055,0.0033732993,0.006054244,0.083554775,0.040815428,0.015920937,0.00023208105,-0.0143218385,-0.03330742,0.005251114,0.03916787,-0.011030542,0.01366677,-0.07562173,0.03336574,0.058920022,-0.0114296535,-0.04698963,0.0014559084,-0.07602648,-0.0932731,0.025296656,0.036193553,0.01049909,-0.034580607,-0.018706111,-0.1025579,-0.010963555,-0.05450365,-0.0035516592,-0.07335569,-0.065341115,0.007909351,-0.024061244,-0.049782794,0.06256027,-0.07995676,-0.022074271,0.007236241
MED1,-0.056343928,-0.033833522,-0.0417849,-0.007849003,0.05668073,0.050418984,-0.011363257,0.015153337,0.097465396,-0.015358405,-0.0018638435,-0.059286766,-0.011637194,-0.070291996,-0.031385165,0.04195712,0.020678107,-0.004139123,0.0045178817,-0.03893489,0.034216434,0.07262907,-0.06068839,-0.05464513,-0.063314684,0.04711108,0.0042441105,-0.06950893,0.029756574,-0.0021703104,-0.040420968,-0.0027830242,-0.050181385,-0.054314487,0.04545521,0.02278502,0.011218608,0.02883772,0.038451623,-0.031574406,0.016912652,-0.03340376,0.06599902,0.030851835,-0.045591302,-0.01151249,-0.025247397,-0.03920054,0.044205084,-0.011383876,-0.020235024,0.06279281,0.033760566,-0.034386333,0.093902335,0.025689702,0.008566059,0.06704908,0.07908052,-0.012161672,0.018081432,0.071977735,0.026120357,0.06406694,0.09031431,-0.006933079,-0.040740717,-0.015182272,0.00048388762,-0.03490024
MYBL2,0.048251543,-0.020147264,0.023749566,0.04287413,0.0388275,0.05201234,0.020529795,0.014069606,0.013620872,-0.07060061,0.019224543,-0.08534199,0.03998045,0.06331425,0.056358844,0.042141743,0.058097314,0.07104394,0.054926023,0.049053196,0.03861057,0.066520765,-0.015121343,-0.026764987,0.050689247,0.009982144,-0.030116023,-0.0027526782,0.004518634,-0.08320737,-0.051845282,-0.07638901,-0.048656724,-0.047746666,-0.050169088,0.012015024,-0.008754279,0.03954163,0.047965467,0.020157857,-0.028712159,-0.014560714,-0.019723488,0.05063454,0.08003393,0.08438177,0.08238131,0.004188677,-0.05761951,0.027414242,-0.007578107,-0.038532957,0.044145077,-0.007246882,0.050043143,0.020859739,-0.06496506,0.013682618,0.016582776,-0.06427022,-0.024296451,-0.029599344,0.024612868,-0.03361659,-0.023083303,0.04592506,0.059410103,0.07766847,-0.0044183386,-0.07413064
UFM1,-0.032505877,0.033817492,-0.016619133,-0.02040409,-0.017571755,0.0015749052,-0.024313513,-0.030620012,-0.04688563,0.0061080502,0.033038586,0.046854485,-0.020423625,-0.013282459,0.03849075,0.028995475,0.01980916,-0.020258468,-0.051488675,0.01248772,0.018188166,-0.019824503,-0.017193493,0.09004314,0.05522717,0.009739912,-0.04547134,-0.0582199,-0.032927755,-0.045111578,0.030971806,-0.036313623,-0.04802995,0.048624646,0.009282436,-0.04318809,-0.090021454,-0.039377633,0.0509146,0.033553064,-0.028429061,0.072511666,-0.0702992,0.08297238,-0.075515926,-0.06407269,0.004596798,-0.03269683,0.022099733,0.0462125,-0.015534199,0.033816133,-0.03322827,-0.048349835,-0.054609746,-0.027668646,-0.061748825,0.029131852,0.0046372446,-0.026331129,0.018703965,-0.013842772,-0.022937912,0.026038326,0.002792209,-0.008264867,-0.060663294,0.019625472,0.007067301,-0.05144837
ADSS2,-0.040887114,-0.005076795,0.019253377,-0.023110615,0.022670887,0.023029448,0.009317278,-0.019917807,-0.01657187,0.0143218385,0.042279202,0.10417373,-0.034150563,0.057117023,-0.009619266,0.07265886,-0.043537676,-0.0106018735,0.096428365,-0.06724852,0.034347367,-0.069966584,0.032920502,0.032522433,-0.008462848,0.05906461,-0.03272018,-0.030153316,0.016647201,-0.0480838,-0.10144755,0.04314373,0.015623427,-0.003091473,0.070072696,-0.01749154,0.026686516,0.06529819,-0.001112028,0.024712184,-0.07273798,-0.011893057,-0.030955479,0.007616875,0.063295744,-0.046504613,0.029107809,0.026890304,0.028683633,-0.03156993,-0.06910521,0.0073295957,-0.055865597,-0.00513021,0.050936144,0.040000852,0.05014343,0.030285489,0.011324138,0.039144076,0.0069575594,0.01592381,0.038112156,0.040304672,0.03544016,0.009113099,0.013434012,-0.030780382,0.07332721,0.0025803307
MBTPS2,0.07419533,0.04453741,0.0040654293,0.033294346,-0.010295512,-0.0033051835,0.030915402,0.019961866,-0.046998065,-0.0007400263,0.035006583,0.08273214,0.040301412,-0.09361957,-0.049618118,0.015862644,-0.026158845,0.03356501,-0.06882498,0.048691865,0.0038863695,-0.036216855,0.012356127,-0.093678854,0.055729907,0.054506786,0.015430325,-0.04537007,0.035138536,-0.011191527,0.05530936,0.029608337,0.035221796,0.0065116007,0.049914416,-0.07632601,0.0427977,-0.04638065,0.016057724,-0.056769617,0.018260982,-0.0039441236,0.0655325,-0.046228785,0.062379286,0.043370944,-0.02261147,-0.09208169,-0.06751334,0.00022811012,0.009841583,-0.06622036,-0.033012025,-0.06557857,0.005435073,-0.014866598,-0.0073735667,-0.07161766,0.08240203,-0.008486822,0.045371924,0.061681382,0.015927505,0.071163945,0.016080007,0.01852615,-0.03172433,0.034105867,0.0036730205,0.029887058
ADSL,0.010380782,-0.06449563,0.020390118,0.07300323,0.017835658,0.05023761,0.0032418713,0.09136946,0.032063693,0.05482149,0.01512991,0.070649,-0.0747281,0.009956097,0.020862699,-0.0003186327,-0.07453323,-0.068873115,0.055095423,-0.039803006,0.0009192861,0.013587389,-0.00910755,-0.013592196,-0.06466397,0.063848935,-0.030135723,0.0027433569,-0.014281937,-0.05754131,-0.004808399,0.021829525,0.052831043,-0.059008386,0.020786975,0.027338596,-0.05293353,0.019658348,0.007622273,0.0630151,0.06137678,-0.0061899447,0.042646773,0.049078025,0.008145325,0.09354008,-0.08675995,0.062442586,0.026360799,-0.03883948,0.017106155,0.028425522,-0.022171272,0.006317892,-0.00066715153,0.04474396,-0.04963781,0.031502284,-0.09455712,0.056842268,0.027515238,0.013740778,-0.064636715,0.034259938,-0.004141246,0.032405183,-0.0115552535,0.01230252,-0.062177997,-0.04074957
EARS2,0.0040518823,0.017342335,-0.02627008,0.071529604,-0.01921529,0.051340394,0.022074562,0.025297439,0.0149933575,0.06576424,-0.07227618,-0.06820581,-0.04131005,0.03649307,-0.03715397,0.010077782,-0.07570906,-0.03886422,-0.012046872,-0.004012206,-0.0045827706,0.025311098,-0.032379687,0.035612285,0.05447188,-0.021665834,-0.039783046,-0.018464636,-0.10208474,-0.02161045,-0.05463558,-0.09369506,0.042348165,0.018922955,-0.030471124,-0.06956729,-0.027945803,0.06459868,0.026467165,0.004302575,0.052442823,-0.017409144,-0.00840075,0.05615103,-0.060693614,-0.07811696,-0.054779228,0.053986013,-0.03428895,-0.09671746,0.037322443,-0.093535095,0.017962959,-0.08900829,-0.072762184,0.035902802,0.032390643,-0.0902606,-0.020299956,0.03115728,-0.09341917,-0.06882578,0.07859501,0.03207994,-0.009204053,-0.061755184,-0.04077781,-0.03305533,0.03577333,-0.035985287
NAE1,0.008263905,-0.011075959,-0.047324996,0.0039693397,-0.04726155,0.04046581,0.015090863,0.08572912,-0.0422727,0.009196952,-0.052329756,-0.026014257,-0.049711335,0.090049185,-0.005003373,-0.01214582,0.025476271,0.044582818,0.0005724446,0.016923413,0.021165442,-0.070093766,0.059749294,0.029798033,0.041646037,0.018617436,0.09134669,-0.05311865,-0.06262135,-0.11035907,0.049555138,-0.013320988,-0.0004519444,0.022118906,-0.036093615,0.02650897,0.0040310216,0.03556973,-0.018072769,0.030173715,0.008595284,-0.055630066,-0.07984641,0.006308648,-0.023897305,0.01712795,0.025275463,0.05841579,0.07558399,0.046883095,0.04096692,-0.008545246,-0.03415123,0.05306071,-0.018583832,0.016144391,0.014399376,0.0052626133,0.054003414,0.050086457,-0.031319816,0.087584995,-0.03267329,0.057847533,0.05424635,-0.018189777,0.022853384,-0.020284293,-0.021665616,-0.023870287
MED19,-0.0645381,0.03970818,-0.030413996,-0.033466976,-0.04570917,0.06359476,0.010757199,0.04192288,0.050072506,-0.052439783,0.012004411,-0.006384044,0.032148425,-0.006375129,0.0031137606,-0.031372055,-0.017489802,0.06468996,-0.02998776,-0.017588625,0.0336029,-0.05898706,-0.025373382,-0.020968659,0.055944826,0.081160374,0.027279127,0.017811207,0.03517648,0.02410637,0.045756076,0.054393634,0.015364254,0.062996775,-0.05118456,0.048176043,-0.0068178857,0.06802726,0.036737032,0.035169765,-0.0064952364,-0.009658338,-0.026766842,-0.021435997,0.01662164,0.0007701124,0.062433213,0.04088183,-0.03656086,0.02978697,-0.06995772,-0.057630472,-0.07582947,-0.051527083,0.023921654,-0.023723522,-0.028399363,-0.023422537,0.017010923,0.09318342,-0.040851675,-0.02177234,0.01182116,-0.031681012,0.02862793,-0.0022211347,0.040416036,-0.01327882,0.048267018,0.07408516
HAPSTR1,-0.036890086,-0.011133791,-0.05742807,0.058142383,-0.011687962,0.026123777,-0.056122113,-0.04308988,-0.08383162,0.02570565,0.023342183,0.0065903175,-0.062302686,0.045954835,-0.026552986,-0.007208969,0.024099054,0.05529711,-0.053887624,0.06641404,-0.036165833,-0.023798894,0.050628074,0.028699005,-0.05103224,-0.027877502,0.030081572,-0.006603687,-0.034445427,-0.03675553,-0.010147611,-0.028259696,0.011585559,-0.07376242,0.009169699,-0.017486023,0.042822093,-0.067891926,0.011578508,-0.062740035,0.026396275,-0.022814097,-0.015074356,-0.075943746,0.006775468,0.08134971,0.011828298,-0.039484665,0.038164053,0.04337188,0.03849902,-0.072077096,-0.06394554,-0.00024402606,0.03681717,0.055827845,-0.018133573,0.023653666,-0.04259735,-0.039740756,-0.004068845,-0.059756484,-0.032461606,-0.004611367,0.0088861305,0.071690395,0.05679442,-0.020372324,0.046838995,0.031541362
NCAPD3,0.032009628,0.008563434,0.037589654,0.023822492,-0.09928919,-0.04226823,0.005117721,-0.054557186,-0.038456827,-0.05313496,0.031803817,0.041249096,0.015036555,-0.049098514,0.020051146,-0.036462717,-0.008881932,0.013474839,-0.011531353,-0.073166244,0.036299847,0.043255806,0.03906429,0.040182553,-0.023049762,0.032870524,-0.024233999,-0.036226243,-0.05008625,0.033684764,0.022784902,-0.084899366,0.053826526,0.016315358,-0.075839825,-0.062459942,-0.024905324,0.020168902,-0.03769509,0.03222211,-0.0555529,0.01753937,-0.09122682,-0.01223276,0.013719196,0.07947184,-0.053491756,0.0044687446,0.05588696,-0.061824813,-0.06608505,-0.0349096,-0.0035512222,0.062204964,-0.072347246,0.0159216,0.012341028,-0.01899745,-0.022845328,-0.056458414,-0.03492166,0.019738842,-0.069666065,-0.09293545,-0.047690313,-0.03324426,0.008448045,0.016783517,0.046138305,-0.0035467718
MAU2,0.013089745,0.09235424,0.041379243,0.041389484,0.028218692,0.0022959542,-0.06413685,-0.03506478,0.0064792745,0.074576795,0.0008130816,0.025272863,0.035904232,-0.06507756,-0.031771343,-0.006573772,0.052720267,0.053713452,-0.007993057,0.004580039,-0.047781076,0.05734674,0.04696716,-0.006200953,-0.041156054,0.05654482,0.061533306,-0.007366797,-0.002800845,0.016842915,-0.0172842,0.0315904,-0.02864551,0.058116954,0.062190972,0.038922973,0.011592353,0.06531605,-0.040231194,0.07007791,0.005314797,-0.021131195,-0.035025936,-0.07393029,0.0089411475,-0.062120292,-0.018822165,-0.05131333,-0.034984063,0.028006082,-0.05674501,-0.012001984,-0.0063141505,0.04853085,-0.026983986,0.009602347,0.025834901,-0.080659345,0.05691207,-0.06832068,0.0202857,0.04060894,-0.0054363715,-0.03401922,-0.0037932652,-0.045263555,0.0053143837,0.044685863,-0.048077047,-0.0104601765
RHOA,0.021546576,-0.021299157,-0.03746055,-0.07614292,0.026371047,-0.017950557,-0.03962583,0.028147506,-0.060463056,-0.03210301,0.015066532,0.01994841,0.0074491915,-0.08727487,0.034223247,-6.834327e-05,-0.030727146,0.01305937,0.003213131,-0.08438197,-0.03565572,-0.031736165,-0.010011416,-0.03654777,0.013900657,-0.012918028,-0.041143868,0.10363821,-0.02352731,-0.03699282,0.0032490983,0.07085602,-0.061052926,0.01623916,0.0389712,0.009191794,-0.01691557,0.016721712,0.047456387,-0.050340425,-0.03780705,0.08123468,0.03766935,0.08832026,0.041229248,0.030230086,0.053508647,-0.02249767,0.024111122,-0.060927674,0.044395562,-0.012126251,-0.057579547,0.09884537,0.08348602,0.062625386,0.060829375,-0.035089154,0.029289547,0.025737602,0.07926019,-0.09818916,-0.012787663,-0.032888003,-0.08331478,0.049088825,-0.0029983132,0.08724633,0.022300966,0.011878994
ZNF217,-0.043069795,0.043379027,0.07257859,-0.012347899,-0.0029825403,-0.037519,0.015764304,0.017991556,0.016508183,-0.05476341,0.037608217,-0.01106798,0.0050284653,0.034201637,-0.013511476,-0.039139673,0.017030558,-0.054903585,0.010580828,0.016863378,0.045995604,-0.01877464,-0.0010845668,-0.035196293,0.005834143,0.00057684124,-0.06850934,0.07162734,0.053721573,0.027570305,-0.0473353,0.012556841,0.00012746532,0.05919503,0.07864768,-0.028174266,-0.06963642,0.07627365,0.027976522,-0.0048906337,-0.061045505,-0.014603982,-0.049281847,-0.007975373,0.052958798,-0.106763035,0.026428683,0.06976256,-0.09789151,-0.0311136,0.07070993,0.009433618,0.031021193,-0.075412795,-0.025267867,-0.06504807,-0.043693583,-0.079525724,0.06509001,0.037743505,-0.041679457,-0.025444789,0.011158745,0.00885373,-0.0066181445,0.042168833,-0.036733378,-0.019420715,0.020019434,0.01908614
METTL1,-0.07646282,0.033835437,-0.033944566,0.046716742,-0.02429106,0.08325021,0.0109209865,0.07094772,0.06263082,0.007446193,-0.0069933576,-0.06419618,-0.007930275,0.038353268,-0.09028021,0.0083600525,0.043081403,0.013735395,-0.098890364,0.0637004,-0.08782775,0.041523412,-0.011102311,-0.01781847,0.044582054,0.006850437,-0.083705276,0.023789272,0.045054153,-0.041360866,0.036569614,0.015100876,-0.029234486,-0.016868016,-0.025934232,-0.010234253,-0.04882726,-0.00998912,-0.04902021,0.025060743,-0.012376994,-0.038637668,0.0798321,0.033099696,-0.06430628,-0.007520969,0.05723033,0.039674256,0.008093067,-0.0028629913,-0.10132343,-0.059497904,-0.00094693096,0.024656411,0.0677906,0.015938329,-0.07521314,0.052208718,0.07155024,-0.06701148,-0.031775333,-0.056141447,-0.022244066,-0.07741965,-0.06150733,-0.025106706,0.023681205,-0.045410942,-0.049853705,-0.03247223
TRPM7,-0.089619584,0.011974078,-0.067085534,0.040755846,-0.032252777,-0.009868613,0.082579926,0.012708611,0.020644626,0.046984944,-0.0019392199,-0.02135426,0.006396541,-0.04184967,0.03184177,0.018438654,0.024208784,0.04761004,0.03175113,0.027954059,-0.014815944,-0.04695958,-0.03146393,0.04833685,-0.015823375,-0.053229455,0.0353743,-0.015306318,0.04853496,-0.07254869,0.04012262,-0.00384913,-0.07992668,0.07800952,0.019995157,0.064574696,-0.073811166,-0.065565735,-0.004808529,-0.03304061,0.0047337487,0.004276505,0.028302154,-0.045348145,-0.029189277,0.008381082,-0.020681024,0.026581075,0.035552185,0.014690304,-0.044058904,-0.060913764,0.004828107,0.018316083,0.01952771,-0.017194714,0.026004517,0.029100921,0.07972516,0.019508122,-0.08935407,-0.02955169,-0.0050242445,-0.051396314,-0.033106197,-0.029951371,-0.00042221852,0.07904116,-0.013801536,0.02389352
MRPL33,-0.0102856215,0.0021766315,-0.013950575,0.0017948358,-0.056510806,-0.087748714,0.036491014,0.03692145,-0.021306792,0.008078516,-0.042602476,0.03543507,-0.050787464,0.06572825,-0.020485131,0.007057914,0.045954682,-0.050486498,-0.013345778,0.0029918756,0.011352678,-0.05205338,-0.01818621,-0.028555429,-0.04790011,0.01916839,0.0019062419,0.02596911,0.02967859,-0.058246374,0.017514799,-0.017451666,-0.08005066,-0.04901681,-0.01871557,-0.030571094,0.014621467,0.027155824,-0.051950768,0.02832276,-0.04953598,-0.039307524,-0.073528595,0.02852469,-0.03389949,0.046082668,0.016290283,0.0043600583,0.04472357,0.06486713,-0.06677282,0.025650097,0.050676752,-0.017082015,-0.0879055,-0.07254533,0.0041676513,0.021166386,0.028677445,0.01193274,0.04723167,0.05117059,0.03615751,-0.06719723,0.0038986634,0.013636527,0.022883397,-0.06781881,0.035799023,-0.06982502
ATIC,-0.01828979,-0.0416277,-0.018771933,0.09565311,0.03202386,-0.023639705,0.02158245,0.021710142,-0.05592567,-0.09057491,-0.050975837,0.04675939,-0.044884987,-0.03201186,0.045214567,-0.04085347,0.022567848,0.018774651,-0.019131094,0.024810195,0.06141316,-0.03002051,-0.0005159519,0.01919822,0.048926357,0.030371064,-0.05773474,-0.06293112,0.036168758,0.03500866,-0.016441964,0.05595807,-0.063991465,0.0070842863,-0.016304333,-0.011432507,0.004713647,-0.061874896,-0.008345231,-0.014703196,-0.048724376,-0.02123579,-0.034012362,0.0475398,0.08965369,-0.057449352,-0.008297998,0.020826718,-0.052720077,0.0060299844,-0.0839024,0.07721293,0.004054926,-0.033196416,0.010492377,-0.024503972,0.035921514,0.0036894432,0.06126708,-0.025634801,0.047247507,-0.009077718,0.05147249,0.046958085,-0.0100322105,0.014708277,0.030205557,-0.052474037,-0.049490754,-0.008411971
ATL2,0.012479016,-0.037201606,0.043691315,-0.08282646,0.035004895,-0.062023893,-0.04012392,0.063796476,0.049286764,-0.050758123,0.03863249,0.036316205,-0.021700038,-0.09605178,-0.019993715,-0.034000427,0.048439953,-0.03139447,-0.08213593,-0.014282141,0.00057075167,0.061449483,-0.024844898,-0.0021891452,-0.06343507,0.023763288,-0.033880398,-0.004686162,-0.027748795,-0.05685725,-0.045164037,-0.029925203,0.03180475,0.007055658,0.032346394,0.073279776,-0.06944443,-0.0038342173,0.009865106,-0.0007507516,-0.04753315,-0.03578553,-0.049049363,0.029167159,-0.0815344,0.0082960315,0.09669722,-0.09730986,0.010233749,-0.01618377,0.058650568,0.0787575,-0.042165745,0.065921895,-0.010520222,0.008072695,0.017368892,0.060219273,0.023997728,-0.04182396,-0.058212418,-0.0816223,0.06442197,0.0037250128,0.009257775,-0.018262027,-0.054572172,0.00040157308,-0.09154387,-0.0074136467
ARHGEF7,-0.030136004,-0.04815178,-0.053612754,0.03278754,0.047413222,0.006025104,0.022636235,0.06317203,-0.018090265,-0.05344916,0.023716677,-0.012346096,0.08087526,0.07853089,0.08817411,0.0025630523,-0.04581364,0.10880741,-0.063586876,-0.032769702,-0.071344875,0.04972566,-0.028601246,0.06917241,-0.023190817,-0.010177673,0.059104223,0.022074915,-0.04237957,0.040681485,-0.023369996,-0.016339406,0.05491555,0.06079813,0.03933954,-0.0008231789,0.012627386,-0.022745756,-0.04846362,-0.056639288,-0.061628003,-0.057421386,0.0974407,-0.02143488,-0.05846585,0.03881134,0.0037794125,-0.0808019,0.008922456,0.03381106,-0.059863124,-0.03785516,0.058879845,-0.030715512,0.040722087,-0.017470572,0.008655438,-0.0014461203,0.0062733237,0.0008433082,0.04159694,0.080395795,0.027487153,0.0068127583,0.09347015,0.018722625,0.0276389,0.05385022,0.05656785,-0.042023323
GET1,-0.047228638,-0.043596566,-0.05414549,-0.006071741,-0.017307593,0.04892005,-0.029715797,-0.032636397,-0.0019100796,0.022202572,0.019479549,0.030749438,-0.06449187,0.06640613,-0.031430844,-0.06643779,0.004493258,-0.0057513793,0.026430342,-0.039123874,0.01028032,0.03370312,-0.03837033,0.010363429,0.02140518,-0.015974898,-0.009919707,-0.00796444,-0.030830981,0.024000477,0.028594857,0.006492725,-0.025334,-0.027764997,0.01831208,-0.008047553,0.001155319,0.02614786,0.005575192,-0.008927765,-0.009103634,-0.06814637,-0.022840023,0.070152335,0.006306882,0.010515832,0.045204967,-0.015120587,0.061090756,0.046632934,0.015037602,0.0572849,0.020102339,-0.009105014,0.0491286,-0.028445732,0.042388864,-0.04949578,0.0566289,-0.05712398,-0.030268807,0.004098333,-0.04414645,-0.052659273,-0.06358107,0.054808926,-0.045312375,-0.028565431,0.013841629,0.02751824
CHMP5,0.04306467,-0.06448729,0.05999408,0.05011119,-0.06473703,-0.006103639,0.032125242,-0.019355305,-0.016911134,0.0023076183,0.023652172,0.031907964,0.015318351,-0.015704174,-0.020824585,-0.024549302,0.01286461,-0.03594365,-0.0073242993,-0.057029944,-0.050887708,0.03624317,-0.06275902,0.020541493,0.019946879,-0.020029856,0.034522753,0.0016396433,0.025152897,0.07027504,0.025151178,0.00833746,-0.01576318,-0.030855738,0.049711835,0.03872167,-0.026143447,0.016033601,0.006800263,-0.061430156,-0.0054410547,-0.061866276,-0.06445335,-0.0074100345,-0.0075114355,0.007790886,-0.05594125,0.08742743,-0.06442957,0.016090922,-0.08379321,0.009201004,-0.042843495,0.002225888,-0.0010948395,0.079995744,-0.0077154934,0.030826235,0.032081548,0.0041927025,-0.03665882,0.020666331,-0.004762308,0.04898557,-0.00765651,0.07634258,0.05208084,-0.03392359,-0.051199913,-0.063208796
PFAS,0.0063205687,-0.0010717533,0.0012687038,-0.04407311,0.00076678925,-0.023470331,-0.010634785,0.050012562,-0.012800471,0.028210169,0.060163364,0.05823143,-0.043931153,0.035861246,-0.041684113,0.026604883,-0.00084330153,-0.0014415565,-0.051392008,0.027598169,0.015207413,-0.07527982,-0.07389928,-0.09449042,-0.026239146,0.02007889,0.025113016,0.05698055,0.058355976,-0.017562639,-0.042369895,-0.021827022,-0.038249098,0.056061223,0.057751,0.052952547,0.019095242,-0.031516455,0.053971115,0.0024862273,-0.05009434,-0.039132148,0.038187042,-0.014644207,-0.039234772,-0.049926598,0.053630184,0.06755811,-0.013048763,-0.06087121,-0.073387414,0.048086237,0.014553272,-0.020977555,0.027812641,0.055555,-0.052352086,-0.0033001243,-0.0036613813,0.05114236,-0.059172206,-0.09311958,0.011400784,0.037055068,0.03996601,-0.017202841,-0.013633893,0.027291289,-0.041243285,-0.03845898
KLF5,0.016004562,0.039064124,0.05193761,0.047922682,-0.011957356,-0.12928475,0.03153655,0.044116642,0.040157255,0.01328664,-0.019449834,-0.01621228,-0.06497584,0.013647997,0.104986556,0.012071306,0.09585491,-0.025457175,0.0504642,0.018267574,-0.039669365,0.092105925,0.008040599,0.0685425,-0.015741609,-0.05509024,0.01266501,0.0010596905,0.05082574,-0.020564023,-0.013071592,0.07297473,0.087366275,-0.01243429,0.0885829,0.038408596,-0.0015160772,0.04107113,-0.060529944,-0.09983262,0.058734976,0.031638816,-0.029285768,0.045382258,-0.06451895,0.09611322,0.059649747,0.05571108,-0.043591667,-0.005861978,0.06758854,-0.06681201,0.04394015,-0.060482882,-0.018211728,-0.022043116,-0.02145794,-0.010266161,-0.05345073,0.024195718,-0.013497382,-0.013388362,0.042387053,0.023877589,-0.044206858,0.0805246,0.1141344,0.038782127,0.019848455,0.065059304
RAD9A,0.098947264,-0.037210822,0.0108597595,-0.029845878,0.021780172,-0.0133570265,0.009360374,0.025607545,-0.058226194,-0.0042734346,-0.04462774,0.057765055,-0.0561493,-0.079976656,0.058201253,-0.0150552755,-0.059175137,0.006984311,0.025938062,-0.011730795,0.062069714,-0.013323672,-0.008985809,0.057461783,-0.019549975,0.05920958,0.042387504,-0.027515808,0.02818971,-0.030104754,-0.039232343,0.0338147,-0.025416045,-0.016962131,0.0101862615,-0.028153433,-0.010965278,-0.021477513,-0.045443166,-0.027183367,-0.04844863,-0.008133885,-0.021666158,0.048534703,0.06494157,-0.025517453,0.04620318,0.027654117,0.030901438,-0.012207865,0.06809899,0.007893109,0.049072143,-0.0537045,0.06737874,-0.029384086,0.014229908,-0.036105935,0.021736754,-0.0065492466,-0.0061115967,0.046866402,-0.031138886,0.050522946,-0.022183789,-0.007394604,0.02206172,-0.04123045,0.011801362,-0.02201242
TAFAZZIN,0.07861686,-0.048146892,-0.017057706,0.056136522,0.026354646,0.006210028,-0.07532184,-0.076214686,0.056032404,-0.07850898,0.0137956925,-0.01764274,-0.02155748,-0.01922302,0.054351013,-0.027661614,0.011494206,-0.04627329,0.05293566,0.06877801,-0.0028946504,0.060217015,-0.09909739,-0.007009128,0.045866244,0.047735475,-0.034324434,0.03428561,0.070180655,0.026098909,0.045835055,-0.059619054,-0.04400878,0.02550719,-0.05606397,0.012078859,-0.08786256,-0.061797917,-0.035803057,0.013085295,-0.043931115,0.035270777,0.016738402,-0.091928296,-0.03433083,-0.045151785,-0.011884793,-0.053373948,-0.055416208,-0.03668187,0.021251578,-0.030413503,0.00081402774,0.04372179,0.0141878715,0.012220501,0.048686977,0.049695943,0.013823081,-0.050584193,-0.07664966,-0.046904664,0.0016685043,-0.0043673376,-0.0036261017,-0.075285584,-0.058381528,-0.04983951,-0.076463655,-0.022870027
EEFSEC,-0.09331929,0.031151874,0.0060291807,-0.013521745,0.009545282,0.06553101,0.018189125,0.03594584,0.047414035,-0.05659911,0.038341735,0.0062038577,0.0024317345,-0.0108849155,-0.039830785,0.012796255,-0.041220035,0.008906912,0.0115677565,0.010882636,0.052644435,-0.0040322766,-0.026716396,-0.015199821,-0.07704612,0.029191688,-0.08160628,0.026436737,-0.06374027,0.04673883,0.013156835,-0.03850931,-0.068216704,-0.03920695,-0.028224679,-0.05627186,-0.031888578,-0.04201258,-0.06088765,0.06467815,0.03021953,-0.04789931,-0.042798858,0.064917855,0.093747206,0.013067186,-0.037206188,0.032112647,-0.048463047,0.055029552,-0.01984701,0.019410687,0.06496567,-0.02582275,0.028945172,0.030106742,-0.04605269,0.027941994,0.016912207,-0.06600819,-0.030349588,0.056667626,0.04709551,0.029604541,-0.027591374,0.021486,0.012154901,-0.011265325,-0.010054328,-0.010961206
SMARCA4,-0.049209222,-0.029648086,0.039757382,-0.05882567,0.0056473017,0.057943713,-0.014337511,0.106416635,-0.021731088,0.0002413784,0.016164733,-0.016103601,-0.003917078,0.00085240323,0.010034873,0.03137701,0.018583834,-0.034202404,0.048297945,-0.05431976,-0.07847986,-0.0062379166,-0.048156362,0.021955183,0.041593958,0.016609536,0.023346376,0.021619635,-0.023566278,0.03963664,-0.10156674,0.07608492,0.016022468,0.008764721,-0.031271443,-0.0040598596,0.004725942,0.021844974,-0.00052223844,0.05596405,0.02699987,-0.010372389,0.0085643595,-0.022695076,-0.016653277,0.032367915,-0.04744196,0.10159308,-0.009469683,-0.03425268,0.06468657,-0.021046024,0.063177556,0.04451622,-0.026301155,-0.016795406,0.01020394,0.0149961095,-0.022379166,-0.01912796,0.07637766,-0.012045239,-0.019082515,-0.032673582,-0.0695968,-0.033251103,0.02291535,-0.021825703,-0.1080407,0.03875276
SDHD,-0.036357246,-0.0034925237,-0.04411164,0.071137555,0.053568214,-0.0045675896,0.006001244,-0.0083107,0.027147882,-0.06330711,-0.1223665,0.061649498,-0.010797671,0.029503005,-0.02297558,-0.01471584,0.0013842338,-0.044072315,0.040437844,-0.10181233,-0.009885805,-0.02844739,-0.02732018,0.038688652,-0.057569593,0.07701489,-0.042854983,-0.033679254,-0.03874893,0.018213138,0.03048722,-0.03689161,-0.021131441,0.06244638,-0.018753638,0.049176097,0.061056472,0.05295022,-0.056706518,0.04573831,0.04321327,0.051262036,0.037655436,-0.019141475,-0.0113229165,0.030531758,-0.047033012,-0.014972904,0.032134213,-0.0634353,-0.026909055,0.050683644,-0.051044248,0.039326053,-0.016111454,0.0132074375,-0.04360394,0.014738383,-0.023267893,0.03874198,0.03142879,0.016513241,-0.03129992,-0.04002079,0.018253312,-0.00083564216,0.054157313,0.003007018,-0.032202423,0.030509785
PPP2R1A,0.015678184,-0.04991313,-0.0031307652,0.0054972027,-0.037213728,-0.042076014,-0.010378171,0.008115785,0.06794421,0.05365485,-0.060112886,0.041107077,0.0221085,0.061147887,0.074004725,0.009328738,0.03472856,0.05310247,-0.05908294,0.02916492,-0.014603554,-0.04344088,-0.0012515216,-0.045865975,0.0013642748,0.0046719657,-0.018315006,0.048638824,0.016317016,0.068997376,0.008447501,0.039371926,0.007765916,-0.03277549,-0.018766418,-0.017227616,0.029841864,-0.07202712,-0.03842017,-0.046170656,-0.065230824,0.009501172,-0.012239028,-0.040462896,0.0047425125,0.059337724,-0.051957473,-0.047394354,0.031698454,-0.014043456,-0.051333655,-0.07756864,-0.08628219,-0.03256064,0.03296097,-0.04528139,-0.0050581605,0.041421212,-0.014436893,0.023555085,-0.029721089,0.0447763,0.0060576973,0.02070367,-0.043890845,-0.064109296,0.006127955,-0.05569433,-0.047726247,-0.02379841
TAMM41,0.053372685,0.0070152394,0.0057947943,-0.016899852,0.04342903,-0.04524584,-0.043826886,0.009646145,0.07099925,-0.062261034,0.04594204,0.044029575,0.012577797,-0.03493726,-0.04838786,0.044651564,-0.013493912,0.037860043,0.061685376,-0.037908755,-0.046781406,-0.060470704,-0.046319403,-0.019553995,-0.061714694,-0.03134294,0.07548574,-0.00503957,0.06238523,-0.05186152,-0.029705763,0.04210138,0.038235698,0.01751857,0.07603205,-0.019729432,-0.06806073,-0.038284156,0.010964258,-0.06010698,0.037414137,0.044577073,-0.085964814,-0.020343121,-0.014161715,-0.029643582,0.01329502,-0.01613533,0.0157598,-0.009452617,-0.04850122,-0.00989966,0.01870779,-0.07677003,0.05241697,0.058934707,-0.029221049,-0.012936111,-0.05205753,0.057678487,0.03066203,0.013234046,-0.06478113,-0.040104453,0.088040076,-0.034851816,0.0100720525,0.019997345,-0.029490892,-0.02550684
TKT,-0.06832614,0.061202217,-0.06847559,0.043391276,-0.08872643,-0.053971957,0.050397195,0.035875898,-0.039646953,-0.04764181,-0.031238966,0.0643862,-0.029484827,0.055101324,0.049214996,-0.011504528,0.06063405,0.024723412,0.01672187,0.070807435,0.02391896,-0.060437735,-0.051875886,-0.07070355,-0.03279569,0.06042064,0.01694412,-0.056092788,-2.465849e-05,-0.013410365,0.02058673,0.054285396,0.07846581,-0.040161233,0.050583098,0.000923405,0.005549087,0.026610237,-0.04089631,-0.046861522,-0.08635507,-0.0062774783,0.004821165,0.00011496111,0.056541625,-0.022895094,-0.041703578,-0.02930968,-0.019716835,0.03597061,-0.040620644,-0.027563158,-0.004769296,0.04436725,-0.058905125,-0.10271245,0.056010094,-0.041739535,0.02584658,-0.07783145,-0.048885122,0.0024512266,-0.015166655,-0.046969317,0.01944659,-0.05279498,0.081954725,0.03633275,0.068476364,-0.029247971
MRPS11,0.036236998,0.013769437,-0.007562308,0.07151645,-0.029252682,-0.0016042369,0.0035147255,0.06691279,0.008617844,0.039481185,-0.030560957,-0.07284585,0.023003237,-0.017696612,0.03128704,-0.051369388,0.04560006,0.059495203,-0.047998995,-0.05040403,-0.06897735,-0.037173808,-0.024989638,0.001896145,0.050517958,0.09925822,-0.06694969,-0.026373802,-0.046617668,0.023848273,0.026194617,-0.0015894827,-0.03197996,0.036918864,0.07788714,0.053671982,-0.049762283,-0.06513688,-0.018425183,-0.06301982,0.04362231,0.037794635,-0.02948693,-0.04696986,-0.02903595,0.006701319,-0.07392199,-0.024471074,0.06652962,0.029054713,-0.043545432,-0.06533723,0.034993242,0.022029681,-0.026774455,0.076336704,-0.050053354,0.038798444,-0.06158034,-0.003729872,-0.043099392,0.059662666,0.008742781,-0.014497603,-0.03540717,-0.0021309226,-0.039687324,-0.008825857,0.016762583,0.038322516
CHMP7,0.018459983,0.058318585,-0.008861659,0.016072627,0.05741585,-0.045212183,0.023533262,0.0067408453,0.05521068,0.016974986,-0.011266457,-0.046222262,-0.017501868,-0.012519145,-0.001491104,-0.024405906,0.009897062,0.00044708094,-0.04974976,0.011347924,0.03930072,0.01736945,-0.009875248,0.08773742,-0.0016706059,-0.03669085,0.0573024,-0.0063112536,0.0411509,-0.04219159,0.00015111755,-0.049817905,0.091873474,0.03205425,-0.029841395,-0.035970844,0.008541971,0.015019409,0.085163474,0.0073597576,-0.010159895,0.05098015,0.04958156,0.06265612,0.025634892,0.116578735,-0.032024387,-0.027189739,-0.06304875,-0.016814992,-0.047000583,-0.033912417,0.041398577,0.037307072,-0.036544703,0.018504603,-0.010807936,-0.045359872,0.05467691,0.029489899,0.034461834,-0.044832483,-0.03495017,-0.01126078,0.054740053,0.065949254,-0.07103173,-0.030008333,-0.020974912,0.03966729
VBP1,-0.038573004,-0.05256657,0.045996036,0.018147616,-0.011979906,0.05344015,0.04408868,-0.02085835,0.010626383,0.008783619,0.06883536,-0.033633057,-0.003135464,-0.048647165,-0.054897565,-0.036038425,-0.025767017,0.018258484,0.03898984,0.018417576,-0.0099749025,0.012731404,0.037313364,0.020803748,0.013399793,0.019694444,0.017198486,-0.08270827,-0.057467047,-0.016624663,-0.091908894,-0.019326994,0.016373988,0.032596722,-0.01684717,0.0010961039,0.06733197,-0.043749485,-0.027206317,-0.05984139,0.029177094,0.010174932,0.026376437,-0.03717699,-0.06702442,-0.02250077,-0.02591966,0.018450912,0.09860378,-0.070712276,-0.056355804,-0.011318426,0.026021313,-0.028623663,0.040208887,0.05061194,-0.060566276,-0.018546516,-0.037106812,0.02091891,-0.034791365,-0.014183845,0.0018809766,-0.057992265,-0.022252781,0.030029828,0.032463647,0.015374953,0.039435,-0.04135402
CYC1,-0.047390353,-0.07889507,0.03661672,-0.019272167,0.042089403,-0.04222986,-0.056449614,0.06720849,0.03558099,-0.047165878,-0.021546744,-0.052983146,-0.036696464,-0.02696365,0.02915108,-0.047790885,0.038466036,0.03418564,0.0011385708,-0.039629273,-0.06444939,0.081562534,-0.008839285,0.057251077,-0.015997475,0.0005134228,-0.07730456,-0.020101724,-0.01977911,0.07423876,0.02127086,0.05499419,0.0012439474,-0.06515137,-0.023089861,0.080391526,-0.057192646,0.042246558,-0.0049157473,0.055951677,0.07077193,0.023739234,-0.011598654,-0.018604688,-0.022423675,0.090603784,-0.07181042,0.061217546,0.053348947,-0.007279987,-0.07293753,-0.044405527,0.040785078,0.011457661,-0.024508948,-0.045978658,-0.040633105,-0.100139715,-0.026103402,-0.02556338,-0.01254148,-0.033279482,-0.03895211,0.024739927,-0.06513157,-0.0358727,0.017185066,0.017530521,0.035617158,-0.030896297
MRPS6,-0.01608439,-0.01733155,0.044573314,-0.050823905,0.040222254,0.018956892,-0.042443123,-0.07540761,0.027634995,0.039483774,0.024831858,-0.008395225,0.04805498,-0.06711959,0.015457291,-0.027133966,0.042828213,-0.03377815,-0.0762031,-0.0497985,-0.064610906,-0.020389587,-0.017484156,-0.0090796,-0.05748626,-0.040417623,0.043869656,-0.047998577,-0.0028846394,0.031872958,0.0642006,0.067031704,0.021740353,-0.010382502,-0.052099627,-0.039414234,0.0022896323,0.053943492,0.031049162,0.05685446,0.06057958,-0.003065402,-0.018732553,0.09431844,-0.08963815,-0.011052329,-0.046146106,0.045074154,-0.0062922626,0.0247452,0.019251108,-0.009794447,0.059980586,0.02921859,0.04905743,-0.0038396544,0.03426208,-0.035403356,-0.037798632,-0.06439905,0.051308587,0.025148138,0.06744319,0.028924037,-0.0014195131,-0.023673939,-0.033217955,0.06069913,0.053708524,-0.03580817
FIS1,-0.039249424,-0.015248051,0.0028937578,0.04778556,0.019431232,0.01914497,0.018526478,0.03164982,-0.037490867,-0.078102365,-0.009585327,0.037856612,0.014231529,0.042433128,0.055306837,0.017030887,0.019488113,-0.005392004,0.0706283,0.012967483,0.009274032,0.0147074405,-0.06861556,-0.033070903,-0.039668087,0.01541892,-0.0044947504,0.0010895143,-0.0043065026,-0.030335056,0.004632008,0.00026092006,-0.07436025,0.0007095326,-0.04691036,-0.007151903,0.030165767,0.0070891604,-0.029549628,0.0059026345,-0.07015867,0.060292438,-0.052048463,-0.013562428,0.042107213,0.0054181498,-0.058268145,0.020478537,0.011024226,-0.016695281,-0.07958297,-0.054966833,0.009549019,0.012616742,0.035138592,-0.055017576,-0.017742665,0.050874565,-0.05588637,-0.008338518,0.059901763,-0.06711983,0.007881519,0.036572456,-0.042126346,-0.046393666,0.01564248,0.011934351,0.10365005,-0.0065543945
IRS2,0.035722245,0.036480587,0.026701104,0.016135879,-0.041777212,0.010645815,-0.026649432,0.016689515,0.035833832,0.014437714,-0.0052544633,-0.0019286266,0.017450666,-0.026312996,-0.08983724,0.03072492,-0.0747239,-0.040763892,-0.014497813,0.06766815,0.018990858,-0.09026712,0.0673416,0.08777715,0.02460845,-0.035404228,-0.029492723,0.032403745,0.017685406,-0.07339747,0.026149757,-0.069317706,0.057054833,-0.04032558,-0.026305348,0.05646789,-0.056431316,-0.041826528,-0.051108185,0.004519614,-0.02908733,-0.06729033,-0.04497909,-0.06734077,-0.07773723,0.0040840595,0.03089275,0.0367651,-0.063047744,0.006207776,-0.079459,-0.050573748,-0.026260195,-0.023246726,0.05922347,-0.08121152,0.04757584,-0.027137557,-0.011845749,-0.024188813,-0.03582043,0.0040398026,0.023512252,-0.07913545,-0.05414111,0.0009998418,0.019619048,0.0018147853,-0.019098926,-0.002959549
FOSL1,0.044486623,-0.051758334,-0.027128778,-0.02803768,0.01209164,0.028899346,-0.022890259,-0.030496815,-0.015676333,-0.027327396,-0.05099724,0.045568243,0.037152912,-0.035347305,-0.009918399,0.05664864,0.046831284,-0.06697509,0.045473028,0.064553715,0.074446134,0.0038561225,-0.057289336,-0.024449352,0.057512373,0.010168189,0.047149967,-0.041021664,-0.034199413,-0.039117835,0.054978274,0.05521336,-0.023067556,0.07706944,-0.06572114,-0.024486497,-0.03542527,0.042186882,0.05586536,0.004727454,0.024395242,-0.077712074,-0.06649625,0.031560123,-0.03947001,-0.01873581,-0.029612431,-0.009924623,-0.013687713,-0.013275499,0.004377034,0.0056180614,-0.029646697,-3.2962425e-06,-0.005552718,0.004950448,0.025164677,-0.05066498,-0.016624007,0.044234626,0.004300918,0.022074731,-0.019673279,-0.034678847,0.0151615795,0.0012275489,0.01942724,0.066166565,-0.006577327,-0.03767229
ACTB,-0.028178327,-0.026644075,0.010983627,0.010236683,0.020877881,0.0006432143,0.06337604,-0.04688428,0.058556594,0.017469183,0.07893338,0.028030472,-0.037211124,0.044546757,-0.037977513,-0.03231179,-0.028325178,-0.035779323,-0.047418334,0.044597324,0.04160584,-0.0504446,0.059498586,-0.04530957,-0.021633042,0.055319663,0.00050180394,-0.04275907,0.020043101,6.725737e-05,0.07573817,0.06607035,0.030270178,-0.020164683,-0.018303636,-0.009249252,0.03938176,-0.024701076,-0.0038027447,-0.06647776,-0.035502877,0.031612433,0.053985085,0.072233655,0.059268713,0.00048808954,0.06182242,0.033000495,0.009913935,-0.001668093,0.046158187,-0.03773882,0.0150168175,-0.021398278,0.018224709,-0.043994732,0.06449559,0.09577987,0.03461081,-0.022220813,0.010002163,-0.03118412,0.04077448,-0.03354458,-0.005064195,-0.053786278,-0.0571822,-0.0028922409,-0.03426585,0.015122188
PTPMT1,-0.0021808646,-0.027552068,0.017759198,-0.021469148,0.027748948,-0.054775145,0.030497482,0.03203035,0.045858588,-0.054172333,0.018942045,0.02026416,0.009295482,-0.037297867,0.037521385,0.00646058,0.035187148,-0.0335839,0.008321849,-0.009718659,0.067742035,0.014739716,-0.027806005,0.03845217,-0.04162502,0.06734819,0.03543422,-0.040922362,-0.06697352,0.0328656,0.038759124,0.016601274,0.05619603,0.0013564912,0.084705114,0.04128,0.05077204,-0.026625015,0.073586,-0.017314514,0.044506077,-0.031953294,-0.07288054,0.0030029984,0.0011870456,0.02383777,0.07115843,-0.019392652,0.021680381,0.012599301,-0.004442775,0.032187887,0.0050842618,0.043113254,0.017619105,-0.045485124,0.04615546,0.03634368,-0.080171786,-0.03392335,0.04859191,0.051302865,-0.047461182,-0.005797275,2.798165e-05,-0.03734204,-0.036295604,0.018637044,0.05013242,0.06142626
PAICS,0.08983641,-0.10839774,0.045716774,-0.01510207,0.034339447,0.025017273,0.020528138,-0.018368678,-0.0365909,0.02277687,-0.024579016,0.00073243433,0.0326767,0.09532412,-0.0035167667,-0.009015085,-0.010023454,-0.0038956935,0.004060659,-0.07725531,-0.06115838,-0.03977613,0.018361678,-0.01777202,-0.03375477,0.052446872,0.07201187,-0.040017284,-0.0021850297,-0.061327983,-0.040194206,0.04396823,-0.029873766,-0.052782394,-0.022942754,0.075807184,-0.016314004,0.013079078,-0.020761028,0.048258364,0.037968926,0.030899024,0.06804648,-0.055463493,0.08121966,0.033186693,0.044994604,0.0780308,-0.007278291,0.03824541,-0.04819164,-0.07000156,0.055095877,-0.07633325,0.012451498,-0.051540338,-0.023597188,0.024684774,-0.032035686,0.09018445,-0.011917476,-0.032133263,0.040628396,-0.041505437,-0.06438656,0.05087359,0.046185177,0.044626653,-0.02078503,-0.054797348
FARS2,-0.051061433,-0.036703207,0.031856265,0.06393664,-0.038669184,0.045659557,-0.037543114,0.054045364,0.039924327,0.043395564,-0.070607,0.06017643,-0.0047040135,0.05465364,0.024957094,-0.061195187,-0.026856873,-0.04444741,0.019391336,0.045958854,-0.060501236,0.004677525,0.0052263997,-0.02998796,0.005506496,0.005669795,-0.049465884,-0.001127823,-0.005953243,-0.013023876,-0.02607017,-0.005110648,-0.10056399,0.052799456,-0.022101419,0.0018288823,0.03646154,-0.05071169,0.049736932,-0.017566297,-0.026236575,-0.042323817,-0.07385853,0.057777077,0.04143144,0.06904559,0.008841899,0.038348466,-0.05493993,0.022374356,0.012211652,-0.038714673,-0.013542054,0.07759507,-0.0078022657,0.0073179794,-0.017481076,-0.07907418,-0.024183972,-0.0625274,-0.08938135,-0.049391378,0.017739158,-0.007008283,0.010907493,-0.086787164,-0.02359393,0.0109886695,0.06513927,-0.07775888
CTPS1,0.029246703,0.015327457,0.010713141,0.06755215,0.008508209,-0.020133454,0.0310048,0.03895046,0.049721234,-0.017661221,0.0024205074,0.030482473,0.057489093,0.048253067,0.05913899,0.010620091,0.027472762,-0.009630088,0.060561378,-0.051749885,0.043781087,0.064869784,0.003273516,0.020936409,0.04557283,0.025880508,0.094238654,-0.040838122,0.012611804,-0.0043304944,-0.0012325422,0.030548807,-0.0669041,0.004067047,-0.00012828375,0.025047258,0.024451658,-0.014032183,-0.005737727,0.03257388,0.012975301,-0.014069892,0.06445048,0.057184298,0.040843025,0.026095545,-0.02890896,0.017936489,0.022095662,-0.027603334,0.03657428,0.00088340545,0.0034455722,-0.034466527,0.006637237,0.02613018,0.04632923,0.02666666,-0.003306883,0.016988454,0.029266404,-6.837028e-05,0.019936126,0.031062294,0.08424423,0.043221463,-0.044943713,-0.016107026,0.051948823,0.06137269
TRAF2,-0.035814695,-0.012515955,-0.068432115,-0.02323312,0.030728918,0.02678036,-0.0062246504,0.10510163,0.008708093,-0.003250622,-0.052966323,0.0490937,-0.07781395,0.01649084,0.053635508,-0.0077086133,0.06532564,-0.023229992,-0.009531124,0.004157574,-0.0412024,-0.013791123,0.062689975,-0.06045026,-0.005911527,0.027829552,-0.024971237,-0.0020715024,0.027189625,-0.0074030804,0.059412032,-0.013221175,-0.053312972,-0.07031545,0.023412654,0.028386658,0.05418594,-0.01696725,-0.023707254,0.04923988,-0.053852994,-0.0066406317,0.04055372,0.055413943,-0.017025499,-0.016035438,-0.05761067,-0.053975686,0.08244257,0.023755759,0.027674297,0.006213739,-0.049223896,0.029177962,0.03963632,0.014896384,0.025050366,0.05883801,0.06268521,0.039179932,0.10257691,-0.045494072,-0.03165193,0.030604633,0.023439707,0.007331753,-0.029454878,0.06627063,0.014125978,0.043324277
TLN1,0.002251348,-0.061895914,0.029361283,0.015873075,-0.03633455,-0.005658814,0.0069353385,0.052993335,-0.07939821,0.036358558,-0.0016639533,0.03871888,0.0047230646,0.012047047,-0.0014084406,-0.053546757,-0.08273291,0.00092726806,0.049339682,0.026161235,0.049313787,-0.035458826,0.015665604,0.0067109796,-0.03673396,-0.04518963,-0.027643993,-0.040925935,0.070382096,0.06320491,0.04788122,0.050096642,-0.04865244,-0.019042851,0.024280937,-0.031242274,-0.019974807,-0.09482321,0.039094508,-0.035972487,-0.054443568,0.06567012,0.03973452,0.040675823,-0.040773746,-0.0343453,-0.017535076,-0.018326165,-0.054522585,-0.047707804,-0.013278624,-0.023364129,-0.035693616,0.028628582,-0.036053345,-0.071266465,-0.068350576,0.019874457,-0.0058111055,-0.053083524,0.015704537,-0.03573783,-0.007246989,0.023384219,-0.043749467,0.008038311,0.051089477,-0.04008368,0.0025297026,-0.0022945711
CRKL,-0.020336978,-0.049597632,-0.013701144,0.018992202,0.07348484,0.00617991,0.02777792,-0.054759447,-0.032715164,-0.030038383,0.026866931,0.0006687312,-0.08686473,-0.03361414,0.0848949,0.05728887,0.036417283,-0.03941851,-0.032053433,0.08168422,0.0026090848,-0.041824363,0.012537118,-0.0031420179,0.06395542,-0.050352737,-0.01312739,0.015104722,0.034245294,0.03835103,0.05705492,0.091658056,0.04520601,0.027741676,0.08666867,-0.003245659,0.04169906,0.0047943587,0.06311173,-0.0741174,0.031704664,0.04978825,-0.052940544,-0.0488806,-0.049954653,0.011480477,-0.020119146,-0.02538056,0.023434464,-0.024010768,0.023894185,-0.026037835,-0.006800372,-0.008772605,-0.016929228,-0.035488497,-0.04142646,-0.0012863439,0.016451372,0.010201028,0.056519438,-0.013826166,0.04002213,-0.0770643,-0.041589953,0.034352716,0.08572085,0.036628664,0.054642826,0.08069217
LRPPRC,-0.04041048,-0.068345316,-0.0015248628,0.048665877,-0.04902416,-0.0004414096,-0.032999717,0.039624903,-0.050500076,0.043257896,0.024529457,-0.06110127,-0.066899434,-0.0025217545,0.035870586,-0.037483476,0.031400956,-0.018090332,0.019405175,-0.037355185,-0.020177653,0.05892179,0.02688065,-0.013587805,0.04767961,0.008669023,0.034980364,0.013926231,0.02052864,-0.05995239,-0.010157075,-0.008899816,-0.01052595,-0.047391452,0.038865656,0.049273085,0.029087907,-0.0046073534,-0.007003102,0.030881708,0.08396444,0.0280445,0.04266987,0.013752216,0.03835199,0.025922386,0.0024757225,0.032352902,-0.017529922,0.014558729,0.04806965,0.02906084,0.035599336,0.03336433,-0.057518974,-0.015870247,-0.081587866,-0.057647094,0.052484512,0.012248926,-0.008841669,-0.007463369,-0.012440958,-0.05875622,-0.056987584,-0.080119714,0.043058563,-0.09001625,-0.0022425966,-0.014274183
ICE2,-0.021577792,0.03283552,-0.03515303,-0.028554417,-0.0025393358,-0.042172167,0.018909048,-0.046663087,-0.05395078,0.052197214,0.0678041,-0.0028957657,0.028053155,-0.007561792,0.019129202,-0.032731652,-0.0471453,-0.027135173,-0.0834527,0.051115617,-0.0020579407,0.01763481,-0.0034104853,-0.018556604,-0.011535547,0.00060268195,0.036580186,-0.051571194,0.07473396,0.04644263,0.0803864,-0.041950524,0.05557128,-0.042484533,0.033181787,-0.054966528,-0.040210746,0.040766932,0.013230029,0.056154735,0.034147456,-0.057841126,0.041501958,-0.040485963,-0.053983137,0.029274235,0.010828168,-0.036426913,0.038974572,0.046843797,0.05567007,0.047198035,0.046358526,-0.006147727,0.034225035,-0.037458867,0.06458472,-0.047038034,-0.007800023,0.09037563,0.036345743,0.0613494,-0.03000065,0.048634976,0.0010525422,-0.0517736,0.057425756,0.03163018,-0.05782637,-0.008296404
ADAR,0.028762594,0.015668457,0.00076135114,0.00036380775,0.057273302,0.022414733,0.04788843,-0.029473893,0.014068616,-0.008539153,-0.059512015,-0.040496666,0.02053151,0.0479223,0.02167499,0.033183016,-0.006734957,-0.05460226,0.047884554,-0.017149568,-0.07362821,0.05340999,-0.0475078,0.030271402,-0.039500445,-0.02296831,-0.0142823765,-0.004207545,0.036705505,-0.04697332,0.024437994,0.042749237,0.042978965,-0.027739428,0.045644924,0.022313485,-0.003021894,0.01893326,-0.048137613,-0.020103712,0.05064524,0.0022842863,0.011415735,0.086972356,0.036517266,0.031803463,0.035648994,-0.0011609705,-0.049456283,0.035744295,-0.0008838847,-0.06477223,-0.044346955,0.060009986,0.04722493,-0.011550163,0.037744056,0.0548508,-0.01144106,-0.017241886,0.03077141,0.053540178,0.0051669655,0.039355792,-0.006519722,0.03978485,0.05503753,0.051182467,-0.018884562,0.0026973116
PPP1R15B,-0.019758841,0.04289291,0.028223215,-0.05009813,0.050372373,-0.08766467,-0.029541139,0.032090686,0.12372447,-0.0015354244,0.007389526,0.046576574,0.010299449,-0.0024190766,0.038617115,-0.005860616,0.04829909,-0.087629996,-0.009206049,0.05667047,0.017303292,-0.07853556,-0.0669791,-0.04351002,0.063405484,-0.03796794,-0.031870753,0.07708168,-0.046933584,-0.021295682,-0.0020208524,-0.025933882,-0.020053169,-0.049466927,0.05630647,-0.020354236,0.018199965,0.03184187,-0.05089841,0.009667537,-0.01776111,-0.0068313596,0.07569096,-0.062225554,0.016873706,-0.0010624593,0.0641788,-0.081742175,0.014235658,-0.06768532,0.08003899,-0.010615531,-0.012642193,-0.06387901,-0.037858732,-0.03242195,0.04846217,-0.011756548,0.011950747,-0.019548412,0.001539228,0.031182729,-0.00790415,0.029226834,0.062281244,0.02500055,-0.020709058,0.009766274,-0.049164776,0.03113266
NAMPT,-0.017286379,-0.04349815,0.0095176585,-0.044555046,-0.012071868,0.040467292,0.053834666,0.07435846,-0.05099001,-0.08020343,0.014632602,-0.05891966,0.061534867,-0.05017431,-0.040900137,0.06280588,-0.05256432,0.015272733,0.015967602,0.0004202784,0.07613154,0.016779233,0.050946906,0.068205506,0.0029715234,-0.0052184844,-0.009253148,-0.022375764,-0.030421501,0.043311756,0.02452485,-0.02371527,-0.050433714,-0.0057552736,-0.034913197,0.0024542229,-0.053013653,0.006614251,-0.005982123,0.01832127,0.025007838,0.0644907,-0.04045737,0.040796943,0.020623667,0.025887914,-0.009087036,0.0070573576,-0.039255727,-0.07097537,-0.09036324,-0.044017512,0.06368883,-0.06835222,0.022422146,0.04386798,-0.04289331,-0.06445788,-0.046815623,0.056941144,-0.0690857,-0.057990767,0.016125096,0.040858775,0.010008526,0.0105093215,-0.06472224,0.008882715,0.06216761,-0.055192452
UQCRC2,-0.027101925,-0.0057459157,0.05455082,-0.00011359699,0.009169599,0.00977537,0.00361066,-0.033806812,-0.038949743,0.0018220448,0.005960017,-0.024382634,0.049556725,-0.03564456,-0.013236821,0.045056265,0.064961426,0.05971601,-0.04181443,0.078234404,-0.010093001,-0.044042263,-0.009845708,0.04420282,0.01539601,0.019822385,-0.011088587,0.05731331,0.053672843,-0.021032043,-0.044807106,0.047342844,0.066916354,-0.00897857,0.04133641,0.024842063,-0.056594495,-0.03096893,-0.036911637,-0.036401607,-0.04122395,-0.006631315,-0.010696643,0.05841168,-0.03876023,0.043531302,0.0066363625,-0.035784885,0.058493573,-0.05177343,0.047543157,-0.04352083,-0.0044273133,-0.06599603,0.016431771,0.010301203,-0.051555905,-0.07946758,-0.053542037,-0.0026276405,-0.047613386,0.028356677,-0.0307848,-0.019994114,-0.038849495,0.010551069,0.03723641,0.015875852,0.0405419,-0.07884922
PIK3C3,0.028401218,-0.014839998,0.007079355,0.020758452,0.019614967,-0.049935717,0.045847673,0.0049156435,0.06279963,0.07388877,-0.052314017,-0.009766281,-0.036798887,0.04503831,-0.043585982,0.055435706,0.0040205303,0.08490708,-0.044583216,-0.015027128,-0.090981044,-0.030891025,0.0470224,0.00918531,-0.031739097,-0.037866626,0.06778257,0.06878019,0.088017106,0.020942222,0.026211783,-0.051656306,0.033252776,-0.045575038,0.04995923,-0.028695848,0.042543184,-0.026499167,-0.050319217,-0.028990556,0.0780507,0.066861525,-0.0015423159,-0.037924908,0.09409599,0.029568784,-0.05399395,0.034136165,0.007994059,0.0692783,-0.0077864183,-0.016557083,-0.016829759,-0.057215665,-0.03159402,-0.055104923,0.05565202,0.021684432,0.0037462073,0.051563386,0.0313278,-0.03898843,-0.008531655,-0.075253144,0.0065771313,0.06329716,-0.05865642,0.09330028,-0.041898128,-0.023590555
METAP1,-0.03681639,-0.025601722,0.023247704,0.029337924,-0.011275194,-0.055250783,-0.026889162,0.053528,-0.008063011,-0.009251706,0.018275823,0.06401177,0.056073394,-0.013205651,0.06225989,-0.023977399,-0.015996879,0.0040759663,0.005292408,0.030410266,-0.043421373,0.08718338,0.023547119,-0.0014281785,0.028130157,-0.009584953,0.026850201,0.08776198,0.07096513,0.036581002,-0.018837681,0.074558556,0.07795389,0.021007,-0.045095135,0.010332689,-0.008735126,0.046188395,0.031524166,0.047956467,-0.016938658,-0.060162097,-0.040533014,-0.08692876,-0.037452456,0.09846946,-0.04667915,-0.011830081,0.023013243,0.045149937,0.08356888,-0.055093154,0.050662395,0.01741832,0.011269593,-0.0009232966,-0.025910897,0.035052087,0.0710383,0.0065467716,-0.04019418,-0.030048886,-0.06430455,0.049452774,-0.018433884,-0.08365519,0.042102378,0.042080242,0.043501593,0.059532247
IPPK,-0.019535929,-0.004151984,-0.10383637,-0.0025106666,-0.03432686,-0.054517478,0.05891151,0.0394699,-0.026985595,0.064378135,0.0007279633,-0.022499198,0.016401006,-0.035514954,-0.08053435,-0.020279035,0.04733197,-0.03096292,0.047305107,-0.0703324,-0.0041384636,-0.0047649047,0.041010812,0.054413617,0.054343276,0.0692114,0.023654979,-0.0026839548,0.023493571,0.035853196,0.010934839,-0.06444583,-0.03557341,0.045872398,-0.051691256,0.06316777,-0.029342439,0.032497462,-0.004800436,-0.08358944,0.008785243,-0.05201785,0.04888306,-0.04999541,-0.002868447,-0.032516204,0.033660248,-0.018870007,0.04119812,0.02922585,0.006511871,0.030658884,0.08535128,0.024924703,-0.020179424,0.046972934,0.021780662,0.07776801,0.041241422,-0.044751577,-0.04419457,-0.061221816,0.042180464,0.0095172655,0.054155547,-0.08552127,-0.032899514,-0.04575405,0.037698608,-0.095110364
TWNK,-0.09544182,0.019258538,0.0004218435,-0.05392369,0.01410508,-0.054727416,-0.10446049,-0.06866298,0.019411726,0.032674767,-0.0073662875,-0.04509545,0.059537888,-0.08075022,0.01098478,0.03465189,0.023096731,0.016124692,0.022981253,-0.044514533,-0.02622242,0.077469386,-0.0010168693,0.04248176,0.012323376,0.0045289895,-0.061858356,0.04606589,0.068006694,0.0007524394,-0.07704009,-0.06870064,-0.0003337071,0.021068677,-0.0074392874,0.00047698373,0.004923834,0.060577318,0.024137251,-0.04472032,0.06557468,-0.083172485,-0.08115564,-0.052877877,-0.009364164,-0.023487205,-0.060642432,0.044252872,-0.016682558,0.05488243,0.013637793,-0.050451953,-0.0046594995,0.059496406,0.04672138,0.077411875,-0.033603173,0.01463334,0.0001887358,0.036733277,0.032526176,-0.026685592,0.09328971,-0.015866386,-0.012238635,-0.051704668,0.024333822,0.04510091,-0.039363295,0.070458815
UROD,0.040187187,-0.047390427,0.02071854,0.03314637,-0.05493637,0.03394559,-0.040318906,-0.006879915,0.047936887,0.009575822,-0.040770527,-0.03431135,0.03186485,0.068127975,-0.0009910543,0.05139664,0.03496789,0.028839866,0.064558126,-0.034414537,-0.06540253,0.0103092585,-0.0041862647,0.026384039,-0.049462494,-0.044192426,0.05358285,0.04245332,-0.073641926,0.015683802,-0.0054074726,0.010645358,-0.009626634,-0.02976992,0.060756013,-0.048680205,-0.028345944,0.018413007,0.048248075,-0.05422044,0.10000927,0.036763787,-0.045564875,-0.042482525,0.015819078,-0.04396464,0.009415314,-0.09646693,-0.0004899199,-0.023718787,0.06741925,-0.0037578566,-0.016240599,-0.020358948,0.079421684,0.034710523,0.014595825,-0.026931535,0.045272958,0.012785633,-0.0061211325,0.011337137,-0.021506488,-0.05739836,-0.057646472,0.049998175,0.03841754,-0.053768326,0.03863907,-0.028762223
GPI,-0.04165449,-0.0046555772,-0.05734599,-0.008224828,-0.017272286,-0.038521275,0.067717925,0.008741905,0.043979276,0.043548923,-0.04363109,0.060427677,-0.042694572,-0.011447706,0.045498453,0.019555274,0.073541604,-0.020098401,-0.057686325,-0.051617824,-0.075601906,0.03971003,-0.041400094,0.018711107,0.06862019,-0.024950393,-0.0309311,-0.04011627,-0.09689304,0.031789646,0.0038579493,-0.027632888,0.021535248,-0.08815325,-0.008923394,0.082103506,-0.084787354,-0.035280757,0.046346072,0.04026304,-0.08807405,-0.014422551,-0.08474158,-0.040701125,-0.053606924,0.016173296,0.09055385,-0.06855848,-0.04960272,0.018779512,0.017628446,0.050154466,0.07544807,-0.005829665,-0.039638504,0.023338221,-0.064149916,0.03565604,-0.052457523,0.017415287,0.023817452,-0.010249884,-0.042798325,-0.03179497,0.07856997,-0.008332268,-0.019740488,0.052875396,0.032373685,0.01998952
IMPDH2,-0.05295906,-0.049905345,-0.0698519,-0.028112374,-0.016199874,0.05707334,-0.003684405,0.003948993,0.04151909,0.08450539,-0.04433486,-0.008944543,-0.030052219,0.0058792797,0.038625848,-0.0335992,-0.025321508,0.05166959,-0.050587155,-0.008078428,-0.04692977,0.05743755,-0.0026723875,-0.082543015,0.034599002,0.048700973,0.05745661,-0.00861912,-0.03430566,-0.023508495,-0.028242964,0.015868494,0.042958427,-0.014184465,-0.036312785,0.05517126,-0.0064918012,0.029133594,-0.011285741,-0.006450057,0.071209185,0.010148611,0.0029033038,0.060040727,0.003123943,-0.063197285,0.05093237,0.07322335,-0.050712463,0.03106482,-0.10312671,0.011008295,-0.043223694,-0.06752468,-0.084673926,-0.04410719,-0.008721564,-0.03520137,-0.052207183,0.08116523,-0.090202115,-0.07155323,0.041367255,0.0052666613,-0.030125843,0.0056303563,0.067878716,0.07139453,0.090711445,0.05845886
METTL14,0.011229245,0.066215895,-0.009110795,0.049870554,-0.04486439,0.09172125,0.004711741,0.031868786,-0.039907288,-0.035267767,0.09842475,-0.00684589,0.023041315,-0.078768656,0.009106461,0.07111877,-0.0649912,-0.026739078,0.042109586,-0.017023273,0.041899063,0.03900176,-0.053760678,-0.025988076,-0.00087206275,-0.035800558,0.036295086,-0.045654956,-0.032157786,-0.0431631,0.023660356,0.07616492,0.051566817,-0.0045683444,0.051770717,0.08872022,-0.0644663,0.072445154,0.037049327,0.0038081435,-0.060791206,0.038173,0.017782405,-0.0060100695,0.025051266,0.008295553,0.029193368,0.04751299,0.07837689,0.0067058154,0.01421739,-0.021634266,-0.052142344,0.052221943,0.009019146,-0.002407367,-0.048967995,0.052298628,0.034348764,0.07969515,0.008066496,-0.009759192,0.053811293,0.024074532,0.05484882,0.07415649,0.058387995,-0.009815133,0.03392092,-0.017923204
AHCYL1,-0.11174599,-0.09502557,0.043852042,-0.011190044,0.057726763,0.035856023,-0.022194901,0.011327288,0.043190014,-0.011017941,-0.014302498,-0.07951725,-0.027163606,0.020177377,-0.06639354,-0.007616312,-0.023854064,-0.0017244047,-0.060433596,-0.052804656,0.041630544,-0.08349756,0.02706177,0.025680276,0.05502413,-0.002412044,0.05815029,0.010361145,0.05943654,1.1084817e-05,-0.08686371,0.0438215,0.055881895,-0.017293695,0.01953346,-0.027368007,-0.033654336,-0.0707707,-0.09203968,-0.08390359,-0.000876473,-0.053712428,-0.040812034,-0.06842767,0.0088267485,-0.0824803,-0.068181135,0.04771883,0.025321105,-0.01883835,0.02943596,0.055941638,-0.08183585,0.022547735,-0.010852796,0.03471662,0.096216336,-0.026959417,-0.026496321,-0.042788394,-0.004791363,-0.0619632,-0.067645885,-0.020635288,0.012433584,-0.05076834,-0.022194987,0.036079437,0.0099174855,-0.056435425
TFRC,0.020844981,0.01072188,-0.087315336,-0.012427561,0.0011811286,-0.0036497691,-0.08076312,0.10329669,0.0075572613,-0.049314458,0.03439524,0.044438023,-0.041177906,0.08494478,0.06028512,0.013533734,0.02131668,0.044873472,-0.06828822,-0.04004529,0.02268574,-0.021506859,0.010227467,0.0030680585,-0.027973771,0.020326655,-0.04239743,-0.0019878815,0.039335776,-0.020986864,0.00015207112,0.0046656546,0.011089372,0.054688,0.07345395,0.06287407,-0.026792498,-0.030954914,-0.07400042,0.004379994,0.015759159,-0.008359843,-0.018270964,-0.0318892,-0.05525865,-0.010007791,0.033503253,0.038435522,0.0031997669,-0.022714991,0.038433872,0.048221637,-0.08690116,0.012934286,0.0354784,0.020373398,-0.0318271,0.069717474,0.0741378,0.057094146,-0.045338538,-0.018718306,0.035761293,0.036384765,0.029376531,-0.06425275,-0.05173088,0.008805199,0.059691653,0.034990557
ATP1A1,-0.0219348,-0.07409821,0.028424097,0.0065866075,-0.06554979,0.008897412,-0.01827591,0.051121186,-0.051235497,-0.06332903,-0.016956573,-0.08151894,-0.057253838,-0.017501451,0.03148117,-0.024312723,0.025213834,0.061882276,0.04930902,-0.047477365,0.047713466,0.023790393,-0.011477632,0.066593416,-0.021663096,-0.02470124,-0.019559411,0.028020808,0.035127852,0.06604746,-0.012071622,0.00954393,0.01809991,0.05674863,0.05248749,-0.0017443745,0.00067663466,-0.06042332,0.018717919,0.02702613,-0.008350688,-0.050222542,0.07823703,-0.0712682,0.05097803,-0.01045654,0.08900529,0.054817732,-0.021979159,-0.008772576,-0.012432657,0.025296625,-0.02236709,-0.07393902,-0.053272173,-0.054056756,0.024010416,0.02159784,0.008935712,-0.037854414,-0.021015933,-0.014150233,0.01591089,0.052641403,-0.014654148,-0.048462916,0.008326027,-0.05234547,0.09115713,-0.0059394315
GART,-0.044969898,-0.06337621,0.0531353,0.056488972,0.027543437,-0.053640872,-0.018960726,0.017930932,0.017930124,-0.04933978,-0.025876213,0.007519498,-0.027448783,0.008935456,-0.056341954,-0.031063445,0.025942523,-0.101153724,0.044591766,-0.005391405,0.02377322,0.0023552373,-0.011358413,-6.475559e-05,-0.065051526,0.039305057,0.07345105,-0.055212747,-0.01956274,0.016388196,0.034917656,0.050857715,0.012679387,-0.043912996,-0.037006352,0.079145156,-0.07675539,0.0068597808,0.02752282,-0.063031025,0.042733364,-0.030935403,-0.034866996,-0.08889894,0.05249682,-0.024978425,0.009479924,-0.05822319,0.056352273,0.07805718,-0.035138216,-0.040631566,-0.01585363,0.049682252,-0.01936752,-0.0006734451,-0.0128763,0.0598252,0.07175606,0.0041286987,0.038563266,-0.07972986,-0.018636307,-0.039902486,-0.07066252,0.056575067,0.023185715,0.051488157,0.07649023,0.0061474587
DNM1L,0.0025267801,0.009163757,0.0059184753,-0.032314286,-0.04327256,0.042946097,0.0729588,-0.12112495,-0.0150158275,-0.044911746,0.010939859,0.02340414,-0.006981202,-0.045941982,0.05175005,-0.024608625,-0.018653767,-0.06890909,0.07132831,0.012613706,-0.04514798,-0.011818307,-0.05443715,-0.022446878,0.01824636,5.007158e-05,-0.037002116,0.03942261,0.011495516,0.0751743,0.022008218,0.074161425,0.06115368,0.027215295,0.0001960966,0.040094405,0.044727027,0.028961768,-0.035623275,0.037481,-0.055553645,-0.020273143,-0.043342486,0.05843377,0.038259078,0.045038354,0.02713844,0.04293833,0.028963864,-0.015781775,0.012345907,-0.029329222,-0.028943483,-0.05417161,0.026583517,0.025766145,-0.01793433,0.06783578,-0.07286226,-0.032306526,-0.00053227774,0.049065698,0.04695677,-0.03790702,-0.059970785,-0.018141354,0.03144129,0.06694818,0.009953087,-0.012556196
HUS1,0.024101296,-0.0150047215,0.02848279,0.055320743,0.018299703,0.05847033,0.06267253,-0.010967627,0.023607295,-0.018068159,0.04099389,0.056350473,-0.014745781,0.06386592,0.026713062,0.044251304,0.037820194,-0.026633637,-0.022568692,0.020885749,-0.05090817,0.07197988,0.040085074,-0.08267426,0.0014323835,-0.035223536,-0.019685037,0.025460579,-0.04143574,0.0061185816,0.0038946106,0.031042032,-0.01478638,-0.050567135,0.0038492319,0.01838874,0.08370883,0.00345779,0.029193316,-0.046051122,0.032036196,0.021557538,-0.08129757,-0.04831407,-0.037437,0.02437594,-0.03809076,0.060167227,0.036055107,-0.023443995,-0.059434976,-0.027572589,0.09916118,0.046381578,-0.05842374,-0.051602185,-0.10708203,-0.023729669,0.058383495,-0.0302245,0.044293374,0.00017773567,0.029252365,0.017251356,-0.021061257,0.052062593,-0.05141489,-0.04067741,-0.024758408,-0.031000502
