0,1,2,3,4,5,6,7,8,9,10,11,12,13,14,15,16,17,18,19,20,21,22,23,24,25,26,27,28,29,30,31,32,33,34,35,36,37,38,39,40,41,42,43,44,45,46,47,48,49,50,51,52,53,54,55,56,57,58,59,60,61,62,63,64,65,66,67,68,69
0.0001012704,-0.037931435,-0.036680963,-0.027197706,0.04380386,-0.037494898,0.03627598,0.0064213197,0.008637399,0.025437895,0.006005608,0.00890266,0.004078046,-0.03679271,0.04628336,-0.014796166,-0.03378376,0.0651722,-0.008813574,-0.018639648,0.031221924,-0.0033322775,-0.031640023,-0.032755964,0.00732124,-0.03727615,-0.009489437,-0.009882218,0.0035347496,0.02747496,0.04424157,0.0031597135,-0.023835095,-0.019653734,-0.025945771,0.027610568,-0.020706357,-0.025242299,0.019642888,-0.03285572,-0.018275032,-0.014855085,-0.019382782,-0.021860186,0.008820558,-0.019374454,0.009218746,-0.009696062,-0.011732242,0.006859695,-0.027716,0.004618464,-0.016343808,0.016443362,0.015809959,-0.034027413,0.03185763,0.028816616,0.026765311,-0.05088379,0.0046815337,0.010450294,0.00032367997,0.0048441594,0.024127921,0.008368312,-0.00883948,0.0067690597,0.035936575,0.01659289
-0.011205747,0.023623882,-0.01761106,0.022334648,0.03459614,-0.042634483,0.009410688,-0.013815129,-0.01369555,-0.021911072,0.067968205,0.018242175,0.008124899,-0.00949912,-0.0037522095,-0.013566238,0.0056515904,0.023891158,0.052246246,-0.014953204,-0.024564523,0.0019204748,-0.019043634,-0.023312414,-0.009834301,-0.0125737125,0.013526717,-0.0125704305,0.01032609,-0.038232874,0.023005148,-0.02860044,-0.046903692,-0.0021397725,0.03991573,-0.016901175,-0.049297225,0.04371693,0.022512412,-0.015611114,-0.022949653,-0.010986025,0.00805144,-0.014621529,-0.009159708,0.03523973,-0.0035803905,0.016528187,-0.015359914,0.017362222,0.005796631,-0.04067904,-0.035516944,-0.027773384,0.021103218,0.040691163,-0.01368528,0.022813207,-0.0023252056,0.020650938,0.005328804,-0.03766579,-0.012470398,-0.0034776235,0.0155949695,-0.011643838,-0.0148669835,0.0012457952,-0.020725437,-0.021173507
-0.014978039,-0.03962404,-0.02390191,0.011588191,0.0016891651,0.027186615,0.02617653,-0.05020987,-0.013766879,-0.042663936,-0.030065143,-0.036682703,0.013825006,0.04375975,-0.025167437,-0.050048377,0.016734745,0.039267693,-0.0008753565,-0.0036988468,0.044233467,-0.00901333,0.00044859762,-0.026383322,0.034107503,-0.01856321,0.010047879,0.024111312,-0.04780042,-0.056661617,-0.034660917,0.025047373,0.024883548,-0.047377434,-0.02605904,-0.043565072,0.0018687531,0.019940775,-0.049641076,0.0495344,-0.02560785,-0.035770275,-0.011747518,-0.0267944,0.022430109,0.024329659,0.036518108,0.029264085,0.0025493125,-0.026582625,-0.043885387,-0.02260683,0.03499318,0.054270938,-0.026047913,-0.008093102,-0.038147915,0.018817844,-0.040685985,0.031660546,0.023402281,-0.013334184,-0.049045954,0.02613806,0.00075432786,0.01303611,0.007455431,0.017786661,-0.017051486,0.0076488396
-0.03311842,-0.01184802,-0.057876714,0.009613724,0.01811745,0.062049847,0.055038583,-0.03630741,-0.00678074,-0.03220914,-0.029874485,-0.014764503,-0.0075834193,-0.007054519,0.016674394,0.036396667,0.008265106,0.024350146,0.030036246,-0.0326234,-0.021507146,0.037079066,-0.025715008,0.029592553,0.025614288,-0.030309357,0.006748305,-0.022532936,0.036258467,0.037643284,0.03302385,0.031039948,-0.009761474,0.046205204,0.023686547,0.0022577448,-0.02236344,0.046639185,-0.03335154,-0.024945995,0.012482496,-0.04275902,-0.013482587,0.010867465,-0.043215822,-0.036806338,0.020043764,0.039163847,0.04749513,0.005938422,-0.020220619,0.032756977,0.041171532,-0.053793147,-0.020865515,0.015984016,0.023634326,-0.053507965,-0.031155936,0.021178028,0.0046758386,-0.052898604,-0.028335106,-0.0005718201,-0.0024638488,0.0044905343,-0.004104868,-0.045096073,-0.013774096,-0.026739528
-0.015626734,0.019984363,-0.023834435,0.060896594,-0.0012346223,0.035666894,-0.020289304,0.0095120445,-0.015327593,0.0077186315,-0.03885595,0.02985145,0.027012264,-0.016746307,0.048113614,0.007745826,-0.017185697,0.048770405,-0.04214476,0.0053843325,0.045444734,-0.040475473,-0.027746828,-0.033479065,0.036349196,-0.0635558,0.009929146,0.007943875,0.011401288,0.0011198164,-0.033966832,0.036815315,-0.013724114,0.028141467,0.06256622,-0.046917442,-0.03185812,-0.04563669,-0.0284309,-0.023978079,-0.0045812996,-0.0007225166,-0.027070502,-0.009193642,0.014410748,-0.0069128834,-0.01222358,0.016023599,-0.02356621,0.009832644,-0.02659602,0.006343124,-0.005206086,0.020667,-0.053062763,-0.0035039545,-0.013252818,-0.011645431,-0.00035419408,0.01711422,0.014732917,-0.035435222,-0.04676656,0.029246261,0.01755662,0.02244447,0.011001923,-0.009544679,-0.030216172,-0.047760352
-0.010175305,0.03768207,-0.004799012,0.00025948306,-0.042057257,-0.006170829,0.033287793,-0.02990347,-0.00038030493,0.03593577,-0.03469049,-0.038849983,-0.01730796,-0.048097234,-0.024217624,0.013485231,-0.022137139,0.02244116,-0.01822335,-0.003137975,0.0046742787,0.02531769,-0.03231653,0.009899514,0.029767958,0.01945484,-0.01192524,0.027542248,0.02738271,0.001975769,-0.009071943,-0.040108584,-0.023267861,-0.0014846678,-0.023312498,-0.009107167,-0.007167164,0.012370559,0.02580142,-0.020530635,0.0077189053,-0.0023377012,0.047244616,-0.054006424,-0.05993609,-0.028929729,-0.077951536,-0.02286092,-0.0069884164,0.04282096,0.0029719777,-0.016285678,-0.03299014,-0.039418984,-0.014382995,0.007056553,-0.02201248,-0.03118688,-0.02923844,0.0010735851,0.004975307,0.0141487885,0.01334731,-0.012256582,-0.021284321,0.011809869,-0.0134162605,-0.07384546,-0.033110265,-0.013501777
-0.044084717,-0.025710367,0.027712885,0.04253639,0.018501302,0.004509442,0.038389888,-0.033560492,0.022040978,-0.005395689,0.011255537,-0.014277034,0.03469147,0.01658773,-0.013156512,0.022774488,-0.015355216,-0.018379817,0.02743096,0.010100988,0.033634864,-0.0020717042,-0.025832187,0.05064389,-0.036546785,0.010531781,0.016323263,-0.020940501,-0.02139481,0.03409377,0.008569781,-0.020528615,0.007845794,-0.037821677,-0.043676764,-0.051659282,0.031458862,0.004894752,0.0075622173,-0.039508812,-0.003427824,0.011642911,0.03438846,-0.00320591,0.016726922,0.016272033,-0.014243796,0.01975457,-0.0013100405,-0.037446715,-0.028756853,0.0081393905,0.0008960465,0.045327887,0.023829648,-0.031493742,-0.02924655,0.011804882,-0.01213968,-0.025177252,0.034654763,0.040627975,-0.038907636,-0.007943386,0.0051815347,-0.016147545,-0.030184431,0.008886779,0.025732333,0.0379392
0.057902213,0.036404975,0.041401733,-0.01586518,-0.010877261,0.0041180653,-0.017174253,-0.030839285,-0.050954558,-0.027337058,-0.016223732,0.029298326,-0.04173726,-0.022527827,0.03688099,-0.024675777,0.037382323,-0.0058370633,0.0016521164,0.01396516,-0.04428561,0.02966333,0.032184333,-0.03558436,0.032902196,0.04510142,-0.018390011,-0.0022480108,0.018139452,-0.050934535,0.0027493718,-0.0037453298,-0.044142105,0.022895869,-0.008264751,-0.0051394934,-0.016002532,-0.004873855,0.008823358,-0.037783056,-0.00023981414,0.031952456,0.010451951,-0.051059242,0.044274036,0.005670185,0.0020728025,0.0005623025,0.016258132,-0.009320859,0.047654923,-0.009085132,0.0013709902,-0.037451204,0.0040986175,-0.011414547,-0.017291516,-0.032326706,-0.0028256257,-0.06680516,0.030915167,-0.02664401,-0.021588832,0.029793067,-0.037319787,0.035702378,0.019462045,0.0060185124,-0.023181543,0.00047763615
-0.011710476,0.00953612,-0.022089936,0.029491577,-0.025025202,0.0221357,-0.032179296,-0.05217204,0.022241944,0.010665821,0.035575423,0.0020120277,-0.028539116,0.047109175,-0.03746919,-0.01669366,-0.024332322,0.040171858,0.011399336,-0.020507187,0.02367679,0.037685063,-0.0042473134,-0.03277038,-0.035887986,0.00234291,0.03754665,0.008272172,0.005710127,0.05251366,-0.0056298072,-0.009677726,-0.006446421,0.019018933,0.011002509,0.039095614,0.012116331,-0.026066527,0.021853792,-0.051946096,-0.0011152842,-0.0019357501,-0.0064488,-0.02361357,-0.021509571,0.027465692,0.019793851,-0.0019711948,-0.011314157,-7.195816e-05,0.013825592,0.06104459,0.031609602,0.030066174,-0.032482892,0.028038716,-0.0314934,-0.02843004,-0.015104759,0.01994202,-0.0021154908,-0.026805777,-0.015109257,0.010154687,-0.028679073,0.038262587,-0.0001753489,0.0057559963,-0.0055467375,-0.005542699
0.0354428,0.00900237,0.021224106,-0.033186615,-0.03619366,-0.056084674,-0.0044924454,-0.03817558,-0.053696644,0.011936844,0.03229092,-0.002231264,0.018279184,-0.027624054,-0.032751538,-0.04502038,-0.0057645952,0.05251788,0.012469013,0.004312371,0.019793026,0.0049013756,0.0023138556,-0.04484408,0.0492169,-0.052368496,-0.033563826,0.0016327265,-0.022815777,-0.050341666,0.009674401,-0.014713554,0.052132517,0.023659386,0.05227125,-0.0069070044,0.0076299044,-0.01374126,-0.025939105,-0.050280437,0.01929913,-0.0071094315,-0.008075622,-0.04757604,-0.050033115,-0.047538407,0.051220965,-0.032742146,0.009898884,-0.032927375,-0.020094473,0.039707255,0.032277297,0.038552742,-0.01730148,0.011994586,0.024580926,-0.04911272,-0.03511121,0.0107111335,-0.046956446,-0.06296609,0.022766294,0.042739704,-0.011230141,-0.0030272573,-0.003537413,-0.0033400073,0.03566841,-0.007488096
-0.029930837,-0.02798896,0.034805417,0.0025503282,0.025837861,-0.022679793,-0.059592728,0.03270755,0.035906635,-0.013185384,0.0037964375,-0.02623846,0.040972855,0.02313172,-0.0029481235,-0.01292899,-0.036202375,-0.0021867205,-0.021811696,0.008715519,0.039383985,-0.031514484,0.019533379,-0.037820596,0.005450772,0.007897486,-0.046360243,0.00845242,0.057731427,-0.047314562,0.021190725,0.008972613,0.020615105,-0.03934461,-0.0407272,-0.011580063,0.04656121,-0.0022892284,0.024876585,0.030251691,-0.030572811,0.0019961782,0.037353512,-0.001369019,0.029964605,0.0043581566,-0.033594824,0.0031212883,-0.005745169,0.0013548505,-0.0035360928,0.0318037,0.019210586,0.003337736,-0.014967162,0.0012250725,0.0056073405,-0.02416319,0.024197625,0.0044547096,-0.012166214,-0.01100962,-0.044817902,0.029008096,-0.010603228,0.01864415,-0.0682308,-0.050929643,0.015850231,-0.0499353
-0.0017825109,0.013707017,0.0037519797,0.027562289,-0.064475045,0.020090388,0.0042619226,0.026781723,-0.05126948,0.047298234,-0.0118423775,-0.025995811,-0.039209552,0.016710632,0.041786432,0.0024457362,0.013239124,-0.012873167,0.03211222,-0.046765547,-0.04709502,0.007994776,-0.043973614,0.052525923,0.0008776918,0.00779256,-0.036738608,0.037184745,0.013395412,-0.0040461696,-0.017070573,-0.038947318,0.0040239645,0.026481528,0.0077070957,-0.06700379,-0.073158674,-0.009310404,-0.039492678,0.023596987,0.022614202,0.026970249,-0.021100694,0.02363818,0.053018324,0.004442208,-0.017955584,0.040234488,-0.0028462778,-0.005872467,-0.009087731,0.054407608,0.04068065,-0.03853638,-0.054316778,-0.03272969,-0.044582274,0.021125354,0.018525138,0.022314303,0.03666656,0.041103486,0.047653995,-0.02313298,-0.0009194769,0.015868548,0.037171893,-0.028763942,-0.0003561803,0.012748927
0.012589856,-0.028371489,0.0012035324,0.0063007805,0.039554335,-0.007625975,-0.03845558,0.035181265,0.034998417,0.020261915,0.03577922,0.016350843,-0.012272394,0.036697045,0.03105106,-0.012494886,0.07360972,-0.025614718,0.047889367,0.04538768,-0.012148786,-0.038183823,-0.025766337,-0.01938444,-0.050996125,-0.0074128592,0.0020004245,0.0059952415,0.009806021,-0.022688933,-0.01904426,-0.01887766,0.03935586,-0.015559767,0.0022136515,-0.01658334,-0.038432915,0.0475508,-0.010785971,0.015151654,0.031348318,-0.06415237,-0.025708728,0.013956722,0.015281704,0.044146344,-0.010270049,-0.003609652,-0.028200304,0.046844617,0.046951234,0.010156214,-0.02851584,-0.03415624,0.0037101563,0.013769707,-0.0046912637,-0.026309028,0.012128537,-0.031508334,-0.043156266,0.0136922,-0.0049596755,0.03850375,0.03218267,0.027669584,0.005843885,0.042903915,0.059432134,0.008146186
-0.04005894,0.01395737,0.016767163,-0.0218239,-0.046371765,0.026974265,-0.026328523,0.046692483,-0.024975054,-0.048779335,0.013636862,0.03133798,-0.03318784,0.043714423,-0.045535933,0.005334149,-0.021231212,-0.017122265,0.032940883,0.030313391,0.001559138,-0.072596185,0.055262998,0.046738654,-0.019276362,-0.005719655,-0.05676808,0.018006328,0.0024252543,0.036862146,-0.0070038484,0.013266475,-0.014825859,0.06439091,-0.0108302,0.05424281,-0.024789914,-0.04848394,0.006665202,0.034315158,-0.043360148,0.031768475,-0.0047737965,0.04048789,0.037298117,-0.0071064057,-0.04585172,-0.04026825,0.0042484174,0.038349144,5.2165695e-05,-0.005817414,0.011141812,-0.011152838,-0.016480573,0.048609152,0.020267567,0.0058313883,0.0045051062,0.0022810567,0.043723263,0.060778283,0.014550698,0.060447108,0.012024982,0.029941317,0.063876696,0.044610713,0.024351805,0.04561528
-0.0063626766,-0.0043291943,-0.0056314105,0.03478703,0.030181572,-0.0059459005,0.007933008,-0.037372764,0.046047196,-0.005771128,-0.027454246,0.0657273,0.027927428,0.0432563,0.027164044,0.03764918,0.05284544,0.0043255356,0.04650236,0.03251074,0.045366906,-0.0155153945,0.021528048,-0.010385877,0.035168618,-0.0392217,0.026353726,-0.022338545,0.032841276,-0.042891443,-0.013688537,0.042332146,-0.038232543,-0.044367727,-0.02496963,0.05432376,-0.009833134,0.03125457,0.016815463,0.018229619,-0.025088126,-0.017130021,-0.05297942,0.023169577,-0.049799405,0.01060258,0.004118783,-0.012321776,0.037768804,-0.0045954683,0.044815917,-0.025122615,-0.029430896,-0.040294897,0.029622098,-0.015373186,-0.025621332,0.014231901,0.015591092,-0.009616913,0.031741835,-0.033153083,0.03768461,0.013063036,-0.002902456,0.0046955105,-0.017457003,-0.06239566,0.043807033,-0.032557435
-0.06512767,-0.035422884,0.0004815056,-0.019749833,-0.04133341,0.012848482,-0.04753504,-0.013966452,-0.008211801,-0.025621563,0.010510197,0.044585355,0.023198847,-0.023314359,-0.04294689,-0.012284398,-0.03199724,0.040367555,-0.025451282,-0.015980942,-0.035767388,0.0011413881,-0.0054153735,-0.018431125,0.028944734,0.03076871,0.0056454646,0.001780996,-0.040781725,-0.014449042,-0.03189645,-0.034079853,0.0150786685,0.016743742,0.043882236,-0.019953413,0.0048714406,-0.0059303446,0.030448554,-0.036927953,0.02651529,0.024542933,0.0015209861,-0.03513708,0.004862592,0.0038509653,0.0029877254,-0.033253685,0.009793667,0.01745121,-0.040227946,0.042729326,-0.01822524,-0.036888845,-0.0343621,0.0021414107,-0.021413198,0.02890994,-0.028061222,-0.057449926,-0.0035571207,-0.03781661,0.045693744,0.052262485,-0.027415209,-0.02566542,0.034130596,0.028921591,-0.021601966,0.045424704
0.04702961,-0.037107006,-0.022597728,0.035146922,-0.061866775,0.019387836,0.04325227,0.029151142,-0.034231346,0.027703473,0.05704893,-0.0006966868,0.0002895998,-0.036062937,0.008523159,-0.02819107,0.023840321,0.04448321,-0.047265653,-0.019199736,-0.002272104,0.044077024,-0.0038620078,0.022104569,-0.0036570935,-0.0071601653,0.0031951421,0.03161013,0.019946994,0.021370554,0.00050890865,-0.012335123,0.02089489,0.0042218575,-0.035407223,0.0026946804,-0.0024512557,0.026664589,-0.02563403,-0.003845827,0.024463829,-0.023036607,0.03695984,0.046214458,-0.0179076,-0.0075699803,-0.040461548,0.02238112,0.010258774,0.058750246,0.003029976,-0.031857837,-0.011567504,-0.00815584,0.0030428197,-0.028063992,0.058411498,-0.054353144,-0.03078606,0.04368296,0.013863062,-0.012805229,0.00367329,0.035302684,0.037728563,-0.010014726,-0.0072956956,-0.042705048,-0.010728204,0.008314889
-0.049032416,0.018001987,-0.010516324,0.006502432,0.050386105,-0.031058894,0.014688503,0.0014413657,0.0086968085,0.06436169,0.02333702,0.010043206,0.019146776,0.011785651,-0.015118337,-0.01795693,0.0077841925,-0.0025433514,0.0025623147,0.03379824,0.023968164,-0.040526677,0.048884846,-0.027023997,0.01966343,-0.008150496,-0.034824524,-0.024234165,-0.04644248,-0.009640498,0.010965608,-0.025119578,-0.014737165,-0.016032565,-0.0019235326,-0.057348996,0.007945765,-0.0015239099,-0.02060838,0.027288876,-0.011475698,0.029152917,-0.026949326,0.021060823,-0.044687957,0.015120581,-0.053086147,0.016971556,-0.018359225,-0.016499305,-0.014739882,0.000395046,-0.024270264,0.011900168,0.02149286,-0.003015965,-0.011601635,0.02858825,-0.003689673,-0.01656506,-0.053902175,-0.038533863,-0.008097303,0.039769996,0.03889181,0.0029204972,-0.0029544986,0.008277895,0.04368299,0.014661523
0.0027262385,-0.023193665,-0.02674917,0.0052835834,-0.013083798,-0.0011695545,0.04693161,0.014465986,-0.009558535,-0.0064437212,-0.018422766,0.013229973,0.023610294,-0.046477143,-0.05037293,0.04947045,-0.0422707,-0.008521363,-0.031402454,0.0014526166,-0.003580022,0.01755823,-0.027228232,0.012238597,-0.048322804,-0.0059158765,-0.006901017,-0.013297966,0.021201782,0.02227312,0.02723952,0.007678477,-0.049306083,0.004745167,-0.045931388,0.03618323,0.01362823,0.024039201,-0.015539373,-0.043867398,-0.009116742,-0.023762222,-0.041714657,-0.0313561,0.014701659,0.009556807,-0.031066028,-0.012415847,-0.035224527,-0.034555916,-0.02500425,-0.034333598,-0.02982653,-0.035550762,-0.012219726,-0.017998708,-0.022714585,0.006555966,0.010937864,0.010192205,-0.010022629,-0.013180511,-0.0571338,0.040179845,-0.042623542,0.0015329281,0.03022216,0.022101125,-0.079326645,-0.021316681
-0.002300144,0.03634361,0.011879987,0.010806509,-0.04487118,0.052867237,-0.04638423,-0.025175968,-0.032879572,0.0005296621,-0.03676032,0.0074958242,-0.005076358,0.022670254,0.020481316,0.013704683,0.052476633,-0.03085324,0.0048443554,-0.00985458,0.010985546,-0.032940973,0.04169418,0.0066119977,0.007958086,-0.01204476,0.04816526,0.01523928,-0.010142161,0.04024583,0.04487475,0.06746207,-0.00020516166,-0.021570938,0.012500729,-0.04145196,0.029452667,0.022162383,-0.034723524,-0.06375333,-0.022252075,-0.0024608867,0.0033318843,-0.05171685,0.012987454,0.006148539,-0.020576494,0.02947387,0.020313172,-0.057749692,0.02129048,0.018502116,0.02613907,0.025754098,0.019717103,-0.037018515,0.0025015078,0.01699368,-0.0063802092,-0.016911963,0.045182783,0.01762643,-0.051730033,0.016755752,-0.021244789,0.03208492,0.055837184,-0.0038362893,0.016410762,0.007741762
0.011111459,0.047238067,-0.019275235,0.027651291,-0.044256967,-0.035952773,0.043747924,0.028514469,0.046788707,-0.024594411,-0.040339593,-0.042138714,-0.053295895,-0.033308078,-0.0025986237,-0.024500275,0.04404345,-0.024391942,-0.04347845,-0.067359045,-0.057263333,0.007096156,-0.0060934527,0.04819139,0.004928178,0.029186489,0.03871379,0.00791364,0.006690272,-0.035657562,-0.048943505,-0.0013632338,0.019953566,-0.037280884,0.006202694,-0.049170874,-0.009568287,0.032318026,-0.02378896,0.006202447,0.038465124,-0.0426509,-0.0077942256,0.018345322,-0.016936088,-0.040381264,-0.06937954,0.038493823,-0.019479362,0.010456484,-0.025768189,-0.016752629,-0.016660476,-0.016171543,-0.018838892,-0.0054281214,0.009860323,-0.0464574,-0.038256213,-0.04841607,0.014324183,-0.03859533,-0.028002204,-0.0020506093,-0.032736752,0.026450656,-0.058299925,-0.023014868,0.030909142,0.025436308
0.0155009385,0.030700369,-0.02090614,-0.0039961,-0.028107194,0.020453442,0.027945789,0.020304665,-0.005989443,0.0016993713,0.012107699,0.008835131,-0.024435736,0.026974957,-0.00987655,-0.02670334,-0.009640811,0.006981391,0.047699854,0.004699221,0.007629456,-0.042871095,-0.012693776,0.040105395,0.021431329,-0.015939461,0.02202324,-0.02318036,0.006644702,0.004565826,0.016570028,-0.019256579,0.035876796,0.049047235,-0.00025642177,0.013379621,0.0080172,-0.048885584,-0.07299884,0.024068372,0.02730867,-0.040921614,0.030556263,0.03449807,0.011292233,-0.017431466,-0.06009998,-0.0064755483,0.027547712,0.01654876,0.044486456,0.016458917,0.017051721,-0.04493704,-0.018585654,0.038707957,-0.021949695,-0.042363722,-0.010263308,0.0633093,0.020638442,-0.005255543,0.042305462,-0.012560713,-0.023026323,-0.0013042082,-0.03712833,0.0010135665,-0.034244236,0.03290558
0.044407826,0.02165492,-0.0019116394,0.01308169,0.05982183,-0.015054585,-0.014506118,-0.024801107,-0.032594036,-0.042034157,0.039423697,0.026677039,0.03349867,0.0034881504,-0.018580364,-0.029929545,0.0007000646,-0.016111692,-0.012624928,0.001772904,-0.009343244,0.011362052,0.03943785,0.03828822,-0.04128998,0.021110334,0.015004222,-0.017530343,-0.0036972174,0.020955557,-0.028876318,0.047479298,-0.027155044,0.025438529,0.02323567,-0.018892322,0.0364745,0.046460286,-0.027103312,-0.009810061,0.0043774736,-0.06286032,0.016861128,0.039980516,-0.037603352,0.021802895,-0.009503945,0.03571208,-0.01649689,-0.019018792,0.023649735,-0.034378637,0.008407879,0.0013977804,0.024534006,-0.03452801,-0.056793664,0.047930967,0.011908324,0.012934272,-0.033427354,-0.01943857,0.02972817,0.035181396,0.02820116,-0.003673216,0.008866655,0.018846756,0.0037647118,-0.019039616
0.026011618,-0.0094053475,0.017457888,0.0057003335,0.03519699,0.0019948503,-0.0155925695,0.014957571,-0.02987208,-0.012682102,0.025341555,-0.033916306,0.018733855,-0.0016407534,-0.025124347,-0.022241099,-0.03838405,0.0494563,0.016244013,0.019460514,0.015049939,0.0089621125,-0.022134392,0.021271031,0.0023245243,0.015657611,0.031904314,-0.034965012,-0.048384488,0.002963972,0.018344812,0.007686066,-0.020763863,-0.0035187476,0.010909933,-0.012087682,0.011012637,-0.014347415,0.012388379,-0.034862522,-0.0300533,-0.03697818,-0.019895583,-0.002871936,0.0040812506,0.037810497,0.038656984,0.029517896,-0.03900717,-0.0042858464,-0.027525282,-0.03888963,0.026670404,0.0170157,0.012223264,-0.0076406687,-0.034891855,-0.028856928,0.03893521,-0.0323221,0.011329593,0.021689788,-0.03273358,-0.023991352,0.035462335,0.004833939,0.047101032,-0.028778886,0.037816215,0.026084024
-0.0005733681,-0.027891122,-0.027491875,0.022773989,0.016317591,0.0101654185,0.012133733,0.020333737,0.026177531,-0.033888206,0.0010651505,0.03214868,-0.0020168354,0.020056112,-0.03575821,0.063367724,0.008179331,0.06015614,-0.015497647,-0.026616385,-0.02352562,0.017417116,-0.048420787,0.037698787,-0.027361417,-0.04781022,-0.018881356,-0.02576128,0.009779031,-0.020171132,-0.0338598,0.03898868,-0.03134665,0.039208144,0.012798951,0.016310962,0.051420454,-0.010369191,-0.03690678,-0.01674435,0.0340975,-0.036773495,0.033722106,-0.058960054,-0.010033885,0.017233143,0.022376662,0.018979164,-0.026630897,0.041124854,0.00665465,-0.017982747,-0.0141338445,-0.021630567,-0.04276522,-0.009375335,0.04518998,-0.016489105,-0.020701244,-0.010435076,0.045457914,0.029831707,-0.0012176653,-0.03742379,-0.005220198,-0.016236957,0.023254354,0.021614531,0.016053148,-0.037569657
0.025662094,0.0006733368,0.04175601,0.016905636,0.031115245,0.01008852,-0.042473625,0.012264921,-0.011653641,0.021576967,0.022611983,-0.017557098,-0.01565587,0.027798677,0.025926795,0.055591278,-0.04723649,-0.023505235,-0.01956453,-0.008472308,-0.03191077,-0.0131236985,0.042973522,0.03349733,0.02680163,0.009789431,0.027875014,0.00084144116,-0.043444794,-0.0009184622,-0.022238148,0.018065192,0.025641631,-0.023543192,-0.008642156,-0.029108055,-0.03380881,0.00075323903,0.02930751,0.008772211,0.0067411675,0.011534988,0.03788371,0.014390854,0.0033153612,-0.008318344,-0.00015333449,-0.014670571,-0.03210465,0.027802045,-0.038136084,-0.029397363,-0.02026401,0.024387429,0.010852061,-0.013399485,-0.03087088,0.06773753,-0.03854786,-0.01922847,0.007409667,0.03909359,-0.007735328,-0.007980695,-0.019312438,0.04642832,-0.042624354,-0.0017158863,0.009599262,0.039625023
-0.03410092,-0.03522525,0.033204656,0.040505946,0.020797307,0.03644624,0.05370001,-0.011084815,0.0013401404,0.024772076,-0.02879709,-0.031776574,-0.022557553,0.0025823868,-0.0017496754,0.05541348,0.02118918,0.004198254,0.03273157,0.016025726,-0.0070777438,0.022232458,0.04745146,0.0016865104,-0.031353567,0.0047254898,0.014463346,-0.028884325,0.011634755,0.027383948,-0.012864282,-0.010662792,-0.015871864,-0.008209223,-0.04170778,0.02264527,0.02019056,-0.035591483,-0.036043357,-0.018143004,0.02392427,-0.013420801,0.0021086086,0.05967684,-0.020870538,0.056942634,0.05009657,0.011873538,0.026096107,0.043644615,-0.0048300372,0.010978116,0.008047726,-0.040104106,0.03601145,-0.008576411,0.0125781745,-0.047668252,0.031236347,-0.0019686983,0.035092335,0.002063554,0.042668235,0.033891477,-0.028408377,0.0035461574,-0.022804737,-0.02182685,0.027469167,0.06165186
0.024028605,-0.012126395,-0.016660035,-0.002420347,0.019235888,0.0410865,-0.062470134,-0.008909315,0.013961737,-0.044600073,0.0047465093,-0.022454344,0.034334354,-0.04683049,-0.012585322,0.032318067,0.05693433,-0.01864618,0.011495274,-0.03572536,0.05463848,0.006783438,-0.017784283,0.012401256,-0.04142724,-0.003014301,-0.060529303,0.022254396,0.058913298,0.03856674,-0.01236702,0.012318407,0.020945078,0.049314525,0.027889358,-0.024650676,0.054140523,0.008506266,0.029889561,-0.031618383,0.012777274,-0.02011957,-0.027076378,0.010262208,-0.033326603,0.02717485,-0.03670462,0.010048226,-0.013258599,0.011592934,0.0006433126,-0.0007334174,0.042643122,0.01804191,0.00692557,-0.03999537,0.02196026,0.013042103,0.054305557,-0.0028871119,0.004255094,0.005968921,0.043814298,0.0071742344,-0.014173589,-0.026976986,-0.009210521,0.03890708,0.015237494,-0.03267011
0.019236755,0.028845452,-0.010501978,-0.027178269,-0.0005894395,0.008314649,0.044870872,-0.020726446,-0.03129833,-0.041020475,0.017786603,-0.0036168483,0.06751709,0.018719416,-0.028346483,-0.0071416516,-0.0055396035,0.021964112,0.041167986,0.024555871,-0.017488277,-0.03959877,-0.025817389,-0.001812943,0.010082496,0.041581936,-0.04174603,0.018771205,-0.01941948,0.016177146,0.05020283,0.0203327,-0.019060072,-0.023416115,0.007960915,-0.03963371,0.00019617933,-0.028776158,0.00971092,0.05156593,0.030820679,0.002649014,0.025879484,0.043189056,-0.020145357,0.017684774,-0.00017899348,0.043554895,-0.011016283,0.025173094,0.06669188,-0.020551063,0.038077723,0.002264766,0.036676336,-0.004487679,-0.026567366,0.038732924,-0.059148077,-0.010141929,0.008256758,-0.007455865,0.0062659685,0.016990488,0.05760716,-0.015024892,-0.027643017,-0.025791215,-0.051006693,0.024972474
0.0026635083,0.013754373,0.040673837,0.007307932,0.0012815413,0.042402,0.0016364675,-0.024077307,-0.004468839,-0.020151969,0.03895592,-0.0033784695,-0.022485135,0.0025316842,0.017873734,-0.004140151,-0.039035656,0.024811955,0.005600138,-0.010294641,0.039073806,0.00014473859,-0.0093626585,-0.029946394,0.032251533,-0.02276262,-0.042948242,-0.013341199,0.061361,-0.030201785,-0.023624375,-0.030318378,-0.011590024,0.018429106,0.012877355,0.035570033,-0.049764875,0.00946813,0.0011553599,-0.042335097,-0.017424734,0.01579934,0.010782242,-0.02209854,0.03808591,-0.010221802,-0.00438025,0.007942236,0.022871144,-0.01414949,0.04552674,0.032119323,0.024088822,0.032924004,0.023278465,0.013015795,0.016080946,0.050178513,-0.010424314,0.026844852,-0.019303849,0.002988845,-0.009082016,0.037841514,-0.016145151,-0.011229863,0.0063082017,0.0075926683,-0.023187539,0.01844141
-0.014585426,-0.003168072,0.03430188,-0.013069875,-0.010936042,0.012479741,0.020885343,-0.015468806,-0.030409982,-0.022144966,0.0032414258,-0.0081829,0.0045522703,-0.020083858,0.042996034,0.019810162,0.0064064427,0.014798054,-0.030350758,0.0029294367,-0.030364864,0.011489756,0.027471866,-0.0059403386,-0.04126246,-0.050458286,0.0048829964,-0.0008212898,-0.012171471,-0.012831934,-0.002446671,-0.002395678,0.040375233,-0.0009621947,-0.0061095217,0.0038987184,-0.01797707,0.0132833645,-0.017241279,0.0693162,-0.023205632,-0.007991638,-0.019655649,-0.04351967,-0.031529713,-0.006820673,-0.026914347,-0.013459875,-0.017144622,-0.0041720252,-0.028039677,-0.010876762,0.004438001,-0.013730485,0.015579944,0.009345189,-0.027125975,-0.015710495,-0.00644238,-0.040213443,0.05376105,-0.008468104,-0.04120885,0.0121057015,0.0011661518,-0.036482222,-0.015092966,-0.043372337,0.008143982,-0.014132999
0.039168805,-0.00965006,-0.024809165,-0.010613361,-0.04288851,0.0021774305,0.014811945,-0.0130327465,-0.03419851,-0.00028490848,-0.00079496444,-0.01226181,-0.00092985143,-0.027402889,-0.014926531,0.044135768,-0.015585254,-0.026131548,0.01141195,0.022596732,0.05094658,-0.03561852,-0.032032043,0.033547223,0.03264255,-0.0118255075,-0.025868207,0.041109987,0.011183634,0.04798308,-0.032124307,-0.020681273,-0.041872658,0.005167378,0.008281176,-0.0337403,0.011703876,-0.012189133,-0.025565613,0.024853528,-0.0011689021,-0.038730524,-0.0065690037,0.016321735,-0.0014140814,-0.020344084,-0.0076717217,0.0060405126,-0.025261726,-0.030591106,-0.026130885,-0.02726796,0.0020355037,-0.020701023,0.034748502,-0.038865265,0.012528979,0.0130532365,-0.012366267,0.014153743,0.06579309,-0.03178189,-0.029779922,0.034183457,-0.029870637,-0.030737491,0.009625599,0.007952247,0.013837845,-0.041070413
-0.018096032,0.0017047365,0.014959711,0.06423835,0.010485749,0.0061826264,0.06013616,0.045268487,0.012574347,-0.02527546,-0.042713907,-0.03797325,-0.02531759,-0.0015676665,0.005789504,0.0016474815,0.040145494,0.026159432,-0.027197015,-0.005637081,0.04173149,-0.005884587,-0.039438896,0.041087516,0.047096066,-0.03344653,-0.040387347,-0.013217865,-0.047133204,-0.01674189,-0.034455083,-0.040044285,-0.038301554,0.04910783,0.0033496316,0.0016093139,0.0067534125,-0.029816486,0.025282485,0.018086294,0.008977786,-0.005432797,0.007879935,-0.012840768,0.0566568,-0.038814858,0.03748712,0.035776958,-0.021224888,0.012444464,0.01409792,0.010814896,-0.040334634,0.007134199,-0.030696878,-0.020376505,0.036088977,0.019367898,0.05392489,-0.053661786,-0.017694397,-0.05206074,-0.029660324,-0.013084234,0.043600675,0.007667424,0.050751757,-0.0040524146,0.027468782,0.02417384
-0.002973422,0.02968729,0.0018644443,-0.022685248,-0.022501756,0.029276006,-0.05033975,-0.05566753,0.0072809695,0.02129984,0.060276996,0.019601379,0.013575916,-0.020792376,-0.018043844,0.025654243,-0.0023670427,-0.026130738,-0.011494222,0.025017278,0.0128867235,0.035097495,-0.03822089,0.03360864,0.0076984935,0.017354852,-0.015163608,0.026515221,0.008941166,-0.039124124,-0.013833053,0.012969649,-0.028720638,-0.061102312,0.011004917,0.019361407,0.007906093,-0.01578463,0.007009314,-0.033572543,0.043132983,0.045509808,-0.010759689,0.020581601,0.0039366717,-0.015212562,0.059478737,-0.0010316564,-0.025962997,0.008421773,0.011930558,-0.009074473,-0.019672679,0.017600432,-0.0379223,-0.008030952,0.03620956,-0.029885797,-0.029760499,-0.0144789,-0.02061609,-0.024412073,-0.04574542,-0.03027709,0.045595914,0.010512727,0.037407972,-0.008546165,0.0061650714,-0.038518365
-0.051021133,-0.049378686,0.004740783,-0.03830522,0.007832987,-0.024403175,0.0039781774,0.055436283,0.009101247,-0.037816115,-0.017734976,0.03192292,0.006260057,0.021885285,0.0322261,-0.038059115,-0.034156382,0.0038272091,0.04155486,0.008483788,0.035783753,0.010046159,-0.036667466,-0.019270362,-0.015420808,0.028399378,0.029632235,0.035227064,0.016620979,-0.03321505,0.0088973,0.047333337,0.0485073,-0.03894178,-0.030513009,-0.037003472,0.023848979,0.008465044,-0.0146733625,-0.005229736,-0.019590598,0.010713746,-0.013062487,0.010827851,0.0020922136,-0.03881066,-0.0012528888,0.02794305,-0.01924164,0.0051248693,0.00826018,-0.019311277,0.020868823,-0.04309567,-0.011291539,-0.008474508,-0.002712781,-0.0113703,0.0119921295,0.030500475,-0.0014494254,-0.012381758,0.030119475,0.0054489407,0.0077957693,0.0018226935,0.0042044898,-0.006233201,-0.016427008,-0.011162645
0.027164504,-0.008290924,0.008832836,-0.036282144,-0.029029846,0.0047523514,0.031421438,-0.022079142,0.022694677,-0.01998536,0.008339315,0.0436447,0.041513912,0.0048084646,-0.024754385,0.0509928,0.0013955618,0.025811134,-0.03380777,0.03755361,-0.0025643662,0.028342279,-0.00549335,0.025767313,0.03020385,-0.012066609,-0.048669185,-0.011556915,0.049491204,0.014869388,-0.005069147,-0.0233357,0.013382605,0.048006736,-0.048896484,-0.0076216143,-0.016975101,-0.0396784,-0.026651265,0.020665241,0.0012160474,0.03810174,0.022490209,0.026103655,-0.013159666,0.008238857,-0.046464056,0.028797634,-0.01790592,-0.032768186,0.047317933,-0.048077554,-0.031064188,0.013928558,-0.0441345,-0.03214889,-0.007364914,0.045569554,-0.016723437,0.037159324,0.0029584959,-0.022193078,0.034535497,-0.030465554,-0.0037640424,0.008241472,0.013950518,-0.005272451,0.04828798,-0.0138811795
0.039158415,0.02196799,-0.039300535,0.013265318,0.030269943,0.033459708,-0.01259098,0.01536127,0.048801824,0.0139182545,-0.006453671,0.004677007,-0.012296952,0.0092200795,-0.019850798,0.030391032,0.054401398,0.028453266,-0.01722687,0.007553148,0.019357176,-0.033468485,-0.053312827,-0.0048424294,-0.0014566942,-0.010371634,-0.019815046,-0.028214302,0.018556755,0.007926129,0.01718799,-0.011171259,-0.03868877,0.0036882309,0.02296749,0.051316522,0.023090752,0.07551689,0.009552856,0.047647823,0.008114541,-0.010778415,-0.030120123,-0.024995385,0.005019631,0.04070363,0.0075907395,0.0014670135,0.031755723,0.02730138,0.025808493,-0.019955527,-0.04424878,0.043097045,0.06030222,0.032740466,0.0050572827,-0.005213163,-0.049582154,-0.029313058,-0.007627508,-0.0075997375,-0.03179242,-0.032103814,0.028111923,0.03918078,0.008033552,-0.0038212785,0.032715842,-0.057586037
0.03397342,-0.021631327,-0.028644947,0.018617226,0.010074734,0.0037367232,-0.0075921854,-0.015109099,0.010699481,0.032807514,0.01888001,0.00822799,0.0005510165,-0.057775132,-0.02904108,-0.002905145,0.033817373,-0.02429212,0.012596415,-0.010727668,-0.02500292,0.039655,0.00066229975,-0.012383822,0.0039923964,0.05543546,-0.054580886,0.03939368,-0.02002895,-0.0015383825,0.01690218,0.021623097,-0.0555946,-0.0046173315,-0.03269756,0.01941728,0.0028453176,-0.022137646,0.017917225,-0.017107412,-0.017749328,-0.018396705,0.023812035,0.013179703,-0.009910846,-0.035221484,-0.03463987,0.035658944,0.005443731,-0.013672997,0.022506932,-0.010866787,0.042313315,0.030562663,-0.00022411985,-0.02285721,-0.030049602,-0.018996371,0.050400343,0.020260695,0.027326928,0.027995072,-0.022665698,0.028144592,-0.014798138,0.011731138,0.03516738,0.05909361,0.026832595,0.03563085
-0.043252505,-0.026965996,0.0021579438,0.012468521,-0.028702676,-0.02227751,-0.0025134138,0.011852968,-0.0190771,-0.0070517887,0.01507743,-0.029672777,0.05872436,0.01077407,-0.005059265,0.019045783,-0.04807083,-0.024789117,-0.015444715,0.029206159,0.024355866,-0.0096326955,-0.06604583,0.008204911,-0.018857216,-0.038787078,-0.027245892,0.04385123,0.06475685,0.053717285,0.018904865,0.038379267,-0.022180328,0.031429123,0.012676771,0.030597216,-0.041405454,0.033912327,-0.0091667585,0.040068775,-0.039652962,-0.009383884,-0.012179151,-0.028429035,-0.022925688,0.02556654,0.034877244,0.0479514,-0.036453307,-0.015694665,0.004543708,-0.04387983,0.00132663,-0.01466526,-0.001815465,-0.045046255,0.0070489896,0.010783615,-0.0010612571,-0.014613337,0.0114162415,-0.009133805,0.014433694,0.038045913,-0.0077037374,0.01750102,0.019534681,0.0068084835,-0.030650489,0.035143133
-0.006385015,-0.035447307,0.028229788,-0.014583934,0.028261125,-0.021876233,0.013597913,-0.036990803,0.035000503,0.009138662,0.019101119,0.029392498,0.015502535,0.014269297,-0.0031143639,0.024908613,0.010129103,-0.031761542,-0.010709399,0.004787307,-0.02442463,-0.0048693134,0.051687248,-0.01415412,0.029714257,-0.035241134,0.03457565,0.005000436,0.047477882,0.0015690634,-0.037288275,0.033243563,-0.01320774,-0.027602863,-0.006045564,0.009520932,0.057240594,-0.023127988,0.035905547,-0.021791385,0.06024484,-0.057427093,0.0018040183,-0.032013413,0.015218621,-0.019296365,-0.010861169,-0.060316246,0.021234436,0.026270363,0.0068771755,-0.023576807,-0.0029277636,-0.02188503,0.0060350825,-0.033069592,0.034806494,0.023551753,-0.025763465,-0.023657026,-0.044114724,-0.017638363,-0.0039811563,0.00083940703,0.040746562,0.021111783,0.031060785,0.04139794,0.035366517,-0.0018286621
0.021227734,-0.051430203,0.0065280558,0.027999582,0.035022356,-0.001844583,-0.021866282,0.026339002,0.014932828,-0.009913766,0.047458034,-0.0055684857,-0.023817124,-0.014401302,-0.008909332,-0.038932376,-0.047800247,-0.01473824,0.022739118,-0.020751856,-0.0130954655,0.018290242,0.022400392,0.04064345,0.054748703,0.01941636,0.026882743,-0.010954739,-0.00438301,0.013753087,0.021336518,-0.014081983,0.03960888,0.017861802,0.018557915,0.024716679,-0.022808991,-0.021633845,-0.03282646,-0.029899148,-0.04881695,-0.062234286,0.014565924,0.029045217,-0.022467008,0.038854603,0.045314863,0.018729214,-0.027445508,-0.004862709,0.021820746,0.0017822381,0.027916694,-0.016221415,-0.0055887173,0.012633154,0.03561226,-0.017813914,-0.034368977,0.044997226,-0.0033997793,-0.053602297,-0.06481874,0.03841151,-0.02320436,0.013190734,0.021562722,-0.030456634,0.034853004,0.019296197
-0.030859895,0.01013892,-0.020485228,-0.031504463,-0.013007778,0.072280645,0.013849146,-0.013125512,0.020192038,-0.012413758,-0.011766025,-0.040028516,-0.028101958,0.042876776,-0.0081498725,-0.0019596624,-0.007474042,-0.008817765,0.015875712,0.00890295,-0.04916762,0.030559923,-0.005871865,-0.036455236,0.047064368,0.025227956,0.01781079,-0.0421714,0.019713307,0.0073266434,-0.010222173,0.05716299,-0.019811548,-0.014769584,0.030049736,-0.06150238,-0.024788901,0.013805444,0.019455232,0.055953924,0.017347706,0.033886723,-0.033182565,0.0342352,0.00097121065,-0.038430795,-0.008641119,0.04520258,-0.0023443585,-0.057994947,0.050911747,-0.036922283,0.04072109,0.030216131,-0.00073170156,0.02962349,0.039231297,-0.007760973,0.018354306,0.023521196,-0.022322647,0.010649539,0.04577838,-0.023876578,0.014030805,0.0063647334,0.0060798447,-0.03719169,-0.042847183,-0.026657535
0.018737568,0.012384437,-0.026080027,0.02978792,-0.018036032,0.0059947344,-0.0026069174,0.005510284,0.012002215,-0.03814334,0.023235403,-0.03396338,0.018888457,-0.053919565,0.016809657,-0.030075649,-0.03793481,0.041143753,-0.03247713,0.016278679,-0.029506808,0.009702875,0.027291138,-0.027627194,0.023115888,0.005942029,0.002484879,0.021626372,0.030816667,0.004569412,0.001273464,-0.02485282,-0.011098027,0.014093896,-0.031194784,-0.0022630023,-0.0124496855,0.043082386,0.03570247,-0.023467999,-0.00038040488,-0.044791758,-0.025198707,0.013978578,-0.053703018,-0.06023702,0.004809304,0.006698572,0.0146874115,-0.01441324,-0.0017176119,0.00699882,-0.041545276,0.03653746,-0.0014776898,-0.011675507,-0.003829443,-0.014616563,-0.01985027,-0.0138831735,-0.0056504332,-0.025095118,-0.0070010917,-0.011711188,-0.005400985,-0.032007474,0.010313842,0.0070391907,-0.018948633,-0.02571812
-0.013337001,-0.02023949,0.015864637,0.032937437,0.016380679,-0.0457741,0.029390696,0.0124477465,-0.01057523,0.030599186,-0.02127284,-0.019775778,0.038610253,0.024813598,-0.004167708,0.04340227,0.036515824,-0.04435802,-0.04904141,-0.024241397,0.012265391,-0.0034907467,-0.038441643,0.011717871,0.015530462,0.02470626,0.01839949,0.022066684,0.04231927,0.030803481,-0.020945625,-0.037011813,0.0048206905,-0.03510316,-0.014851551,-0.032918964,-0.039978974,-0.019070957,0.0052319793,-0.011831879,-0.0055751237,0.02983777,0.03591239,-0.06075676,-0.004490758,0.017997934,0.005100203,0.046711754,-0.027386215,-0.053525787,0.0076060835,0.01436661,-0.008328013,-0.035688467,-0.053689856,-0.057136573,-0.04206983,0.026152631,0.021894678,0.026980326,0.003134677,-0.007886064,0.016518196,0.011980303,-0.011797723,0.00017183968,-0.046050962,0.018308459,0.0069261496,-0.0038972255
0.0018722736,0.030414298,0.004981635,-0.016318306,0.021549584,0.0010283001,-0.025205448,0.028697837,-0.009931671,-0.026495084,-0.0025443381,0.044133484,-0.020141136,-0.027295835,0.003917596,-0.04592783,0.05272024,0.003699599,-0.03640219,0.016146515,-0.044038802,0.027552538,0.030184561,-0.0657721,-0.016936526,0.00077272044,0.005077805,0.047564898,-0.02758585,0.004756896,0.0046956455,-0.023845011,-0.016706271,-0.012540777,-0.0024115602,0.03457371,-0.0007438973,-0.023074713,0.0070579117,-0.0057011745,0.007444728,-0.0060069864,-0.019811476,0.023518715,-0.0303482,0.008361233,-0.010743059,0.00546369,-0.028015504,-0.013499624,0.034455456,0.03885874,6.134071e-05,-0.017031414,-0.029136138,-0.030707736,-0.0029675984,0.00149935,-0.02205952,-0.02360672,0.040252894,0.031224692,0.026824297,-0.01886387,0.0430207,-0.038784966,0.029544467,-0.03583266,0.018451951,0.049118377
-0.009415175,0.018995155,-0.04088795,0.016143931,0.03624355,-0.027968327,0.018515881,-0.0049446137,-0.010216366,0.033333488,0.01490501,-0.006180428,-0.023048412,0.020377656,0.04694491,-0.0007505312,-0.027338058,-0.028451817,0.022134677,-0.0021333718,0.05329428,0.007034602,-0.0074088885,0.020676963,0.022592975,-0.015077402,-0.04487353,-0.005080619,0.002485454,-0.0010217996,-0.028090434,0.014044859,0.0015142763,0.009327262,0.0044656545,0.006533587,0.014175071,-0.013198924,-0.025344765,-0.008766834,-0.028093817,0.024633769,-0.015851593,-0.05015423,0.053309903,0.020786451,0.03156896,0.03169137,-0.014296953,0.029062018,0.012534111,0.02326303,-0.03548692,-0.0051186215,-0.0002682221,0.042361204,0.01689168,0.018924616,0.0018598101,0.0022307634,-0.027226375,-0.009005048,-0.020541584,0.031265724,0.044719066,-0.0005160719,-0.025515946,-0.0360846,0.03155339,0.017672038
0.022261467,-0.014043198,-0.046244383,0.027236525,0.012894873,-0.008638074,0.031733952,0.036700767,0.012957747,0.003566686,0.011320442,-0.02165906,-0.0020756228,0.019704768,-0.05560415,-0.024284992,0.02375582,0.0062151346,-0.032493163,-0.016197536,-0.007947576,-0.028155169,0.022114255,-0.04544819,-0.013853085,0.029228073,0.034585677,-0.04822057,-0.003299152,-0.0050317687,0.006175469,-0.010065246,0.032491457,-0.0021940463,0.040509388,0.021968247,0.028891157,0.015922962,-0.011362773,-0.00062170747,-0.005090665,-0.010672213,0.024663145,0.049179748,-0.036144804,0.022210035,0.018505298,-0.01786607,-0.0305954,0.0346935,-0.04885936,-0.0009630116,0.0026288736,0.0023965675,0.019657182,0.0015391672,-0.012233099,-0.03113289,0.0112164905,-0.050092578,0.01817836,-0.04873365,-0.026672157,0.043907378,0.020531422,-0.0332643,0.030079532,-0.025062582,0.0035329678,0.024991175
0.032921154,0.00039224658,-0.048947893,-0.0066899713,0.022503512,0.046974722,0.006671499,0.010502523,0.04947374,-0.007506462,0.010007053,-0.016322516,-0.011355792,-0.056354996,0.042053673,0.013863651,-0.028564796,0.0055151503,-0.019835807,-0.018912558,0.0170485,0.08018428,0.017189577,-0.026070222,0.023131652,0.05895165,0.012194451,-0.02906827,-0.011425066,0.018005822,-0.021885695,0.019329848,-0.041256327,-0.044280052,0.004582532,0.021839451,0.019395726,0.0192892,0.026940605,-0.01675864,0.025401754,-0.017465884,0.09061138,0.04761135,-0.030176176,-0.0056369524,0.0004895676,-0.007713839,0.029641548,0.08588619,0.017735122,0.021187965,0.019642662,0.026330618,0.07343161,0.042618982,0.006135806,0.010178168,0.06130561,-0.008834844,-0.00044700256,0.060349025,0.06848029,0.024125306,0.09374643,0.0024344295,-0.009786208,-0.002554342,0.013590305,-0.015206188
0.0011104621,0.0031541612,-0.00061910506,0.029889692,0.053294152,0.031449515,0.014780773,-0.016018508,-0.013081727,-0.008354121,0.020641945,-0.0146196205,0.021254418,0.02501607,0.040363386,0.041628063,-0.00390796,0.06258326,0.06414433,0.030973012,0.045912903,0.028203847,-0.041874852,-0.0201636,-0.0086621465,-0.017138287,-0.0015817985,0.023392392,-0.00095186476,-0.036977798,-0.024688806,-0.018685624,-0.024781268,-0.039095055,-0.04581116,0.032032203,0.038845453,0.05104542,0.032792076,0.005091576,0.003138529,-0.0034721543,-0.030101117,0.010881382,0.022799483,0.08392983,0.041770335,0.0073181526,-0.03680371,-0.009747682,0.0005317627,0.0013046196,0.041007984,-0.014081812,-0.01654954,0.011907517,-0.034559824,0.0071607945,-0.012351137,-0.022485262,-0.03682546,-0.009370374,-0.0051496346,-0.038605664,-0.014027698,0.04719317,0.041783575,0.03258946,-0.00059654645,-0.021312831
-0.012828361,0.031429496,0.0022546665,0.010734289,-0.036444996,0.005468408,-0.0123359915,0.020471374,0.01566673,0.04411575,0.023455856,0.06534475,-0.020366298,0.00576954,-0.0025646505,-0.012426467,0.0058846106,-0.0049949065,-0.021387497,0.0016578928,0.0038565577,-0.006906895,0.008887956,0.03421065,0.05239877,0.032155745,-0.0046162796,-0.039132576,-0.02180238,-0.031197025,0.0346779,-0.012571778,-0.009429301,0.051575713,0.031792045,-0.0055602975,-0.01646091,-0.036129463,0.056248087,0.034568056,0.00013292575,0.020569565,-0.0060157897,0.052793533,-0.018268246,-0.020413944,0.023711776,-0.024592655,0.042279072,0.058502015,-0.00260222,0.017096208,-0.008563536,-0.04588453,-0.011059744,0.03067349,-0.016203718,0.027113514,-0.0007700384,-0.009457977,0.015546641,0.012643784,-0.02485021,0.052563943,0.022465082,-0.025964333,-0.016012048,-0.015504851,-0.041115142,-0.049552556
-0.03623869,0.017509203,0.027519627,-0.044113584,0.015119278,0.014462952,0.012461772,-0.04168259,-0.009616978,0.0029639003,0.02118347,0.037347276,-0.011518551,0.029035654,-0.008028854,0.05145597,0.007025892,0.002434462,0.047814712,-0.019862384,0.010521776,-0.06087681,0.02113453,0.015904794,-0.015527714,0.034173433,-0.029383508,-0.018518828,0.03218486,-0.010657506,-0.030946197,0.03946819,0.010231543,-0.009391591,0.019792173,-0.0095753055,0.017941182,0.020184956,0.027951092,0.050880466,-0.014500755,0.0055072717,-0.012697616,0.026464732,0.03750403,-0.058059674,-0.00016612328,0.011287972,-0.0056399554,-0.04127929,-0.018864322,0.0037671677,-0.021479772,0.003350698,-0.0013559062,0.030198429,0.041151807,0.029812483,0.030807363,0.04962528,0.0022886326,0.0022780865,0.03559543,0.030843396,0.028008357,0.005589502,-0.005763382,-0.011592378,0.039074693,-0.0070824935
0.05148484,0.013013871,-0.013137861,0.013366375,0.0059147794,-0.0041490113,0.047405336,0.030612642,-0.017210696,0.027750045,0.060724806,0.03638963,-0.005053169,-0.025207207,0.0071870564,0.047278542,-0.020146798,0.04309109,-0.044197466,0.030543683,0.024223143,-0.004933236,0.007396357,-0.03547463,0.047779944,0.044201877,0.0010759176,-0.03639931,0.018538393,-0.029726388,0.020522185,0.02463985,-0.0034322997,-0.0017020499,0.03205636,-0.0510064,0.01822673,-0.039265566,0.015540437,-0.04567907,0.04034159,-0.027929824,0.076338425,0.0065480024,0.043810025,0.02555342,-0.03516662,-0.03550067,-0.044144552,0.028358469,0.047147293,-0.031055216,-0.020149823,-0.013474193,0.018367218,0.00039014936,0.02875393,-0.044677168,0.025401447,0.010708517,0.014288626,-0.0048404555,0.08858696,0.04495754,0.051015105,0.02110756,-0.0082836915,0.010683247,0.01964184,0.018502047
0.02748841,-0.034228373,0.033403434,0.01711028,0.007977519,0.031320952,0.04731182,0.027418181,-0.0078558065,0.0035439485,0.010853934,0.0068592955,-0.05581658,-0.022763992,0.068630554,-0.0043796487,-0.04327392,0.015500318,0.015768193,0.00866437,-0.0225039,0.041176274,0.015957156,-0.013627387,0.008717243,0.052528057,-0.052289687,0.02421487,-0.0061927326,-0.038848326,-0.010049648,0.021388186,0.0035293172,-0.029665036,-0.011946854,-0.0075082784,-0.024011707,0.002855997,0.011743255,0.01184651,0.02173096,-0.0048166784,0.065690756,0.023931118,-0.007932725,0.026463771,-0.04440727,0.027175114,-0.04633875,0.019973792,0.033905644,0.017397149,-0.0074389405,-8.315173e-05,-0.014752841,0.032716908,-0.021385964,0.033600047,-0.012646086,0.050017327,0.0153107485,-0.02006009,-0.017858783,0.019819053,0.041302834,0.013670823,-0.0056631374,0.049687795,-0.035803154,-0.002692278
0.02121025,0.015525047,-0.0115802055,0.011715991,-0.007390617,0.026569396,0.04461726,0.048316628,0.022585431,0.033635575,-0.012542596,-0.040288687,-0.003875396,-0.006036791,-0.00087439676,0.001704352,-0.07066025,0.024846494,0.047413126,0.005013925,0.0071095903,0.048795912,0.023981428,0.042867567,0.08998957,0.048612956,-0.05752204,0.018543204,-0.031256765,-0.022355372,-0.02051703,-0.027191631,0.028507268,0.0265149,-0.037813585,-0.003166221,-0.0021500255,0.01326762,0.044563353,-0.0010079752,0.055703674,0.03057478,0.032868598,0.036317877,-0.01023487,-0.038444914,-0.01442285,0.018966788,-0.03877158,-0.0059975456,0.062144864,-0.03954644,0.0036231026,-0.058167454,0.0037845282,0.07164402,0.058931988,-0.04537636,0.0024921792,0.045368668,-0.027064333,-0.008555346,0.06893073,0.032622762,0.030062972,-0.02643257,-0.024091791,-0.020668285,0.029916985,-0.01748253
0.0056116935,-0.006908501,-0.032880094,-0.013721437,-0.023859547,0.0043280646,-0.0037330724,0.041213226,-0.0705415,-0.0016389765,0.003382695,-0.037949074,-0.04938978,0.054457515,0.012562523,-0.02022156,0.026830418,0.021198733,-0.036648043,-0.03296109,-0.020090066,-0.02501032,0.04052445,-0.0069212066,0.022077711,0.036026243,0.02118188,-0.009939735,-0.052719966,-0.044983197,0.06999601,-0.011923558,-0.019644098,0.021950245,-0.030237949,-0.00903492,0.029472562,0.024505962,-0.023335546,-0.008709052,0.0016262276,-0.035850555,-0.02602863,-0.004139455,-0.05700203,-0.015127568,0.013598155,0.0115798125,0.001618059,0.017802913,0.034701664,-0.014988123,-0.0038274731,0.0184221,-0.03169435,0.011274486,0.013764095,-0.019856907,0.012852013,0.040715892,-0.009632571,0.033669963,-0.016891703,0.022660783,0.039204504,-0.035138026,0.017091373,-0.012690448,0.008629813,-0.010779053
-0.029820459,0.04497715,-0.03747053,-0.03802086,-0.02430874,0.014977901,0.00354677,-0.0024472026,0.0122813685,-0.03673468,0.0060348874,-0.0035490384,-0.011440648,0.0118630165,0.003550133,0.005544607,-0.02257355,0.04572737,-0.02545532,0.010368532,0.0075139734,-0.017681798,-0.021738572,0.00037497494,0.020858737,0.004904773,0.025582144,0.03233555,0.0046842126,0.011744557,0.0030355072,0.011408548,-0.02180012,0.054565053,-0.02039922,0.0147916945,-0.0042059124,0.028586268,0.012837053,0.056347005,0.009534885,0.01754327,-0.034770835,-0.0292504,0.016596075,0.014769455,0.03611456,0.025011119,-0.04864577,0.011683721,-0.036450826,-0.039326485,-0.02215794,-0.019737775,0.005283186,-0.023375478,-0.053537767,-0.040002957,0.043637313,0.02561228,-0.0299472,-0.038492374,0.01889838,-0.024186991,-0.01872206,0.0015987626,0.00952169,-0.023508463,-0.0067780525,0.055504285
-0.028149962,0.006865127,-0.058686085,0.04015785,-0.011749254,0.014873665,-0.03774594,-0.05149029,-0.04659512,-0.0036936803,0.027650518,0.017438117,-0.019945798,0.0034391575,-0.04195719,-0.0072257463,0.01606043,-0.0037460616,0.013820351,0.00090999255,-0.022250278,-0.02651422,0.036577117,0.014298949,-0.0033892042,-0.023547221,0.030223647,-0.007915616,-0.04626686,-0.0351984,-0.004442605,-0.018210826,-0.004292364,-0.034150366,-0.010958009,-0.016548352,0.007396229,-0.04473927,-0.0141247045,-0.03469972,0.035005994,-0.020882308,0.005202693,-0.023464927,-0.0022226484,0.002847218,0.041335225,-0.019835489,0.0034521874,0.018190099,0.030466577,-0.067318015,-0.03525554,-0.028787093,0.0061005354,0.03997754,0.0029092305,-0.003859805,-0.027774356,-0.020783162,0.022897162,-0.035259258,-0.022804102,0.021165,0.01675352,0.015900264,0.018175907,-0.0035390866,0.026535217,0.037626863
0.05343824,0.024985336,0.044465706,-0.003290541,-0.028449131,-0.00820524,0.0004487657,-0.04204347,-0.009751711,-0.058014233,-0.005899011,0.024445705,0.009415762,-0.042738996,-0.0003211635,-0.014903246,-0.042864237,0.04634821,-0.01785108,-0.060167085,0.028485587,0.044770982,0.034164898,0.037610844,-0.03336398,0.0068646334,-0.022887805,-0.046897706,-0.026597947,0.0197677,-0.014457319,-0.0462826,0.030003034,0.0067971023,-0.0569947,-0.0229884,-0.02599702,0.01799648,-0.045496736,-0.004520278,-0.031923458,0.022397203,-0.02684237,-0.03218643,0.014637684,0.039278917,-0.013446198,-0.029793922,0.04854821,-0.013530868,-0.043369334,-0.020198151,0.011021288,0.04158589,-0.02852312,0.00021920235,-0.009043148,-0.001335252,-0.0082670385,-0.010868597,-0.0045497185,0.0020986088,-0.026195895,-0.0383645,-0.041768786,-0.03690226,-0.017270492,-0.0058220206,0.022882499,-0.017603341
0.024123188,0.034355547,0.04823353,0.01329191,0.024941403,-0.007649965,-0.032337714,-0.04931344,0.020988593,0.046107408,-0.038967595,0.007886261,-0.0062717693,-0.039502528,-0.025362972,0.0029085285,0.017022228,0.06008,-0.021838477,0.007608937,-0.062155053,0.062663816,0.01647055,0.031548277,-0.055595655,0.017834615,0.037454396,0.018365059,-0.0057569267,0.01970398,-0.027117796,0.004156229,-0.019033825,0.00855373,0.018249895,0.017976811,-0.003298892,0.047600757,-0.030016534,0.03758895,0.011540527,-0.013757458,-0.010234438,-0.037668243,0.008096976,-0.03940989,-0.0064167012,-0.011277866,-0.041685488,0.012837167,-0.012135108,-0.025357004,-0.011708228,0.051933706,-0.035134584,0.019109765,0.006456585,-0.048706807,0.009776096,-0.019033292,-0.004248064,0.03990933,0.017924838,-0.023529619,-0.006413654,-0.019913143,-0.009512275,0.025869584,-0.0069065164,-0.014143813
0.015470857,-0.04767616,-0.039039213,-0.037767768,0.03291824,-0.030079413,0.024872134,0.017403182,-0.026167387,-0.012943913,0.059024293,0.0031516696,0.012099348,-0.027390324,0.0485857,-0.0034797348,-0.001001883,0.026357016,0.031406883,-0.013522028,-0.019352403,0.0026811168,0.024207745,-0.033789035,0.036363658,0.011301298,0.012291401,0.035389565,0.031099377,-0.021903045,0.019017726,0.03757843,0.0015587282,-0.016503977,0.020061105,0.031863872,0.011679324,0.0049765394,0.034862682,-0.018528117,-0.02672715,0.05966469,0.03271421,0.0632938,0.020885512,0.012744632,0.037343405,0.034896065,0.015306975,-0.04927468,0.045464255,0.00033995716,-0.05029423,0.03584129,0.044396687,0.04073371,0.030410144,-0.009430025,0.007997757,0.018750997,0.031745348,-0.038660165,0.0037068995,-0.028717691,-0.005705425,0.019855207,0.04164285,0.027899979,0.03411074,0.018303625
-0.017905172,0.03234425,0.029246349,-0.02106342,0.022415547,0.006628517,0.020578545,0.023989353,0.0032901305,-0.059543833,0.0067183957,0.010117175,-0.04379393,0.03236862,-0.017817046,0.012172921,0.0031554038,-0.009389572,0.020287182,0.016095886,0.04821882,-0.0071906676,-0.008648846,0.0050245984,0.012738237,0.006650066,-0.018895058,0.018157374,0.029694963,0.006066003,-0.049908556,0.04529756,0.058608975,0.017518803,0.016441207,-0.012217021,-0.025136994,0.019388324,0.033202,-0.008399061,-0.020012531,-0.018497365,-0.031118913,-0.027057853,0.04044575,-0.031005682,0.030976892,0.03616859,-0.03779535,-0.002758004,0.046132497,-0.0025114126,0.0036619543,-0.048598718,-0.023144633,-0.035846174,0.022977399,-0.034399472,0.019387674,0.04250352,-0.024359098,-0.032491487,0.016316941,0.0066607445,0.024373133,0.01949662,-0.008340375,-0.0408657,0.028596055,-0.014030723
-0.03407789,0.024229093,-0.05015739,0.042679682,-0.0016844558,0.028255183,0.0022253043,0.042068806,0.031655937,0.017490556,-0.0093856435,-0.033047434,0.019926686,0.008612879,-0.0076597664,0.009893838,-0.009486558,0.051981214,-0.0287915,0.052140143,-0.03503861,0.050266523,0.020883141,0.029799474,0.051322166,0.0075616525,-0.01799221,0.046383027,0.057775207,-0.054028586,0.054030977,-0.020993005,-0.028161548,-0.00958614,-0.021241963,-0.016893227,-0.026084498,6.0803683e-05,-0.021125697,0.017274799,0.025258755,-0.00079499336,0.06691273,0.050894056,-0.040657416,-0.010511182,0.024969375,0.033427298,0.011810532,0.016151918,-0.021312464,-0.042165425,-0.01841134,-0.023884425,0.03355809,0.016176121,-0.027158894,0.050249755,0.026288344,-0.035079967,-0.03073906,-0.037452485,-0.00056197995,-0.022445412,-0.021295117,-0.039885737,0.037005242,-0.033482477,-0.019794565,-0.015609276
-0.029159885,0.03494886,-0.010272958,0.00023929478,-0.022627117,-0.023751747,0.038469847,-0.053277083,0.0022992862,0.0094866725,0.017525593,-0.019390322,-0.0027498796,-0.030352773,0.04193808,0.02513764,0.02188967,0.060760293,0.032663513,0.054533012,-0.004473038,-0.03147877,-0.020183021,0.030092048,-0.011475889,-0.0412312,0.03702912,-0.008174104,0.030314686,-0.061140224,0.057543043,-0.014735117,-0.046254903,0.0273398,-0.016854683,0.041768398,-0.027539596,-0.027852379,-0.009771401,-0.032082606,0.03534888,0.017298423,0.010265481,-0.052819043,-0.030061245,0.01043067,-0.031464204,0.0112207215,0.012448774,0.01952616,-0.017355148,-0.006965811,0.011061043,0.032162894,-0.0077622235,0.0009941269,0.01476251,0.019848695,0.025496727,0.03651252,-0.044717286,-0.02826339,0.016836561,-0.021914992,-0.010993487,-0.04415985,-0.0031444398,0.011886495,-0.009576016,0.036739025
0.0141731985,0.018259501,-0.009527717,0.023356752,-0.0343829,-0.032950077,-0.0021006025,0.015534099,-0.014616796,0.028869415,0.024278933,0.009074301,-0.028660076,0.0324782,-0.03736733,0.02043846,0.051595237,-0.025680428,-0.023649372,-0.017064858,0.010977327,-0.026715174,-0.010380068,0.010072727,-0.011175243,-0.009938051,0.008386915,0.037938055,0.04082019,-0.031929772,0.0058436985,-0.030427132,-0.022009328,0.012259375,-0.00952035,-0.048296332,0.011562516,0.055524874,-0.03978147,0.010835741,-0.0227661,-0.013910298,-0.04047222,0.018335022,-0.042754542,0.004740961,0.017918829,-0.0004945315,0.020773115,0.006639113,-0.021374138,0.047362287,0.00686419,-0.0007594178,-0.056354273,-0.053695478,-0.0042622727,0.040603045,0.021298148,-0.014627317,0.032498274,0.040989902,0.05155408,-0.010215577,0.03475212,0.011100763,0.019883426,-0.03916813,0.044466604,-0.018359669
0.0016263431,0.021863986,-0.0020859013,0.049120177,0.032367844,-0.010319854,0.03765669,-0.015724963,-0.03385104,-0.034521013,-0.0034176246,0.021012576,-0.029946603,-0.022696627,0.03127292,-0.029344147,0.00029032218,0.038986094,0.01393686,0.025951214,0.02547811,0.0052361498,0.0024206205,0.041401193,0.02504353,0.046781495,-0.007959501,-0.012374766,0.022172393,0.02156277,-0.011136325,0.041334495,-0.027319485,0.0017745894,-0.032419827,-0.0057211407,0.01626805,-0.044440597,-0.012326663,-0.016663495,-0.033219837,0.0027651675,-0.012062122,0.029162243,0.0005317476,-0.009773343,-0.037590016,0.014472035,-0.030673264,0.019353507,-0.0043022656,0.04485397,0.004638194,-0.03649483,-0.009495421,-0.024372322,0.031099126,0.014072313,0.030363241,0.0040307045,0.05098256,0.021431629,0.050017178,0.052857094,0.026179545,-0.017096708,0.0020743755,-0.04457155,-0.044845305,0.019247966
0.04569941,-0.013300326,0.019978954,-0.026844181,0.017774649,-0.052588955,-0.0015623796,0.027260693,0.0029143582,-0.012411765,0.05855293,0.04730761,-0.018227236,-0.036173996,0.031593308,-0.012530832,-0.0002649259,-0.0038669573,-0.03952893,-0.008763616,0.0018802579,0.050707296,-0.0084487945,-0.036075085,-0.0033981178,0.03178613,-0.013010555,-0.025961315,0.00051359273,-0.047241803,-0.0228852,-0.046190493,0.03267992,0.054463837,-0.0038528864,0.02948872,-0.048369765,0.02027283,0.023716211,0.006040494,0.0015793311,-0.013432477,-0.013516055,0.03720175,-0.061035827,-0.020745672,0.052302618,-0.028669415,0.03654759,0.006908329,0.053705126,0.06729746,-0.009325071,0.010442208,0.014619485,-0.012232672,0.013643255,0.05038078,0.0030856847,-0.034552258,-0.0534722,-0.03842233,0.039302707,0.007657287,0.015700286,-0.012376016,-0.04403037,0.002015552,-0.03389982,-0.005171003
-0.03343363,-0.035290692,-0.019321015,0.0294752,0.030136542,0.02896707,0.018628292,0.050037395,0.018814709,-0.02367268,0.02728149,-0.014895963,0.047172338,0.042463496,0.025787288,0.011809744,-0.011338487,0.024889987,-0.013469838,-0.021784617,-0.006691505,0.010270393,-0.024960073,0.029089736,-0.0109460065,0.03308341,-0.0021905971,0.0076468512,-0.04623454,0.062082916,-0.027637376,0.008912379,0.028735945,0.01712372,0.037967924,-0.00243817,-0.008095641,-0.004159548,-0.018683547,-0.041379422,-0.013081931,-0.038157098,0.012509761,-0.016013226,0.004944156,0.021627896,0.004934191,-0.053801928,-0.020117706,0.015393434,-0.017649282,-0.003479144,0.04620101,-0.029243222,-0.003101369,-0.018002545,0.007740239,0.000946337,0.026773198,-0.00574539,0.026121836,0.024745865,-0.0086954925,0.013041739,0.03264256,0.021774806,-0.019988589,0.01744002,0.027610766,-0.024579514
-0.020919643,-0.0472619,-0.023122065,-0.0042544664,-0.008996764,0.06587536,-0.012993549,-0.029816367,0.042853516,-0.0058436585,-0.0043235812,0.043300536,-0.04335536,0.049604826,0.012004466,-0.030422995,0.019570434,0.0007354277,0.031349912,-0.01919403,0.035903145,-0.0015286948,-0.012283485,0.0022443167,-0.011250839,-0.0051035085,-0.0023209003,-0.014034009,-0.0113694435,0.044884887,0.048647072,0.024262646,-0.00048578586,-0.0038555807,0.06093901,5.9597427e-05,0.017648427,0.027175657,0.0429717,0.039430927,-0.013288833,-0.038021933,-0.008236532,0.03899221,0.031113857,0.0012198519,0.046684463,0.009023959,0.0135532785,0.033558,0.020229828,0.034078974,0.007445648,0.013489974,0.043901805,-0.024720859,0.021543913,-0.021097992,0.010984964,-0.010354308,-0.014377116,-0.013927228,-0.011153928,-0.04372438,-0.04252813,0.044028413,-0.006006164,-0.018642163,-0.0027866806,0.02599164
0.028858807,0.01622362,0.029669605,0.02545252,-0.05462256,0.004503254,0.047706112,-0.017771235,-0.013100849,0.005076931,0.010938361,0.010804889,0.030094372,-0.00921118,-0.017447073,-0.05186443,-0.02200653,-0.032324582,-0.021202667,-0.058970645,-0.03302381,0.05968157,-0.032990422,-0.025828164,0.023733648,-0.014123183,0.06646895,0.0025549626,0.024797497,0.03507384,0.011487713,0.020710815,0.008236631,0.01800306,0.03490822,0.014744351,-0.015429996,-0.011299684,0.008242251,-0.045783363,0.012227614,-0.012447807,-0.021700077,-0.008456342,-0.0060136346,-0.0019323439,-0.045126975,0.025442967,-0.046430275,0.0042805634,-0.02467377,0.01782962,-0.015392391,0.00042966555,0.017153421,0.017990936,0.018203145,0.016248478,0.019782329,-0.02729285,-0.014154565,0.015438453,0.0041800966,0.024718538,0.03560686,0.05293421,0.0077486057,-0.038858615,-0.052345205,-0.0014423896
-0.006993776,0.009860014,-0.002797814,-0.013564332,0.0053295777,-0.014808082,0.001853561,0.016175786,-0.028211301,0.041761212,0.035248667,0.022419274,-0.028922012,0.014923949,-0.0033981479,0.03693266,-0.00039286565,-0.009730838,-0.03868374,0.03099379,0.001176732,-0.056819547,-0.0568267,-0.036422163,-0.027808927,0.020842545,-0.016781196,0.035476696,-0.00095352385,0.004379701,-0.0222766,0.0042276583,-0.014142097,0.027360916,0.023997745,0.024688562,0.028261354,-0.006820401,0.036050376,-0.013338873,-0.045614995,-0.0036306933,0.019255416,0.0048490507,-0.040460367,-0.048087113,-0.0023133226,0.03753026,0.0031782396,-0.043602206,-0.027656402,0.0019472386,0.02550764,-0.00082992855,-0.04718059,0.03518395,-0.042349976,-0.030271871,0.004521127,0.029883338,-0.03363946,-0.055979244,0.00035493,0.013394671,0.014962858,-0.035253905,-0.024534697,0.008565579,-0.018234866,-0.02679318
0.01077978,0.03494205,0.028955143,0.02524701,-0.019571833,-0.05501527,-0.0139162205,-0.010877744,0.032230448,-0.024458015,-0.020579696,-0.01034814,-0.032944,-0.036070835,0.027848734,0.013216016,0.028611897,-0.03616008,0.060817346,0.00075819675,-0.006767726,0.0575069,-0.021821914,0.030044816,-0.021130607,-0.03356826,-0.013453314,-0.0117394775,-4.866221e-05,-0.0061532445,-0.007827359,0.03317911,0.018726373,-0.013096096,0.05399046,-0.006682325,-0.019339727,0.040771343,-0.024993708,-0.07188296,0.03287413,0.004457401,-0.017985286,0.011278373,-0.042331547,0.060606923,0.03802342,0.039965592,-0.039720096,0.0010685859,0.029941948,-0.030356085,0.032145217,-0.03407868,-0.0044695735,0.0063890843,0.00031034544,-0.008592543,-0.0122550195,0.021686863,-0.019921957,-0.0049875462,0.04789704,0.0034254987,-0.016858503,0.05305167,0.028513148,0.021018649,-0.017870774,0.00574257
0.017780164,-0.029178588,-0.047137164,-0.036765892,-0.00836944,0.005828091,0.024232406,0.011754814,-0.044413373,-0.0066439044,-0.03267708,0.002365317,-0.009861453,-0.065633,0.05068414,-0.008447707,-0.031019906,-0.0027348066,-0.033130188,-0.01951363,0.04977627,-0.0050083343,0.014597157,0.0040168874,-0.00699921,0.02306682,0.038249124,-0.004423416,-0.0057400772,-0.025497718,-0.016544515,0.013575814,-0.009756375,0.002712971,-0.004811182,-0.033510063,-0.022739245,-0.017311655,-0.05505162,-0.015937785,-0.029819457,-0.02821244,-0.012913952,0.07133806,0.032813627,-0.0368974,0.020789992,-0.014178037,0.011804212,0.0024615813,0.025330009,0.026863271,0.017376853,-0.046479546,0.049846068,-0.031093016,0.019286372,-0.009289364,0.049723428,0.002734789,-0.036662485,0.010134219,-0.020864991,0.0417767,-0.013764299,-0.039056506,0.014931027,-0.017543072,0.010702026,-0.025457101
0.026177278,-0.033626493,-0.024948053,0.02483169,0.015620747,-0.015287026,-0.04144697,-0.04344015,0.038095348,-0.024663378,-0.015225359,-0.013797015,-0.009757363,-0.024829531,0.019423557,-0.050561626,-0.020898204,-0.009848874,0.032180846,0.049784563,-0.00020921214,0.07515254,-0.045704942,0.00061517727,0.022941316,0.036049876,-0.0003087354,0.014792436,0.042481594,0.009937384,0.027379727,-0.016285421,0.015363452,0.024991093,-0.046124484,0.013319995,-0.036185045,-0.032043763,0.022799205,0.026896045,-0.013225254,0.058612484,-0.0042036,-0.028687349,-0.03899236,-0.024336696,0.025608957,-0.03705859,-0.037233904,-0.005935894,0.015818918,-0.034182057,0.021559916,0.030401882,-0.004280685,0.011576526,-0.007348273,0.029037632,-0.0025497028,-0.05647402,-0.0354892,-0.03568681,0.026823597,-0.0041936706,-0.012053917,-0.013118259,0.00965204,-0.046813548,-0.024147555,-0.013683602
-0.040344425,0.023386141,0.017141068,0.0026603655,0.0071943128,0.022830866,0.019694801,0.012296765,0.023127126,-0.0071270624,0.011004376,-0.015482767,-0.021279505,-0.0037328852,-0.021521417,0.009122703,-0.041876648,-0.004389737,-0.016113173,0.027835958,0.018663647,0.020752886,-0.0033626398,0.0021925364,-0.042512897,0.019544203,-0.030837232,0.032940637,-0.027090311,0.019784681,0.016129693,-0.020850386,-0.021888781,-0.0005957646,-0.02384798,-0.043511793,-0.046647303,-0.049519256,-0.020499883,0.01797112,-0.0010075802,-0.02823829,-0.012791636,0.0035812643,0.03318351,0.020294735,-0.039553232,0.009778438,-0.038031325,0.025991086,0.00032412863,0.00977126,0.037436243,-0.038843613,-0.002052757,0.030440774,-0.03422079,0.022467718,0.014199812,-0.020728158,0.012661004,0.036191694,0.020582072,0.011525199,-0.014917729,0.02372021,0.017107723,-0.01248872,0.0072408076,0.023922926
-0.02411315,-0.0008838877,0.0042344346,-0.025808865,-0.004632621,0.034016825,-0.030633226,0.026007721,-0.018955603,-0.005334523,-0.0378536,-0.011511228,-0.004367175,0.00088828313,0.00087136263,0.0112044355,-0.010052997,-0.020278508,0.013019033,-0.033727866,-0.0408118,-0.01326655,-0.044118557,0.011406907,-0.0066182655,0.0007676067,0.01940193,0.014012847,-0.027966095,-0.009850642,-0.03170694,-0.012056971,0.0018616582,0.030346842,-0.0203303,-0.0013406847,-0.0245376,0.011540505,0.012340234,0.054079052,0.0018731311,-0.0025516667,-0.034135442,-0.025408126,-0.007867977,0.040109735,-0.037841152,0.030929938,0.019067531,-0.024234213,0.0374729,-0.008153425,0.03492168,0.023726704,-0.019574605,0.014345161,0.0012156636,-0.022092769,-0.03641046,-0.030162625,0.046384532,-0.00718526,0.0024052586,0.0009175604,-0.04592626,-0.01982326,-0.015451214,0.025164409,-0.03601725,0.02168808
0.0001194881,0.016347079,-0.021148909,0.02292287,0.021725517,-0.022183144,-0.0033517862,0.0074433656,-0.005335162,-0.03458816,-0.02684079,0.028931635,0.0031927587,0.009101001,9.039776e-05,0.0023437797,-0.039621513,-0.046043232,0.008740813,-0.0368798,-0.040086795,0.021901298,-0.0042904457,0.04515202,-0.011710395,0.028872492,-0.0009778751,-0.02962167,-0.031188305,0.015634751,0.026278434,0.0072326767,-0.01115017,0.057020392,0.012943254,0.021128608,0.045520958,0.021021727,-0.031825203,0.029329326,0.022329371,0.054035585,0.019613802,-0.0018978155,-0.026289662,0.007510808,-0.03610579,-0.008142262,0.030033056,-0.035741422,-0.0049065677,0.0028265691,-0.01745454,0.0128816785,-0.012919892,-0.03813605,-0.020217925,0.024130138,0.02179304,0.009772635,0.01886562,0.010844515,-0.015343721,-0.015562475,0.011812027,0.05153457,-0.0021847857,-0.03264255,0.017037196,0.028018445
0.03446472,-0.011202545,-0.0154281715,-0.023361078,-0.036481835,-0.039470505,-0.013871629,-0.011230612,0.02884579,0.039121583,-0.042818885,-0.015316338,0.0077493307,0.023204442,0.03576386,0.01616869,0.01668585,0.03640618,-0.03966383,-0.0031415469,0.040097494,0.016946927,0.00043870223,-0.004039894,-0.013484562,-0.025380338,-0.01656883,0.017295375,0.027850123,0.04252929,0.010283843,0.0055802274,-0.01523805,-0.04977505,0.02016635,-0.0018563012,0.0059354207,-0.05111373,-0.040010262,-0.019626558,-0.027251758,0.007511587,-0.03829725,-0.03987793,0.020878198,0.038403604,-0.03788722,-0.047489755,0.0024453641,0.0026523918,-0.03843447,-0.046275947,-0.042431545,-0.04290711,0.0061965208,-0.04874327,-0.018336184,0.00533395,-0.025459953,0.057353396,0.00232414,-0.0012118964,-0.0021724796,0.044802595,-0.044882428,-0.07117655,-0.036290944,-0.04253302,-0.017942403,-0.00741948
0.033402666,0.009470323,-0.0022711018,-0.0085307285,0.01830153,-0.03519568,-0.012624759,0.008993894,0.017913952,-0.030918166,0.0036319343,0.020473722,0.011468634,-0.038721755,-0.004636737,0.024012093,-0.011676148,0.0064839385,0.023596669,-0.02200475,-0.04036146,-0.030014198,-0.0076215253,-0.022424733,-0.04468636,-0.036799468,0.008796983,0.018397426,0.043976564,-0.013630753,0.004551606,0.028266145,0.018003372,0.037764005,0.033942245,-0.011456436,-0.049041737,-0.0023566731,0.013709012,0.015969478,-0.010362426,0.005583399,-0.066660844,-0.015182452,-0.0014890289,-0.00328375,0.022766607,0.01050696,0.00976357,-0.011191674,-0.034135763,-6.6524895e-05,-0.0071724514,-0.023144335,0.0056426777,0.0266655,-0.04619805,-0.033896394,-0.03682748,0.025559245,0.033256553,-0.0024267654,-0.033776414,0.01275497,0.023975821,-0.014821223,-0.0055359094,0.03886623,-0.0101598585,-0.034294847
-0.02915474,0.029375792,-0.02574844,0.036957063,-0.03752436,-0.056847554,0.03811582,0.028237823,-0.010630825,-0.026288731,-0.04820169,0.021669688,-0.019734519,0.030133512,0.009843312,-0.03708161,0.0072023664,0.018975763,0.009833262,0.037062228,0.008143122,-0.022845877,-0.041706014,0.016900027,-0.03344256,0.020943293,-0.00011954501,-0.008764053,-0.014982982,-0.026972083,0.01907132,0.020992713,0.014645476,-0.021904197,0.0020282783,0.026136657,0.006561575,-0.007478059,-0.037725944,0.0024503306,-0.032512624,0.034395028,0.0066472795,-0.037626818,0.01607063,-0.044309452,-0.055997025,-0.015914507,-0.02140326,0.03867682,-0.019509947,-0.008191539,-0.052850876,0.054367658,-0.027200654,-0.026916478,0.05203734,0.0004422222,-0.0004840179,-0.033139434,0.02221037,-0.013048151,-0.0093030175,-0.008755877,-0.007360772,-0.033899184,0.022187198,0.01166677,0.051761568,-0.04345639
0.054165035,-0.002307811,-0.03240915,0.040521465,-0.05738133,0.01735268,0.006292876,0.03209612,-0.024367724,0.0034274235,0.017914023,-0.04932521,-0.0021161423,-0.010691599,0.021040782,-0.034562327,0.040202674,0.012202836,-0.048732802,-0.024522908,-0.03632193,-0.011839479,0.0075585945,-0.012233908,0.010409265,0.031123538,-0.06465319,-0.021759307,-0.04532497,0.00926303,0.02640366,-0.03342577,-0.005065017,0.041784123,0.03401667,0.040110685,-0.024460407,-0.06651007,0.018053835,-0.018885877,0.029644616,0.03833051,-0.038948245,-0.02952932,-0.016408363,-0.008567521,-0.04287987,0.010233637,0.04146499,0.017082317,-0.0495692,-0.048659086,0.016508639,0.009753934,-0.046385054,0.019678792,-0.02102926,0.029273497,-0.028670011,-0.039119087,0.0048996704,0.01837131,0.018286053,0.027212305,-0.015137207,0.022988863,-0.038931098,-0.007483038,0.0097919535,0.039089736
-0.0035099387,0.041826636,-0.008263751,-0.02400006,0.027051976,-0.03446038,0.026972625,0.024581224,0.06290423,-0.0028843407,-0.032832276,-0.023370253,-0.0020648108,-0.0052172546,-0.022399109,-0.045719404,0.0030915167,0.037791606,-0.033141367,0.011945436,0.022918578,-0.0034632424,-0.03433725,0.026379652,-0.03261811,-0.033630945,0.036317274,-0.02012876,0.019160984,-0.029400803,0.011469334,-0.027859563,0.005790815,0.02338148,-0.01609846,-0.028500121,-0.003848866,0.027333315,0.010467117,-0.037161008,-0.024256265,0.023013696,0.059578836,0.033263426,0.04250639,0.047115732,-0.02980806,-0.01110113,-0.057706412,-0.019133843,-0.050401997,-0.0038121992,0.032509565,0.0286332,-0.009450633,-0.017864678,-0.00048270935,-0.019843372,0.0452105,0.061565574,0.01789144,-0.042118445,-0.005204736,0.0059589217,0.027297748,0.041871626,-0.052846283,-0.039958954,0.00068636966,0.023803553
-0.026642373,-0.023081813,0.021065751,0.018060206,0.005784723,0.04137103,0.035465784,-0.009646655,0.017018206,0.012267029,0.017916828,0.0031757564,-0.014383277,-0.039935935,-0.033289444,-0.051809814,-0.007968788,0.0010512063,0.025857031,0.008946045,-0.021763979,0.032809097,0.014580488,-0.027023995,-0.002093655,0.0382953,0.030342663,-0.025223415,-0.041080974,-0.021552624,-0.045725666,-0.01635381,0.0122558065,0.023629745,-0.0067395964,-0.003702826,0.03154746,-0.012740217,-0.026217481,-0.0059698867,0.045340702,-0.0027965666,-0.0035342174,-0.025297143,-0.034161285,-0.045405526,-0.016323788,-0.009856618,0.020238765,-0.01531827,-0.023799902,-0.004952651,0.002861879,-0.04931817,0.014483452,0.06391049,-0.049096793,-0.01800462,-0.014420557,0.056972064,-0.023871154,-0.008802684,-0.007787923,-0.04318818,-0.008635037,0.035465244,0.015013988,0.005797964,0.020317988,0.004258882
-0.020192526,-0.044608235,0.024545647,-0.017941749,0.011395425,-0.046505075,-0.042383246,0.022335785,0.038380723,-0.015973547,0.030209905,-0.022946546,-0.015552675,0.00088452594,0.045197353,-0.046222445,0.0036982603,0.022652013,-0.0072470834,-0.017522559,-0.05237134,0.041483562,-0.007074872,0.06426628,0.006523415,0.000752233,-0.042067762,-0.021584097,-0.004910216,0.022236196,-0.008605707,0.02123031,-0.010308756,-0.063803405,-0.0075279647,0.030091092,-0.044309646,0.02121661,-0.017331816,0.034236025,0.04324232,0.032771576,0.015345756,-0.028130148,-0.035387017,0.03955403,-0.07745518,0.018417971,0.022513308,0.0041128867,-0.0045648566,-0.037546054,0.023039045,0.04649455,-0.019882454,0.0118457945,-0.008594099,-0.046799693,-0.011465554,0.00571623,0.010153141,-0.015378821,-0.013322926,0.028595546,-0.0045538987,-0.009398823,-0.010320508,0.012152904,0.025537146,-0.013487285
-0.03721511,-0.003144952,-0.012034815,-0.02274045,0.034974635,0.023489006,-0.04021531,-0.026538756,0.029155208,-0.00803101,0.046959396,0.009052386,0.03196832,-0.032336555,-0.020794665,-0.020541029,0.018548172,-0.021027284,-0.016330177,-0.030782398,-0.0021623878,-0.05098848,-0.0079966355,-0.02116389,-0.04245733,-0.03104367,0.04449384,-0.0063776984,-0.00022621427,0.019159682,0.036125973,0.055391606,0.014179925,-0.0006984283,-0.02993393,-0.026055163,0.025712758,0.021501929,0.0052114306,0.020845093,0.008636199,0.04921859,-0.051993098,0.05961923,-0.051176302,-0.039406233,-0.022659913,0.018678334,-0.006545527,-0.004369292,-0.0039411928,0.010009756,0.015166168,0.011644454,0.032970138,-0.012029899,0.02850184,0.006173458,-0.04579258,-0.016930036,0.04118781,-0.030286329,-0.002794481,0.019100726,0.027073568,-0.011269322,-0.008988239,0.034535736,0.030594029,-0.04036321
-0.027351031,-0.00245586,-0.023084609,0.032629028,0.0056195436,0.0352368,0.024700828,-0.008863967,-0.03269382,-0.043826573,-0.019337969,0.040574517,0.00021670616,-0.00045728238,0.02148252,-0.0063388087,-0.01616603,0.009585236,0.06023705,0.004116763,-0.0005371339,0.0046354737,-0.022991395,-0.009367746,-0.021168144,-0.006374467,0.031582844,-0.008078079,0.020791136,-0.01568935,-0.0057795877,-0.0015808854,-0.038242187,0.012833242,-0.03680373,-0.004994672,0.027062204,0.015675267,-0.035902523,0.0047739283,-0.026610956,0.029434856,-0.019167703,0.011950627,0.018260013,0.023053344,-0.042608496,0.0153907845,-0.0033082697,-0.032082062,-0.051365487,-0.03679608,0.009676122,-0.024522027,-0.025534803,-0.05432399,-0.025781428,0.016133606,-0.048156895,-0.00808262,0.014883449,-0.0389898,-0.012062857,0.03248229,-0.04156892,-0.03594263,0.0037047807,0.025294326,0.024886439,-0.015597472
-0.0030467715,0.015013846,0.015261226,0.023987664,-0.0051397183,-0.017559942,-0.045441512,0.0068885363,-0.008966335,0.004357075,0.026475927,-0.012972694,-0.018873097,-0.032363918,-0.036918305,0.01893476,-0.04589699,-0.045193356,-0.009143192,0.05479243,0.02515276,-0.06547551,0.018681837,0.051805727,0.021699095,-0.013885026,0.0071831285,0.03774778,-0.0169037,-0.04788964,-0.013044296,-0.016788969,-0.0004727397,-0.024408288,-0.0011632328,0.011413019,-0.009153938,-0.022478139,-0.014255048,0.0026247185,-0.005952591,-0.02048646,-0.021802852,-0.008160816,-0.030489467,-0.00041035912,0.008101569,0.025835427,-0.017032199,0.013350911,-0.04842809,-0.013477995,0.0028603685,-0.0071337707,0.043831855,-0.053076312,0.027954984,-0.03249279,0.003411097,-0.03845872,-0.025612146,-0.0005269504,0.017918313,-0.01809932,-0.055053715,-0.0109374095,-0.009329795,0.031937778,0.011454551,-0.022013962
0.0069818366,-0.048457853,-0.010361188,-0.036873877,-0.039162703,0.02396868,-0.0246466,-0.019575264,0.0059584095,-0.0140820155,-0.045468487,0.040656157,0.01440497,-0.006686775,-0.026761454,-0.019997535,0.0004615767,-0.04770175,0.022230461,0.039612927,0.0019207057,-0.027940568,-0.044740066,-0.03814494,0.039304234,0.027016236,-0.0025253699,-0.049958356,-0.03846452,-0.051232032,0.041607548,0.03370147,-0.03310351,0.014320362,-0.045905534,-0.029872667,-0.02016686,0.014206181,0.024371844,0.0071823103,-0.021560272,-0.07707703,-0.027203344,-0.0013954018,-0.0037398792,-0.047487702,-0.0172571,-0.025514046,-0.044606533,0.0016072142,0.006948675,-0.024275245,-0.021667585,0.020619558,0.02009111,-0.028554326,0.01893466,-0.017859671,-0.0039920146,0.022737877,-0.043668095,0.0028939897,0.00919227,-0.022203002,-0.0005219153,-0.02774829,0.03710351,0.02352447,0.014554693,-0.01298129
-0.00034778318,-0.0440025,0.021443024,-0.028113298,0.004128612,-0.012867808,0.029727966,-0.028728154,0.047738597,0.023070699,0.03750945,0.012072159,-0.053885307,0.03058512,-0.0025139556,-0.062496424,-0.031203888,-0.021108868,-0.031866897,0.027788399,0.027895061,-0.016439669,0.02988315,-0.015651943,0.019057097,0.019768763,-0.0044570644,-0.046830386,0.018095763,-0.03410735,0.04089196,0.015363775,0.025810784,-0.0061888136,-0.010197719,-0.029302485,0.020241069,-0.006251073,0.026361153,-0.022339616,-0.028316863,0.009973714,0.054414973,0.028605863,0.05243266,-0.019420829,0.035073,0.04223281,-0.0069045844,0.018616008,0.07071807,-0.059524823,-0.007319528,-0.029694289,0.014357091,-0.02731338,0.04228401,0.055102177,0.02526327,-0.022879614,0.02249035,-0.037902083,-0.0020473206,-0.036587372,-0.026885917,-0.02172319,0.006782695,0.015348482,-0.035020452,0.026684092
0.034832954,-0.03157935,-0.023048613,-0.02588486,0.016920518,-0.053214364,0.032617427,0.027330162,0.04776262,-0.013484101,0.050916497,-0.0069652814,-0.036428172,-0.002442869,0.041850157,0.0037654652,-0.01489661,0.029489307,-0.03969902,-0.039971218,0.03616207,0.048579678,0.016409542,0.036914285,-0.0012598737,0.05411451,0.0015505286,-0.011880235,-0.019382134,0.023898901,0.020512963,0.01447301,0.03562843,0.0013583683,0.02514453,0.0015660517,0.042651843,0.00087687507,-0.007309549,0.009076685,0.056840137,0.010874311,-0.015787201,-0.007837371,-0.010662468,0.0081629045,0.033097822,-0.016054686,0.003242083,0.041100916,0.019097174,0.01765248,-0.01612762,0.011293398,0.048514202,-0.0073978156,0.060554262,0.024345571,-0.044531807,-0.02193052,0.03967214,-0.0017881404,-0.014802792,0.0016318508,0.036986772,-0.025489178,-0.04864354,0.03532398,0.035934713,0.029997593
0.037777234,-0.026105981,0.044133566,-0.012125152,0.024159811,-0.004690497,0.029951014,-0.030282168,0.00026999897,-0.014169225,-0.0015262442,-0.019616613,0.014740728,0.027178515,-0.0028109623,-0.007063283,0.0030744977,0.029356385,-0.002760917,-0.049073648,-0.046156693,-0.022976935,-0.0006722966,0.02304878,-0.007912145,0.03134886,0.042931188,-0.020490913,0.009437932,-0.0409612,-0.024757814,0.034305196,-0.029116353,-0.062630504,-0.017888157,0.016829047,0.016957432,0.006562025,-0.01074904,0.012912109,0.018081784,0.00081294123,0.063647956,-0.030209634,0.04018321,-0.024094837,0.011655167,0.0119377,-0.0315761,0.0032351508,-0.04228994,-0.033981465,0.037959576,-0.045095067,-0.009338608,-0.037969805,-0.02491015,-0.002403756,-0.0014009386,0.04742479,-0.00065582845,-0.02214984,0.04216941,0.0021430051,7.608097e-05,0.018119711,0.015574007,0.009531508,-0.005065708,-0.042296685
-0.030015796,-0.017725421,0.029039443,0.03188413,0.023482647,0.0019690935,-0.014391178,0.046743877,0.013202487,0.005117827,-0.050084457,0.025777355,0.019319313,0.01714526,0.0453342,-0.0073288013,-0.0047133258,0.00995822,0.027913176,0.017847093,-0.024292244,-0.017408581,0.0010970569,0.021639755,0.017951043,-0.00094422407,-0.013740441,-0.022312276,0.0021667026,-0.011101842,-0.0041260067,0.01819492,-0.008567533,0.045798276,-0.005185244,-0.0002950452,0.02432196,-0.008528013,0.035576086,0.0038312995,0.0041494337,-0.030447423,-0.017267697,0.058197647,0.0032212972,0.03550695,0.024469322,0.04931588,-0.043770272,-0.002206015,-0.0066695563,-0.024363957,-0.0242538,0.0034570545,-0.0055640466,-0.024644824,-0.0047677597,-0.013358493,-0.04701012,-0.04542359,-0.014166885,-0.0314551,-0.004519738,-0.006141548,0.014292658,-0.051925328,-0.0028347897,0.0272832,0.045925327,-0.05811929
0.0062433784,0.018370997,-0.021721963,0.029077416,0.02600363,-0.03324606,0.019879006,0.021545686,0.029584436,-0.018033864,0.015448576,-0.010151535,0.06609135,-0.014022587,0.030959133,-0.014011966,0.04044317,0.0004238815,0.013908268,-0.004730553,0.02073576,0.022869991,-0.013344651,0.014697764,0.04568552,0.0071946466,0.023416657,-0.03893461,0.019946454,0.019464703,-0.016513312,0.004983049,-0.039802928,-0.011712727,0.030603876,0.010130301,0.005818538,-0.02413784,0.0025299948,0.009169485,-0.006456218,-0.0139961615,0.046785504,0.05169204,0.020931585,-0.020414652,-0.027420757,0.015669843,0.041329224,-0.022503354,0.025324024,0.02546672,-0.025378168,-0.018730331,0.004672776,0.023909913,0.026985304,-0.0055217682,0.010648515,0.0013247809,0.045381572,-0.010744267,-0.00012978014,0.025822943,0.029545464,-0.009323222,-0.027587377,-0.0029324281,0.018526508,0.029310606
-0.06284007,-0.038654126,-0.04658832,0.001306133,0.018484341,0.011127871,-0.016340816,0.058575068,-0.00060991145,-0.01757619,-0.018166715,0.03791106,-0.028489416,-0.014298228,0.060111962,-0.032638077,0.037831064,0.009315094,-0.02694809,-0.009074548,-0.009075185,-0.039120663,0.03786858,-0.026640017,0.023977363,0.046093307,-0.030751236,0.0037709584,0.0030920298,-0.016966155,0.038145605,0.00079027686,-0.024193576,-0.015743997,0.014955671,-0.01284466,0.03766741,-0.038000107,-0.031155212,0.0015616951,-0.039088618,-0.009768664,0.0284411,0.03790326,-0.033447344,-0.0149111245,-0.022285245,-0.027666517,0.044862285,0.022049898,0.01498338,0.02524651,-0.03955854,0.00431139,0.040463865,-0.014378803,0.0065211207,0.00869277,0.056170244,0.0064004604,0.049528215,-0.025009936,-0.02289228,0.018623894,-0.0031839535,-0.010230661,-0.03869164,0.046616424,-0.004663923,0.018320994
-0.025200263,-0.021546615,0.0030963477,0.053995762,0.00689813,-0.014058211,0.0065075844,0.03580901,-0.021217164,-7.14697e-05,0.010615043,0.059455685,0.020707905,0.02347007,-0.008475578,-0.0041482146,-0.05208221,-0.009535234,0.036144145,0.024002157,0.034326266,-0.029570963,-0.005955146,0.03447621,-0.0460202,0.0063694143,-0.06368803,-0.0033286528,0.03331012,0.024858143,0.04157045,0.046970844,-0.056217097,-0.009627732,-0.014395992,-0.03361009,-0.020083414,-0.06484938,-0.0025151256,-0.04497791,-0.05519258,0.021564202,0.009438472,0.014363365,-0.041720137,0.007754464,-0.020831952,-0.026368927,-0.016661467,-0.013385112,0.00074906595,0.0016803576,0.0054216012,0.022873092,-0.0023946431,-0.042054255,-0.037158966,0.03137256,-0.017740512,-0.03072242,0.014161653,-0.063404255,-0.043052986,0.019350786,-0.038207464,-0.003931665,0.040575758,-0.010181364,-0.004094071,0.00064092537
-0.04930064,-0.026557349,-0.0068181767,0.037349153,0.067014985,0.01309061,0.00871688,0.013237817,-0.019932397,-0.060074918,0.012643982,-0.010033585,-0.01660417,-0.031917937,0.02729045,0.034140006,0.025241911,-0.01675492,-0.011112262,0.011672064,0.0032381164,-0.012257425,-0.01825939,0.011362761,0.03460057,-0.012235852,-0.034138627,0.05336772,0.026674826,0.061569344,0.013435757,0.045353346,-0.023885807,0.031849094,0.022608813,-0.027231267,0.019797899,0.03737474,0.03113891,-0.032516375,0.0053057256,0.036519587,-0.02151058,-0.016390305,-0.02395492,0.028986303,-0.028215678,-0.009043649,0.012673739,-0.037711397,0.03364912,-0.025147691,0.00035729966,0.012065433,0.0039442973,-0.026811201,-0.028630868,0.0016875041,-0.0037190847,-0.018907264,0.02136725,-0.035484456,-0.017196426,-0.0397029,-0.03480967,0.0094570955,-0.002338695,0.009367489,0.018523742,0.020130232
-0.033057466,-0.04422869,-0.037288725,0.0052245697,-0.023732118,0.00791436,-0.010407826,0.035364866,-0.036942318,0.037019078,0.034190293,-0.01718198,-0.024416532,-0.039485823,0.013376358,-0.0350219,0.002867799,-0.031126838,0.012413676,-0.04249198,-0.011371612,0.022554273,0.049188178,-0.005964215,0.011959663,-0.03890238,0.014763713,-0.008273849,0.026222425,-0.04712929,0.0028848469,-0.008424093,-0.020685498,-0.021965254,0.046841867,0.005134167,0.030580921,0.033444308,-0.0060460423,0.03132598,0.06559895,0.025242608,0.052644838,0.009175124,0.025932632,-0.006900272,0.022261044,0.014610853,-0.02043803,-0.01615626,0.023917573,0.025919346,0.012413899,0.05167648,-0.02279672,-0.0012502844,-0.031746957,-0.026929358,0.021409333,0.017722918,-0.027175216,-0.003056751,-0.01463939,-0.028319286,-0.019957617,-0.02432313,0.035265025,-0.029961104,0.0016527039,-0.023865016
-0.012710723,0.030785754,0.008562205,-0.055208817,-0.014237807,-0.0041099815,0.02228349,-0.036796726,-0.040816486,0.025757771,0.0466869,0.00016589081,-0.013470958,0.019335486,0.024744654,-0.01656712,-0.027503738,-0.032731082,-0.032973167,0.040275645,-0.038380004,0.015977567,-0.012134846,-0.014999709,-0.022881318,0.00681614,-0.02805866,-0.032072086,-0.010424212,-0.028994434,0.021948196,-0.03152054,0.035734124,-0.00013039954,0.009328946,-0.039942726,-0.01505297,0.047110077,0.007917866,0.0568528,0.038730554,-0.037665837,0.024008598,-0.01590268,-0.022611808,0.001590925,0.023651207,-0.01607042,0.03863709,0.0069790063,0.023936342,0.015391123,0.0066849575,-0.007947111,0.0035529523,-0.043560263,0.049433537,-0.026705964,-0.0022424571,0.04487037,0.0034552398,0.018352909,0.008576419,0.031165715,-0.021370145,-0.06681925,0.01270577,-0.011908698,-0.051003158,-0.016688831
0.03714203,-0.019096887,-0.018078864,0.002170037,0.04214354,0.05487964,0.056403585,-0.010768199,-0.009455395,-0.013239055,-0.048724703,-0.017886514,0.0151526965,0.023485757,0.009828376,0.0099359965,-0.04115976,-0.03456146,0.049907424,-0.024852557,-0.037208643,0.033083227,0.006151091,0.044717595,-0.018299801,-0.01219848,-0.023040012,0.0049603367,0.02489065,-0.007841394,-0.0051914793,0.035194077,0.026397526,-0.032468066,0.024237873,0.0030587993,0.014805076,-0.023956705,-0.008641016,-0.024086336,0.016201138,0.017045615,0.011662356,0.03800705,0.027190506,0.028903699,-0.00092588656,-0.012858473,-0.014160251,0.03458304,0.031202346,-0.035822615,-0.038792994,0.0046129883,0.06508136,-0.0011626225,0.046476506,0.013696178,-0.03838366,-0.022697411,0.033784594,0.007939042,-0.008120222,0.03873587,0.009943747,0.04371486,0.05579253,0.00056633266,-0.0105518205,-0.04012547
0.0054405243,0.026519287,0.03340626,-0.03204078,-0.0025645574,-0.04436227,-0.015480951,0.020244028,0.028345183,-0.015427405,0.014357656,0.0037775638,0.006490039,0.018336194,0.002380887,-0.0054565137,0.025534406,-0.044377625,-0.011267258,0.034214955,-0.00954793,-0.03299552,-0.049841873,-0.02491423,0.01449191,-0.010657856,-0.05132367,0.0650091,-0.034797583,-0.013693086,-0.01148119,-0.047588024,0.0068535362,-0.023361184,0.03532721,0.0037490665,0.021232657,-0.018350828,-0.010229498,0.008936919,-0.03022091,0.0129805375,0.020337991,-0.023746932,0.035489824,-0.006397224,0.028870903,-0.03758822,0.024864916,-0.02610346,0.030105853,-0.035500467,-0.012022806,-0.050068643,-0.051551744,-0.03878837,-0.002773996,-0.005217997,0.024439553,-0.04301098,0.014169373,0.023841603,-0.0034086125,0.044613745,0.017262354,0.03894374,0.0004529113,-0.0030950888,-0.056401197,0.0111155845
0.000406862,-0.012874254,-0.008894108,-0.019133782,-0.0120608695,-0.008966761,0.023535231,-0.0010015682,-0.059134226,-0.0040961993,0.045503914,-0.019956773,0.034030966,-0.003768114,-0.018180452,0.036395296,-0.047448587,0.052915934,0.014398544,0.0018054127,0.050053988,0.020349348,0.038639694,0.066769496,0.029862944,-0.034910783,-0.009361197,-0.0087509,-0.04694096,0.042421676,0.026328016,0.015501152,-0.026612714,-0.031722397,-0.025480917,-0.0017785053,0.002952561,0.003086226,0.0075106914,0.011219994,0.037427023,0.03840673,0.017705675,0.012191209,0.005907258,0.040958963,-0.0065018055,0.0063323295,-0.041500226,-0.03866962,-0.0127579225,-0.024764452,0.028842175,-0.061443284,0.006211505,-0.0021818578,-0.03419057,-0.018793639,-0.006179982,0.03532411,-0.06428784,-0.020828595,0.03330365,0.014067316,0.030206185,0.017870262,-0.05163547,0.015811333,0.038665824,-0.02620155
0.011052339,-0.012048324,0.022835897,-0.017498905,0.0035874075,0.0082856575,0.016739082,-0.03846707,-0.035341825,0.026203278,0.041378815,-0.0035849176,0.020564795,-0.027968595,-0.0015132877,0.02953397,0.020450331,0.026997581,-0.011600058,0.039371155,0.018266803,-0.01487532,0.0061013796,0.06662326,0.0016313477,-0.012033188,-0.014733125,0.04115216,0.041202433,-0.015626414,-0.030257061,0.030200347,0.04912736,0.00747478,0.007735194,0.022437844,-0.03941166,-0.013567467,0.0010011209,-0.006858651,-0.03579654,0.07214864,0.021249296,-0.009718524,-0.022101784,0.044511385,-0.00974174,0.00690969,0.018812736,-0.020530103,0.04679962,-0.028486729,-0.018708061,-0.02208158,0.014455678,0.0031283945,-0.012939766,-0.0024495714,-0.030998966,0.007267135,-0.026949408,0.017996976,-0.035161614,-0.033923995,-0.03769691,0.018822445,0.011677655,0.032206178,0.036509953,-0.054706912
0.040188707,-0.020865431,0.0069985203,-0.0081296405,0.039650608,-0.02081137,0.056645643,0.031401124,0.022808438,0.023045687,-0.016357036,0.012809115,-0.0404047,0.029738393,-0.031756535,-0.0038435075,-0.01864378,0.07038133,-0.04897905,-0.010786395,-0.046604753,0.01249321,0.029327858,-0.008416962,-0.023125106,-0.022042513,0.014363363,0.02586137,0.020874804,-0.01206271,0.022898292,-0.030506976,-0.015400459,-0.058727372,0.028865907,0.00032718357,0.023630759,-0.019807477,-0.038400147,-0.02058741,0.042646024,0.009199214,0.0459857,-0.07146033,0.04521497,-0.008172149,-0.017121002,0.008737244,0.018498693,0.022942772,0.0031245525,0.00440554,-0.041464563,-0.015356728,-0.026917351,-0.04352472,0.045988735,0.023131108,-0.0072019584,0.010038552,0.028465234,-0.054825906,0.010023006,-0.032592718,-0.0026580524,0.053714395,-0.009086673,0.033257227,-0.038308326,-0.008325703
-0.009395769,-0.021043096,-0.017097231,0.015918264,-0.012862907,-0.046244916,-0.06381388,0.025090363,-0.009450922,-0.025246775,0.006664174,0.01860886,0.038654175,0.021635294,0.052219745,-0.020494778,0.009614169,-0.021990865,-0.011199271,0.005355944,-0.0032344928,0.026167735,-0.0025430198,-0.00036582293,-0.031441342,-0.05541667,-0.015463136,0.02155396,0.014831195,0.0054746135,0.0072514727,-0.006492944,0.060016,0.026665317,-0.025447607,-0.015396912,-0.009045932,0.062496487,0.00063772727,0.06517086,-0.041065216,-0.036582313,-0.016965786,-0.04258259,-0.024010343,-0.00025319337,-0.05514284,-0.015589465,0.029364849,0.035159275,0.05115251,-0.028457617,0.013072372,0.012856472,-0.0018547524,-0.012270724,-0.035361435,0.019481152,0.039666194,-9.3972594e-05,-0.021100597,-0.040212307,-0.019238193,0.036585733,-0.030685881,-0.028307894,-0.021275055,0.035769336,0.019502135,0.023069022
0.0067039155,0.010852276,-0.013954671,0.0016171309,0.03612129,-0.023587525,0.014700589,-0.01840925,0.007972987,0.03159289,-0.026022632,0.0035442219,0.048757423,-0.021247711,-0.030010007,-0.014106689,0.038899373,-0.034157373,0.026446462,-0.024523292,0.006941853,-0.02079145,-0.011367364,0.055648614,0.020292375,0.04093389,-0.0021694994,0.018588388,0.012312293,0.01648009,0.015031763,-0.03407338,-0.019438596,0.017392574,-0.033456888,0.04688985,-0.0014132366,0.029744701,0.010952107,-0.0021999786,-0.010676697,0.0007853686,0.023133205,-0.027325004,-0.017368432,-5.9539012e-05,0.018884722,-0.056277905,0.03501461,0.018900756,-0.0020745806,-0.027556757,0.048060227,0.03768945,-0.008396189,0.05283626,0.029068267,0.050305225,0.026788322,-0.05943474,-0.037590567,-0.004815771,-0.00475654,-0.008072521,0.03741976,-0.023214338,0.003954842,-0.008706913,0.019554975,-0.049303107
-0.036404584,0.00066708727,0.0018874026,-0.06364073,0.033819925,-0.039704554,-0.057498783,-0.03414837,0.002768409,0.018747248,-0.013007209,-0.019237695,0.016950972,-0.02653851,0.041196045,0.016142271,0.0053185318,0.028896179,0.023542615,-0.007457713,-0.025841983,0.018620556,0.0013007069,0.02762519,-0.011953689,-0.001975956,-0.06915996,0.03266807,0.0464629,-0.045722093,-0.046565533,-0.00977347,0.00017337097,0.024809686,0.004100885,-0.0028801565,-0.0038609812,0.022010174,0.03286832,0.011926227,0.030043215,-0.02280706,-0.026872698,-0.023260085,-0.012489656,0.025249032,-0.039266467,-0.0021819423,-0.018042602,0.04477773,0.008503034,-0.016756916,0.004904521,0.011849862,0.013137072,0.022014799,-0.015031199,0.05319547,0.0010321836,0.04335883,0.032480516,-0.0009515113,0.0456482,-0.014915109,-0.00012319126,-0.0156155825,0.021729568,0.05355333,-0.025011787,0.04578742
-0.0022856279,-0.04355428,0.033416085,0.022768084,-0.020840991,-0.008342572,-0.0038205944,0.0021620328,0.033455648,-0.017345762,-0.021847049,0.0028253414,0.0331454,0.0070094476,-0.040394623,0.019728445,0.035406277,0.03846878,0.036878157,-0.007966731,-0.013037995,0.0119726425,0.010911038,0.013063379,-0.019708222,-0.03106588,0.024752662,-0.003138099,-0.036939383,0.015439464,-0.030672746,0.002255749,-0.0025982384,-0.0067267427,0.05589376,-0.061321113,0.008861665,0.0002986326,0.049188342,-0.022405162,0.03686882,0.01122489,-0.02044733,-0.021080416,-0.0054800985,-0.0018481268,0.0020765513,-0.020323014,-0.038611162,-0.00791406,0.02762377,-0.006886427,-0.0024394486,0.0015505444,0.03632194,0.036482386,0.015766622,-0.0037149405,0.02245051,-0.018875994,0.0024583736,-0.01418956,-0.03723199,-0.030285563,0.009509305,0.026479889,-0.012830217,-0.015958741,0.0061545363,-0.019363238
-0.0104057295,0.0122854905,-0.03242144,0.008956464,-0.0064746374,-0.029327217,0.045580126,-0.018500952,-0.00059784116,0.051393118,-0.030393995,0.02889165,-0.03684831,-0.042753946,0.015586421,-0.017229741,0.020148942,0.021527225,-0.035352655,-0.050853018,-0.011621501,0.0177566,-0.02504846,-0.010297781,0.036657184,-0.0060914364,-0.019253438,-0.023384232,-0.055163417,-0.012116625,-0.0055911504,-0.019499965,0.022098195,-0.028090077,-0.054755293,0.032200884,-0.024331167,-0.020079898,0.059972025,0.039503023,-0.030367667,-0.03166632,-0.019298399,-0.030012613,-0.04709806,0.008213299,0.0421992,-0.0406158,-0.030482031,-0.011249777,0.0038453245,0.014373996,0.031181924,-0.018251976,-0.016193215,0.009174774,-0.020052876,0.00968512,-0.04540289,0.01817303,0.02488397,0.00620108,-0.014821957,-0.0069143055,0.03194191,0.014174266,-0.012138579,0.010576376,0.007816214,0.0107611455
-0.02547358,-0.021256637,-0.059652656,-0.043212596,0.022405282,0.03711955,0.022883533,-0.026034724,0.040008113,0.014475973,0.032614153,0.0019290315,0.0034478367,-0.011022119,0.029306298,-0.012208743,-0.012401433,0.06594306,-0.032305628,0.010618955,-0.014018389,0.08907203,0.007217978,-0.023262901,0.04747308,0.056296173,0.04965249,-0.004439484,-0.010953407,-0.0036668119,-0.003880115,0.021905817,0.00053273427,0.020686748,-0.029565813,0.030401312,0.04719035,0.031610418,0.011501897,0.0021706014,0.084276766,-0.012086066,0.052689504,0.02370061,-0.009286165,-0.030878063,0.045458347,0.016773704,-0.02342332,0.101177566,-0.0029190322,0.004122305,-0.052459054,-0.049129948,-0.013519266,-0.00750766,0.039063353,-0.04502425,-0.028836608,0.050936807,-0.0354675,-0.034800917,0.060140457,0.02885455,0.030052716,-0.009277124,0.022749266,0.030194452,0.06944739,0.025643563
0.0052956967,0.0419952,0.01584942,0.034545913,-0.039344713,0.0492568,-0.0029935942,0.030395137,0.0040786327,-0.04715818,0.045423068,0.022361865,-0.028391978,-0.034404427,-0.0123958625,0.04417081,-0.034724534,-0.018181264,0.04757534,0.016481029,0.026038483,-0.003283443,-0.027343724,-0.01926658,-0.017500143,-0.019158123,-0.0063365656,-0.02323113,-0.043173295,-0.06449326,0.043092895,0.0059563867,0.018158881,-0.012054585,0.04236611,0.042830303,-0.029985178,0.040584955,0.036806647,-0.012287897,-0.03460668,0.030917004,-0.0028514646,0.0096381605,0.020263832,0.034611776,0.022356637,0.03421728,0.03131355,-0.01681435,0.006940162,-0.002961873,-0.014807045,0.030473497,0.011136614,0.013537486,-0.03834769,0.016106002,0.024099305,0.053073786,-0.030144952,0.0065409234,0.007731045,0.006439674,0.01950614,0.049591083,0.034494575,-0.03451655,0.03155962,-0.009797557
-0.021142885,-0.029355226,0.038916595,-0.015443436,0.0045433175,0.056728326,-0.045854203,0.020749476,0.019958101,-0.04096184,-0.029087959,-0.020350143,0.008629729,0.030426372,-0.04836829,-0.00995987,0.0025365232,0.041495852,-0.018309245,-0.013665097,0.040008232,-0.029411254,-0.0028573466,0.026192112,0.03563943,0.0034768276,0.027116068,0.006754464,0.0054842415,-0.03707468,-0.033738367,0.0129627995,0.058200914,-0.013598221,0.00036256207,0.009880494,-0.017923947,-0.0074955015,-0.0331675,-0.033432834,0.020343622,-0.026575183,-0.029291345,-0.023379833,-0.0036463446,-0.04070052,0.0017169913,0.04311395,0.0310218,0.017027427,0.023045374,0.024736602,-0.03892491,0.0003137328,-0.013234673,0.039175432,0.013025868,-0.031316906,-0.023226107,-0.011522277,0.0013168468,-0.042743195,-0.027243413,-0.012924909,-0.0349104,0.0055437903,0.020612534,0.016468955,-7.688176e-05,-0.019598654
0.022951677,-0.0011391438,-0.028323691,-0.004707816,0.0146929715,-0.02084199,-0.028243259,0.027507229,-0.028537584,-0.03157334,0.034214493,0.032460775,-0.011805147,-0.00770143,0.035692118,0.0155051565,0.023234107,0.013794068,-0.035192814,-0.0064895707,0.0051994827,-0.03681236,0.0072852327,0.035663992,0.007484132,-0.001997962,-0.029941104,-0.012638858,0.0041434756,-0.032572944,-0.011669127,0.01167833,0.010946363,0.00021345261,0.019178204,0.007732417,0.006555737,-0.019841375,-0.02398627,-0.025627581,0.0067655123,-0.002375024,-0.019620823,-0.022907885,-0.035030458,-0.0015484806,0.02086198,0.01380933,0.0118165435,-0.05914721,0.009451113,0.03295995,-0.0464981,0.006805294,-0.0016085707,0.0059350687,-0.037580024,0.03675477,0.009073552,0.018302284,-0.016786853,-0.034768928,0.028826201,-0.00073968625,0.00500178,-0.022605235,-0.040714003,0.010903594,0.004206308,0.007083602
0.008522962,-0.045788016,0.0068472456,-0.021754289,-0.0300705,0.02731651,-0.0015959934,0.023493014,-0.019411933,-0.006669649,0.02753811,-0.02232222,0.0058295527,0.004083134,0.029865311,-0.03374094,0.010471294,0.05105877,0.0028510867,-0.012723286,0.039327834,0.018557435,-0.03072818,0.0100921085,-0.0145857595,-0.010524269,-0.0053357393,0.026598033,0.021574615,0.026653845,0.015514884,0.017497532,0.006200316,0.04388644,0.026140628,-0.02203668,0.008353259,-0.0434942,0.030174516,-0.0019840244,-0.021027837,-0.025287353,0.08169815,-0.026968425,0.011059689,-0.0039125117,0.061357737,0.04210216,-0.015447029,0.01613568,-0.001884271,0.03400913,-0.0251306,-0.012311424,-0.032579217,-0.032490484,0.04295204,0.019795826,-0.025482101,-0.004964915,0.026309475,-0.056186024,0.035011537,0.022851862,0.016618779,0.0060492936,-0.01890704,-0.029530456,0.025292836,0.0019989714
-0.014302889,-0.027688751,0.02105183,0.027059704,0.0131356185,-0.007902301,0.006486331,0.009980042,0.023735948,0.01618342,-0.005947079,-0.018884547,-0.003118755,0.0016488447,0.0028803123,-0.022132691,0.015055763,-0.016550358,0.020536195,0.014151657,0.009340761,-0.003460411,-0.009703027,0.019351553,-0.000117517535,0.04757833,0.043327533,-0.048585337,-0.013450714,-0.011321674,0.0064704707,0.05810896,-0.019035695,-0.03313405,-0.002152524,0.04968382,-0.056051854,0.004877052,0.020360637,-0.049034245,0.02387886,-0.039203886,0.005398726,-0.031048942,0.017656205,-0.001540871,-0.0021487656,-0.03536715,0.044563845,0.04887724,-0.027149724,-0.034376096,-0.043198712,0.005252189,-0.016434452,0.020996904,0.004227959,0.03487627,0.051210333,-0.010498532,0.020945806,-0.04419716,-0.011892444,-0.011879274,-0.017666992,0.03319045,0.00044474498,0.03259651,0.033337384,0.02561623
-0.009133334,0.00170825,-0.0075599207,-0.008120164,-0.036037065,0.035135914,0.030850934,-0.043062583,0.0072438987,-0.038941156,0.024087027,0.028533265,-0.014464521,-0.022208473,0.0023469373,0.0015550288,0.005563454,-0.027361985,0.02543933,-0.0041424325,-0.02618704,0.016928507,-0.003978909,-0.028322954,0.034378815,0.02480902,-0.04094646,0.013761816,-0.02450204,0.045935784,0.045773424,0.038335256,0.02343086,0.02901255,-0.004851429,0.0038081352,0.057283275,0.008643975,0.011689458,0.021765213,-0.020493334,-0.009766115,-0.011005958,0.006749852,0.016135411,0.020854985,0.006313894,-0.0010590644,0.0016786983,0.0031298876,0.020743506,0.010611731,-0.0019264278,-0.05945653,0.018855106,0.031040173,-0.014468341,0.03293057,-0.037264742,0.011429495,0.016650995,0.03067581,0.018886615,-0.023871996,-0.014443798,-0.040618,0.014575212,0.043695893,-0.00949044,-0.008427317
