0,1,2,3,4,5,6,7,8,9,10,11,12,13,14,15,16,17,18,19,20,21,22,23,24,25,26,27,28,29,30,31,32,33,34,35,36,37,38,39,40,41,42,43,44,45,46,47,48,49,50,51,52,53,54,55
-0.09114902,-0.04433615,-0.0011636157,-0.037847683,0.047344305,0.0019906359,-0.00042512163,-0.03637108,0.04146937,0.022505501,-0.04490643,0.088559896,-0.00090636883,-0.011786153,0.047754183,-0.07685131,-0.013316035,-0.00025470598,0.05887855,-0.026321359,0.032389972,-0.052487098,-0.033930253,-0.025315592,-0.026089072,-0.045079064,-0.01492851,-0.05573761,0.010569192,0.02194288,0.022488933,-0.030329686,-0.015645502,-0.026523165,-0.0030650306,0.007374311,0.050776515,0.055910565,0.024967046,-0.027501307,-0.0030506735,0.05495445,-0.047286205,0.014014331,-0.040856883,0.01646032,-0.03937002,0.074684896,-0.07664504,0.066460185,-0.015114561,0.03972343,0.054190855,0.011206712,0.0013183393,-0.06825756
-0.01702982,0.048580516,0.05677194,-0.0018975205,0.035647932,0.021299519,0.030531153,0.012215463,-0.019248608,0.032475907,0.010037098,0.004616615,0.030415962,0.035320893,0.0480756,-0.034826707,-0.013821315,-0.059598204,0.06968749,-0.06164837,0.019716,-0.035370354,-0.0030480805,0.054692075,0.026178697,0.07138135,-0.036143422,-0.050571524,-0.057625614,0.016479881,-0.054418962,-0.015060187,0.049882445,0.0529232,-0.064697035,0.009310447,0.029744804,0.021846171,-0.029174833,-0.029529229,0.055357136,-0.02374509,0.04338744,-0.005996939,-0.007860958,0.006871259,-0.023776915,0.04792538,0.0587898,-0.016031977,-0.08365625,0.06270653,0.06771593,0.00504326,-0.073420264,-0.039103013
-0.03945314,0.018106636,-0.022513872,0.05210118,0.019628134,-0.05133151,-0.08345476,-0.0020605535,-0.009793045,-0.062815286,0.008572752,-0.029173305,0.030319376,-0.079679705,-0.06620691,0.015450784,-0.05981557,0.04614412,-0.005465499,-0.06177012,-0.07711441,-0.048458934,0.0069910935,-0.05859538,-0.0012314601,-0.03440082,-0.08577228,-0.00026622316,-0.04721386,0.014916866,-0.006129087,-0.029936232,0.03460275,-0.012104623,-0.049029812,-0.014924645,0.030573597,-0.04492974,-0.055457715,0.04248807,-0.0372852,-0.0034265064,0.040969677,-0.0007735895,0.030632477,0.043619618,0.0026786379,0.026534226,0.050351605,0.000896309,-0.018614892,-0.05538761,-0.034206856,0.08919,-0.027525043,0.043508638
-0.046878565,-0.03031079,-0.053646293,0.018474923,0.06484312,-0.021673124,-0.013186341,-0.06600779,-0.034474373,-0.022252847,0.008448139,0.007031088,0.010184373,-0.033748813,-0.016101612,5.05828e-05,0.027530393,-0.0375511,0.039791193,-0.011374665,0.025277264,-0.104511715,-0.031187156,-0.045681488,0.031129831,0.048009522,-0.049925484,-0.05888768,0.037396464,-0.055238646,-0.008655154,0.03967902,0.09746655,0.062369887,-0.05155323,0.020931693,0.001696918,-0.024569014,-0.025444955,0.009740599,-0.0362889,-0.038424827,-0.0069007524,-0.030725354,-0.06862197,-0.0073914607,-0.01670522,0.07680218,0.030123232,-0.029903056,-0.012806565,-0.052551527,-0.037671346,0.065381706,-0.034418516,0.025499744
-0.010881049,0.08270205,-0.081489064,0.0020266506,-0.0037358548,-0.04645364,-0.0015264775,0.05624067,-0.030424774,0.002892855,0.0044360426,-0.08663443,0.03414462,-0.048339915,-0.009415312,0.040701058,-0.03295264,-0.0096854,-0.01949862,-0.0047602183,-0.037496503,0.0363053,-0.044134725,0.049970567,-0.040140513,-0.049582843,-0.0035609405,-0.07827115,-0.039838247,-0.030848706,-0.032717157,-0.06614508,0.007922299,0.036729477,-0.0028267337,-0.027893258,-0.058880825,-0.014095915,0.039810557,-0.009105639,-0.06414955,0.017472105,-0.07959295,-0.090709336,-0.04363357,-0.060756724,0.0031353212,-0.06353751,-0.0022470034,-0.03812472,0.0010842041,-0.06079212,-0.016286856,-0.027383467,0.031234222,-0.08424876
-0.03377252,-0.0071609668,-0.015661225,0.011613692,-0.013732327,0.0682675,-0.052748486,-0.02217498,-0.025949718,-0.04574861,0.014197606,-0.015069137,0.028799977,-0.045857556,0.043756098,-0.0067883697,-0.03353708,-0.0017314288,-0.049714584,0.021682274,0.02017052,-0.057491597,-0.08814326,-0.051572636,0.057894222,-0.066143975,-0.042051733,0.037125252,0.0062634666,0.019451613,-0.07239531,-0.022821646,-0.0063245515,-0.0015455968,-0.009403279,0.03171983,-0.019930234,-0.13332742,0.03758673,-0.039732005,-0.022548052,-0.10733148,-0.010683586,0.03788453,-0.006815009,-0.0149497995,-0.056385707,-0.05368909,-0.094871305,0.008468324,-0.05664521,-0.08731139,0.062675446,0.047685258,-0.022290742,0.034348913
-0.015337781,-0.0049849837,-0.038414452,-0.017566497,-0.043574758,-0.039680377,-0.040585373,-0.057016138,0.010458934,-0.011493523,-0.042208992,0.036452956,0.0015994203,-0.028506355,-0.0613828,0.033955075,0.0342519,0.005383407,0.009960021,0.033357035,0.0026618692,-0.113797694,-0.05442019,-0.022941802,-0.014984284,-0.0069668884,-0.056336377,-0.068200536,-0.02378313,0.0390889,-0.057440583,0.025643615,-0.008290371,0.024758255,0.055243663,0.09485045,-0.03400458,-0.005461988,0.05795078,0.030111305,-0.056056842,0.03335505,-0.0215973,-0.055007443,-0.048031565,0.025943948,0.007878604,0.011194165,-0.073179476,-0.020790707,0.044026043,0.07003701,0.043013908,0.017654553,0.008789971,-0.08513365
0.03339983,-0.04321752,-0.058760054,-0.043149516,-0.0803025,-0.0376454,-0.024571229,0.03621826,0.04063614,-0.009654654,-0.033619497,-0.03331643,-0.018816197,0.037888754,-0.057197474,0.011626124,-0.066059016,-0.082696795,-0.011858402,0.001987152,-0.0336094,-0.057129104,-0.10091586,-0.07051476,-0.034179136,-0.04136999,-0.07585386,-0.011488091,-0.12875777,0.003494358,0.030325728,0.016951386,0.054738913,0.037848998,0.06829629,0.048400335,0.057459507,0.0057032765,-0.00846673,-0.005964021,0.011398511,0.016831007,-0.079241395,0.03649605,-0.06955542,0.045902092,0.014427096,-0.009999724,-0.0026501913,0.007901612,-0.058395904,0.07015912,0.022564333,0.0441258,-0.061382413,-0.012955679
-0.0981643,-0.03842484,-0.022438345,-0.021694656,0.016801635,-0.039735083,-0.03424977,-0.0539105,0.070886455,-0.014806793,-0.030355558,-0.027764063,0.07579904,-0.049448486,-0.059986718,-0.029340968,0.025639005,-0.07308665,0.010229934,-0.01364005,0.011734259,0.045281067,-0.083922386,-0.011845001,0.00984388,-0.031321745,0.043941047,-0.005593097,0.0091162855,-0.07502147,-0.018060569,-0.07348232,-0.03860406,-0.0030700816,-0.013095921,0.0014241919,0.007565079,0.0029817347,-0.016664641,-0.05926771,0.11582143,-0.050787713,0.101405464,-0.03003819,0.026828475,-0.0402786,-0.0055085993,0.014601162,-0.014833494,-0.07351091,-0.036292717,-0.010326711,-0.031398956,0.013089274,-0.0115900375,-0.0493061
0.024485081,-0.027401477,0.073972866,-0.07910192,-0.021925349,0.053705543,0.019100398,0.03054423,0.08642282,-0.019508056,0.0392093,0.0389643,-0.047528297,-0.039731536,0.023554727,-0.024143973,0.00504252,0.053098578,-0.009698797,0.06519359,0.018143758,-0.088223584,0.014587721,-0.014356376,0.12036001,-0.013489564,-0.027067805,0.090185136,0.045372475,-0.052644353,0.055118356,0.08206265,-0.014268866,-0.005022308,0.0047169537,-0.068174504,0.03537261,0.10188244,0.010434896,-0.03126651,0.06385811,-0.03272379,0.013830515,-0.06932459,0.075360216,0.005204284,0.0502255,-0.031025842,-0.029895443,0.03216053,-0.036588684,0.07713918,0.061644,-0.016717475,-0.023948122,0.01792211
-0.0067314873,-0.028639147,0.0050339918,-0.014810844,-0.08203066,0.11192826,-0.057784397,-0.06163319,0.004976397,0.044684775,0.045840148,0.00049688853,-0.039088216,0.010730232,-0.08599036,-0.014385427,0.018209305,-0.018586786,0.0009891285,0.030135565,0.049576476,0.04707379,0.022419062,-0.0328201,-0.047173988,-0.033107527,0.016962957,0.020698927,0.0698234,0.014504558,-0.11810681,-0.074202396,0.055380207,-0.02341433,0.0072830166,0.07139048,0.042515997,-0.061859645,-0.029064799,0.08722969,-0.002581299,0.010007843,0.019740127,-0.050386097,-0.021770507,-0.014026304,0.07753733,0.041950557,-0.060027793,-0.061141305,-0.0943622,-0.004152915,0.091909215,0.03636208,-0.020916594,0.073241
-0.012537659,0.021244735,-0.062169667,-0.042875137,-0.000870838,-0.050574873,-0.03969844,-0.017884174,-0.0014876743,0.034049004,-0.035625264,0.061479423,0.051007334,-0.0896896,-0.010095814,-0.033609405,0.0077634915,-0.041762073,-0.011440271,-0.067855425,-0.13061492,0.0016972314,-0.10193234,0.01854827,-0.027868131,-0.013196507,-0.017841633,-0.029148648,0.00959971,-0.021439653,-0.0113082575,0.014022498,0.03622914,0.029315732,0.09708612,-0.0074090627,-0.0007978856,-0.032364976,0.026765384,0.004108327,-0.007507903,-0.004380648,-0.09192968,-0.0404193,-0.002750588,-0.009823673,-0.02692401,-0.0035685084,-0.003217918,-0.010868318,0.009899625,0.014093629,-0.014045037,-0.06826018,0.03144073,-0.046304602
-0.0050080246,-0.016673526,0.014941579,-0.108742274,0.04228769,-0.0044044913,0.037914794,-0.068830594,-0.04788342,0.07738299,-0.0052382797,0.02394888,0.014620672,-0.011459226,0.001082148,-0.08005103,0.006307582,-0.048496936,0.03012676,-0.08441195,-0.08501672,-0.0072753,-0.02915734,0.023839809,0.06281585,0.0559808,0.08542273,0.006906411,0.022753835,-0.08908511,0.00033386907,0.029093962,0.12784813,-0.035938308,0.011210773,-0.038599458,0.08165571,-0.028424002,-0.07058724,-0.04521579,0.018727941,-0.005680159,0.029551886,-0.029217172,-0.07372071,-0.03835412,-0.06453466,-0.010904203,0.090922564,-0.05460069,-0.0033235655,0.007901951,0.037327737,0.1397069,0.008894514,0.020765826
0.06277201,-0.084031075,-0.06698315,0.043268465,0.009224662,0.018608378,-0.022801068,0.048623264,0.042257216,-0.063590996,0.045067795,-0.0071208086,0.0045205564,0.023476366,0.08442745,-0.0065450976,-0.025987228,-0.019962482,-0.06636209,0.041318204,0.032039408,0.08972944,0.04928669,0.048293073,-0.017478967,0.0027619414,0.007587151,0.016343703,-0.0041039623,-0.052554663,0.01247112,0.0419454,-0.037769,-0.058011778,-0.042129986,0.055307366,0.013090083,0.03839343,-0.05674371,-0.034501977,0.0020549488,-0.08082181,-0.0053855106,0.0007943123,0.06887133,0.007100084,-0.085641384,-0.018032448,0.10798887,0.017104594,-0.025320146,-0.038218774,0.0056627328,-0.013031468,0.057521798,0.021619216
0.08149796,0.0036533964,0.041135143,-0.021128122,0.018753383,0.063076034,-0.0068207826,0.078174405,-0.033297323,0.1386388,0.021702088,-0.005617421,-0.039935134,0.00933759,0.08539868,0.057233654,0.013444049,0.0010716676,0.08501616,0.027908463,0.09908396,-0.055650007,0.0006772786,0.08593088,-0.01364407,0.07752373,0.07062783,0.12560596,-0.0135359885,-0.0057091108,0.034995105,0.016549896,-0.042540878,0.05014842,0.03280034,0.009454108,0.024498556,0.050399933,0.06322369,0.061721668,0.026548985,0.06369063,0.01998352,0.09679406,0.05807497,-0.046152554,0.07073648,0.11217537,0.0730323,-0.0325578,0.020151783,0.09933995,0.16186832,-0.001974041,0.023021875,0.017222423
0.02724517,0.004215907,0.01030153,0.017175216,0.017078834,-0.030973176,-0.012424265,0.0072138812,0.09594741,0.014671785,0.08063995,0.08000713,-0.034189828,0.03174212,0.073318176,0.074722394,0.044915523,-0.042742193,0.13166553,0.07406592,-0.041250177,0.02303937,-0.011446282,-0.0082100695,-0.09277218,-0.0059679006,-0.012940074,-0.030752927,0.027350528,0.020424943,-0.019023407,0.034616213,0.05086512,-0.022860697,-0.013435463,-0.019964466,-0.01306702,0.031747285,0.018204322,0.028782133,0.089893796,-0.06080403,-0.085824534,0.04940224,0.013425854,-0.003954158,-0.041185666,-0.1274323,0.030516038,0.048315633,0.053284567,0.014652903,-0.0032132817,-0.06136471,0.03260064,-0.007491142
0.03688289,-0.00084646296,-0.02881673,-0.015618673,0.01580124,0.022705257,0.07741468,0.004377524,-0.014285984,0.029711697,0.043709587,-0.00012941647,0.08370283,0.006186516,-0.041663524,-0.08916335,-0.018142587,-0.04968331,0.036087763,0.004431935,-0.058488347,0.045367274,-0.023783317,-0.08353027,0.09879958,0.010734927,-0.004561364,0.022136293,0.015579581,0.0054143104,-0.023826994,-0.038116958,0.047051404,0.05188055,0.039166637,-0.06196057,0.09735473,0.00035335438,-0.009935339,-0.0028634083,-0.09786639,-0.0062418417,0.0023164668,0.045427088,-0.06110603,0.05523564,-0.013608784,0.016349863,-0.046469267,0.118018225,-0.0006370954,-0.08718448,0.06826847,0.02058527,-0.044905815,0.06979519
-0.08802664,0.028137162,-0.004071764,-0.056675248,-0.02299514,-0.050715532,0.0016517993,0.010576293,0.029620847,0.020442747,0.031531714,-0.031452816,0.05931937,0.061177827,0.0333846,0.0067152884,0.025682714,-0.020764641,0.02288399,0.04050744,-0.00092817354,0.060867928,0.0013302459,0.027743377,0.03959339,0.064951375,0.06712864,0.047376446,-0.014309252,-0.08915851,-0.026443804,0.06073046,0.067566015,-0.047331978,-0.041269116,-0.021042861,0.072009034,0.009967891,-0.10031971,0.053095967,0.066803284,0.044405226,-0.039369285,-0.0661072,0.04606617,0.004950631,0.05658334,-0.041264847,0.004071011,0.023322657,-0.00037753978,0.03411567,0.022154117,-0.07934923,0.075295225,-0.0691895
-0.047513522,-0.06801963,-0.053168785,0.057388008,-0.08119135,-0.06171378,-0.035486404,0.048712473,0.005982688,-0.04098631,-0.027630521,-0.0013981047,-0.10064867,0.036675777,-0.011788921,0.007439969,-0.024876302,-0.04036412,-0.098147154,-0.047305472,0.051931746,0.0001746878,-0.00077332853,-0.05541664,-0.060919255,-0.012796164,-0.036434814,-0.040115688,-0.04794298,-0.115065806,-0.012476359,-0.022121547,0.006957543,-0.06943913,0.033384465,0.023113687,-0.11588009,0.0023088944,-0.08174598,-0.06348445,0.033490904,-0.0780008,-0.067989245,-0.06605722,-0.04648316,0.036650874,-0.045891035,0.011124436,-0.050822966,-0.090909205,-0.010072854,-0.01259421,-0.03131583,0.008956738,0.06129382,-0.060550876
-0.07204691,0.016593233,-0.047005102,0.00314418,-0.080861606,0.036145,0.0073318384,0.06508152,-0.0008301448,-0.0065129544,0.02626102,-0.0069449637,0.023029296,0.020179309,0.05289144,-0.02364087,-0.023641342,-0.028598826,0.0058184387,-0.045768723,-0.0034347796,0.027011734,0.023973865,-0.016294714,0.041228127,-0.08621129,0.06548676,0.0919551,-0.05889974,-0.04779821,-0.04845255,-0.05440688,0.032044455,-0.05083822,0.014655089,-0.007758372,-0.030024584,0.046969827,0.04004193,-0.08075297,-0.08549951,-0.052707143,-0.053092018,-0.041521538,-0.036626276,-0.036147505,-0.05766424,-0.041630052,0.0525958,0.029204687,0.0024990363,0.040794123,-0.0027132959,0.111415304,-0.00066675997,0.09700426
0.021728402,0.007295829,-0.044990126,-0.0033153305,-0.06037861,0.02329957,0.080752715,0.018090576,-0.025662635,-0.016711168,-0.038808037,0.013642152,0.021549635,0.057848085,-0.009150598,-0.017693484,-0.015898779,0.027918527,-0.017702071,-0.05065347,-0.053571288,0.063605405,0.008022184,-0.043467425,-0.057127107,-0.020170676,0.038819056,0.006081265,-0.028032232,0.01744267,-0.028236223,0.013704257,-0.084085554,-0.040349055,-0.04041,0.034597714,-0.0609398,0.013218439,-0.033304553,0.02384977,0.042181235,-0.08040833,0.0014631323,0.06302921,0.027480308,0.028509552,-0.041354273,0.097133674,0.0017762157,0.08389658,-0.0004942382,0.0029151263,-0.027114904,-0.028971596,0.036954064,-0.06342947
0.03467037,-0.07736249,-0.062033687,0.06583618,0.04258642,-0.047103237,-0.01895886,-0.034290355,-0.045497715,-0.0006907192,0.02762895,-0.05586393,-0.041763727,0.062307563,-0.035875488,0.002554935,-0.039626744,-0.04711173,0.124108836,-0.048926692,0.04574074,-0.03126683,0.0023514293,0.07683487,0.02524264,-0.0076460047,-0.019004833,-0.0562486,-0.010425314,0.02651549,0.022454696,-0.049432978,-0.014052371,0.11343316,0.030192412,0.009176543,0.013551915,-0.062601574,0.10827836,-0.0712454,0.0059338184,-0.08459717,-0.04542536,0.012966365,0.002292792,-0.052379694,-0.02306554,-0.0037896289,-0.09326673,-0.053751234,0.008944112,-0.004816598,0.008473797,0.07174207,-0.109488264,-0.0066996566
-0.056282025,0.03754992,-0.04551016,0.010653852,-0.08873222,-0.01010303,-0.025904043,-0.03171985,-0.043492127,-0.012963243,-0.03346727,-0.024414727,0.022964153,-0.11752553,0.016685802,-0.016794782,-0.033823073,0.08357332,-0.015623846,-0.0635256,0.009766227,-0.029866029,0.06136989,-0.006207382,0.0140344305,-0.034375638,0.034019087,0.021428516,0.022510173,-0.013980676,-0.02500565,-0.024040125,-0.047659025,0.04957089,0.040447682,-0.023562904,0.05858081,-0.030866466,-0.047746386,0.069025576,0.02817438,-0.016355203,-0.07821497,0.018418843,-0.032425515,-0.009287254,-0.034864396,-0.0009966148,-0.012035286,0.021443594,-0.07693648,-0.0146446675,-0.053619687,-0.024099823,0.0036071676,-0.056150828
-0.039834134,0.053686302,0.010909728,-0.05746766,-0.07302937,0.03185376,-0.07260841,0.024264682,0.036344163,0.09360996,-0.045254488,-0.07335436,0.050266486,-0.06301156,-0.04246922,-0.05682622,0.041233595,-0.036593862,-0.045154184,-0.022546517,-0.032829355,0.01084668,-0.03135947,-0.016018689,-0.0153411385,-0.07306617,0.034559064,0.013454151,-0.015815029,0.02010374,0.006743596,0.039531615,0.024779405,0.024911463,0.04807944,0.02219342,-0.10344276,0.019615304,0.037830174,0.020532504,0.030143382,0.019680547,0.03462601,-0.002819147,0.03547821,-0.05162722,-0.05015004,0.027832268,-0.061183862,-0.05694472,0.013675396,0.03893349,-0.05416448,-0.0027334923,-0.0761917,-0.010317575
0.03378846,-0.0336173,0.056263413,-0.014707567,0.054529395,0.03795237,-0.0153789045,-0.03722463,0.10518424,0.029588109,0.068645746,0.026069297,0.012679805,-0.07081405,-0.08372385,0.012802918,0.044747256,0.05361489,-0.027273782,-0.03969981,-0.0015029889,0.016459683,0.019658688,0.00030161478,-0.060953114,-0.06705567,-0.06218261,-0.025807984,0.014452711,-0.086588286,0.07211171,0.019195821,-0.07696662,0.039409477,0.08527224,-0.031190442,0.04283945,0.035497732,0.06974263,0.003211297,0.046498727,-0.00083358894,0.054929897,-0.04847562,-0.08651362,0.005239905,0.020871373,0.056334835,-0.051004823,0.0517363,-0.04778637,0.05146823,0.054156624,-0.035168044,0.001764444,-0.010117926
0.0753469,-0.047391217,-0.017863195,0.045758788,-0.008348361,-0.0313187,0.047764778,0.04351702,0.040274378,-0.04969851,-0.026671417,0.031476032,-0.017563818,-0.08596549,-0.034967948,-0.019483969,0.043566573,-0.007374294,-0.061334137,0.018217305,-0.0739409,0.08308045,0.047223534,-0.032051817,-0.0139404265,-0.007322406,0.03460409,0.03848219,0.042637296,0.0023048571,-0.008156574,-0.04372336,0.016576305,-0.026921254,0.081204824,-0.07114628,-0.017726626,0.041141205,0.05972205,-0.0136826895,0.084640816,-0.054607242,-0.050694525,-0.0014581732,0.028408699,-0.023684418,-0.06690752,0.074355036,0.026369395,0.0700082,-0.055716902,-0.011000019,-0.009649322,-0.03618155,0.024080956,0.013795029
0.0028648037,-0.05292347,-0.070672125,-0.0616994,0.044237148,-0.039724298,-0.03476536,-0.029193906,-0.046003953,-0.009981208,0.015796708,-0.022343421,0.032461442,-0.018040385,0.021210216,0.005590648,-0.09229108,0.010733147,-0.05357673,0.060371265,0.058960628,-0.022071628,-0.057632595,-0.019758372,-0.0014997205,0.010012962,-0.015947131,0.04288747,-0.015776392,-0.032294158,-0.07664503,-0.008590321,0.018006142,0.060755007,-0.005491959,-0.03053898,-0.0022248523,-0.014209489,-0.013651786,-0.058273543,0.0691081,-0.05143098,-0.0115273325,-0.012871549,0.061754543,-0.013220875,-0.0034240154,0.010879783,-0.049425095,-0.011950765,0.04303003,-0.08955167,-0.028005647,0.08428535,-0.007955547,-0.075899296
0.000517034,0.033809215,-0.009170403,-0.054730143,0.022982145,-0.027772268,0.045566913,-0.027107656,-0.0024692665,-0.009829714,0.046350677,-0.041136205,0.027251583,0.006979037,-0.027355753,-0.09528081,0.037166636,0.020521574,0.051703785,-0.005060032,0.028305745,-0.032048807,-0.01185001,-0.03184502,0.049337864,-0.028210975,-0.012281409,0.0007256381,0.06704993,0.0006046089,-0.07571742,-0.03371488,0.03692042,-0.014823994,-0.04648972,0.02691488,-0.008505154,-0.047522217,0.04895823,-0.032130055,0.065125264,-0.03380525,-0.022417644,0.039603002,0.0157373,-0.05788197,-0.005563865,0.014036655,-0.010246171,0.032064535,0.019314853,0.00936937,-0.092079215,0.016411098,-0.023635607,-0.03127071
-0.07092826,0.03274157,-0.024920015,0.062881514,0.0072996803,-0.024111483,0.09366041,-0.022239108,0.076740615,0.14571142,0.023671348,0.058629807,0.05807876,-0.09066447,0.01782591,0.06885791,0.018170178,-0.035036,0.11348409,0.108914435,-0.01369135,-0.055428755,-0.02272849,0.014867453,0.02120282,-0.036625516,0.11939067,-0.007641087,-0.09438261,-0.015199613,-0.042374834,-0.015695142,0.051079996,-0.060707036,0.029909272,0.047962237,0.035132226,0.019006802,0.030799868,0.042397413,0.11550134,0.051655605,-0.0032162596,0.0073162983,0.0346512,-0.012055894,0.07836236,0.07282153,-0.028038707,-0.0022562442,0.06493989,0.0008642169,0.09406866,-0.01583263,0.02528689,-0.08023366
-0.07760047,-0.008501356,-0.086417384,0.015557905,0.0066685206,0.016456423,0.05583474,-0.00948338,-0.112955965,0.0977382,0.0001465562,0.022640236,-0.04174948,-0.041424826,-0.07814556,-0.037488546,-0.004458454,0.070154645,0.0034567341,0.011287502,0.08138773,-0.050856553,0.06525046,-0.0072240043,-0.0060262424,-0.055401005,-0.020293556,-0.0070164283,-0.014021239,0.06369362,0.05470664,0.09972818,0.067380525,0.026056224,-0.04645401,0.008698713,0.013418339,-0.025451185,0.0703275,0.099572554,0.068264164,-0.04512902,0.08925358,-0.0677376,-0.027569665,-0.04171126,-0.0037088937,0.04519811,-0.08741697,-0.015434901,0.07945202,0.019150013,0.04319447,0.012344593,-0.019668764,-0.029914591
0.035643443,-0.08891674,-0.088436514,0.0437989,-0.042800117,-0.011337764,0.050744206,0.00035455354,0.05079403,-0.05782893,-0.04632247,0.04489719,0.04668165,0.118921734,-0.07184123,0.082770325,-0.043007173,0.054940943,-0.09347601,-0.05271,-0.0639793,0.10683483,-0.06928437,-0.03051006,-0.07056463,-0.044145145,-0.013214604,-0.06829079,0.060917817,-0.060199853,-0.00842733,0.050346404,-0.11048133,0.07000703,0.052795228,0.055254325,-0.03565086,-0.054426767,-0.04867511,-0.08008401,0.06377381,-0.08167415,-0.0500793,-0.05700051,-0.015444135,0.07232153,-0.015525029,-0.06347011,-0.049843613,0.04749062,0.06118789,0.01555982,-0.065535605,-0.023730328,0.006315622,-0.049382824
-0.030768799,-0.025182955,-0.071174525,-0.07115156,-0.015945647,-0.0044604675,0.053659055,-0.047918797,0.0037771526,-0.024436086,0.038141053,0.019336391,0.068518445,-0.09884362,-0.00092549715,-0.051821608,-0.002569391,-0.043953545,-0.0022459782,-0.07072717,-0.06771684,0.026385281,-0.0154796,0.0040556425,-0.0101355305,-0.032186143,0.039749525,-0.03320346,0.009070028,0.030121148,-0.106881395,-0.06844811,0.021134675,0.0062804017,0.013870493,-0.088096514,0.046490442,-0.014145946,-0.0050485274,0.0070065,0.03354452,0.009561506,-0.0682926,-0.028985044,-0.025031552,-0.09980492,0.016724758,-0.0286311,-0.00449425,0.009961547,-0.048986513,-0.045421377,0.021587204,0.033463944,0.026524069,0.012657065
0.07607033,-0.015381468,0.048177633,0.009479454,0.034401186,-0.021935595,-0.07740747,0.09937063,-0.06646157,0.02090233,-0.077252656,0.02249302,0.014947918,0.026019102,-0.075513706,0.052324623,-0.013528155,-0.024553016,0.036173668,0.042114645,-0.040911913,0.07332599,0.012641962,0.033961102,-0.07732176,0.025442911,0.017831018,0.01012989,-0.0018553823,-0.052921083,0.033899285,0.07125835,0.058816753,0.0066007753,0.023929004,-0.06384045,-0.0070904493,0.09164591,-0.02575042,0.022130577,-0.017903212,0.046928633,0.022611875,0.041823257,-0.016077101,-0.074188314,0.107454106,0.058543395,0.05050567,0.04450975,0.031673558,0.018343901,0.019243661,-0.036313903,0.030468462,-0.029756267
0.031811606,0.039912753,-0.01135666,0.028198238,-0.06342654,0.020968782,-0.01414733,0.056257136,0.035531327,-0.04892047,-0.039608374,-0.06556462,0.03571436,-0.029391866,-0.021229608,-0.000208751,0.00048468355,0.072702914,0.09682517,0.042314906,-0.0026582873,0.08012093,-0.018557802,-0.0073295296,-0.008766776,-0.048181064,0.055564385,0.051458452,0.008223249,-0.042164795,0.043786906,0.0057644094,0.022296384,-0.03738405,-0.011292136,0.042742096,-0.012801512,0.0012636635,0.0035192654,0.018006949,0.006003456,0.033601362,0.015103212,-0.005996002,-0.033005226,-0.037454687,0.044832088,0.015467002,-0.057676166,0.015858624,-0.054187395,-0.06266316,0.024795178,-0.045958873,0.049355235,-0.06657747
-0.0067321667,0.07145284,0.0337576,-0.017366445,0.034172215,-0.042420153,0.08434849,0.052402887,-0.012301563,0.026232332,-0.0035181409,0.03451248,0.015882678,0.015388691,0.08427986,0.04555473,0.00657548,0.0035592548,0.07126061,0.05031547,0.04797406,0.0015801551,0.025421362,0.008239781,0.058279477,-0.007380568,0.09635308,-0.009609197,0.008299366,-0.027158163,-0.05504183,0.041013047,-0.08413882,0.08134553,-0.10687209,0.016156219,0.0441872,0.03438358,0.047318634,0.014799444,0.00857634,-0.037678376,-0.04086776,-0.004445935,0.0027031465,-0.048573613,0.020781716,0.041160036,0.020928392,0.012622164,-0.04284092,-0.0259681,0.0086907605,0.025289306,0.020529794,-0.020638825
0.033200674,0.0011721563,0.022971561,-0.009112253,0.04232709,0.049522907,0.119029365,-0.034735147,0.026257759,0.0061016283,0.016522422,0.03541561,0.08458529,0.021757344,0.027638622,-0.0082603125,0.04961031,0.0037538465,0.094606966,0.06456996,0.030339725,-0.016914845,-0.029270578,0.019680845,0.01829429,0.07448809,-0.008084381,0.012736557,-0.024594449,-0.030494532,0.031478904,0.064907044,-0.03382834,0.042959828,0.007302827,-0.028271334,0.047983106,-0.005628492,0.066248246,0.026508749,-0.039327927,0.0037593988,0.040225796,0.07072727,-0.013037143,0.0131451115,-0.0061201137,0.02289873,-0.0039695073,0.049263943,0.047060262,0.02871518,0.045025047,0.0007491819,-0.0050487565,0.013289453
-0.022999097,0.008824689,0.015003279,0.012609617,0.019554928,0.0011161136,0.05475975,0.104423456,0.071177736,0.056329686,-0.028998535,0.012845298,-6.7584544e-05,0.025695805,6.262325e-05,0.0026086443,0.049160823,0.006995889,0.01137828,0.052860174,-0.007936997,0.051782638,-0.009183633,0.030381253,0.0812235,0.028719041,0.024903508,0.027366376,0.078785196,-0.041249964,0.034983557,0.06575388,0.030523496,0.0032098012,0.1070702,0.10215669,0.050211467,-0.032374322,0.046694282,0.04376792,-0.03595389,-0.049114265,0.15952691,0.019710148,-0.07395308,-0.058001373,0.0032992593,0.0029590013,0.02661795,-0.011778973,-0.05454341,-0.003624253,0.08581968,-0.0020489113,0.06556027,-0.05639502
-0.030448353,-0.03723097,0.036699083,-0.047506455,-0.03499193,-0.013711195,0.016987681,-0.0030120907,-0.009559862,-0.05999376,-0.0074914703,-0.04720238,0.0023114022,-0.026531072,0.0071200025,0.014665821,-0.060634937,0.030742653,-0.070929684,0.01059059,-0.08035346,0.11912625,-0.04561483,-0.0525416,0.00063108606,-0.089343145,-0.09090083,-0.014588422,-0.06476184,-0.055322766,0.027068255,-0.07026498,-0.026227787,-0.06033143,-0.06073146,-0.056619767,-0.08012938,-0.03511673,0.019182252,-0.06527248,-0.025219291,-0.0952795,-0.0016376106,-0.055427134,0.03203506,0.024503218,-0.08151617,-0.022423118,-0.030353649,0.008326606,-0.0077420766,-0.014314716,-0.05308729,-0.038349863,-0.019842943,-0.042949624
-0.02309847,0.0008288565,-0.02891262,0.09325714,0.028996412,-0.06621013,0.06366084,-0.041078016,-0.056703962,-0.03889481,-0.024096409,0.12605412,0.01708467,-0.10905658,0.022212218,0.063189045,-0.05888178,0.113179855,-0.01999767,0.039208192,-0.016575567,0.045525305,-0.058987055,-0.06662599,-0.016340794,0.0054190056,-0.009881748,-0.008440382,-0.06537031,0.001674502,0.007975769,0.0025072952,0.018501062,-0.0055209445,-0.03291953,0.012565539,0.040283035,-0.04246835,-0.028379247,0.026460512,0.03614743,0.025615295,0.0030860752,-0.044851318,-0.011084502,0.00064728747,-0.07189407,0.009021651,0.06917363,0.034504026,-0.031145189,-0.0017725397,0.010235738,-0.059787538,0.014400419,-0.07392175
0.0020190754,0.103954025,-0.009755609,-0.035433,0.08732902,0.104738936,0.17651449,-0.03852851,0.006396607,-0.038301896,0.007358974,-0.13458893,-0.011855869,0.06279687,0.0141336955,0.04473357,0.031144658,-0.04715402,0.0288748,-0.02162345,0.023229431,0.011919232,0.043099664,-0.039447036,-0.03805232,0.014429491,0.030870564,0.021498788,0.006737139,0.074917674,-0.012089029,0.016396726,-0.03202207,0.09404253,-0.021849288,0.01580291,0.06461167,-0.015931109,-0.052908655,0.037335064,0.044844966,0.0003332888,0.09379651,0.049705036,-0.024635542,-0.010799881,0.03904661,-0.005477635,0.022584738,0.1217519,-0.013045689,-0.05187625,0.060240943,0.0008950059,0.04858238,-0.04928783
0.051811337,-0.00508422,0.010700796,0.016121736,-0.01689337,0.002270728,0.06068511,-0.03152688,0.07571961,-0.10974731,-0.044904586,-0.023144245,-0.045787092,-0.03765065,0.002816252,0.03507671,-0.009582764,0.07075511,-0.06533284,-0.012695892,0.024515903,0.005036641,-0.019720463,-0.052482296,0.014214129,-0.06896131,-0.004409728,-0.0028567237,-0.02337649,-0.047481943,-0.09181393,-0.061311025,-0.045453496,0.056423333,-0.044186626,0.011583898,0.00069676386,-0.018142683,-0.017592188,0.059036717,-0.052778043,-0.07939809,0.039355595,-0.019436961,0.044025023,-0.014207391,-0.0116797155,0.0033145638,-0.04877542,0.011820321,0.03152698,-0.018470574,-0.06448377,-0.023103626,-0.019662173,-0.07663456
0.041245013,0.013170624,-0.02725572,0.026572816,0.04101907,-0.05481112,-0.00036551402,-0.03334195,0.03944316,-0.06264021,0.04146193,0.115878485,0.06843043,0.07725639,0.029102182,0.088092975,-0.058645975,0.036056142,-0.023610514,0.039412163,-0.0066598486,-0.05318833,-0.06179628,0.03489017,0.03598959,-0.009386662,0.0015141715,-0.023378488,-0.061239522,0.111696996,-0.0090755755,0.051904116,-0.040560603,0.028971165,0.054781586,0.02411928,-0.05540197,-0.016520202,0.037187684,-0.10294033,0.02794944,-0.0016834802,-0.028575385,-0.022067843,0.047601618,0.03492471,-0.10207598,-0.057818383,0.044371087,0.04153729,0.09429301,0.0719979,-0.033745684,-0.007512391,0.0008523239,0.053507783
-0.01597302,0.06947709,-0.046229247,0.0115638785,0.068336636,-0.022588894,0.037283808,-0.006137262,0.015651686,0.029635407,0.05170801,0.12751427,0.03294652,-0.019060591,0.067799926,-0.00792074,0.031115696,-0.020794524,0.026329625,0.018526653,-0.03302007,-0.037716713,-0.008687024,-0.0411243,0.084142275,-0.042893987,-0.0016195552,-0.037648913,-0.009637614,-0.07994617,0.01573894,0.017098863,-0.03813636,-0.028821373,-0.04351618,0.07621724,0.07083499,-0.049786516,-0.06079223,-0.012484374,0.011303376,0.012102219,-0.061645377,-0.007849606,-0.060208358,-0.04324263,0.055514764,-0.0006865917,0.0027019698,0.04555968,-0.071473196,-0.016763171,0.06627168,0.022568053,0.05570494,0.054604474
-0.028255627,-0.02677515,-0.020505236,-0.032897912,-0.01133197,-0.04889782,-0.054896098,-0.020086432,0.007907317,-0.003367296,-0.06888062,0.007883319,-0.05023279,0.017255872,-0.04119983,0.027192583,-0.017194824,-0.0064927083,-0.038537163,0.04034122,-0.06409049,0.04711292,-0.058300316,-0.048923705,0.08194628,0.0048090415,0.068315536,0.054853816,0.057332844,-0.033647828,-0.016397044,0.05733435,0.03363177,-0.0472699,0.0031841628,-0.042100593,0.06671809,0.04490707,-0.017454749,-0.067615606,-0.070095845,-0.0565425,0.051370725,-0.020516867,-0.03769098,0.0039248853,0.024467219,-0.01331565,-0.03354303,-0.048481923,0.07263724,0.021579899,0.0146105485,0.045144595,0.0056731827,-0.047163658
-0.042867523,0.04424354,-0.049762785,0.033385243,-0.033912137,0.05803473,0.0007282948,0.00030061512,0.014024299,0.0025989017,0.039045308,-0.08044545,-0.092602655,-0.030635513,0.055209804,0.076201685,-0.058268424,-0.05224201,0.02573441,0.066314206,-0.011403416,0.020641752,0.040668055,-0.023407357,0.04371792,0.08314432,0.024577256,0.022378186,0.040148325,0.022475112,0.0049016317,0.011565373,-0.0021402931,0.024290163,-0.11101011,-0.041062932,0.018715506,-0.04218141,-0.054813564,0.033049256,-0.065146364,-0.066883124,0.026603822,0.07633339,-0.03392384,-0.039819416,0.0097128535,-0.03341535,0.01907029,-0.036609028,0.06037687,0.029384833,-0.00087612343,-0.07685857,0.045456987,-0.027484104
0.06856374,0.08068158,-0.10906133,-0.045146644,0.073809534,0.002163505,0.0033185934,-0.04827625,0.055274714,-0.015531225,-0.0064581563,-0.056391582,-0.059586525,-0.031377528,0.012679598,0.056122433,0.0069487565,0.09759709,-0.036828347,-0.004084821,0.086659566,-0.04366443,-0.024452226,-0.0326886,0.056497544,-0.021140361,-0.08218662,-0.043249857,0.03334858,0.03810755,0.024206022,0.02465714,0.07633846,0.05457854,0.023754038,-0.008376374,0.056756757,0.06806003,-0.00040369667,-0.004113689,-0.021966074,-0.03428417,-0.005085481,-0.0087735215,0.0064275977,-0.008284412,0.072247684,-0.027030438,0.006850626,0.08659337,-0.01135384,0.016227797,-0.00942759,0.077484585,0.055515375,0.102520645
-0.05420647,-0.016945632,-0.11601127,-0.03169806,0.0022338196,0.015744627,-0.04969231,-0.043780837,0.05832925,0.020480005,0.043218996,0.0053346218,0.019822054,-0.041712474,0.06992553,0.0058259536,-0.06000923,0.05566174,-0.00895787,-0.016916137,-0.008458467,-0.07133125,0.012080831,0.030317299,-0.026253399,-0.032389306,0.011914833,-0.07043344,-0.047413606,-0.025404384,0.012750257,-0.058695223,-0.011497816,-0.018023985,-0.074007384,0.015644087,-0.054917358,-0.028622268,-0.014136372,0.050386906,0.046217993,0.0026467813,-0.008287255,-0.011876781,0.010504391,0.030733269,-0.105622485,-7.066463e-05,-0.043802563,0.08449849,0.071786694,0.0005633497,0.014389472,-0.03484328,-0.01506944,0.014349105
0.0016411761,0.1010464,-0.014402213,-0.023901733,0.011956289,0.021695243,0.1105763,-0.020657746,0.08637293,0.0067450926,0.16895299,0.059675723,0.059744027,-0.022033332,-0.013841019,-0.018906798,0.13650218,0.009766651,0.07467873,0.08868254,0.06699989,0.08064205,0.0008934226,0.072992906,0.06827927,0.025141472,-0.0053000026,-0.02402795,0.054290123,-0.005232839,0.045345288,0.055953052,-0.038951732,0.080627635,-0.023938082,0.06501034,0.09794462,-0.089643404,0.06804218,-0.070592195,-0.011526818,0.054417893,-0.023000453,0.11561069,-0.0011760988,-0.043412786,-0.05176077,0.039890114,-0.019878414,0.10105097,-0.015668353,0.008476878,0.07198352,0.024281044,-0.048487104,0.123096064
0.0017342976,0.011912703,0.09222525,-0.025530169,-0.07496605,0.115195364,-0.061845694,0.04297153,-0.053131204,0.0855043,-0.03210846,-0.00418553,0.0037920405,-0.09465378,-0.06584988,-0.040644135,-0.07865404,-0.011540783,-0.046021074,-0.017763706,-0.071181886,-0.059794463,0.033625092,-0.015573014,0.016380567,-0.017002862,0.08164967,-0.00039996544,-0.007071609,-0.023710528,-0.027846979,-0.093413725,0.016058285,0.029367683,-0.009408721,0.012300438,-0.08356813,-0.00953577,0.004262696,0.049392644,-0.0480429,0.10361869,0.07748673,-0.020435574,0.054202657,0.0026074464,0.121983886,0.07541961,-0.020885235,-0.067458466,0.006977805,-0.033989944,0.11109397,0.014333033,0.03599552,0.0013665331
0.07015546,-0.017092975,0.025164813,0.052264355,0.0071532913,0.04543073,0.023801817,0.04853108,0.11126651,0.002907607,-0.02838509,0.0021879354,0.0354656,0.026392434,0.13168722,0.015431251,0.019066406,0.032507222,-0.025645792,-0.04278048,-0.008286415,0.0063387076,0.032286435,-0.010032785,0.070385106,0.030444529,0.07197951,-0.028394245,0.041180044,0.04798878,0.1033205,0.044737257,-0.05534897,-0.057530712,0.0819392,0.05215059,-0.019076038,0.055426273,0.057068415,0.013324499,0.06287548,-0.020181369,0.06938284,0.080749564,0.028709305,-0.0004923188,-0.05112648,0.00014904083,0.025845604,0.0479109,0.11095552,0.08692088,0.024243943,-0.05571681,0.091727026,0.059259146
0.08615611,-0.012904324,0.032308687,0.02157779,-0.06253405,0.032538474,0.017754462,0.03365656,0.062393475,-0.07777794,-0.008212275,-0.04456324,0.014351187,-0.027631503,0.053011827,-0.10469199,-0.037168626,-0.040971443,0.07385461,-0.009920114,0.031231208,0.050753746,0.05330559,-0.036814123,0.10605964,-0.04214381,0.08901122,-0.014602517,0.022343485,-0.0129542425,0.0048318645,0.02526977,0.062714785,-0.0345613,0.025687555,0.048019707,-0.06897441,0.00019603185,-0.057159875,-0.09150187,0.05468055,-0.065271445,-0.0068311268,0.06659667,0.019948583,-0.013775002,-0.013589239,0.121850066,-0.03563621,-0.004636489,0.029425772,-0.0008082501,-0.015407048,-0.06440713,0.029285716,0.049534444
0.038828183,0.022814909,-0.044702537,0.0015361016,0.04281253,-0.065740466,-0.024700733,0.0031401983,0.077010415,-0.042869505,0.10812115,-0.031634223,0.098859936,0.047716077,-0.020480923,0.012895793,0.01166049,-0.10648117,0.084560715,0.034810394,0.008993017,0.0061876536,0.039922692,-0.025138982,-0.049401578,-0.019121971,-0.042319,0.03530489,0.10724638,-0.066908844,-0.027392464,0.010049741,-0.008079974,0.060266696,-0.041461837,0.07154927,-0.029764626,0.043247946,0.06394218,-0.054175798,0.052674875,-0.060054965,0.028394869,0.09714579,-0.052601922,0.026695678,-0.046150737,-0.0053865802,-0.05389321,0.075153396,0.0049921293,0.065108486,0.022530412,0.032682367,0.05896205,0.057119895
-0.042561807,0.14061977,-0.08645788,-0.079473555,-0.016726082,-0.012181524,-0.017435795,-0.07049306,0.049727343,-0.0311979,0.12685154,0.032656968,0.009209745,0.015176469,0.03563786,-0.017309507,0.06034335,0.013592184,0.011147239,-0.018357899,0.068252504,-0.11638448,0.033794273,-0.11205716,0.07140983,-0.034707226,-0.04630961,-0.10985125,0.11969937,-0.030313868,-0.050721616,0.050896097,-0.06602037,0.065449074,0.004751083,0.016589949,0.1184696,-0.080223076,-0.008280803,-0.096021585,0.025347669,-0.09961383,-0.00045106735,0.04769293,-0.012771345,0.03448206,-0.0334342,0.017478714,-0.058015235,0.04213243,0.05557686,-0.011744017,0.060013276,0.045526918,0.021361303,0.02330863
0.029649181,0.048214536,-0.03368952,0.053551022,0.00447438,0.04306586,0.068402626,0.029232124,0.028744154,-0.00771458,0.1835141,0.03361238,0.107550606,-0.013958884,0.09042304,0.018344974,0.029763224,-0.058916707,0.15903217,0.044169713,0.07362417,0.018839499,-0.007831103,0.0047776764,0.06846692,0.025771275,0.04871228,-0.041260816,0.099933185,-0.05867124,-0.038741674,6.6673965e-05,-0.060373254,0.09111033,-0.011124031,0.011926495,0.116126575,-0.03371661,-0.039556235,-0.007277066,0.019584358,-0.07561408,0.018726455,0.0693754,0.05885492,0.032595843,0.043069582,0.0059722546,0.029163364,0.0999759,0.012333334,0.017802373,-0.013807269,-0.020916803,0.06975389,0.13117304
-0.07862016,0.0574984,-0.024116281,-0.04655171,-0.012227033,-0.0019752728,0.06597086,0.0015419583,0.049797434,-0.016462501,0.017813956,0.061856695,0.114175215,0.036752004,0.09588061,0.023934215,0.02518645,-0.020750506,0.009673667,-0.02533259,-0.01148452,0.00432237,-0.08388237,-0.09848356,-0.039605167,0.016507918,0.050561666,0.02172604,0.07135254,-0.063743345,-0.07358054,-0.021210315,0.077082254,0.042604633,0.009865793,-0.0074097347,0.040002767,-0.015525118,-0.085608825,-0.074893005,-0.039627425,-0.07264071,-0.09951856,0.036691405,0.011228254,-0.014887611,-0.03675595,0.023847917,0.01898227,0.062977836,-0.059139736,0.020572843,0.011703815,-0.05012328,0.0121480115,-0.08035141
-0.09598495,0.0219879,-0.049893577,-0.03431892,-0.06409152,-0.028902084,-0.07693456,0.075866275,-0.032776263,-0.06576069,0.0524267,0.013517229,-0.024299841,-0.036463644,-0.04616853,-0.10091347,-0.033254497,0.0520012,-0.08190507,0.042190347,-0.08605921,0.04298356,0.039435294,-0.07677367,-0.070762075,-0.07037572,0.05623235,-0.007383547,-0.06322452,0.052903224,0.05324569,-0.09258083,-0.06351137,-0.0406594,-0.016319472,-0.0031943752,0.05463769,-0.045472488,0.014554974,-0.047352,-0.015642816,-0.04846137,-0.072268784,0.0372925,-0.035925776,0.037050292,-0.040308956,-0.050762597,-0.03978384,-0.0492483,0.0020390162,0.014877322,0.047869273,-0.025160503,-0.0031786396,-0.028460858
-0.03094444,0.053669818,-0.082044296,-0.06991808,-0.03293854,-0.041703243,0.059717294,-0.0005977394,0.026372628,-0.083689876,0.043672487,0.0071541374,0.025437085,0.06919751,-0.076716445,-0.032594986,-0.01038044,0.02478339,-0.019125927,-0.028656235,-0.03793783,-0.11319741,-0.044595614,-0.0056974087,-0.01898,-0.037667032,0.01337778,0.022589477,-0.06911649,-0.02831764,-0.016014408,-0.037780985,0.010786693,-0.057730094,0.043741226,-0.019801784,0.03625815,-0.031469863,0.012880124,-0.058404636,-0.013396918,-0.03998422,0.05935877,0.004122852,-0.06097148,0.04889529,0.012570137,-0.014331067,0.010411245,-0.010848198,-0.017140852,-0.05635941,-0.046561357,-0.058762636,-0.059652366,0.052179918
-0.0245359,-0.018439727,-0.0076332022,0.036206424,0.08403777,0.039141513,0.0056522754,-0.0064855246,-0.024260553,0.014676056,-0.054018766,-0.084053285,0.022060098,0.031891767,0.030376263,0.013127395,0.016649147,0.02065443,0.006943999,-0.028198726,-0.03389208,0.074559726,0.09244322,-0.03155427,-0.021933863,-0.11588813,-0.011336749,-0.07124975,0.027001116,0.0617391,-0.023652256,0.02183552,0.07641036,0.0018360963,0.047349874,0.06053903,-0.008553186,-0.028080279,0.008782033,-0.00079400797,-0.06045449,0.017479017,-0.06889778,0.016713504,0.06200093,-0.046796784,-0.030917283,0.041183762,-0.016779248,-0.0014853736,-0.020997126,-0.0421087,-0.023634128,-0.0016331164,0.012478039,-0.03324132
-0.02870981,-0.012838308,-0.043090604,0.006541616,0.0026308724,-0.08396766,0.0353776,-0.04202883,-0.03457876,-0.03413312,-0.02996451,0.05461884,-0.044860385,0.06744188,-0.053873207,0.10025912,-0.06665805,0.10128704,0.023771128,0.0062153963,-0.043939684,0.050467543,0.011794315,-0.0806791,-0.016850973,0.024146328,-0.022834312,-0.07631472,0.043872874,-0.01448245,0.06915479,0.0054144217,-0.034260407,0.022090474,-0.023401307,0.024284791,-0.0019402463,-0.14684872,0.07018745,-0.10022097,-0.07002425,-0.06461192,-0.050041072,-0.02677631,-0.030546999,0.09111547,-0.010770859,0.008103557,-0.066863075,0.006349531,0.010963814,0.07703838,0.027233506,-0.02256427,-0.069656484,0.005483551
0.0073029497,0.09146521,0.0239567,0.035104766,0.047180668,-0.0020656371,-0.015201701,0.03765123,-0.038775556,-0.050637357,0.050461482,0.027608331,-0.018659491,-0.05836546,0.017609661,0.036592927,-0.06908911,0.04502465,0.07591248,-0.0028202925,0.068331055,0.031063447,0.017636873,0.07224561,0.008586562,-0.06478755,0.0171726,-0.05478105,0.08130534,-0.02990027,0.0402894,-0.007512374,-0.07079492,-0.027309787,0.054030918,0.029163567,0.07195357,0.05834143,0.058404487,0.01568028,-0.040281866,0.02210244,0.023528252,0.13303524,0.042726018,-0.086421005,0.07818167,0.020281434,0.008606018,0.06360374,0.055075515,-0.041218415,-0.018958226,0.033899695,0.00086202886,-0.016507879
-0.0083180005,0.041529365,-0.013549979,0.0190608,0.10315907,0.036616422,0.021726187,-0.021055646,-0.036734708,0.0126403775,0.0076479088,-0.086918466,0.018732332,0.04408156,0.046252545,0.0031591959,0.078906134,0.037030023,0.026164448,0.010713294,0.052612823,0.13497666,0.032743845,0.015206694,0.05982954,0.02382386,0.03355655,0.0052743168,-0.0056262724,-0.025796292,-0.035566602,-0.115340285,0.015655335,0.0107855005,-0.028517423,-0.048908286,0.06133963,-0.0120529635,0.044237774,-0.0470455,-0.05236525,-0.023364356,0.07678538,-0.009317971,0.0677142,0.01464289,0.043549743,0.06480125,-0.048014954,0.06515664,-0.05773779,-0.08108042,0.048569616,-0.022057226,0.008493872,0.024370769
-0.08232615,0.080169,-0.06364277,-0.022292158,0.035407864,-0.0344064,0.0030731873,-0.048508685,-0.00550012,0.036027245,0.12038216,0.09517396,-0.051257554,-0.0036034079,-0.015475803,0.07593634,-0.016399287,-0.02086566,0.108817734,0.0018254103,0.031715438,-0.024345223,-0.008057667,0.007367441,0.04062246,0.006284763,-0.008985859,-0.035703864,0.04387237,0.0024328488,0.03370988,-0.03773331,-0.05860714,0.028452424,0.084848374,-0.011612238,0.10577147,0.069751725,0.04677751,-0.019398756,-0.0577035,-0.04129236,-0.05604125,0.043953344,0.024312073,-0.15530609,-0.032197412,0.07299051,0.020535735,0.047271088,-0.041009687,-0.023104718,0.0470703,0.020284588,-0.0013081435,0.012885444
-0.027760927,0.025463916,-0.053010095,0.022235913,0.03537478,-0.035512414,-0.039776273,0.00032764472,-0.06564671,-0.02779537,-0.045526024,-0.1059048,-0.058316566,0.05061602,-0.0884074,0.083949916,0.004550524,0.03712148,0.06778334,0.042084068,-0.010224125,0.08243685,0.034568932,-0.05045766,-0.031390525,-0.040818844,-0.03879745,-0.030734248,-0.027741961,0.0936191,0.026888864,-0.0047560753,-0.038821664,0.04363977,0.07531552,-0.006380011,-0.022013756,0.00097184646,0.074274555,-0.028499998,-0.07681763,0.031558197,0.046060834,0.03795241,-0.012545079,0.041321844,0.026644107,0.020820651,-0.0095753465,-0.03210398,0.03383907,-0.023870662,0.02261739,0.011414119,-0.08069702,-0.030354477
-0.010176584,-0.00899491,-0.095146105,0.04134366,-0.029714935,-0.02788881,-0.016066749,-0.029889654,-0.008954063,-0.027048772,-0.0076975347,0.046799146,-0.031832173,-0.045394927,-0.025309734,0.05719015,-0.04577417,-0.020422718,0.058242112,-0.03663246,-0.06250761,0.019563599,0.035140716,-0.04750552,-0.048388638,-0.03312823,-0.008470764,0.011812086,0.027914329,0.044677667,0.026984707,0.02034572,0.023642018,-0.00129742,0.10230786,-0.009767643,0.08806784,-0.042529326,0.051895898,-0.09706148,0.0057189846,-0.027013732,0.011716777,0.06485424,0.0055099633,-0.0027053882,-0.011446865,-0.021929048,0.03820489,-0.0035321838,-0.014697501,0.020778017,-0.016730256,0.048126996,0.008192769,0.026789252
-0.0837716,0.049081232,-0.06498077,0.010627549,-0.057738032,0.0149594005,-0.04591972,-0.028435217,-0.018270176,-0.13666245,0.015819177,-0.0064412747,0.018850248,-0.0457323,0.0045468085,-0.010674928,-0.001339546,0.055449694,0.027715245,-0.053395722,-0.001477542,0.026045417,0.056512367,-0.0787791,0.04214795,-0.12573498,0.01729236,-0.05337488,0.01221522,-0.0034631384,0.0178039,0.022839436,-0.05596851,-0.015108957,0.039680116,0.01832343,0.029338429,-0.047249064,-0.032232035,-0.060795452,-0.021407,-0.02787789,-0.015000671,-0.01214049,0.0073398766,-0.051578347,-0.025260141,0.010453702,0.057002906,-0.0031792275,0.03083908,0.03600371,-0.03724792,0.011844314,-0.08808552,0.017180344
-0.032735746,0.03781552,0.030164953,0.07937535,0.060555737,0.052871738,0.03944365,0.06689587,0.012772098,-0.05210731,0.099171534,0.031693194,-0.056618463,0.030232195,0.06550126,0.04002225,-0.023624651,-0.0040345998,0.17832373,-0.035767496,0.058012914,0.034314748,0.0023463308,-0.050690368,-0.008302262,-0.011057152,-0.039118476,0.036389317,0.036339093,-0.04145119,-0.0058367164,-0.01184098,-0.04573392,0.06457411,0.060102824,0.023210205,0.079432406,0.004056892,0.04215263,0.00082130014,-0.023311706,-0.04075455,0.01512394,0.13524897,0.05167915,-0.005322451,-0.050984748,0.054693405,-0.031288013,0.080940485,0.030341988,-0.004185443,0.006666333,0.04413333,0.0076110084,0.03035407
0.009448635,0.015297124,-0.05699023,0.06425395,0.01693873,-0.010283661,-0.05601944,0.030773977,-0.004863153,-0.0455666,-0.0527343,0.042203434,-0.05731193,-0.009123366,0.01269322,-0.027349778,0.0028607391,0.08382914,-0.020743899,0.033488557,-0.0052386564,0.054262083,-0.012900914,0.03126511,-0.0421452,-0.0080639925,0.008124039,0.047359485,-0.053652123,0.020436775,-0.033953194,-0.00035702775,0.006063134,-0.047474254,0.11128172,0.011798113,0.01305167,-0.0123713035,0.111264214,0.042000514,-0.072558105,-0.009123235,-0.07938517,-0.043881867,0.02383451,-0.06214574,0.011965126,0.007590117,-0.018383529,-0.030238697,-0.016074456,0.029476948,-0.0075452966,-0.0064944853,0.027547298,0.0057102726
0.063118875,0.06408954,-0.035249446,-0.016087567,0.02526989,0.099342406,-0.00097398495,-0.059925612,0.018062783,-0.04375246,0.06806699,0.015422728,0.028158203,0.095918775,0.10208317,-0.033890635,0.011036729,0.010524084,-0.03979537,-0.09396703,0.07797515,-0.045390323,-0.044335283,-0.060810346,0.0081020845,-0.023091167,0.012752699,0.004944407,0.07597452,0.0728972,-0.07763399,0.013193877,-0.04157988,0.039645847,0.015602527,0.02192863,-0.016437747,0.04418426,-0.041151457,-0.036119126,0.007577493,0.06959823,0.05646197,0.07150995,0.10338541,0.042145073,-0.06516533,-0.045403372,0.016219724,-0.028703013,0.11268652,0.01669994,-0.018296396,0.033063665,0.13338691,-0.1020843
-0.014711955,-0.02801716,0.034289125,0.004927314,-0.080060706,0.015253569,0.015583621,-0.0050032935,0.08013462,0.033962563,-0.025584007,0.10793345,0.068832025,-0.021245081,0.016048055,-0.010816666,0.02730198,0.0029738054,-0.059356857,0.007867951,0.030590143,0.04023752,-0.01858901,0.04112628,-0.04094346,0.08836012,-0.029132275,-0.032119412,-0.021114876,0.010800987,0.0037783468,0.08412783,-0.045210853,0.09338513,-0.04097023,0.04796895,0.05682422,-0.04881293,0.065635,-0.030633943,0.07926123,-0.05461628,-0.0572081,-0.059882924,-0.050020378,-0.041024104,-0.025098043,0.040311117,0.05042059,0.047323335,0.008052798,-0.019291256,-0.04645438,0.101927534,-0.004446145,0.030727936
0.008405504,-0.01356373,-0.11698855,0.027601136,-0.053023763,-0.010424315,-0.04776722,-0.100781865,-0.021880208,-0.07582996,0.0433941,0.036588255,0.071507655,0.061862215,0.023921251,0.04328402,-0.023243092,0.016172372,-0.043057013,0.039074473,-0.05989937,-0.02396918,-0.06441416,0.02376232,0.0251024,0.03790491,-0.026630506,-0.0678115,-0.059362724,-0.027856736,0.036243267,0.006141311,0.058456272,-0.08103112,-0.060715113,0.060975816,-0.012050197,-0.06889532,-0.053889625,-0.035371657,-0.027038997,-0.041373286,-0.12025144,-0.073816486,0.011991708,0.08924079,-0.040600225,-0.07852049,-0.026752394,-0.074550755,-0.024509024,0.043653563,0.04617699,0.044468183,0.02319144,0.03390571
0.021596301,0.059432182,0.00080913526,0.0005845278,-0.0009072514,0.041762587,0.028768238,-0.06335086,0.02688863,0.065513134,0.037911993,-0.01802948,0.004467624,0.0922316,-0.012316703,0.032561067,0.041022815,-0.0014427782,-0.020087268,0.045213494,0.032355923,-0.06502113,0.05111746,0.06466479,-0.015189599,0.0015182925,0.056678105,0.008789911,0.020707699,-0.018731588,-0.0511392,-0.009190539,0.0407612,-0.022518998,-0.0088116685,-0.07408592,0.055841807,0.035218794,-0.023919964,-0.035956174,0.061648957,0.085757434,0.02498715,-0.061127003,0.028779535,0.040181484,0.11798655,0.010849966,0.0051093497,0.11378595,0.03234374,0.0036151651,-0.05172714,-0.0025434422,-0.04084206,0.05790684
-0.0033432152,0.017372651,-0.045785714,-0.028179852,-0.044208515,-0.05646882,-0.005183906,0.056827042,-0.007364823,0.07069086,0.083663315,-0.03331183,0.005908672,0.0008327626,0.05910204,-0.016686633,0.012369414,-0.058069404,-0.06575129,-0.025701538,0.008209579,-0.10420608,0.01693432,-0.047897503,-0.02492139,0.019051336,0.016181536,-0.029844249,0.01015352,-0.046495415,-0.025671504,-0.00015266122,0.0026047549,-0.007390637,-0.08713119,-0.05715419,0.05269148,0.052201282,-0.09196805,0.031772554,-0.0022967893,-0.039244253,-0.114847176,0.036575627,0.044463906,-0.070049286,0.035695683,-0.008102669,-0.04265827,-0.0707397,-0.048650574,-0.01249612,-0.0006645904,-0.020831015,-0.08221192,0.042579886
0.004815027,0.029366763,0.054629784,0.054746997,-0.003260227,-0.013301924,0.050793413,-0.058017086,-0.02997933,-0.002479273,-0.087161705,0.0321676,-0.021389423,0.030004334,-0.028173618,0.042529777,-0.020366903,7.067429e-05,-0.010333292,0.08835373,-0.025177855,0.011986997,-0.07924123,0.020155514,-0.06397957,0.09239116,0.02135715,-0.020238316,0.007951399,0.04016878,0.076106526,0.055397484,-0.022833945,-0.034623746,-0.017021483,0.0100499755,0.049753617,0.0777921,0.00074304664,0.0040176725,0.060984954,-0.026498111,-0.047794133,-0.068949245,0.033378538,-0.010114678,0.014144587,-0.0620314,-0.0005659465,0.011005953,-0.04142759,0.008524382,0.02089917,0.060508285,0.07891835,-0.0704067
-0.03334841,-0.006728805,-0.026524905,-0.0848603,-0.011168698,-0.058976308,-0.009800224,0.019915404,-0.08371582,-0.017731532,-0.044629775,0.019781958,-0.04104642,-0.058676366,-0.088220015,-0.0532235,-0.030897157,-0.037150763,-0.0014429949,0.031581797,-0.09608573,-0.037604067,-0.07605072,-0.08609299,-0.022772118,0.003810131,-0.10893525,-0.027198603,0.02380006,-0.04179666,-0.029471306,-0.06770468,-0.02849239,-0.0023694506,0.0448075,-0.02837902,0.027000701,-0.06507243,0.03882266,-0.051908758,-0.08871695,-0.067944236,-0.0663266,-0.037946723,-0.04661593,-0.005985982,-0.05748665,-0.06306717,-0.006122247,-0.006348442,-0.06902518,0.017060593,-0.029181505,-0.009157654,-0.046635296,-0.06611231
0.041523635,0.011198118,-0.004023395,-0.011750346,-0.0018771962,-0.038395744,0.007232871,-0.0058088144,0.006185676,-0.07631208,0.085680924,0.0037034885,-0.027105369,0.080409564,0.041376103,0.026089182,-0.029925138,0.07831085,-0.027329462,0.055430174,-0.010850163,0.053571332,0.008504135,-0.02121474,0.0017045452,0.02797843,-0.048873678,0.062757075,0.10527951,0.040681306,0.07859758,0.09935186,0.008375848,0.04335717,0.024234215,-0.06895974,0.07454645,0.022897257,-0.10695043,0.100729,-0.0013998179,0.0089976145,0.022585813,-0.014619485,0.02410299,0.064960696,-0.015049044,-0.11172379,0.037169527,-0.016423697,-0.094107546,0.061329305,-0.01242947,0.043509983,0.03827365,0.09432993
-0.027309012,0.03738713,0.07360856,-0.031552114,-0.09462918,-0.032234214,0.028698001,0.025919419,-0.0061666425,-0.046898868,-0.030085895,0.093581416,0.0064933435,-0.04134778,0.051580228,-0.020195033,-0.021081144,0.020829465,-0.033686582,-0.04940313,0.03716547,-0.013480928,-0.05136229,-0.05540677,0.016011557,0.044883706,-0.028540509,-0.0021085215,0.051930185,0.07869043,-0.067133375,0.011082823,0.07759922,0.034779973,0.05840287,-0.019573603,-0.0136155365,-0.052801147,0.057339277,-0.0094502065,-0.0334659,-0.06246625,0.008933542,-0.069438435,-0.020826984,-0.10547592,-0.036423214,-0.02899879,-0.007149258,0.013350539,0.06199615,0.008292574,0.011846804,-0.03661997,-0.061026547,-0.07327631
-0.03673372,-0.005084555,0.062649444,-0.022760686,-0.10485991,-0.048084617,-0.013279336,0.025703989,-0.035536345,-0.051294953,-0.009566309,-0.035923004,0.043145806,-0.010491297,-0.06623623,0.008621637,0.0068777967,0.00041783086,-0.07324706,-0.01632927,0.027206954,0.027295707,-0.04748831,0.0019945442,-0.021767957,-0.09425645,0.0044307867,0.010153062,-0.03566933,0.045174792,-0.041431442,-0.02300934,-0.03970728,0.056607794,-0.00071958924,-0.007192061,0.0012156377,-0.0031639421,0.05423946,0.025142614,-0.08272788,0.07505524,0.024411133,-0.12659173,-0.015304079,-0.055540096,-0.09620629,-0.045191586,-0.082913905,0.012598706,-0.01749095,0.05542167,-0.024853243,0.052889053,0.04373508,-0.07908691
0.05676557,0.011718564,-0.07923656,0.034963835,-0.025972562,0.020993374,0.043057732,-0.0020102584,-0.07503043,-0.115167536,-0.04699923,0.008855408,0.11795284,-0.038406424,-0.009331989,0.049445957,0.023271408,-0.019022124,-0.010145567,0.027413322,-0.049879946,-0.09574263,-0.036807798,-0.037577763,0.0745309,0.0016731068,-0.099713326,-0.028630612,-0.03159939,0.06742502,0.023322752,0.06535871,-0.0704445,-0.034530677,0.07430911,-0.022399684,0.038019795,0.033980086,0.005597364,0.027350917,0.031840898,-0.046292473,0.022341704,-0.037615195,0.07477297,0.13141423,0.026779654,0.014480859,0.026513593,-0.014470234,-0.023891453,0.092221625,0.023570303,-0.025722802,0.048797913,0.023733405
0.027447408,-0.015986085,0.07047308,0.05067686,-0.073731035,0.046158694,0.025526183,0.042364813,-0.044146582,-0.04734775,0.023577848,0.009749924,0.06424839,0.059887912,0.003973122,0.048587926,0.016415907,0.026777836,-0.05152767,0.097982705,-0.03473348,-0.017732194,-0.056950845,0.011967165,0.067656405,-0.011271258,-0.009256381,-0.046009358,0.06046398,0.09661857,0.09051545,0.08464577,-0.03230835,0.020745095,0.06215239,-0.027314555,-0.0022765046,0.048692442,0.047236983,0.03162017,-0.049875807,0.037323687,0.08792258,0.023911376,0.033994187,0.048648886,-0.011047136,-0.060318902,0.01937709,0.015243041,0.004515032,0.08462915,-0.0068035154,0.061591115,0.013830027,0.07466531
-0.08042032,0.047043968,0.092547,-0.07765232,-0.05155962,-0.016088381,0.019880803,-0.034362912,-0.026801825,-0.043161053,0.02728894,-0.009810568,-0.0053875176,0.03348128,0.032989178,-0.014430383,-0.017852578,-0.012406723,-0.04274134,0.083824664,-0.066485144,-0.025525726,0.013410121,0.06585509,-0.021286195,-0.009580641,-0.024263676,-0.016604446,-0.0031256196,0.07555444,-0.061061665,0.025815967,0.029548096,0.066729486,0.010669305,0.04402957,-0.025654212,0.06104622,0.034530807,-0.00398015,0.007889263,-0.112064354,0.062852584,0.02368783,0.024922995,0.017348973,0.03822963,0.0015836654,0.031558335,0.010195768,-0.029307753,0.005567805,0.041631863,-0.05072443,0.020028455,0.0074209766
-0.0295293,-0.017745076,-0.08974733,0.0027568992,0.11619024,-0.03824451,0.049060535,0.043228753,0.0616432,-0.040159892,-0.09937892,0.04501604,-0.06417467,-0.0058022453,0.05178628,-0.032813754,0.015409481,0.06365474,0.039912213,-0.005482424,0.023400012,-0.057077974,0.030864444,0.033051897,0.07963281,0.045367174,0.009723015,-0.003397417,0.024486618,-0.010139939,-0.015089546,0.041202106,-0.013330524,0.012169186,-0.027389118,-0.021232056,0.0015416679,-0.02790052,-0.008541852,0.051511895,-0.024581172,0.085595295,0.003756463,0.05927098,0.07318492,-0.07725722,-0.014436114,0.033736758,-0.031765174,0.012468226,-7.490264e-05,0.019079583,0.02065601,-0.015487213,-0.010231968,0.016536998
0.017571513,-0.029110756,0.032567963,-0.050570436,0.0567044,-0.069552265,0.003227073,0.09355549,0.0020761332,0.03553033,0.0073727164,-0.017743671,-0.072314315,0.05695217,0.0054250564,0.020937879,0.051191386,-0.04121659,-0.010703225,0.010040707,-0.05927775,0.023311483,-0.008711937,-0.042992283,0.07368938,-0.01742345,-0.14965118,-0.10774768,-0.015157679,0.0009916032,0.029857853,-0.054534126,-0.020268563,-0.019853046,-0.0043424885,0.022845777,-1.6928027e-05,-0.085688144,-0.07280482,-0.037157133,-0.09001965,-0.024469512,0.028839424,-0.065350324,-0.051542252,0.047578048,-0.010868647,0.014134976,-0.03432305,0.040076137,-0.06935995,-0.039130352,-0.036916837,0.046301745,-0.099405885,0.036385883
-0.01934366,-0.010265027,-0.007985422,0.016074216,0.02214436,-0.11229487,0.0058923443,-0.042239603,0.024464589,-0.031437565,0.0032504303,0.009463308,-0.086607516,-0.021568673,0.03668592,0.020764071,-0.0525466,-0.088077664,-0.03229899,-0.09462159,0.0071409554,0.010641563,0.056808904,-0.034247477,-0.11145487,-0.015869226,-0.012054256,-0.09249456,-0.038006574,-0.010298337,-0.08026698,0.054036185,0.05354877,0.045241874,0.021324512,0.034589346,0.030812804,-0.0016524462,0.053616658,-0.021052176,0.034089845,0.02348317,-0.010974895,0.01657611,-0.030530626,0.12266245,-0.03595493,-0.0641252,-0.09393224,-0.0036468417,-0.14945503,0.012202137,-0.015026552,0.03574924,0.014179169,-0.070131555
-0.061319128,-0.04083572,-0.060236625,-0.018955946,-0.014269421,-0.003733364,0.0385732,-0.009517209,0.030248879,-0.014695916,-0.050961398,-0.03207061,-0.0074584438,-0.12828894,0.015742384,-0.013104721,-0.004760616,0.04292356,0.01438799,-0.08697696,-0.02005713,0.043427367,-0.020192415,-0.035202418,0.05374273,-0.009062553,0.06505575,0.027580058,0.0012209269,-0.048198562,-0.027653394,-0.007470796,0.0045070704,0.060936343,0.012018877,-0.04367269,0.030825075,-0.008943938,-0.011264591,0.021411795,-0.018188069,-0.015782079,-0.011926878,-0.025734486,-0.06120054,0.021133704,0.037363816,0.041048,-0.075225696,-0.08697205,0.046451647,-0.064471945,0.03409192,0.05787157,-0.057340436,0.03373809
-0.060214795,-0.05480439,-0.02691817,0.0067454427,-0.030057177,-0.091247395,-0.0050937785,-0.023154538,-0.07523501,-0.09906748,-0.02058276,0.0069506285,-0.013323721,-0.037363343,-0.06497008,-0.076836355,-0.006096223,-0.041151784,-0.016885133,-0.11073464,0.04372341,0.030260617,-0.028693635,0.03500116,0.041030284,-0.022247547,0.045586765,-0.021304658,0.0015125845,-0.013730113,-0.02062294,-0.051630743,-0.011844381,0.036396507,0.042796973,-0.039055705,-0.035425246,-0.033507664,-0.03831174,-0.04548946,0.0045213806,0.030881094,-0.037901606,-0.03262917,0.004995807,-0.06373053,-0.07331623,-0.015578633,-0.0215501,-0.055715483,-0.030854221,0.008107733,0.005932529,-0.041432697,-0.051231623,-0.009188906
0.022615906,-0.030076308,-0.0024829458,0.028006513,-0.01841353,-0.035036482,-0.041047364,-0.09494784,0.014035704,-0.06316481,0.07983217,0.013761485,0.012955795,-0.04215749,-0.035949435,0.024709761,-0.06014328,-0.028072838,-0.047703695,-0.04512249,-0.01361646,-0.017420107,-0.03651947,-0.046294186,-0.0069276453,-0.048151013,0.02237322,-0.01945197,-0.017562566,-0.036742188,0.046891216,-0.056500364,-0.008603314,-0.022001995,-0.004986117,0.05843817,-0.016165836,0.04366883,-0.010892961,-0.064036846,-0.009859481,-0.09492698,-0.0138212405,-0.035784163,-0.035716463,0.023797233,-0.053087156,0.09974227,-0.061313078,-0.05035034,-0.006358689,0.028584473,-0.021090316,-0.021025265,-0.04643985,0.073537454
0.037347607,0.02809557,-0.0016281983,-0.045355584,-0.05885084,0.07298129,-0.03233998,-0.035530344,0.016381418,0.012483951,0.0068105045,-0.103542246,-0.04653045,-0.0006887263,-0.051200878,-0.005773484,-0.010746363,-0.057307508,-0.06599673,-0.0067534964,-0.033530813,0.03601582,0.014561901,0.038706325,0.06297687,0.041891817,-0.057039753,0.077171594,0.059338074,-0.0041626473,-0.09309723,0.043201655,-0.054720685,-0.016436655,0.002420487,-0.037274964,0.008818403,-0.046349395,-0.00013302072,0.032213505,-0.013563868,0.07893439,0.008397508,0.07831366,-0.08085194,-0.008048938,-0.030507414,-0.026833065,0.0057845414,0.031950578,0.043393135,-0.050909944,0.024851065,-0.07384604,-0.035728894,-0.093994915
0.055166256,0.07300541,-0.005869302,0.015599881,0.029406806,0.024643844,0.08237437,-0.074484415,0.018732788,0.0502281,0.03283021,-0.017412806,0.0065020532,0.11514124,-0.072433,-0.010839111,0.011268827,0.06291744,-0.05383458,-0.05670746,-0.03358932,0.043210622,0.09500187,-0.014089735,0.037347976,-0.05832399,0.007618291,-0.031656053,0.101620145,0.070283175,-0.020447263,0.07313807,0.010072624,0.024212781,0.08077687,-0.0030327847,0.07024932,-0.01498113,0.046858296,-0.014466449,-0.038670365,0.06418475,0.07003018,0.0821796,-0.0053351857,-0.035476204,0.053131353,-0.030149907,0.00191248,0.08588881,-0.0011211073,0.11613884,-0.05386232,-0.0054039066,-0.02603823,0.026718061
0.029354794,0.056376304,-0.041489054,-0.04573122,0.055495024,-0.016046355,0.098948725,0.027969161,0.051519845,0.009172009,-0.0019931113,-0.04529796,0.053009648,0.012026592,-0.02180267,-0.022777308,-0.050779738,0.07460767,0.074739255,0.017175945,-0.00015840425,0.0041670343,0.044550713,-0.016084978,0.08098476,-0.08651371,0.019866444,-0.03094236,-0.0057011764,-0.0095090745,-0.092546016,0.008723678,-0.011332348,0.060939085,0.12736095,0.08329623,-0.041798294,0.06826866,0.058517165,0.02298387,-0.016331669,0.09503443,0.007960781,0.043243732,-0.028239744,-0.065910876,0.0016968496,0.030445846,-0.053171653,0.06360591,0.03159962,0.046348274,0.013587788,0.013623047,-0.03580665,-0.012391574
0.015365154,0.0041687526,0.01471207,-0.045623165,0.009358143,-0.029738234,0.085491665,-0.012485049,0.030369421,0.05362833,0.024430783,0.030930916,0.07595364,-0.027734611,0.09119629,-0.10259719,0.043582946,-0.013408088,0.02279098,0.009626586,0.05609026,-0.032356825,-0.028380966,0.008465209,-0.031798624,-0.029514968,0.025683342,0.0013900407,-0.0045471955,0.12188634,0.040893044,-0.03311305,0.024639105,0.049312748,0.024443986,0.046398796,0.100520425,0.04774944,0.021821432,-0.051561467,0.072018035,-0.020693516,0.023798516,0.0023529048,0.01783974,-0.024839893,-0.024305996,0.074695215,-0.012143945,0.07014441,-0.06787665,-0.025566528,0.05891636,0.051876705,0.067252524,-0.03473151
0.07680114,-0.029410556,0.018670188,0.011127999,-0.024843147,0.024200613,0.02440345,0.009545399,0.018231194,-0.025608283,0.017018368,-0.023518842,0.037712585,-0.011815922,-0.006621984,-0.06751153,-0.045747053,-0.034594137,0.026662853,-0.036153715,-0.045958593,0.04966242,-0.062785774,-0.036506843,0.10122549,0.07691104,0.070725895,0.053279605,0.056197867,0.10163334,0.002807922,0.057151996,-0.039853778,0.039006464,-0.04146792,0.0011133087,0.031463947,0.04213859,-0.04318858,0.028870866,0.022008494,0.07973785,0.06556836,-0.057878997,-0.07570156,-0.09397273,0.03433145,-0.066742554,0.011762572,-0.048536748,0.0013160077,-0.008497329,0.049641024,0.027073966,0.06127446,0.06937584
0.018165832,0.06384227,-0.030245068,-0.034353003,-0.024653077,-0.05780131,0.102247864,-0.04278084,0.006969798,-0.02234896,0.03365488,0.018434709,-0.013400092,0.0016632697,0.033390947,-0.0064808745,0.002201483,-0.093295865,0.052375365,-0.021402007,0.038383346,0.025513878,0.0260964,-0.03471896,0.0737131,0.020996043,-0.0105901295,-0.010579583,0.033701986,-0.0032523705,-0.0740314,0.083748594,0.0068209986,0.039386775,-0.009753379,-0.041746162,0.038669955,0.0010626243,-0.027415462,0.020384025,-0.059855867,0.034627713,-0.01995177,0.08525777,-0.033047,-0.06944677,-0.09996951,-0.032988507,-0.029333165,0.029935941,-0.03814913,-0.054608043,-0.030032465,0.07097597,0.027164027,-0.031751662
-0.00038069213,0.043124404,-0.005015595,-0.036469422,-0.05480173,0.030558504,0.04903283,0.032285146,0.0067374827,0.037413627,0.101760045,0.017722454,0.031902287,0.07424784,0.082749434,0.00033451954,0.02227842,-0.09067127,0.03860514,0.012082412,0.084481336,0.008840942,-0.021523144,0.011008076,0.10637103,0.03120791,0.017287236,0.02077011,0.04233588,-0.016559755,-0.031762525,0.0034715612,-0.043350093,0.087356776,-0.052499466,0.018614704,0.03943474,0.018231828,-0.0357823,-0.019334698,0.008514776,0.010331565,0.02484105,0.06218283,-0.037976965,-0.072219394,-0.039419275,-0.021471245,-0.08949655,0.054866336,-0.033443213,-0.024569642,0.048391886,0.03322017,0.01038049,0.029825721
-0.03646787,0.0009148785,-0.059777632,0.06647164,0.038358625,-0.0060036266,-0.033947926,-0.011815862,-0.10941305,0.04831253,0.011643237,-0.010865858,-0.02745027,0.015470071,0.028305857,0.012941567,-0.052338403,0.035398316,-0.040925168,-0.041549068,0.084831975,-0.08012846,0.06781866,0.016047524,0.04731902,0.081746206,-0.05050382,0.1177035,0.016002607,-0.021352166,0.032874804,-0.03086223,0.08429874,0.080029875,-0.040596973,0.021390932,-0.09248942,-0.005195495,0.05640306,-0.101917416,0.036984827,0.0012960779,-0.099356435,0.007665025,0.024341004,0.04985164,0.008182141,-0.02301646,0.0005368924,-0.0921686,0.061916012,0.0077451007,-0.082130924,0.03434282,0.0032189302,0.015757233
-0.041543342,-0.02634444,-0.016417751,-0.0053693876,0.06180839,0.0021157512,-0.022759775,-0.023287514,-0.054743692,0.005007432,0.022625655,-0.011453364,-0.07395714,-0.061456297,-0.033700123,0.04043776,-0.00936181,0.04201644,-0.040940415,0.032246336,-0.024342172,0.1001016,0.01694875,0.037096296,-0.0021340935,-0.015374119,-0.004449953,0.12468174,0.033865243,-0.06628736,0.0009364196,0.009271067,-0.028604666,0.0043556113,0.0010912145,-0.05177592,-0.044134866,0.028302338,-0.02491708,0.012453083,-0.02738671,-0.008876056,-0.0078116707,0.043513913,0.010282513,0.09749655,0.032119755,0.06796104,0.004356679,-0.060550876,0.06829913,0.07916672,-0.030354312,0.0073042843,-0.055738904,-0.0031729373
-0.009137702,0.026699292,0.038604174,-0.043090895,-0.044798665,0.0026200453,-0.059358876,-0.029917633,0.105834164,0.06710989,0.036791153,0.06555375,0.027836228,0.09372094,0.09375697,0.04065533,-0.0035105979,0.040081862,-0.02875124,0.049979262,0.10519105,-0.0927723,0.03251304,0.028582552,-0.03400279,-0.019480523,-0.1003119,0.04604381,0.11875241,0.050190225,0.046553902,0.048890404,-0.08126455,-0.02308313,-0.025648044,-0.010176575,0.01185636,-0.025109867,-0.04853539,-0.046964303,-0.005328712,0.10928172,-0.018408028,-0.097753495,0.02648487,0.027508534,0.01553944,-0.014877509,-0.03891376,0.05819229,0.06599442,-0.017088858,-0.050767846,-0.0326561,0.036098465,-0.03836786
0.037506886,-0.007857251,-0.008548744,0.07204831,0.036200922,0.012937677,-0.06491244,0.055304233,-0.0037208449,-0.06153408,-0.023032956,0.034425322,-0.023747852,0.048832566,0.001576535,0.020781092,-0.06255077,0.06109708,0.050201662,-0.04644136,-0.06688174,0.06564726,0.010080971,-0.055112097,-0.003224767,0.054156195,-0.06709624,-0.026071198,0.010133436,0.018150678,0.0031111797,0.08495882,0.0029617653,-0.019199802,-0.04741137,-0.03574686,-0.04382463,-0.026730768,-0.004454714,0.027387835,-0.035368543,-0.046562515,0.0879573,-0.029465612,-0.04020312,0.019997563,-0.058845147,-0.07065561,0.08126022,-0.040795557,-0.09521275,0.04957094,-0.046531375,-0.012488445,0.03025885,0.037115607
0.04765954,-0.011807958,0.032776922,0.01760953,0.03892656,0.015124784,0.018407952,-0.013727436,-0.024833243,0.03013054,0.04254941,0.04124997,0.046595287,0.07925002,-0.029325856,-0.0052494705,-0.030413602,0.024711963,0.0077189887,0.007887451,-0.07351821,-0.07279042,0.04817266,-0.029182278,-0.019280616,0.07630771,0.028392008,-0.04793677,-0.069287725,0.072025456,-0.00275272,0.06845716,-0.011202804,0.010372066,0.07514202,0.09889562,0.0016016,-0.005812532,0.05340144,0.040912643,-0.046532825,0.05126627,0.0107525075,0.042003233,0.003136217,0.09977558,-0.01760902,0.003846947,0.036018874,-0.03258503,-0.013446876,0.03801415,-0.029416693,0.020378852,0.05308672,-0.047957044
0.08884791,-0.032037485,0.025961835,0.096319154,0.05388626,-0.020775199,0.09016979,0.036084175,0.026111972,-0.051991053,-0.013129137,0.021287043,-0.052354854,0.13485761,0.0036717816,0.02290701,0.027899874,0.077745736,0.0044057025,0.015350414,-0.09564439,0.022881571,-0.08023547,0.016237974,-0.051997837,0.018852567,0.005593899,-0.10648464,0.049346417,-0.009432095,0.09377992,0.041287832,0.004265035,-0.04165941,0.0023344676,0.043123055,0.015158368,-0.012956582,0.030751815,0.008009854,0.06212511,-0.010009213,0.005430316,0.025242923,-0.00079485454,0.13960059,-0.06590583,-0.046984855,0.020053132,0.027181115,0.015206004,0.14587645,0.020052863,-0.052719787,0.052261144,-0.021001635
-0.03159007,-0.036634337,0.05879395,-0.030480314,0.042383514,0.0191405,-0.055673257,-0.07227253,-0.015698409,0.027093789,0.05807814,0.059219413,-0.03102021,-0.014662786,-0.059100945,0.03290716,0.01256137,0.0053566974,-0.043547112,0.0060457927,0.1300871,0.039616626,-0.026101677,-0.042984232,-0.014193969,-0.076008715,0.03254521,0.027053183,0.041431673,-0.07520784,-0.07816762,0.011213367,-0.017389137,0.002962024,0.023328852,0.023681838,-0.035505146,0.011772713,0.010697595,-0.024248755,-0.018410489,0.022374129,-0.04630526,0.045825988,-0.08138447,-0.014696063,0.02125766,0.06330813,0.019219818,0.041967455,-0.003730118,0.06714426,-0.024080554,0.072025515,0.07167159,0.029171348
0.018917697,-0.05280173,0.05142943,0.010178197,-0.048187006,0.06291736,-0.040228244,0.062007084,-0.008531935,0.044743568,-0.06533555,0.0056831697,-0.030450627,0.016252767,-0.071353205,0.012734877,-0.0450067,0.072575524,-0.11290615,-0.007224386,0.029778179,0.048759468,-0.0699673,0.04884754,-0.04248168,-0.058722723,0.08297072,-0.048142094,0.05757638,-0.041805077,0.033908084,-0.04594559,-0.020466007,-0.00305395,0.028839383,-0.056228098,-0.0099558355,0.0061463853,0.07143682,0.019276956,-0.010535232,0.060489994,0.030812973,0.031077519,-0.003983177,0.0014977974,-0.011318928,-0.005053394,-0.051538177,-0.058703344,-0.027134018,0.025281008,0.017090375,0.020194108,-0.034807008,-0.036988396
-0.059880782,-0.0077832197,-0.00030536737,-0.020313172,0.05816104,-0.037815407,0.012425907,-0.0501094,-0.023319788,0.08173252,-0.015510901,0.013634068,0.046005096,0.02550589,-0.03336838,-0.04222098,0.09527781,0.042574693,0.026538108,0.033159804,0.10646386,0.02012225,-0.0232013,0.0126035,0.06252222,-0.05001035,-0.0080937045,-0.110291235,0.0067530284,-0.05514439,-0.0024349606,0.012636636,-0.04881143,0.050782945,-0.07210768,0.024377368,0.08409736,-0.013727586,-0.029513393,0.038200922,0.009347311,-0.03867992,-0.059180226,-0.0068477024,-0.006338199,-0.027019484,0.05535961,0.03749474,-0.022179088,0.051256195,0.03772666,0.023906227,-0.027161736,-0.023747519,0.006243656,0.0049984814
0.04657623,-0.038395774,0.00021558267,0.01816347,0.025915189,-0.03647599,0.0378048,-0.047747802,-0.064042814,0.007627188,0.034680087,0.009534244,0.07572268,0.12310987,-0.06255066,-0.059070364,-0.0073265014,0.09895181,-0.027932765,-0.0392686,-0.019597165,-0.046116903,0.011694405,0.031232173,0.061662044,0.0155591,0.00622181,0.0077016316,0.008744984,-0.0053082886,0.073644996,-0.021992754,0.009242119,-0.00052444666,-0.00022645511,0.040802576,0.040621076,-0.049918145,0.013957187,-0.049863096,0.03936566,-0.0053197327,0.04126067,-0.032496285,0.05451699,0.040615316,0.016291069,-0.053390298,-0.022854563,0.032507196,-1.7142718e-05,0.060343288,0.022995073,0.03747181,-0.06756992,-0.046211097
0.036550842,0.06928171,0.058483917,0.0140119055,-0.0016876556,-0.004116829,0.003914508,0.07180283,-0.011005911,0.073137805,-0.089729354,0.057208356,0.04898908,0.075335935,0.0022878975,-0.019735029,3.873045e-05,0.0190728,-0.06709821,0.012320034,0.059368834,0.0366582,3.7860296e-05,0.047464985,0.047300756,0.10892502,0.045402482,0.079499096,0.007649824,-0.08122871,-0.0297923,0.023569008,0.057434037,-0.06834082,-0.028344508,0.08251486,0.029159892,0.020958591,0.09053626,0.062462125,0.056520447,0.07359364,0.027778,0.013330398,-0.0053822566,-0.04395039,0.13123904,0.034489926,0.017805343,-0.077322565,0.048850775,0.04155535,0.11021398,-0.05613554,0.071509406,-0.060082022
-0.048070814,-0.03284731,0.09484726,-0.04321934,-0.03634926,-0.039136633,-0.038929664,-0.033827633,0.04395114,-0.0050084125,-0.059867993,-0.056612067,-0.0036881745,-0.07231627,0.027755663,-0.023104584,0.012970826,0.08241055,0.004621015,-0.040974047,-0.057584766,-0.041605327,-0.011738529,0.023563169,0.047104217,0.07559685,-0.06614227,0.048264656,0.0021875938,-0.01973222,-0.02662349,0.013325421,-0.046225265,-0.0057348404,0.048565578,0.0023986886,-0.005713102,-0.0014338188,0.05857579,0.037140682,-0.02933305,0.032371417,0.063048445,-0.0056419047,-0.029264377,-0.11853006,-0.060690038,-0.047817584,0.075693436,0.03652223,0.012468346,-0.040391132,-0.041742694,0.011844936,0.07658928,-0.02860508
-0.04143479,-0.0159253,0.037893258,0.07536705,-0.052188784,0.0028289882,0.035725806,-0.01383507,-0.0154237915,-0.053738087,-0.023565797,0.057976607,-0.0027952595,0.07453723,0.032692373,0.019427149,-0.008468524,-0.01962349,0.0078554675,0.024617817,0.0016258791,0.03419715,-0.02762016,-0.021466529,-0.08297337,-0.025540998,0.0033886605,-0.034547467,-0.018131768,-0.113075934,-0.020448491,0.056680363,-0.014173341,0.04231907,-0.058520842,-0.07910777,0.06501924,0.06433726,-0.04981947,0.04231997,0.031031122,0.09334805,-0.019330608,-0.003338401,0.036178302,0.034685053,0.0060626795,0.035218637,0.050436214,-0.03088584,-0.08058493,-0.033057086,0.0058160895,0.007276833,-0.058836814,0.04834344
-0.04320402,-0.018200753,-0.035142556,0.026550613,-0.03903315,-0.0935225,-0.03661446,0.015797507,0.0076977727,-0.06483347,0.028030027,0.015051032,0.017484324,-0.0084604025,-0.03216349,0.0138271805,0.006458795,-0.0013652756,-0.07552265,0.036445968,-0.06290264,-0.032031007,-0.014017351,-0.038463786,-0.0075757126,-0.010224681,-0.008843108,0.003142586,-0.04968019,-0.036953777,-0.09204673,-0.07252481,-0.065215126,0.055048786,-0.07904984,-0.056593463,-0.03573472,0.013827395,-0.028497728,-0.01756875,-0.024289122,-0.024273954,0.0061859945,-0.10618685,-0.039026257,0.023994213,0.027136412,0.0075090914,-0.0015004489,0.032903377,0.003094404,0.012773852,-0.036048047,-0.0076347,-0.012429565,0.010152647
-0.0008980045,0.05986298,-0.0007076982,0.030937834,0.13273787,0.13640329,0.11905239,-0.040062815,0.035760432,0.0063839615,0.145746,-0.07603529,0.0319594,-0.04806425,0.10587576,0.00020576996,0.12538935,-0.025322353,0.08964201,-0.023286263,0.1284334,-0.03818479,-0.113634385,0.0040757735,0.087088324,0.05510852,-0.021789305,-0.08115529,0.14671929,-0.056311175,-0.052998513,0.03641741,-0.07481203,0.16018955,-0.046714425,-0.032356244,0.14014126,-9.8367535e-05,-0.07542387,0.04169367,-0.0012008008,0.0034659535,0.016395709,0.16469315,0.057216916,-0.058557168,0.10887444,0.059622467,0.044001024,0.1507922,0.06955144,-0.038694512,0.08906133,0.031481665,0.031487267,-5.0503364e-05
0.0217949,-0.011029372,0.06644013,-0.015825382,-0.06894602,0.11279805,0.025872895,-0.010224439,0.018653389,0.049600877,0.029379444,-0.03772251,-0.022606678,-0.06184613,0.029942272,-0.0063044988,-0.022789814,0.023041511,0.01881818,0.012589073,-0.09176406,0.025312131,0.013172535,0.004282639,-0.018455764,0.052639093,-0.046993203,-0.034315962,0.05342353,0.0035226133,0.05644745,0.05492281,-0.054520596,0.00285728,0.117096744,0.014093346,0.001869913,-0.045785304,0.087849006,0.012013676,-0.08212681,-0.003655692,-0.0033936852,-0.046922665,0.014043761,0.003293734,0.029650675,0.0065784347,0.06851755,-0.06930503,-0.06981692,0.022386622,-0.010984486,0.002172562,-0.009498634,0.030199418
0.042845093,-0.01260766,-0.026095383,0.024709452,0.020432513,0.086383134,0.041074414,-0.0681083,0.053885378,-0.052952312,0.012902111,0.0281248,-0.010880782,0.01384778,0.04504373,0.02817023,0.04039139,-0.010123639,0.069282055,0.010903354,0.008508075,-0.062335122,0.0889021,0.052333765,0.0064093494,-0.012963457,-0.046286,0.014513071,0.033610217,0.0121950405,0.09444443,0.08374413,-0.020198783,0.022135034,0.0025995031,0.04142535,0.02722779,0.024175335,0.06531788,0.010956603,0.0027447823,-0.007357384,0.017699404,0.05944775,0.04124585,0.007499413,0.036423042,-0.060033098,0.023465807,-0.07980948,-0.0030087046,0.028884321,-0.012571584,-0.059552714,0.016239014,0.029732822
-0.04053559,-0.06362502,3.7947316e-06,-0.029596984,-0.0599471,-0.07669244,0.03503694,0.005755343,0.044582397,-0.06069788,0.0013322739,0.0050060553,-0.088084,-0.0030777848,0.023753116,-0.030643655,-0.06825911,-0.053287,-0.034215577,-0.05107611,-0.036181334,0.11224718,-0.02975414,0.0017991641,-0.03296884,-0.027014103,0.0024565323,0.004656576,-0.13470113,0.03244184,-0.021097902,0.004847052,0.035908964,0.019063506,0.06582319,0.007903438,-0.042862374,-0.019400576,0.013482723,-0.0118591525,-0.004260957,-0.036435153,-0.02631528,-0.0217684,-0.038367566,0.015768584,0.01377991,-0.031446833,-0.018872699,-0.029165141,-0.02676009,0.04189082,-0.01700025,0.02262574,0.038946383,-0.048222296
0.038847398,0.06657689,-0.098795734,-0.011492843,0.10380035,0.005682527,-0.055791866,-0.03595933,-0.09160822,-0.034630522,0.0022961197,0.032004997,0.10176231,0.084442094,0.090362534,-0.03460323,0.07457642,-0.013018229,0.109021105,-0.0765106,-0.0006822732,-0.06755763,0.017506931,0.028843796,-0.013451,0.02894998,-0.0111826435,-0.0029216965,-0.008333062,0.059249364,-0.009380698,0.001303764,-0.09593121,-0.05362323,-0.06560914,-0.10118269,0.13196206,0.018636154,0.0011198898,0.04514614,0.03703721,0.012395306,0.004971773,-0.023258356,-0.06073551,0.063985854,-0.06272635,-0.041293435,-0.051223893,0.07980683,0.033408746,0.0142006595,0.022860086,0.07430573,-0.027466012,-0.026621576
0.07257437,0.040531825,0.06315046,-0.06902173,0.10522904,0.07874939,-0.0180339,-0.05692412,-0.016925415,-0.014924166,0.058450487,-0.0202246,0.047828216,-0.023304448,0.07025253,0.032223526,0.0464004,0.10606614,0.034824863,-0.017684018,0.0094358185,-0.052343167,-7.356127e-05,0.03822209,0.037427668,-0.016332457,-0.016222524,-0.013673131,-0.018825307,0.0162269,-0.013186916,0.049138594,0.035785817,0.056702796,0.0005530757,0.047261093,-0.022785317,0.004670084,-0.11011895,0.015694842,0.042562123,-0.030999662,0.04986707,-0.013890711,0.009226509,-0.022744335,-0.065717004,-0.03689864,-0.049499054,0.03713891,0.044194754,-0.028319767,0.01301179,0.07789488,0.0062364885,0.03082687
-0.040016796,0.043267444,0.033332087,-0.009132854,-0.056842748,0.07669447,0.04204504,-0.043555707,0.06466727,-0.07834762,0.112579614,-0.011645301,-0.0442237,0.04218695,-0.028654603,-0.012172998,0.030141879,-0.021529183,-0.0098645715,0.010695566,-0.014480181,-0.014998572,-0.020059595,-0.049095314,-0.061842207,0.0044213897,0.0025519705,0.041995533,0.10584333,-0.004852913,-0.08817454,-0.047266483,0.03488446,0.0396186,-0.033874873,0.039813485,-0.021714622,0.026297377,-0.098708026,0.06653916,0.016441828,-0.07888693,-0.09065924,0.09368652,0.06614293,0.05754896,0.0050414233,-0.038915895,0.021031868,0.087215535,0.029030794,-0.056650717,-0.07527229,-0.0018378781,0.040712956,-0.011277141
0.011947491,-0.022667479,0.040423762,0.0013134951,0.030658029,-0.041244764,0.02610979,-0.056292407,-0.042064093,0.09631261,0.0136037655,-0.078303754,-0.0034186305,0.06990645,-0.011570874,0.0013938607,-0.06024882,-0.005615826,-0.065054335,-0.009682625,-0.031808514,0.09102912,-0.046087805,-0.04738016,-0.069025904,0.028238416,-0.023762804,-0.081404954,-0.053178504,0.028522002,-0.008450698,0.0070824325,0.0067305984,-0.047651347,0.030351587,-0.016226308,0.03823709,0.033166956,-0.031803016,0.08287835,-0.008511445,0.096747756,0.0050123106,-0.052530088,-0.041357398,-0.008605086,0.028638126,-0.0066988976,-0.016833073,0.032825127,0.004951493,0.010662092,-0.11034997,-0.015268143,0.03869409,0.11697187
-0.037795104,-0.08044456,-0.09467413,0.045877736,-0.02925562,0.013398522,0.03307032,0.013649942,0.0067972788,-0.0040034447,-0.032347806,0.0868703,-0.068081826,0.023602681,-0.017721675,-0.0066053043,0.055912532,-0.05552756,-0.09733209,-0.015111871,-0.05128892,0.003952839,0.0034119256,-0.053637896,-0.07205098,-0.0026747289,-0.080437474,0.03465027,-0.05085808,-0.038683526,-0.027165394,-0.001495603,-0.029170096,-0.035159945,-0.10582591,-0.005891413,-0.027574213,-0.020351522,-0.06626656,0.02164514,-0.07981519,-0.054943755,0.035102874,-0.0010227651,-0.020440558,-0.007467155,0.016168764,-0.03857281,-0.024708165,0.026614783,0.0024199723,0.0122916065,-0.08450593,-0.015249722,0.048129555,-0.0035106912
0.058453564,0.029610334,0.042204656,-0.0045149797,0.042245664,-0.036371723,-0.06202446,0.06507922,-0.06496028,-0.021402989,-0.039247368,0.07841243,-0.09907284,0.02744098,-0.020804128,-0.052758455,0.008446825,0.007749223,0.10169317,-0.07707384,0.02823631,-0.034465753,-0.06341989,0.029203845,0.016887331,0.0005573621,-0.0068503665,-0.010210966,-0.030910673,-0.06358081,-0.061503258,0.029929759,0.031753298,0.06343664,0.0636963,-0.033243496,-0.0037624242,0.008054943,-0.13578406,-0.09173765,-0.012800996,0.013481386,0.018817334,-0.00030218196,0.023871902,0.05451803,-0.058871645,-0.055585835,0.02888171,-0.07814657,0.044839215,-0.02367782,0.0030557378,-0.0054188734,-0.013293398,0.039259564
0.035886712,0.0162908,-0.029973466,-0.0064655584,-0.015169519,-0.095986836,-0.021062111,-0.060541302,-0.052799582,-0.040615935,-0.019056847,0.038351424,-0.0038430882,0.019204926,-0.023601158,0.0076358765,-0.042642903,0.006309351,0.013352432,0.018363435,-0.08165347,0.07599527,-0.018565267,-0.063705996,0.06425121,0.018442983,-0.047074407,-0.018970584,-0.0069274893,-0.00036625873,0.005087556,0.028717386,-0.0048424904,0.06892959,-0.013980346,0.008447774,-0.014142491,-0.10539448,0.09519858,-0.027837886,-0.009947901,-0.04560979,0.041077886,-0.00932736,0.05476781,-0.03273745,-0.044644833,0.038700227,0.018112255,-0.036342163,-0.003960283,-0.021099186,0.009790582,-0.019966189,-0.0644224,-0.009623618
-0.016845528,0.02338562,0.01730729,0.03828042,0.029084299,0.07122876,0.035117086,0.008216886,-0.01673862,0.021632493,0.06622563,-0.09562134,0.038895033,0.043695483,0.025859935,0.032464232,0.006661109,0.058388293,-0.0029118937,-0.11846513,0.006594817,-0.054378178,0.02161006,-0.010804957,0.019591,0.027235284,-0.063826665,0.030066406,0.060485337,0.012501489,0.07047201,-0.029674398,0.015296214,-0.023229191,0.055002976,-0.039956547,-0.010490669,-0.023234865,0.08461295,0.050424732,0.011546295,0.09396295,-0.08413116,0.012176761,0.035615023,0.07971694,-0.050722055,0.042229656,-0.021083828,0.087670915,0.023869399,0.04858428,0.027410088,0.012633806,-0.068425156,-0.048803862
-0.026420487,-0.06716466,0.020004796,-0.06404047,-0.019801106,-0.024818912,0.042362697,0.011569471,0.023622917,0.0038327489,-0.025166146,-0.05579666,0.006031291,-0.060050912,-0.04655446,-0.08642309,-0.043449994,-0.06830885,-0.03943776,-0.016182892,0.013106716,0.045196895,-0.02862871,0.0016151405,-0.005238385,0.028515786,0.004887139,0.0016213721,-0.008772915,-0.03785864,0.037033506,-0.03156079,0.031563967,0.007977497,-0.053180702,0.008466608,0.018134207,-0.02184968,0.003245258,0.095710814,-0.013632523,0.006321671,0.038163304,-0.09223899,-0.03280967,-0.08436752,-0.040131927,0.0065461183,0.028137727,-0.06586539,-0.045571946,0.0055929297,0.03718098,-0.09278829,-0.04256513,0.043679394
-0.03995937,-0.001733809,0.016876964,-0.05485155,-0.033252493,-0.00781151,0.061718773,0.011558781,-0.0043407357,0.11055074,0.03949556,-0.07068075,0.051309135,-0.017356895,0.041007172,-0.03279394,-0.015448958,-0.051279753,-0.07670917,-0.06316904,0.0047602355,0.075903915,0.06576495,0.030427689,-0.05331462,0.008675778,0.035399072,0.0051225796,-0.010326872,-0.053376656,0.0047166008,-0.028912397,0.11888563,-0.00409909,-0.041327663,-0.088342704,-0.091551475,0.023749225,0.005603107,0.15340953,0.03355396,0.06486899,0.062919885,-0.011830852,-0.081300825,-0.040381186,0.08475763,0.021321718,0.072923854,0.01979059,-0.023304213,-0.05217444,0.06434619,0.03221695,0.06786144,0.019928083
0.0046961973,-0.008849599,0.023920607,0.066239305,0.047984846,0.0022543957,-0.025025222,-0.010742979,-0.02501843,-0.037693523,0.077576905,-0.038030986,-0.024709295,0.010514851,-0.008942056,-0.027480055,0.028285615,-0.00820715,0.05186093,0.055102903,0.062169336,-0.05594015,-0.036648657,0.0022062047,0.040408045,-0.052116606,-0.020938411,0.014676224,0.047570422,-0.0037502379,0.0029691334,0.016078401,-0.00039808673,0.089544654,0.025805118,0.09982489,0.014064507,0.025544956,-0.025464589,-0.013898566,0.023226403,0.014465519,0.07871719,-0.01730064,-0.016933128,0.08808166,0.050476037,-0.06979065,-0.015270954,0.06491243,0.011297157,-0.07223019,0.030167425,-0.008090029,0.042430095,-0.027115788
0.016944217,0.046708588,-0.036002737,0.029852701,0.03879647,-0.05068822,-0.06218433,0.005222618,0.012944961,-0.059952166,-0.054449145,-0.031167598,0.056271683,-0.006031233,-0.019395648,0.09658013,-0.09220823,-0.054484118,0.03011513,0.053593524,0.03886123,0.08239798,0.012406765,0.013284264,0.09431518,0.04873977,0.011932966,-0.060330067,0.0041024066,0.055685267,0.034995373,-0.055934064,0.04034293,-0.034337413,-0.0875453,0.027449263,0.037424892,-0.031454887,-0.046862032,0.02903567,0.020946648,-0.024149481,0.036467783,-0.06841626,0.033935927,-0.10740284,-0.0030356299,0.0009173495,-0.0125544155,-0.00047909058,-0.03511445,-0.044348072,0.09435466,-0.068066254,-0.020325946,0.046998527
0.009914385,-0.09728746,-0.001366657,0.005125539,-0.0148006715,-0.06417796,0.07125238,-0.06622926,-0.008819586,-0.0397703,-0.045975804,0.0735136,-0.025434958,-0.0712233,-0.0015882935,-0.07840561,-0.03293552,0.03594679,-0.02418481,-0.05950219,0.0003507248,0.047210906,0.12609449,-0.025922483,-0.01828126,-0.09312036,-0.052101836,-0.049075115,-0.019453615,-0.052723277,0.07235026,-0.024901412,-0.006608634,0.04392143,0.033278745,0.016639847,0.057781972,-0.00038602963,0.055383373,-0.0071750125,0.017514238,0.013308498,-0.013644759,-0.07575713,0.03928139,-0.04100575,-0.071954146,-0.01884323,0.045478314,0.039086483,-0.09878098,0.0150352605,0.029809425,-0.08042774,0.04452926,-0.02956169
-0.024735836,0.01952896,-0.08028896,-0.019642306,-0.022271667,0.017082093,-0.06127188,-0.026480883,0.065495394,-0.09475636,0.01346739,-0.04342899,0.027720116,-0.08010142,-0.10686347,0.0069664964,-0.00069608405,-0.04103261,-0.030768584,-0.071204275,-0.07701744,0.04624581,-0.0351128,-0.071815364,-0.01494693,-0.040761225,-0.011761499,0.022332262,-0.06149647,0.05853823,0.009445404,0.019873835,-0.012815614,-0.007990554,0.06470604,-0.07151698,-0.013773595,-0.026182678,0.06212972,-0.09496795,-0.03579953,0.018593583,-0.043266185,-0.07144922,-0.079410404,-0.0036547459,-0.095810264,-0.07191932,0.022933077,0.024916269,-0.037306096,-0.013532072,-0.067843616,-0.022794876,0.015496106,-0.027167218
-0.030117065,-0.031112725,0.009309326,-0.014888493,0.051084913,-0.0027677095,0.023263609,-0.041684657,-0.04820296,-0.028917203,0.034613915,0.048518214,0.027481291,-0.072020665,-0.055280495,0.019633804,0.037078418,0.022064196,-0.018553698,0.07128517,-0.04204764,0.0529942,0.017980127,-0.0061554806,0.013594826,-0.10186684,0.007183096,0.02948236,0.028984431,-0.02536889,0.0070558763,0.048977647,0.04239801,0.10736672,0.08654725,0.014141904,-0.031238705,-0.048186067,0.031238059,-0.052363425,-0.020699939,0.0033585867,-0.0071524605,-0.01118659,-0.07408558,0.009279371,-0.02779325,0.018042713,0.011099277,0.0133617325,0.017497117,-0.015596342,-0.030783566,-0.030068392,0.06496307,-0.0010047855
-0.018292867,-0.06581947,-0.04401327,-0.045286838,-0.08350936,0.05913309,-0.08773678,-0.086357646,-0.078043096,0.019563913,-0.047008414,-0.03603958,-0.048674766,-0.075142674,0.045442317,-0.017301714,0.03873202,-0.033245932,-0.045374468,0.04826875,0.0131716635,0.046129454,0.0043939734,0.047339585,-0.08196721,0.0032891438,-0.020687327,0.018002193,-0.08741008,0.09177394,0.0017182487,0.030731784,-0.0338261,0.0678236,-0.0133013,0.03239629,-0.12905183,0.092245884,-0.048857562,0.026295947,0.059907537,0.06726824,0.027405534,-0.14042534,-0.018719759,-0.06107954,-0.013169389,-0.07250332,-0.0022078347,-0.05803748,-0.048818436,-0.016522592,-0.048020512,0.05499466,0.075353034,0.03153534
-0.00062156783,-0.059707027,0.08868712,0.004186148,-0.063066825,-0.004009382,-0.01984743,-0.036145378,0.008158699,0.014596914,-0.036017984,-0.07307873,-0.044816535,-0.028773721,0.036921088,-0.0041200416,-0.04647782,-0.014943963,0.04712809,-0.09105254,0.012522921,-0.08906701,0.00508599,0.08177219,-0.0608457,0.08882321,-0.020487992,-0.07695223,-0.00092840765,0.043784857,0.023617452,0.037866004,-0.03443168,0.04151519,-0.10976937,0.009171269,0.027635358,-0.04593373,0.014881664,-0.044431675,0.07363058,-0.006787341,-0.03041189,-0.024031637,-0.008383784,0.053579185,0.06050634,0.011350776,-0.029208718,0.060129333,0.02915233,0.010054778,-0.071448706,-0.034133874,-0.033493478,0.052848775
0.01928112,-0.06389583,0.028237257,0.009123139,-0.001451993,-0.009289758,-0.08107561,-0.093006656,-0.008252193,0.03185309,-0.007395477,-0.023165857,-0.061502367,-0.0440867,-0.019979218,-0.0423667,-0.0080607645,0.021875488,-0.14489809,-0.049018696,-0.027471632,0.061920825,0.111261345,0.013001874,-0.04933744,0.058643643,0.06427114,-0.013091259,-0.05009483,0.03346218,0.079677686,0.018221885,-0.029958082,-0.070710756,-0.027165482,-0.016527457,-0.07116933,-0.09576365,0.027924512,-0.011470335,0.032975987,0.05725927,-0.07213037,-0.03700564,-0.03285135,0.008541229,0.02949417,-0.07419451,-0.020200385,-0.044475593,-0.11064673,0.031300947,-0.0722002,-0.009335447,0.03165202,-0.045008056
-0.01574986,-0.07515874,0.046353873,-0.0652295,0.08864052,0.02139113,0.011310756,0.028928133,0.13581173,0.036571376,0.040732034,0.06162992,0.016017688,0.0124841,0.030474866,0.06477146,0.021302555,-0.017834827,-0.065971375,0.05734509,-0.07673315,0.06987127,-0.06201389,-0.0040791803,0.019035231,-0.022837263,-0.03606794,-0.024051836,0.0086020855,-0.011097509,-0.013422803,0.008939081,0.03950166,0.0059263804,0.0623267,0.04551004,-0.074378006,0.019997232,0.051492475,0.07035021,-0.014308698,0.036290277,0.01654582,0.03608025,-0.007900978,-0.06551724,-0.0021880337,-0.072422706,-0.008240902,0.022140728,0.078929834,-0.051092565,0.048638754,-0.02968083,0.021695897,-0.078082345
-0.060111817,-0.0031694297,0.045590356,-0.01103416,0.059823126,-0.03233629,-0.110999085,0.010267424,0.06089268,0.03448976,0.029881477,-0.0024116675,-0.008971844,0.050033737,0.094417915,0.12503548,-0.071567066,0.027464546,-0.013517969,0.005374505,-0.05392239,0.023041584,0.06755629,-0.022416372,-0.017840883,0.030443752,-0.094010554,0.054172266,0.016139898,0.023090253,-0.09472141,-0.0003791145,0.023754567,-0.047445524,-0.01648345,0.07006335,0.02283392,0.10577379,0.00024011191,-0.0019030056,0.040913288,-0.019668723,-0.012588722,-0.033013385,-0.040524006,0.019302126,0.0025475244,-0.0036134906,-0.009269685,0.020823792,-0.004961635,0.019669568,0.0048008678,-0.05149224,0.090726346,0.0519545
-0.09595221,0.07185997,-0.09296147,-0.038377337,-0.011993167,-0.04782374,0.05141453,-0.017239075,-0.0024047894,-0.04583904,0.009050901,0.045337185,-0.052147172,0.01381038,0.036604695,-0.047559958,-0.047024567,0.052794907,-0.10513153,0.0374926,-0.05479938,-0.013697081,-0.052143656,-0.06325631,-0.058359053,0.0073668566,-0.02546759,-0.056615904,-0.08299876,0.077383816,0.031560853,0.054237105,0.062466457,-0.027043492,-0.0380544,0.0004162497,0.029135188,-0.078614585,-0.0013483302,-0.19908498,0.015617183,-0.019677376,-0.09001542,-0.05115756,0.007359223,-0.041929375,-0.02303457,-0.056429278,0.0015751633,-0.015339175,-0.0753762,-0.018688334,-0.009672406,-0.078346856,0.031806853,-0.004538539
-0.04346908,-0.036258057,0.0057267025,0.02496413,-0.014703226,-0.026985044,-0.028574655,0.0015524329,0.062475868,0.016771723,-0.02790252,0.07870404,0.09408963,-0.0259321,-0.0980121,-0.00381178,0.023408597,0.0829751,-0.057294194,0.006540493,-0.013791713,-0.03228531,-0.02045145,0.002633364,-0.010275293,-0.054456953,0.008233182,-0.032253932,0.0081814,0.07904772,0.028726574,0.0026329255,0.0059453105,-0.039985463,0.016853506,0.0021805852,-0.039792594,-0.050780192,-0.05632182,-0.027677316,-0.02259756,-0.06250379,-0.008935344,-0.008617922,0.100657985,0.0019966278,-0.10282314,-0.08194829,0.005583559,0.035695903,-0.028202906,0.045160357,0.04189901,-0.08918169,-0.0543909,-0.00011688232
-0.021713516,0.029508216,-0.01901397,-0.013167592,0.030119658,-0.101781644,-0.0355698,0.028677326,-0.12919264,-0.052969187,0.0032897014,0.09330023,-0.14931662,-0.041242074,-0.04814807,-0.09073042,-0.101411134,0.032622598,-0.013449026,-0.038256243,-0.031289894,0.032746267,-0.032525152,0.044062108,-0.031673186,-0.03756559,-0.055963814,0.07678828,-0.04402468,-0.06618095,-0.022441756,0.04629101,0.040372647,-0.03327646,0.0038286252,-0.038534787,0.03807466,0.0692894,-0.057130337,0.0038756542,0.010547034,-0.020804584,-0.08324864,-0.012853861,-0.027409725,-0.01972576,-0.06837379,-0.007929371,0.01681976,-0.09176031,0.023294717,0.052901935,-0.11346871,-0.03441959,-0.08022829,-0.018390713
0.0027500654,-0.009512756,-0.037974656,0.030952962,-0.00510121,0.015132328,0.03227726,0.003662949,-0.0021993557,-0.09203831,0.12137901,0.034571536,0.023740856,0.038926806,0.012976391,0.004133905,-0.06052256,0.012981291,0.013884867,0.055618357,-0.009379908,-0.027838754,-0.044935018,0.006008977,-0.02916346,-0.03173496,0.04239067,-0.06056242,0.028324371,-0.05023671,-0.0021891245,0.012744895,0.07721314,0.11831275,0.029552681,0.06944099,-0.0032765553,0.020023303,-0.0045967386,-0.024907291,-0.053177573,0.01530593,-0.00528466,0.023113534,-0.08991162,0.000681716,0.019397803,-0.023275949,0.0017228266,0.06314502,0.030127339,0.033295862,0.081166625,-0.0105778575,0.082700565,0.04711437
0.042649303,0.025710067,-0.019508958,0.09617593,-0.021360377,0.04740652,0.059923396,0.041005943,-0.00032456702,-0.084097914,0.11573249,-0.02226531,0.05520625,0.0181301,0.037661817,0.05991219,-0.109202065,-0.010290681,0.044321097,-0.04674945,0.014990924,0.044950552,-0.0857278,-0.043452404,0.067929246,-0.002794401,0.0353719,-0.025497662,0.020326689,-0.023044374,0.044097014,-0.028654428,0.052189287,0.015938269,-0.058324255,0.050073825,-0.05583646,0.057750586,0.006072921,0.024184812,-0.018726714,0.0415744,0.020943401,0.020733574,-0.028650805,0.022635676,0.027446102,0.05308222,0.031885725,0.07556284,0.049742732,0.023621142,-0.026672224,0.011577783,0.010454565,0.0008640866
-0.0066573364,0.039931267,-0.008786462,0.056053814,-0.01544821,0.011655776,0.025344428,-0.019861411,0.055582836,0.11135516,0.04443375,-0.018615192,0.03858106,-0.0050385296,-0.043252748,-0.0068889745,0.045205142,-0.06564747,0.030970085,0.07673272,-0.04176735,-0.053312242,-0.014079381,-0.0005697955,-0.0050822017,-0.024914727,-0.01743335,-0.009064128,-0.018217986,-0.08543162,0.050251402,0.008344372,-0.050644875,-0.06899919,0.01882975,-0.018371876,0.013615669,0.017216116,0.025177004,0.032443937,0.06206442,-0.0130241085,0.03536462,-0.035395976,-0.06483659,0.06328338,0.06285867,0.011295525,-0.030614924,-0.08268532,-0.013509463,-0.0369201,-0.066588104,-0.025219286,-0.008751813,-0.10925445
-0.06871853,-0.057526242,0.025688928,-0.027741708,-0.026870312,0.04320081,0.029998155,-0.02666178,0.018396987,0.06105895,-0.04272065,0.009666998,-0.01823311,0.017811714,0.0029596416,0.00035715481,0.05973672,-0.11153802,-0.013466026,-0.044961676,-0.014293494,-0.04861282,-0.09599846,-0.06202456,-0.028198509,-0.051294506,0.01705447,-0.07010565,0.0077096843,-0.033064418,-0.039454605,-0.04165223,0.005532451,-0.08205023,-0.040217552,0.03670917,-0.043825656,-0.06813544,0.054347724,0.062533975,-0.03959742,0.03265352,0.011787681,-0.03138403,0.047685847,-0.0009838508,-0.062067796,-0.020105537,-0.051666975,-0.006344361,0.011472932,-0.029781371,0.016489193,-0.033832796,-0.038788475,-0.037723318
0.04559275,-0.047213085,0.016750531,0.05958778,-0.03125352,0.03897474,0.089529485,0.031925224,-0.016596437,-0.110353336,-0.0040812995,-0.01907991,0.005319997,0.01674021,0.010338975,0.047120932,0.0026668566,-0.02881809,0.072145715,0.06724009,0.0021227617,-0.024106432,0.011625547,0.053558275,-0.007240075,0.030441415,-0.014374848,0.023090359,-0.029234426,-0.0033765093,0.059616413,0.057727594,-0.019736439,-0.11084032,0.0118689425,-0.006769136,0.06087643,-0.035726704,-0.025171343,0.060488418,0.057682067,-0.026003456,-0.0068382565,-0.11161955,-0.04463895,0.03522183,-0.0059038587,0.010992662,0.002018845,-0.030127028,0.07152958,0.00739063,-0.008034972,-0.049603704,0.0043771607,0.019434316
0.059911553,-0.029459316,0.043954264,0.025933148,0.0051058466,0.01201294,0.060859468,0.00057503127,-0.025545817,0.027098909,-0.10525155,-0.11323774,-0.032038655,0.03377103,0.048516538,0.034082588,0.039000712,0.038977712,0.039558258,-0.011589833,0.041878305,-0.0038210212,0.014853586,0.04198176,0.038254313,0.03031335,-0.049422804,0.036672164,-0.04030401,-0.11695802,0.019136583,-0.019037195,0.065713085,0.059390724,-0.009291957,0.00090019347,-0.02646286,-0.029205678,0.06713532,0.04367547,0.012356432,0.0110944975,0.0066293636,-0.062973015,-0.042577144,-0.020639047,-0.012417098,-0.0060738567,0.033012528,0.038847074,-0.123503886,0.023103362,-0.056101184,-0.042283993,0.0460007,-0.039946906
-0.043162446,-0.051599137,0.043221954,0.06331927,-0.0070935977,-0.017322458,0.070964694,-0.08303852,0.00083139114,-0.08608002,0.035808373,-0.05054589,-0.032407813,-0.0207466,-0.008282089,0.008999523,0.05678893,-0.08061304,0.065576315,0.021953247,-0.009791003,-0.008764201,-0.0020950232,0.033261426,0.038637515,-0.037751064,0.06908085,-0.021664912,-0.08721362,-0.03402267,0.05667315,0.03707264,-0.045663852,-0.0030068923,-0.062327646,0.008176585,-0.017884944,-0.06770387,0.025964154,-0.012650876,0.01566949,-0.015422258,-0.036160294,-0.027716964,0.030573951,-0.01915754,-0.020359328,-0.024564939,0.000297,0.017969958,-0.05618239,-0.028832838,-0.025536193,-0.00027774487,-0.03113366,-0.06200329
0.008538769,-0.0048764776,-0.019686852,0.017829621,0.013431974,-0.07073763,-0.03126517,-0.07326586,0.014873496,0.008915956,0.00068937923,0.0022018994,0.06356044,-0.032660276,0.022425069,0.076418966,-0.013094143,-0.08598575,-0.10004166,0.04137061,0.012118101,-0.11194952,-0.03851391,-0.06815104,-0.0023836608,-0.008955988,-0.060562298,-0.052016564,9.295475e-05,-0.042585764,-0.03390733,-0.05964423,-0.041579146,-0.080548905,-0.09455414,-0.010474196,-0.0101651335,0.049040556,-0.024770893,0.02673803,-0.1122059,-0.030705862,0.0014220475,0.04451797,-0.022365157,0.043230094,0.025172986,0.0061903507,-0.049592413,-0.0391962,-0.0008092019,-0.04203115,-0.0673761,-0.002657312,-0.09945917,-0.06940006
-0.030032188,0.13750573,0.0141169485,0.046763044,0.107559,-0.012766275,0.056928348,-0.0021015776,0.020461386,-0.008619149,0.050838068,-0.010483541,0.08687723,0.047323223,0.015913589,0.0611674,0.012159362,0.024009557,0.05623652,0.02389994,0.048782676,-0.029189257,-0.006153757,-0.0692332,0.10679606,0.026661282,0.026987534,-0.030131139,0.06656687,-0.052304845,-0.007498248,0.047700346,-0.014720609,0.13787147,0.012127138,-0.0038944301,0.1643617,-0.040069018,0.042548314,0.02803876,-0.03795068,0.04796648,-0.013118439,0.08622928,0.009033968,-0.035526037,0.004678217,0.03607856,-0.066558756,0.07767284,0.036565375,-0.010940994,0.0669629,-0.020252928,-0.028624957,0.038755845
-0.023549171,0.0019233978,0.022895249,-0.045011543,-0.07621754,-0.06879337,-0.0021041261,0.01499219,0.044896185,-0.037612308,-0.061910942,-0.06363089,0.009753716,-0.092223145,-0.06817938,-0.02904321,-0.06125679,-0.034393124,-0.09890446,-0.01156649,-0.081056826,0.0048734876,-0.119035505,-0.04152942,-0.046787046,0.028863356,-0.060030058,-0.014485607,-0.037637897,-0.03485041,0.0135996565,-0.0418714,0.009731522,-0.052081726,0.031836856,-0.073168606,-0.010197944,0.04840407,-0.1769388,-0.048089426,-0.048018593,-0.06475906,-0.0056839446,-0.06158455,-0.016220909,-0.012281969,-0.046300717,-0.030915154,0.009273633,0.03847562,0.0014799088,-0.022217056,-0.008598717,-0.033954278,-0.02942557,0.025077634
-0.037022103,-0.031339724,0.020107858,0.028513145,-0.012884301,-0.018433062,-0.013251504,0.037775956,0.013236676,0.015161048,0.031417314,-0.04933698,0.0739531,-0.020463405,-0.024353204,-0.02735938,0.05649915,-0.018859465,0.061350226,-0.027669914,-0.077536084,0.07278029,0.0054126685,-0.06219855,-0.05161012,-0.06196621,0.019246407,-0.025384704,-0.033562295,-0.0052186325,-0.020650364,-0.046467543,0.011696993,-0.059903156,0.04803592,-0.07134346,0.012940862,0.024128905,0.0059396215,0.02773636,-0.09137283,-0.0636056,-0.0155591685,0.03693789,-0.04188726,-0.051193632,0.03342885,0.025535438,-0.04242007,-0.0025977492,-0.06032515,0.080518976,0.03486225,0.0316749,0.027566036,-0.05237963
