genes,PCA_0,PCA_1,PCA_2,PCA_3,PCA_4,PCA_5,PCA_6,PCA_7,PCA_8,PCA_9,PCA_10,PCA_11,PCA_12,PCA_13,PCA_14,PCA_15,PCA_16,PCA_17,PCA_18,PCA_19,PCA_20,PCA_21,PCA_22,PCA_23,PCA_24,PCA_25,PCA_26,PCA_27,PCA_28,PCA_29,PCA_30,PCA_31,PCA_32,PCA_33,PCA_34,PCA_35,PCA_36,PCA_37,PCA_38,PCA_39,PCA_40,PCA_41,PCA_42,PCA_43,PCA_44,PCA_45,PCA_46,PCA_47,PCA_48,PCA_49
BTAF1,-0.0033614526788342254,0.013264729345034575,-0.012563063712462203,0.0041092671380650175,-0.009154925313538403,0.009964828598692556,-0.018730768314011874,0.002286524398332747,-0.032777244161870604,-0.03291732620593625,-0.026428939118787343,-0.001144201930065609,-0.023940978836397755,-0.02291391216798169,0.008916774838683979,0.001109390756830747,-0.039561907203577516,-0.02048808418722535,-0.02245739837070364,0.003542100026963451,-0.015018394660063114,-0.021982318415871872,0.015197145623614995,0.01614496097190175,-0.028448711333641283,-0.014448024349526764,-0.003434245234930307,0.012697896593922583,0.002199379062534979,-0.020547104089141715,0.02426514520840462,0.047841659103354084,-0.017783644024491178,0.01323825025090792,0.021433765055025193,-0.033113231289953804,0.0171178994040884,0.003441816127853273,-0.011855697204442074,-0.017097812027058158,-0.014563465583611374,-0.009529337820279657,-0.024353380363111788,-0.009044262133703773,-0.015615562611693645,0.025228747702020753,0.02846773480135154,-0.02309246794049887,0.02462051171600277,-0.000486495709739058
DLST,-0.009584591677640983,0.032138520000711275,-0.03779702867083788,0.01693372923385737,-0.013620382860994575,-0.012535769907153842,0.012652425027964853,0.01219094035592064,-0.01607333597451486,0.025642268260631807,0.00871083731345683,0.002272298156174558,0.013891790502743839,0.0036324565886938056,-0.02297209921434804,-0.00421139937103324,0.003009703585871772,0.0017367420904734906,0.014159576435901789,-0.018641270507523202,-0.016749744625529247,0.026257279013616075,-0.005433212518230202,-0.0002146103960561905,-0.012343106809754523,0.0011379411995617163,-0.0010272676174806494,-0.006002040633332467,0.003768062226573149,-0.006023857732805921,0.035011254350410616,-0.010694134301853583,0.00173067379183538,0.003923214184855588,0.016855038075105633,-0.00604439556801005,-0.014814730560419802,0.016679238994279266,-0.011500893464116651,0.007486152320676391,0.0034638404321725865,0.004938492052929124,-0.003391526682248594,-0.011787901025312717,-0.009208197354267075,-0.005858138253805592,0.006012912441351555,0.0009749716918645516,-0.013812100507855021,-0.001327266868856118
GOSR2,0.03390048441862488,-0.012111710558770356,-0.015173594145587362,-0.020270112720736456,-0.00875056136359208,0.0035759413083725194,0.013287561958048007,-0.018772769059364133,-0.012478740410740539,0.01631039047275783,-0.009083115195076956,0.012216255002287827,0.032717690984499476,0.024286437622121286,-3.213554303948501e-05,-0.00680577283753472,0.0051439246110777,0.020884073511856185,0.00670025634806673,-0.007755884313855647,-0.022721526240083834,-0.017097717086068893,0.014715646349468764,-0.014161481454027902,0.009496483319352074,0.012920057242257485,0.008280202195945094,-0.024888123617095897,-0.01878894228388139,-0.003726444605251405,0.000273753367104549,-0.012385320952567207,0.0367530107322898,0.0010254275154894313,-0.004731259706593462,-0.003679873823140755,-0.009074990778074023,-0.03284539498813733,0.016272374356255316,-0.014120393518707518,0.01634520048246174,0.008703580624618125,0.007671057065758509,-0.03470102656337968,0.01805350869452382,-0.016622617187480905,0.0315125849475133,-0.009309131477195375,0.013095081651244385,0.006297205313784392
MORC2,0.00176096294075583,0.003262573694527769,0.006913013260224148,0.006487547148773033,0.010703913875867901,-0.0006176104446364764,-0.00026279634194591303,0.007555232418153198,-0.002467996881365974,-0.0019149334926726982,-0.002427142590781983,0.0056681958417228884,-0.008969362194918899,0.0035542480036041815,-0.00010630289805521864,-0.004034782599339326,-0.013930641895278274,0.008872256529381938,0.006615228335085868,-0.01519320191944813,-0.010002955800527302,-0.0004485330812197144,-0.010609567729962846,-0.015340915701239426,0.012926151860463437,-0.000651610158700292,0.0071818569498761555,0.004326980535487106,-0.0021796869149841363,-0.0016420281979812744,0.0022850956784923443,0.008406278924819863,-0.005997415023837257,0.008897358852277841,-0.006310501483966302,-0.011948105461198635,0.013887557015460383,-0.012826777462868418,-0.002283335722213378,-0.006669872586775124,0.0017559739574780813,-0.006659054854690778,-0.010073200282211247,0.010374819853856668,-0.002913035612163121,-0.010295157073655907,-0.007715438755797828,0.0184828883966703,0.005891095573461289,0.011389498358709381
LCE3B,0.008911984865901048,0.0061433970910550455,0.0014293540119303518,-0.0020307228771026483,0.0026162706420194437,0.0002770033097800612,0.0014345986599656082,0.0035528009198721455,-0.0071025250779067125,0.004008334752642286,-0.0021580495583195807,0.011561976236703238,0.003965473559871535,0.0028015405944999262,0.007818992618583119,0.008670794177225171,0.0072122282696023875,0.014757370342244086,-0.001072028782971391,0.004630819152913199,-0.003231876022874213,0.003807245344125453,-0.001481377298686432,-0.005561290073055484,0.00936560396748255,0.0016876034637470733,-0.0005333630306058315,0.004068726211015189,-0.002914999369955392,-0.00013593457140712224,-0.0073431575986305205,-0.009272776734865698,-0.008929282992579555,0.004016853015965795,-0.001341865976537464,-0.0003481834813896369,-0.00944495846399997,0.01326926369940522,-0.006285077787603439,-0.0017391864513812301,0.009347239441333012,-0.016335215572485556,0.003426406364663623,-0.0022835496416723704,-0.011376212087878873,0.006034802057595213,-0.012574338430231806,-0.0005284929394452504,-0.0007412193549500289,0.0018472254924734868
ITGB1,0.013590381223470756,0.0040317581506074335,0.010952096318139558,0.010570775860444451,0.06391840182181492,0.021778771302965877,-0.032267143648276514,-0.01604016129581483,-0.008636304521533982,-0.03698415018907261,-0.019728144652773328,0.005311590518754933,0.008218226273909932,-0.037509768757087676,-0.028240739610553532,0.03012524741465736,-0.03936078272837485,-0.008708196657059634,0.0072884299603806785,0.024674380549795035,-0.009274596078285431,0.009975864041309533,-0.018532765769375868,0.03349735172781771,0.019774697748291988,0.0056050374806500556,0.006735422290066873,-0.01729097836073965,-0.023688019124938533,0.010151467398057078,-0.0006350507605800452,0.030241639851077945,-0.018254042973469324,0.019181624479630857,0.029996512752502178,0.012646736310720061,-0.028357047214364457,0.008791634417154198,-0.04024895595373451,0.05693008268450938,-0.004469646591656217,0.02861377142115725,-0.011686793106874802,-0.027278973335530244,0.01659136853808965,0.017184912393788748,0.03199060389121692,0.05984167156625086,0.030638835896178575,-0.012849868164921499
RNMT,-0.007175260741933593,0.018104490985430977,0.01965682835809619,0.011346285437326086,0.00364328971556687,0.023491193089072614,0.0010926936470109228,-0.013382939015860015,-0.0032185128099565235,0.030075199867549973,0.0010902056453803205,0.01322361724995512,0.008969110083593353,-0.00939435725085987,0.03295453538057601,-0.00472256472437052,-0.005814278481667941,-0.030950489327016748,-0.028099285301794275,0.0005555182241685067,0.04179543120556472,0.0024623836409316067,-0.017344936700365278,0.012453233079328009,0.02192380406691019,0.007388849819839879,0.0019859038314598166,0.009312403016013776,0.001433092743998963,0.019087758740660106,-0.0035119254507167868,0.02508877932358559,-0.011562010870500197,0.0031598806612689384,-0.028175967866559532,0.000679387794911613,0.002160870347164877,-0.006587800274027142,0.002380030868904817,0.001953276937926961,0.002105265653381315,-0.008532157700154369,0.01787618716959203,0.0014942053541355492,-0.0073512284993306936,0.006588321050390666,0.0031289307062623384,-0.01408161033056582,0.012572973703859451,-0.022316342291859657
KIFC1,0.00882628576044569,0.0006596645119640321,0.006847458860587943,0.0002906035227812222,0.0054333659448531045,0.00022199423169381018,0.01935385011174344,0.015921594636695496,0.006876147875181449,-0.0016504617617432303,0.014649432117994937,0.004426527202523629,-0.016088262880120534,0.00314341775391587,0.006211156393178791,-0.012291044148668375,0.007436423876043561,-0.0031694557453543913,-0.005309460831841212,-0.005406872368210567,0.005901993869367775,-0.0020901848604457556,0.012036749436611155,0.010873796116213719,-0.007822477473025159,-0.006521550461671243,0.026182510295225336,8.972973164769391e-05,-0.00024170601578458922,-0.028710880072452784,-0.014084395786349334,0.00452219793340785,0.00502850208626982,0.012422338365636706,-0.005337964084854166,-0.007293949601733838,-0.004856247188306664,0.0187850698228108,-0.0007554502388289917,0.008761951377088904,0.009580733756461486,0.010104907453766994,0.0037432097933234555,0.008554352401512871,0.005937375222202517,-0.012532165678172828,0.008307946962470857,0.002817827403958601,0.004181236016775621,-0.0048233209237159794
MDM4,-0.009449213689470786,0.01167265081457269,0.01187615748425353,-0.004735516919552869,-0.05001104350588891,-0.07076317273448411,-0.04633682497095217,-0.04069845845108595,-0.034168948895272215,-0.031912788165093534,-0.012445769719424902,-0.005230019832637924,0.014353949396741087,0.0076786029872790386,-0.029556538880791593,-0.017685917361773128,0.008343952213415886,-0.001083075989498803,0.03906748743586073,0.017122426962318252,0.04795745451255855,-0.006390204221083535,-0.02152012041991251,0.004799458880275172,-0.021981978046585686,0.006926732305997095,-0.0035292088365710466,-0.010545692895585348,0.006388338225371679,0.00618295457834384,-0.00956559388785358,0.009842704667169275,0.00601412854839293,-0.004069570381399477,-0.0002435035020815915,-0.016809787860192393,0.01069163946792679,-0.004242333070425207,0.019337556447998668,-0.020932026089655387,0.0004303306783984834,-0.004674838661597981,0.010616915039762323,0.026304819875533833,-0.002931622482136633,0.008820083965809177,0.011344740076254332,0.012141929275643707,0.013730497056580308,-0.0029773384673958954
HERC2,0.006894127284141948,0.008237891208058953,0.008076492451780255,0.005582123788578176,0.006947639556562908,-0.010632546402601127,-0.0057933127397411625,0.017851702659387285,-0.005529451635714372,-0.005459748595024765,0.008122749318225151,-0.005895182655625619,0.01269129834406061,0.0008535537130892501,-0.012972731498447052,0.01634882293498142,-0.004999841239833948,-0.0027295663848919795,0.020819044959094125,0.0012253990321185507,-0.0028509668860405473,-0.006436146073533253,0.005398857559039425,0.0011197998386277303,0.01785295660209911,-0.0016419140766202292,-0.013799169827643804,0.00933058053085961,-0.011104212556067663,0.004057984048092463,0.010213927851132447,-0.011500034866660208,0.00040445723586517195,-0.004935425997257839,-0.006494616227745903,-0.009446873532183772,0.008140731313407906,-0.00805930033090018,0.010619026148663986,-0.011032654316679616,0.0014629587109630253,0.004687057996782078,-9.249711527909076e-05,-0.007161707786157497,-0.0015278260639580508,-0.0009629873040038258,-0.013316711645775975,-0.011034330475705083,0.019110389972420483,0.0025991383411791804
NCOR2,0.0017287874607145313,0.00021642489568526925,-0.002278827798341625,0.006407932493180479,-0.004316911975716742,-0.004528484263890528,0.005485245042072619,0.0009107138371891859,0.013882423682243064,0.0008300688179067022,-0.016376945140487015,0.0069496560675778385,0.009183559189993638,0.0056849721063041,-0.009770169045358938,0.009053421600950275,0.006163490805110045,-0.004165136044342617,-0.00749771694098312,0.011074373436225863,-0.0020251575775684753,-0.000675567894254261,0.00545449255090393,0.015703341826602338,-0.012053459828086028,0.005039828452480995,0.03313200676458529,-0.010995118866597802,-0.03012976460520189,0.0090007944883049,-0.013413492144363815,-0.003250070959129398,-0.004982905404136528,-0.006010206132101738,0.0005738159590805724,-0.010382226227134158,-0.004216552048561774,0.00021986473719864494,0.008193621166910008,-0.000253304870705732,0.010837631128182253,0.007189921440273623,-0.01565193976081024,-0.012069621483488094,-0.013525597746978727,-0.0012108045912061364,0.005162358362121616,0.010794881984311486,-0.018670051460956974,-0.0001692406357694343
TMPO,-0.004428231646631368,-0.00022090171134385388,0.012979805740137393,-0.005091454742435965,-0.004617950279495234,0.003985450841647386,0.007554782358295225,0.008524019187608336,-0.011371481477147794,0.001062053790911479,-0.003962129660274413,-0.003992590528543616,-0.0014992001320724784,0.012416848503231834,-0.00031842761413437116,0.0060443777613733984,-0.004830828520471531,-0.019553250653291922,0.01836622737342152,0.0013350014417851865,-0.013237802885492688,-0.0219447112542194,-0.0014095577922127354,-0.001238607859060711,0.012541286641332621,0.005574428543736755,-0.005346515705769591,-0.0032913761138302624,0.005885139534658987,0.0005474163064049133,-0.013768086656402993,-0.0014135049702923318,0.0022135177463454203,0.003002640204262391,0.001526835186056322,0.0023263961588185856,0.017032059109003125,0.007659075606885837,0.007163124328082361,-0.0012677497906692144,-0.010732977938402626,-0.008609294761440931,0.002785747466664125,0.002044135892547942,-0.01197633077351137,0.01328068976534402,-0.01042903598938513,0.007140624221973935,0.0018442760685644718,0.008099001897356241
CEP97,-0.00936811639382124,0.0012954794335342666,0.010433552459846602,0.006610524971591653,0.009698323723881774,0.0018240157676317054,-0.011179270304081633,-0.008233951318810358,-0.012128884466002436,-0.011525194442202642,0.011324030014536768,-0.005616676332263709,0.0009403173056715614,-0.0005008216665242392,-0.0055334885525794904,0.0015181216120499468,-0.003555865820917318,0.0015953838802083647,-0.012983525725865135,-0.004138005157948598,0.009292594035397604,0.018867520823497536,-0.003693024733807856,-0.021504496267798424,0.015407918166729458,-0.0003025943386970898,0.0055968101975179705,0.004672742803712954,0.01414304202943531,-0.013017166303029943,0.002513265162685037,-0.002322488284574008,-0.004773788025447351,-0.006902822735800559,0.0020395319863571594,-0.002050582155898042,0.01359031728266906,-0.006776812128465595,-0.007836765564098434,-0.005869439208604789,-0.013716239212144031,-0.011561082134876974,-0.0029364648342452924,0.00564502314974502,-0.006866258116963837,-0.00856656723086375,-0.002487960258144289,-0.0013403100686958632,0.004203552050323661,0.011026114906722707
PPP2R1A,0.04076968239479544,-0.003220433101520696,0.060478573623112535,-0.0015730530394687783,0.019127328717183333,-0.017493566089181265,0.036469835323158034,0.06772056307383595,-0.042512804528473114,0.02353290719603343,0.04454205838170105,-0.037100886496830625,-0.04537072027714938,-0.049738304920208413,-0.027142025850108283,0.053300802090974306,0.027300398394885753,0.04088925093419256,0.05956612647518917,-0.007427634810642304,0.014753768159519648,0.0326940300357197,-0.03802818207424279,0.013066111916810395,-0.01735821407035469,0.05372872797798681,0.023147941022744367,-0.017001772022704194,0.013615653367230605,-0.014329227999147164,-0.13613723341241168,0.028444229631335985,0.002403365589741219,0.03572421998947421,-0.0012462761629750702,-0.04970774063645173,0.061122938782313695,0.03505901824600786,0.028113303123285978,-0.008562969071635167,-0.04718330693343085,0.006040820454950859,0.006094053152593879,-0.004888220368146692,0.07698141366859008,-0.01934973649022112,0.02790083920989092,-0.009201566700496914,-0.039902759285195585,0.015163929666666359
RPAP2,0.0015625274699587201,-0.01281687210663324,0.0005467458693247995,-0.003016686776358359,0.017521800487947055,0.040606565500753714,0.01567224680430038,-0.01425656977140989,-0.043009466021287225,0.024566160102375306,0.003686489885906803,0.014772926525518986,-0.028287096107855597,0.0048477079677773805,-0.02253979645679122,0.007457114192029387,-0.014171900362517413,-0.0012623062266521603,0.016847458388553418,0.020394966426242996,0.013779611594675306,-0.02135924977990166,-0.023544775044019906,0.007760369175236726,0.0046388048878619175,0.012195279567358497,-0.02550787977221831,-0.015314600289159937,-0.01660333718891129,-8.16015906959789e-05,0.013095237777425904,-0.013154214016043464,0.009285304799696397,0.013682673137810731,-0.004464731715804936,-0.018021228535311854,0.004181798351508464,-0.003835989101309369,0.01107319170222296,-0.007193393596286996,-0.013721195392096408,-0.014101946977506802,0.0164687516083509,0.0200438377827438,-0.007834568814703126,-0.010210841310153602,-0.008411168492775612,0.010848775466836802,-0.01855720708598739,0.0053096001758144796
EXOC5,0.020987364638769792,0.014363033106950066,-0.001233872353863747,0.0054706009787091016,-0.01598439621329355,-0.0160242737097189,-0.008621556419149879,-0.02445671562715963,-0.005092894670587133,0.017538572396147086,-0.02331293241520442,-0.01933046924206464,0.025273012932985613,0.005114647512461409,0.006824749172311377,-0.01479252038954657,-0.015539662465852923,-0.018091696868856817,-0.012954526945909152,0.023891100662520762,0.005735685439108212,-0.00866265980079842,0.0037205428297444796,-0.022869592705327964,-0.004173384235310108,-0.010497744139431825,0.014254836501312906,-0.010562074732547408,0.0023018119574758312,-0.003059043077367277,0.018864495400005565,0.013191501046060735,-0.014964575925150086,-0.0033920368155052603,0.018500089820691637,-0.00027606262701514183,-0.015985364799620653,0.014519319405633956,0.0036249311265454656,0.02381284077248767,0.008404824769654208,-0.015119186707823175,-0.022669717408049402,0.011565355463961377,0.007185519042302577,-0.002427474507546859,0.005938402105299434,-0.006374071777848701,0.0014361015496580825,0.01938836547286689
RFC3,-0.02170639968912902,0.00898321191196566,0.034190378697984976,0.008520799115680665,0.0026040100083211727,0.03064690547270511,-0.00036706691155764635,0.040528016662092284,-0.005506856232896492,0.012773454686813134,0.014494360048340382,-0.020927349041859958,0.019258004388734158,0.020935651402144796,0.008359634994730743,0.022416184615232822,0.022425344451176586,-0.041291761850491,-0.005209624402247339,-0.007856395235146198,0.05629333135364266,0.0009660475644779336,0.03614121365463859,-0.044599082737978545,0.005983302529023127,0.013795877282358874,-0.029792079599383292,0.017231658323946245,0.020654220163696484,-0.006280388267099177,-0.012417624728437408,0.018456116069865518,0.016282770737609448,0.0502591294125118,0.04633482792521193,0.004598269038659774,0.00968078774573078,-0.03134641852094263,0.0009598706544550874,-0.023764247293816914,0.017938449662230842,-0.029650013968085025,-0.023687597105862254,0.013439561705133893,0.024165364931345832,-0.011563857005609014,-0.03616304818174975,0.024558759567222532,0.008041544501312104,0.01536430273086576
CMIP,-0.003349564308009496,0.003939488960802759,-0.008919194802105611,0.02359596892158689,-0.003985654350189125,0.030767083170632953,0.028405910424199796,-0.020559503209924803,0.012896571246650728,-0.03467992984830907,0.024388155655403813,0.02437272169615381,-0.03161127523288544,0.003406961370595041,-0.018653988858109153,0.037997688609040625,-0.0018349940393427692,-0.015679666492250728,0.007617581982666024,-0.008189158906106699,0.02617942316784434,-0.012247537601100103,-0.042298516278176185,0.020815352030942466,0.024094179711842915,-0.017216614448050723,0.025728927418352563,-0.016914572128595914,-0.028453820312119495,0.0022091052037254196,0.04463687997964705,0.021888922008889176,-0.0005873462740940992,-0.002557938811776089,0.0015597281898499847,0.03338417648915744,-0.023647789885834707,0.03186997416157122,0.012357948383248878,-0.029282008072659405,0.04212873439619093,-0.0380078641063907,-0.037047908873049304,-0.0017989872357978569,-0.005432466855339799,0.03270106267332437,-0.033728591980716496,0.008772401217867815,0.009883352428014714,0.015455449328164065
NFKBIA,-0.007449644859518145,-0.006273454316947673,-0.006073468618570323,0.002551893330750722,-0.002006327565448137,0.010136295593425252,-0.014609816220337721,-0.009766262366092762,-0.004871623404223529,-0.016426000627611726,-0.005769415735101365,-0.020066136790061983,-0.01080760868580066,-0.017861169449152347,0.0067310860940799164,0.02165759663966615,-0.011974085503631415,0.008347222533686078,0.025839940342551847,-0.013885641520790857,0.006774182626562817,-0.004822561200934256,-0.0013583053083982624,-0.00010695163637818452,0.008704919260836136,0.02298998242211194,-0.0029097515098729667,-0.0011330572892958883,0.005807268778808024,-0.001178856840859283,-0.010679480206673123,0.003568221387781168,0.020732778877953297,0.003299460209580252,-0.00537507640907735,0.008255673980225406,0.01981294146599537,-0.004163619933385418,0.01387176979177055,-0.017167875666277907,0.0010496899429949932,0.002352567425549236,0.003327214789223957,0.0064055897974406376,-0.01839631946415753,0.003551062671887407,0.006486212933671161,-0.003256849970371646,0.001318734108824397,0.004728618515209114
LIN37,0.012292080568167631,0.006141310473947924,-0.00022461787204992094,0.007812131668135989,0.00031054397220977626,-0.028702356295290724,-0.022369311263153526,0.004359882011970696,-0.00012376927813794527,-0.0151319215462528,0.008754346929266146,0.011896421186797157,0.0142540732912277,0.002341848933081229,-0.017671259765400942,0.012183528889017093,-0.02334983462229327,-0.009950528981258025,0.017296974515630743,-0.011238722938947005,-0.001742311538395723,0.021240907245488504,-0.021891455988012856,-0.010733379905286916,-0.0045098753579618425,0.00787843794184471,-0.0010720431704960176,-0.020704066408250944,-0.00999365149809642,0.0034868044474768256,-0.009192304921691053,-0.016232564831341008,0.012311181221231348,-0.030120657601300307,-0.0034024023475751385,-0.005100064501969138,0.0014416070437593199,0.0059640841661235755,0.011484499016112995,0.01623433811656551,0.0009578451380556852,-0.036406105729612906,-0.03234744089627688,-0.017395681371754918,0.01522088856700742,-0.003921444653550204,0.008463804347366622,-0.00664558477413197,0.011876870138862147,0.01301256284237818
SUPT5H,-0.01726302291359913,-0.02605707431685798,-0.001612911657062705,-0.0001527744397411285,-0.01359641362788905,-0.0045889404128510725,0.0047850812164455326,-0.01692377824962671,-0.02637144161655348,-0.011067901061220525,0.0032489316638282025,0.01460126567848318,0.005791743139094106,-0.0030983356409073643,0.017526852567135286,0.016750990580890225,-0.02504647074426455,0.05079529076407496,-0.037927953350646124,-0.0018339461908775548,0.008078001804148392,-0.012646680822458787,-0.04523540886220928,0.016307384457493048,-0.04439027609897022,0.04099505260506618,0.0029408683611320914,0.012980087314921828,0.03919248688593573,-0.026709268030647444,0.02835521565503695,0.03022622052936542,0.008326288924268373,0.0019969256318845417,-0.005162664557828721,0.013254273367756735,-0.01412693299579603,-0.006478301455812939,-0.022221982150364448,-0.005209213578659819,0.002197680620334961,0.009832375646769078,0.02184961325155164,0.02823897757526031,0.020090531802628393,0.01262016838691594,0.029856230551405887,0.02780113525589175,-0.006180080202867304,0.013754288520498113
PSMC6,0.02987651291771556,-0.016033248109801505,-0.014405869084063223,-0.013213703915127297,-0.013677914989132742,-0.014953365701749044,0.036641273001977843,-0.0005211873654724576,-0.031440177764681006,-0.01283358519733896,-0.010808101521458209,-0.0061826766098885344,-0.051230711132677326,-0.0010526980294470207,-0.022225410908433704,-0.030469772912015282,-0.014574634429212327,0.02446929585818082,-0.014971694312728004,-0.004765676305964307,-0.024139032428961787,-0.0011544302684109223,-0.03466452242282275,-0.0011041669031991504,-0.004221444338330643,-0.019178136682388457,-0.0021172853558584577,-0.014209926101994943,-0.020128470884551736,-0.010767925676753607,0.005054270328222896,0.0172032088362174,0.007709099215175785,-0.015873997582869233,0.003100686383398965,-0.02205495401545029,-0.0014069127695946308,-0.015186116629452512,-0.013662540694611754,0.01620848479868801,0.0002929093221772782,-0.007515964431835361,-0.0009573133574948306,-0.01832506826353996,0.014606202239674364,0.0009730502307136597,0.0006496502018407723,0.03985252645265036,-0.04355636405279674,0.013356306404715428
TFAM,-0.0306345356403473,0.02366877465141931,-0.00640818341768365,-0.04345967412164501,0.03209211881305719,-0.002427702393940691,0.024558843744776303,-0.025461836006088978,0.00021217073826161408,-0.00885697220543879,0.012285895752705688,-0.014322654198110515,0.010982853555526525,0.007548077866213965,-0.006736653271812518,-0.01683608662970786,-0.009164201729689082,-0.004242472400358485,-0.0024726367882412135,-0.014191672746529693,0.0026877496273614897,-0.0031518905053040964,0.0011327829239458935,-0.013823516523950957,-0.008200370754595662,-0.006822965608307559,0.00728117099683773,0.016970935832304704,-0.006356979686673487,0.0023514976335991004,0.0021282370795434845,0.010779017909689562,-0.011437339850064922,-0.0010615774736888843,0.0013509140558769209,0.0060008826589968796,0.009097369603496636,-0.015457997676546986,-0.01103865960316331,0.021371314054847976,-0.014073279694226167,-0.007420798882521639,0.002550357615013234,0.014365610764012179,0.020319795129912763,0.019261975415861717,0.005211578432945693,0.001478613736619738,0.005443644440788403,0.020078180000112335
XPO7,0.006054406458154557,0.0057893869980358,-0.005982119677655292,0.008147755605345561,0.016870536359650367,0.02317076686361181,0.010141652899190931,0.008709160892194857,0.0136503596945682,0.006068789807238157,-0.012144820129711357,-0.0033448381503741074,-0.005530049839782268,0.0013374047067633915,0.003127853512529369,0.017339865060028024,-0.0010812535653017495,0.0006654634697172634,-0.012216283307337391,-0.012612245472821833,-0.007539022125617167,0.00655749093593939,-0.0018045452273088138,-0.01908088758977193,-0.0024191684218020978,-0.002726247684885994,0.013678522724241396,0.0025814398925837513,0.016122581642045625,-0.010372218858256581,0.008460230436122224,0.006135675419683049,-0.013631594662275972,-0.017577475510054733,0.0001226524593374162,-0.014192551537327869,0.014665055335140315,0.0034592606852893787,-0.004471441628648876,0.019079379220359693,-0.009527144821050633,-0.004222662676765796,0.014876166418888222,0.005826333265213954,0.002677073274805563,0.00591639400847014,-0.015790539316081136,-0.015286720018763578,0.011230529211035718,0.00043351147470580806
SUPT7L,-0.020017355871491692,0.01590704857862674,-0.02961523883045709,0.016373931495658318,-0.0236266800835469,0.004876725497467023,-0.00602077587621475,0.008108916636379804,-0.010215984399909048,-0.019009234485476718,-0.02896449243540198,0.04070982424349993,-0.026889877082685153,-0.005141066887316416,0.02115626247411076,0.012784150132713556,-0.02771576681541052,-0.032207384154352606,0.001366747993527336,-0.028397483142211258,0.005047325961718666,-0.008305072348691657,0.032768382003303266,-0.003981613296023287,-0.04903750304153558,0.03475349359543536,-0.017651404484699,0.0286380711452418,-0.02817609766398409,-0.023268149167429853,-0.026218304524054187,0.03510652169898444,0.00798379861649467,0.009924684940056529,-0.010550007450042346,-0.0025134036326875608,0.013727335247429808,0.005799645692130886,0.018567486985457085,0.006227939777456887,0.015072039169345481,0.005422679530391818,0.005716338904972962,-0.0012313206767911899,-0.013543171388087367,0.012896460867398724,-0.0035246068142767532,-0.017263570826687516,0.03767604590988388,6.527627396861261e-05
EIF3L,-0.01366678519037334,-0.003904344342870719,0.007583089236994406,0.005453619400997327,6.11129489162081e-06,0.019722257532266644,-0.010454461634404883,-0.011801922008515384,0.004606422568199497,-0.005636015584041206,-0.017836921102438456,0.0007957265192696287,-0.008233845727183735,-0.012523454844920246,0.008675951411870197,0.0005057578316554275,-0.002668673036530631,0.002116842164236821,-0.002356578105956543,-0.007781340037389338,0.004001199364532843,-0.019134605880484136,-0.018752632467176095,-0.01208123582746231,-0.009436424103243898,0.008972430338906207,-0.005330204162083876,0.000510669618273641,0.0017307203901152776,-0.021196029369191512,-0.018226676106747507,0.002599621950949674,-0.010283216779325156,-0.007296154149204749,0.02142879302013412,-0.005363385510620252,-0.0009445083716405498,-0.006356520189349895,-0.01438762545887731,0.02094741278066688,-0.017022438274860913,-0.0005161493616872089,0.0011921003180548181,-0.0051610310505542205,-0.0046322039647788416,0.010339530559911804,-0.009130972480892558,0.02851874610880977,-0.008895082735551852,-0.00043690316378313266
MMACHC,0.00252478993468798,0.0035215114037469263,-0.008112512702354536,0.01147807616520318,0.010404408003162885,-0.0076533877117233775,-0.0017202943148322129,-0.0028979302934913527,-0.014473109112820414,0.0064641613334439855,0.0012870403160569728,0.004280095888799985,0.004518872254295566,0.004012039184804376,-0.010372729445582658,-0.015997986874046324,0.01688764997084654,-0.00010110021897806778,0.001082676163309882,-0.0025174745883490097,0.008672893290244914,0.010347233563457802,0.012050885116991136,0.00490949290344837,0.003030990453745197,-0.001422027024899517,0.00428847458317047,0.003179757110867083,-0.002353574791407979,-0.010563692654341697,0.0035057863764263544,0.0008987850692146358,-0.013092128452385273,0.014210867821642834,-0.020059257950289722,-0.0048569421483883836,0.010626433957346451,0.009533111694571288,0.0034523655461482575,-0.004506890608914501,-0.0011776518289303907,-0.0011169443949777785,-0.00419424905897253,-0.008027852375289937,-0.008021944061505205,0.004555352250383859,-0.006080077523442113,-0.0007556121907344096,0.0001439199412366623,-0.016128783728569095
USP7,-0.027763151851377035,-0.012404985494251218,0.026085946635291703,0.006451090601532099,-0.026304889267642354,-0.08910365002840698,-0.02756457259061079,-0.050867698970208396,-0.07837534684337719,-0.036740459872875705,-0.010740874829297368,0.0018682917206546761,-0.02308348313805692,-0.044764587632197796,-0.02627049298269386,-0.014608474170850715,0.011073803530830558,-0.009999707393322154,0.029644563030643733,-0.03686970290971902,0.06193504156254157,-0.01225990833407982,0.005008623936397309,-0.0018968477230726015,-0.008836064269890845,0.017596571234673147,0.08018445274544861,0.018565674697984993,-0.008263895774419614,-0.029539609627055104,-0.007596593014284423,-0.009767307920516834,0.01687904410988724,-0.013043120666217605,-0.014898687334582345,0.024099421238944287,-0.04030673969208315,0.02025512772401377,-0.005330621567771613,-0.044311159481271595,0.04833691182813629,0.0029062098193664843,-0.011342215512714103,0.0710830560587149,0.011184616115956081,-0.03189361424587516,0.00593858259035319,-0.04727920344364371,0.02426285540233042,0.029506742562323374
SUCLG1,-0.010548375783568688,0.006249546020244776,-0.0027795835845086593,-0.007199154151877289,0.0008674095965989522,-0.000677037575904312,0.015473970772248415,-0.002097377657098629,-0.007312379276496361,-0.00375100120050308,0.013737123182110221,-0.001033635090293675,0.004153583348561795,-0.0005994987856756455,-0.0054996701277251715,-0.016131277630297987,0.003016559720724016,-0.005520923755429932,0.009057648910766644,-0.00625737601492346,-0.0018767697417128321,0.0015768758149702802,-0.018312001313372905,0.010616908408878406,0.0008084770170967593,0.0013250552688043797,0.0025994397903917046,0.0011034528543208567,-0.005751189448733582,-0.0055185761846156195,0.002034367627896135,-0.001744158053493876,-0.001023068867158915,-0.0026902876917358504,0.01213139067273578,0.009200194493116784,0.0041651082397975376,-0.007244815731555595,-0.006641408602012317,0.011430934643440988,0.007731256492377508,0.007443770501954427,-0.012349876631837458,0.0049218052316436665,-0.00428149312026438,0.014669251623063609,0.00251964037310039,0.0062669095199803715,0.006552512591688575,0.005517397496889912
SLC10A7,0.0032854972053826766,0.0039462486473661575,0.006515652038086044,0.0076700125689701856,0.007701534790477051,0.003566231268565555,0.015572281793761203,-0.01111156182003796,-0.005506565202044785,-0.008487394741079627,-0.013489279981317869,-0.008745732460035563,-0.0006041064309988996,5.9901943775981785e-05,-0.003630459952726809,-0.02648348710682853,-0.01859181370097475,-6.173508703488558e-05,-0.005032275625169258,0.009052259294271251,0.006434859349521963,-0.0019596154414809586,0.011414475369416676,-0.01583947443318034,-0.012745545537280446,0.004430163837420807,-0.003004612459646624,-0.0060190527006971205,0.003809943922286119,0.009780978657997088,-0.014039917606327647,-0.0051609880977905405,0.013280041439864963,-0.007413655986393028,0.008794705972871126,-0.009098844445027097,-0.006401005546862878,0.005502987144240505,-0.0021013991388187376,0.011830244339554933,-0.011692219085065089,0.0033560527260658424,0.004127496950525598,0.002173034907175089,0.006384014662468322,-0.0008448698705341024,0.0034749608754730222,-0.014138992031171914,-0.004828536370017988,0.0015047411032350453
UBE2T,0.0063211985306844175,0.01906326247749815,-0.0028360401740204584,0.007067090522137852,-0.02065523717970241,-0.007743359456516692,-0.003342273669770835,0.0020549565081709647,-0.016845631096025823,-0.03465363247820386,-0.0003362936042323237,0.005406061195683067,0.01876943570574497,-0.006213927366525932,-0.007710875107510911,0.014235545679532209,0.0066962167543839915,0.004449930873281248,-0.0033368773203021665,0.0074519275501559986,0.01375939697347056,0.014490793926014425,-0.015825554278264632,0.014612780778881956,0.011387813345576654,0.014910009250514092,-0.01907343086186924,-0.027988881699074958,-0.006953041401979561,0.009627114599563997,0.03286212025034988,0.013629287244710502,0.004702731297817499,-0.023822997042002376,0.01618348076310793,0.006168637466833828,0.010236372244726228,0.003533354712254747,-0.0007270886564672035,0.009609978156272583,0.022192895236588343,-0.01856579415722965,-0.01943239011774624,0.010471564940504649,-0.0030312668567318616,0.0010114722431538428,0.009538295154463437,0.014064902507153094,0.019399864880139752,0.010601309321934645
SRPRB,-0.004662851440483093,0.006460882034025038,0.015951064685241635,0.003256642060896737,0.004872073549638728,0.021067758723211528,-0.00746622405514585,-0.008417079798231537,-0.028130653578691368,0.021252885014051454,-0.008658539119190812,0.01881971061348983,0.018635990015133927,-0.005826267840473404,-0.009514562292573105,-0.020851802491623148,-0.004058959582770789,-0.009133907174756347,0.0019786784873171244,-0.0005631695323648603,0.004128909901540954,0.00045599070385320947,-0.020011984875837566,-0.007452910322735469,-0.00435793922366769,0.007060303460477895,-0.010939080329869321,-0.0007770470175211645,-0.006034047453808753,0.015692638415677262,0.01641839279229451,-0.00227929388339382,-0.005761303594547466,-0.018582300971102025,-0.0030344044948166695,0.0016547827312693186,0.014999100076924846,0.011847559440360022,-0.003918654868010284,0.00032557071862403025,0.021290956035369284,-0.00917382518705732,0.02097871748378757,0.0059487423786762994,-0.009088042383518763,-0.006857715730019867,0.009045003723653236,-0.0002510335659839961,-0.018232892556832966,0.017623251243848597
PPA1,0.01244265103172078,0.04842719366780396,0.04165314623833995,0.0055401658274267405,-0.007513521482215328,0.01766242920668987,0.014501343407512676,-0.00587913297491418,-0.010236665596666349,-0.0026104227010692346,0.03042777871542491,-0.008778478043651994,-0.027057213165853074,-0.038938434190372004,0.016676347612353475,0.0037416113814449726,-0.021800159765938208,0.02217414224195832,-0.03216631287440835,0.008415087875626231,-0.003826969544525144,0.0033392914058842215,-0.027351416459732478,-0.02353351469589032,-0.012956574304343386,-0.009049195967482247,0.03439192825444499,0.016293925905434322,0.009796632668961948,-0.015928858691946518,0.015067173645070207,-0.001516318255880613,0.020501059819451953,-0.023576058940569206,0.009252691192598623,0.016485117664538643,-0.011392535298595676,-0.004093702689748649,0.02319057520880876,0.006108154393110134,-0.009875472227673088,0.005243208430970966,-0.022819110670984834,-0.031030272296069108,-0.027589620267199556,0.026965357794394136,0.01893586169922012,0.014750054218778499,-0.01128755107620463,0.008853764508780353
PSG6,0.012787499765364358,0.010062415963399757,-0.006678759524439039,-0.0018974045474859527,0.004515870301841441,-0.01227118837273684,-0.006975986324243732,-0.0023611390491795714,-0.011533991817297189,-0.011772534270988342,-0.005400799440064744,0.011731913071492945,-0.017222819103588218,-0.00954001828692009,-0.009255609156262548,-0.008112865161649491,0.005069532990004536,-0.01113376605382462,-0.010280759161466885,0.009983262089190611,0.00705646685739659,0.01005523766316423,0.006917384990922183,-0.0023971632177635567,0.0015954841817744704,-0.008402258683495511,-0.008108780058378005,-0.02518326182350292,-0.004719669584898397,-0.010431250393478036,-0.007029472993818311,-0.0028165098869464703,0.00857403235501576,-0.006381121306498162,-0.0032846228392131344,0.002310202479323825,0.006066600272490214,0.0017976915936602207,-0.0022764100696977293,-0.0050934972758781595,-0.007632711624731329,-0.013849942228091928,0.0014005098437034282,-0.003774831584728897,0.004208392446993657,0.00034786270408808937,-0.0027111468093973037,0.0029661258968408143,0.006065848675855801,-0.00180351857244224
SPOUT1,0.04045657504246115,0.043152507826994445,0.014353842010105648,-0.01232913468360357,-0.030643755194838928,-0.006991962895155594,-0.008073809124336457,0.007133705996501223,0.01714959316261757,0.023356950595395685,0.0009564973136815214,0.010534140504506408,-0.018193528679679334,-0.004912884229436416,-0.014904667610503873,-0.02947096519058242,-0.002083694682493912,-0.005285050913546469,0.01456699261287578,-0.028947712790655278,0.025907533047373248,-0.03516488676215805,0.004305438025937494,0.009965011791983166,-0.0162602552378995,-0.014052302596506694,0.00450565363465856,0.0028626154292277777,-0.00919523708682057,0.009388975122281765,0.013749941202551675,0.02443227408222519,-0.021192874751252117,0.01570544847941088,-0.03183360177983093,0.0008087348505824397,-0.0011300897684977161,-0.0017198899239618515,-0.03675814405491555,-0.007313917016609578,-0.0015037696925748155,0.002994061909772838,-0.0001303619491067075,0.008311422034263244,-0.004676100508659046,-0.005562112783371774,0.032067256321509974,0.031142855432432587,0.014750599607944434,-0.006313626885735603
EMC2,0.0012337832997404556,0.030735787136149148,0.006579022246610833,0.010314935194240066,-0.01426059176424959,0.001405577614597693,0.036756033239329945,-0.005904395185815979,-0.03734393017578743,0.008721532917822144,-0.0015578259907399032,-0.011482488118224367,-0.009314068664230816,0.009030058045232112,0.024088611566530308,-0.025900872574848518,-0.037415834395583894,0.012076208787689603,-0.00044249634845694387,0.03155499836357782,-0.03664412668010645,0.014122060242686389,-0.0013302724579792554,-0.005064002388086489,-0.0025237194229441283,0.0046827264997632585,0.022200136160696427,-0.01364104689499016,-0.020164891975449545,0.032907748976485865,0.006734048441285466,-0.004817828517709477,0.0160850924231091,-0.0032661819434961614,-0.009017282978395215,0.006519198346918849,-0.005088804422450903,0.013683893680400811,-0.005438347920219066,-0.002883618098736417,0.007727476874748144,0.010292837131765395,-0.013144555170722008,-0.004162655390754251,-0.013712372708155816,-0.00788946711915566,-0.011911023935692726,-0.010658249845264223,0.0005632727263509251,-0.017695372216694316
RICTOR,0.0026440561500895516,0.0005375992016324885,0.0029616204667568917,0.004804806992927611,-0.0029250356222126498,-0.01167138347713586,0.04941060004332484,-0.012609589896376859,0.019063185686630364,-0.005619409154927207,-0.03234937433726532,0.016335772008885672,-0.013886423665499643,0.00391585143545918,0.011463478378125886,-0.04247140677512587,0.014833615871278138,-0.014543115861987697,-0.03134051041746592,-0.035047548686117425,0.030174681167894273,-0.01670831126951404,-0.0026214131358665237,0.015306694226864903,0.008688561834151898,-0.015320464999945063,-0.001688250314922934,-0.006776407371139792,0.020728673426388664,0.0016392525087729753,-0.015121705713612165,-0.009432352505992796,0.02809387414773225,-0.006794097333524338,0.023348143502140907,0.0055423907499833275,0.020643668373519664,-0.009189693992054715,-0.012153389740105306,-0.002618294160266302,0.036574341944748616,0.005533341389051719,-0.03516997677439169,-0.004371753368351718,-0.034184423927296106,0.003255283759284613,0.008850631885075308,-0.034388600615394505,0.010909844725011148,0.0351871551751606
RBM39,-0.015950228564195403,-0.04011600122379126,-0.012183549937282203,-0.016119067869550495,-0.0010897968950421024,0.01980350478002785,-0.001197592949649561,-0.012877327089742879,-0.026178497666335527,-0.029102026263689712,-0.026824076095251583,-0.010781616572319444,0.010842846720187677,0.026137127414984446,-0.013670725727121018,-0.011529829243589071,-0.023789629693586365,-0.021735203843668723,0.0018990478479590557,-0.020424569531951584,0.025480366532374114,-0.0063751230913526155,-0.004132137087486398,0.02518324956362375,-0.02563574514338687,-0.03091696739888019,0.013401024306754498,0.0022617418059534267,-0.0053801503314475025,-0.0012718299171116765,-0.016064591230233266,0.043586563968904375,0.007035784540529959,-0.0227166124652567,-0.017345031538815874,-0.016440091569824525,-0.031202478414998375,0.04588548817609807,-0.016299453253088427,-0.008639148626695467,0.013333951018169879,-0.019021531484879298,0.02280349290365308,0.01110407017218837,-0.039603466741233224,0.013237319375319728,-0.011605297633858033,0.02908730036998193,-0.015165215861382827,-0.0013663264812306525
DNAJC3,0.0033125079375474534,0.001692863853433933,-0.0006576629791060089,0.0019359860174282986,-0.008559691042389427,0.011693819075108972,0.031040277212626408,-0.011265444198021267,-0.0015833745633710022,0.008071740486443246,-0.016932738726305817,0.005208374376591699,0.0005655039429965361,0.0006259203890217854,0.0034576318469128706,0.0028281631871599757,0.008219971924177012,-0.0014073710330445215,0.008100778379030288,-0.009464252169717522,-0.015737542191268765,-0.014175483116446673,-0.004256081795455682,-0.00043006879312498775,0.0035396988219075724,-0.006187480764571473,-0.009333230684696511,0.0005978983906096947,-0.011900509330509903,0.0023945918959328576,-0.018025035789345185,-0.02105188786661006,0.01783547701968773,0.008446718717772682,0.002589045500671165,0.008862052153952431,0.0019367544845008179,0.009536908699227792,0.0018808966159606611,-0.0049896147690035265,-0.006674931366395943,-0.003500866391895717,8.48040657134133e-05,0.005052830240152619,-0.015229772739925927,0.0009254807290936127,0.004986970562043918,0.015923481812523555,0.003848386712804179,-0.0007107015999381789
HGS,0.021786338647532436,0.004044074455590182,-0.025069445253405265,0.018165439606921633,-0.00035670520029902825,-0.008340641001096055,0.006556007746660794,0.008189718904466632,-0.007541170787050998,-0.032972940214599344,-0.00715586861689785,0.019752296714430156,0.05206970436584443,-0.025791817642803673,0.009982515933728453,-0.004310687004769598,-0.012597439271476125,0.018343903162136597,0.0022350221975023774,0.006499692095376273,0.015884435852584748,0.008492724721668626,0.015706817697129883,0.030270604929555817,0.014254566198044247,0.01162258648270018,-0.0062358614149019,-0.010721117551494363,0.007776020628821432,0.0041705013390156325,-0.016655872012019044,0.015521553102883938,-0.006348664863530393,0.02213165800206106,-0.013568914306971934,0.007240287547752185,-0.024506256928883554,-0.009345401455151416,0.024007681146639506,0.027185948666594892,-0.012254949154159329,-0.004235745133269398,0.03546692617896036,-0.023549864552782507,0.006400235594019026,0.006601749275765805,-0.029269087678017697,0.007511837189008102,0.01581998071205609,0.019056528710043347
UBL7,0.0003167318857931562,0.000855609700990813,0.0024626082084827153,0.005973637238264352,0.004481434138921932,-0.00704398776363169,0.013153018869126898,-0.0051288201067010855,-0.007119020022001068,-0.0010232166638006993,-0.005324902108556026,0.01684662049303163,-0.009366928287152685,-0.0042925153233674285,0.0008434982912882658,-0.004253999926532861,0.0036950203328183382,-0.011120695358397117,-0.0034127093131548765,0.0009880148831244628,-0.002810030485609577,0.006760164599860724,0.0028282199838818773,0.009272930729864294,0.002100914149896834,-0.0014955050109443536,0.0016000967527552332,-0.007690170246168397,0.0028676407342942785,-0.007437484117543647,0.0012862194468036495,0.002473012763137372,-0.002107394080482743,0.010188653533122444,0.007376845389709639,-0.002756984973610558,0.014067588399176743,-0.00420076867211455,-0.009450785540103566,-0.0028029935153259635,0.0013166651283035048,0.011397972778670893,0.006325638733552042,0.011275676773503962,-0.008790254518938449,0.01667088832839857,0.006260828427707299,-0.009272232363474275,-0.008779200512260185,-0.007741642071641301
ALG5,0.0020940522385344096,-0.006882600267925737,0.020290188246250854,0.009885248275308364,0.012398043853901088,0.01225426780904623,0.02894996667476252,-0.026355237819484373,-0.007016909615263795,-0.008605010350013645,-0.017880134189301962,0.011705709752009628,0.004816176690365109,-0.020216974577671916,-0.02658798187918216,-0.034232256129466315,-0.015933528427532224,-0.02154032247333728,0.006853458525966735,-0.009618619717826736,-0.006823883724791262,-0.0016821513066943574,-0.002612500208137712,-0.007795437465037367,0.006796918610677965,0.01019955135507478,-0.004487089213840311,0.008632795991937132,0.0027407091763343855,-0.002775387494730462,-0.012543373588065348,-0.011311120864780044,0.019179584469466323,-0.006326152881066037,-0.009474297972050702,0.004399388182848266,0.0022852221265050286,-0.0030033062261056107,0.0024057374528288645,0.006768572969292191,-0.019279708081763648,-0.011888176122689295,-0.0013971021682222114,0.012827968836518195,-0.016140758237314146,0.015842479558202876,0.01374750440741353,0.009236758904315072,-0.01063296541611604,-0.002410436989644365
ATXN2L,-0.0010817830561635495,0.010517957481890872,-0.006661505808714473,0.005836347606656722,-0.018279304802188853,-0.00970173592224942,-0.0056442910981615016,0.006888948281847937,-0.0190488027413805,-0.010603598979280537,-0.012156193913542878,0.023996308301681306,-0.0009042492927961841,0.00799008595845097,0.006568583307534298,-0.008509058011495138,-0.008162350077843676,-0.0021818228189616922,0.003036097772970972,0.0011861077451590107,-0.01922617764064739,-0.002398120329089828,-0.023858957185119004,-0.0038588831504142614,-0.004782434038701903,0.010969906851840069,-0.02384322327980963,0.0016145601733849168,-0.017470250418765987,0.003805951738942821,0.0005682981983766015,-0.014249134399006724,0.012869616608343487,-0.008918628636258554,-0.006024656462353779,-0.01105142500872661,0.0011980220347470479,0.029995768293725175,-0.01819376110661882,0.016388073852893096,-0.010718350661657806,-0.012206521613204445,0.006812467606006107,-0.0061985470810237125,0.009824676864992454,-0.002891652543502312,-0.021131794085579726,0.0021987516123845234,0.0025073742579303964,0.019103320668869384
NDUFB8,-0.03084621525117103,0.01668518694290692,-0.02336107031106742,-0.06045738358312737,0.028981482333113616,-0.021091688172900004,0.0188216683978019,-0.02358198744882863,0.009536534891820858,0.02098373638204292,-0.00464910382403461,-0.002670911004300974,0.006122183621132628,-0.030010417914577286,0.0061353171384146005,0.02965214474293919,0.009286621475167001,-0.0076118674700778825,0.02280641933298012,-0.0017193290322701062,0.017602142868113138,-0.023103139686884586,-0.00033502532823174666,-0.026085125206957546,-0.014182448255878633,0.0030428028987691553,0.004366551340518346,-0.009417585894061326,0.021229771745611876,-0.002262366006012869,0.006016047715243862,0.005354569342247273,-0.0006123825631784989,-0.006745187659848797,0.015306077124358032,0.006573551030938409,-0.003871118902816481,0.014441203852337854,-0.0021837499796348017,-0.007581480436588112,0.007077851726018269,0.016416415114398338,-0.014294327059080401,-0.019940501939128004,-0.012931858825166148,-0.016245592987059,0.0081717792913288,0.013544534001814467,-0.0009128757570795343,-0.007121042267467125
SEC63,-0.010744348521573516,-0.0016099689145751765,0.012718596420658446,0.012584811879027158,0.0034630967294038027,-0.0038360907303863203,0.019227912449808753,-0.03392646762932266,-0.0018720066463694418,0.0026422375447289603,-0.02027795301471533,0.003353862367240035,0.013180276791601196,0.011309350476143475,0.002047898547427894,-0.023920073682239713,-0.017100157779192816,-0.020383779489107308,-0.003180902456779527,-0.006967204325553841,-0.011511644319317274,0.009222699462166153,-0.01847045565321488,0.002739767793781083,-0.0018354037767732965,-0.01215634129512255,-0.00889861924483442,0.020879243304771585,-0.00809863502286841,-0.006122690938480654,0.005145301093535958,-0.042672426465138955,0.0224965996846846,0.0038443043658090703,-0.006727507717549886,-0.010641182998346868,0.024510856429233348,-0.021402878306915965,-0.0013341981975946127,-4.943689062615781e-05,-0.01699158220842811,-0.008541898255706424,-0.01800223054723053,-0.005718554889462887,0.0045115856133852,0.012146922249052108,-0.003705130285780802,0.03512294134667257,0.0022767459117524294,-0.013446297221243306
ZDHHC5,0.002878464922799565,0.005524797074243372,-0.0011197987161802854,-0.0014312268344155354,0.0038604873176245644,-0.0019319622926647442,-0.004457840121416075,0.010797926217882982,-0.018105326154963665,-0.011637043306709543,-0.003449542415918714,0.009813328044495485,0.002960155753002439,-0.012262646816719795,0.0041306679184363124,-0.00415724501192526,0.006206351067269461,0.016434084193585777,-0.006038551110925375,-0.01720260344841241,0.0012070668253007341,0.015121572463513878,0.006459735169479723,-0.003202687235717923,0.0019246342878252718,0.01148146714208121,0.011989880096703057,0.0068744281079535004,0.01374733108048933,-0.0010990310340324536,0.00010283187532850773,0.012810626005493559,-0.009742647612823441,0.005549082917838808,-0.0023608297028461346,0.0009050655932760809,0.016603468991165427,-0.009870758100532223,-0.004459368243414212,0.0069760593835550755,-0.009459436273713605,-0.007191185757591741,-0.007155582814420205,-0.006509517255339359,-0.003498529138492771,-0.01360719683453018,-0.008782211093705661,-0.007831414740003746,-0.008412058565766394,-0.0064115736221492135
PPP1CB,0.01262023836820588,-0.002845136722743757,0.015229030641197634,-0.0042547196750730085,0.0017698392068754734,0.024859617831345146,0.033349084055885034,-0.01751640476978037,0.008006575899105174,-0.01768679862746001,-0.02854688471862448,0.0134476766385892,-0.016215894589603142,0.006716770797818535,-0.026714990097655465,0.003535053697992483,0.03654339021789639,-0.017267579994955696,0.0140824285798943,0.018245957509787733,-0.002430828524729302,-0.013285084326858784,0.004724938078589553,0.033952596106825425,0.02589678332500615,-0.012379963388853315,0.007188973766742604,-0.003351663148296519,-0.055225408288009196,-0.001974339623247499,-0.016140918477123876,0.05019189549797603,0.01036433576004349,-0.0450311925816749,0.019820406455282463,0.0013583973703752434,-0.019981612976329756,0.009039004159177412,-0.012053540169594215,-0.045336038219426084,-0.008321721880636956,-0.013850305423445852,0.007383080612971624,-0.07281076667785084,-0.005989457867205073,-0.025015935685927006,0.009242033883741525,-0.03104041866678968,-0.011906015935344747,-0.030669163582451073
MAP4K4,-0.012963697343652379,0.0020197432139358634,-0.02180247261103045,-0.01575133972982112,0.01530198376490308,0.02519933873642619,-0.026662230014634587,0.019520219817985553,-0.02372811845686775,-0.01993001962447461,0.02091977504181498,0.007948855574751206,-0.009503933666673101,-0.005911810586820083,-0.001180962932946115,-0.018912956681106367,-8.731387667763763e-05,0.011643473506591116,0.007219277087126664,-0.02584639684548955,-0.0014611335340232812,-0.016865294044532905,0.012247981298213263,-0.00012348610071777702,0.01670221403546039,-0.006083561530564573,0.0027743317604678737,0.02527237475030804,-0.011354316090657623,0.0019064948786350398,-0.010715687321563238,0.004956739752384715,0.01783509799305405,0.005642272512003414,-0.012542506990123175,-0.015731767160253568,0.0042535592344918076,0.01370970852095917,-0.017896636968393293,0.01284230810592473,0.002187160808356856,-0.01311914210098863,0.0005772897123600668,-0.011189236700335461,0.003558447761530594,0.011649606821238204,0.024663618658460562,0.00031220728375066354,-0.014684778511888819,0.0029639931120429568
UBE2G2,0.0030126954526556262,0.015317588166248973,0.00034734985359738407,0.02189677616376325,-0.019612542522181465,0.0009892815600372835,0.05033337801560535,-0.003550582638005656,-0.004827088323294991,-0.007986691977281994,0.0009057879903524355,0.031961113988454096,0.013786575921463842,-0.00981982531970278,0.03272266571547902,-0.017917564450018016,-0.012067588583895604,0.009544770217092697,-0.0029182586590644813,-0.026254392579134412,-0.006621675455814721,-0.025254171326082014,0.012313325615811171,-0.04381072446053789,-0.009866343542690418,-0.005238985885928907,0.0106200990483954,-0.003281811858291297,-0.021443551226182408,-0.012695668080106842,-0.010082325422382151,-0.018648565657382956,0.02162538688896297,-0.004288384280414902,0.0052449091898441776,0.006070151982303785,0.0037288307815626417,-0.013471857612173151,-0.006477374508790936,0.003888365491668552,0.02984713321330755,0.029141944076579565,0.014313070506653786,0.001820464229869996,0.0074306173872191825,0.019248752147901862,-0.02859535143296748,0.025804332693087437,0.024781087647093334,0.006250657503298618
AURKA,0.022244041916680564,-0.015205525247921792,-0.010088833103956174,-0.033309009737349626,-0.005490086968807706,-0.0014151717297622662,0.0036150731196141453,0.006670913435467493,-0.004240414145780614,-0.005505659389459624,0.01612851656318217,0.002571444787048243,-0.024357790028470296,0.020856879574876194,0.010777109451641611,-0.011623838698002688,-0.024069661008605827,-0.03352800490740951,0.014410963582161885,-0.010849535217275915,0.020745649576626547,-0.003168342299634805,0.0001694354220569949,0.008460829910030868,0.032784121370242565,0.0332051314798534,0.004449395124731783,-0.007966959320795742,-0.006685627651425606,-0.000927678788517051,-0.0015147192481673591,-0.01823566203529318,0.004276948806021081,-0.0027771555190486976,0.015856596795310526,0.02047921015837456,0.0017895917124322138,-0.014021403086512957,0.02066376596610657,-0.005660957842081637,-0.005156276278844092,0.0036050314194177526,-0.04579609498699915,0.005817080687102593,-0.023752136375418145,0.0029400486039563205,0.0009048752297364914,0.02255339647690931,-0.010488849688746827,-0.01832449261599313
PPP1CA,0.0049076490232856105,-0.018109301367186862,0.016777545210921823,0.012722067673021904,0.0199144122213351,-0.004071086421639303,-0.0005735671239671527,-0.015189517517838395,0.01819352350126799,-0.02912031826587667,0.01019296061033237,-0.029111090766512564,-0.006183841390575408,0.009491545571175356,-0.006172143293377146,0.01505748021596295,0.00812635866301393,-0.002431503490118047,0.007828430228518929,-0.011362367050763426,-0.0013015779175824913,0.016011620904519235,-0.0053052209877223755,-0.009864311651785015,-0.0015496943106175062,0.009308006267976529,0.00012978725383684415,0.003686642312881738,-0.029807702265669297,0.0036246267081797537,0.023645242362192613,0.001953776516372877,0.013134800652270998,0.024250970139613578,0.025372581733597913,-0.006478783696779612,-0.012348523008791561,0.030391270744529946,-0.03035670323700596,0.0035587954670781006,-0.02546756963256171,0.004101073981250347,-0.00027372750505754107,0.02562539191953194,-0.0029394670669656174,0.005879550359845515,0.019765076844526695,-0.003912102117316865,-0.009432839161784702,0.010753908815551492
PIGV,-0.00036119393956804456,0.0020957431531538717,0.007207244480168849,-0.0001962356022666733,0.004876848334566752,-0.005330146536533061,-0.0005969827188665723,-0.0011038378909494456,0.02072976369040224,0.006671166022491144,-0.015070506014913426,0.000686472751756873,0.008101588659483199,0.005292662391357037,-0.00022930456341574903,-0.0034130790797384934,-0.010487725644525877,-0.0032592418909683867,0.0019815018067801905,0.0019267522853577768,0.006534530983430984,-0.0019597391962892824,0.0006566162294443455,-0.0004804960021384742,-0.004129684476261348,-0.0011874433853813944,0.006266946766212146,0.003781963698827648,0.0037571825688129793,-0.00024382977012380678,0.005202791521777491,-0.0006214082978226354,-0.0003341457703822129,0.0028216046550084595,0.0026097921576417956,-0.0015629373105462657,0.001973488304949573,-0.009236922636399457,0.006538154712831715,-0.0005231941021000371,-0.010385078007812637,0.009125452938907139,0.011228406093333594,0.0069108539117151155,0.005336571483745549,-0.0012648121822365697,-0.002861207183925019,0.019806347139831544,-0.005697150515721708,0.005680137408552861
CDS2,-0.004471977692364601,0.014445495866270933,0.013921592579522916,-0.0065818637581833055,-0.055690883856618884,-0.0016751757029480944,0.04918311174521327,-0.004479350411834953,-0.014879343195264865,0.012165960623268478,0.019292432095936018,0.018738141695877085,-0.007596602609912508,0.02099480913762906,0.016549909786881156,0.006092080807483423,-0.0011841018777058229,-0.010893344420998053,-0.0076867945473093275,0.014866706972688435,0.026746277037081066,0.02754119742757579,-0.023397664118126164,-0.004358479677845592,0.017445852933077897,0.02408568259855747,0.028469340156367207,-0.014938494821511826,-0.023727097501935857,0.0037423729595914296,-0.010311946165365411,0.008064493233684878,-0.012040465352307421,-0.025260175398015467,-0.006749997458454862,0.006487450992697857,-0.007621920593187115,0.031928153527855996,0.03633892323389637,-0.009457436828739407,-0.021028344451421918,-0.027155936857391826,0.03237381310807633,0.003880859412685268,-0.03820275550262115,0.0020565105623255955,0.0007605627869081767,0.0075628742816525145,-0.018900420629838845,-0.03545794604884229
FBXO5,0.0074925415801987,-0.03398436586299553,0.0015773988669841297,0.004568105160386059,0.031607837391496786,-0.007053796041727902,0.002879724246624824,-0.04461412743347793,-0.007388140253310399,-0.008302342613964897,0.04133396320577928,0.018275597544195867,-0.01867724103446957,-0.003346180100274764,-0.018534473692779708,0.005232744783235331,-0.03627898355836583,-0.023750954863118182,-0.03165766032276997,0.012708113529789069,-0.00415232488567259,-0.008264456827759644,0.02547987436923372,0.025213368923391523,-0.00032628105265613416,-0.008861954700396702,-0.002396545445256536,-0.06766270581569349,-0.02780824631872085,-0.01696574395659271,0.011064905764057508,0.026270874022020663,0.03527678152858527,-0.029697391697841805,0.03335685476439457,-0.022713879627393158,0.025851606857509195,0.04175859565445108,0.017379679728020653,0.012405438894746731,-0.016688305004157317,-0.004038132959292147,-0.04218672751655389,0.028824051126651307,0.01872978950563925,0.024532537276617063,-0.028542448806608302,-0.0004404612761867961,0.021254767382645517,-0.011365947419894369
ADAT2,0.005605790320957181,0.05137177116067513,0.02928472545492784,0.012323057578661551,0.018880029823114507,0.001589671321187235,0.014063230738560872,-0.006674946929610769,-0.006202602911715168,-0.02206869730214583,-0.03209996846591893,-0.029679254991206102,-0.010534817812157501,0.03783634301474719,-0.01017346650593072,0.0259441287167406,-0.007172735879840696,0.00794653936239632,-0.03918073331108173,0.005055021104439541,-0.01686383732689976,0.009345841045889484,0.003064023782262342,0.0026775458656391926,-0.01776663019218623,0.0006312864361676194,-0.001669632084179711,0.025130984412907887,0.019130455341692876,-0.007972278758525797,-0.009849351204979007,0.018035838698708517,0.026460568762627243,-0.030369027221636747,-0.03334772891604491,-0.015333073201413017,-0.010652594933645608,0.006528892356695136,0.007496885200379268,0.0077714446986426634,-0.020514191177143263,0.02583991199322372,0.0030140352219164075,-0.005074769946467564,-0.024747492615073755,-0.009667365347158683,-0.036047793038433924,-0.007476062656991436,-0.00013286485702446605,0.0002480391388375747
ECT2,0.03681791400428421,0.02229406950198688,-0.019294977432808124,0.009457949432275743,0.017013300622496386,-0.008618415483220402,-0.0258863058283259,0.02175387981272892,0.005321128127353195,-0.0201754192731857,0.0026679674026604417,-0.0034047123876609427,-0.04031886629136996,0.006130572088870008,-0.0013304539860034335,-0.00306755262973206,0.016816959053795197,-0.04301379615562625,-0.002946980288070732,0.027260779813929395,0.010985979271446953,0.002086363607695805,0.005432012054127187,-0.04105068874490824,-0.0042303879701396695,-0.008000354923313073,0.03383610130294147,-0.05370623301171094,0.0019047056297072,-0.020100946837640195,-0.0026185941867517028,0.02710488429600809,-0.005828712849417659,-0.005244090396184876,0.040459267824163855,0.013544825724970249,-0.01427731618862791,-0.012668262347144634,0.003923783615399873,0.0014493541954401,-0.03863951585043411,-0.0017014340254694563,-0.006308597659568951,0.002425271808639458,-0.026915621680159922,-0.0027061936993700575,-0.03858442174026871,-0.013318920870615734,-0.029909546876902577,-0.03710147191567766
MSMO1,0.003599679252883332,0.006947204719498119,-0.014148872178920694,0.0063003460590233444,-0.001748218427688369,0.008134731050136181,0.003478729606862692,-0.013066198698101276,-0.001456819103207344,-0.008506905129356236,-0.023579931605413076,0.0016371258695158444,-0.0050292010853019665,-0.008736078782766431,0.004085515527501542,-0.009903694018108209,-0.0009544149148476632,-0.005779920646357635,0.004483779695175538,0.01891648814402567,0.010699825070629897,-0.003855372218634879,0.013252504112032397,0.01287223865970315,-0.012222953148403916,-0.005808951367400585,0.001719573811102765,-0.026718341048562626,-0.024494979980603414,0.011164920961206696,0.0015033984056314874,-0.013998605776100813,-0.016754368746370353,-0.02161679291243832,0.003886231298329308,0.015278684788286596,0.004312750054828361,-0.01268420875422362,0.007022759014971964,0.00796797160363674,0.018663512117708305,-0.017580321019236272,0.002656081550981547,-0.00482130874691287,-0.0052648833847681,0.019196547030319453,0.016297913193180472,0.008128800382026893,-0.007720711032358648,0.011754352860722435
VARS2,-0.001477554839494831,0.05560582029124112,-0.020022574807188966,-0.04083363403864509,0.03152488959186911,-0.004914973220983181,0.020332580927544686,-0.019830909768919304,0.021036534221042003,-0.01830154372583954,-0.00291508900998631,-0.0050370545311473015,0.013832234907236242,0.0019515963660992103,-0.0005379927105556235,0.00180347795601416,0.006690435402929761,0.024965037055857165,-0.018476536472152954,-0.005401096217776016,-0.012462121970494015,0.003307455291957769,-0.0031653373554268284,0.005834761133138504,0.0022019070023820597,-0.0011377888972678133,0.027445626887710812,0.01141369053817747,-0.02047832422540702,-0.013852210112356595,0.019643083366778714,0.0014049449562264762,-0.014714941415630085,0.010428431221765776,-0.011484422506545924,-0.0067337700196896345,0.0028563550330859906,-0.012879440279749604,-0.011013528184639128,0.01084918709932333,-9.836768760760126e-05,-0.010869368871023528,0.016713401197557556,0.01469168047381667,0.005471534628710164,0.005131432705723703,-0.015913443783071527,-0.008329730856732628,0.009012508413959546,0.01772089334146575
COX14,-0.0035059856592091856,0.023257456587640623,-0.018343792593487247,-0.031246175232576633,0.009221845409631642,-8.750992601831691e-05,0.01456722713270094,-0.01640776055875227,0.0026155929837337493,-0.0004428371058845922,0.005239358628335245,0.011920469671067385,0.003536440170069921,-0.006123997304829623,-0.01428125261930439,0.008341400468863948,0.002737474529727937,-0.0012836421079418145,-0.0043714706571441105,-0.004417339776316598,0.010338921177427856,0.006731266328145719,-0.007910407815083172,0.00029835935742846925,0.005642963723366283,0.009838718526217512,-0.0006003504432951773,-0.0066085676136843335,-0.0011919869884370999,-0.0006924647798491133,0.007472779057729906,0.00033438454087884076,0.004226539420724711,0.00884108918971588,0.0037522460156314214,-0.004305419508242922,0.002118900444061476,-0.001025681810019673,-0.006200057842007335,0.0006076261447398737,0.009276756219478035,-0.012227046101950842,0.007377065433862316,0.02002627426418191,0.006836387833687975,0.018738182974094714,-0.008540685040228159,-0.001433970706639828,0.009069362383524536,-0.008573590494758856
PIK3CD,-0.006594587168959242,0.004203079401957349,-0.0055021046976719366,0.005333583078540041,-0.024438670781289844,0.003735258854448288,0.025617299209805645,-0.005556037718225486,0.011708663343556393,-0.0029020548063332092,-0.001990066759439415,0.010055958531012684,-0.005494837696091061,0.0007837527374472204,0.011448963080186867,0.00039760356306405226,0.0006919553211087419,-0.0028273326043433853,0.0068207343465691754,0.008616710551847368,0.008964753522380223,-0.006859528793582135,-0.017163980171902564,0.019311970559340884,0.006914615670485625,0.0006728625781234793,0.010985705130897522,-0.003667949928371344,-0.014456819620910933,0.01126492565326235,-0.0005902066448321534,0.0010095557388003385,-0.0026906269301487464,-0.009059909634383502,0.006934352945943372,-0.00046147526729096576,0.011955963306212798,0.0008655283687684284,-0.0001580726219738202,0.007749164180857249,0.010729218973922478,0.003755647512396293,-0.004411688199047184,0.0001038611575886366,-0.010719890528459947,0.01720519184204675,-0.0054755306177530294,-0.000606334457926303,0.0019614886432037858,-0.001037970129961328
MPC1,0.0009727357421243663,0.008127423716424496,-0.0017430552555424016,-0.0030225630878555473,-0.005835763781725925,-0.0005301348273022286,0.007933523812248532,0.001054546520773861,-0.0047968294946284466,-0.001288448485804015,-0.0022572047944837657,0.0034012594105944432,-0.0002763442855593052,-0.02051334000893497,-0.00516648229553175,0.007689017117184012,-0.0001709118218999742,0.013701238139221772,0.008690946424514954,0.013276641485182842,0.013810427787567532,0.000526137465148314,0.0013967179743811081,-0.011629344827902828,-0.006048131965715295,0.004920154375791021,0.008955511025974312,0.0068623884251241135,-0.011873612722452544,-0.007423990755577226,0.0106636934256237,-0.0073776132811195,-0.015094195828071037,0.004702501234854553,-0.012133514988721922,0.00878837821688191,0.017078837432385495,-0.006491583292351565,0.004396365365062184,-0.000847495864921204,-0.00012603951132406985,-0.006817673319922977,0.00038302906885723253,-0.005111625862222264,-0.0030888650294755124,0.004694256523370848,0.004101489838316763,0.0012845475638994064,-0.006281451690932091,-0.0019220978308822835
TMEM242,-0.016573215925190742,0.014575020276517912,-0.0018372713552378972,-0.03464000750160917,0.016354128509475076,-0.007965167093526905,-0.004434420857400454,-0.01330586743231007,0.0035108783375992552,0.011214935337104529,0.0013156834282877913,0.0032502924048669157,0.019045748424393227,-0.02015424577791501,0.005664475574520194,-0.0074302000498859405,0.01342926529456489,-0.012117449922846595,-0.0006425982047768775,-0.00040023349210761486,-0.018781027445433713,0.005698556242555589,0.014727306727547955,0.005370420975344813,-0.0065379512159993245,0.01883709228650281,-0.0291046911610801,-0.023025746156730854,-0.001968766340685102,0.005544536960933746,0.004797842961170788,-0.0043624338609583296,0.014057913884078396,-0.00954322357695301,0.00027155481856261436,-0.007958094235095197,0.011999255403893884,0.006824303951856961,0.004125601798269064,0.00805098735993979,-0.004089623109460035,0.00024755302716454646,-0.008915521105511325,0.0020055255694629614,0.00978790437761944,0.0012969477239168415,-0.002760263520023167,0.004129044699117034,0.006964744873090461,0.011659584913691519
CDKN2A,-0.0036654295198410643,-0.0015505750796534579,-0.007203921028777197,-0.004851469592556299,0.004745600077605884,0.028503439242405126,0.003167548017470421,0.0008474598511256556,0.008066915943368275,0.016080391904355725,-0.015643965051526997,-0.006640175133941978,-0.012791316084180012,-0.002988199504946945,0.0010596505762234787,0.017471336623006498,-0.011990959320132827,0.00825470724133022,0.02265271455384633,-9.841598385782293e-05,-0.00829333184984791,-0.01662955477811002,-0.016671341460559173,0.00015676411542822833,0.006388082521883618,-0.006470783860962904,0.009262563071231253,0.010821686540369723,0.009648954479160216,-0.004035683794655709,-0.008062617683073828,0.008417001894308627,0.00168037220049555,-0.001824960773410584,0.009036345017338203,-0.002963853253485991,0.003184126440142426,0.00753977977334943,-0.0011547461891626884,0.015289279495315451,0.00018384330160624532,0.012137188173534812,0.004036878411622289,-0.0023580603778010326,0.007409115858281672,-0.006178503312508001,-0.0017515508713755784,0.0057758281550350085,-0.005860582713682284,0.006698055869595404
CCNF,-0.005875433848037837,0.010468943013535377,-0.00829687440309622,0.00456657236268702,-0.022769853581855726,-0.017409817458328997,0.016910727827332474,0.018025170097935243,0.0012281670042468297,0.007791004675987131,-0.030491187214141346,-0.01578051591766279,-0.018069694578841,0.017320608987090338,-0.006746473644949517,0.005810254138771624,0.005235426568386313,-0.0012787294474951828,0.025584034414280112,-0.022609653804735504,0.0362779945279946,0.012139644228445295,-0.008135877958314344,0.008768258421212578,-0.023038379537837102,0.0197625707848643,-0.01722672248486845,0.018362440772634683,0.01768870026536377,0.003449669423574204,-0.03210187956208497,-0.0049713938989640214,0.007231524617361727,-0.039173333395306334,0.004037133627316425,-0.003258330942162942,-0.010095345036793551,-0.012000586413229276,-0.02215047999838932,0.016286596579106947,-0.0019530438212464933,-0.013806043641847768,-0.007892269587175576,-0.005562172868894776,0.013844504310376411,-0.0013333881824391007,0.03918771913033942,-0.007896649725193822,0.012802851957184678,0.031028329674603988
RASA1,-0.006822317900517862,-0.002323018973756531,-0.0068680848737399484,-0.006952453511612796,-0.004009805912946313,0.009839279336559441,0.009019153038028065,-0.002762573496662938,-0.02231152929044885,0.009000116993088144,0.016571739684362544,-0.005745914457850354,-0.013011037226616047,0.005473842800566425,0.007871952556044169,-0.004815052506718577,0.0016894948874324846,-0.006587106569371502,-0.0059756789395411115,-0.0047631463646290225,0.004569810253337911,0.0011469518584071435,0.006628613916416265,0.0027960693513125806,-0.0004773594966141981,-0.015432655052539108,0.00990533880043451,-0.006932798885650635,-0.00863530839346521,-0.01581077748593419,-0.0007178339857410104,0.013286493158365652,-0.0037796822253690727,0.00016090514627583715,-0.01377070607138861,0.0034868413703351047,0.02117613852916663,0.007795476038585729,0.0031813541488669556,-0.0018935765317031003,0.004272566868036199,-0.005897895431605148,0.002171846245660071,-0.010134000269588796,-0.00350363202149509,0.006578069937165432,-0.0011581695910046154,0.0015464995207358305,0.008004252585940383,0.005669348761587816
ZC3H15,0.0018237322364454854,0.008131241239465466,-0.002052833650480167,-0.006895877897385375,-0.0011076101335196023,0.01340140662390261,0.010098407359058658,-0.009305456944684657,-0.013697627189500215,0.002741045640680986,-0.010089078852517858,-0.0065959804362680785,-0.0107049487595377,-0.0038323889967840337,-0.008858358085820967,0.006895888279967593,-0.005828717615283729,0.009257711790513889,-0.006003363504821841,-0.00043250849056144543,-0.008229815570340217,-0.004376385479679997,-0.0008417730496252668,-0.004884454499917542,0.00306300597960417,-0.003362008740903931,0.006739471337762893,-0.006423593274150636,-0.01462686547980841,0.0029344357619918576,0.007365381879678116,0.0027294479991977296,-0.014947321918082634,0.0030815856992601844,0.0037689832574366454,0.002084671492549284,0.007802612303815004,-0.0011534037163884582,0.005135487766894438,-0.0075977783936789,0.0032616779543853127,-0.001667160621165652,0.00028815104625105274,-0.004532625752662688,0.001415961655342591,-0.0002903677537856677,0.0019851080861933872,0.022801649742237536,0.006133748101253809,-0.0019186136409513452
TUBGCP4,0.02632443785539392,0.013530716072218318,-0.005991231992659058,-0.006206393378601106,-0.0038640338597793287,-0.007040440625832873,-0.013742715299859962,0.05240927000113658,-0.02832202311233209,0.010943818793243123,-0.027995758651762615,0.026733297803645105,0.025926914853460343,-0.0025801059952308748,-0.0013060662487512766,-0.0065577729616493365,0.013801640111879952,-0.015056250255181121,0.020059062580634345,0.011632955991207996,-0.009901484584433871,0.019005061377043483,-0.01281177723308487,-0.008292470933100232,0.006880785242533395,0.022670975087309565,0.01691295854126642,0.001683254087148239,-0.006137717304479234,-0.013036987361145808,0.016799590647601288,-0.02391177966691948,0.006738074794499298,0.017532760802436907,-0.00726750304161079,-0.01340176105888873,0.009569097373539222,-0.003899568569261726,0.008866684849755876,-0.014135452383461552,-0.012464952423484402,0.012339651679367196,-0.0012750594727818647,-0.026669104197080108,0.025737284125176143,0.029574839782609424,-0.02556120508741311,0.002162114380549116,0.022376176466038584,0.04005917943552823
ARL8B,-0.0008417821261948973,0.005652174914249756,-0.0052420864519443075,0.00628924392128647,-0.015149441245596987,-3.5140147997699666e-05,0.012010199176446598,-0.01845235541981086,0.004209537758950104,-0.007055936267140598,-0.0008393539917563344,-0.00827689217039709,-0.01128721547609941,-0.006342151457858197,-0.0006148199294283213,-0.0064726160517334435,-0.006642301924805748,-0.007582784842940161,0.006047123174339912,0.015720660549210754,0.008226670287369836,-0.004292359791434514,0.0010676673979004645,-0.008732038615638925,0.009748749997927988,-0.011187661109787233,-0.006792669783197765,-0.020524608100741793,0.0029930946323708366,-0.009387596770957456,0.0041372953800718195,-0.017991971597319027,0.0074682148737381495,0.0029393429639321647,-0.003518101785974081,0.005278587945890177,0.016021139846784667,-0.01079997812441661,0.01735592141530073,0.020791107389959793,-0.006329414254952093,-0.006197142871502632,-0.006187750108169666,0.000752492332513117,-0.01874118111995715,-0.013210303672325206,-0.014407198354368957,-0.006321815022095422,0.0008796984120249829,-0.0021477758290147893
CS,-0.01695441319385195,-0.002744149936665087,-0.012214126061565422,-0.0086283223577664,-0.00248169167189755,-0.002913020177747078,-0.007539929818479832,-0.021001145711903924,0.00037069647202872194,-0.0015388335443027364,0.011167545671125585,-0.015509809327712317,0.00804852107277014,-0.015971641173262312,0.02025083596406506,0.001418083301333688,0.006283622507645226,-0.017262464817502748,0.004486441835774306,-0.004425302464607124,0.004195292963209725,0.0005195668964073537,-0.013118101203643758,-0.008268725615159891,-0.008608813441096002,0.008290197753273233,-0.006837875505865652,0.001233392677532372,0.005209280876362843,0.004729274447956707,-0.00857805673404551,-0.007733590183749937,-0.007113755688321717,-0.0036815027490287857,0.007345323999374485,0.008918173150079001,-0.01690169271921616,0.0026805896167855516,0.0035852422727069406,-0.0005910205651474573,0.010779057612714017,-0.014638020935918476,-0.009726958831424243,0.008078557168688322,0.0011302467231207828,-0.007950141507293298,0.014304661972192347,-0.0012243738752609555,-0.00019535225263029132,0.008798159532753704
UGP2,0.005315840072237582,0.01809465536282161,-0.011751693563280041,0.02372225932522138,0.006137406215461538,-0.0030012159455307017,0.023118568199571372,-0.03018823512731707,-0.008633491322205642,0.005582507785180924,-0.005591344255285059,-0.031225528993891145,0.010193404759655914,-0.006715669596435957,-0.03631744634045937,-0.021017655452374016,-0.02479995049848234,-0.01387591019671588,-0.005223349663412943,-0.01749707738589414,-0.008868111590545472,0.008019892748079707,-0.008821756875847629,-0.0017881415464542883,-0.013149082440031358,-0.0009016500718688225,-0.00017552439873103688,0.041031158386149784,-0.00500018964907025,-0.000917607099823463,0.005859227397637493,-0.001257217404651671,0.0018394189165722456,0.0078058901973482395,0.0023303039951900837,0.013248724735906466,-0.0070340824299526036,-0.011484853947481924,-0.015279706571167407,0.012380198393297124,-0.015809644795841644,0.029124700111425643,-0.005514184559968723,-0.0024471756250954565,0.003923048025149755,-0.006668135834488422,0.0001520383380965883,-0.001914231305581061,-0.016593794106641198,0.004952316087392024
NSRP1,0.023934579650174505,0.006830283529850147,-0.013028037221176795,-0.016239601156185432,-0.004538241222020904,0.014040018916711467,0.0001608577835503156,-0.014875169780485491,-0.033665429163120035,-0.000883813250067491,-0.009294487673412571,-0.004160357472759313,0.027682579155060602,0.01650646764328181,0.0038216731235020227,0.008469449112433936,-0.008026455655066073,-0.004783736505800519,-0.0019864124478633856,-0.018831796786871278,-0.002719823393928138,-0.005287557234372836,-0.0056958276315480765,-0.0031407257826305914,-0.001888838862356948,0.006094820626544219,0.014557045371151904,0.0016548713591044788,0.006878024935320999,0.006832433519127407,0.021013770969821096,-0.028613722310385163,-0.010461531155071176,0.017119371765863287,0.013595224911298458,-0.007657515051073927,-0.004898364476059527,0.0029288033693486933,0.009264952796920068,0.014071207171625397,-0.005410584971110258,-0.0009817683745543362,0.003583689903238517,0.0037227769351406196,0.005640683871290181,-0.003845189484642551,0.001823788401018698,0.006866008164836448,0.018767856475706494,0.017841129471463584
MLLT10,-0.004676435882198921,0.005199801313654166,-0.005539984055789863,0.003976569606709999,-0.006550628345935835,-0.002309216363855891,0.006160521359293415,0.0050813180759252926,0.0033234310960332954,-0.007946348773132285,-0.008957178117527873,0.021537490549977265,-0.008824890521635697,0.0008720149680510454,0.0014072096133847993,-0.001729831651919305,-0.006959954479366394,-0.017962491625267148,-0.001137039737103593,-0.011413697082515238,-0.018479529045232344,0.0029428842788433176,-0.007036630250445936,-0.021357710062385616,-0.003226943379786315,0.0035469949506027046,0.0028875891613175824,-0.0005995648290938712,0.0020221216016246615,-0.015740369468528085,-0.004395198064192972,-0.00010158482058249839,0.007901961548364604,0.001646149967706748,0.015030481343304002,0.00177242993160177,0.010864098841921556,0.0121661745366671,0.012970436745525398,-0.00278487547292733,0.012960091858102174,-0.014304368759174145,0.005821832228646437,0.011525523111757856,0.005923384652256101,-0.0042919550085447344,-0.004541812406780907,0.0005551588665388054,0.01032152594886875,0.02491010198840065
EIF3A,0.02967455331445018,0.0014123302312201258,-0.003995067293858364,-0.0029029529795767846,-0.0052951943610724216,-0.008134110718088774,0.00802770556383307,0.009880648009599612,0.04347473014186747,0.007487471646768779,-0.01016527705233151,-0.006264231310774277,-0.02321478810223297,0.005211488547112391,-0.013145291896167269,-0.006371604232237577,-0.019470339368313824,0.0463542755327628,-0.020944481714322023,-0.008819751706219866,-0.008715391291444555,-0.05077137442056451,-0.01557885926675309,0.027278046342093458,-0.030004093888324243,-0.027891592911708955,-0.0057574922546578325,-0.03273894648870673,0.03496602918750426,-0.009471778497169655,-0.010195054290404407,0.020360162533120865,-0.009399215577154143,0.011609488337756659,-0.037329326718047263,0.030461162149032207,0.03232590503464466,0.009813287978256185,-0.007557643186571404,0.01117799704150064,-0.0009157097851011045,-0.02029948357101935,0.02320151599980717,-0.009312454676499932,0.0013430271637716604,0.005772137223727743,-0.028292476170567512,0.010861467843300686,0.018395205725673203,0.02092278891512792
COPB1,-0.008182126630626035,-0.05539986122771373,0.005318906851795222,-0.0076680409899317365,0.016147415943692157,-0.00243201884501623,0.028654171025245048,-0.004076662010961828,-0.010844396230543327,0.02325491524357743,-0.027305709095636174,0.006116690112929686,0.014042468537588159,0.01185280324877195,-0.0061915386434345035,-0.023087150134885222,-0.04704399325893442,0.013876195874045372,0.017857639047435446,-0.026161394394553603,0.010238934509625501,-0.029237464512097237,0.0012796920776141872,-0.031340111776350266,0.004879241795138565,0.0040728796335963696,-0.005919616154306719,-0.01920186271841463,0.03291142528053471,-0.02068949556772169,-0.03921689717511864,-0.015194221669803564,-0.023690237766649858,0.021221873271164954,-0.008468454139920268,0.04099942550559891,0.0077288289388172055,0.013336084463931109,-0.010060984770924925,-0.0001821414230071863,-0.031164936762269526,-0.003777954104819388,0.031918958964580094,-0.025176505222362474,0.00838501642536143,0.027134835834131434,0.02435961674234785,0.014091160965624882,-0.03551760508701626,0.02580299426803464
TMED2,0.011729169192036416,-0.01784470809808465,0.0034007085011285966,0.013649273518139424,0.010260971621235035,0.005019304618854002,0.021974256211884115,-0.0028204246883755954,0.009888817803319145,0.013225981661779792,-0.03450965757929629,-0.007563290425564693,0.04189325773269513,0.00784042930268012,0.02043834823998316,-0.022240192663162225,0.009828330685083198,-0.00956885707004002,0.010057874087534878,-0.0010240968338061198,0.00781928347177691,-0.04805997263392647,0.043051003638690466,-0.0384532828341593,0.006698474306114944,-0.015393253817042983,-0.013836899270315032,-0.00024453030503928665,-0.002373958492579836,-0.009287977971539171,-0.013661319824671373,0.01668451360772985,0.014089401783290234,-0.012735272258035535,0.012392777622392359,-0.006638193426220963,-0.026875572054620635,0.01795594709054652,-0.006636889907290958,0.023581490191822558,-0.0008155107740406785,0.02575494675488579,0.00372297913236322,0.015350548261746607,0.03968823426391438,0.023996775588706245,-0.04192891705413302,-0.028071724801586335,0.03857354337625477,-0.04279616829654208
CTR9,0.022090609370869367,0.004213427580076806,-0.006775605069833517,-0.011896056941064487,-0.016171356614731906,0.02283372256256409,0.024284201736742134,-0.0007423606887134934,-0.030889760848023612,-0.013410453417524086,-0.004826882783672146,0.00013654780247640826,0.018160791960430883,0.007706431041864837,-0.013178380361571339,0.015044034053195739,0.018254318939914443,0.017706020392269935,0.03207301189655959,0.007901111814720812,-0.019146934766776036,-0.0048244560103974585,-0.00682183841766315,9.222844911835364e-05,0.0006729050686043035,-0.016931639408426673,-0.00043749247679200236,-0.00840436206091839,0.007606775263042234,-0.0050464740854504865,0.007409731273744335,-0.005143273931435919,-0.01425715164017402,0.008293531926268789,0.004323452276796406,0.00590799336880216,0.009972711065166697,0.006029065916698444,0.02059558530465967,-0.01124973326018645,-0.0016082964316400164,0.001380593604604239,0.026745309175666022,6.997589335920236e-05,0.00621214612769379,-0.010240420840679082,0.005182356932717892,-0.012243832890784068,0.006029108420855388,0.024440413500111554
GNB1,0.009738017089034687,0.011746645323758914,0.0025134442713115046,0.010497718798830881,-0.009320859275984018,-0.015496193740177997,0.01246682799041757,-0.00294212945293162,0.00786723081368198,-0.016896643295705827,0.0008917658291676019,0.016056431420579352,-0.003027689955567722,0.006083167697737283,-0.008763350289002825,-0.0024355841227032124,0.006309356406583666,-0.02708713518302618,-0.014807345410226743,0.013337746343116592,0.015346574439957846,0.010618813709277775,-0.010579662743537407,0.013458222476217021,0.0013865109590642452,-0.0039144127164088965,-0.0012116111314215226,-0.02804976877761206,-0.0264658531168507,0.00451194104872809,0.006552149979390121,-0.004078595286504603,-0.010392336816669378,-0.01008212683859408,0.01751001352249525,-0.007778986616912243,-0.008498996378744315,0.016831319347334957,0.0034741199224033246,0.012123586634780102,0.008731646812612546,-0.006857592164141159,0.020019521101673907,-0.015339299754782623,-0.006848733660453777,0.022966042145411588,-0.0062693376687959265,-0.013336358364436678,0.00510393672049102,-0.004878407322096526
KAT2A,-0.003475958647507899,0.005426074919234034,-0.010908237272298919,-0.0017160739073285051,0.004860574825908013,0.006080304217393221,-0.005479195372875073,0.0037176055772539496,-0.006037390556870564,-0.011564179575851258,-0.01586405214445524,0.014453758982513384,-0.028660154311859264,-0.0032266114207343435,0.0010001429177252821,-0.003104078955628285,-0.024335378822705193,-0.03423765009460809,-0.0015242045661704566,-0.001987083266395897,-0.012267862500121565,0.0052098663094417704,0.02933244251422593,0.024629248952569984,0.025927157687395685,0.0090962557153893,-0.0015799417807313297,0.0029609868881277346,-0.023009392799121633,-0.003541875833734149,-0.02495812201453921,0.03770622521041244,0.00033347846336230323,0.021903108137229402,0.009856458476663508,0.01915980931398373,-0.000994049782788438,0.00660280079373004,0.002711330926743241,0.008105631737837887,0.021239619427723403,0.0031494867501159524,0.015073506558137616,-0.011873498892208467,0.002712420792956936,0.014001444388453327,0.01142655325330338,0.008065485577210334,0.012392236079650726,0.007879729953198604
UBIAD1,0.017283040807488752,0.0048411297070278456,0.024673030468774188,0.013038715071945003,0.007834776744237515,-0.057868396861252294,0.033942616396727174,-0.033276488832480945,-0.032063827158735944,0.054897992937645974,0.04896843170498568,-0.005182685995896175,0.014508736089710334,0.036244876203875245,-0.01414126047275567,0.012564456472046574,-0.01477908065042055,-0.030163037208041303,0.03988396067470606,-0.0453721490966594,-0.04819217495647511,0.0552098210566316,-0.05505305998992255,-0.04293665691218564,0.03030158409508501,-0.02709516344586278,-0.0159704854195008,0.007511951987438587,0.0019636987404127813,-0.028678399286207232,-0.047917048120888796,0.07877327788098841,0.0223001921291858,-0.02056667297509447,0.016480837289137597,-0.00252469189832008,0.0014102852879069089,-0.03773129476548923,0.005347622348964686,-0.01476250562971437,-0.0023260531119530903,0.04083060388501111,0.0023996439969377055,0.03155405817154549,-0.00022837891149212028,0.0202108552728789,-0.04488076067318077,0.02235289748297453,0.01624846209043623,-0.03784099789358262
FCHO2,0.008457041651567604,0.017162677449395015,-0.0006144545832028992,0.017213237196279454,0.027487798311311044,-0.0059404936406998584,-0.0092710266173174,0.00899129469928824,-0.03492164898039396,-0.0017770207063415775,-0.012731384370360529,-0.0523332252589279,-0.0018609372695440384,-0.015445859909212798,0.0028513689813273934,0.0036854786833068554,0.00016073050630658272,0.020888730340694293,-0.03003703100574918,-0.010716276834268951,-0.017213293717848466,-0.04452200657256452,0.03546889364873718,-0.020556343936195685,0.028965415245899358,0.02309487457148946,-0.026270888570439202,-0.011096676639323374,-0.006047529597081806,0.01296418195472701,0.00810411615847049,0.012163309286453145,-0.00464681857018051,0.0031830847259677244,0.018106547764309824,-0.012294053112957094,-0.010783511543471952,0.040546175132390436,0.02139459738117498,0.018996503891624755,-0.008549028460712229,-0.01086507240556267,-0.03567155946754137,-0.009651432499323941,-0.042074648437087435,0.005996771220922249,0.015578969662350693,-0.029322014918942412,0.012152880238004954,0.01774096865106058
SLC33A1,-0.0021835683307418843,0.002777326741160459,0.00030129688832897033,0.01930569639381286,0.019838238076649445,0.002798741897464995,0.009656089957289834,0.009408030293492116,0.003866428306396101,0.0023681086472636145,-0.037308942307143676,0.02582899884681272,0.0010756299760600612,0.006269360454629895,-0.012362582123143645,-0.026725523677735865,0.0011806952846675686,0.01170592179985729,0.0016848205897941838,-0.03730980528935318,-0.00936044861790939,0.015012599014354509,0.035398390055638336,-0.019583420279698397,0.01918562844393955,-0.00791204186145203,-0.005030358869854199,0.013184676828654747,0.021652086419714126,-0.008774077132504079,-0.006672913246014536,-0.04389952734298851,0.0024220618901166584,0.0288899513102127,-0.025732106684125615,-0.022564843354303855,-3.754457858447599e-05,-0.027244618809411383,0.004379423784657437,0.006343059215934095,0.005427280058229299,-0.0252941410430434,-0.004114783775293034,-0.0034122731805073434,-0.026849291095765438,0.018266559949171177,-0.030879804133595885,0.05627926972442187,0.029553905529882078,-0.022910194967385337
TARS1,0.03838763119226524,0.008204565015150643,0.010263077331966054,-0.012412268021744277,-0.006769066527861194,0.010586312890414158,0.010404474818694867,-0.035128039451032864,0.008110933348129226,0.029493080881046164,0.013415059875928453,-0.01990171153235945,-0.02899051251730502,-0.01967708855924512,0.010003349140198093,-0.0247807170966157,-0.04212516530861723,-0.023457710512467887,-0.01775580059974903,-0.0018308254433680436,0.017712489221127777,-0.008846828766039944,-0.018469976759069383,-0.02188407168200288,0.026980125314004726,-0.025028376921751735,0.025006232624504205,0.02738684840360351,-0.0014683636785401788,0.0017516147368376203,0.027833850289234973,-0.0053524923813797224,-0.006121802699507726,0.010855746521920055,0.020293623352300026,-0.03577196791121732,-0.0001485075476190857,-0.007042784246301188,-0.005912459899277155,0.007203172662283783,-0.010971752904321721,-0.004527010139590695,0.011881570930446544,0.03054163182122552,0.02023509947062305,-0.01447909135818212,-0.04672507852090218,-0.013437320216910024,0.012768557441101582,-0.002017137785020043
PFN1,0.00835358084079587,0.03182055968121264,-0.010367584465858459,0.04857370246253234,-0.005513971547709592,-0.022691327985477763,0.019220800562700636,-0.018132592063768774,0.0302786775427802,-0.01568424031188522,-0.010595820902309544,0.022830790826458516,-0.015500947320119102,0.016092344602618498,0.060936775832562684,0.008476015660850931,0.015125408680597814,-0.004702535131697799,-0.006693781317175928,0.02429482181612697,0.015195344772730471,-0.0034119647132861215,-0.04279885451117024,-0.01364322130395886,0.002417544783024143,0.007209059409468385,0.04848597143890499,0.006252547649258966,-0.012196674476038505,-0.029979173015994818,0.005289236185963249,-0.01261015256298804,0.003829711453028298,-0.0426073668252551,0.00843625962716795,0.02600405103112671,-0.01825335036833136,-0.004182991794683775,-3.686058873960427e-05,0.03794162811379591,0.00196588154322919,-0.0035823103693884617,0.06383359243950726,0.015384731615982144,0.016521242542783844,-0.037159959362923635,0.028635471954680993,-0.002493172867909715,-0.035225532427652466,0.012255182062303414
SUPT20H,-0.028913981435062748,0.012971723195226515,-0.043217462827911814,0.010533514586186305,-0.01820115053598982,0.016825459759184813,-0.017446003715537103,-0.020372754942671132,-0.014376835191723631,-0.0063038680208301525,-0.029137811944980534,0.036372398999825375,-0.06297278859747364,-0.007995908216869253,0.02441233746540322,0.01260094008332448,-0.06543047707080347,-0.034865184666196425,0.005748962033535578,-0.04687010061311859,-0.0015903071380585563,0.030149154431744624,0.01930535043432383,0.001328945093761363,-0.03347760186919888,0.02243422374565019,0.017502284629344105,0.028053127758085612,-0.031234909196545105,0.007599039925143141,-0.059148808841526464,0.0746962686117541,0.04133259586824645,-0.007487333229174893,0.007721370254224327,-0.00014760825002220148,0.022504511968323454,0.014596794311569824,0.01087759142495766,0.028603711083816936,0.04397468937390336,0.018641976967907446,0.005836033986240113,-0.024868039517516257,-0.010154545391801814,-0.005844683402010721,-0.013091558462832963,0.005737544822514693,0.040718463985920016,-0.001745212042119845
CDH1,0.00640079490339629,-0.0009088177986924944,-0.007397965388911973,0.005632812377169473,0.016030556351205497,0.0015283989043747687,-0.009425586448080059,-0.013921799327277922,-0.0009584229907582079,0.009275881759716147,-0.00503996397996432,-0.003770924138353395,1.1827087756960318e-05,-0.007260863956919127,-0.004126685093227389,0.011703626499881733,-0.012462529613165043,0.013628044703382606,-0.012533227127507403,0.0066569219622215434,0.01576217688119614,0.0031492131269566293,-0.005099958476099603,0.005625642693528051,-0.03853389754786976,-0.006397337479069254,-0.004708957521571605,-0.02168414125991128,-0.007711055125456472,0.007870193121956812,0.014616614406494073,0.011480672982782889,0.0025986429319905455,-0.00015834061127097444,0.029724422957770634,-0.004060551567937408,0.00221292393350756,0.008897477031873753,-0.021292650318453597,0.0056785148497448725,0.01616081726441296,0.013252260845090225,-0.016418576947170516,-0.001701256733803234,0.01173913753894008,0.012989879308172636,-0.0003169438124654975,-0.0025097199399991667,-0.0037534284805848055,-0.02435984392176645
DDX11,0.02122430502044805,-0.008230922251643647,0.013039797383083024,-0.002783212509863595,-0.02798731552173313,-0.0055068855469765,-0.0034403429222919896,0.040004379109498216,0.0031888890205097366,-0.01144994868278474,0.016526857440272057,-0.0035943351058611702,0.014997965999491004,0.029728449087009466,-0.03981393959177552,0.02577232855769725,-0.005406860036111578,-0.03557426089154794,0.01600638002466662,-0.025569279056076557,0.0003344817663157253,0.02108082914665595,0.03658418804050509,-0.006020590007043871,-0.010469385076101644,0.031744227450629055,0.0007452684616150272,-0.008924119978930119,-0.006796547842074397,-0.04779835391300667,-0.000917542092280491,0.021453516480573455,0.021318555171933807,0.009375772013137504,0.0015934197535377227,-0.008132535358506419,0.03587626574038748,-0.01810063400267516,-0.029138686863761334,-0.0019484664696318595,0.011883369847396182,-0.03587207388469738,-0.045711252886512184,-0.012841160463448706,0.012985158122168909,-0.03586367699311899,0.007548987034762873,0.0011451769244793534,0.009886846749918923,0.0011568185467037487
ELOVL1,-0.00036360976310442756,-0.006173483655470322,0.0032291483231120205,0.011831000184612715,-0.012142210514490647,0.016090577320278916,0.03093122316769457,-0.028163984050994635,0.02318795321478268,0.0004089179023366094,-0.012594702651052418,-0.005025440830345854,0.00030323089971198816,0.002301638302327041,-0.0018236442385317698,0.00834463361059739,0.011184203031279283,-0.001672828050370024,0.007887467510234097,0.0025474350631470096,0.013315555923659891,-0.0028709692610039716,-0.015351756890970793,0.008249306252212717,-0.007857185901131663,0.01434993616453388,0.00090814311593178,0.001671376361671339,-0.016171657920452616,0.0034111794925928505,0.014367508403932637,-0.007297372576658714,-0.02206110672779642,0.0037038556079554475,0.023045799705944052,0.016045655074362654,-0.0013623539142327192,-0.004872972826355189,0.011121590058501496,-0.009426250366801184,0.005044344374550702,-0.002584686375603175,-0.014041525201868762,0.006454335399763795,0.0008060996366362029,-0.01896867468092472,0.01887673253983604,-0.009370407576990463,0.0019791997159882297,0.010149887639643784
CENPN,0.05856585730490006,0.040519706954887456,-0.020448170837354146,-0.001157554711653804,0.009218629566616458,0.01521111222310315,-0.004212778270672107,0.013999313510687705,-0.007645138064294591,-0.008850455698420572,-0.0005962655488314566,0.0011198347635738273,-0.045906591174252664,-0.03060858147901401,-0.013466954892708409,-0.041357070187805246,0.01041814410921754,-0.01426562365048339,0.009256873085945973,0.02249756439935785,0.027758901367472038,0.0183382391710293,0.02570951692499651,-0.024823335167978234,-0.025846643566574328,0.012832022462630916,-0.006023538814150546,0.0038679061410530316,0.006566402610891565,-0.0027107917517372624,0.005266278379367217,-0.017871980076270867,-0.014558261325353018,0.028664049690976263,0.017167737112253875,0.016870783056947176,0.011360320376235508,-0.012555571445249521,-0.0019896584851068176,-0.011979493972753755,-0.009471049854520585,0.0084898932698043,0.0018981877467689429,-0.010798687799918688,-0.01508584369908436,0.039023351196105296,-0.008328841585602698,-0.0031208127472456683,0.0047953347692105104,0.015397323998591731
DCP2,0.008095390925182655,0.010187886189174827,0.001032484217661477,-0.004555119464305108,0.01176608410085801,0.012495313273113694,-0.0009022962983933832,0.010385698056672768,-0.01656502497847167,-0.01854263704797802,-0.006796267784154841,-0.007798209284163204,0.014834522612387631,-0.0019804015237904577,-0.018750722531101608,0.005059759662629086,0.0007193981421969903,-0.008636207117916494,-0.0015580944291168314,0.008754543938386948,0.00842592763367929,0.0007397936973963075,-0.01062636382829899,0.0006141804668991146,0.012021615473338092,-0.005789681287022232,-0.007621888090446514,-0.01658741825647483,0.0006125394806966075,0.013630873753274956,0.0003719258928158487,0.015169090108010565,-0.006505500645635474,-0.01445166139185218,0.008653717556172912,0.00808985253138509,-0.021141979808127032,-0.0021828382870158953,0.0062322512925118865,-0.014801185262379685,0.00984587202737285,0.038941469001267916,0.010846269763164117,0.0022517329741990988,-0.0058856062788458655,-0.0232676708498021,0.028226786005951427,0.03205419562095671,0.012729517854780525,-0.01050977606882967
TFAP2C,-0.013837198474168427,-0.010211190923639533,-0.005665888898785214,-0.0009987850139425737,0.0017414830565422434,-0.003770652120971609,-0.005112808956613542,-0.004849088205614702,-0.0021990036185952962,0.005558937957927804,-0.00347822288183775,-0.015595517522697607,-0.008677232062144439,-0.004108496520419672,0.02088779395092999,-0.019196033022984078,0.007088001251338313,0.0014466085524704583,-0.029422661519925127,-0.02488903181504187,0.010663619343718931,-0.013468259570380184,-0.004934502553034895,0.03374082861707935,-0.011368693558990983,0.027368660520077834,0.00828608323762674,-0.0004353023613261251,0.009157287742541821,-0.007589433675148697,0.013934492846717435,-0.017927035911601163,0.013377253867158018,-0.01962793347430969,0.014824892749238093,0.012111736821850698,0.008219855247766594,-0.002112838316010644,0.003066450642484259,0.009049401906048445,-0.006937518627869563,-0.005964753246075353,-0.006507864210837559,-0.00765083793906688,-0.0016999976623886994,-0.009306464571996775,0.01883917633161902,-0.01632639202594167,0.011403270768856149,-0.019263332127782237
EFTUD2,0.02287590234377317,-0.00795992016121702,-0.012793859050875163,-0.0057200144083795436,0.020218413842525568,0.0027369813084602026,0.018278816491630965,0.054121116086555905,-0.00853613652678199,-0.023330278490885,-0.0005700519792074553,0.014249818628124765,-0.02081682478522926,0.0301684079650746,-0.007663157885581565,-0.019054106440752238,-0.009488778994543071,0.03037818148964135,-0.0101692508255963,0.0011866204328958008,0.0026950230963334884,-0.021249283664182463,-0.006015949250961951,-0.00033710678476995,-0.03503275072826316,-0.0037537773174523394,-0.01969632723135887,-0.00048538994989212505,0.01676876177895687,-0.004401439335575805,-0.015068385231406026,0.02227105777970482,-0.015086277176402088,-0.006375350254424798,-0.02751425826454288,0.015097596875338392,0.021187461206811697,0.0192853833479785,-0.010198441628419253,0.049729791167842395,-0.007858469725522003,0.01716382647999176,0.008892080857862857,0.026808123870426442,0.01199536171934135,0.013412636961906164,-0.0003469194965333066,-0.01575194908046073,-0.011592302464517963,0.010663408783783747
MARS2,-0.07637366310253678,0.05267563854208693,-0.0027358638143975766,-0.07593459752573932,0.05504217266409195,-0.02470084781269799,0.060585112887283216,0.0040019190657492945,0.02510600675208162,-0.01513263656699691,0.01593084071434028,0.009929090699799328,0.012557731706298472,0.00514813213504806,-0.015334361950180222,0.024969062817432996,0.014505035069797525,0.01527462077931363,-0.000793751674358419,-0.0015140480511569453,-0.02274668060747625,0.005588117178715473,-0.0016749062937354406,-0.013246486031531841,0.014000099500125374,0.009346932819428284,0.022922915577949544,-0.00957216948035384,-0.017570702567763236,-0.016586082804740748,0.012324988208181398,0.01855190689631907,0.003931992363474456,0.025459682540768563,-0.019842047791401366,0.012194285625017082,-0.015399143923137737,-0.03509077351683338,-0.016838733664982782,0.016975625518717185,-0.018361506203199127,-0.009527492899896399,0.02900190822490135,0.013166285848331514,0.026028601882776038,-0.027384687550860265,-0.012387235607937308,-0.007929554005713147,-0.014527608385989418,0.05053691748345328
